{"layers":[{"out_depth":3,"out_sx":32,"out_sy":32,"layer_type":"input"},{"sx":5,"sy":5,"stride":1,"in_depth":3,"out_depth":16,"out_sx":32,"out_sy":32,"layer_type":"conv","l1_decay_mul":0,"l2_decay_mul":1,"pad":2,"filters":[{"sx":5,"sy":5,"depth":3,"w":{"0":0.11603672763630962,"1":-0.01859866189953305,"2":-0.15187087936727067,"3":-0.15466940810976015,"4":0.04232276112049174,"5":-0.20077247220595207,"6":-0.08508846103296369,"7":-0.02925284947836944,"8":-0.13389152535685625,"9":0.37538127035710755,"10":0.10925544548225327,"11":0.2332630000211685,"12":-0.007940405192347963,"13":0.12441727242348993,"14":0.1355681241153724,"15":0.04879196597754529,"16":0.01501076822572512,"17":-0.09341295464564099,"18":-0.03054219706520018,"19":-0.10920019123185384,"20":-0.05742498693809154,"21":0.2085836956793279,"22":-0.15785381352230282,"23":-0.2799544057916719,"24":-0.04650676658592079,"25":0.11517478000305116,"26":0.12707367926378063,"27":0.28880772562516677,"28":-0.012815243744438534,"29":0.08520177211082754,"30":0.10717336292977916,"31":-0.018667647426017824,"32":0.09557317044844084,"33":0.1849033173357609,"34":0.08340704274736914,"35":0.23372096890837185,"36":0.01747798527302486,"37":-0.2383065694349874,"38":0.07132157365543627,"39":-0.0377277326845585,"40":-0.09648791953762612,"41":-0.32097477687104065,"42":-0.10032982995770573,"43":-0.017601386547831332,"44":0.27563248487087605,"45":-0.02237247093255567,"46":0.033309307021075735,"47":0.07483957308434001,"48":0.3236745237349405,"49":0.2169535557854868,"50":0.1797481679669647,"51":0.2583702784875887,"52":0.21922201827548404,"53":-0.09010179453410552,"54":0.0028357896004200427,"55":0.06439982525227166,"56":0.023313168932705425,"57":0.3182138417993266,"58":0.1997135612031331,"59":0.13159250869356479,"60":0.06653502486023048,"61":-0.00831876991220522,"62":0.02797930425326421,"63":-0.1421700271625216,"64":-0.09319763643243391,"65":-0.30897514074035204,"66":-0.0813278422097873,"67":-0.05009878228995206,"68":0.1605717133909969,"69":-0.6124841956519873,"70":-0.24070985957201918,"71":-0.3629970772023303,"72":-0.3861306563368705,"73":0.05993757320775043,"74":-0.15369389701469988}},{"sx":5,"sy":5,"depth":3,"w":{"0":0.17874008707289363,"1":0.09112974252881069,"2":0.21721384747385636,"3":-0.2751236486729626,"4":-0.06874580340153966,"5":-0.020473188199316796,"6":0.054192242953774325,"7":-0.1649657433752422,"8":-0.11628621111431144,"9":-0.2607812480663725,"10":-0.18194476239522914,"11":-0.24435356829094648,"12":-0.12608510446953036,"13":-0.19060585027931407,"14":0.0968362869467766,"15":0.013495827209571116,"16":-0.06867244046482832,"17":0.03788070163626094,"18":0.06108849393663241,"19":0.10989362636447628,"20":-0.07841784721577913,"21":0.02658512174723644,"22":-0.12948407568734704,"23":0.2007300101497336,"24":-0.13146041767680308,"25":-0.0489596776244108,"26":0.020317975636747917,"27":0.107955029008511,"28":-0.11079278022941394,"29":-0.1229944667668838,"30":0.12605837231243752,"31":-0.03337950690668971,"32":-0.08145153373618644,"33":-0.12803872771017633,"34":0.016145205449279082,"35":-0.011360093006646095,"36":0.020385502672603324,"37":0.14560699258038898,"38":0.029232947010632972,"39":0.04361934326695359,"40":-0.04512195497723892,"41":-0.04535501022391082,"42":-0.12866489415418725,"43":-0.11773790096658766,"44":-0.040270093810128374,"45":-0.09976582366422856,"46":-0.1223113911396462,"47":-0.13915105750420823,"48":-0.002657738609856178,"49":0.12854234702109674,"50":0.20874164630645534,"51":-0.2152659005827269,"52":-0.08268475365987202,"53":0.05387170865526034,"54":-0.11954599600444148,"55":-0.13202121622391902,"56":-0.028141640947546922,"57":-0.10481476988513855,"58":-0.16193691662852866,"59":0.0011489162752121832,"60":-0.04528001517806787,"61":-0.01921634210299878,"62":-0.22736178590379305,"63":0.01540788981033657,"64":-0.3694781644822186,"65":-0.18166468265480995,"66":0.05340692230230163,"67":-0.09999715873834857,"68":0.126621192523456,"69":0.11069548775896344,"70":-0.016949076207492877,"71":0.21212169559905658,"72":-0.0636722094717172,"73":-0.34002666351145466,"74":-0.20319328615696064}},{"sx":5,"sy":5,"depth":3,"w":{"0":0.09299391837776087,"1":0.01685446607748019,"2":-0.17768279056068903,"3":-0.08367437462782296,"4":-0.23396281791479676,"5":-0.2936455159399645,"6":-0.3061131864771988,"7":-0.14039860361627104,"8":-0.19741517472811834,"9":0.052121255572444104,"10":0.10132542259485283,"11":-0.13227225527448527,"12":-0.033574533698233634,"13":0.040960889939341424,"14":0.22975395377227428,"15":0.13741354715903706,"16":0.21475895562525774,"17":0.04349854189560895,"18":-0.1907460551256515,"19":-0.19748381761443828,"20":-0.11297455483146947,"21":-0.091366113265117,"22":-0.2585577412098467,"23":-0.1941610636668941,"24":0.08672918862366372,"25":-0.09031429964688321,"26":0.026909102544632135,"27":-0.12409159058325606,"28":0.14908907615422096,"29":0.1474169143678855,"30":0.29338509605700847,"31":-0.09306960500821063,"32":0.07097586586186064,"33":0.12486621024462047,"34":-0.007279885109546908,"35":0.027340793117606434,"36":-0.15371886063998164,"37":-0.2289011481601378,"38":-0.3240901056191226,"39":-0.3968207117414301,"40":-0.23004767001891577,"41":-0.26857896424636063,"42":-0.07800303724422075,"43":0.002045491866618676,"44":-0.12160597201997429,"45":-0.017752438956335773,"46":0.3081936831170364,"47":0.22810047956207585,"48":-0.04701678490417111,"49":0.28745335891509655,"50":0.2896551983177828,"51":0.21988064921857395,"52":0.07712093589521236,"53":0.30043099844434706,"54":-0.17867102234799803,"55":-0.10369376415987117,"56":-0.01835037304957031,"57":-0.15745069519827196,"58":-0.18403299917493765,"59":-0.18599263942633248,"60":0.45993258578522495,"61":-0.034695986710502995,"62":0.181945432835872,"63":0.05155278622623955,"64":0.20939233793722972,"65":0.2946273724201021,"66":0.3903946550980262,"67":0.16675877845270357,"68":0.0016880583719337643,"69":0.17115847729795486,"70":-0.1026004484839716,"71":0.15656328458375005,"72":-0.15884202451608886,"73":-0.3615744315376407,"74":-0.13412517538501062}},{"sx":5,"sy":5,"depth":3,"w":{"0":-0.22742877746694692,"1":-0.23464193366161962,"2":-0.23195166755673605,"3":-0.4745577923306157,"4":-0.30505586348885805,"5":-0.32228233030785963,"6":0.17686104740192504,"7":0.4956281992197747,"8":0.20771864510859164,"9":-0.13247442216526686,"10":0.17184722756729215,"11":0.35855716803922033,"12":0.059152575267435975,"13":-0.07336655664176937,"14":0.27422078171082737,"15":-0.0016646505360015291,"16":0.13092136560607692,"17":-0.054727090536886486,"18":-0.3624584572909344,"19":-0.1973323305916986,"20":-0.40780850853092204,"21":-0.2916439505866627,"22":-0.5814658807208444,"23":-0.31103947973992846,"24":0.2020771901649386,"25":0.24545588139151736,"26":0.24266442881191963,"27":0.13970942612277923,"28":0.08736647823213907,"29":0.24903690875175025,"30":0.31324101824800044,"31":0.32253810569783753,"32":0.23785065249403156,"33":0.3372524600706532,"34":0.29854010253303437,"35":0.15871461613259785,"36":-0.5954821585396313,"37":-0.5149106144937569,"38":-0.6246826303107931,"39":-0.1875787551209322,"40":-0.45769501952892333,"41":-0.4036038955318217,"42":0.147249131839938,"43":0.222169938302325,"44":0.08044954421518954,"45":-0.05053388671669899,"46":-0.08227528268916602,"47":-0.062378466998364954,"48":0.35825515898507604,"49":0.49040293197867546,"50":0.48651022515953085,"51":0.24743464006766483,"52":0.3853192871966138,"53":0.35784952409237736,"54":-0.375283403723945,"55":-0.4222313119584273,"56":-0.3045884276829587,"57":-0.2673997408821748,"58":-0.29400728907136453,"59":-0.2520808907473705,"60":-0.3285866774678371,"61":-0.0974260884029014,"62":-0.10241402285434589,"63":-0.1705246476635097,"64":-0.09875022356400617,"65":-0.14905202660838132,"66":0.37428729368278263,"67":0.37841214242476734,"68":0.17793073640642723,"69":0.2749664505104006,"70":0.03388528536242299,"71":0.08442588576664514,"72":-0.10967833005718867,"73":-0.18773362083904585,"74":-0.07224290388463794}},{"sx":5,"sy":5,"depth":3,"w":{"0":-0.010166119582683382,"1":-0.1787335609034662,"2":0.07836447633127876,"3":-0.09018654032031172,"4":-0.20252292355950202,"5":-0.266041521564538,"6":-0.10212497659390382,"7":-0.0033174585035393137,"8":-0.16314594054660395,"9":-0.07828023174350231,"10":-0.13173492793506186,"11":0.12043990446258879,"12":-0.38497802047666674,"13":-0.11772989886733144,"14":-0.32322656616641926,"15":0.2242639187367131,"16":0.1236915477123891,"17":-0.01149264685753846,"18":0.005597297304472506,"19":-0.010948894934149545,"20":-0.1036164358226253,"21":0.03475568592276989,"22":-0.026549729377948136,"23":0.21457816069398292,"24":-0.07674756408723347,"25":-0.04477649278566974,"26":-0.18161200618463239,"27":0.23830583111487924,"28":-0.22454368534084643,"29":0.13659875851669537,"30":-0.21317680000078684,"31":-0.3073927622306026,"32":-0.12197007762945397,"33":-0.07263638258765633,"34":-0.1450672425278542,"35":0.042800956628331534,"36":0.024373703983665066,"37":0.07609001022211861,"38":0.2629359892437662,"39":-0.35399393001695084,"40":-0.01226998942497351,"41":-0.20637627499450478,"42":-0.027904488103894266,"43":-0.189265738963098,"44":-0.0773570418130604,"45":0.03740220702633516,"46":0.0465282781460112,"47":0.13754307608170116,"48":-0.16824240582657551,"49":-0.10970992736738526,"50":0.05997715559998383,"51":-0.27332475690082064,"52":-0.09972717475550318,"53":-0.11642122054401081,"54":0.2942400971837768,"55":0.05206079617131922,"56":0.05626297187430223,"57":0.23371296590252538,"58":0.1289478686295476,"59":0.1370978986856407,"60":-0.1695650844872113,"61":0.09259477861634591,"62":0.177995277516928,"63":-0.1361924382385068,"64":0.028618283479784516,"65":0.06541353816318561,"66":0.029160863713046728,"67":-0.12443073594092904,"68":0.04890110740800776,"69":0.10414297199902543,"70":0.16294134916251535,"71":-0.2555994238957049,"72":-0.08380593257800309,"73":0.06273892777878834,"74":-0.06416911729350488}},{"sx":5,"sy":5,"depth":3,"w":{"0":0.15089704406887686,"1":0.005055497373076993,"2":-0.036752414348380585,"3":-0.16719322944807416,"4":-0.01811462676886348,"5":-0.13233906355960784,"6":0.13402119742850352,"7":-0.03559541079317461,"8":0.023712862746021093,"9":0.020247570385019335,"10":0.009022775101507938,"11":-0.18507887580752114,"12":-0.13629749642274772,"13":-0.1100267210167243,"14":-0.04463092971082631,"15":0.24146947875136512,"16":0.25458284279572785,"17":0.10741739427929572,"18":-0.050730639104704774,"19":0.10224342043531384,"20":-0.181649677696085,"21":0.1315943229551777,"22":-0.038698099341944875,"23":-0.03266426963364437,"24":-0.26343113536287244,"25":0.06501201386398806,"26":0.007223621671326903,"27":-0.18033511135867508,"28":-0.19052724328740664,"29":0.010385224276670815,"30":-0.005566944200171075,"31":0.30838433321987707,"32":0.23848191168726426,"33":0.09998490383792696,"34":0.2245025135372861,"35":0.00954730869460567,"36":-0.09177280081292517,"37":-0.0712911669458132,"38":-0.2822327159062591,"39":-0.2348545333150232,"40":-0.38765405686111376,"41":-0.1881098248588955,"42":-0.03260602505123511,"43":-0.038958107471077495,"44":-0.096173458098767,"45":0.7538558297802103,"46":0.4467815226969375,"47":0.22527511398649055,"48":-0.12505737256200386,"49":0.0872163859786688,"50":-0.1278102152908537,"51":-0.4888886828820972,"52":-0.6449076409627982,"53":-0.5972895639992931,"54":-0.19961281821313323,"55":0.06775328582364733,"56":0.03687781760349756,"57":0.24701199276623192,"58":0.2210767934691563,"59":0.24487688795512008,"60":0.28377064032533644,"61":0.3103629092980798,"62":0.5908988303489263,"63":-0.6134191791763314,"64":-0.5604148322168501,"65":-0.6735220939656228,"66":0.039861501488269745,"67":-0.08683355707999386,"68":-0.18856013967399846,"69":0.08923021292998963,"70":0.15254096712560186,"71":0.24113350548762452,"72":0.16679482498067996,"73":0.011172018749654164,"74":0.29176774937638866}},{"sx":5,"sy":5,"depth":3,"w":{"0":0.037769685561265955,"1":-0.06702793464147937,"2":-0.14473153947830025,"3":-0.0371176935661073,"4":-0.04072229753983053,"5":0.13846541488185743,"6":-0.12729303675411843,"7":0.06192703241080299,"8":-0.04632899440345855,"9":0.060563914168689136,"10":0.17709334875802568,"11":-0.02903545945428366,"12":-0.14127396023641461,"13":-0.3315564381809708,"14":-0.20363327596257513,"15":-0.16010215673406913,"16":-0.10736491809562199,"17":-0.1378310310394837,"18":-0.13265206841709912,"19":-0.3130596635015613,"20":-0.3181238508426658,"21":-0.16705674671902557,"22":-0.1235840927026898,"23":-0.07144110888906709,"24":-0.19655017837040312,"25":-0.010403850117804996,"26":0.0005990237079916504,"27":0.0322698022400891,"28":-0.22290006275376575,"29":0.02264977794541198,"30":0.1143658524863588,"31":-0.008066837542645578,"32":-0.036290088029178144,"33":-0.09154951975182653,"34":-0.2947370822730667,"35":-0.14650623487734304,"36":-0.14748543628071306,"37":-0.35660157466384973,"38":-0.17643902919770196,"39":-0.15047427634213315,"40":0.16344899587920889,"41":0.02513301843999849,"42":-0.18587300465536516,"43":-0.2268810661326857,"44":-0.23492707920284622,"45":-0.16219667471896865,"46":-0.09954918516730894,"47":-0.25795865959513314,"48":-0.1046260288428106,"49":-0.21899257133087968,"50":-0.10349747619815589,"51":-0.2852332957251479,"52":0.07528139634129634,"53":-0.16318683278694845,"54":-0.1527588428311142,"55":-0.0094000931715793,"56":-0.1013656183330253,"57":-0.22384081402587858,"58":0.11540716261518488,"59":-0.3096504267271668,"60":0.010890608257575556,"61":-0.3063553259686742,"62":-0.10252617248592832,"63":-0.33704899789237425,"64":-0.3683710660263809,"65":-0.2585704294490858,"66":-0.0036292474277419477,"67":-0.057393087883037014,"68":-0.12467207033085466,"69":0.0592114531204792,"70":0.024276488509349936,"71":-0.08418448363859973,"72":-0.0750283278097498,"73":-0.2565376770766616,"74":-0.4286135264544332}},{"sx":5,"sy":5,"depth":3,"w":{"0":0.09211255223418076,"1":0.10412127982042758,"2":-0.10490856685093719,"3":-0.018840037470483424,"4":0.17522250990324234,"5":0.2092513954202319,"6":-0.4370897628015559,"7":-0.3670693225516953,"8":-0.3760590815664914,"9":-0.19793509791688088,"10":-0.06475079839873155,"11":-0.006541518317062671,"12":0.34224001868251025,"13":0.3261041875794012,"14":0.2986879402844819,"15":-0.2446030723026673,"16":-0.12269423514737231,"17":0.11137313376830373,"18":-0.14180740626363753,"19":-0.2254609144723801,"20":-0.20111105611621163,"21":-0.3037136143850455,"22":-0.31437170151789257,"23":-0.1333648218896879,"24":0.27490756501439356,"25":0.2516871925355381,"26":0.2416681421432871,"27":0.16241269728937,"28":0.2021216496549632,"29":0.14485103955988865,"30":-0.07096263082127853,"31":-0.25030122445746006,"32":-0.12001309139706777,"33":0.26861816441418285,"34":0.11364596962807076,"35":0.2465983110447269,"36":-0.49659350641130795,"37":-0.3671757477476915,"38":-0.3031759707647823,"39":-0.2044159826575971,"40":0.0849168414206178,"41":-0.1090362818379557,"42":-0.06953182475485122,"43":0.15387223766117938,"44":0.10459183376396025,"45":0.05933699909160745,"46":0.22268688839629835,"47":0.03888489319348898,"48":-0.25943187326934486,"49":0.06703079214070183,"50":-0.2167938479015964,"51":-0.6089137725938851,"52":-0.7129045655665014,"53":-0.5039841972788532,"54":0.14682632405672985,"55":0.5626113346485954,"56":0.15900025842000237,"57":0.43071386806491063,"58":0.28532851704314666,"59":0.38655869396491777,"60":-0.2322761001921324,"61":-0.30115636237760973,"62":-0.263442381998391,"63":-0.2050121875187992,"64":-0.25640515253408613,"65":-0.13762655120749995,"66":-0.20178339736960207,"67":-0.055890009848554134,"68":-0.10613566735902956,"69":0.1778651730727298,"70":0.0473712046599825,"71":0.3695055654931185,"72":0.041989882918537176,"73":0.18739777212508102,"74":0.09101746968235509}},{"sx":5,"sy":5,"depth":3,"w":{"0":0.4078660371831254,"1":0.27747645450488806,"2":-0.1420508082868294,"3":-0.3209221268782469,"4":-0.03875812424071249,"5":-0.0836597525760966,"6":-0.17526847403239287,"7":-0.3301711478803078,"8":-0.39554341879317184,"9":-0.10197606972565691,"10":0.14149208071581626,"11":-0.09717689649807895,"12":0.055609251135669835,"13":0.27684549967017924,"14":0.18607119179722725,"15":0.08607482596380066,"16":0.09641515550371832,"17":0.2824670775267328,"18":0.09885047249086494,"19":-0.29539218887129415,"20":0.0769341616194012,"21":0.17270534532470005,"22":0.16196044747377078,"23":0.012267105727460871,"24":0.024874633291592167,"25":0.03149375072771706,"26":0.060524332927506926,"27":-0.27213568591942666,"28":-0.1805624354807353,"29":-0.24861626832300113,"30":-0.3189467296570707,"31":-0.19791798800854643,"32":-0.30889448168031425,"33":-0.4815421902270442,"34":-0.4751069219756515,"35":-0.3603328008220831,"36":-0.26882848405646687,"37":-0.2583798304848149,"38":-0.31616866652848635,"39":-0.2447637534084428,"40":-0.2706536238518419,"41":-0.3951579840258463,"42":-0.013009078321111384,"43":-0.20499059679472972,"44":-0.32228793031030456,"45":-0.2566529621082574,"46":-0.4006140784676154,"47":-0.5245911401876632,"48":0.04198314419211972,"49":0.18160422333731863,"50":0.15131965437561612,"51":-0.10282020654696444,"52":0.12267751576523021,"53":0.24638105494696794,"54":-0.010783474947141191,"55":0.05009634493515648,"56":0.09968584471600975,"57":0.08924553116502079,"58":0.043766224891064694,"59":0.04761774155816471,"60":0.0427146459949773,"61":-0.08391187716485445,"62":0.16592423105156634,"63":0.5535926275070376,"64":0.5298973852487207,"65":0.5519846055330093,"66":0.06928005473578433,"67":0.060009268158986925,"68":0.23047466886626125,"69":0.3287064973182915,"70":-0.039314239487888265,"71":-0.05756528999931527,"72":0.33204048770375755,"73":0.41996545561009374,"74":0.3264779210439267}},{"sx":5,"sy":5,"depth":3,"w":{"0":-0.08157075337252227,"1":-0.0374399273723322,"2":0.17574310362089202,"3":0.0865341302120194,"4":0.07318387310653211,"5":0.25770969719872744,"6":-0.3740931040059553,"7":-0.2521205982165069,"8":-0.1320595035978298,"9":0.06235131369848782,"10":0.035465224011422825,"11":0.046290501028122766,"12":-0.13370524870779846,"13":0.04080121016122192,"14":-0.11349602890495891,"15":0.04970983152141184,"16":0.1346109461579839,"17":0.2279201529424113,"18":-0.12401300019193616,"19":-0.09984064299766106,"20":0.005090314011163508,"21":0.0831870725199558,"22":0.15121770495517364,"23":0.03312973314242595,"24":-0.09612591986141561,"25":-0.10103633048404431,"26":-0.0665627692547189,"27":-0.039731307016781965,"28":-0.29081378866644547,"29":-0.13737994862911088,"30":0.26528243620201,"31":0.40693092844646084,"32":0.21905369913406775,"33":0.038770160360331644,"34":-0.16712556582075186,"35":0.02008040277190676,"36":-0.20459186631252385,"37":-0.15223151858679337,"38":-0.16127761083235906,"39":-0.049514624694506966,"40":-0.005104168012713061,"41":0.03986916392384148,"42":-0.24480349142242339,"43":-0.11655153451096213,"44":-0.04945349375614141,"45":0.17215839612125036,"46":0.29564214132235417,"47":0.31595861216746796,"48":0.23464034241790224,"49":0.2550951620999835,"50":0.07031081964409712,"51":-0.012323461254521264,"52":-0.06673870981166245,"53":-0.0374232169297299,"54":-0.18500061519130956,"55":-0.4426890096479772,"56":-0.3984821437547965,"57":-0.14316497268931966,"58":0.12087784835661805,"59":-0.2767059153722745,"60":0.06115449786757638,"61":0.07274634773785063,"62":0.10520585548580855,"63":0.1968028783134013,"64":0.03651383811303776,"65":-0.003936253088392131,"66":-0.08668368961387875,"67":0.020802936215019965,"68":0.05183987031212149,"69":-0.1911156836013265,"70":0.023901492793925568,"71":0.0893168379087201,"72":-0.057588047442277704,"73":-0.277258736137983,"74":-0.012986975824987711}},{"sx":5,"sy":5,"depth":3,"w":{"0":0.23540066161328982,"1":0.10787699789985951,"2":0.19807217257856966,"3":-0.5365165173013944,"4":-0.2716288201091086,"5":-0.3025114203659379,"6":0.36870699302190707,"7":0.3497640229509371,"8":0.12816671522857861,"9":0.16628171467739225,"10":0.08392624638033541,"11":0.026544925102115268,"12":-0.3192083144400014,"13":-0.28015254102166465,"14":-0.3085134411366888,"15":0.4529800761511617,"16":0.30952635270682244,"17":0.16960869189476446,"18":-0.027355649632322496,"19":-0.045688709584605997,"20":-0.1674601734608725,"21":0.0021269394517471492,"22":0.032967161590269314,"23":-0.046364361586282654,"24":-0.2589546674044216,"25":-0.050726386495828425,"26":-0.2659684076639482,"27":-0.15582073004814093,"28":-0.2295339593553834,"29":-0.0939630688097917,"30":0.07586225036265234,"31":-0.051304132192333825,"32":0.14510248554079902,"33":-0.5115931476301092,"34":-0.3459338848452681,"35":-0.10133109989394108,"36":-0.00027819511354820845,"37":-0.31381347717374836,"38":0.012197970590258027,"39":0.26692799324356214,"40":-0.052769732029825975,"41":0.17408175665893477,"42":0.05403060929397403,"43":0.08070316622625406,"44":0.08827672768847344,"45":-0.31645243814543794,"46":-0.5509017167514988,"47":-0.6398876871251856,"48":0.11344599862992509,"49":-0.04710485280338403,"50":0.25120912451770416,"51":0.16226188275751066,"52":0.20981663365149242,"53":0.17416237284592595,"54":0.23447617031744594,"55":0.26273381990673367,"56":0.2393799429758526,"57":-0.1528514182391592,"58":0.09400491930945555,"59":0.19862681583214947,"60":0.05360098150965218,"61":0.09115516579115614,"62":0.01548427316354575,"63":0.02222524063050328,"64":0.18147550323949083,"65":0.17554337134677625,"66":0.18254037021665293,"67":0.1553420222222945,"68":0.01975739626949806,"69":0.21979491010038796,"70":0.4587194912411851,"71":0.3869635181307999,"72":0.029756719256266634,"73":-0.0691923329871575,"74":0.211853842543194}},{"sx":5,"sy":5,"depth":3,"w":{"0":0.2948114378806695,"1":0.25016749121050935,"2":0.10142415037968056,"3":0.08286902785069035,"4":0.03529042878866976,"5":0.2360975190947253,"6":0.007481750165682667,"7":0.030292835902324115,"8":-0.11078010735639691,"9":-0.19548946153944372,"10":-0.35784006146926867,"11":-0.5309897216187495,"12":0.001053883511063885,"13":-0.15843331984117615,"14":-0.25891704400135174,"15":-0.35370799486596793,"16":-0.2335666911681182,"17":-0.2739280719846214,"18":-0.1072304453228436,"19":-0.2818593102670813,"20":-0.2643257311946726,"21":0.1390122080911753,"22":0.12343582036104407,"23":0.07618057253876707,"24":0.16975951875498516,"25":0.054065529604664285,"26":0.061356877820915104,"27":0.2933392613832374,"28":0.2057437478118799,"29":0.30410595697359427,"30":-0.009824436609297691,"31":-0.27878040659458697,"32":-0.3102972174716872,"33":0.16355176604601393,"34":0.13793666999559387,"35":0.12037154009144917,"36":-0.08127224238653276,"37":-0.24267538534595615,"38":-0.13382563649742724,"39":-0.40277670507033203,"40":0.023020415980015405,"41":-0.09787774419665819,"42":0.0713799363418195,"43":0.3570121727905389,"44":-0.05397172733463602,"45":0.13221894882848734,"46":-0.026732496931743992,"47":-0.002828176889721636,"48":-0.01524973633660174,"49":-0.13892979038532574,"50":0.02318398258509138,"51":0.04853076139066149,"52":-0.15778872919744846,"53":-0.01847745993135998,"54":-0.12165189086441544,"55":-0.09783937406721757,"56":0.21343232713824667,"57":-0.16417703072689016,"58":0.023724587982553717,"59":0.04910310779381306,"60":0.032132963210114676,"61":0.08581306277828263,"62":-0.005612308650709304,"63":-0.15706812918871152,"64":-0.13702043859876004,"65":-0.013148719338580988,"66":0.07829560088137735,"67":-0.05464649637266136,"68":0.2795013208850226,"69":0.046374803058599985,"70":0.035424006440866004,"71":0.023097217819346934,"72":-0.021486491023075583,"73":0.01996389368086049,"74":-0.05282647429212191}},{"sx":5,"sy":5,"depth":3,"w":{"0":-0.18377997787397757,"1":-0.277486252333895,"2":-0.14735879468306048,"3":-0.1947514641002658,"4":-0.1773793782525294,"5":-0.11930901449342252,"6":0.3614905897973449,"7":0.03780700349787066,"8":0.12292303000787262,"9":0.00382258086761203,"10":-0.10689661233627483,"11":-0.0168289304846257,"12":-0.04621999871102911,"13":-0.10134070317994447,"14":-0.039258180721477784,"15":-0.3168218593216961,"16":-0.22828535628451904,"17":-0.17767701027692992,"18":0.062272829177472525,"19":0.098622935907912,"20":0.15977478767024542,"21":0.21913888221976421,"22":0.236047086178937,"23":0.34873237835518683,"24":0.06640949971801866,"25":0.01723195380863919,"26":0.14970465846719685,"27":-0.35847925101647665,"28":-0.07760330607132382,"29":-0.016391844526739988,"30":-0.39779584182128797,"31":-0.3483407034265911,"32":-0.30126053578449385,"33":0.11828885888720023,"34":0.04795382216753017,"35":-0.06095579904045159,"36":0.34721145049541,"37":0.12778060152667767,"38":0.17132033561522134,"39":0.032752056563244425,"40":0.19842819488430632,"41":-0.13471985405051576,"42":-0.21681336907542928,"43":-0.24387934066533365,"44":-0.4043886174831893,"45":-0.0018598043939030409,"46":-0.12845554104076345,"47":-0.12492067630164204,"48":0.24282408903367356,"49":-0.06508125141879958,"50":0.08182213112164001,"51":0.3170302386153983,"52":0.03715388345039086,"53":0.24461236369470704,"54":0.006313184703621484,"55":0.014488632930544846,"56":0.07193836110029726,"57":-0.20208347963326173,"58":-0.36133019021313195,"59":-0.04313450292518378,"60":0.14842403362841144,"61":0.012676150548422799,"62":0.2567663900916889,"63":-0.02930809620023789,"64":0.21113485983838395,"65":0.1769250529508081,"66":-0.04287900467662019,"67":-0.08873401118234238,"68":-0.1342746899837369,"69":-0.16564277208455894,"70":-0.08924038278584505,"71":-0.27304347163585124,"72":-0.2752864929267856,"73":-0.19425450294066648,"74":-0.17848401258074287}},{"sx":5,"sy":5,"depth":3,"w":{"0":0.07632744138993305,"1":0.07493892157606916,"2":0.37166107609943916,"3":0.10651999874807203,"4":0.1378256115335864,"5":0.1366274761874271,"6":-0.09949947529971657,"7":-0.054663643456998284,"8":-0.12444258033247414,"9":-0.15471931744378367,"10":-0.08978696165410652,"11":0.05575516338544106,"12":-0.0758879368228103,"13":-0.09746795722247145,"14":-0.15948487197462669,"15":-0.06136773262583652,"16":0.0657963651193247,"17":-0.0781544584075061,"18":-0.05426196646577367,"19":0.08514975730850666,"20":0.014107582704170932,"21":0.03100168970483343,"22":-0.011492648890511954,"23":0.034653994465975176,"24":-0.05308196313458973,"25":0.18728437029922693,"26":-0.19176564417330896,"27":-0.03610066328072927,"28":-0.13876918098706165,"29":-0.16277956260518278,"30":-0.1586257532737536,"31":-0.14893486905808884,"32":0.04282399257067089,"33":-0.004610213829801745,"34":-0.18475741573291335,"35":0.20086991371755003,"36":0.07688329461414327,"37":0.04464672658327358,"38":0.15025887930375945,"39":0.06997737995335358,"40":-0.05580917706294953,"41":0.019743958505323858,"42":-0.03199475091512506,"43":0.15128648633521324,"44":0.10494733835483103,"45":-0.08268721639520002,"46":-0.04108798772246903,"47":-0.18901683867910976,"48":-0.1931551241919229,"49":-0.04660318729276755,"50":0.13594435323139328,"51":-0.003114260762403173,"52":-0.1808460371258397,"53":-0.008168783589215193,"54":-0.15112525867043514,"55":0.026740453032437134,"56":-0.09928366765171569,"57":-0.19539149441066664,"58":-0.14217804411836188,"59":-0.11154217778441085,"60":-0.00420039513052667,"61":-0.3509169834131607,"62":-0.06274553265155311,"63":-0.06852281679160392,"64":-0.03793671593080622,"65":0.04405612279257286,"66":-0.09311097793522455,"67":-0.046694782902668715,"68":-0.25187570910856905,"69":0.12271165806449426,"70":-0.2162332068525305,"71":-0.02352920139526039,"72":-0.22631513041480902,"73":-0.12435405743348603,"74":-0.25502780265938363}},{"sx":5,"sy":5,"depth":3,"w":{"0":0.08680254456366603,"1":0.20941440020467997,"2":0.3037060850396651,"3":-0.43396585717858605,"4":-0.38510002687885203,"5":-0.4993083216962704,"6":0.06791978892129556,"7":0.0720219878218675,"8":0.1537315935243252,"9":-0.053035781562018984,"10":-0.04756152958217554,"11":0.17171670401254013,"12":-0.17354357176058552,"13":-0.27525227290558624,"14":-0.19165440058795583,"15":0.1693498915790616,"16":0.12634958325960116,"17":0.2565712851538942,"18":-0.44797822801729237,"19":-0.512805655838285,"20":-0.2706554043832463,"21":0.34279015294088916,"22":0.0032948067266479085,"23":0.29356538472469274,"24":-0.23212962829620576,"25":-0.2260992933794231,"26":-0.08407669689501807,"27":-0.15783542203261364,"28":-0.06402096226430098,"29":0.08400954083956831,"30":-0.23567195655563652,"31":0.01832959065711251,"32":-0.07226224453702926,"33":-0.028996839069992418,"34":-0.07974815025013085,"35":-0.051283516252694054,"36":0.1116803652955807,"37":-0.08666215992418365,"38":-0.0314204915112177,"39":-0.08652331238048569,"40":0.032485235138702113,"41":-0.024786355970728723,"42":0.02423960103363931,"43":-0.09203178593501797,"44":-0.08084395331035066,"45":-0.4471957172720326,"46":-0.2967457168245352,"47":-0.3098019136252208,"48":0.00870165743329722,"49":0.15675570803178684,"50":0.07101545885337941,"51":-0.0910598900809843,"52":-0.049939728246622954,"53":-0.09182039082223906,"54":0.04464894417278458,"55":0.15261500871195777,"56":0.09236643147044604,"57":-0.10539589699221165,"58":-0.18356199801469117,"59":-0.11989401603227258,"60":-0.09580655738448443,"61":-0.14630048417016303,"62":0.16608493276257605,"63":-0.07372814428320475,"64":0.12452411927362694,"65":0.210408367628062,"66":-0.3146185588051369,"67":0.02561401169803233,"68":0.011142104126402064,"69":0.10649263009519215,"70":0.1439653053535993,"71":0.10772523461895757,"72":-0.5249091568985718,"73":-0.21349322014677094,"74":-0.34912951079880866}},{"sx":5,"sy":5,"depth":3,"w":{"0":-0.028757571920659697,"1":0.25806781629211695,"2":0.1291123729677755,"3":0.2741010002128757,"4":0.14220076156871875,"5":0.20551153980759604,"6":0.11160945394585484,"7":-0.05031631027324339,"8":0.07511795689932389,"9":0.2735401450177864,"10":0.12850079630986205,"11":0.00788558863244396,"12":0.04600720246049892,"13":0.26130146597967385,"14":0.09736615289042021,"15":-0.012329625940890907,"16":-0.20353566482097507,"17":-0.06491521636337468,"18":-0.13920660258982387,"19":-0.18048394266845066,"20":-0.3745220483144572,"21":-0.48263900761562906,"22":-0.3540522392872231,"23":-0.29796647608686566,"24":0.046243956568792696,"25":-0.40059042305992937,"26":-0.18485185756245814,"27":-0.35997246153090035,"28":-0.49901143272821347,"29":-0.36301026856957097,"30":0.23490248534980068,"31":0.1301085199411949,"32":0.22425991924009767,"33":-0.15398622365597894,"34":-0.11544159568486964,"35":-0.037562408428186624,"36":-0.07943955461773747,"37":0.24387676106154577,"38":0.09973902815477848,"39":0.21295347747005908,"40":0.39066596850336965,"41":0.0468143657101915,"42":-0.08252375158760746,"43":0.218100611129854,"44":0.026701831749289622,"45":-0.09607363891391982,"46":0.13139510163591284,"47":0.03364942467381768,"48":-0.18946572782360324,"49":-0.1826779672955314,"50":-0.1578122218638988,"51":-0.10215501315364882,"52":0.007921427379814074,"53":-0.07963464022148488,"54":0.03131465758193346,"55":-0.01936503505523231,"56":0.05830337166819108,"57":-0.012299526232041095,"58":0.0917500284524784,"59":-0.20884877526185344,"60":-0.12576939214912608,"61":-0.23125263429667064,"62":-0.08500808585161868,"63":0.12169388020638473,"64":-0.16515622298713167,"65":0.023374120188629253,"66":-0.08075187882555268,"67":-0.049591706966283254,"68":-0.0032273768337307478,"69":-0.1235016754312316,"70":0.012535013376857014,"71":-0.00985028612781668,"72":-0.05402952139922525,"73":-0.10492372632602102,"74":-0.02235814212502384}}],"biases":{"sx":1,"sy":1,"depth":16,"w":{"0":-0.22447536263292953,"1":-0.27603127733988114,"2":0.013159020415367949,"3":0.2976544641486611,"4":-0.4341355435824253,"5":0.2642189883534533,"6":0.11530592995898836,"7":0.4242990480249827,"8":0.5315501849807727,"9":-0.25683437104022905,"10":-0.16137591726325184,"11":-0.4425838574968941,"12":-0.17871287311278838,"13":-0.5104705122162335,"14":-0.477411054577977,"15":-0.2634690416943084}}},{"out_depth":16,"out_sx":32,"out_sy":32,"layer_type":"relu"},{"sx":2,"sy":2,"stride":2,"in_depth":16,"out_depth":16,"out_sx":16,"out_sy":16,"layer_type":"pool","pad":0},{"sx":5,"sy":5,"stride":1,"in_depth":16,"out_depth":20,"out_sx":16,"out_sy":16,"layer_type":"conv","l1_decay_mul":0,"l2_decay_mul":1,"pad":2,"filters":[{"sx":5,"sy":5,"depth":16,"w":{"0":-0.12189778642628715,"1":-0.04042637903119232,"2":-0.03205063504824575,"3":0.028867816588481466,"4":0.015565370843250789,"5":-0.08017051774583149,"6":-0.01117793256810968,"7":-0.12484155204969602,"8":-0.20106925660764877,"9":0.0013716835413834592,"10":-0.20285731423566516,"11":-0.10629548571412988,"12":0.03318494676990677,"13":-0.02775478648831345,"14":-0.04640653511064707,"15":-0.05192555777811996,"16":-0.10701934548271301,"17":0.04076759771301081,"18":0.07495926420082233,"19":0.023294533090315296,"20":0.02462187045683893,"21":-0.05880810035796426,"22":-0.02708453070187083,"23":-0.12338684019495329,"24":-0.06403650033113684,"25":0.024459031564935188,"26":0.01506931037820144,"27":-0.03791523582046163,"28":0.10044200328959685,"29":-0.02711420059289689,"30":-0.030902957326192953,"31":0.030943890305847422,"32":-0.0643965236797125,"33":-0.022908022671763256,"34":0.1740644641295887,"35":0.09057913722327512,"36":-0.10879816432859643,"37":-0.06528668704110595,"38":-0.026651098354144736,"39":-0.033824009111429396,"40":-0.02490307875742715,"41":0.1370157800627485,"42":-0.10743421725823507,"43":-0.04685424826902142,"44":-0.03867533546441658,"45":-0.019581221504387646,"46":-0.05985697434522908,"47":-0.04942520605885042,"48":-0.06540174894632304,"49":-0.02413563621989212,"50":-0.07782483826586621,"51":-0.03537798821133655,"52":-0.023805313369212062,"53":-0.15557203435247063,"54":-0.0450646525614384,"55":-0.12980439865645022,"56":-0.08097079590864883,"57":-0.030582828090903475,"58":-0.1199796025616966,"59":-0.11350656640696632,"60":0.004063880644888717,"61":-0.04875640364164944,"62":-0.05065641070852261,"63":-0.03828549664577864,"64":-0.06535614897357105,"65":-0.03205416064777743,"66":-0.0875045334936772,"67":-0.027603601772674687,"68":-0.016368056182864524,"69":-0.07659689208103881,"70":-0.03436628115881115,"71":-0.04889539182085883,"72":-0.08396046792787427,"73":-0.05783603105775831,"74":-0.03900900574969623,"75":-0.054214786309864274,"76":-0.015349460917036841,"77":-0.006649642238588167,"78":-0.03617671352572528,"79":-0.018758999808213023,"80":-0.010707709703495502,"81":0.026121112122341354,"82":-0.03005921264150033,"83":-0.024990567793695382,"84":0.01967208557157786,"85":-0.049258943687038516,"86":-0.007839560016271513,"87":-0.1702242468151491,"88":-0.0716938332220454,"89":-0.07775977575291818,"90":-0.22047723801963964,"91":-0.12431663776226287,"92":-0.07022708430074753,"93":-0.042321515684849036,"94":-0.012869401166815309,"95":0.0058972719585339735,"96":-0.06446039129580274,"97":-0.021044494347673245,"98":-0.09180095234561716,"99":-0.06848729816809974,"100":-0.05021491257110024,"101":-0.09892720067520071,"102":-0.00921673372293382,"103":-0.04963613626252063,"104":-0.04368849365560077,"105":-0.02799795860937683,"106":-0.014999440012307462,"107":-0.09326182250724359,"108":0.001528237959236313,"109":-0.0012326622096672062,"110":-0.025663503462654114,"111":-0.0008095210584551721,"112":-0.008370181906532619,"113":-0.0070467311095371975,"114":0.03880903434690935,"115":0.0269957943388226,"116":-0.07237109790729074,"117":0.11784399655095175,"118":-0.005490606489449962,"119":-0.022724656484077996,"120":-0.09517405250725969,"121":-0.012091704599570164,"122":-0.12831284899475778,"123":0.041168160989152,"124":0.019129351309871923,"125":-0.042256177466695855,"126":-0.08114915570850635,"127":-0.021540705754697628,"128":-0.002982649232610176,"129":-0.01938611471309575,"130":-0.046659015936954755,"131":-0.05749384409404219,"132":-0.061029376301463246,"133":0.0030250409571129823,"134":-0.0028736451126823996,"135":-0.0763699589074205,"136":-0.055998235607106255,"137":-0.09559722030958863,"138":-0.08906509055401328,"139":-0.01881626405210189,"140":-0.009459220508077498,"141":-0.03949761820706345,"142":-0.06361579007778946,"143":-0.07079256673129354,"144":-0.05712856823686477,"145":-0.017766124023931736,"146":0.0026337585322752564,"147":-0.020452647523241902,"148":-0.0071536014516210425,"149":-0.044371833555055,"150":0.013556729613650781,"151":0.0005365687483841659,"152":-0.04160409305144373,"153":-0.06663922034388561,"154":-0.011827477384771759,"155":-0.0097394747679034,"156":-0.06125565082525669,"157":0.059261762597856024,"158":-0.005598404140261532,"159":0.007299224494423874,"160":0.024961285272343724,"161":0.03250268918805566,"162":-0.0043598716301307995,"163":0.030667159259035248,"164":-0.037202253808542696,"165":-0.13393545737934962,"166":0.027521300149630855,"167":-0.19327635586363812,"168":0.042843311467380185,"169":-0.11459358925005558,"170":-0.07556062776846018,"171":-0.15666699745915535,"172":-0.037600015796567715,"173":-0.0928930006779705,"174":-0.01565717550484103,"175":0.022975267187637777,"176":-0.03715191485075921,"177":-0.007950773011674152,"178":0.1060742912813064,"179":0.030061906376869046,"180":-0.052514965619147466,"181":-0.1758814624274424,"182":0.03861349891650627,"183":-0.12173749922554253,"184":0.007539054377541901,"185":0.03710876390587854,"186":0.05877928151085579,"187":-0.11132200552116152,"188":-0.05436550992542494,"189":-0.042826113920991525,"190":-0.06308937308522311,"191":-0.02356408918508505,"192":0.04178890103311568,"193":-0.010536736221841099,"194":0.08967432020179836,"195":0.12039883309614077,"196":-0.0348196157688795,"197":0.10975831624240028,"198":-0.0004601297761491289,"199":-0.02948861536390784,"200":0.07848855930392148,"201":0.19160561301373397,"202":-0.08031732559468198,"203":0.012486547109095815,"204":0.20399688336195004,"205":-0.05939797199832366,"206":-0.054791454632730746,"207":0.030374410968371755,"208":-0.13362240492168,"209":-0.005668204019654661,"210":-0.06156444869181282,"211":-0.03738142446707444,"212":-0.007087699123778421,"213":-0.002424375571602277,"214":-0.04217120605998854,"215":-0.019457475569278952,"216":-0.0003364439797056894,"217":-0.0698094308955123,"218":0.013368766157009273,"219":-0.09931351851503982,"220":-0.0615697651706428,"221":-0.025317220406508027,"222":-0.05005013206918714,"223":0.015373293726515878,"224":-0.062463021681083794,"225":-0.015511547906424087,"226":-0.0021798547270225604,"227":0.0034551483528686175,"228":-0.038285672167562394,"229":-0.09108647640232037,"230":-0.010913152603160852,"231":-0.09329340843438982,"232":0.04710654156058239,"233":-0.03054018562201376,"234":0.06972211503693457,"235":-0.02201112427546176,"236":-0.01889921360835714,"237":-0.07431463767219505,"238":-0.00450393777746166,"239":-0.04335783683451113,"240":-0.09725891780866332,"241":0.011756758838346024,"242":0.006934129287761611,"243":-0.08016064760404049,"244":-0.04886354117222875,"245":-0.11790531913206828,"246":0.0012399492741066614,"247":-0.2349306628426959,"248":-0.1263358087819777,"249":-0.03050933616962412,"250":-0.07190429811937037,"251":-0.19927854763529346,"252":-0.016253292025169164,"253":0.027042345286417996,"254":-0.07341065168134138,"255":0.0024069108432327345,"256":-0.1203768684221818,"257":0.059993663953393825,"258":0.11892922342962442,"259":-0.01252060618219205,"260":0.02628929445502188,"261":-0.09464235801933492,"262":-0.006162622637777093,"263":-0.10157232210932438,"264":-0.11707927814951245,"265":0.08998403151236042,"266":0.00041833665718944555,"267":-0.1316868847312658,"268":0.06774815893892164,"269":-0.05368316221285783,"270":-0.05375127419846469,"271":0.059546444855063455,"272":-0.03577843963138179,"273":-0.04837093239957829,"274":0.11986287330919904,"275":-0.021939691245408895,"276":-0.09698255210366226,"277":0.13514995071036234,"278":-0.011996210811959828,"279":0.05454788847016516,"280":0.002761832999721684,"281":0.14175220825651086,"282":-0.10961851447101592,"283":-0.0024439827109248927,"284":0.04506436071467993,"285":-0.014342895261570553,"286":-0.010640706366692277,"287":0.036695709593189414,"288":-0.06293387334757537,"289":-0.010602952009785038,"290":-0.08583056042998403,"291":-0.06218719074379851,"292":-0.020184454651641762,"293":-0.0796946854685022,"294":0.001806268703608067,"295":-0.029577761550459967,"296":-0.0190711831763308,"297":-0.08736632621764727,"298":-0.04441782953984493,"299":-0.07835821069853545,"300":-0.08400413912003096,"301":-0.014465080516724403,"302":0.03168559656480179,"303":-0.04654418416642179,"304":-0.002784472765685999,"305":-0.018373258486632616,"306":-0.04327891655160219,"307":-0.0479745768846648,"308":-0.047105942027958425,"309":-0.05418618931177024,"310":-0.006601961535068242,"311":-0.10457387520313306,"312":-0.031004484854893724,"313":-0.035275468396663526,"314":-0.057531142584149444,"315":0.030997971129947993,"316":-0.027479833740315835,"317":0.023051868455341455,"318":0.03503398562071506,"319":-0.02699763075056739,"320":-0.1262827501654181,"321":-0.00631084082026447,"322":0.06151962056974584,"323":-0.03519389171376437,"324":0.000026990713108355156,"325":-0.24785590583921457,"326":-0.02582044533436474,"327":-0.1986023493517047,"328":-0.19557534900791923,"329":-0.10235967862560494,"330":-0.19141785301005074,"331":-0.08914903092205208,"332":-0.01612414668713656,"333":-0.06617043132252805,"334":-0.01603579650449686,"335":-0.002225461322092521,"336":-0.18507850513799332,"337":-0.009271502264603727,"338":0.06343802113955538,"339":-0.12978032371850473,"340":-0.00047609924057244555,"341":-0.1593557171203523,"342":-0.04880095711316933,"343":-0.18725986166351602,"344":-0.19937758401514158,"345":0.09173480946485264,"346":-0.07277696656579033,"347":-0.06793087976690394,"348":0.09700124142234919,"349":-0.02396133190414681,"350":-0.060012503154831295,"351":0.013279822090097829,"352":-0.07512734963018466,"353":-0.014007803655248986,"354":0.10609653369581547,"355":-0.011002646249835258,"356":-0.09113151805181594,"357":0.07539722620794519,"358":-0.02157150756412853,"359":0.057215755640908514,"360":-0.05018197246757984,"361":0.13157353623806542,"362":-0.1260284503853729,"363":0.011988704715020108,"364":-0.054532440107429525,"365":-0.07571432109181382,"366":-0.003069083970955985,"367":-0.0056497121510404235,"368":-0.049883446427006546,"369":-0.007701397444343949,"370":-0.037917855159667814,"371":0.0028822214693411427,"372":-0.09096881698217649,"373":-0.11469511624980173,"374":-0.0009084471001698208,"375":-0.042598907431278726,"376":-0.043090955282409034,"377":-0.08327625340182233,"378":-0.10969519919840266,"379":-0.030724179137094562,"380":0.008743319826722109,"381":-0.005066751595384547,"382":-0.04703824330528111,"383":-0.004403970758385697,"384":-0.03685096554240921,"385":-0.024653283208196448,"386":-0.11975750488007715,"387":-0.08261363886520255,"388":-0.018863745319856684,"389":-0.024137376192084715,"390":-0.015121617369184784,"391":-0.08510817064898739,"392":0.020616605303432126,"393":-0.002758226609081319,"394":-0.10612061245225271,"395":-0.019933315188853294,"396":0.008621019906181476,"397":-0.011787200826721281,"398":0.03664534984908101,"399":-0.033957582774145546}},{"sx":5,"sy":5,"depth":16,"w":{"0":-0.1745363721965617,"1":0.04854241847143093,"2":-0.022750576284874365,"3":-0.3195456910054109,"4":-0.026266250769995197,"5":-0.102965457957277,"6":-0.02080879431186946,"7":0.08885699020929867,"8":-0.3166278641792228,"9":-0.19473111917996974,"10":-0.27092689006931536,"11":0.013625171442793724,"12":0.07015483919583164,"13":-0.07564922663664701,"14":0.06359341891975612,"15":0.04196103994493584,"16":-0.06083519412195414,"17":0.02317335895464722,"18":-0.07320642827664062,"19":-0.06552626327900522,"20":-0.12850842824438272,"21":-0.20670507716221925,"22":0.00132023321192048,"23":-0.14453270541339686,"24":-0.04877650673091724,"25":-0.05883297002883577,"26":-0.3733728413133387,"27":-0.05579263223034974,"28":0.028214689702957145,"29":0.01482787131320622,"30":0.03982479999203531,"31":-0.19006254715268286,"32":-0.1312815508928879,"33":-0.08120528055904011,"34":-0.09565600694224127,"35":-0.1319331427466924,"36":-0.15871110621836457,"37":-0.09465043472289743,"38":-0.017309997001951072,"39":0.0027094756785821963,"40":0.02800757429583743,"41":-0.1912732904265333,"42":0.009681645945054225,"43":0.08106853545637788,"44":-0.1803262568719941,"45":-0.0707498931252879,"46":0.017501342408429512,"47":-0.1750660487703191,"48":-0.2356619692696968,"49":-0.09042096427217684,"50":-0.22312309004932532,"51":-0.10875632943438245,"52":0.1341417659271411,"53":0.10088795698173582,"54":-0.05249463303428433,"55":-0.2899818295369977,"56":-0.33089235491531016,"57":-0.1683914077840257,"58":-0.40421635311710047,"59":-0.008289641064892064,"60":-0.040780207236652564,"61":-0.04959276156017805,"62":0.0585167083870987,"63":-0.12004963023869267,"64":-0.1731562151580826,"65":0.07644181178585364,"66":0.02905572310857963,"67":-0.06761698887667825,"68":0.14609710684516478,"69":0.21538950892376,"70":0.010893740777036396,"71":-0.308190727757959,"72":-0.28106370886809473,"73":0.13507083292555774,"74":0.37615003229339355,"75":0.17011424916615803,"76":-0.024537189838389088,"77":0.000017074100962973167,"78":0.000299010162936564,"79":-0.11183875661231914,"80":-0.2316401120328291,"81":0.017641571510981408,"82":0.00142904055842624,"83":-0.10567429391543706,"84":0.21353896860348479,"85":-0.13797143661186248,"86":-0.0634887347115142,"87":0.09307446445491052,"88":0.022013805303987687,"89":-0.009328364541772275,"90":0.06281122382711682,"91":0.09800418243024965,"92":-0.0005172255110303108,"93":-0.12507126661959705,"94":0.03862356860198087,"95":-0.06965952662135551,"96":-0.16609392797702224,"97":-0.038085685783098414,"98":0.0038936107898226236,"99":0.007934991012117053,"100":0.0000953151180339254,"101":-0.0024477065592922063,"102":-0.022930227012096037,"103":-0.2965685045879992,"104":-0.09473518551124203,"105":0.034916060540013,"106":-0.06990886726047842,"107":0.027689741831179126,"108":0.16110472723682984,"109":0.00017549848216207365,"110":0.0533060009215031,"111":0.026591543545307905,"112":-0.09369500845420904,"113":-0.03043732770017095,"114":-0.28275910339114646,"115":-0.1512109410998183,"116":-0.07067574211761647,"117":0.010650989628056478,"118":-0.08791502494649502,"119":0.0737450095157042,"120":0.1791643734380487,"121":-0.11758271383760892,"122":0.1281619077706065,"123":-0.19241205103880796,"124":0.015684744492810605,"125":-0.04088293261982027,"126":-0.026011449244728216,"127":-0.1959768175924259,"128":-0.08054615788730436,"129":-0.08622046334323719,"130":-0.10768429795523783,"131":0.27840483288934226,"132":-0.017624676201310505,"133":-0.07808096706151255,"134":-0.05455020609546922,"135":-0.02075698780906445,"136":-0.0091792768350871,"137":-0.06793409027006447,"138":-0.18937313196415048,"139":-0.16287360763299158,"140":0.09130003840163319,"141":0.07928200493954872,"142":-0.02507746458550486,"143":-0.11900002828845145,"144":0.135518586230038,"145":-0.018823889098662085,"146":-0.17717958731733993,"147":-0.10166469825672386,"148":0.10936491039796611,"149":0.02168382589732818,"150":0.035813232905245025,"151":0.045837854532036267,"152":-0.2406901855436461,"153":0.12594977858861287,"154":0.041610775495933665,"155":-0.039243820551352504,"156":0.11655802161206388,"157":-0.07256791728450826,"158":-0.0026510490602951724,"159":-0.1718750252709457,"160":0.32543678155025285,"161":-0.0037406123554063826,"162":-0.04075762640291221,"163":-0.04882779073324332,"164":-0.03636637599809545,"165":-0.008242877587814727,"166":0.027177695369426453,"167":0.023022574975586838,"168":-0.36958099702285324,"169":0.05092705126438098,"170":-0.15717139532983415,"171":-0.16953488283793003,"172":0.14800172140285353,"173":-0.06712740429957262,"174":0.0001871835647357046,"175":-0.07759734629200515,"176":0.19653090048479022,"177":-0.031066150760643837,"178":0.2148478369566854,"179":-0.010500557641874865,"180":0.008216357527524145,"181":0.019149310135520015,"182":0.019052353171348825,"183":-0.017487300873906986,"184":-0.058151777925959394,"185":0.16757215349948382,"186":0.042944593550811344,"187":0.049960418911155394,"188":0.11916423688643792,"189":0.04675255935101474,"190":0.024853970704044555,"191":0.013801315462408963,"192":0.18171058437626555,"193":-0.09970553319524843,"194":-0.2190686517515119,"195":-0.06628434078913469,"196":-0.022034064832414598,"197":0.034414806456618964,"198":-0.09567685204626891,"199":0.28246159397150383,"200":0.0754033925601767,"201":-0.14839804795375808,"202":0.029299644079705155,"203":-0.16103020990628142,"204":-0.1832862562958626,"205":0.049233850933459056,"206":-0.14570875410321826,"207":-0.12648977248556437,"208":0.2008617293493573,"209":-0.02143703544718097,"210":-0.25492520962850185,"211":0.10585663746691801,"212":-0.032511475771024846,"213":0.18093245966880908,"214":-0.05646606539553525,"215":-0.04967213730204525,"216":-0.1734868644703073,"217":-0.06333738749233325,"218":-0.24903201781574485,"219":-0.22409185861445968,"220":-0.00520572671130701,"221":0.04226718219622308,"222":-0.015815796860845128,"223":-0.0900211583963646,"224":0.06068024957670203,"225":0.0017996976038266214,"226":-0.18001683102863997,"227":0.17809692503565588,"228":-0.04739914239621525,"229":0.11944545598933895,"230":0.006384859969432538,"231":0.06876638931674711,"232":-0.4652298699819746,"233":0.07269562460400887,"234":-0.06915805508584912,"235":0.012165245216694102,"236":-0.0024547492391637166,"237":0.011658394983624532,"238":-0.011323836822095206,"239":-0.06425367691820451,"240":0.04888919559004101,"241":0.014568277602811324,"242":-0.027912461793843393,"243":-0.27675832352284213,"244":-0.020996328285735492,"245":-0.3426310764646445,"246":-0.04362204771298976,"247":-0.22108388189339323,"248":-0.306136193204652,"249":0.051341412618905104,"250":0.04804783147317969,"251":-0.06288067020249719,"252":-0.009140031049574353,"253":-0.055525043594742,"254":-0.060233037042647555,"255":-0.08158731386814201,"256":-0.0034106577098226214,"257":0.018370317264370585,"258":0.09640880940298288,"259":-0.03522442775160772,"260":-0.09426428206150786,"261":-0.1594019909590454,"262":-0.006265470753971155,"263":-0.09792452076091203,"264":-0.18094456580677498,"265":0.009822684809934729,"266":0.040146416692154956,"267":0.03912497396837922,"268":0.017384721330588344,"269":0.0358901469523893,"270":-0.012890839171777232,"271":-0.16537266600241474,"272":0.006445894134690232,"273":-0.07649050494517722,"274":-0.12458220141161759,"275":-0.26779914531579585,"276":-0.043317083235931836,"277":-0.3215199744754687,"278":-0.10902752146434441,"279":0.036459392302741325,"280":-0.07755742158951313,"281":-0.14596713900910577,"282":0.20781988193642884,"283":-0.07277610836696459,"284":0.007132621330742248,"285":-0.047502868718420424,"286":-0.0651640660838177,"287":-0.02713562598306469,"288":-0.1476291850539727,"289":0.006335402692591287,"290":-0.1728415107530552,"291":-0.2386606813250695,"292":-0.0450403394611468,"293":0.029051176925179015,"294":0.01007278877884965,"295":-0.2427215851023256,"296":-0.0248515710460017,"297":-0.15626623317118374,"298":-0.17434826919078708,"299":-0.06878189618781931,"300":0.005149969335321617,"301":-0.06338656643350357,"302":0.02868972089784321,"303":-0.08353873878849306,"304":-0.2543593853803521,"305":-0.022116523300474762,"306":0.050583590778329794,"307":0.045557584660945095,"308":-0.08346924719921307,"309":-0.3289369401979713,"310":-0.07596524944704142,"311":-0.1534981787743144,"312":-0.4854046677520583,"313":0.1369898831451177,"314":-0.07648843704208011,"315":-0.22398739482023058,"316":0.03200941677143412,"317":0.0043344924728768094,"318":-0.0770357127970192,"319":-0.07727128274395248,"320":-0.07727359070963566,"321":-0.01036102572396923,"322":0.0845855591449495,"323":0.07642593446186173,"324":-0.048787325984436476,"325":-0.4233232513622172,"326":-0.07789531758019541,"327":-0.2867777257219724,"328":0.10964723807523259,"329":0.0139791871268017,"330":-0.07866708662797468,"331":-0.19160736294553563,"332":-0.055236269184622606,"333":-0.13530876144925427,"334":0.007006359706837411,"335":-0.219532450247116,"336":0.040577646828434386,"337":0.08078445096334148,"338":0.008159579995560507,"339":-0.17087880789657658,"340":-0.004709103877905199,"341":-0.18589484170331405,"342":-0.017223575653329628,"343":-0.12567012485089724,"344":0.06304733745591913,"345":0.1912530307119202,"346":0.03874386998250329,"347":-0.0007270127021291262,"348":-0.008736857481331687,"349":0.025335167400866263,"350":-0.04500255900305055,"351":-0.11919205218542968,"352":-0.000844256495766146,"353":-0.01720188997931197,"354":-0.22668420496040004,"355":-0.13798457973127828,"356":-0.05644145900393619,"357":-0.2404759072883169,"358":-0.05945333353850776,"359":0.07006513288558844,"360":0.002176756485233106,"361":-0.013331304147111825,"362":0.19352034670114845,"363":-0.0051134420488120474,"364":0.05099326600053648,"365":-0.09737901506710427,"366":-0.06365314093959809,"367":-0.03679237400794816,"368":-0.02568441415005496,"369":-0.06856087859622685,"370":-0.16600235688197823,"371":-0.15728595149004104,"372":-0.037461712069549104,"373":0.009194341974987676,"374":-0.14897047826573875,"375":-0.18074594957095313,"376":0.2607254814838594,"377":-0.10043735776881005,"378":0.03835351782099832,"379":-0.05804275286353545,"380":-0.07656511358632045,"381":-0.21585604462651675,"382":-0.02237511248410607,"383":-0.21211896361911978,"384":-0.030796106694962112,"385":-0.05717746354569678,"386":-0.05191942880064732,"387":0.11180880104713234,"388":-0.11504220949843942,"389":-0.24474246100488592,"390":0.006451946946288615,"391":-0.27236556210466545,"392":0.02717486550595042,"393":0.0847372386614922,"394":-0.19225929947686057,"395":-0.2583253618625242,"396":0.07084067349826415,"397":-0.02146065744958202,"398":-0.046572241362527134,"399":-0.10212512664129338}},{"sx":5,"sy":5,"depth":16,"w":{"0":-0.2302308521353775,"1":-0.07104521158095065,"2":-0.16995180984073976,"3":-0.14300671641712542,"4":-0.05890938282689651,"5":-0.0881917991610512,"6":-0.048138793464205215,"7":-0.051390277874475115,"8":-0.06440226090550137,"9":-0.09802636116092855,"10":-0.1371863163963588,"11":-0.20289340218652274,"12":0.07880726458293125,"13":0.04535870476580871,"14":0.1112783289297275,"15":0.02403262245693952,"16":-0.08619152467051872,"17":-0.022779923915403975,"18":-0.14623251361318165,"19":-0.10963692183408034,"20":0.10363232432721307,"21":0.07850012938313544,"22":0.02472912097903218,"23":0.08019517866588526,"24":-0.08953511338273458,"25":-0.14417619782421842,"26":0.028307956561052297,"27":0.005938184685382882,"28":-0.010999646530653384,"29":-0.03825210765559631,"30":0.15049416395856136,"31":-0.3129242644804816,"32":-0.3039924092708404,"33":0.08862949438452278,"34":0.16615776494836004,"35":-0.2410908821838467,"36":0.17459714795997042,"37":0.16520050045107426,"38":0.0016984683476876088,"39":-0.214819820478668,"40":0.1518593515499809,"41":0.04956119268913336,"42":0.3404200449361757,"43":0.1983581634435443,"44":0.1584421158233199,"45":0.099770896612185,"46":0.25223600090716936,"47":0.21653907165033406,"48":-0.01888558232927201,"49":0.027036802043520762,"50":-0.2610380744412445,"51":-0.2515608845354872,"52":0.022022602399875833,"53":-0.05550138975989015,"54":0.050330980111279476,"55":-0.01635201448959115,"56":-0.11547680632435561,"57":-0.27162791989965634,"58":0.04234355615775749,"59":0.34309957715968403,"60":-0.16355491582752152,"61":-0.09788525430183924,"62":-0.16062618729124647,"63":-0.09954494213923765,"64":-0.20560650956395768,"65":0.12002320973302624,"66":-0.16818149917162564,"67":-0.10790976044921055,"68":0.23183402091559047,"69":-0.15707938708439598,"70":0.09951385772825898,"71":-0.2542088964208876,"72":-0.3008401071122164,"73":-0.1298144976034396,"74":0.14835987955417232,"75":0.22697248930456504,"76":0.05918054388947698,"77":0.1156959866417152,"78":-0.052239944720002776,"79":0.15474451470195447,"80":-0.14836575598960716,"81":0.08586102952129986,"82":-0.20124423829944835,"83":-0.3365489597206928,"84":-0.07707343716950871,"85":-0.0072879634367218225,"86":-0.24012809314271108,"87":-0.053855032063382276,"88":-0.14658841407258527,"89":-0.24429962248501355,"90":-0.12597025949513466,"91":-0.4196841529376184,"92":0.1007492602373181,"93":0.10553672640126967,"94":0.30086576367829115,"95":-0.11484229044826601,"96":-0.17042670026765183,"97":0.02180487928655189,"98":-0.10512430051949068,"99":-0.06446303643266708,"100":-0.1116488807606036,"101":0.188359864607105,"102":-0.026227378915440767,"103":0.19088888095572915,"104":-0.07677477503611048,"105":0.018028397371651496,"106":-0.33819305542455286,"107":-0.17211835808380446,"108":0.04556103741346673,"109":-0.08362724505979359,"110":0.08215164943267088,"111":-0.11647104668398983,"112":-0.29390289699514965,"113":-0.04312707079331451,"114":0.09104627584670065,"115":0.061242256984707526,"116":-0.03422953022289897,"117":-0.015644347090580876,"118":0.064230043755525,"119":-0.1358944256423561,"120":0.23344260072396197,"121":0.1130952809101912,"122":0.286470009246324,"123":-0.21221590811285884,"124":0.21693692743806572,"125":0.04590047523623575,"126":0.39004901754856497,"127":0.22544988113653366,"128":-0.14770533886642553,"129":-0.17152068299849965,"130":-0.134753047415451,"131":-0.18644510010692555,"132":-0.16463144076975061,"133":-0.12977108186669709,"134":0.06480867212157293,"135":0.14118976668539138,"136":-0.2592251801206164,"137":-0.31956676922926974,"138":-0.4707185038628345,"139":0.1106140822044387,"140":-0.11027954607507441,"141":-0.07358078269141403,"142":0.10705227886893959,"143":-0.009632483726072222,"144":-0.030054354812305527,"145":0.04175472734318462,"146":-0.20003754122794554,"147":-0.04769837850642401,"148":-0.0441292806986449,"149":-0.11223653312010022,"150":0.09562879253617819,"151":-0.04871136513438856,"152":-0.07699230632549917,"153":-0.2903726364405181,"154":-0.18871378559316784,"155":0.0648349607356946,"156":0.1870873874543921,"157":0.02259707068949172,"158":0.0745541000812408,"159":-0.036832196660743444,"160":0.07145295666674852,"161":-0.1360665157373266,"162":-0.16703953592620255,"163":-0.023614855105691248,"164":0.024457673224877435,"165":-0.026507513540717256,"166":-0.07394012177572487,"167":-0.10570484708430825,"168":-0.06071856063461303,"169":-0.18059371424448695,"170":0.3177979236736806,"171":0.03725069024495069,"172":0.2680232582946276,"173":0.0007736764616312823,"174":-0.09383366451985017,"175":0.008114244005715738,"176":0.21291111089655368,"177":-0.09663272924475022,"178":-0.26338442745971896,"179":-0.16484497529322711,"180":0.2486990116852611,"181":0.024897706677614127,"182":-0.10457747902027417,"183":0.18159188186159206,"184":-0.17086500618525466,"185":-0.0853088133116721,"186":0.27412443950464394,"187":-0.02362176315314367,"188":-0.2674264899261409,"189":0.01945377546671489,"190":0.21579709225984445,"191":-0.07918399551867045,"192":0.06528369762436409,"193":-0.0048026603124297325,"194":0.19607570697164273,"195":0.14249923202444878,"196":0.1952191448598384,"197":0.03228332998676639,"198":-0.04758887792825582,"199":-0.2898137257457337,"200":-0.0702421911121255,"201":0.06522175388312904,"202":0.33350997024288426,"203":-0.013049693568374852,"204":0.2701362821181868,"205":0.14916538190046624,"206":0.16691860713517878,"207":0.06984291858800136,"208":-0.0052248427709867045,"209":-0.113584411751535,"210":0.06255176338286864,"211":-0.03782710635354654,"212":0.18309102258090046,"213":-0.0004514800139139677,"214":-0.07689789711558105,"215":0.18488077979501671,"216":-0.24323328525419305,"217":0.0012642799451115271,"218":0.135762992043987,"219":0.11378389250363244,"220":-0.17437443077167114,"221":-0.09427038010483092,"222":0.06914429363740957,"223":0.06188387015032814,"224":0.0670891073218353,"225":-0.04550151835274533,"226":0.18936819502234342,"227":-0.03284123078155732,"228":0.13127744528221286,"229":-0.13271660925014817,"230":-0.09537925689745715,"231":-0.03848001568838925,"232":-0.07891329106941743,"233":0.0630335788234753,"234":0.12444616608657601,"235":0.05597528654792215,"236":0.08877947939750029,"237":-0.008176466612316621,"238":0.11642023929574122,"239":0.06025451729618068,"240":-0.19205355113772812,"241":-0.0850329826174815,"242":-0.17010730165935098,"243":0.2610734829385235,"244":0.05097177376468853,"245":-0.13575561562133445,"246":-0.10422533823005611,"247":-0.020475452581403878,"248":0.024991655153398535,"249":-0.037639816303960134,"250":-0.031012907634581168,"251":0.1831694855042926,"252":0.24926965141426222,"253":-0.037842234859925786,"254":0.04122173931383611,"255":-0.28074682135162893,"256":-0.1399595030083536,"257":-0.23993845646872589,"258":-0.2182209974483422,"259":-0.16185464357658746,"260":0.015041013958359129,"261":0.1537110206641822,"262":-0.1544000023216903,"263":0.11298876353196528,"264":-0.03915800152296957,"265":-0.05765749477387396,"266":0.13502707740078093,"267":-0.09084056078707667,"268":-0.3194677579788311,"269":-0.1389526277913253,"270":0.2754844847557269,"271":-0.17168121244815515,"272":-0.2929815424250631,"273":-0.21599059156111713,"274":-0.008693422268794177,"275":-0.1708747489585955,"276":-0.014596487646166403,"277":-0.012171181406716011,"278":-0.11636679182995972,"279":-0.27516849759003326,"280":-0.13614284724615627,"281":0.14536507147295732,"282":0.10364256242099115,"283":-0.030428698970583604,"284":-0.017290053930237054,"285":-0.00856629876547997,"286":0.1255494928521707,"287":-0.15117071923119926,"288":-0.1881228793281954,"289":-0.05234140181932761,"290":0.03425149261204305,"291":-0.06649244721493179,"292":-0.06655634553709723,"293":-0.3528681344407876,"294":-0.06841019668161705,"295":-0.10731536753405231,"296":-0.20399420506583946,"297":-0.11297471926611517,"298":-0.13647721502432522,"299":-0.07542993307573218,"300":-0.08189805930368736,"301":-0.15527413070803125,"302":-0.05711723532843054,"303":-0.07871831567225387,"304":-0.0612761258472359,"305":-0.02508704836575673,"306":0.32332530463296627,"307":0.2177013441663023,"308":-0.034758244440726,"309":0.012252807478174066,"310":-0.08421367400802444,"311":0.06602904509485907,"312":-0.2729402592238241,"313":0.23486367564811775,"314":-0.24554737745896799,"315":0.07061174584987244,"316":-0.07771516497859193,"317":-0.14760611789559866,"318":-0.024225480705792304,"319":-0.20333841390450857,"320":-0.027211034769574503,"321":0.055014306724763824,"322":-0.32894411339352214,"323":-0.06587192861341093,"324":0.040609818410605875,"325":-0.19823672307911977,"326":-0.08719757458158035,"327":0.018177268189324143,"328":0.058713229020230705,"329":-0.1570271852516542,"330":-0.09007948443047874,"331":0.1654601150379209,"332":0.141255022225994,"333":-0.04507100038985919,"334":-0.15000047468089933,"335":0.04098446237982017,"336":0.09671792833059624,"337":0.04061170185480857,"338":-0.016062452995211425,"339":0.23439227324143952,"340":-0.06762162733813519,"341":-0.15158007172457627,"342":-0.0760187685263551,"343":0.018892745204935852,"344":0.20142992902508075,"345":-0.22678797936623196,"346":0.05830304538711146,"347":-0.07013448449242982,"348":-0.06672653188180502,"349":-0.21501733453641836,"350":0.38906133440420193,"351":-0.12021764218938326,"352":0.1502980722504852,"353":-0.1393697327109545,"354":-0.3239765044687958,"355":-0.36409061190604636,"356":0.042530462341977,"357":0.09589556016065466,"358":-0.11116025654304909,"359":-0.3352637702921512,"360":-0.2878229597504996,"361":0.11487474227125224,"362":-0.16394195017994445,"363":-0.07088738224349472,"364":0.038690615035959434,"365":-0.06683296700082471,"366":0.07609611777350393,"367":-0.06195145745770042,"368":-0.035867849759908164,"369":-0.1694402376478514,"370":-0.11563407883186785,"371":-0.1822747898782014,"372":-0.14931289633608874,"373":-0.03633262598591199,"374":-0.0238635317941859,"375":-0.2085422573774209,"376":-0.02405407837119245,"377":-0.3245168194196408,"378":-0.17745434232688195,"379":-0.17608839396686915,"380":-0.17868565624625307,"381":-0.20592701300754443,"382":-0.2668374172496446,"383":-0.29859070867744997,"384":-0.19057140023706456,"385":-0.18181042234740566,"386":-0.07376796738609702,"387":-0.07726720763559247,"388":0.06552156775178664,"389":-0.22635004868166375,"390":-0.1630245116569078,"391":0.05262887632216718,"392":-0.086640703671068,"393":-0.17971350674187503,"394":-0.09880818793737095,"395":-0.06768877387698644,"396":-0.2042475485697568,"397":-0.3260946665530042,"398":-0.14303407270977828,"399":-0.33467417632407953}},{"sx":5,"sy":5,"depth":16,"w":{"0":0.0030839080507378503,"1":0.18212932432609893,"2":-0.16706656483804438,"3":-0.21303122820474701,"4":0.0619857245741358,"5":0.2785788386266584,"6":0.24378620745309543,"7":0.20551991485066676,"8":0.1401832836181406,"9":-0.06299567049004935,"10":0.23346443843776554,"11":0.05762860699785453,"12":-0.044194360089092465,"13":0.08870580349656416,"14":0.14827143993404485,"15":0.23391925478083028,"16":0.2053029791824971,"17":-0.008862119864236212,"18":0.012064820819714646,"19":-0.0372103192913495,"20":0.1289582129151732,"21":0.066220184634671,"22":0.1982380326170647,"23":0.17702491088417238,"24":0.18833131300544328,"25":0.36599445380061163,"26":0.1717018162305227,"27":0.036273978152447955,"28":-0.1331568264986408,"29":-0.15218782779472734,"30":-0.0037695378194337642,"31":-0.03276606904981921,"32":0.09714576091700443,"33":-0.018846948431337638,"34":0.16318927962125374,"35":-0.14419123259535874,"36":0.12306860003347235,"37":0.14688051777684866,"38":-0.008613332633495958,"39":0.3819104031629007,"40":0.03953044313208028,"41":0.3096009433154152,"42":0.04961866731682256,"43":0.27717565178282566,"44":0.13997152013560954,"45":0.08988572033551741,"46":-0.00795537066533391,"47":-0.1316987278008177,"48":0.05951323327548073,"49":0.10891280320425052,"50":0.05627707712396121,"51":-0.1265575673663866,"52":0.31603338266206243,"53":0.1832188193094788,"54":-0.08128524942049442,"55":0.478965930273057,"56":0.10304445506840841,"57":-0.045415699473912226,"58":0.16959317259719436,"59":0.3897200550908639,"60":-0.1788949988459714,"61":-0.05732641637071185,"62":0.041727640888938794,"63":-0.13860542195788864,"64":-0.07728980863309141,"65":-0.11794635845652239,"66":-0.021902111654427202,"67":-0.15301059850186832,"68":0.09589458062831716,"69":0.2475376480453141,"70":0.12136250374233613,"71":0.0692151570212798,"72":-0.21736938110963214,"73":0.12510794900703592,"74":-0.20051228974339338,"75":0.1866851885071759,"76":-0.009010639370297576,"77":-0.07544101380815084,"78":-0.02173113413079174,"79":-0.3481237381571536,"80":-0.23524384884505045,"81":-0.1001939964137306,"82":0.13073962827010882,"83":0.03005372625960659,"84":0.245436738251345,"85":-0.04034227306210915,"86":0.13976050112865507,"87":0.07883998657374375,"88":0.309790346581401,"89":-0.29127531521435784,"90":0.19366638891637958,"91":0.004919154984490063,"92":-0.1842838540489622,"93":-0.0784616041547763,"94":0.35404381467417084,"95":0.08020078574652557,"96":-0.20168172605170137,"97":0.05151205031090711,"98":0.3712276525149077,"99":0.220404651647496,"100":0.2586574673975822,"101":-0.07756004439358917,"102":0.22303411030153567,"103":-0.029615971826054934,"104":0.07446832769411676,"105":0.15183105615046466,"106":-0.040317116914868535,"107":-0.21524897967996473,"108":-0.09959977778860286,"109":0.0022308026711465173,"110":0.0945519205852759,"111":-0.22271844691250556,"112":-0.24699675827338116,"113":-0.050949263755740264,"114":-0.2731019489883823,"115":-0.16851761246414118,"116":-0.22650379971105125,"117":-0.36162380690305435,"118":0.03531511303607111,"119":0.0006292749501338781,"120":0.05256171597514678,"121":0.008040840599474408,"122":0.05895958039603213,"123":-0.1482658826281693,"124":0.06509102591038561,"125":-0.13562229264203407,"126":-0.16812556347301102,"127":-0.3571287805093796,"128":0.09606187111663303,"129":-0.07837154526955346,"130":-0.37863052204958575,"131":-0.3946970597930923,"132":-0.15048613484644946,"133":-0.06359024986214194,"134":-0.02561911651147749,"135":0.07950137733561297,"136":-0.11952812534561821,"137":-0.1479616433770883,"138":-0.10413010813530432,"139":0.0725929990512186,"140":0.013262867172619692,"141":-0.03748322767670791,"142":-0.23477914797682006,"143":-0.19268872524352249,"144":-0.34776148265959844,"145":-0.03439354324675125,"146":-0.37231402898789023,"147":-0.2717373271101324,"148":-0.009056567959509952,"149":0.272771459736296,"150":-0.04340565048143668,"151":0.09241056699778999,"152":-0.22671508142951066,"153":0.1183751456306509,"154":-0.2647577775278323,"155":-0.050575046410400636,"156":-0.01564593388102575,"157":-0.03602267538619315,"158":-0.28712475467488896,"159":0.05710880144722294,"160":-0.07444753735794069,"161":-0.11955049288157987,"162":0.05354183340433655,"163":-0.08419797588855994,"164":0.18547568001004633,"165":-0.1231904800765831,"166":0.08499714729614273,"167":-0.02280833871626511,"168":0.10089279380142946,"169":-0.31983693587356804,"170":-0.15858071324917986,"171":0.2484193393080568,"172":-0.36565661755857876,"173":-0.12055564121347188,"174":0.40278635087145537,"175":-0.1716593277558902,"176":-0.05136779264056636,"177":-0.08334199364067098,"178":0.09952722285638047,"179":-0.14516036560433185,"180":-0.17816528306996318,"181":-0.6264625377241861,"182":-0.09162924724423306,"183":-0.2629113345578963,"184":-0.16277064878869668,"185":-0.38672685647761934,"186":-0.07638369903921799,"187":-0.23005229995379864,"188":-0.21373265772978012,"189":0.05462991123235349,"190":-0.229974809103643,"191":-0.11857163222573193,"192":-0.10026224467769872,"193":-0.03136111486770643,"194":0.317416798784207,"195":-0.08837267516686839,"196":-0.2968864170098585,"197":-0.964969968259192,"198":-0.013205250230528303,"199":-0.2482030544712835,"200":-0.30542290435517705,"201":-0.08232878081083757,"202":-0.01125522139662281,"203":-0.19554558953544018,"204":0.03654217714705559,"205":0.03832510032149671,"206":-0.09586164192735178,"207":-0.046162851281160794,"208":-0.3333393021068337,"209":-0.1329347129812542,"210":-0.046410444017837484,"211":-0.012050043448348277,"212":-0.15760358488566842,"213":-0.382614707664598,"214":-0.04864666904164729,"215":-0.384922012613777,"216":-0.137980774894527,"217":-0.22773811504012695,"218":-0.3439802243424994,"219":-0.07946684741228871,"220":-0.033265352389690236,"221":-0.05021691871758999,"222":-0.2016110867453396,"223":-0.2781470415390319,"224":-0.3437928400683026,"225":-0.09493317031581432,"226":-0.21323475967116132,"227":-0.5243678525861263,"228":-0.11319778991780664,"229":0.11955538178019687,"230":-0.23110872313391162,"231":0.08563938741557096,"232":-0.25970929933025655,"233":-0.03861390471669164,"234":-0.06607213491482879,"235":0.08004133454502836,"236":-0.1614181576367604,"237":-0.13819456418362433,"238":-0.24477801484372252,"239":-0.21604461083944324,"240":-0.11121392230143233,"241":-0.10858998982473458,"242":0.15514853924584868,"243":0.5754345314678144,"244":-0.3291887675858324,"245":-0.23188901257106528,"246":-0.16979166852544206,"247":-0.03527907729425244,"248":0.3768393142668689,"249":-0.015587377885044124,"250":0.06598720465567927,"251":-0.2264726701000769,"252":-0.08572553002465895,"253":-0.027422739595639654,"254":0.09266436751340798,"255":-0.3004644003512452,"256":0.07969014716357782,"257":-0.045832131810843536,"258":0.34919428349119797,"259":0.572004072280286,"260":-0.24054507697580263,"261":-0.45811322275362887,"262":-0.26767362667185157,"263":-0.39249856067385447,"264":-0.159108592824135,"265":0.056443930066178476,"266":-0.4174565823260657,"267":-0.12680738476978176,"268":0.029047179851372822,"269":-0.10861490175026266,"270":-0.07353739881030326,"271":-0.3263765375911172,"272":0.1307235365556978,"273":0.09330969347588627,"274":0.005459484254298086,"275":-0.004268554920092692,"276":-0.10359995432875116,"277":-0.7446735109516127,"278":-0.11955729286725607,"279":-0.4259186759549882,"280":-0.08437027856024229,"281":-0.09119246151543052,"282":-0.07305197567525286,"283":-0.28678734058092026,"284":-0.0505446077662448,"285":0.07666390871899645,"286":-0.24826570295222064,"287":-0.11443321489586704,"288":0.1666496258465662,"289":0.12038579443547523,"290":-0.12736986559612276,"291":-0.12460243822901909,"292":-0.3125993438648821,"293":-0.14514883002650558,"294":0.019568124635588317,"295":-0.01549474216334448,"296":-0.04938493329820778,"297":-0.26437774727484087,"298":0.1337384099641274,"299":-0.17108509304643035,"300":-0.06199347648443148,"301":-0.07327358270810339,"302":-0.12184889876650294,"303":-0.10312066167219486,"304":0.1823809091045205,"305":0.2065524609079164,"306":-0.04477145492825781,"307":-0.11828235601576755,"308":-0.14183995141314756,"309":-0.01179035133389718,"310":0.05965829657259318,"311":-0.02309771494768635,"312":-0.05708237150137346,"313":-0.11920950104388094,"314":-0.19059804313144768,"315":-0.0320936743358066,"316":-0.03593389892942696,"317":-0.054311935063691655,"318":0.17101989836183698,"319":-0.12001127266293421,"320":0.2670080008706216,"321":0.069056380456063,"322":-0.08190260290433782,"323":0.0968900902951795,"324":-0.16837723976453672,"325":-0.5019094132982315,"326":-0.08573081314547802,"327":-0.0918728048579245,"328":0.12281895858811195,"329":0.11430156013913728,"330":0.29121935289336454,"331":-0.18586463378004506,"332":0.13879117407211558,"333":0.008114432408100182,"334":-0.1344245981855758,"335":-0.2741917624242749,"336":0.19279031054775586,"337":0.0767914640520706,"338":0.193222391445127,"339":0.5628113325678401,"340":-0.024050223687702696,"341":0.006489001542885377,"342":-0.27191990904696933,"343":-0.17347458134800378,"344":-0.04731629878831176,"345":0.024608264277560046,"346":0.04916958505306199,"347":0.03508053775984628,"348":-0.19496071780257432,"349":-0.23367133810604962,"350":0.0032363763143127473,"351":-0.08744222788261276,"352":0.09523119450161427,"353":0.10858097421036123,"354":0.09844876532923026,"355":0.21865295854436972,"356":0.04249249064429961,"357":-0.3579213702607055,"358":-0.1522045840066636,"359":-0.10435736911530309,"360":0.19537693813917983,"361":0.043639673763702494,"362":0.1439620603077696,"363":-0.06757380207553847,"364":-0.17985409947870346,"365":-0.16992320916708364,"366":-0.136704446759128,"367":-0.0932752883412463,"368":-0.0031494986392182475,"369":0.11803361630456934,"370":0.025501970529159913,"371":-0.13527037907239126,"372":-0.05642506767970574,"373":-0.2256140980122744,"374":-0.2972111406185065,"375":-0.297140823029388,"376":-0.043791335676890725,"377":-0.23344830264811148,"378":-0.12949460002621804,"379":-0.16457127555755946,"380":-0.303822455669993,"381":-0.059633040804981455,"382":-0.37555969833610303,"383":-0.21324070082890711,"384":0.23606188650733603,"385":-0.11049996555129883,"386":0.19862099320183374,"387":-0.1523278083217209,"388":0.09081275100300296,"389":-0.042044457877510676,"390":-0.21518337952732317,"391":-0.21042656311882063,"392":0.17402741721031365,"393":-0.12170543029706406,"394":0.05312805218380199,"395":-0.13639818153155436,"396":-0.2534796097188603,"397":-0.23452389564741222,"398":-0.05072493137593346,"399":-0.004643668494933145}},{"sx":5,"sy":5,"depth":16,"w":{"0":-0.1122211395421854,"1":-0.3137589317197591,"2":-0.03200120268871944,"3":-0.12640621688600667,"4":-0.09281260936358406,"5":0.05861106478853706,"6":-0.09806458355563132,"7":0.14820113392148704,"8":-0.21380204926643656,"9":0.038971437923203046,"10":0.17228634428676454,"11":0.09754191082697587,"12":-0.002707768738210537,"13":0.08026901697241962,"14":-0.3612405009876492,"15":0.1633765980736178,"16":-0.26511623198820894,"17":-0.1403529843363759,"18":0.15284283282306094,"19":0.04467197379800294,"20":-0.16516727431129943,"21":-0.11589972806725331,"22":-0.25220747236537466,"23":0.096124108916545,"24":-0.1129823116999779,"25":0.052540819614253303,"26":0.04690802727022127,"27":0.15860239827439307,"28":-0.15009351951344083,"29":-0.20776952167736287,"30":-0.23157247639472964,"31":-0.017293382098300725,"32":0.04702748638525588,"33":-0.12480502528819885,"34":-0.04673647238832915,"35":0.17939064823973105,"36":-0.25862566194609343,"37":-0.2347959981832148,"38":-0.09063851017535104,"39":-0.10007129299924063,"40":-0.07196174962036274,"41":0.18484225639731494,"42":0.03299633344787585,"43":0.22205651239303295,"44":-0.11083795116257517,"45":-0.24024636020784218,"46":-0.25113788263895953,"47":-0.0861867264416661,"48":0.14609503564785908,"49":0.02346095280734634,"50":-0.21836752805877865,"51":-0.08047489700588963,"52":-0.24804364196826859,"53":0.41784384312106415,"54":-0.10494487863804661,"55":0.09222233911746834,"56":-0.170920214048796,"57":0.14762085517169526,"58":-0.11535171742304408,"59":0.1531047429444445,"60":-0.136980477233804,"61":-0.32616675888743935,"62":-0.010937435058660613,"63":0.049739869364935275,"64":-0.24388937752252315,"65":-0.08688693875066514,"66":-0.25237660179033317,"67":0.1796918829197064,"68":-0.28716325871269277,"69":-0.017622144872877818,"70":-0.14564901130583474,"71":-0.13611362449606662,"72":-0.16267316178686023,"73":-0.1619627289789446,"74":-0.048169082505535546,"75":-0.18375654263774963,"76":0.050373641949378406,"77":0.0642268552959384,"78":-0.13437860960586182,"79":0.05384105327568439,"80":-0.07539326453372219,"81":-0.15414626335710516,"82":0.33039758122727436,"83":-0.06768407903959556,"84":-0.11198021719830985,"85":0.12227599317835705,"86":-0.08271482561770253,"87":0.06071659648652246,"88":-0.2552685250327585,"89":0.04146889685338981,"90":-0.19511448613394525,"91":-0.017466729721062786,"92":-0.26872411679743163,"93":0.16410767308970584,"94":-0.3368401751950158,"95":-0.21287327634861608,"96":-0.0004663788087313471,"97":0.07487762550523125,"98":0.03416211200711552,"99":0.05334207195759122,"100":-0.30768286702048586,"101":-0.25577190726089777,"102":-0.08553299812900678,"103":-0.15630114163502928,"104":-0.11592409044692739,"105":0.0871858648506114,"106":-0.177509518256132,"107":-0.056697285570437066,"108":-0.17707859878056384,"109":0.06433579134102249,"110":-0.07455310114494822,"111":0.015913147373793023,"112":0.03241619260466122,"113":0.007821280268894398,"114":-0.28041680708452965,"115":0.1237777607350871,"116":0.006069196902134684,"117":-0.03314639109334774,"118":0.039634426047120454,"119":-0.21262424618823716,"120":-0.14676222190194327,"121":0.22660187335064907,"122":0.005810144310028317,"123":0.010557127594413523,"124":-0.10730778004194584,"125":0.003961634715978359,"126":0.04540845917220009,"127":-0.09170916235117152,"128":-0.043639316777594674,"129":0.10079661370201892,"130":0.09779897000593958,"131":0.13862636252308302,"132":-0.1473185652854054,"133":0.13365167108478582,"134":0.07458756188192302,"135":0.29894377196647526,"136":0.09232233747779917,"137":-0.03604917025159984,"138":0.16405203827418025,"139":-0.031053102686350455,"140":-0.27409098247858793,"141":0.004599046900411957,"142":-0.008060045401336017,"143":0.11798734068767408,"144":-0.27354980762182396,"145":-0.1897746747121663,"146":0.07210323283240905,"147":0.011706117809804743,"148":0.07825656403164606,"149":-0.04341486100920087,"150":-0.25654760559947015,"151":-0.2840356687496896,"152":-0.0177914359221874,"153":0.06310978052656621,"154":0.08307821365590878,"155":0.0728964418365306,"156":-0.002164005895728751,"157":0.03809365728298713,"158":-0.18528498167091156,"159":-0.2887289231504433,"160":0.010023194911051726,"161":-0.07444976911884829,"162":-0.275692495288594,"163":-0.28828121012330027,"164":-0.1273023105834167,"165":0.12547165254631948,"166":-0.02911701135911106,"167":0.31538638319697326,"168":-0.00622271692080328,"169":0.0019021462968050492,"170":0.032221495628385236,"171":0.08976868275379217,"172":-0.11870570963441446,"173":-0.013520006623359492,"174":-0.20079537573800024,"175":-0.08027441712364877,"176":-0.08682836804655922,"177":0.12714682950866324,"178":-0.09127553593833747,"179":-0.06056423495240501,"180":0.03494690895817049,"181":-0.00011010317683772262,"182":0.04326447011823423,"183":-0.16135736201764905,"184":0.11701987325029213,"185":-0.006960524738313008,"186":-0.038090641730786357,"187":-0.2930346319872959,"188":-0.25617343927606323,"189":-0.06392058445251869,"190":0.09491133982815102,"191":-0.2032217998485813,"192":0.050005887394130345,"193":0.27437375624570665,"194":0.015534567679843946,"195":0.03038342439317961,"196":-0.08719329690474356,"197":-0.14126682717773736,"198":0.06223828184825795,"199":-0.23062123877281968,"200":0.2097538178530536,"201":-0.10584712203703489,"202":0.23199263580209423,"203":-0.13676993339633667,"204":-0.28853107703559266,"205":0.127630477515374,"206":0.18389474953100532,"207":-0.07899977170887942,"208":-0.1204497681032381,"209":0.02805275547301027,"210":0.18563393548765247,"211":0.07651166031868832,"212":-0.019794940367791076,"213":-0.31441870746127015,"214":-0.015449875195124942,"215":-0.07568895768257049,"216":0.3312577463312907,"217":-0.09091301350832455,"218":0.0567306765242217,"219":0.13868237019213892,"220":-0.08031735396367568,"221":-0.24072513170115395,"222":-0.07566862973008112,"223":-0.1490925398568127,"224":0.04561267559074847,"225":-0.18669052874628458,"226":0.1789171661371387,"227":0.10946390544163462,"228":-0.10983669643100553,"229":-0.2643697580255556,"230":-0.10927119149436043,"231":-0.19628341600603308,"232":0.047646925196795656,"233":-0.0905402745515723,"234":-0.1342744766223687,"235":-0.1686758868742155,"236":-0.09516285453439646,"237":-0.07359482474616515,"238":-0.32139776060985703,"239":-0.23971465066642209,"240":0.1094989112937374,"241":-0.31811698443883707,"242":0.052084345480970164,"243":-0.1271844122687455,"244":-0.19191920179111227,"245":-0.012957656233159962,"246":0.003249500087781156,"247":0.20506534363950435,"248":-0.15783364973920078,"249":0.04835212292067277,"250":-0.24595460650609902,"251":0.04160140582167233,"252":0.117785627561863,"253":-0.28271477714604476,"254":-0.016594768768494864,"255":-0.04510492265390576,"256":0.12924386525587409,"257":0.12159353537745267,"258":-0.017425286150005992,"259":-0.12236480405253244,"260":-0.051938752578633805,"261":-0.3147525079630888,"262":-0.012949354193320644,"263":-0.07098153148819605,"264":-0.30650143570882615,"265":-0.3190059153328367,"266":-0.3965026819213508,"267":-0.024908883331063655,"268":0.056167109381417654,"269":0.1783754948912029,"270":0.05900586446819641,"271":0.08999607056501999,"272":0.11794949755316492,"273":0.050315891270373427,"274":-0.1870275034486719,"275":-0.12102627735424219,"276":-0.447282436920237,"277":-0.4655266732185919,"278":0.0906695664666404,"279":-0.448046631949224,"280":-0.02497199864733941,"281":-0.15786045425939862,"282":-0.464192370682385,"283":-0.3444939803540865,"284":0.06397376039252954,"285":0.04359105264204962,"286":-0.044011663291371794,"287":0.1856527981006466,"288":0.11342195139755176,"289":0.2501008082057215,"290":-0.0543251454313529,"291":-0.05673455235580935,"292":-0.03498178260426187,"293":-0.07156709446497896,"294":0.12136797217707257,"295":-0.2990243540163367,"296":-0.07888095730401835,"297":-0.08455308078063843,"298":-0.3266133835986554,"299":-0.17146245290706566,"300":0.13838020616588176,"301":0.07758709825724787,"302":0.14429786639044262,"303":-0.04997086021336776,"304":0.037865125270795934,"305":0.2726106515474895,"306":-0.15376296071368,"307":0.06985372920985021,"308":-0.2437717368678237,"309":0.14892440585244723,"310":0.2732447498890127,"311":-0.08075129295426084,"312":-0.024602764148683752,"313":-0.08104036068494755,"314":-0.1355859599558402,"315":-0.36481912803495287,"316":-0.20606855732716228,"317":0.02577786417079532,"318":-0.12362875016969631,"319":0.0065023987288343795,"320":-0.09044741015300914,"321":-0.28230067312888113,"322":-0.1625818435025594,"323":-0.0286779197168186,"324":0.16478542518336234,"325":0.16514642739719856,"326":-0.1547301851514093,"327":0.15069047345650058,"328":0.2833015535279444,"329":0.28184452644995844,"330":0.035329913344998465,"331":0.16524710462050324,"332":-0.20053857510876258,"333":-0.1735381368818355,"334":-0.08023405721269332,"335":0.08986163906226816,"336":0.2143808836256078,"337":0.06191338041767866,"338":-0.2710913896515679,"339":0.10288660964207139,"340":0.21084102344238936,"341":-0.0017035033398255838,"342":-0.21410688672027137,"343":0.19738706021429867,"344":0.4206073563021134,"345":-0.285335605812489,"346":0.1866853287688996,"347":0.01265363167927732,"348":-0.21629658814643068,"349":0.07578040580180387,"350":0.12708472326301418,"351":0.13261027428827463,"352":0.021330480935928514,"353":-0.26106617656993547,"354":0.039191067298162914,"355":-0.039876907655405164,"356":0.07724048627856253,"357":-0.11678764094957242,"358":-0.21678376812900374,"359":-0.14372663425590082,"360":0.46903105179782584,"361":-0.23605286787082197,"362":0.08558915385456092,"363":-0.14251108272062332,"364":-0.23981675504381952,"365":-0.18764970136933173,"366":0.007201395980482356,"367":0.1311016926893632,"368":0.007684956641757782,"369":-0.16364265627189176,"370":0.21377574167671093,"371":-0.13430081899047594,"372":0.10543766852853902,"373":-0.24954362559069584,"374":-0.023804657737638176,"375":-0.008084341083362392,"376":0.39005056653074177,"377":-0.07138754551728088,"378":0.2810293858772254,"379":-0.03609201791364947,"380":0.06381234348157326,"381":-0.18874050411108856,"382":0.29195897061806264,"383":-0.10076349536758754,"384":0.009241944042133028,"385":-0.0862415854986266,"386":-0.12288827512874662,"387":-0.1687335952884161,"388":0.10026770753677118,"389":0.11921335127903203,"390":-0.06792824657862379,"391":-0.10151362023268037,"392":0.023796763432257513,"393":-0.2621488127195116,"394":0.16138885237872175,"395":0.37538871867521606,"396":-0.28607879252754953,"397":-0.1377057143455919,"398":0.01461597749343497,"399":-0.006508466623701244}},{"sx":5,"sy":5,"depth":16,"w":{"0":-0.07193122593712926,"1":-0.12803218341537,"2":0.06576525418722837,"3":0.32024332164952485,"4":-0.06045196586931676,"5":-0.12288563959370714,"6":-0.15178916921717375,"7":-0.15847442950108473,"8":-0.08632994189546764,"9":-0.02507221493060873,"10":-0.5021693871741649,"11":-0.09068087778919878,"12":-0.18192584230941863,"13":-0.20529253003200565,"14":-0.010218795784911663,"15":-0.1845661776159818,"16":0.041280784995037165,"17":-0.02962374997081349,"18":-0.03538386290890112,"19":0.47734852384791565,"20":-0.07528967693958616,"21":-0.4103158046985529,"22":-0.05318647111929914,"23":0.044164353225624134,"24":-0.0056295904770230845,"25":-0.23285896952810595,"26":-0.25993817040828227,"27":-0.07704592632345429,"28":0.08187513217481374,"29":-0.10546864766550378,"30":0.038543418371763116,"31":-0.1981867790125277,"32":0.08033155702980808,"33":0.0038196588866484258,"34":-0.3329007117487898,"35":-0.09475989069732295,"36":-0.04168899642063721,"37":-0.2282656148219305,"38":-0.05253586120125708,"39":-0.05866764082450402,"40":-0.2521451179313629,"41":-0.14750657883181206,"42":-0.18781099938226553,"43":-0.23478112628410577,"44":0.10019334606945102,"45":-0.1522183267916949,"46":0.00012441015386448835,"47":-0.16700352753898298,"48":0.0317081727425323,"49":0.04056169693401617,"50":-0.1733725739790608,"51":0.014755475988841605,"52":0.05696708189984878,"53":0.2529670404156492,"54":-0.07655340002086027,"55":-0.3418248926390794,"56":-0.14356324615238356,"57":0.06952712257126932,"58":-0.3118171834710768,"59":-0.06375915528292549,"60":0.09306862090961014,"61":-0.03363099562335649,"62":0.04341519271262709,"63":-0.023126811840163634,"64":-0.10726524815053526,"65":0.051708905185570385,"66":-0.19548213560781982,"67":-0.007842388862983603,"68":0.02078580464552627,"69":0.2164396458789356,"70":0.0795839267475251,"71":0.14050386822730096,"72":0.05291140271473326,"73":0.025814485762957147,"74":-0.0794991485072913,"75":-0.04283804235308011,"76":-0.04209448330597317,"77":-0.034306478784219205,"78":0.17248663115123986,"79":-0.016142491200290227,"80":-0.13059246966285995,"81":0.10522725347767345,"82":-0.3230571993880939,"83":0.09534927662364681,"84":-0.10382172052799302,"85":-0.06036294360798827,"86":-0.005913757085345377,"87":-0.04965882414807451,"88":-0.14300886957015702,"89":-0.2145295393222991,"90":-0.3209883201685836,"91":-0.10140164798462867,"92":-0.28412234300203165,"93":-0.06947306495666529,"94":-0.037627900630687376,"95":-0.09316383660251809,"96":-0.014346151163458623,"97":0.0526510814978783,"98":-0.1625714614762783,"99":0.17871038754300592,"100":-0.12775037314385304,"101":-0.03926195832331951,"102":0.0405327198907061,"103":-0.10806688496724237,"104":0.0003423017146480708,"105":-0.006963487748043375,"106":-0.319902489076261,"107":-0.19396039316939678,"108":-0.00306979148738195,"109":-0.22225574681217555,"110":-0.06866930160997604,"111":-0.046780921833199936,"112":-0.037547515901400395,"113":0.12283342896415574,"114":-0.05628244147495191,"115":-0.05564085145667105,"116":-0.0745432186827338,"117":0.10218455557016712,"118":-0.10528612301022963,"119":0.03166025662246168,"120":-0.014322374745486205,"121":-0.053350903108339204,"122":-0.12037199527394303,"123":-0.32732525124035927,"124":-0.05468881892175023,"125":-0.015945393654380535,"126":-0.0964765601125774,"127":-0.06566193224252317,"128":-0.24823216853907878,"129":0.13361953976310556,"130":-0.35525904310821355,"131":-0.3499351670939001,"132":-0.13185768418443905,"133":0.3461288924124396,"134":0.05310126213143757,"135":-0.015238813627672841,"136":0.0730292143370041,"137":-0.08649940240200851,"138":0.17351653362127203,"139":-0.0638014650993357,"140":-0.10881960331062841,"141":-0.09385668478536617,"142":0.2546213955155172,"143":-0.10860074425111003,"144":-0.15873958938665902,"145":0.1055476760565761,"146":-0.18357621253278975,"147":-0.24190671557844626,"148":0.049344892054210346,"149":-0.18958859272777817,"150":0.02667513823249985,"151":-0.054394658679000805,"152":-0.036715783989934615,"153":-0.20407494126132342,"154":0.05433115362965154,"155":0.11985023097176553,"156":-0.215095354022864,"157":-0.10898645841288122,"158":0.08521052490988112,"159":-0.03208679993849016,"160":-0.12778823321341812,"161":-0.09401561795153784,"162":0.05812854324189225,"163":-0.006705224399398991,"164":0.16264965889644895,"165":-0.042659360569775144,"166":-0.1284934877688335,"167":0.029013211739835003,"168":0.21477896076756325,"169":-0.23294215135957003,"170":0.25160231481508416,"171":0.06010722303034555,"172":-0.17238402139414186,"173":-0.16897473256752715,"174":-0.06670384341755209,"175":0.0879259844627613,"176":0.026331621619212858,"177":-0.10849532203192067,"178":-0.027163908504930126,"179":-0.09158856161030035,"180":0.17097488151099077,"181":-0.008511754400429719,"182":-0.05073432542372064,"183":0.047742147855721964,"184":0.2779788046856284,"185":-0.1805792196530882,"186":0.27876940363358677,"187":0.025463841177582762,"188":-0.04002484192033084,"189":-0.15624465038578986,"190":0.03845796290485072,"191":0.08936374212837973,"192":0.002851200044472853,"193":-0.12787355100557846,"194":-0.01164075867051493,"195":-0.16615338460001847,"196":0.3323596029347555,"197":0.11072655996222151,"198":-0.0643472740790308,"199":0.1764820021231759,"200":0.017845322391881097,"201":-0.08771829725858295,"202":0.28918294427625113,"203":0.21938735563790976,"204":-0.11897127183084052,"205":-0.1067594049923613,"206":0.16021133708120208,"207":0.005509680869830952,"208":-0.16788752011668617,"209":-0.12034932206348568,"210":0.02488738336250138,"211":0.030216524587202517,"212":0.05601793316945012,"213":-0.21568394304153335,"214":-0.07118776469482158,"215":0.09975612633925696,"216":0.02217152535909883,"217":-0.1691947017679471,"218":0.2516715009295672,"219":0.17172194549065178,"220":-0.1398771281025908,"221":-0.02313275484738095,"222":-0.030781213933333742,"223":0.057013660050849936,"224":0.025254535633908816,"225":-0.03959280704111758,"226":-0.22725086114936566,"227":-0.19115432230845397,"228":0.17399444259592464,"229":-0.12198603551435706,"230":-0.1077250480350152,"231":0.03476585234059947,"232":-0.11475707179338686,"233":0.01589755764488813,"234":-0.08396425545783806,"235":0.050765696905425955,"236":-0.2757073754875523,"237":-0.1375279221757576,"238":-0.024884712286775277,"239":0.05961935835286821,"240":-0.1918208796453515,"241":-0.07692692099651895,"242":-0.19733948312882077,"243":0.09295145679605482,"244":0.06878186083258957,"245":-0.010173451441631301,"246":0.07245048285622321,"247":-0.004512997041086245,"248":-0.04930517436894085,"249":-0.09101969427905181,"250":-0.08648360365656937,"251":0.1143788332793596,"252":-0.043126503604378336,"253":-0.039602024616167485,"254":-0.04626231831187496,"255":0.014064590174961658,"256":-0.20644763788559864,"257":-0.12676830352662863,"258":-0.05310874777778892,"259":-0.18299811120773343,"260":0.06275149640097823,"261":-0.22863373774504225,"262":0.09989794432559829,"263":-0.015556368247095144,"264":0.13471466246495817,"265":0.1140292627358791,"266":0.028549451521025407,"267":0.13597757965062737,"268":-0.12456753513760699,"269":-0.10346224284350139,"270":-0.003749471029872271,"271":0.028105809801228294,"272":-0.32197643843702267,"273":-0.020198264552056557,"274":-0.1740805171359648,"275":-0.2752957024222983,"276":-0.025123734651527174,"277":0.09872303156991025,"278":-0.04313658153292783,"279":0.28881991517423217,"280":-0.06027557032532703,"281":-0.07846864260527807,"282":-0.09001803968001859,"283":0.011054420680128293,"284":-0.16989230915287593,"285":0.041839326199065045,"286":0.0461288683154271,"287":-0.15259086168517227,"288":-0.3960643043641302,"289":-0.02495640362404099,"290":0.11506370450366259,"291":-0.16696620450375083,"292":-0.07545796404479323,"293":-0.32190936418737964,"294":-0.032700664253126954,"295":-0.04194631225806668,"296":0.009702865988107398,"297":0.12381368128296373,"298":-0.10289972410712013,"299":-0.2059643192419686,"300":0.07106824702648012,"301":0.001450170563945546,"302":-0.012786998848777889,"303":-0.08922264526944333,"304":-0.5043304457261244,"305":-0.0006869508717583112,"306":-0.0573570753007701,"307":-0.08084572027173229,"308":0.0201363410173141,"309":0.10766305437249385,"310":0.017466017860046132,"311":0.11164151632920279,"312":-0.09560411587960356,"313":-0.12893738377584352,"314":-0.04530240005224979,"315":-0.001451890802604269,"316":-0.17969217648199168,"317":-0.08309345595879175,"318":0.038986419673923835,"319":-0.12388053306508257,"320":0.2753626146796605,"321":0.00289949972064122,"322":-0.2492518298649224,"323":-0.17493356945885793,"324":-0.09314199632787509,"325":-0.15593802322734499,"326":0.10007459255943649,"327":-0.17938303604210384,"328":-0.1436158646603532,"329":-0.1170009887873078,"330":-0.4392823005005813,"331":-0.1154899005921963,"332":-0.04585306173858643,"333":-0.017980956388586492,"334":-0.09154496476221483,"335":0.0010253935720756138,"336":0.25133990431239983,"337":-0.0654180808406764,"338":-0.07738771747828922,"339":-0.10528365373521051,"340":-0.17424824831007352,"341":-0.03470235618444126,"342":-0.02547981605814016,"343":-0.14153695485546747,"344":-0.08453823944883311,"345":-0.03454483853979133,"346":-0.34839516773527623,"347":-0.30322193287039617,"348":-0.21358549918691858,"349":-0.10990804028815285,"350":-0.07736911022761155,"351":0.025915615017375528,"352":0.23812326013920215,"353":0.0005982734154050699,"354":-0.3391729898760112,"355":-0.1510748418889777,"356":-0.10789954888982867,"357":-0.22026831532358498,"358":-0.19643658853730658,"359":0.09977912493286856,"360":-0.21984580486590624,"361":-0.21979127672145343,"362":-0.19255958374405072,"363":-0.1891927220017944,"364":0.0007987129060203967,"365":-0.04661095854390335,"366":-0.10450522260867734,"367":-0.1914879331317422,"368":0.2123077293417983,"369":-0.05004301022341322,"370":-0.2549801880767369,"371":-0.06519105180764626,"372":-0.16456604813484405,"373":-0.19969206426315966,"374":-0.07474873514690439,"375":-0.1851616349604603,"376":-0.18926826771097252,"377":-0.16996384106356602,"378":-0.2852161289727839,"379":-0.306729625985776,"380":-0.2006939340021543,"381":-0.10752078210435406,"382":-0.012506732899983494,"383":-0.07716483143441105,"384":0.2834525418726861,"385":-0.009964480449980637,"386":-0.17253730232442618,"387":-0.027693704589750994,"388":-0.031719566256375814,"389":-0.17503906145751785,"390":-0.014112851058937805,"391":0.05159250270850157,"392":-0.381879357798384,"393":-0.3644551062292215,"394":-0.17911063229215443,"395":0.05871688976586478,"396":-0.16510783425432182,"397":-0.12873673377641714,"398":-0.07344522680960543,"399":-0.04792774475828991}},{"sx":5,"sy":5,"depth":16,"w":{"0":-0.3674396682287306,"1":0.14427085058425146,"2":-0.1701137594510832,"3":-0.33053699169803,"4":-0.012139032479126212,"5":-0.07294746877512526,"6":0.320568583293554,"7":0.04757054808313159,"8":0.18411093281620994,"9":-0.009770908166712288,"10":0.06687368538008484,"11":0.20585369203767356,"12":-0.09792174927641935,"13":0.19365800152051943,"14":-0.10237929455114302,"15":0.26747538686991956,"16":-0.4546002389295889,"17":0.11100818081475065,"18":-0.0876224864753733,"19":-0.1775854289482964,"20":0.0121688672808436,"21":-0.2513623625123218,"22":0.29175971783791765,"23":-0.5666595104341366,"24":0.02934336744244246,"25":0.10331999687147411,"26":-0.012074467237738931,"27":-0.1334597555042828,"28":0.0015000369923723735,"29":0.1555291753522081,"30":-0.2065260882329709,"31":0.27310238984733554,"32":-0.5037508023680416,"33":0.013419640285076511,"34":0.05186212480873963,"35":0.17038882719182435,"36":0.05753843806649994,"37":-0.11452743627295799,"38":0.06600863363571555,"39":-0.24117723953425832,"40":0.04243015366552622,"41":-0.17842395498470645,"42":0.07296687111732283,"43":0.05962603769471502,"44":-0.21005358927373283,"45":-0.06528939908824455,"46":-0.22009332332217604,"47":0.11704653634646336,"48":-0.07288423327093001,"49":-0.07935808851504465,"50":-0.03476435155622061,"51":0.3052887480383086,"52":-0.027235200074085014,"53":-0.14345677530334855,"54":-0.0449440428162543,"55":0.2770654909033871,"56":0.318436672084661,"57":0.20527085286940702,"58":0.22113869602467312,"59":0.38040769073672526,"60":-0.32621395852344537,"61":-0.10569922666892963,"62":-0.11683136365372997,"63":-0.05501030387371577,"64":-0.08713418019950622,"65":-0.14173151752613017,"66":-0.016281314706464354,"67":0.004360423710846581,"68":0.08540087342244836,"69":0.3743272671234164,"70":-0.11278448267531825,"71":0.1816492776891508,"72":0.2967949133556568,"73":0.15392909676105834,"74":0.2276319163981075,"75":0.11604643432052324,"76":-0.05146366863456391,"77":0.00956679132793554,"78":0.2881367417304767,"79":0.10722599909729662,"80":-0.05616822909731799,"81":-0.08595628618514188,"82":0.0662831121711596,"83":-0.1257796981596302,"84":-0.03849293821601924,"85":-0.06449540461285468,"86":0.09427097846696202,"87":-0.34059191394750843,"88":-0.2256762084565844,"89":-0.010346301087548967,"90":-0.23155652310387775,"91":-0.18319861844761298,"92":0.051685505498258004,"93":-0.04749420781519157,"94":0.12375744985691996,"95":0.11760478823575193,"96":-0.060305227903889314,"97":0.23993110597492445,"98":-0.10843135594472118,"99":-0.1109724569258928,"100":0.0010128470727677732,"101":-0.3275553356897266,"102":0.08052300666503652,"103":-0.5113201126933407,"104":-0.7942710462673214,"105":-0.1309718446459052,"106":-0.16299430025007608,"107":-0.13854431798156608,"108":-0.02033429297053453,"109":0.09460702931723859,"110":-0.025279076366167483,"111":0.10837981399626662,"112":-0.1453892256033445,"113":-0.005877767066690294,"114":-0.0923974906512364,"115":-0.00988375020159641,"116":-0.0010121732642938632,"117":-0.1892094094557497,"118":0.2028175466138644,"119":-0.22671831114092933,"120":-0.5687623551231611,"121":-0.13333866146025752,"122":-0.1290776518399597,"123":0.09894682280838107,"124":-0.17584457472555146,"125":0.012794616515545329,"126":0.12659551710865527,"127":0.0031407598516106014,"128":0.13953769824296708,"129":0.04421087697326053,"130":0.16586138153862914,"131":0.2775870805472798,"132":0.03773509323049851,"133":-0.30295683608337043,"134":0.0025905491945578544,"135":0.13194477375754213,"136":-0.11982475438247522,"137":0.2409789964838838,"138":-0.1033082046139384,"139":0.1354553756693712,"140":0.009295568182193775,"141":0.0882696999588202,"142":-0.10389287753088616,"143":-0.290646847797881,"144":-0.041832424623795814,"145":-0.1570163440360856,"146":-0.08040323412142583,"147":-0.09027233596245464,"148":0.04610224994398532,"149":0.3779910740912685,"150":-0.10087740591852218,"151":0.11173678877501032,"152":-0.15054097760584315,"153":0.15206552371043186,"154":0.06937376208979806,"155":-0.08085758501507874,"156":0.041488008299179285,"157":0.058284155070633226,"158":-0.03198539161843736,"159":-0.040351310286745046,"160":0.07040016727830858,"161":-0.04991281850028879,"162":-0.08370028735600195,"163":0.06886800378080311,"164":0.02103486837495599,"165":0.05184821246584518,"166":0.07279851340558893,"167":-0.3570244549762857,"168":-0.030497381469360468,"169":0.10559051247517907,"170":-0.0004690664149926546,"171":-0.14582891071205764,"172":-0.05102560516968581,"173":-0.1735769422173286,"174":0.15952764944553172,"175":-0.12347811193638437,"176":-0.16716078920665967,