{"layers":[{"out_depth":3,"out_sx":32,"out_sy":32,"layer_type":"input"},{"sx":5,"sy":5,"stride":1,"in_depth":3,"out_depth":16,"out_sx":32,"out_sy":32,"layer_type":"conv","l1_decay_mul":0,"l2_decay_mul":1,"pad":2,"filters":[{"sx":5,"sy":5,"depth":3,"w":{"0":-0.4007279151443181,"1":-0.1745793623033131,"2":-0.2200945185007657,"3":-0.021634841872644483,"4":-0.043944026852578026,"5":0.031191505604214232,"6":0.11528609714681609,"7":-0.008950033947988987,"8":0.1520179886546424,"9":-0.035500607758816624,"10":0.012859676377824173,"11":-0.07004156853876096,"12":-0.024922531302412804,"13":0.20655068357339487,"14":-0.059190637508602144,"15":0.11665770602839048,"16":0.05183750704300029,"17":-0.05264080610010186,"18":0.05161566007286002,"19":0.010969213203700649,"20":0.11400293357152495,"21":-0.03851299382183018,"22":0.18602514601127196,"23":-0.007614344151652258,"24":-0.24440965414043112,"25":-0.18960378479005974,"26":0.127927060095584,"27":-0.013613153767426497,"28":-0.026771182005835545,"29":0.11378507228902145,"30":-0.08752236477144305,"31":-0.0637758064820635,"32":-0.185165412765622,"33":-0.000670028039147116,"34":0.05714741942158958,"35":-0.049085973913384165,"36":-0.1945875423752831,"37":-0.10651212088576661,"38":-0.07684246311198957,"39":-0.2278043809304971,"40":-0.18428537720650434,"41":-0.17035461846760827,"42":-0.1998634893724364,"43":-0.13859757529667477,"44":-0.17239430117843693,"45":0.08615248404210214,"46":-0.1155652001602249,"47":-0.09539110552702486,"48":0.3584906135043336,"49":0.42629782115067305,"50":-0.02502671310968938,"51":0.02190723719483507,"52":0.20295300396804383,"53":-0.02969239317675538,"54":0.24659229015941292,"55":-0.09310114397041318,"56":-0.03113483025968532,"57":0.242387336206431,"58":-0.024654949338664987,"59":0.24030952763432556,"60":-0.21630762979384552,"61":-0.2999983401844814,"62":0.001117503129537449,"63":0.24700796124519317,"64":0.16226934215875014,"65":-0.16772295136542814,"66":-0.24804258870292786,"67":-0.13637007121824798,"68":-0.2881104756021156,"69":-0.20094517105574417,"70":0.03709006294022566,"71":-0.11516483496609865,"72":0.03295400218439536,"73":0.04079830386089102,"74":0.12026871315655766}},{"sx":5,"sy":5,"depth":3,"w":{"0":0.1368368274291954,"1":-0.1770268676209777,"2":0.066656004971437,"3":0.05108832781535236,"4":0.08381121325234127,"5":-0.17274086019673915,"6":-0.1912756718349238,"7":-0.12577959124769775,"8":-0.22422770169099648,"9":-0.05720650949137648,"10":-0.38564444409084064,"11":-0.25231843285116473,"12":0.003789329252409153,"13":-0.05414286833392517,"14":-0.15867576949550494,"15":-0.04418900185413862,"16":0.07557509035701951,"17":-0.15460400914012695,"18":-0.1557939997513217,"19":-0.19871002651925868,"20":-0.15777349196265547,"21":0.030508656656472524,"22":-0.08353708636455098,"23":0.035339555063498534,"24":0.06316046406115701,"25":0.17074352577391272,"26":0.29594554136393736,"27":0.32277878333118454,"28":0.0666154502133401,"29":0.22776124459811237,"30":-0.176078089575176,"31":-0.20037455099323712,"32":-0.1178642821070746,"33":-0.08195657485178261,"34":-0.07835123999469534,"35":-0.13123991088755163,"36":0.011428952126137558,"37":0.10312791441499806,"38":0.05530654731230013,"39":0.10027819525427245,"40":-0.18746939139529326,"41":0.2283203269978207,"42":0.4114179956857676,"43":0.22168622856318862,"44":0.17169717443224403,"45":-0.30930621769253674,"46":-0.44303976099038045,"47":-0.22734658322781762,"48":0.10262591741337716,"49":0.0353487723773168,"50":-0.08978554022813519,"51":0.13664649431529907,"52":0.12948640572797965,"53":-0.08426491932151015,"54":0.19572883168372646,"55":0.22461840450616616,"56":0.2201958575862936,"57":0.3360761094070626,"58":0.24373444766461608,"59":0.24743639675278478,"60":-0.28558536730354245,"61":-0.19690569312844558,"62":-0.26370636751404697,"63":-0.09035025579223566,"64":-0.024316049079355383,"65":0.04489734857208171,"66":-0.026596703423380864,"67":0.26753538984243896,"68":0.032667060081070703,"69":-0.01757691832305252,"70":0.1277204158573103,"71":-0.03526969882848622,"72":0.09828910278675615,"73":0.17404590455090346,"74":0.009725061688413646}},{"sx":5,"sy":5,"depth":3,"w":{"0":0.14695553958892202,"1":-0.1192975021703493,"2":-0.11400893779627608,"3":0.020174235043377897,"4":0.30993622200205095,"5":-0.2348161696439063,"6":0.059730809201945956,"7":0.13443886178133888,"8":0.16521256812226234,"9":-0.3433409721368172,"10":-0.20629545756088719,"11":-0.253950323767182,"12":0.13683747548404787,"13":0.1693236763506077,"14":0.3572499916198464,"15":0.1663881972420042,"16":-0.04240494191325799,"17":-0.13148524306493725,"18":0.2395122655692237,"19":0.229659950278646,"20":0.22340169893866607,"21":-0.05103484448194028,"22":-0.006646165482121804,"23":0.3184313427233337,"24":-0.43280317296309334,"25":-0.3213793106511778,"26":-0.4140713535169447,"27":0.24084796225663282,"28":0.1323625653662439,"29":0.09245399897012758,"30":0.018393882769615344,"31":0.27743118389681304,"32":0.028164780226682652,"33":-0.1372615107992502,"34":0.19945779192317012,"35":-0.15176753713625996,"36":-0.17225741360670288,"37":-0.08932330852571971,"38":-0.18602749193605617,"39":-0.11126582814529087,"40":-0.09106321473333406,"41":-0.4344989301286885,"42":0.2325549985192658,"43":0.3254727116855141,"44":0.29881767473057297,"45":0.11886255450499114,"46":-0.08591116371790379,"47":0.022980972465819715,"48":-0.2703636042846319,"49":-0.2536950112747128,"50":-0.2251899346954428,"51":-0.06362507415100556,"52":-0.07106226158587682,"53":-0.1753671303841122,"54":0.1011513063567602,"55":0.07811540910333628,"56":-0.0562554270674264,"57":0.3025226708187499,"58":0.05844124830275346,"59":0.41473737762036283,"60":0.07527653205128487,"61":-0.12655349698928364,"62":0.021758944931440954,"63":0.09708883476116999,"64":0.027310693730885762,"65":0.16542029110257753,"66":0.08208499679711212,"67":-0.023654493821269405,"68":0.05621328349071722,"69":-0.13056958263606586,"70":-0.22508905293150314,"71":0.04581012767179467,"72":-0.16742800278822803,"73":-0.048775878045825304,"74":0.12585506075128103}},{"sx":5,"sy":5,"depth":3,"w":{"0":-0.21061038075186728,"1":-0.1985992890646855,"2":-0.19444452091479572,"3":-0.2094680054319984,"4":-0.20687340240636942,"5":-0.17353483949393955,"6":0.09144348047041474,"7":-0.036434538420205664,"8":0.023580700879828224,"9":-0.06588036559894919,"10":-0.08408703468503621,"11":0.10645108424773697,"12":-0.10819747894719278,"13":0.06657297928969103,"14":0.10722597839885618,"15":0.05132176849831029,"16":-0.15566446423371555,"17":0.06799610422074315,"18":-0.010756440380154964,"19":0.05192856352099861,"20":0.1217943875524098,"21":0.18650306349200024,"22":0.07808044180532313,"23":0.09685576992507666,"24":0.02860515499043746,"25":0.08547050631119295,"26":0.3130741567485726,"27":-0.06905933483327109,"28":0.05236944619591353,"29":-0.09081944486224838,"30":0.05921144841000195,"31":-0.013529373845851974,"32":0.14250634675414223,"33":0.10593775550515451,"34":0.04623598794724188,"35":-0.03350039069280726,"36":0.17495831461565925,"37":0.026223974278234002,"38":-0.04075392154452811,"39":0.19473984646107503,"40":0.243348796596009,"41":-0.06277571321710983,"42":-0.09650540903875435,"43":-0.018514104814857775,"44":0.027117767852693264,"45":-0.20338829761133184,"46":-0.08935569013860135,"47":-0.27257000002637605,"48":0.02543453166202587,"49":0.17574565327055602,"50":0.023993283794448945,"51":-0.1548192703631288,"52":-0.17873403619207548,"53":0.07473847044267208,"54":-0.24413518978484286,"55":0.02997874142988261,"56":-0.06860975110982631,"57":-0.387274142004245,"58":-0.00815528846844189,"59":-0.04101674801266127,"60":-0.21087613610805522,"61":-0.013367969912398045,"62":-0.015604261758076348,"63":-0.06046495589057167,"64":0.07155016326619135,"65":0.3891892616939755,"66":0.1426589887443756,"67":0.10577612988521008,"68":-0.11639382684037917,"69":-0.12564810835371074,"70":-0.027328302904451342,"71":-0.1513051145016671,"72":-0.01740765183307786,"73":-0.05609039590943162,"74":-0.0916060250788544}},{"sx":5,"sy":5,"depth":3,"w":{"0":-0.09913566644470802,"1":-0.008071673249088718,"2":-0.12702087193850528,"3":0.11547757440904069,"4":-0.036957859843146874,"5":-0.10236034121837895,"6":-0.19549556088224962,"7":0.007963514622485424,"8":-0.04822975307858573,"9":0.12270148792054372,"10":0.05859426593806283,"11":-0.038621137631673914,"12":-0.025933223845575868,"13":0.09412420278511512,"14":-0.1898027170224521,"15":-0.06250772177209112,"16":-0.2211760796901117,"17":-0.17722997748881275,"18":0.1387725338389667,"19":0.1333876013947629,"20":-0.09614052924540246,"21":0.021510517774957383,"22":-0.050758403625094935,"23":0.046010926838007914,"24":-0.1834259380988617,"25":0.07173247568655768,"26":0.04984614067412463,"27":0.07320628763753527,"28":-0.10047626007298427,"29":-0.010133155073568352,"30":-0.06554107262120953,"31":-0.08066689393498565,"32":-0.14135152329652076,"33":-0.05682803736463317,"34":-0.11543061093851671,"35":-0.10382992659901319,"36":-0.00138538042954149,"37":-0.06449390202346095,"38":-0.0864033881732228,"39":-0.00992345846918026,"40":0.08583479567736166,"41":-0.06983159363213602,"42":-0.22270785322085027,"43":-0.12256468736698688,"44":0.14645737180595605,"45":-0.1633940480796165,"46":-0.00315644931350255,"47":-0.022788647667146514,"48":0.13995683519245108,"49":0.06924800158091367,"50":0.056548859122736085,"51":0.011810629607775736,"52":-0.25089069991265356,"53":0.05767405932550987,"54":-0.11711300486203172,"55":-0.2141672325826408,"56":-0.04805528315486587,"57":-0.21391777539644855,"58":0.0408469426419429,"59":0.14167951365049689,"60":-0.19074635629080838,"61":-0.08968714921012572,"62":-0.08934813246070082,"63":-0.22836287302981165,"64":-0.01731461967287434,"65":-0.0004333850076776351,"66":-0.03634948872657428,"67":-0.018792798659623806,"68":-0.06555667616474513,"69":-0.11510204840486876,"70":-0.09995119539931413,"71":-0.1259531104290189,"72":-0.15059140272777738,"73":-0.005771373866287884,"74":-0.3582907274557206}},{"sx":5,"sy":5,"depth":3,"w":{"0":0.28188356700518663,"1":0.17211718620344704,"2":0.10546660509519858,"3":-0.12418665559277833,"4":-0.02320159140371248,"5":0.024071194451372582,"6":0.05918881846393988,"7":-0.0691785581069496,"8":0.025592225531773337,"9":0.2915418652627247,"10":0.17464332213619865,"11":0.03567189914655733,"12":-0.10189481183314064,"13":0.00883957703974143,"14":-0.03043851207045362,"15":-0.14255326796333073,"16":0.07932560235766187,"17":-0.13563381083142192,"18":-0.5089713880381045,"19":-0.3047368365108338,"20":-0.004250654706652119,"21":-0.08148105774869675,"22":-0.3194271660830473,"23":-0.16760730489204687,"24":-0.34664193826046236,"25":-0.21415297439577252,"26":-0.23211706607689364,"27":-0.19705131701738787,"28":-0.07121098425084939,"29":-0.14545231546163945,"30":-0.1836904972440514,"31":-0.38663825377646405,"32":-0.14661306440873476,"33":0.19376077187463192,"34":-0.057696714209689706,"35":-0.06960218901129077,"36":0.0254410190619139,"37":-0.023032028769076958,"38":0.10133688600610667,"39":0.08456584076925974,"40":0.09725084334108719,"41":-0.13583772304840355,"42":0.05207328408627147,"43":0.1532351252270495,"44":-0.03593883385383716,"45":0.06415659310734882,"46":-0.008329450056113418,"47":-0.03843446269795513,"48":0.46327588966188793,"49":0.16676984330790184,"50":0.4101312277943963,"51":0.14996930666043587,"52":0.22913082313845043,"53":0.3156222818916978,"54":0.16675036084295533,"55":0.025951191327889346,"56":0.2884862769379267,"57":0.01760242102999184,"58":0.12519909340178698,"59":0.4069908209938649,"60":0.03532799254266392,"61":0.021069128106579366,"62":-0.19428451070331734,"63":-0.06127927078826714,"64":0.06230502447803842,"65":0.03017116056089908,"66":-0.2001685588081121,"67":0.023326993693436188,"68":-0.11180987509160294,"69":-0.15180169904855706,"70":-0.0557079558168539,"71":-0.27143968622108516,"72":0.07153133340913627,"73":-0.1546626314517318,"74":-0.05478831257107871}},{"sx":5,"sy":5,"depth":3,"w":{"0":-0.16732128062540383,"1":0.06568203626698124,"2":-0.009936101158219137,"3":-0.044759849167499935,"4":0.0328052509745588,"5":-0.12139563025255373,"6":0.026308526660794723,"7":0.17795986452225926,"8":-0.0376857798736903,"9":-0.30001549340536326,"10":-0.19767917749943067,"11":-0.18481128766991275,"12":-0.11738229250934143,"13":0.005444983916979708,"14":-0.12766188347011392,"15":0.1094019102968497,"16":-0.010582220780748074,"17":-0.043975093251277436,"18":0.12284663197595347,"19":-0.06726013898490332,"20":0.3706117028599041,"21":-0.010158668896983658,"22":0.08370846422682814,"23":0.030346071798734726,"24":-0.16775030148044295,"25":-0.11510019300541979,"26":-0.20316628767535647,"27":0.1085121320137691,"28":0.10417855132204717,"29":0.03394686490023245,"30":0.02353972022528276,"31":-0.008430150762094737,"32":-0.11456380004943308,"33":-0.1467812355853389,"34":-0.20866549386357816,"35":-0.3110295879900329,"36":0.05570724359167369,"37":-0.20496953593658862,"38":-0.19283941989958975,"39":0.11794182432576553,"40":0.18741811404414152,"41":0.10179489500766985,"42":-0.04006489645776278,"43":0.19040935791852326,"44":0.005037756775395962,"45":-0.04210314991065153,"46":-0.05900802409756141,"47":-0.20713939433253153,"48":-0.07984080050689296,"49":-0.0464749465233187,"50":-0.08227629696631622,"51":-0.22918744523037343,"52":-0.17814673636886547,"53":-0.3064752848426351,"54":0.11027581666976466,"55":-0.10968223101587836,"56":0.16330280146269108,"57":-0.12069590083694547,"58":0.017409463178770325,"59":-0.02553789035871391,"60":-0.047688709953117636,"61":-0.03928159374675908,"62":0.1600370847136093,"63":0.3624253283330878,"64":0.1837997087163184,"65":0.08381582287040025,"66":-0.20388886064912912,"67":-0.17566885584805142,"68":-0.060840197452348914,"69":0.16053772527911025,"70":0.06594509818699928,"71":0.1867284903039774,"72":0.13674795604274154,"73":-0.3031791908039823,"74":-0.06484202418348009}},{"sx":5,"sy":5,"depth":3,"w":{"0":0.08648668679172382,"1":-0.25528471284173865,"2":0.061701494841487514,"3":0.06764971481989737,"4":0.1194901667114969,"5":-0.07664592988805254,"6":-0.06684846301858391,"7":-0.19771420974236992,"8":0.23484987194849255,"9":0.012146905184086258,"10":0.038551097588947564,"11":-0.0880016765856989,"12":0.018892116673799243,"13":-0.1482201060239188,"14":-0.051519835911828085,"15":-0.18412348322279823,"16":-0.0020991166310157,"17":0.23582746889277217,"18":-0.09720728044080017,"19":-0.11561041695906336,"20":-0.29717429675565366,"21":-0.03616687463739826,"22":-0.2832279339265158,"23":-0.08729620745244118,"24":-0.08427960314675381,"25":-0.07971041368186772,"26":-0.08755583107018446,"27":-0.16005497048045603,"28":-0.0018825514337873692,"29":-0.06523159180604086,"30":-0.19879687062019552,"31":-0.14317809858558264,"32":-0.022968762266002935,"33":-0.16275503154242274,"34":0.14962977320046156,"35":0.2073502758112133,"36":-0.09316103356625047,"37":-0.02366601748325038,"38":0.09498762780619939,"39":-0.1337546968030738,"40":-0.2788220933565957,"41":-0.15021744172704019,"42":-0.03916537023997542,"43":0.003486731687812398,"44":0.01001480515221664,"45":-0.31624730555453995,"46":-0.11353879318232343,"47":-0.16270729851835036,"48":0.017207767646339286,"49":0.03883648256114375,"50":0.21632838111151687,"51":0.1421729706181834,"52":-0.13142263647071054,"53":-0.011799379986116455,"54":0.02095619699429876,"55":-0.0880069812163995,"56":0.09060340795716057,"57":-0.10890559406407717,"58":-0.02796048551705725,"59":-0.015357815878593613,"60":0.08661918813211154,"61":0.04087604328004695,"62":-0.03743075722711855,"63":-0.03514182329651642,"64":-0.052810739799060945,"65":-0.08883746159776926,"66":-0.00965967673732363,"67":0.1706333018951594,"68":0.12166599505336574,"69":-0.054703064127319345,"70":-0.2658267248672422,"71":-0.1130247243081791,"72":0.19906091477923057,"73":0.1298836518749269,"74":0.1267079382061326}},{"sx":5,"sy":5,"depth":3,"w":{"0":0.1549257386724801,"1":0.20808248629185616,"2":0.05267189004399171,"3":-0.033184329367060346,"4":0.21239860849391923,"5":0.35064983355072804,"6":-0.3537744425298133,"7":-0.24941731104236936,"8":-0.2655924509126491,"9":-0.048358432552243105,"10":-0.1736899734805485,"11":0.09058477415574176,"12":-0.11438510227496491,"13":-0.04142913570490843,"14":-0.07454036495181614,"15":0.4465427693877269,"16":0.30463860272778437,"17":0.2588154737895394,"18":-0.07343172807193594,"19":-0.13312219664451183,"20":-0.15803281359025598,"21":-0.18332134271660155,"22":-0.08468138259764207,"23":-0.31748233633522427,"24":0.1300878188241838,"25":0.21743768116775827,"26":-0.16145493969965646,"27":0.12028853807382177,"28":-0.005565615003817964,"29":0.19725946323916288,"30":-0.17326535905644774,"31":-0.314914466681473,"32":-0.21329926559066437,"33":-0.2823839433306341,"34":-0.45170841822347785,"35":-0.5414489459766961,"36":0.1550254748073402,"37":0.15878929582558565,"38":0.16934435248705318,"39":-0.12212684609114945,"40":-0.07080296006413758,"41":0.05970285393713009,"42":0.1350448299896017,"43":0.05724298122464207,"44":0.12231371477414041,"45":-0.1254271454384337,"46":-0.2871678190947939,"47":-0.0150909343467186,"48":0.25114613020617216,"49":0.11585891637102158,"50":0.1558315999509951,"51":0.34805892461030125,"52":0.2220961333692966,"53":0.2623342022202892,"54":-0.2095786861332107,"55":0.118512547532366,"56":0.06622504072792156,"57":-0.06396112978706538,"58":-0.12371672560589739,"59":-0.04282310204888147,"60":-0.15313005097038684,"61":-0.14543357700562115,"62":-0.012537459612966682,"63":0.32757102333363447,"64":0.1697734443687926,"65":0.2930100373665483,"66":0.15431062030832643,"67":0.09009308194652325,"68":0.08716005423676632,"69":0.11021717482480689,"70":-0.0643742370710138,"71":0.13469474969827394,"72":-0.020734072457191215,"73":-0.10730616695077093,"74":-0.04159106695801401}},{"sx":5,"sy":5,"depth":3,"w":{"0":-0.02283449276070034,"1":-0.198097197914782,"2":-0.2907219376373651,"3":-0.0839335766682813,"4":0.029101653868013673,"5":0.034328755351150805,"6":0.06169340295280895,"7":-0.029810642571124264,"8":0.08152476712524302,"9":0.028551348335298633,"10":-0.010758068235197881,"11":0.16711217905471135,"12":-0.05534798016486449,"13":-0.004050658261944673,"14":-0.07778120430479399,"15":-0.21586817514327564,"16":-0.2829510104784308,"17":-0.35722583276361286,"18":0.18656420254951406,"19":0.32732646492870876,"20":0.2010911493602793,"21":0.06960584255507357,"22":0.09183560655593241,"23":0.19746047232577255,"24":0.2065134111611993,"25":-0.03611260851116919,"26":0.1835619893542666,"27":-0.2799497706348076,"28":-0.15455645348630062,"29":-0.05887924251212567,"30":-0.051080603084365905,"31":-0.2912035861065836,"32":-0.23066787231463276,"33":0.10025487278064249,"34":0.09699187109075524,"35":0.17341395633547452,"36":0.33999608424955946,"37":0.19507775357179996,"38":0.14039096050788386,"39":0.358174860553137,"40":0.18156553417973342,"41":0.29877007369292014,"42":-0.08017447118079221,"43":0.018971515857373687,"44":0.10424099982197775,"45":-0.0076682626443587715,"46":-0.08767335772683038,"47":0.015483514700343193,"48":-0.20202237178118915,"49":-0.10059504294899815,"50":-0.07249778296177446,"51":0.039080730739019374,"52":0.056597754353750876,"53":-0.05772304719532168,"54":0.1338310245682548,"55":0.30610576335916667,"56":0.24563720035521883,"57":0.19269961939476482,"58":-0.04897717861868629,"59":0.10513566397794585,"60":-0.13596127800246519,"61":-0.07457743470737503,"62":0.08907314211193598,"63":-0.019141529518555845,"64":-0.045876173835847106,"65":-0.07987471305359264,"66":-0.20962552635406356,"67":-0.010172080739774908,"68":-0.37730108719601324,"69":-0.22149772976380325,"70":-0.18635520495377636,"71":-0.13970633813284866,"72":-0.11417443250023684,"73":-0.23028131861443188,"74":-0.03507896452745369}},{"sx":5,"sy":5,"depth":3,"w":{"0":-0.598557770079197,"1":-0.5435960815794343,"2":-0.1910794581292803,"3":-0.13062366917668572,"4":-0.3103612642649601,"5":0.11095762786950315,"6":0.12392871701997747,"7":0.16019457934862322,"8":0.25964078766748183,"9":0.0784497390389944,"10":0.2438970912264544,"11":0.15458761289415388,"12":0.048724918435732026,"13":-0.09393623255731998,"14":0.10731957131334426,"15":-0.04843331296728296,"16":-0.17446904090808651,"17":-0.09555825449240933,"18":-0.22373034120550792,"19":-0.4972563278273357,"20":-0.2989943467947389,"21":0.143332177873692,"22":-0.19816964077314808,"23":0.001540673486867227,"24":0.2259190592541957,"25":0.31781645235532174,"26":0.29868793112897835,"27":0.40276845881487344,"28":0.046869684604070934,"29":0.12353051828477743,"30":-0.08417790328375371,"31":0.13776399706200945,"32":0.04366512855530518,"33":-0.004008591895199544,"34":0.00220117588301405,"35":0.04867856240688185,"36":-0.24451946442748895,"37":-0.3483557776257526,"38":-0.13361246151814501,"39":0.002400187128904165,"40":0.07051507517521033,"41":0.016379639751271595,"42":0.1599988657990293,"43":0.36499195271673995,"44":0.0721533237704413,"45":0.24097038642085206,"46":0.10569444845248625,"47":0.18300109094878328,"48":0.17844477469090383,"49":0.17349219208804495,"50":0.09310706530812043,"51":-0.14651150477391947,"52":0.21635258110344058,"53":-0.05827876116110633,"54":-0.26139174643102764,"55":-0.45380937858619597,"56":-0.13312295938091695,"57":-0.0964667475903588,"58":-0.1612169907570369,"59":-0.20724538181463828,"60":0.278981975989061,"61":0.26347018592299015,"62":0.0126335666528371,"63":0.47436992857438653,"64":0.22406005076482693,"65":0.3254372786557856,"66":0.0893416261788283,"67":0.16981816284073137,"68":-0.08825986110832336,"69":-0.30015484127123293,"70":-0.40507270565241205,"71":-0.27397382797742975,"72":-0.49155148907520985,"73":-0.0814507279199656,"74":-0.4936335460543205}},{"sx":5,"sy":5,"depth":3,"w":{"0":-0.05561040277668104,"1":-0.06482291357429147,"2":-0.12664420221245357,"3":-0.11290169906777013,"4":-0.009090238927706969,"5":-0.11551732784778536,"6":0.14245825737397982,"7":0.09473465571055208,"8":-0.02564173044879148,"9":-0.10253982675252353,"10":-0.1969315560838171,"11":-0.3899606619299362,"12":0.05540870419281808,"13":-0.10224810128389634,"14":0.06609356091488089,"15":-0.17182747645964658,"16":-0.26519727228903056,"17":-0.14863221899264412,"18":0.07808669361062245,"19":0.0939284331814145,"20":0.024440025102956897,"21":0.016006916827410976,"22":-0.09650867872514925,"23":-0.054532884136718904,"24":-0.23382610778168406,"25":-0.21971348716518244,"26":-0.3005886477293885,"27":0.12528987103307954,"28":-0.1150018291403579,"29":0.02202231776651008,"30":0.014063620391834121,"31":-0.18530623948134295,"32":-0.24114325916264281,"33":0.12147894277168883,"34":0.05194556485747587,"35":-0.0866719861459218,"36":0.24657036901994014,"37":0.18251116118988456,"38":0.06535832773239855,"39":-0.06681983596381096,"40":-0.17575100022897555,"41":-0.23761914857352595,"42":-0.007425000776620801,"43":-0.11411522249076314,"44":-0.46446180345020455,"45":-0.3020869724362769,"46":-0.3472154456150474,"47":-0.4567637853836265,"48":-0.060158467435248865,"49":-0.03699649807265187,"50":-0.029868554548055867,"51":0.5171133945149997,"52":0.299553053651773,"53":0.18932520240459105,"54":-0.23094596059914357,"55":-0.024458762624797657,"56":0.07697140883182625,"57":-0.3519535202564551,"58":-0.36964588385933067,"59":-0.3435968408772289,"60":-0.11179537375423554,"61":-0.16962727240361786,"62":-0.1297213180945955,"63":-0.15198725985487002,"64":-0.13110942701896217,"65":-0.008478105895614456,"66":0.022389849828813736,"67":0.11538815374525814,"68":0.19601689944504228,"69":-0.07961717295325581,"70":-0.005579207994321193,"71":-0.19521442983077764,"72":0.21418976901618647,"73":0.2353922930274783,"74":-0.03375861301407886}},{"sx":5,"sy":5,"depth":3,"w":{"0":-0.31403732112352073,"1":0.10988683218661298,"2":0.11831416001713513,"3":0.3401726202813853,"4":0.1257302817267369,"5":0.22235854551618867,"6":0.2546354343600423,"7":0.4301691157595012,"8":0.05686291590017372,"9":-0.27295864148591775,"10":-0.31600948831571585,"11":-0.13129688082714086,"12":-0.2827206961169211,"13":-0.23716319553893425,"14":-0.1652713824288414,"15":-0.05912127901556819,"16":0.060732894439131935,"17":-0.15513072183432777,"18":0.302116741554413,"19":0.497086491263728,"20":0.31122060114435707,"21":0.28739895168523244,"22":0.24186202104819188,"23":0.3993135677547592,"24":-0.24051757684770184,"25":-0.1628793558976982,"26":-0.08053655234268119,"27":-0.026453726283655447,"28":-0.13021308604621723,"29":-0.3414201086561196,"30":0.1833737044314117,"31":0.06587410270294083,"32":0.21462173725427394,"33":0.45127649079033416,"34":0.13799864040373072,"35":0.1844810655376727,"36":0.20460991718357238,"37":0.0074078608013654675,"38":0.04714689603545572,"39":-0.29612839324033385,"40":-0.11749510636300262,"41":-0.125721239736799,"42":-0.2240652128158011,"43":-0.09649382644156047,"44":0.008722137670098964,"45":-0.03326915218361449,"46":0.019907729554511307,"47":0.05448318708679154,"48":-0.04036862845816669,"49":0.07389914433187213,"50":-0.10430002333917171,"51":-0.11557304119438283,"52":0.01869902626538091,"53":-0.25870651860761307,"54":-0.10853128814824119,"55":-0.09489498400348974,"56":-0.0016018489095917568,"57":-0.23175615276102843,"58":-0.3043008686352069,"59":0.08231431583083046,"60":-0.12533226024200636,"61":-0.11007191544838583,"62":-0.07512601965226548,"63":-0.1319210558949932,"64":-0.1232349067416419,"65":-0.1399556514559556,"66":0.2711861715272482,"67":0.10758570982829821,"68":0.09518190822366925,"69":-0.03629990585296953,"70":0.18522238744722924,"71":-0.04475543864579854,"72":0.05001343445676421,"73":0.1266791952089049,"74":0.26849261883258296}},{"sx":5,"sy":5,"depth":3,"w":{"0":-0.20168212962613943,"1":-0.23052393443075997,"2":-0.1281626579721873,"3":-0.01182204944265388,"4":0.0026677140313799697,"5":-0.11056744295430855,"6":0.010062869204266824,"7":-0.16630559754004579,"8":-0.023623712778520944,"9":0.05387964100803802,"10":0.08400452720131221,"11":-0.012781473952197885,"12":0.12500052284690416,"13":-0.061297487322908475,"14":-0.1589779498055975,"15":-0.02137912132284416,"16":-0.04912648823398244,"17":-0.00010044204364459148,"18":-0.03832961236107864,"19":-0.19916325853151956,"20":-0.08010488428777858,"21":0.05617365487784198,"22":-0.015759340198995067,"23":0.07824339924225998,"24":-0.060755331000915076,"25":0.3278888671225185,"26":0.2740116917670972,"27":-0.09249582960847652,"28":0.038312475839146855,"29":0.2012952914086448,"30":-0.15069934000596447,"31":-0.11958539231835866,"32":-0.19715432336730443,"33":-0.22912252022277338,"34":-0.3374667219611477,"35":-0.07560197557089311,"36":-0.30387884844933544,"37":0.08635630649307176,"38":-0.27735639538486323,"39":0.442734162690169,"40":0.4278505405236744,"41":0.12041117132419907,"42":-0.17927291617272864,"43":0.26780671630664143,"44":0.06585455185573832,"45":-0.1269125285594917,"46":-0.11728073851652854,"47":-0.02579043480246147,"48":0.00794888036483319,"49":-0.13122096892887877,"50":-0.14066593252839404,"51":-0.22386357066840515,"52":-0.4256027760037144,"53":-0.3580110665340502,"54":0.03442022627261118,"55":-0.009427045656037634,"56":0.21166105169589924,"57":-0.12349885050856967,"58":0.02328423043920727,"59":-0.1084521197302731,"60":-0.14848166531266796,"61":0.054735550089990544,"62":0.05748030406948594,"63":0.3189723887075254,"64":0.20139931016009063,"65":0.23597134791892,"66":-0.4152429178997721,"67":-0.320123856607742,"68":-0.29040305477155537,"69":0.3517159992124324,"70":0.20430258032676718,"71":0.2629280389193198,"72":-0.03128069589153887,"73":-0.061516473819649704,"74":-0.2524139426491221}},{"sx":5,"sy":5,"depth":3,"w":{"0":-0.1973646119515229,"1":-0.16040154844635082,"2":-0.05441676320755115,"3":0.0451258375604312,"4":0.11571049701865026,"5":-0.02756972678656199,"6":0.3448032672082818,"7":-0.050385783741498325,"8":0.20175009079247672,"9":-0.04302584669986742,"10":-0.12300227102061315,"11":-0.19762640334442547,"12":0.12525187267672486,"13":-0.10800886742636726,"14":-0.007067482909637842,"15":-0.05283244186591733,"16":-0.08558850890796887,"17":-0.2110751469259057,"18":-0.20683647271400923,"19":-0.1828663711797185,"20":0.047963358930434345,"21":-0.089585323763402,"22":0.09625381354571053,"23":-0.06105069939366963,"24":0.17083039882967116,"25":0.20524456324499152,"26":-0.03390689636019815,"27":-0.12788098774316084,"28":-0.08280213710609609,"29":-0.20624366361791738,"30":0.2324885480614502,"31":0.20540655164414076,"32":0.27484814120980383,"33":0.239190742887004,"34":0.20091387882836503,"35":0.3042612721040566,"36":0.020543494452072247,"37":-0.26515132767675315,"38":-0.011152157895667172,"39":-0.09387140065923995,"40":0.10254037220251026,"41":0.07763533660180945,"42":-0.10373014653357486,"43":-0.10808929451676585,"44":-0.2652223677934435,"45":-0.034581837411541486,"46":-0.11946815647634468,"47":0.0671009011757457,"48":-0.07032291582402245,"49":-0.04785394257097805,"50":0.13141550393615964,"51":0.01672634813124057,"52":-0.002401012470135715,"53":0.07212538542644731,"54":0.10040917889943661,"55":0.03738804853234806,"56":0.21636412182355486,"57":-0.3196321105856616,"58":-0.018510319218441245,"59":-0.31619245933458123,"60":-0.659705132817875,"61":-0.19998760367578033,"62":-0.31725954641845,"63":-0.016516549838624942,"64":-0.07052068817861373,"65":-0.25071561329170144,"66":0.2153609115643838,"67":0.15352585209345415,"68":0.17732185449025453,"69":0.07993319000487047,"70":0.01924926497635678,"71":0.1137685199965221,"72":-0.06921960805809119,"73":0.21227176215109048,"74":-0.017156912712204368}},{"sx":5,"sy":5,"depth":3,"w":{"0":0.015335574790466065,"1":0.05385859487619221,"2":0.211719340028725,"3":0.07831153348671684,"4":-0.08290905649368882,"5":-0.06809345508389864,"6":-0.08575916356916066,"7":-0.3766755346038794,"8":-0.2888340623927648,"9":-0.16569077091139506,"10":-0.31411795392033737,"11":-0.2707732820450586,"12":-0.08551789195250489,"13":-0.22594376407818212,"14":-0.2238672274780407,"15":-0.13863790180119515,"16":-0.3241335777573304,"17":-0.1782979616419824,"18":-0.1972175394741149,"19":-0.1429462528054802,"20":-0.2718598574938047,"21":-0.1228997414298954,"22":-0.13946674598221454,"23":0.025471621298996612,"24":-0.04441200515445779,"25":0.01585246306371894,"26":0.10733415268323462,"27":0.028880803654814675,"28":-0.15580463669371322,"29":0.0837984583654347,"30":0.2268507044620846,"31":0.03152234294002128,"32":-0.03883323823537962,"33":0.016473984995397106,"34":0.030328830720281422,"35":0.23790004052705016,"36":0.18110896272972002,"37":0.06964488765226251,"38":0.03952583662041102,"39":0.07218195608026244,"40":-0.003134376222059078,"41":0.11623613146962646,"42":-0.08421412154509283,"43":-0.0859574236553179,"44":0.11454789563645412,"45":0.00789976667887805,"46":0.2140960658928487,"47":0.09717778892776127,"48":0.10907911388307615,"49":0.27400970249061746,"50":0.15829813534295892,"51":0.256728798361149,"52":0.27621247773637386,"53":0.12017145081613616,"54":0.198839133093751,"55":0.21848676073693304,"56":0.08139125763912741,"57":0.07843562290216036,"58":0.15374736529368163,"59":0.10504892817729686,"60":-0.0016785580270690052,"61":-0.20366106524797906,"62":-0.12110681692537886,"63":0.12048547213848607,"64":-0.11317175652664868,"65":-0.15733708488438944,"66":0.14251603678940641,"67":0.1372049450507281,"68":0.17458823293482834,"69":0.03279200408923184,"70":0.29804042702401123,"71":-0.11282072579774415,"72":0.04442538359015039,"73":-0.16669036518396252,"74":0.20194744183775723}}],"biases":{"sx":1,"sy":1,"depth":16,"w":{"0":-0.21458406580225203,"1":-0.0936530667761832,"2":-0.09259170925745468,"3":-0.3023301512527993,"4":-0.37303807923884097,"5":-0.03210096558585332,"6":-0.4675877499349559,"7":-0.002430419266486529,"8":-0.018618512204312845,"9":0.10413752898786213,"10":0.09733736080500593,"11":-0.06239055595335478,"12":-0.19908884467833385,"13":0.16368026110399309,"14":-0.2681352967055619,"15":-0.05455794784474582}}},{"out_depth":16,"out_sx":32,"out_sy":32,"layer_type":"relu"},{"sx":2,"sy":2,"stride":2,"in_depth":16,"out_depth":16,"out_sx":16,"out_sy":16,"layer_type":"pool","pad":0},{"sx":5,"sy":5,"stride":1,"in_depth":16,"out_depth":20,"out_sx":16,"out_sy":16,"layer_type":"conv","l1_decay_mul":0,"l2_decay_mul":1,"pad":2,"filters":[{"sx":5,"sy":5,"depth":16,"w":{"0":0.019549297387340608,"1":-0.09960637999653718,"2":-0.040230452352818774,"3":-0.014858313959865494,"4":-0.05912217774433269,"5":0.14228548549071263,"6":0.027721910359965195,"7":0.012979796601911816,"8":-0.014642421870622221,"9":-0.24026463983202714,"10":0.03703042236973783,"11":-0.0000433126937282973,"12":-0.009828658956598542,"13":-0.09813751689937394,"14":0.008311726507591008,"15":0.13754761608559413,"16":0.012735112434909376,"17":-0.13670684055839474,"18":-0.0024829072844108125,"19":-0.06525464768867947,"20":-0.05996722096307244,"21":0.013886209312466664,"22":0.05833485763414641,"23":-0.04449514771057984,"24":0.03833211975867692,"25":-0.13488697971786096,"26":-0.12740351045660667,"27":-0.04244032694458455,"28":-0.018590872206217364,"29":-0.04014475414609674,"30":-0.02055980015190884,"31":0.04126522209914138,"32":0.0034497390660986546,"33":-0.1468155844866008,"34":-0.18986486336910063,"35":-0.1655574956254915,"36":0.031946079411496346,"37":0.06679875769206707,"38":0.018101828515066254,"39":-0.01798685560323088,"40":0.007425415858234216,"41":-0.30630929915030014,"42":-0.18471039961044242,"43":-0.008263958544185815,"44":-0.2152528715568966,"45":-0.1122795944513877,"46":0.06646538795360991,"47":-0.018695154561116752,"48":-0.0017254590853184035,"49":-0.058559700956942726,"50":0.0845204229682421,"51":0.00184051326756133,"52":-0.019690968636425676,"53":0.07215208873576794,"54":-0.02263696201953736,"55":0.12019673496629571,"56":0.007423013395598259,"57":-0.23951842649940316,"58":-0.15041638279640762,"59":0.053998218961026655,"60":-0.07824241712117651,"61":0.05929026117149098,"62":-0.22164480498233377,"63":0.026202547160882574,"64":0.019670058765681904,"65":0.04790967999040346,"66":-0.17937199057609915,"67":-0.06954775437219898,"68":-0.02469214575584784,"69":0.08433973105537487,"70":-0.06685267881427234,"71":-0.010134722211406202,"72":0.0760394101208403,"73":-0.14129794085312955,"74":-0.05721389584699519,"75":0.02873605240301657,"76":-0.060214388097928936,"77":0.036591647838566416,"78":-0.0006861676494328919,"79":0.16413586002999594,"80":-0.07680395234532143,"81":-0.20350369398750467,"82":-0.05965753647367481,"83":0.03313857820709509,"84":-0.028001649948850647,"85":-0.21368161669069505,"86":-0.037516017414071665,"87":0.027158554935065544,"88":0.013427117458509698,"89":-0.056687356949178695,"90":-0.13055054971219343,"91":-0.055739736296792824,"92":-0.12053031516736812,"93":-0.16029969045030837,"94":-0.05926906528531147,"95":-0.141828544799528,"96":-0.04177264499668829,"97":-0.093357801482217,"98":-0.07291948100406725,"99":-0.03417682527994688,"100":0.034433790006952875,"101":-0.17306574035262703,"102":0.0028607746432365634,"103":0.016039322219260035,"104":-0.1597292779275768,"105":-0.18907956888513247,"106":-0.16807916372793122,"107":-0.008005204896935946,"108":-0.028203762930217466,"109":-0.1265159069373547,"110":-0.09492320480766032,"111":-0.04454265073859958,"112":-0.09412342413645866,"113":-0.1490899187541302,"114":-0.08060914106249426,"115":-0.07093875397304195,"116":-0.03940669605524317,"117":-0.15021800108686542,"118":-0.010796265171850564,"119":-0.06905830002996656,"120":-0.10218805740729202,"121":-0.07634209080698295,"122":-0.04102243506407678,"123":-0.08362257438578319,"124":-0.1589390803916593,"125":-0.0954596672650563,"126":-0.05081331084622935,"127":0.010265654750928993,"128":-0.12549293524557864,"129":-0.14897393138048878,"130":0.08174148686154513,"131":-0.06119270191106318,"132":-0.05176085452509995,"133":-0.2514724169438968,"134":-0.013018243001840884,"135":-0.026653101585710028,"136":-0.25486484195691167,"137":-0.08365115354844711,"138":-0.07402872098940175,"139":-0.052350278919683454,"140":-0.11123953558829598,"141":-0.01264571730927143,"142":-0.07124823349492408,"143":-0.04176534828134674,"144":-0.011954635721292252,"145":0.06078362082067876,"146":-0.052898857373377434,"147":0.17073303386065894,"148":-0.029065487009800668,"149":-0.14531866348180195,"150":-0.032877352333110045,"151":-0.10763598336865579,"152":-0.13767424084127589,"153":0.12021160248339106,"154":0.02026251505525085,"155":-0.12147675743583639,"156":-0.017493369013091356,"157":0.010010786761251337,"158":-0.02618658122058539,"159":-0.10326711913512145,"160":-0.07768649851388847,"161":-0.03405669093647196,"162":0.0637718489720303,"163":-0.10296882840799534,"164":-0.043007413015664214,"165":-0.16585412817492184,"166":-0.04123525614860017,"167":-0.0005981729618344517,"168":0.047007821550900504,"169":-0.04630218294001423,"170":-0.31080941803080303,"171":-0.08381172249915447,"172":-0.020989542610421408,"173":-0.08460510497645049,"174":-0.14216077795399937,"175":-0.20994080847569563,"176":-0.08332883546956152,"177":-0.0238576548108734,"178":0.1063810205221545,"179":-0.09521517233282346,"180":-0.009374937465962399,"181":-0.042593009990775,"182":-0.0361646679325328,"183":-0.014968400994893969,"184":-0.02832500680895614,"185":-0.03494978905072614,"186":-0.055577993760735855,"187":-0.009522638974857242,"188":-0.04021696807329037,"189":-0.17710304142929031,"190":-0.0698444957354642,"191":-0.2157164427886274,"192":-0.05331921621768968,"193":0.024724961637166733,"194":0.07155320407571981,"195":-0.10192385663356812,"196":-0.01656570262445475,"197":-0.17274791422123623,"198":-0.0034024885821765153,"199":-0.07654517954167372,"200":-0.060198486036933146,"201":-0.02175643693480635,"202":-0.034072084319825474,"203":-0.03291533412165107,"204":-0.01969113082249319,"205":-0.21753831024470005,"206":-0.07439919535270677,"207":-0.19656553627835596,"208":-0.1525632723144029,"209":-0.1116466745766045,"210":0.09630528480299917,"211":-0.07991000695476917,"212":-0.08384064811101737,"213":-0.020752448799877907,"214":-0.1094834682736647,"215":-0.16564407670618303,"216":0.00931686012498053,"217":-0.10660491911978355,"218":0.005737273378960977,"219":-0.06838096986053724,"220":-0.03784427024309606,"221":-0.12248294968551154,"222":-0.12685896399938945,"223":-0.14460849431400327,"224":-0.05461963461960268,"225":-0.015412314303095337,"226":-0.013847395467877568,"227":0.02549936037983687,"228":-0.04892217256587909,"229":-0.06651490726976378,"230":-0.06336467575530472,"231":-0.020736332757620404,"232":0.03547150438186985,"233":-0.03971102369705701,"234":0.016639976997834607,"235":0.04219328334974922,"236":0.01171667908150691,"237":-0.01172549355391945,"238":-0.029561605214916395,"239":-0.0651452519363573,"240":0.045919908678213855,"241":-0.09903799283266032,"242":-0.09135493531045899,"243":0.015591983337003205,"244":-0.02090210915817646,"245":0.18082896654292227,"246":-0.11893861449380548,"247":-0.06442341106666613,"248":-0.034295777372867896,"249":-0.16632178836898026,"250":-0.19877229384441586,"251":-0.10384146705419481,"252":0.018220543787572506,"253":-0.028865719367269334,"254":-0.010960485525432282,"255":0.04761543190770438,"256":-0.013902825019105508,"257":-0.3121907356420977,"258":-0.10821875431769276,"259":0.02822993153972343,"260":-0.06318536218144871,"261":0.05719226168092289,"262":-0.04353180769208173,"263":-0.07226821317128365,"264":-0.05281915651410571,"265":-0.16784002272158713,"266":-0.25481105872099535,"267":-0.08290550732295802,"268":0.013967181862165504,"269":-0.05537666169011061,"270":-0.13947200406902857,"271":0.13707000771859892,"272":-0.06804508587211901,"273":-0.2526203281291393,"274":0.03490864113112446,"275":-0.04400518447052791,"276":-0.04576659417968499,"277":0.1913231352311552,"278":-0.0803120334500993,"279":0.010006799853440674,"280":0.059081686827014285,"281":-0.31342063931885467,"282":-0.3944944773510618,"283":-0.05975197384143433,"284":-0.042149887322518,"285":-0.09578553436452233,"286":-0.1141385287635838,"287":0.036012349893587425,"288":-0.0894584680631491,"289":-0.1190259092156931,"290":0.09899123414369025,"291":-0.09399842916144713,"292":-0.01700920436536725,"293":0.12803568350725966,"294":-0.0731042609050998,"295":-0.13834709171319887,"296":0.15665896421986605,"297":-0.21574172155916266,"298":-0.2428781870667471,"299":-0.1342000411157134,"300":-0.08169527275901793,"301":0.046073269467353475,"302":-0.12220454849938844,"303":0.0939896945231435,"304":0.005903271924622518,"305":-0.0617278704447316,"306":-0.12053564684994592,"307":-0.06296878510594413,"308":-0.08205332227549765,"309":0.09480240306947862,"310":-0.13603488144432677,"311":0.0050949571114983095,"312":0.07478095348723321,"313":0.002602326932042212,"314":0.014879328890008271,"315":-0.1648602261146467,"316":-0.010454010474264648,"317":0.0013511831613298023,"318":-0.0005256405578019838,"319":0.12295184447334967,"320":-0.11062844894096177,"321":-0.07307045492346637,"322":-0.1521966822115259,"323":0.09808354938036072,"324":-0.008415354624961773,"325":0.07806356946951566,"326":-0.13483786760393543,"327":-0.12146747148604946,"328":-0.18970212732546524,"329":0.22995834239377913,"330":0.15767045469825686,"331":-0.12055563279519611,"332":0.14707794985702202,"333":-0.0649285441705135,"334":-0.015330638043377174,"335":-0.053633289484657384,"336":-0.058506469785643535,"337":-0.10627350862523993,"338":0.012257487450524594,"339":0.17442563712729375,"340":0.10921863039034123,"341":0.02667497112785577,"342":-0.1386401151669258,"343":-0.12273489200252209,"344":-0.09239758486734378,"345":0.26165242124937405,"346":-0.0031256395521040664,"347":-0.05891722500215639,"348":0.21310922689637526,"349":0.05123257928468871,"350":0.05523700266462113,"351":-0.04453819040548856,"352":-0.053344009701014536,"353":0.04427652056797111,"354":-0.09321538049176666,"355":0.04065976211657864,"356":-0.06352310870615474,"357":0.05063223398439835,"358":-0.07358039341906347,"359":-0.1131033584054171,"360":-0.06538811396874024,"361":0.13572744003535836,"362":0.037527038903265496,"363":-0.06319333034491509,"364":0.21791594590049376,"365":-0.0406418612887763,"366":0.06162048027179723,"367":-0.0008920899276654479,"368":-0.12945093106434688,"369":0.10082081398165448,"370":-0.11509685003393429,"371":-0.12085791570515075,"372":-0.10861026649410586,"373":0.010485142783737834,"374":-0.14180630517241813,"375":-0.10542977019752278,"376":-0.09242958873122997,"377":0.23842751929895994,"378":0.09442286465705829,"379":-0.19352030934672929,"380":0.062463528890406704,"381":-0.018046280853013213,"382":-0.048516609181790876,"383":0.044831970384441464,"384":-0.06105307394004388,"385":-0.0032491919398325037,"386":0.10824161580475783,"387":-0.07153462158190434,"388":-0.05972581633937059,"389":0.06369996203007003,"390":0.06740353651985041,"391":-0.1064386070723067,"392":-0.25807574844651004,"393":0.22473672264964606,"394":-0.039861865692251454,"395":-0.0903395829630288,"396":0.21732351096578217,"397":-0.01869510124845093,"398":0.07101585316618002,"399":0.07708185670311596}},{"sx":5,"sy":5,"depth":16,"w":{"0":-0.040993384778690536,"1":0.12310571811655209,"2":-0.030506971896213157,"3":0.14608142589615625,"4":0.016305067599590776,"5":-0.12387650054546347,"6":-0.15510369608029062,"7":-0.0412586090837846,"8":0.05005740493467225,"9":-0.0026932482883861445,"10":0.29937937120609515,"11":0.10295457124532918,"12":0.019035872508755106,"13":-0.05126804529608201,"14":0.1573072325469505,"15":0.06633137720544696,"16":0.05004306088211575,"17":-0.07170992368014989,"18":-0.11280627706376913,"19":0.10460549847948857,"20":-0.02056899383917752,"21":-0.3295591520705266,"22":0.10682375488031352,"23":0.027840479459597715,"24":0.093943335004688,"25":0.028955809711893935,"26":0.2080971303499221,"27":0.17538500979996124,"28":0.2157989374965218,"29":0.06488360424984924,"30":0.0006278721018101766,"31":-0.09228816721190104,"32":0.009048728767305001,"33":-0.15123707917438042,"34":-0.23679731822075864,"35":0.08234736280239632,"36":-0.06470683473571064,"37":-0.21709815890649084,"38":-0.12071230560950648,"39":0.07202833632439287,"40":0.16971455523055082,"41":0.03316433865861214,"42":0.06439318689182008,"43":-0.18336075884512673,"44":-0.019591762582260506,"45":0.019401866876964498,"46":-0.08868930814399385,"47":-0.09148013345449243,"48":-0.08772875682937105,"49":-0.19938023163155205,"50":-0.009765995390236776,"51":0.12318517966582568,"52":0.03690016422541557,"53":-0.16808108838487368,"54":-0.061440939888701175,"55":0.12622663339993656,"56":-0.0249007010227688,"57":-0.0246216893274747,"58":0.0854014998624326,"59":-0.05841026713974065,"60":0.17316996202037024,"61":0.0685049404554753,"62":0.08407591492966841,"63":-0.13263016520518703,"64":-0.16259170482609347,"65":-0.1937340404507764,"66":0.10127462618933555,"67":0.048402149912126616,"68":-0.0014660190519496074,"69":-0.1634359998111049,"70":0.037172085364682785,"71":0.010918126712637163,"72":0.15807974931426488,"73":-0.08490923380362758,"74":-0.13472579844117358,"75":-0.13347566032744076,"76":0.16786596045647925,"77":0.030182575496994966,"78":-0.13003587880504075,"79":-0.07159924096972103,"80":-0.0545817905640763,"81":-0.04893071246199779,"82":0.07791782170227807,"83":0.08881988844721683,"84":0.03128327727431919,"85":0.1002114996743982,"86":0.006505901293806456,"87":-0.038300840783149166,"88":-0.05756198394434431,"89":0.09406150783171137,"90":0.019236504480903294,"91":0.06903393929560384,"92":-0.07340658951985918,"93":-0.10027598530636744,"94":0.014899784537106938,"95":-0.01354391576322132,"96":-0.06221045238900788,"97":0.010588614789530208,"98":-0.03569049789836187,"99":0.09565650852393576,"100":0.03890997106648659,"101":0.1490885276819452,"102":-0.08114638559133182,"103":0.026027994602743843,"104":-0.05264084514763677,"105":0.12379501552380015,"106":0.07776216273820838,"107":-0.08532445210493367,"108":-0.03208974752312858,"109":0.04168408671158658,"110":0.0017873696635895323,"111":-0.017369270746869475,"112":-0.025856765515688378,"113":-0.13448435845892084,"114":-0.09137174749237593,"115":0.04975969562060865,"116":0.08048190624919234,"117":0.1493574113318364,"118":-0.19597182525650117,"119":-0.04316704020297468,"120":-0.031777185610059856,"121":0.07329857139350555,"122":-0.15845309368488425,"123":-0.10274001539719224,"124":-0.08425642368503886,"125":-0.07367109262277236,"126":-0.1085902911686026,"127":0.055916304642233856,"128":-0.050451582034819,"129":-0.08174707853362584,"130":0.05581888762645715,"131":0.08061103384478611,"132":0.05482604928001003,"133":0.12937677841256529,"134":-0.11741024035290479,"135":0.055764750273059806,"136":-0.01842323888128733,"137":0.039259512230888596,"138":-0.11171516570056099,"139":-0.09584906233202396,"140":-0.15829767304128564,"141":-0.03997254927679887,"142":-0.042564981167724385,"143":0.09541393799184734,"144":-0.01454544862322677,"145":0.06858288315585001,"146":0.0374203023885001,"147":0.03137502998199115,"148":0.03812401326763986,"149":0.04510081918867114,"150":-0.10284590796748806,"151":0.014676215091507017,"152":0.036094873211824245,"153":-0.08558110917807421,"154":-0.1277367809923821,"155":-0.05478123456491016,"156":-0.10931534860316626,"157":-0.09606323339494804,"158":-0.1539672028301837,"159":0.0713701495800142,"160":-0.031848239205060726,"161":-0.08118452996524764,"162":0.10576230675666026,"163":-0.049288843983214516,"164":-0.07686518417610194,"165":-0.18989290977377654,"166":0.031447652864965606,"167":0.05388753593275428,"168":0.0704948746656066,"169":0.0747408340569096,"170":-0.07240553126977078,"171":-0.058912607292150844,"172":-0.04214393614765623,"173":0.05636237279744593,"174":-0.024502598849428486,"175":0.01166300388240848,"176":0.027289547976303542,"177":-0.17211556717151885,"178":0.01477085878123022,"179":-0.05847735519907696,"180":-0.0093576419215565,"181":-0.20762794821972258,"182":0.0920809964668763,"183":-0.01905992491999984,"184":0.026163462293720165,"185":0.11496651232610335,"186":-0.2752850186711494,"187":-0.047131893593691264,"188":-0.07080796016044877,"189":0.07754590812875352,"190":-0.04896468835702247,"191":-0.010443044525189672,"192":-0.030762968624033927,"193":-0.09795303608796327,"194":-0.007577296765820575,"195":-0.008570915011772014,"196":0.05252442080672009,"197":-0.11383599366593415,"198":-0.07325336890001885,"199":0.09654331299638609,"200":-0.0949137469637672,"201":-0.07521382125557736,"202":-0.3555952056667288,"203":-0.02881870559375867,"204":-0.17467715453464344,"205":-0.09313638315409287,"206":-0.12077795115107483,"207":0.07198272525444599,"208":0.02429716789458304,"209":-0.06292188134644354,"210":0.09364067561974813,"211":-0.10538956065962542,"212":-0.0369833216312861,"213":-0.02634925141851464,"214":0.007509849342239026,"215":0.027097760470797004,"216":-0.011146530140359422,"217":0.04159275014282217,"218":-0.2668245601095664,"219":-0.024237020163658,"220":-0.19631196898297706,"221":-0.001719794274152287,"222":-0.05526235820819037,"223":0.06943665590967035,"224":-0.009040620249421,"225":-0.1012124447101644,"226":-0.09820183055972055,"227":-0.054080818938282656,"228":-0.0637563859405696,"229":-0.05651246928951737,"230":0.11627936252557369,"231":-0.017213871655690775,"232":0.03037200576209282,"233":0.030274388557016856,"234":-0.15017986904998723,"235":-0.04662631685703419,"236":-0.21808878096250914,"237":0.042724093152124665,"238":-0.31213225148004153,"239":0.00023572058744858178,"240":-0.03430803077606542,"241":-0.09595452366455547,"242":0.017301838828591206,"243":0.12891668570148923,"244":0.0091454443887601,"245":-0.10001405956117251,"246":-0.12684451030336397,"247":0.07935675859558827,"248":0.06028563140960865,"249":-0.09521718589310582,"250":-0.004671970024040244,"251":-0.03961742259011511,"252":-0.060012001464003574,"253":0.03986770654569765,"254":-0.12296257852014571,"255":-0.08719238413810644,"256":-0.12600922277501594,"257":-0.23865015561548095,"258":-0.07409435024168014,"259":0.11787006861445151,"260":0.02847598546690623,"261":-0.07006553386314117,"262":-0.16708726040831612,"263":0.01514223551395322,"264":0.01669084350945558,"265":-0.03152457403365149,"266":-0.14964842465308997,"267":-0.005939183724914196,"268":-0.0035049711829195215,"269":0.039352183009020804,"270":-0.034684905510951,"271":-0.11981423782293107,"272":-0.053122877847312705,"273":-0.17012738515837494,"274":-0.13840940678709912,"275":-0.014062690972908095,"276":0.0433689098543709,"277":-0.15200791912509173,"278":-0.12720195077001908,"279":-0.0331457123536869,"280":-0.07047356692610099,"281":-0.10771626135391885,"282":-0.13693418149548023,"283":-0.15510849508828858,"284":-0.1234141346753123,"285":0.002689239455807791,"286":-0.19437821019498533,"287":0.005045120550588236,"288":-0.09212145662558105,"289":-0.1801249389704794,"290":-0.06782557196102058,"291":-0.01392372709788372,"292":0.024336156075949026,"293":-0.15907401125803017,"294":-0.034149473009461744,"295":0.05440553730592618,"296":-0.09592997711162674,"297":-0.05011104413352611,"298":-0.09848650519452154,"299":-0.036132355603117006,"300":-0.15751403669151107,"301":0.027761109525375003,"302":-0.06512117441645333,"303":0.00628859780838315,"304":-0.032719680626997816,"305":-0.060696699618288864,"306":0.027959080575742958,"307":0.010775757468431535,"308":-0.1404410178710354,"309":-0.26042268556930964,"310":-0.07708479981558577,"311":0.025540231507830583,"312":-0.05687017352523069,"313":-0.07815618282568852,"314":-0.06530291466724435,"315":-0.13794448291482808,"316":-0.18929814555146662,"317":-0.0836875641363927,"318":-0.12066055614978563,"319":-0.007190396495446593,"320":0.06331283126378756,"321":-0.18560448122283485,"322":-0.09528467606001029,"323":-0.05193236601779989,"324":0.057614624299740014,"325":0.12020078558152716,"326":-0.057713352564558465,"327":0.054561491577126336,"328":0.06965766108248997,"329":-0.04751106185494816,"330":-0.14237702814500555,"331":-0.07075869853166254,"332":-0.15995394837977328,"333":-0.06104174828778752,"334":-0.07640665007258887,"335":0.14269998957503785,"336":0.1050131954376924,"337":-0.26489895875928127,"338":-0.1445401881754488,"339":-0.13655615347098538,"340":-0.03808730010349203,"341":0.14331061879097745,"342":-0.02656168122279307,"343":0.047527258723609474,"344":0.1034430525409391,"345":-0.12127389650960653,"346":0.01806984310040777,"347":-0.08637080434647823,"348":-0.1331272644702697,"349":0.0071207951298989745,"350":-0.1733731349670277,"351":0.016549150665781772,"352":0.03099582540889243,"353":-0.27310707592145905,"354":-0.15187931471137403,"355":-0.0804515227886044,"356":-0.04700695700149601,"357":0.09863974319791881,"358":-0.043108276983224426,"359":-0.018441828861168345,"360":0.08508084765769698,"361":-0.1586729615663565,"362":-0.11601583247560372,"363":-0.06266681322620293,"364":-0.17317047893268842,"365":0.008740778584272392,"366":-0.11827032987324787,"367":0.022093033388998474,"368":-0.0006103902795149796,"369":-0.1943461533473573,"370":-0.05915250582233659,"371":-0.14496829480446027,"372":-0.014596528992285092,"373":0.07950848442485853,"374":-0.13502594083077554,"375":0.014016642981366328,"376":0.10524691294335776,"377":-0.03266645000494046,"378":-0.16528912150639877,"379":0.010317211229090874,"380":-0.20112660005305594,"381":0.009717795320286061,"382":-0.07460217430554258,"383":0.06195937504435557,"384":0.10871095133867456,"385":-0.15663572528762354,"386":-0.13615887224677936,"387":-0.03986609171001027,"388":0.10015601987433916,"389":-0.0020863552941940543,"390":0.03641058903324777,"391":0.07717790262722404,"392":-0.0046136180226449535,"393":0.022706878841267715,"394":0.04313071387651327,"395":0.12542343164092745,"396":-0.1752271413243258,"397":0.009345093483804637,"398":-0.013411121218498072,"399":0.08761728610467474}},{"sx":5,"sy":5,"depth":16,"w":{"0":0.03250095032501752,"1":-0.04853346149251809,"2":0.29842818109771946,"3":-0.1122958054210954,"4":0.012749501207199972,"5":-0.10010594750891309,"6":0.24259050123764012,"7":-0.027171394897573302,"8":-0.10352544312375278,"9":-0.16634204979130124,"10":-0.07657993702483466,"11":0.15797670553063783,"12":0.35619256213384753,"13":0.29793838865360256,"14":-0.09672177125379626,"15":-0.2851908369363756,"16":0.015623359681774689,"17":0.0065734258636073566,"18":-0.08066855231956443,"19":-0.032525388533989626,"20":0.041677121027497536,"21":-0.11355217567349166,"22":-0.09427648392321848,"23":-0.04049843559590968,"24":0.11806804227103261,"25":0.014392562347305647,"26":0.0232009899745666,"27":-0.07199334575464679,"28":-0.25062879773756885,"29":0.17572274071428853,"30":-0.18078330692180375,"31":-0.04250033198502866,"32":0.1537354994756628,"33":-0.15912839264675638,"34":0.11017295061838026,"35":-0.05232439656732737,"36":-0.030776971502555074,"37":-0.09680360833109974,"38":0.13537033570769028,"39":-0.07690552170200354,"40":-0.2196646924458034,"41":0.07500369746899119,"42":0.005307658419686598,"43":0.10603545039295106,"44":0.22306588117129508,"45":0.05148351354715169,"46":-0.022644135176694172,"47":-0.12300012788342503,"48":-0.07480762201329062,"49":0.03037206742208443,"50":0.20070547239514402,"51":-0.1452191929375048,"52":-0.07237398647306219,"53":-0.0038083840225813805,"54":0.0241238335322404,"55":-0.23680526893417092,"56":0.19483907897285407,"57":-0.1274974458405322,"58":0.008199847293126365,"59":-0.06351521668574706,"60":-0.08867400042212273,"61":-0.004962161532633973,"62":-0.3420454155360505,"63":-0.03874339205978387,"64":0.07976254822150641,"65":-0.07387894349913786,"66":0.07987071253132669,"67":-0.13234807765973253,"68":-0.09685886330410202,"69":0.1315105741422769,"70":0.0750466919501812,"71":-0.10367224236882124,"72":-0.05598379221662999,"73":0.054929176676540466,"74":0.24303906469713613,"75":0.05856308021116362,"76":0.02036980823916508,"77":0.25818198410310816,"78":-0.03139706538956594,"79":0.014160694152605416,"80":0.07681779606889882,"81":0.1004505284888625,"82":0.2873478475099904,"83":-0.031039117990734725,"84":-0.05627260508768445,"85":-0.1155552591914138,"86":-0.012048155411565297,"87":0.045023648286377754,"88":-0.3023431830824578,"89":-0.04150149264211477,"90":-0.15425242255095198,"91":0.14453005976528627,"92":0.19300397708108008,"93":0.15877764062993563,"94":0.05678497047525472,"95":-0.15221527374439622,"96":0.1306459235109035,"97":0.11160603156096899,"98":-0.19784038214993033,"99":0.0007274902569191029,"100":0.01834682277708084,"101":-0.0622366845224481,"102":-0.2522688003492604,"103":-0.03882456314554076,"104":-0.34740919972714085,"105":0.11871123892477158,"106":-0.21118376645571205,"107":-0.0182745885031768,"108":-0.21297370766214654,"109":0.17283623556593075,"110":-0.24282229527804727,"111":-0.1358245583788754,"112":0.04410269299434055,"113":-0.104702593732528,"114":0.01844397435036105,"115":0.033314406831756495,"116":0.024162984892331117,"117":0.12068785506820656,"118":-0.04489377802721701,"119":0.08422470066504502,"120":-0.19055884955632935,"121":0.14759108982766006,"122":-0.14094090321196268,"123":-0.03941354898145197,"124":-0.11600853469559104,"125":0.08774655147182027,"126":-0.04759069806808911,"127":-0.14182103919653846,"128":-0.1040600347800903,"129":0.12646010193291635,"130":-0.26759721292687455,"131":0.07368270644673153,"132":-0.04721676508772194,"133":0.08855462194158512,"134":-0.21605278417874366,"135":-0.1285256874634243,"136":-0.2197916347433332,"137":0.09480475900892445,"138":-0.07687353114971476,"139":-0.29409558370611566,"140":-0.07625304238673433,"141":0.10701384047325299,"142":-0.15874006733461093,"143":-0.07108573149882318,"144":-0.12436375814733817,"145":-0.081226064790182,"146":-0.004310380715435229,"147":0.16635513884621192,"148":-0.033881718507336,"149":0.0019200634087661844,"150":-0.212579006122048,"151":-0.07666625763469818,"152":-0.3708255556041043,"153":-0.011176833475467551,"154":-0.09303631940614676,"155":-0.14048825768377943,"156":-0.023752942999792376,"157":-0.05583482953061646,"158":-0.08938027625076428,"159":-0.07433972100807931,"160":-0.13862825221892408,"161":-0.09131053836032936,"162":0.1270243181492311,"163":-0.28739958583644415,"164":0.024045336219934266,"165":-0.058648597617820895,"166":-0.16887047282441203,"167":0.05404267805865465,"168":0.06831166490418739,"169":-0.09749711126571851,"170":0.005077972820046152,"171":-0.09499809419111822,"172":0.27991043087871564,"173":-0.06175871696392247,"174":0.23634684818517657,"175":0.038827273162147985,"176":-0.06316842301687262,"177":-0.17834024984082222,"178":-0.22803230282704537,"179":-0.2683889351948958,"180":0.1427598684215515,"181":0.017968725735180126,"182":-0.1631946277370448,"183":0.046438838303344845,"184":0.035948476377193596,"185":-0.10180641717536629,"186":-0.15647447733345632,"187":-0.01781919820955005,"188":-0.10226696112818348,"189":-0.15777111641943864,"190":-0.1638901610776068,"191":-0.026496721574988835,"192":0.03221244588995747,"193":-0.35034189321572096,"194":0.0022869917726156693,"195":-0.07749988632220962,"196":0.07248543301502319,"197":-0.06111437513121962,"198":-0.3339194729482516,"199":0.04027820065410869,"200":0.06743488154551568,"201":-0.0317192097242165,"202":-0.1969627475800035,"203":-0.2053549012655874,"204":0.10777185659041265,"205":-0.23021320428697095,"206":-0.21865684000071853,"207":0.040420806741028874,"208":-0.21602568914003478,"209":-0.0665704366912803,"210":-0.15343842302767474,"211":-0.26912766078058514,"212":0.07000256682897832,"213":0.05011803006745117,"214":-0.1509080854538942,"215":-0.09182319420086432,"216":0.17011330111671327,"217":-0.14768443456274896,"218":-0.30162487495017803,"219":-0.31991151562648634,"220":-0.14584440908497656,"221":-0.32658496687546273,"222":-0.2507590873399369,"223":0.05387698566999063,"224":-0.22535050797369754,"225":-0.1797318957350907,"226":-0.10437923378964045,"227":-0.2783577924715081,"228":-0.10850284392013297,"229":0.08786047408999116,"230":-0.006003293634765137,"231":-0.15641883779045207,"232":0.2699110259645776,"233":-0.20523903561801876,"234":-0.19094274340642128,"235":-0.3892145951726124,"236":-0.014247756820310039,"237":-0.5045164419469726,"238":-0.16774992328912464,"239":0.12475353416560092,"240":0.01758049058565885,"241":-0.001279737094006248,"242":0.0854262316416657,"243":0.023744391254022543,"244":-0.0074380423923417404,"245":0.021369368730104553,"246":-0.17752114231266491,"247":-0.14152451278956332,"248":-0.04514909550471314,"249":0.020893991425202717,"250":-0.15920231764582538,"251":-0.09177839801814582,"252":0.14260426332426915,"253":0.2519927348047588,"254":0.1551362241131389,"255":0.21487854792334096,"256":0.03192545393447799,"257":0.038400844119991076,"258":-0.24455944690119152,"259":-0.12201559726315939,"260":0.08817296880201284,"261":0.2387128376309241,"262":-0.30367230122049815,"263":-0.1461268930564786,"264":0.050034792338848305,"265":0.03265372841512086,"266":-0.16518508022491118,"267":0.0005104919053472053,"268":-0.17486414976100978,"269":0.014244199929716256,"270":-0.04349750630445424,"271":0.3466309025100033,"272":-0.011816050372863447,"273":0.0041015480121963325,"274":-0.08759519050526629,"275":0.03485338014725905,"276":0.1423583349201989,"277":0.3455055063955645,"278":-0.03622388240206289,"279":-0.15330819684014607,"280":0.043498119903740216,"281":-0.00003863251060766664,"282":-0.08340006685911296,"283":-0.07802742790807618,"284":-0.22588532762309302,"285":0.28182774729305593,"286":0.017057432692088034,"287":0.4316962564288689,"288":0.02390488366242871,"289":0.1993084619183758,"290":-0.38184312837083517,"291":0.25426634203435594,"292":0.05663328096196236,"293":0.312006697530455,"294":-0.09755463166503102,"295":-0.2801474503649539,"296":0.2155434794839031,"297":0.00750900906473226,"298":-0.14855636371532466,"299":-0.22588996949832768,"300":-0.48047341459318527,"301":-0.13935919304212724,"302":-0.07078257013863555,"303":0.3371797355338949,"304":-0.10627626833415801,"305":0.05285380628258169,"306":-0.16579003226904707,"307":0.26046620789644886,"308":0.1462963946659896,"309":0.31800425552647776,"310":0.013631206782008963,"311":-0.2491656318408839,"312":0.027093050743309328,"313":0.04979005133408636,"314":0.04367214691144218,"315":0.020390296615388714,"316":-0.24043151978599822,"317":0.017385718194312623,"318":0.15777205543182282,"319":0.37503737172426893,"320":0.1857259601511033,"321":0.11134416115158638,"322":0.041958278847516,"323":-0.00794244442999264,"324":0.028909739386153033,"325":-0.30243402508440276,"326":-0.032875582730170494,"327":-0.15869325534123893,"328":-0.13412186744110105,"329":0.07372156235223364,"330":-0.03948722738780232,"331":0.054676069922449805,"332":0.0233240445625094,"333":0.2796677115727621,"334":-0.03903771311389638,"335":0.0660601063063135,"336":-0.018642580589500257,"337":0.26757968108214675,"338":-0.07164368970337395,"339":-0.0598998269577138,"340":-0.13240155687672311,"341":-0.2311478442404089,"342":-0.11712847711968202,"343":0.08941605664628942,"344":0.06196162650877399,"345":-0.031794839092540564,"346":-0.15169685444886433,"347":0.15205381566755846,"348":-0.05005123294634713,"349":0.11500903855526157,"350":0.1061282615377461,"351":0.15714023363333052,"352":0.09405780089309777,"353":0.16526261013933502,"354":-0.07265364740390154,"355":-0.004015985934731658,"356":-0.04591796689736424,"357":-0.19963737532893777,"358":0.11538564529313135,"359":-0.038541240346724126,"360":-0.0852813653560626,"361":-0.08806750467853315,"362":0.12078537618216273,"363":0.10125802843280417,"364":-0.06895090131227723,"365":0.0741979382274864,"366":0.04981774770431553,"367":0.089882733108344,"368":0.12296043227763544,"369":0.13122694135271148,"370":-0.22750800077767264,"371":-0.024268237203929073,"372":-0.08030554607180906,"373":-0.12391182360948175,"374":-0.11129071991128263,"375":-0.04481685524091747,"376":-0.08496771422462117,"377":0.13546174239876954,"378":0.12180838481937836,"379":-0.051719551792990044,"380":-0.10407898989581683,"381":-0.17227073239358967,"382":0.03253523987710099,"383":-0.01996427883154202,"384":-0.09534739146140304,"385":0.16449569599012379,"386":-0.03293724295609795,"387":-0.05101774362860565,"388":0.007320139026054795,"389":0.09391777869053813,"390":0.25363518505623506,"391":-0.05741723238246607,"392":0.1244400119495112,"393":-0.08981593682444043,"394":0.3258760284490867,"395":-0.08935800159637386,"396":0.1981359517366033,"397":-0.023455220407132205,"398":0.19120037910349102,"399":-0.027295158910765317}},{"sx":5,"sy":5,"depth":16,"w":{"0":0.04477248426634181,"1":0.18697727258951313,"2":0.03908225376670262,"3":-0.008586550056058666,"4":0.00798406244103441,"5":-0.014408774111629172,"6":0.04186170442661089,"7":-0.04280467064193533,"8":-0.05294951706042636,"9":0.060651523831497293,"10":-0.13521262621364935,"11":0.12388857383615798,"12":-0.35378112037229187,"13":0.21195378804094817,"14":-0.13508649939425924,"15":-0.10284736624829172,"16":-0.13380080026523722,"17":-0.008273012963372454,"18":-0.1600080723787529,"19":-0.06773615094431858,"20":-0.023809690369692705,"21":-0.03721160613390664,"22":0.04135631536437629,"23":-0.04629263959410418,"24":-0.021981098041250625,"25":0.018998562453568818,"26":-0.09895238358645365,"27":-0.05128704552218464,"28":-0.4245972246604214,"29":-0.31961689959462225,"30":-0.2311701699632937,"31":-0.05727885122034162,"32":-0.005343238099907163,"33":-0.29595471396556816,"34":-0.2525159284953496,"35":0.10847575352838619,"36":0.07090871281207242,"37":-0.09102769352457596,"38":-0.20101911973062703,"39":-0.02586486554271434,"40":-0.19251927350002315,"41":-0.037124866605945994,"42":-0.0709975158275312,"43":-0.15133287189594935,"44":0.11508315726873357,"45":-0.23791299051295078,"46":0.012349052376278466,"47":-0.25138721147278836,"48":-0.006781724847573772,"49":-0.13142707203841414,"50":0.01741317427516421,"51":0.01473679195585848,"52":-0.0018955823952037096,"53":-0.011976039529705202,"54":-0.012586265853155441,"55":-0.05882404833443762,"56":-0.006097078537875209,"57":-0.16809443167436586,"58":-0.0736240206381949,"59":0.002280490604308234,"60":-0.17184870515606765,"61":-0.007283464872380021,"62":-0.20021451473611654,"63":-0.08824993188169566,"64":-0.06311323521026987,"65":0.04971592534360801,"66":-0.12317890844830219,"67":0.01721915601664068,"68":-0.054437577717545066,"69":0.10031119599703085,"70":0.11024849236695826,"71":-0.07468054641441131,"72":0.16787600722181095,"73":0.09547655222102948,"74":-0.1878077535561902,"75":-0.03031791301203203,"76":-0.24947555514201433,"77":-0.09251588003061474,"78":-0.19899611860203043,"79":-0.0050563411519267435,"80":0.004167593900478236,"81":0.10125212362346377,"82":-0.11079323656771761,"83":-0.15964070448279064,"84":0.011844351592358731,"85":0.2499249903759759,"86":-0.27244508443506327,"87":-0.18108011291995602,"88":-0.20613872251991605,"89":0.13182722090657611,"90":-0.13239490223884853,"91":0.17090906309725132,"92":-0.11059539230513464,"93":0.024112807278238495,"94":0.07090061495135781,"95":0.06341818467534105,"96":0.011766521092158155,"97":-0.08715926630753676,"98":-0.24494560204651458,"99":-0.03620554027229091,"100":0.02207086197531454,"101":-0.00515279810341399,"102":-0.014561122504141433,"103":-0.10677823319961652,"104":-0.3114629489309129,"105":-0.32565691657678697,"106":-0.2522477263413088,"107":-0.2261254837514655,"108":-0.32633120319837644,"109":-0.1641436013523711,"110":-0.23755543883252436,"111":-0.003058823313164098,"112":-0.22434425768741587,"113":-0.4222694320126901,"114":-0.13536822770390142,"115":0.03265083779005288,"116":-0.02259639027293653,"117":0.09423299198317622,"118":-0.045538431761256534,"119":-0.018410833459786207,"120":0.10212003189465726,"121":-0.32974002927943197,"122":-0.012297191278630158,"123":-0.11220305550810303,"124":0.272887170637006,"125":-0.220694206978508,"126":0.09041105202752446,"127":0.07417439836974726,"128":0.045832463893676886,"129":-0.1930302176257848,"130":-0.00849452177050761,"131":-0.01772363018182884,"132":-0.07344072381752927,"133":-0.030091865089039573,"134":-0.07378618946871464,"135":0.10507206077092889,"136":0.01902946972731402,"137":0.10057098550300418,"138":0.07055446173469698,"139":-0.048561612167677015,"140":0.0036395510070109725,"141":-0.02040587841586068,"142":-0.07733497534159367,"143":-0.1536766853902684,"144":-0.07333383476800905,"145":0.09745176128910733,"146":-0.2972482953667166,"147":-0.04558603330921748,"148":0.05861214093401443,"149":-0.2893515070629795,"150":-0.08858282969561063,"151":-0.04548523501977077,"152":-0.04258697632554546,"153":0.06866719708069646,"154":-0.004323736929187114,"155":0.005199604329261721,"156":-0.35161545770749836,"157":-0.02298013229183965,"158":-0.21316220154739066,"159":-0.12250655478193395,"160":-0.15561507893657925,"161":0.12252245854205812,"162":0.0517042102224719,"163":-0.19444482302691748,"164":0.12167142354684266,"165":-0.11509130448600284,"166":-0.11955019431234543,"167":-0.10297605290901836,"168":0.13445709769736874,"169":0.1650077470100547,"170":0.08999787955806846,"171":0.043949061106155436,"172":-0.23142549957887984,"173":-0.026351114000327212,"174":0.08149033535700295,"175":-0.22547597691581334,"176":-0.08554984611890519,"177":-0.02608278628868722,"178":-0.20680299911744127,"179":-0.36138010198501613,"180":-0.04090960012553798,"181":0.07190881809086833,"182":-0.09442910741079227,"183":-0.10158386438786199,"184":-0.1562742865507571,"185":-0.06301798906636873,"186":-0.011897996426767657,"187":-0.19942223376940277,"188":-0.38237576787796707,"189":-0.15512963076093644,"190":-0.1850310636807777,"191":-0.04364808682555371,"192":-0.30661843572327574,"193":-0.40067992961803117,"194":-0.23545747834503836,"195":-0.15463407002481433,"196":0.03440704019855839,"197":0.12200703546905967,"198":-0.21497066398831385,"199":0.08497993362888419,"200":0.15884646918075626,"201":-0.2672713839153723,"202":-0.15624816337699196,"203":0.014753954223892907,"204":0.20733372981465747,"205":-0.094841335217948,"206":0.11750038455065105,"207":0.08161956351660551,"208":-0.012892456826050747,"209":-0.0955012553816336,"210":-0.043582031745970376,"211":0.015215025998708753,"212":0.05231992181650414,"213":0.07842245781041471,"214":-0.040163099158607884,"215":0.03344052167147828,"216":0.037009501174723604,"217":-0.1436333009901558,"218":-0.09068026220023016,"219":-0.17635095277012763,"220":-0.08249836872406444,"221":-0.061921795786012014,"222":-0.16347886216835208,"223":-0.16590626652127158,"224":0.077235704619027,"225":0.03951576388295458,"226":-0.23497277583050433,"227":0.006916662691308111,"228":-0.03261743881265551,"229":0.11256047802724971,"230":-0.11027284205769765,"231":-0.07273481923024261,"232":0.08772257217158425,"233":0.019575290089942996,"234":-0.05455526523169739,"235":0.02887163742850397,"236":-0.17327440289330462,"237":0.09294580816502403,"238":-0.334558886707629,"239":-0.13366098906541582,"240":0.05163986828577254,"241":0.26701052585652113,"242":0.03376143149499994,"243":-0.2615048187393841,"244":-0.00358648594292941,"245":-0.08782883877783161,"246":-0.03825299172211147,"247":-0.13014447786201944,"248":0.05009766595925434,"249":-0.002168228530279868,"250":0.13744370684664522,"251":-0.040202478887089076,"252":-0.314593398941269,"253":0.005972410816467296,"254":0.040662773836317646,"255":0.010824936818959466,"256":0.021241018889334495,"257":-0.11004195688805733,"258":-0.05933838401801304,"259":-0.47475118773736324,"260":-0.003666205260305024,"261":-0.2181415434923934,"262":0.05974258343454779,"263":-0.11881783759674322,"264":0.2422969383172925,"265":-0.2624615026430719,"266":0.2565713813169111,"267":-0.04126207954126029,"268":-0.34445664468650594,"269":-0.09867699991682027,"270":-0.31674314265773007,"271":-0.23029342616321255,"272":-0.3817317988362377,"273":-0.30922593349219124,"274":-0.12168155760307697,"275":-0.26750202941235457,"276":-0.005813570673270544,"277":-0.23427462794381565,"278":-0.26400202495960756,"279":-0.11720783586128042,"280":0.07904545353240455,"281":-0.04184196676692202,"282":-0.3211868797234464,"283":0.25612587515308904,"284":0.3749262683484499,"285":0.159081934941297,"286":0.016525834535957774,"287":0.03105886390941969,"288":0.041851081053646405,"289":-0.1774386833662196,"290":-0.0016091350709538969,"291":-0.053085218525047724,"292":-0.00838861796799514,"293":0.11932013849789738,"294":0.01930238049329777,"295":0.022153858092045682,"296":0.08090049201001547,"297":-0.36816922873331,"298":-0.020532179039799956,"299":0.04898635349895578,"300":-0.08129737773479942,"301":0.01659935761857785,"302":-0.19645032231913973,"303":-0.11302893588523262,"304":0.08265326364082003,"305":-0.06859264120716962,"306":-0.18181523482946366,"307":-0.004239608281452969,"308":0.06652613160432537,"309":0.057870893471212256,"310":0.01608754360628007,"311":-0.06662610345662423,"312":0.20239139147979385,"313":-0.11292242374963544,"314":0.08837076532697548,"315":0.02987910724106332,"316":-0.5076326563530166,"317":0.0352088541349194,"318":-0.38908204802045565,"319":-0.02662538467421034,"320":0.18075580160991453,"321":0.13842141761846605,"322":0.0672299269703321,"323":-0.04263596564235771,"324":0.10502226836548999,"325":-0.11671809746983036,"326":-0.07204025980699165,"327":0.0930579447062402,"328":0.03126154488861454,"329":0.25792497608905146,"330":-0.03752365151255388,"331":0.019919566162243687,"332":-0.17730301787511754,"333":0.26756306917865597,"334":0.05608895896697018,"335":-0.18858970602719557,"336":0.12297590109400766,"337":-0.17371453094206096,"338":0.09549783939935082,"339":-0.1259194387269293,"340":0.053844294175163086,"341":0.0455925083379103,"342":0.009275131258629245,"343":-0.09941847409548968,"344":0.19271420335014605,"345":-0.030795406333001842,"346":0.32189502587344754,"347":-0.000504232351935283,"348":0.03770886463583359,"349":0.003256391708190444,"350":0.0045114540643761015,"351":-0.2025692839044484,"352":-0.06451875619027785,"353":-0.04806309235467595,"354":0.0982755084096271,"355":-0.02121203422291096,"356":-0.06023262975129256,"357":0.08013210612012736,"358":0.04812229964950335,"359":-0.22149121080362563,"360":-0.2037278474676687,"361":0.25259919100871403,"362":0.23485583143492839,"363":0.22097834724193968,"364":0.28261857718580224,"365":0.2700458819778403,"366":0.05761189676871155,"367":-0.16568535144280136,"368":-0.09907665231788736,"369":-0.174847277488844,"370":-0.03288754700955351,"371":0.11000074577778826,"372":0.06200692763739741,"373":-0.048270614158763006,"374":-0.12734980985129593,"375":0.09858190452095078,"376":-0.23725653731935134,"377":-0.2087648372962718,"378":-0.29410485005910003,"379":0.009614973028717617,"380":-0.0389174065752344,"381":-0.12122832483052765,"382":0.001886986217623582,"383":-0.03572593675784575,"384":0.008728692218552549,"385":0.02114607085992535,"386":-0.23779597112165324,"387":0.13718575853420176,"388":0.015432085179593377,"389":-0.01816991356819838,"390":-0.07463055046116282,"391":0.0599524601896675,"392":0.03347470252027932,"393":0.0789594604792191,"394":-0.005546987045186447,"395":0.26333779989346573,"396":-0.32183777889095816,"397":-0.02841141138493343,"398":-0.026207005036733202,"399":0.013200589708161348}},{"sx":5,"sy":5,"depth":16,"w":{"0":0.07456036267016487,"1":0.16690740512909863,"2":-0.28766585502130143,"3":0.06518487174098243,"4":0.0559362324720549,"5":0.1841255991025655,"6":-0.0933282079866269,"7":0.04177843665234627,"8":0.007187421428656149,"9":-0.03436821284889536,"10":0.16416255829872636,"11":0.17512262896946115,"12":-0.20551120964627206,"13":0.1485336218943536,"14":0.1745786381143214,"15":0.09699276563476071,"16":-0.12575462222543654,"17":-0.12038254724980366,"18":-0.24202628746906527,"19":-0.022515123834193677,"20":-0.0037168118006990214,"21":0.0027424225051447854,"22":-0.01780140214324204,"23":0.10714652470907512,"24":-0.29570406107210934,"25":-0.3334344908240934,"26":-0.5790683760247592,"27":-0.013288211149553737,"28":-0.27226874182797905,"29":-0.16356395375629967,"30":-0.09935204861107666,"31":-0.00203313963247782,"32":-0.24796828668322152,"33":-0.04152033840128872,"34":-0.06695778386277548,"35":-0.054159905317189665,"36":0.037978198894401086,"37":0.03878486666340476,"38":-0.059926446935805296,"39":0.043962827595701984,"40":-0.41875327797622647,"41":-0.4656665843377422,"42":-0.40229401937923503,"43":-0.18816563055847207,"44":-0.35918415381339364,"45":0.26079222800238616,"46":-0.24263683720530263,"47":-0.0010082535109544205,"48":0.009824406357645468,"49":0.1050802323834062,"50":-0.08092789848791707,"51":-0.10468588664806382,"52":-0.07363853810583114,"53":0.06704711405588626,"54":-0.0696801353103402,"55":-0.13848970555504556,"56":-0.16383611281000385,"57":-0.2859243722540602,"58":-0.4517076383190059,"59":0.08009180212341122,"60":-0.08075525365287671,"61":-0.23740837842840898,"62":0.008564003448973128,"63":0.0626896529312872,"64":-0.18081236743231907,"65":-0.27083822271500124,"66":0.09821518375720126,"67":0.07810156131455526,"68":0.00442125571078332,"69":0.11799159724369383,"70":-0.31899563718705504,"71":-0.254968768325279,"72":0.09168906123032136,"73":-0.3739172223888388,"74":-0.18458035412593998,"75":-0.1363600157599219,"76":0.22944236174144825,"77":-0.1159865587196255,"78":0.3061706850175207,"79":0.15109518178778425,"80":-0.040519626554553635,"81":0.08337716796102934,"82":-0.22400100673172385,"83":-0.04251260255197611,"84":0.026470197385027573,"85":-0.1638416584902971,"86":-0.045603173303710234,"87":0.11583551399680285,"88":-0.12929148316444755,"89":-0.07815074069316309,"90":-0.0031092343259406787,"91":0.037284915597543114,"92":-0.0922128919964447,"93":-0.030642070704971644,"94":0.11127865533464394,"95":0.022011125113631857,"96":-0.1441724234416948,"97":-0.06584058952680313,"98":-0.25325234407264935,"99":-0.012774437414041759,"100":0.04310424393379473,"101":-0.31527831943012496,"102":0.022653167548447307,"103":0.14452919866710065,"104":-0.13476697578005173,"105":-0.13955964185747288,"106":-0.3440675589171641,"107":0.02393049986351767,"108":-0.3357404087409861,"109":-0.01203780787153242,"110":-0.23751460632058638,"111":-0.014514218018579479,"112":-0.24055249797203904,"113":-0.07070746520896089,"114":-0.1588329749788237,"115":-0.068249610684932,"116":0.02167612179021542,"117":-0.10572344865900977,"118":-0.03911640218869275,"119":0.12493372021655273,"120":-0.2565897319960283,"121":-0.35298565413746463,"122":-0.32400619683528603,"123":-0.04300875170612737,"124":-0.3171269970284297,"125":0.10845646867543024,"126":-0.31272170446113623,"127":-0.1297342100476406,"128":-0.09190284279461076,"129":-0.031707642693173346,"130":-0.004512253853177307,"131":-0.015389807205844479,"132":-0.013171312935680758,"133":-0.31203815340207824,"134":-0.015628818457584917,"135":-0.08525454148498604,"136":-0.35743343423101626,"137":-0.06497396712738479,"138":-0.30053313641432594,"139":0.13282722715405945,"140":-0.018790585347306956,"141":-0.09852526867916261,"142":-0.11970969182720674,"143":-0.04252885812144598,"144":-0.1921251786519412,"145":-0.2931848607298802,"146":0.14535323213457627,"147":0.023481625102297298,"148":-0.09850441031231784,"149":-0.18289865009198192,"150":-0.23719550631239614,"151":-0.21662496359726052,"152":-0.03411483424980681,"153":-0.18860905217125964,"154":-0.0460230500864078,"155":0.04575032326398795,"156":0.1520873525342629,"157":-0.13235258396473323,"158":-0.0001480625752486743,"159":-0.13613796937196068,"160":-0.03931640156584662,"161":0.0757575820546091,"162":-0.1345843748186818,"163":0.17718455897937352,"164":0.11547085187623156,"165":-0.1259239697834559,"166":0.06634015697243104,"167":0.01920704539727502,"168":-0.014621111273705707,"169":0.21112113640023683,"170":0.0170095756314615,"171":0.03612251768283732,"172":-0.005124954220341529,"173":-0.10017952655728082,"174":-0.1348198452597303,"175":-0.14071673483110056,"176":-0.3368447323216588,"177":-0.0837881682810673,"178":-0.347568059296705,"179":0.3128089101966933,"180":0.11104712874889502,"181":-0.2199072755293267,"182":0.051884961134691036,"183":0.06033704676052713,"184":-0.17595122663464502,"185":0.1117085647736086,"186":-0.49034300936136815,"187":-0.3080240618281567,"188":-0.19081260062940905,"189":-0.05915830156338166,"190":-0.23120846030611567,"191":-0.12191882617715315,"192":-0.2588697712352215,"193":-0.1376270679391851,"194":-0.23942124127084677,"195":0.2285685719089025,"196":0.04938338658275138,"197":-0.27065759506679393,"198":-0.08607431240340452,"199":-0.051490542535715944,"200":-0.2429413470610858,"201":-0.022306766998800687,"202":-0.24750185238966502,"203":-0.09578055226242455,"204":-0.02156553445610599,"205":-0.06931319154291975,"206":-0.13973190425581125,"207":-0.036537219304362586,"208":-0.1862420921059623,"209":-0.23052671592294421,"210":-0.16641391647129014,"211":0.17637586993645468,"212":0.044141875144195576,"213":-0.17291697820384436,"214":0.08139534907590835,"215":-0.12464095188111796,"216":-0.2641408210489703,"217":0.23114805226598126,"218":0.11268127159350201,"219":-0.294156204955631,"220":-0.036873963719718995,"221":-0.062481646952869105,"222":-0.1079966643248673,"223":-0.2649994953725152,"224":-0.06664271244543221,"225":-0.19584308366699038,"226":0.18908557359652262,"227":0.14529884135472873,"228":0.016674959619339937,"229":-0.1675093970407174,"230":0.061510248691901456,"231":-0.14355326876790087,"232":-0.37923009956399717,"233":0.020455599416291492,"234":-0.13815574229189845,"235":-0.14084939984524789,"236":0.31687719451101504,"237":-0.19640788546947305,"238":0.12259409429884667,"239":-0.3703544833621742,"240":0.08505440227115083,"241":0.15506755172242473,"242":-0.16109581857152083,"243":0.059623290415811346,"244":0.14079252932037015,"245":0.06376691997033654,"246":0.054471278091170354,"247":0.1715396149091587,"248":-0.10747721781606089,"249":0.3276748358697428,"250":-0.08502375494868457,"251":0.12296132786660761,"252":-0.18742410778634305,"253":-0.13015457719383897,"254":-0.011543130510724258,"255":-0.022976883088381733,"256":-0.10299775007219017,"257":-0.14268420456854075,"258":-0.21515311002621304,"259":0.05996605005489334,"260":0.16379761385639172,"261":-0.08515539255324492,"262":0.009971956831074881,"263":0.20227558706907373,"264":-0.1462621500036256,"265":0.2768511943137821,"266":-0.2149636844013189,"267":-0.129577877122802,"268":-0.18540197603318964,"269":-0.023026652484006576,"270":-0.1902340120821593,"271":-0.03241557188815349,"272":0.07771033663599439,"273":-0.3077084997406684,"274":-0.1574075737072397,"275":0.03883445229715309,"276":0.04821177429123849,"277":-0.058669809496947646,"278":-0.08298909336694682,"279":0.14063922629970524,"280":-0.004153822197447171,"281":0.13769387478355147,"282":0.08604558542224063,"283":0.004865818718765724,"284":-0.04805076662823264,"285":0.009184097263508944,"286":0.012869138802501165,"287":-0.05304648277633797,"288":0.03010447396307072,"289":-0.5251062052928348,"290":0.15506960494805871,"291":-0.01960248156226659,"292":0.020688523340165327,"293":-0.040232076310329684,"294":-0.11481599731684382,"295":-0.06716365370134755,"296":0.05037314338954826,"297":0.07439321865481535,"298":0.004280188429243565,"299":0.0925811077868377,"300":0.28946867399287113,"301":-0.4319073823932489,"302":0.22727627984245968,"303":-0.11681566468613383,"304":0.07448418555669549,"305":0.04339950737310294,"306":0.533315100291551,"307":-0.10638681338264616,"308":-0.16485158201057337,"309":0.11277166241820807,"310":0.17550150326539324,"311":0.0001398164870801663,"312":0.23739904334516757,"313":0.028883349839936734,"314":-0.17501828762724547,"315":-0.2749137439091531,"316":0.1660427720174074,"317":-0.18505460051320743,"318":0.224245235111266,"319":0.15722901095304523,"320":0.33194128659684297,"321":0.1385748056139005,"322":-0.09069795759511466,"323":0.03809959139326188,"324":0.17446713164309535,"325":0.1552147685150309,"326":-0.10964204967759715,"327":0.13102533260495566,"328":0.17542742944830136,"329":0.19370025575730576,"330":0.04669351328908199,"331":0.31546847628725116,"332":-0.3003831836227061,"333":-0.010814249857078434,"334":0.06962251276614358,"335":0.05699565971815412,"336":0.09215969876627128,"337":-0.009890917014554034,"338":-0.010478996738302134,"339":-0.014406923548311438,"340":0.09214911488111674,"341":0.4200325182848073,"342":-0.050392955649059074,"343":-0.07442119704037578,"344":0.0853779457764261,"345":-0.1112871078442494,"346":-0.20037245583123198,"347":-0.09489555607568245,"348":-0.1337161446227205,"349":-0.12477780758057642,"350":0.0044591379464379854,"351":0.10617230814868883,"352":0.22477494199077724,"353":0.028749124958709057,"354":-0.0453094906321382,"355":-0.030838918456364998,"356":-0.016432422989711922,"357":0.36588446058892815,"358":0.2253590116388569,"359":-0.052264281294118295,"360":0.289371425893387,"361":-0.189994751612154,"362":-0.0206315709211423,"363":-0.06009701113224669,"364":0.039572997471786664,"365":0.04014935765888362,"366":0.0221625777964928,"367":0.08204977119987825,"368":0.0058843283447861374,"369":0.08934506984977406,"370":0.31090992790653665,"371":-0.042554022870757435,"372":-0.060111255255479744,"373":0.2081200709636249,"374":0.33245501554346363,"375":-0.10434610091550864,"376":0.4951056127607049,"377":-0.25946451585164343,"378":-0.1438093712267977,"379":0.025051942565517765,"380":0.3680313919420227,"381":-0.2617059632620624,"382":0.22833783680340636,"383":0.19244920952961853,"384":0.18715323525468325,"385":0.1576982373653223,"386":0.13276264334639765,"387":0.027746009478411778,"388":-0.08220362060686624,"389":0.18871645902267378,"390":0.0489029415201437,"391":0.08625297844854843,"392":0.5882800786362005,"393":-0.07114862040867084,"394":0.19565519937020287,"395":-0.04049460516978512,"396":-0.27298299334820025,"397":0.025440523238757267,"398":-0.14478282664504838,"399":0.3049920669196443}},{"sx":5,"sy":5,"depth":16,"w":{"0":0.03112421670751333,"1":-0.38330236766709,"2":0.009168195376710526,"3":-0.06003791008191177,"4":-0.017415011191705777,"5":0.15975336484360805,"6":0.10262780455964847,"7":0.05390643824673977,"8":0.1358860240843435,"9":-0.09234530915812324,"10":0.3556367837495663,"11":0.05253088233921877,"12":0.3021716227903123,"13":0.014574639635145027,"14":0.14744101218245015,"15":0.26788920763383045,"16":0.25904757977186393,"17":0.0201479485321104,"18":0.23981625630953715,"19":-0.0972346667035583,"20":-0.022130464295945673,"21":-0.03709303360510473,"22":0.1406686015177747,"23":0.20075680124618858,"24":0.15560162071303982,"25":0.2004709301233007,"26":0.32439121851541775,"27":0.010767846169006121,"28":-0.016294217065267385,"29":0.06154805562015322,"30":-0.18088443136725493,"31":-0.08459200620486848,"32":-0.024895749116875653,"33":0.14841382992735627,"34":-0.018606113205694684,"35":-0.04984125634943024,"36":0.029480252618345186,"37":-0.22591145208244562,"38":0.04407597810058255,"39":0.012131441809580116,"40":0.0330942073801671,"41":0.2774045188584055,"42":0.1618528209422368,"43":0.02882215534351971,"44":-0.27996189010566913,"45":0.022032362162925298,"46":-0.09207875521080534,"47":-0.05857237252285647,"48":-0.04642190403302962,"49":-0.07130425500795076,"50":0.13678012684450055,"51":-0.16675821369809754,"52":-0.11373277755617354,"53":-0.20305535122802598,"54":0.012299649631155674,"55":0.026758337602815676,"56":-0.15870442065812732,"57":-0.030645998738736264,"58":-0.12827756331497486,"59":-0.042923832243399726,"60":0.03197149877541346,"61":-0.1212830553788194,"62":0.1659484154269907,"63":-0.13273203591377816,"64":-0.016189663919875367,"65":0.008281798497584788,"66":-0.027191478209320503,"67":0.04356734635715801,"68":-0.005363270411494952,"69":-0.15590702373175552,"70":-0.10219452465157637,"71":-0.026674524038250158,"72":-0.18223320355912348,"73":0.09398415579860547,"74":-0.08102152270957545,"75":0.06362494892705452,"76":0.19819774322204295,"77":-0.025162511984512588,"78":0.1020142232175905,"79":-0.1011036717255004,"80":-0.2700898939354026,"81":-0.24032588767569665,"82":0.08166545509157368,"83":-0.482854530650595,"84":-0.11375818998057519,"85":0.14218271895070786,"86":-0.01223278731526647,"87":-0.08156636823399449,"88":0.08259502511396481,"89":-0.4064978099302787,"90":-0.05889053578507455,"91":0.04491092058732867,"92":0.26335025564907394,"93":-0.24522251730463243,"94":0.011298702916010298,"95":0.4043604420615347,"96":0.050044649810926434,"97":-0.17812995142917332,"98":-0.10389520455652941,"99":-0.221334479408576,"100":-0.19427089563277075,"101":0.07649670714129261,"102":-0.11830040149185445,"103":-0.13928710053258772,"104":0.1145411301168557,"105":-0.4380295810367845,"106":0.41715818613570194,"107":-0.0885706383536536,"108":0.00587566311482518,"109":-0.07846529951815732,"110":0.1946205922954152,"111":0.28855831150121897,"112":-0.03612055829124375,"113":-0.23376033302608562,"114":-0.0842786673912473,"115":0.12781010774599671,"116":0.038772496878450906,"117":-0.09360994721478198,"118":0.13847765750366017,"119":-0.004292781885748325,"120":-0.026862178076971333,"121":0.030643044967122994,"122":0.5239158167780742,"123":-0.11753220962311359,"124":-0.47090148706131923,"125":-0.02301671970554413,"126":-0.049036595621363255,"127":-0.0386578711031355,"128":0.012506575759066121,"129":-0.22469348987545146,"130":0.1198939707391396,"131":0.0006317685079969638,"132":0.036278215524899626,"133":-0.30125873703925343,"134":0.15733917327202962,"135":0.06644871915015946,"136":-0.07076717881500631,"137":0.13222057445234423,"138":0.22230974978165718,"139":0.08718537967958655,"140":0.06115277117351003,"141":0.1841064613726785,"142":0.1589186076056302,"143":-0.4180056080359436,"144":0.03715744497843411,"145":0.01311848396702022,"146":0.022649842628615288,"147":-0.08261706846712895,"148":0.057838293647058114,"149":-0.11721512772302828,"150":0.04603990030443335,"151":0.017305940316147617,"152":-0.31396113915372953,"153":0.20090993524272424,"154":0.06741764182061327,"155":-0.047833339552371484,"156":0.037093981200704874,"157":-0.0386322533318461,"158":-0.0488535109675679,"159":-0.34776040529063396,"160":-0.35464427716740055,"161":-0.11310918138323303,"162":-0.19913042276090331,"163":-0.445596410584629,"164":-0.026593496033361027,"165":-0.37188211102853014,"166":-0.25504024432746253,"167":-0.30011080390425693,"168":-0.3068954165499906,"169":-0.20845791905866443,"170":-0.34508471083128656,"171":-0.0957622519929142,"172":0.1009636011712558,"173":-0.36532551760927934,"174":0.019780770316851066,"175":0.19284307053283375,"176":-0.48820476556689385,"177":-0.18819325298834733,"178":-0.2411821621096563,"179":-0.37602621739133524,"180":-0.021852425997687677,"181":-0.033379481831293266,"182":-0.20602356758433518,"183":-0.03048139091131112,"184":-0.03660731065922339,"185":-0.03888221786865439,"186":-0.1153982907397303,"187":-0.22819208713432518,"188":0.23112648232482166,"189":-0.3089492759003857,"190":-0.016570897040975793,"191":0.1746114863856317,"192":-0.16065495114496223,"193":-0.287660398188962,"194":-0.16538529819685077,"195":-0.0747414994886161,"196":-0.09756284373887007,"197":0.09923440623110451,"198":-0.049741868872977366,"199":-0.16211436344296612,"200":0.08566676887492776,"201":-0.15792951064909175,"202":0.37035626181510467,"203":-0.0007637629170397316,"204":-0.07230005578030824,"205":-0.15141830656422328,"206":0.1686398262145365,"207":0.01033084176510506,"208":0.054554875147929796,"209":-0.23845108867805884,"210":0.11115271099062138,"211":0.02340611586813821,"212":-0.014685921021357476,"213":0.04704195525679002,"214":0.07603643210219532,"215":-0.09152179540823527,"216":-0.22054348296071713,"217":0.030484876727559434,"218":0.20080064486829238,"219":0.15541246348797594,"220":-0.11961195662420829,"221":0.00640900496064964,"222":0.1554198954871746,"223":-0.06247709558392007,"224":0.11498605957688501,"225":0.008195681939641564,"226":0.13044915356354175,"227":-0.04037864323713627,"228":-0.09579462447054218,"229":0.06522113794613354,"230":0.12836897380942974,"231":0.049511684374940114,"232":0.08501805071883753,"233":-0.0022081081396388156,"234":0.13780824463224936,"235":0.13508612542960674,"236":-0.0013672132592399441,"237":-0.060341709093825385,"238":0.04032616891984926,"239":-0.13418672869508358,"240":-0.21350057960910004,"241":-0.28373528271570647,"242":-0.2650203151710297,"243":-0.07520549603082517,"244":-0.05696081222245039,"245":-0.2179782131795727,"246":-0.0064406959683086145,"247":-0.06237120169109384,"248":0.021876569273816045,"249":-0.05297514204405858,"250":-0.44418647558073954,"251":-0.10560840715258628,"252":-0.0828143353056167,"253":-0.10440048924730566,"254":-0.2296710738332567,"255":-0.37861078766330236,"256":-0.3110898245314666,"257":-0.339814006154485,"258":-0.32142386556735647,"259":-0.05662638851780118,"260":-0.0012942035919686842,"261":-0.25739807291720257,"262":-0.1828247600452036,"263":-0.035804316487949905,"264":-0.03426039074524892,"265":-0.12147638158696007,"266":-0.3152927142707601,"267":-0.12745559792341365,"268":0.01242945843276896,"269":-0.20410704760894507,"270":0.004671951470900436,"271":0.0255790971922811,"272":-0.0820692566131909,"273":-0.41330947205614205,"274":-0.10747222768752762,"275":0.062150313745873216,"276":-0.0788623930794297,"277":-0.09612114613971488,"278":-0.0830337527373288,"279":-0.10607879913486745,"280":0.11006591637923353,"281":-0.12424501273719538,"282":-0.2172656344431657,"283":0.012191397963762618,"284":0.09717594805433953,"285":-0.21534764191205288,"286":0.06325855492468559,"287":0.16021753157023774,"288":0.02198587607178208,"289":-0.020927000867236575,"290":0.07406926976498249,"291":-0.17803107916403826,"292":0.08171113241519393,"293":0.026685679799841832,"294":0.1564510106397742,"295":0.058899313388194735,"296":0.054311973950267635,"297":-0.06046808964907594,"298":0.039094422666158576,"299":-0.14319596901933074,"300":0.03022048927052406,"301":0.1891307511104439,"302":0.003898262805717802,"303":0.05496761523563725,"304":0.12282718892965272,"305":0.15946935676502386,"306":-0.09665911390998777,"307":-0.17638945045597462,"308":0.12143907035369235,"309":0.10203175374346536,"310":0.13465943666791816,"311":0.09186517875798104,"312":0.19885951227102855,"313":0.044795818330109524,"314":0.14898174548169588,"315":0.017455118056274352,"316":0.03454357314111916,"317":-0.08841587201471095,"318":-0.22464245854041442,"319":0.1597852383759353,"320":-0.1236208002801556,"321":0.13183074044228807,"322":-0.027177029522043688,"323":0.08441057617774411,"324":-0.056055934739013095,"325":-0.0027585924216662642,"326":-0.015197622444118057,"327":0.053519801527170355,"328":0.1634732455639102,"329":0.027005618686447047,"330":-0.20610924166491545,"331":-0.06799544766286365,"332":-0.1678748710899276,"333":0.09031498388674612,"334":-0.24197067951036966,"335":-0.10974586431101253,"336":-0.10713839445385208,"337":-0.2246189097556606,"338":-0.20228542049317066,"339":0.062152903466970603,"340":-0.013474741017799984,"341":-0.09195982917968341,"342":-0.18326414983463016,"343":-0.029353259697101775,"344":-0.04574995933646388,"345":-0.08261703558227661,"346":-0.5216637362335901,"347":-0.06512236230083894,"348":-0.015070418488897008,"349":-0.17478512142976174,"350":-0.031761215231195045,"351":-0.13651579351773988,"352":-0.11123066353510135,"353":-0.10108321099527695,"354":-0.12254589236555913,"355":0.09209655879623016,"356":0.09024277434224717,"357":0.09721751690143983,"358":-0.15262517425433447,"359":-0.04214849177919121,"360":-0.04824556505366532,"361":-0.18456685827840094,"362":-0.23733875229658546,"363":0.08021537959124471,"364":-0.12621940259766062,"365":-0.16312324225994182,"366":0.07464139433958941,"367":0.07972436704258094,"368":0.13695012441928045,"369":-0.13734843344050468,"370":0.1453673519326488,"371":0.006493213849308557,"372":0.03394739142527524,"373":0.12164438985431138,"374":-0.058510184103936824,"375":-0.1787596522732798,"376":-0.06500529007658043,"377":-0.25220430067193883,"378":-0.21907651519876442,"379":-0.08772066385187936,"380":-0.06568597058859468,"381":0.058367008565632615,"382":-0.11512098126387084,"383":0.2040879365339245,"384":0.024561173646625883,"385":0.06228520249116978,"386":-0.08970331969256391,"387":-0.15252408803063602,"388":0.08309528705907805,"389":0.33286168457183846,"390":0.03635755588724085,"391":-0.022340759656931067,"392":0.10879284611712942,"393":-0.030004992091443923,"394":0.06611502341349271,"395":0.10931689308753251,"396":0.021371968469562814,"397":-0.15175085332360744,"398":0.05248290023726987,"399":0.1848746342159287}},{"sx":5,"sy":5,"depth":16,"w":{"0":0.00747060751242792,"1":-0.10261418782814939,"2":0.012614150218558957,"3":-0.11043360379992732,"4":0.19277404219267238,"5":-0.24442522385214444,"6":-0.17186922840428565,"7":-0.018792299395522044,"8":-0.31057850625564765,"9":0.15596818041554472,"10":-0.11399673280432565,"11":0.047864657527439076,"12":0.2696344377229755,"13":0.12767422091171088,"14":0.14325946918111793,"15":-0.44081891262810646,"16":-0.2509795011076731,"17":-0.17547898582866533,"18":-0.08421172674622247,"19":-0.1235655645128721,"20":-0.04209028452562813,"21":-0.1199066231533623,"22":0.20559806058609958,"23":0.011661624484330677,"24":-0.07600526215892009,"25":0.10916625484620912,"26":-0.09301618632154204,"27":0.06328991821277541,"28":0.008847122623997013,"29":0.06676279158833956,"30":-0.22187058121146977,"31":-0.31628092237631866,"32":0.1079710715783893,"33":-0.4094114835068271,"34":-0.23601549303354272,"35":-0.12104746079610869,"36":0.03832684180232084,"37":-0.036706914818991694,"38":0.10350922113893019,"39":0.07359074324283477,"40":-0.27507849328420647,"41":0.060736805242400514,"42":-0.07971689865938891,"43":0.13619327473014486,"44":0.21220718432529617,"45":-0.1553646589555854,"46":0.06936531774795289,"47":-0.31651759550148495,"48":-0.20830439857481495,"49":-0.1495605189923506,"50":-0.03321420252311774,"51":-0.23716018248089876,"52":-0.0483980983924969,"53":-0.30438305123056963,"54":0.05931834284107591,"55":-0.13204552889952814,"56":0.14383882876966428,"57":-0.06031941785547108,"58":0.0055927667964887195,"59":-0.11278880090355124,"60":0.06589949218490009,"61":-0.05639731978097884,"62":-0.011561036858943224,"63":-0.24202531625714566,"64":0.10343477506433242,"65":0.12459635984626431,"66":-0.1194930729746704,"67":-0.017408725830890835,"68":-0.032566878664211624,"69":-0.1413113038105693,"70":0.21194359542712826,"71":0.13680484729071082,"72":-0.15064691583591794,"73":0.20082388736280918,"74":0.1924109445084058,"75":0.15325946005407973,"76":0.2679401215748652,"77":0.15746404573774672,"78":0.006561546664394559,"79":-0.2666967098642102,"80":0.1348185437271705,"81":-0.0674144791676324,"82":-0.0009808338791726205,"83":0.027140193101343885,"84":0.03896810946036666,"85":0.1035675200461245,"86":0.14755999982132142,"87":-0.049116596860737244,"88":-0.1270698656604877,"89":-0.05074854267986598,"90":-0.06303438595761958,"91":0.1338502381018217,"92":0.14660898201332215,"93":-0.003139059825090345,"94":0.06388083771709356,"95":-0.05083282359653914,"96":0.024545398943253853,"97":-0.03487978299956496,"98":-0.2580426931907212,"99":0.14030519711986936,"100":-0.060607361983157866,"101":0.1434069950778354,"102":-0.013428220559980617,"103":0.0748084835996526,"104":0.18576398415199327,"105":-0.06622808329879956,"106":-0.13093649338932134,"107":0.18619588874777956,"108":-0.15498176334996508,"109":-0.055384278932433674,"110":-0.19683385244178184,"111":-0.09617113188085465,"112":0.16104422153866293,"113":-0.05893713454952411,"114":0.1627956305601371,"115":0.040252373311963074,"116":0.052854027059426247,"117":0.09123067406696608,"118":0.09386757051070589,"119":-0.14353498963066633,"120":-0.15777512016582798,"121":-0.043369872264871726,"122":-0.13766633809008155,"123":-0.22658422642076964,"124":0.1622954287082669,"125":0.1578411917454801,"126":-0.025387147666327176,"127":-0.016273778870795945,"128":0.007425369573394486,"129":-0.002539826841975623,"130":-0.26364746280012386,"131":-0.07014277849642912,"132":-0.07383889710596431,"133":0.24052308553582813,"134":0.0690994916489467,"135":-0.0777116909448486,"136":0.177700055785542,"137":-0.09966639324454704,"138":0.1771309615909432,"139":0.1665293072859281,"140":-0.11633898497551806,"141":0.06691729832958014,"142":-0.018911740593119595,"143":-0.019967526767523135,"144":-0.08035676439608583,"145":0.16366252204104706,"146":0.021580079418094724,"147":-0.16393220950255868,"148":0.07129325558826868,"149":0.04432958639742433,"150":0.10142311279041483,"151":0.11014886371807499,"152":-0.23465765510758502,"153":0.06200044080484004,"154":0.13340109903671868,"155":-0.09373852457216125,"156":0.07621872039558016,"157":-0.04033574284819765,"158":-0.02829193055511099,"159":-0.11755150332173521,"160":-0.034001696537129256,"161":-0.08605948211477986,"162":-0.06988213571065552,"163":-0.06685105217141359,"164":0.1507654759109248,"165":0.13274218701899587,"166":-0.09871782041554439,"167":0.018843404483648258,"168":-0.10803053131613304,"169":-0.0967083864231688,"170":-0.00013431635515139461,"171":0.18745345389330328,"172":-0.0022389182376482096,"173":0.07035912391114504,"174":0.06212089701795251,"175":0.04638682477633881,