{"layers":[{"out_depth":3,"out_sx":32,"out_sy":32,"layer_type":"input"},{"sx":5,"sy":5,"stride":1,"in_depth":3,"out_depth":16,"out_sx":32,"out_sy":32,"layer_type":"conv","l1_decay_mul":0,"l2_decay_mul":1,"pad":2,"filters":[{"sx":5,"sy":5,"depth":3,"w":{"0":0.06288898228673692,"1":-0.18126423583922507,"2":-0.0759093836633596,"3":0.0906357053550534,"4":0.020969634072163575,"5":0.08343561593800315,"6":-0.2730832301549725,"7":-0.3673217424322476,"8":-0.23817572108367488,"9":0.2507341815903807,"10":0.2233747058079886,"11":0.09134548680166364,"12":-0.04406671381775622,"13":0.10894723904124506,"14":-0.04315991645973793,"15":0.20692212416312508,"16":-0.0098319189381799,"17":0.024526500880878616,"18":0.2826177508308336,"19":0.001924551772704803,"20":0.06957716450964249,"21":-0.37531533067446465,"22":-0.4377624423926098,"23":-0.42639530800801534,"24":0.18241687700937106,"25":0.1446469922602932,"26":0.275651963274884,"27":-0.16762252198635555,"28":0.06949535889866394,"29":0.06303490028629187,"30":-0.21284377699191848,"31":-0.12373354294608027,"32":-0.19633705858648626,"33":0.08354943288759074,"34":-0.0019737939851559166,"35":-0.35559850082145594,"36":-0.26903819438475024,"37":-0.4631131299944225,"38":-0.2608904542593731,"39":0.11130076296432286,"40":0.21614708843059713,"41":0.15169417795331983,"42":0.08139408967065148,"43":0.09439238232993298,"44":0.06602557092791449,"45":-0.10891149475940683,"46":-0.02976839837944272,"47":0.19883724898312902,"48":-0.09719509694762414,"49":-0.02002395106868155,"50":-0.05107924098151855,"51":-0.27847270002046426,"52":-0.22404228184573763,"53":-0.37523413852097254,"54":0.15904717296845755,"55":0.09821239328031227,"56":0.04441448372637538,"57":0.13783045102655306,"58":0.056913609263653714,"59":0.09384779929457475,"60":0.1398175563539062,"61":0.09991040193490533,"62":-0.07106542611511076,"63":0.09517512995608784,"64":-0.3074913649048139,"65":-0.10550915206537055,"66":0.009432693684278686,"67":-0.2050451233657028,"68":-0.18400605396153824,"69":0.28480958594864486,"70":0.39906651063051946,"71":0.42644104583068587,"72":0.15907266108212878,"73":0.22052872486790953,"74":0.2957841407301895}},{"sx":5,"sy":5,"depth":3,"w":{"0":-0.23764941827501493,"1":-0.1780214719298115,"2":0.05741905264661581,"3":-0.2908234362958616,"4":-0.16953552007811287,"5":-0.1379180128278503,"6":-0.07125663055986857,"7":-0.0034599119137161505,"8":-0.23082304075984245,"9":0.26533199130640545,"10":0.4912649528506592,"11":0.44626019680527435,"12":0.006188240107793248,"13":0.15379948864138168,"14":-0.10583766227991204,"15":-0.2728659183786031,"16":-0.35936035956532253,"17":-0.20893506102267484,"18":-0.05219666924890221,"19":-0.10416737695279082,"20":-0.08898600807040766,"21":-0.11020675057643664,"22":-0.2276199493544347,"23":-0.037547795838366343,"24":0.22081921530178333,"25":0.23039371250372404,"26":0.11617406972871584,"27":0.14980771589493755,"28":0.34946715682170354,"29":0.3425252757450958,"30":0.29630173439820284,"31":0.2505059508956917,"32":0.3169209965211767,"33":-0.1302127968496716,"34":0.12967902661661165,"35":0.09531168304400026,"36":-0.1688220190822992,"37":-0.5462248379604085,"38":-0.289268529425425,"39":-0.30757624036701015,"40":-0.12532003023161656,"41":-0.24022459468488688,"42":0.24437486918751308,"43":0.30054292122376863,"44":-0.09354108186109282,"45":0.08468401596108006,"46":-0.030990180399552838,"47":0.07608737857547293,"48":0.08546925703350192,"49":0.13227762404095114,"50":-0.07566865534335702,"51":0.37115059687123086,"52":0.258065478111547,"53":0.14069301028511133,"54":-0.49558695847857787,"55":-0.32365270478874,"56":-0.36885262444658096,"57":-0.05181533249910993,"58":-0.15005793324699923,"59":0.13283524214687598,"60":-0.13995210291134566,"61":-0.030384985441452725,"62":-0.06689516076679371,"63":-0.0799771613201312,"64":0.1975900113630274,"65":0.21302925137855475,"66":0.3386356517839865,"67":0.2875396627079089,"68":0.2108891869924252,"69":0.24732893395325456,"70":-0.14107246080910965,"71":-0.09103780814994072,"72":-0.43943337535362303,"73":-0.45345417617434447,"74":-0.5528854301323427}},{"sx":5,"sy":5,"depth":3,"w":{"0":-0.012246384723113098,"1":-0.11761661069333611,"2":-0.2861545534176976,"3":-0.13555593993702816,"4":-0.33029999383990194,"5":-0.2986315691635423,"6":-0.03917549380528815,"7":0.01328769536419366,"8":-0.07931750557745079,"9":0.3084932877742973,"10":0.19347060945641448,"11":0.16291661829636048,"12":0.03508114924362538,"13":0.25680987333725575,"14":0.1068640598462182,"15":-0.0364408509434744,"16":-0.12458661775529553,"17":-0.003434266126210308,"18":0.219284892057465,"19":-0.008506686730206303,"20":-0.012335920125535957,"21":0.10368925589974888,"22":0.10131333923795385,"23":0.20881399228100633,"24":0.29767265784801783,"25":0.17476471439256458,"26":0.36580622673554186,"27":0.2166240298693297,"28":0.2506963775367142,"29":0.4040565247431458,"30":-0.14968686137416642,"31":-0.0587718665401292,"32":-0.13438237591326813,"33":-0.044470032308660284,"34":0.025679851045820046,"35":-0.2401433338190808,"36":0.015063652247787128,"37":-0.07286416806610302,"38":-0.11707962493732878,"39":0.12696619662324696,"40":0.08929936893890685,"41":0.28493193645579445,"42":-0.19673323384076524,"43":-0.09849813221493008,"44":0.10299578255255995,"45":-0.06399846841204183,"46":-0.07072442641699776,"47":-0.026097648289992927,"48":-0.018453108458617026,"49":0.13174647777988596,"50":0.12023795105026847,"51":0.13273221708466726,"52":0.01955714279466566,"53":0.007960695060859916,"54":0.03625314766221829,"55":-0.0010677517738176834,"56":0.05996110157177896,"57":0.07715179628338514,"58":-0.4114531605970134,"59":-0.10084989233831654,"60":-0.30406274154983487,"61":-0.23038952039871735,"62":-0.14178275616865166,"63":-0.02545143632328547,"64":0.016441926032607565,"65":-0.09023131660116188,"66":-0.2895235026009325,"67":-0.21230149948166174,"68":-0.05668432356600334,"69":-0.08796948028803378,"70":-0.06568015047717479,"71":-0.0297688118711759,"72":-0.12353563166023974,"73":-0.08104732342563796,"74":0.1256209514540977}},{"sx":5,"sy":5,"depth":3,"w":{"0":0.1392125457542661,"1":0.03429404250023712,"2":0.11980636791738195,"3":0.07263073263038257,"4":-0.1315263679725702,"5":-0.06647077468106752,"6":0.11891686343711587,"7":0.08046051631609466,"8":-0.15216970056074863,"9":0.16534665551909894,"10":0.252130930645758,"11":0.20205436726461493,"12":-0.024099687666294764,"13":-0.21504641868568264,"14":-0.06907275522513383,"15":0.13131102164114702,"16":0.16093047786892872,"17":0.20946134719846315,"18":-0.17580588729054084,"19":-0.20413045645186326,"20":-0.31126898626870636,"21":-0.029743636811053936,"22":0.036023713630801896,"23":-0.09553467499075355,"24":0.2978195250087808,"25":0.3447098351167293,"26":0.22277024875883675,"27":-0.2170472589438376,"28":-0.2963759886980683,"29":-0.2717921043316609,"30":0.30260152469288565,"31":0.17758584554330206,"32":0.2252384088132142,"33":-0.28687270459151537,"34":-0.0492547854114386,"35":-0.3261582863997553,"36":-0.013043158480159817,"37":0.30269924441062857,"38":-0.08993158270441379,"39":0.1323976071390801,"40":0.07700586779026251,"41":0.20157997259952615,"42":-0.15818237511653044,"43":-0.08956601512510243,"44":-0.24948441406834945,"45":-0.06004028705551076,"46":0.007984162214711566,"47":-0.005596152807683487,"48":-0.15671180109897945,"49":-0.03612895899635009,"50":-0.30017704584421256,"51":0.1459789583702919,"52":0.17234375886848813,"53":0.12783440501515828,"54":-0.19998088473807446,"55":-0.16291222978498365,"56":-0.028009804327602375,"57":0.11076844606595894,"58":-0.14437430622893968,"59":-0.12051091104067604,"60":-0.025832720249195675,"61":-0.4148651241572056,"62":-0.07324554266539879,"63":-0.2151061637991709,"64":0.044845377442095394,"65":-0.05643752767632853,"66":-0.05779513136924714,"67":-0.06981582627625338,"68":0.13826380129485552,"69":-0.15655688873286844,"70":-0.13364453382376226,"71":-0.044459381718430994,"72":-0.031025133676820527,"73":0.12449307248102506,"74":0.057719729950269694}},{"sx":5,"sy":5,"depth":3,"w":{"0":0.050228270880670514,"1":0.028007241082396946,"2":-0.12889007769787603,"3":0.1074558819115889,"4":0.24274777879411738,"5":0.09377252177956978,"6":0.36485776093233124,"7":0.06285515386599787,"8":0.004113380961898493,"9":-0.051590303202730295,"10":0.015505743257540696,"11":-0.07075978472659658,"12":-0.08571267866409465,"13":0.011973898437386929,"14":-0.1708453351323379,"15":-0.10868686472672123,"16":-0.29278010633687135,"17":-0.09512590879397267,"18":-0.0027467341913302704,"19":0.31740383749936085,"20":-0.009033057869904184,"21":0.07335572712668634,"22":0.20393612398579447,"23":0.2762455620936079,"24":-0.23893382081536957,"25":-0.0014119925582530472,"26":-0.14273267631052194,"27":-0.19299282962822234,"28":-0.2325866046961021,"29":-0.28463227469495744,"30":-0.21621544390869807,"31":-0.4636019682756354,"32":-0.4643327166201823,"33":0.015266749338279024,"34":0.06463698682797497,"35":0.12780252923380273,"36":0.05802772243227243,"37":-0.08756907366859501,"38":-0.11289637522075446,"39":-0.08439800864766278,"40":0.09090288928273775,"41":-0.2937640136492613,"42":-0.17386161958104593,"43":-0.02594247464700997,"44":-0.02063324089778174,"45":-0.20352002981864062,"46":-0.11388563343858465,"47":-0.2772014648670951,"48":0.03925111400676028,"49":0.06782606235760157,"50":0.08335167480885106,"51":-0.21025949864272522,"52":-0.053548680636556975,"53":-0.3481128894550151,"54":-0.07393530473623477,"55":-0.16216400415907828,"56":-0.0868152277142551,"57":0.11081867945295178,"58":0.1372295222260062,"59":0.218512544079695,"60":-0.01989648133648737,"61":-0.2009197846930167,"62":-0.1346298896095812,"63":0.1062286149498367,"64":0.05781616419018199,"65":0.20482891281129956,"66":-0.2143245133452301,"67":-0.30795334202509794,"68":-0.2652211545879893,"69":-0.10402085189874608,"70":-0.046479951743338105,"71":-0.11535494614267577,"72":-0.10369943437774169,"73":0.13529341916066584,"74":-0.08275986678227755}},{"sx":5,"sy":5,"depth":3,"w":{"0":-0.14186427191021297,"1":-0.1650162262803009,"2":-0.15074448486678124,"3":-0.12246403975205246,"4":-0.17109649904235366,"5":-0.21597507736250027,"6":-0.08502577442605327,"7":0.08517313238376402,"8":-0.22797940220412646,"9":-0.246658030608738,"10":0.032581429419413804,"11":-0.001467795575338959,"12":-0.15885160205169216,"13":-0.09311776142707216,"14":-0.18916475462003876,"15":0.12987454426479894,"16":0.20838056583880904,"17":0.13689764594060927,"18":-0.008944282690819514,"19":-0.07932772691393888,"20":-0.14384536635260858,"21":-0.22528580801147474,"22":-0.1633581901205535,"23":-0.09026779337201014,"24":0.012263387432994056,"25":0.12227372308892281,"26":0.06527686986388095,"27":0.09491467332270624,"28":-0.14903365836793428,"29":0.01456589739138265,"30":-0.02707280460901174,"31":-0.15711022990043289,"32":-0.09767644401271798,"33":0.14309691341203354,"34":-0.027043942253772348,"35":0.040372493538537654,"36":-0.10140618801128828,"37":0.05306439615225778,"38":-0.06239868645636124,"39":-0.31177649124738477,"40":-0.3502322898157936,"41":-0.026222068205070573,"42":-0.010167006563877458,"43":-0.019196881306059378,"44":0.007006388305103549,"45":-0.10963503634181898,"46":-0.11429362929887095,"47":-0.11607644319702279,"48":-0.006607212866455879,"49":0.1244502105484914,"50":-0.13609498223339345,"51":0.12801654284800157,"52":-0.11767016842168852,"53":0.055006130873718834,"54":-0.01673327355598279,"55":-0.07433680802813081,"56":0.0706272488339294,"57":-0.09521563548153841,"58":-0.027015181600657887,"59":0.0637996289915897,"60":0.011016606181528533,"61":-0.1252624442084057,"62":-0.27471917871944,"63":-0.09966972748350791,"64":-0.11659633287359185,"65":-0.1505391387850629,"66":-0.1585155616126274,"67":0.019420726637535045,"68":-0.13441792223359808,"69":-0.1747425134762715,"70":-0.15150209746324309,"71":-0.14079227632587318,"72":-0.15355830124937278,"73":-0.08712699175545205,"74":-0.37455134807312523}},{"sx":5,"sy":5,"depth":3,"w":{"0":-0.030155209216521976,"1":0.2787515878927833,"2":-0.0034596890950174095,"3":0.11346050449831505,"4":0.25849370946042133,"5":-0.01152397858551079,"6":0.07069978797367271,"7":0.12949256346136778,"8":-0.192824640395083,"9":-0.07416321862716795,"10":-0.1488824047514973,"11":0.035686833833803104,"12":-0.1995725622347769,"13":-0.14715198773997612,"14":-0.14325941222996563,"15":-0.11655929673515471,"16":0.21467474747586365,"17":-0.13992451695377126,"18":0.07933933066452714,"19":0.2430723791483432,"20":-0.14094663504245364,"21":0.008795062072887898,"22":0.03158303373849795,"23":0.17296528638395994,"24":0.12110542122054395,"25":0.14498241665236872,"26":0.14499190115404645,"27":0.2521901739390267,"28":0.20032877340131375,"29":0.282204797077591,"30":0.05099110791139519,"31":-0.012307887369872754,"32":-0.08783370303992942,"33":0.10875970376844515,"34":-0.09570277915964773,"35":-0.13506380645876734,"36":-0.018080242000643135,"37":0.08152383622920707,"38":0.21348074719143567,"39":-0.031145085579094404,"40":-0.09532624344921863,"41":0.09236505035173743,"42":0.07650486029553188,"43":-0.07524852668511343,"44":0.01578553737339666,"45":0.04447833086807207,"46":-0.07704734226843811,"47":-0.18536946750929315,"48":-0.06731637516745625,"49":-0.1969486272152322,"50":-0.30176740435560634,"51":-0.5074348875493352,"52":-0.1134843927016941,"53":-0.42992519169314425,"54":-0.24420746586536202,"55":-0.1447920037681953,"56":-0.23493847607877044,"57":0.05798776251336207,"58":-0.2785110840929004,"59":-0.11108743332649995,"60":0.19863545506705838,"61":0.08931558559043132,"62":0.14314229095538536,"63":0.12956050850750742,"64":0.1530066002808701,"65":0.15940411660580533,"66":0.25115732104492333,"67":0.23386821141195568,"68":0.1525149615675569,"69":0.16188077201303722,"70":0.18306060688971157,"71":-0.013370387594370517,"72":-0.1261976318632121,"73":-0.07672406152612687,"74":-0.08335382207614198}},{"sx":5,"sy":5,"depth":3,"w":{"0":-0.011051364874529922,"1":-0.3012881264241274,"2":-0.25251839421351796,"3":-0.32406167584021683,"4":-0.34387757249263434,"5":-0.13061036485048036,"6":-0.18433632379940243,"7":-0.3053280280778772,"8":-0.2910828728940795,"9":-0.3142026708627267,"10":-0.06271283511188422,"11":-0.18977023258952797,"12":-0.06422321127139126,"13":0.025073768106211418,"14":0.041063195671380406,"15":0.3080416627841752,"16":-0.058974990161557696,"17":0.0040501054286694324,"18":0.032566331233454864,"19":-0.12632233243877972,"20":0.228774188726735,"21":-0.10348178610652986,"22":0.1258024256979602,"23":-0.12976475731063342,"24":-0.027981340116258545,"25":-0.19644936107783262,"26":0.012285142381955787,"27":-0.05055482281861804,"28":-0.05895237909643585,"29":0.03262037756140558,"30":0.18382311524957018,"31":-0.014804919186442106,"32":-0.010741493327961062,"33":0.09171687375755523,"34":-0.07304734825672252,"35":0.2832658091183114,"36":0.19067628208920656,"37":0.24967202360356627,"38":-0.10427331707795476,"39":0.30739545105404475,"40":-0.03580581029195008,"41":-0.06718200415797,"42":-0.010236556541424597,"43":-0.13645114191421592,"44":-0.08161322347173158,"45":0.14658117578342994,"46":-0.20201848594971702,"47":-0.0010460571481485722,"48":0.16582762167290474,"49":0.13832713377802183,"50":0.3030544949681093,"51":0.22809843656757328,"52":0.1480918598388672,"53":0.3447345965095207,"54":0.06358333075333865,"55":0.27163075910958606,"56":0.3945257903750501,"57":0.11746884123958462,"58":0.126979037583535,"59":0.10304247431195718,"60":-0.1568703273566064,"61":-0.06257085822859167,"62":-0.12776166793340493,"63":-0.09565747309444882,"64":-0.13236298967822566,"65":0.08696036106608623,"66":0.12064171341662619,"67":0.10728403564264778,"68":0.022320588995289013,"69":0.19438340087026,"70":0.09981287092625707,"71":0.17101735933237308,"72":0.04905965409841133,"73":0.03632766214332682,"74":0.01591945488145205}},{"sx":5,"sy":5,"depth":3,"w":{"0":-0.35194049209285844,"1":-0.19325786893808142,"2":-0.47132593353303237,"3":0.08234352841036857,"4":0.301167410832081,"5":0.19032418875661233,"6":-0.05727998965293587,"7":0.22260321408134737,"8":0.28146277170208717,"9":-0.011577556895780215,"10":-0.1442879061030726,"11":0.1986529422868286,"12":-0.027176057998931302,"13":-0.22374056965123462,"14":0.06318545598145564,"15":-0.09359206070126976,"16":0.10919520422675369,"17":-0.07566786998143506,"18":0.0863201578238066,"19":-0.1512123557357914,"20":0.014030499769021963,"21":-0.09155472701838908,"22":0.020371540657903767,"23":0.054871694942002606,"24":0.03690200433184159,"25":-0.11032684040979564,"26":0.03853981225784917,"27":-0.07518276037268638,"28":0.021706806320769736,"29":0.08780608059722768,"30":-0.20040510852633517,"31":0.023159777330661796,"32":-0.15349023223001346,"33":-0.31065476236384815,"34":-0.2642412831644404,"35":-0.24798702046149054,"36":0.19192594042612832,"37":0.2703945782613786,"38":0.2638713733797134,"39":0.05043012594505958,"40":-0.05048396253841927,"41":0.05002829136877726,"42":-0.2481344908692886,"43":-0.03704318353912743,"44":0.10231982127111976,"45":0.2653041070159502,"46":0.5529292662563001,"47":0.19051887900140063,"48":-0.4591173995619564,"49":-0.21883154105536487,"50":-0.2986721780239122,"51":-0.5949797538489109,"52":-0.49584282521847955,"53":-0.46709003393872917,"54":0.038188763538280046,"55":0.1089301091288157,"56":0.15592265767569588,"57":0.010844723094076206,"58":0.048642642714906974,"59":-0.027875652639211042,"60":0.03997942387163202,"61":0.34407196475661944,"62":0.13622071732633925,"63":0.6468422029391573,"64":0.5531220222875558,"65":0.5060664947340118,"66":-0.10367489821884356,"67":0.13708579206158786,"68":0.05644353395137303,"69":-0.13762336974003211,"70":-0.21238783685848794,"71":-0.15511959294666755,"72":-0.10670391611395105,"73":-0.024048488982983417,"74":-0.1897710385881794}},{"sx":5,"sy":5,"depth":3,"w":{"0":-0.25534525701977834,"1":-0.3071994951972806,"2":-0.12652335935388048,"3":-0.2131481588679886,"4":-0.10122420958569146,"5":-0.11892281106663938,"6":-0.046582186809044905,"7":0.032243823850209075,"8":-0.10102802099049997,"9":0.07056062874001803,"10":0.1664087995488271,"11":-0.16457672586257585,"12":0.043322960515171254,"13":0.06853595738848871,"14":0.05490534482163753,"15":-0.11911402145472957,"16":-0.3931804697114452,"17":-0.1626560328912561,"18":-0.25654298735253134,"19":-0.2121574760905901,"20":-0.17458394809928668,"21":0.07251312863734771,"22":0.22014629407841782,"23":0.021758471171257975,"24":-0.041659354913481196,"25":-0.16774205362147646,"26":-0.06642621889481745,"27":0.14470446967155087,"28":0.020632807578461188,"29":0.06761173315416193,"30":-0.19405516475119552,"31":-0.13168110188575752,"32":-0.02679466743536345,"33":-0.2139108103133328,"34":-0.2781708304577532,"35":-0.25660301076456465,"36":-0.02355980831081378,"37":0.07424670750339227,"38":-0.012790056974650358,"39":0.17670263285577714,"40":0.024864637572635073,"41":0.21644267467589845,"42":-0.201032504434108,"43":-0.06493064202337884,"44":-0.09541794083914946,"45":0.10854360975227445,"46":0.05467622924024207,"47":0.19489291887613655,"48":-0.17109486433915433,"49":-0.1566824450703917,"50":-0.10599081726185318,"51":-0.07566580904962154,"52":-0.1857554620390912,"53":0.11464713296814887,"54":0.06994711120391363,"55":0.1264514179465255,"56":0.10985258596654142,"57":-0.08358417954864349,"58":0.05158768266151935,"59":-0.1816889169085507,"60":-0.08810486300899252,"61":-0.11196788454410808,"62":0.031207063210404843,"63":0.2467434265594224,"64":-0.04633273637493017,"65":0.04613027752768786,"66":0.05955588107386312,"67":0.030560246565447664,"68":0.03309044426554717,"69":-0.00511624001067856,"70":-0.21154377388861728,"71":-0.23614413298443582,"72":-0.08827989997320661,"73":-0.1734958488707113,"74":-0.1068293911742976}},{"sx":5,"sy":5,"depth":3,"w":{"0":0.11825923710620792,"1":0.10531870318117477,"2":0.18225293237397994,"3":0.13373663083327278,"4":0.19110856815615,"5":0.1603352713382225,"6":0.04280177689779311,"7":-0.02326141530732441,"8":0.17099041693672962,"9":-0.019991013806022674,"10":-0.1339457162653031,"11":-0.1710604402151938,"12":0.019011029500227112,"13":0.010334512419623038,"14":0.01607251941497712,"15":0.038808751057249354,"16":-0.16003297067963218,"17":-0.03419814562941691,"18":-0.3428577292226164,"19":-0.20024739139545789,"20":-0.23984326510053416,"21":-0.07900904273593606,"22":-0.25134218909084116,"23":-0.1284113354874307,"24":-0.2818819011497771,"25":-0.2834817632171046,"26":-0.18078540323569367,"27":-0.020462238422426445,"28":0.07904385906135872,"29":0.04493070605092531,"30":-0.2242005449703867,"31":-0.04464186776329005,"32":-0.010184970156644829,"33":0.0761650986888011,"34":-0.2888038766996469,"35":-0.20440131658462093,"36":0.43461760098827334,"37":0.05286628023262337,"38":0.07275377065432055,"39":-0.1074926873548596,"40":0.2910217531636891,"41":0.2800892609420109,"42":0.26972254591635186,"43":-0.04219750401004679,"44":-0.06997272719022209,"45":0.23963972649929194,"46":0.20304872896432882,"47":0.266856642010734,"48":0.04003972609941928,"49":-0.005482244892913708,"50":0.24475511261029173,"51":0.07614361406642926,"52":0.14368866177971248,"53":0.2264427570861642,"54":-0.09354500054406467,"55":0.23043693361071763,"56":0.28258921799661296,"57":0.013855788851563423,"58":0.27131251600295053,"59":0.0799578488672469,"60":-0.17643112996587365,"61":-0.030352090550629946,"62":-0.04484903738692958,"63":-0.14570041712021686,"64":0.09722955556584807,"65":0.028128053228926857,"66":-0.1772989654684506,"67":-0.16202501689298282,"68":-0.43403822636235895,"69":-0.5208985993905934,"70":-0.4430490208864138,"71":-0.2970430774300424,"72":0.0007159540793934102,"73":-0.17862568026121983,"74":-0.020596022240153722}},{"sx":5,"sy":5,"depth":3,"w":{"0":0.12054105963889672,"1":-0.16028815829020096,"2":-0.0031863620983564483,"3":-0.02208372887226954,"4":-0.003273469009664595,"5":-0.07021078629473677,"6":-0.10967158996971443,"7":-0.057073449131144816,"8":-0.17073349011526295,"9":-0.04092663496344858,"10":0.09093301410254778,"11":0.13757867307023336,"12":-0.16659242865023305,"13":0.019830054202840515,"14":-0.12805987142677397,"15":0.18187004861066022,"16":0.05116235123467386,"17":0.1220496275907185,"18":-0.051873789494568105,"19":0.17145958113469845,"20":0.19374768360076458,"21":-0.01905408938310364,"22":0.16670421919862055,"23":0.0686613197192821,"24":0.06259904059756778,"25":0.0359361910241282,"26":0.08269945233591551,"27":0.060233280043926266,"28":0.1290535230294086,"29":0.13244749509572387,"30":0.19533575158854616,"31":0.33145359009547426,"32":-0.08147354914247261,"33":0.40277151330469874,"34":0.05936543768383531,"35":0.25754188913187726,"36":0.27794650275689153,"37":-0.04309853247202163,"38":-0.08812210956699544,"39":-0.2747239902196796,"40":-0.3422708619630763,"41":-0.06926608034859376,"42":0.0835006077322896,"43":0.07532892712500555,"44":0.10017126321308578,"45":0.2452766152154906,"46":0.05664819290140451,"47":0.17973314287010048,"48":0.10069455591422838,"49":0.05361515732699364,"50":0.12763277160798578,"51":0.014502818240664133,"52":0.08782312541521632,"53":-0.0769179292987568,"54":-0.3488783057453202,"55":-0.10499524024455899,"56":-0.4076956508469135,"57":-0.21545683900765525,"58":-0.16299874004151588,"59":-0.08330443801383954,"60":0.21044955331300175,"61":0.09516699839746809,"62":-0.015650169151941305,"63":-0.07265750088848985,"64":-0.058362690181151575,"65":-0.18789458803546755,"66":-0.23558857902807778,"67":-0.2440017848766208,"68":-0.11121007191281249,"69":-0.22190472933161876,"70":0.058473909836006664,"71":-0.26897516219445705,"72":0.1379155425863461,"73":-0.0628650124875326,"74":0.016296431466909525}},{"sx":5,"sy":5,"depth":3,"w":{"0":0.01416121454314249,"1":-0.02806073540328198,"2":-0.20794141545078523,"3":-0.06940103923214772,"4":0.09903816493561039,"5":-0.01605816727202627,"6":-0.029207236877611183,"7":-0.11923064539341584,"8":0.012997907010112596,"9":-0.19594525962489664,"10":-0.29151255679394456,"11":-0.3363131351273198,"12":-0.04943479649022851,"13":0.12502652637360714,"14":-0.022469218423038527,"15":-0.17020978219220304,"16":0.017988259454342754,"17":-0.08684194292656425,"18":0.13120429767203565,"19":0.0041178071608603895,"20":0.091621542533256,"21":0.09393416898314946,"22":-0.15484682233300753,"23":-0.044650266069799396,"24":-0.15418238197768058,"25":-0.21055557481027828,"26":-0.12456224143914281,"27":0.04154338820077491,"28":0.26696256848535066,"29":0.13920170301600332,"30":-0.13938105594137776,"31":-0.04244667948557139,"32":-0.06466554420621184,"33":0.19223730169143546,"34":0.2565138311002139,"35":0.12766562110150975,"36":-0.022670786819627753,"37":-0.1258487851275831,"38":0.01984240496135964,"39":-0.031147990569080054,"40":0.19538955119800547,"41":0.17696776077679227,"42":0.18906932820805908,"43":0.26249414240974484,"44":0.31133391903912266,"45":0.06881722399260463,"46":0.12197925821794837,"47":-0.15106471924468262,"48":0.08978365780886256,"49":0.07269472333317108,"50":-0.007581828075690723,"51":-0.3079649686340869,"52":-0.1883831845858258,"53":-0.0022436945758007067,"54":-0.2727189577664625,"55":-0.1965110249960991,"56":-0.18868023936847508,"57":-0.045916235718694895,"58":0.0423419783245188,"59":-0.010182885762717165,"60":-0.09871492605168798,"61":-0.18346544214259958,"62":0.082017739957146,"63":-0.022828107111520002,"64":0.07019877530081992,"65":-0.14230159211181242,"66":-0.16419639192395677,"67":0.0015889854824087401,"68":0.10810481667266131,"69":-0.0013181284427679386,"70":0.02165107870868574,"71":-0.055492079479694374,"72":0.040091162395802744,"73":-0.12572637633419456,"74":0.047112044092808864}},{"sx":5,"sy":5,"depth":3,"w":{"0":0.058664282581757154,"1":-0.0913777223229554,"2":0.19416899442082897,"3":-0.10619726566962984,"4":-0.0013157301801487217,"5":0.10262251761705053,"6":0.21830907618648035,"7":0.24548846452520287,"8":0.45588737387049566,"9":0.4030845397277005,"10":0.4889899908333089,"11":0.17754122199642675,"12":0.17662725409835447,"13":0.2470049226683157,"14":0.14187881502685487,"15":0.3066497096492694,"16":0.26959168673243533,"17":0.16721259495049257,"18":0.10883469780062739,"19":-0.20677142451553585,"20":-0.31136464013978044,"21":-0.2182388267417155,"22":-0.09307063200621861,"23":-0.1130191744756416,"24":0.01100305303946001,"25":-0.08092240245532743,"26":-0.050898476296802816,"27":-0.411015678158724,"28":-0.18170348426700483,"29":-0.3151531767352789,"30":0.07212967580392164,"31":-0.06120646819830338,"32":-0.01604395214293614,"33":0.14476171893937761,"34":0.06232094549902996,"35":-0.03310153439054539,"36":0.10390808708863908,"37":-0.15932133354895142,"38":-0.08163944615329874,"39":-0.11113231508795914,"40":-0.22815538170827135,"41":-0.140586496794537,"42":-0.2169229940510586,"43":0.16846432669165945,"44":-0.22533038457398405,"45":-0.20732473890630473,"46":-0.37973578471949077,"47":-0.07246172510966092,"48":-0.18373428489535024,"49":-0.19407265670157955,"50":0.09374892182465959,"51":-0.09720866517215565,"52":-0.1798962478328321,"53":0.09258838631104273,"54":0.177344272499874,"55":-0.21606924570697314,"56":0.043698282314050735,"57":0.15608233777404623,"58":0.2402147404710295,"59":0.19391204650034305,"60":-0.18819780336079422,"61":-0.10584289201137534,"62":-0.0375790441079266,"63":0.1958463106940087,"64":0.07023685705709522,"65":0.18124592649663912,"66":0.14575864325121168,"67":0.1307846327999572,"68":-0.1452997064577359,"69":-0.30585548211027924,"70":-0.14992761751884248,"71":-0.3217393005634634,"72":-0.00803259878094056,"73":0.14506826682397572,"74":0.09647759284535465}},{"sx":5,"sy":5,"depth":3,"w":{"0":-0.23031954551112063,"1":-0.10136579985289172,"2":0.019418736471796535,"3":0.007696604418312925,"4":-0.05801668538838105,"5":-0.15742150435161104,"6":-0.3065715489729281,"7":-0.38267145417416754,"8":-0.30770877125185286,"9":-0.26819845145491367,"10":0.06720075177865087,"11":-0.1119222009767346,"12":0.33742181176827374,"13":0.034412763392650245,"14":-0.09719369973992333,"15":0.21243587801078276,"16":-0.009649167162316216,"17":0.13992611509736433,"18":0.08017158009241947,"19":0.0685553302156035,"20":-0.14977140029157737,"21":-0.12349400760234486,"22":0.1358700347922727,"23":0.045104289059843955,"24":-0.2188926659872958,"25":-0.08748790436937237,"26":-0.34323452370582014,"27":-0.020512016786705518,"28":0.05953634398269476,"29":0.1379439712215726,"30":-0.23467543717817144,"31":-0.06706525420179542,"32":-0.18384785673883935,"33":-0.08314309501513203,"34":-0.10934801035375262,"35":-0.06809550735114815,"36":0.04966636048750017,"37":-0.05771186372449218,"38":0.022249698609588697,"39":-0.0746645851998844,"40":-0.19076067824887089,"41":-0.32286270447196225,"42":-0.2805498799128182,"43":-0.18339087104858626,"44":-0.1752342146257564,"45":0.19238800256256808,"46":-0.21517146042013002,"47":-0.024711459895412975,"48":-0.03962945481279247,"49":-0.008641024253196941,"50":0.09310375216943789,"51":-0.1945057018447011,"52":0.03611899272995599,"53":-0.06676984863748928,"54":-0.07730513211810108,"55":-0.18290924876923262,"56":-0.11822029090180514,"57":-0.28415334783231466,"58":-0.14863813038603674,"59":-0.16029568833695657,"60":-0.14809892969789903,"61":-0.017826557582821142,"62":0.05099376279934584,"63":-0.06963731685995425,"64":0.013695967937129041,"65":0.0038948916415329346,"66":0.080979045170366,"67":0.02744188648314709,"68":0.15944061569052856,"69":0.03469855313090419,"70":0.21916392074179747,"71":0.03056794560666121,"72":-0.07380614365742726,"73":0.3532567093547845,"74":0.09025820282942648}},{"sx":5,"sy":5,"depth":3,"w":{"0":0.15268054319069066,"1":0.03352849885253797,"2":-0.011286006357894172,"3":0.09457203171577812,"4":0.05023423346395429,"5":-0.11311385330512969,"6":0.19311462363428697,"7":0.05168712599403964,"8":0.1577270160996623,"9":0.213154165521222,"10":0.12739975808264586,"11":-0.1246354847570589,"12":0.022360400861186853,"13":-0.1688461632830412,"14":-0.18976210942585284,"15":0.04242944773159404,"16":0.27876221166382237,"17":-0.04745698744996809,"18":0.17502211426957642,"19":0.0848082178034691,"20":-0.06014034023579281,"21":0.21260709874177658,"22":0.09456872166364898,"23":0.18650644208008993,"24":-0.09594031840918738,"25":0.014289482114980054,"26":-0.0014997902822493933,"27":-0.09387238987023787,"28":-0.21249567028334693,"29":0.01757723936855902,"30":0.12141394570487932,"31":0.023425628897005307,"32":0.21725222873544903,"33":0.1300040602110179,"34":0.06196294593779204,"35":0.18742025723674768,"36":0.20570975702890168,"37":0.1403160301563983,"38":0.020086105021389477,"39":0.1662463562756466,"40":0.07164790654652392,"41":0.2098428541455149,"42":-0.2951827738406643,"43":-0.2333151553367626,"44":-0.4535162080585792,"45":-0.0236484060231918,"46":-0.08263768742449693,"47":-0.17354162645421134,"48":-0.059213786928122576,"49":0.011396689639397991,"50":-0.19229880755108444,"51":0.09886989354425182,"52":-0.002704611837146015,"53":0.1874998999711488,"54":0.10468746899173641,"55":-0.14468261515208083,"56":0.03845409180009943,"57":-0.29381808793210457,"58":-0.1585866903780507,"59":-0.33674090713457816,"60":-0.28307648590095835,"61":0.010152835467710817,"62":-0.35839335504156444,"63":0.03823316364738707,"64":-0.1543747903121361,"65":-0.2691996474051517,"66":0.17903520107040144,"67":0.12220427740443862,"68":0.08334782021261081,"69":0.04705363761025522,"70":0.31639106050363713,"71":0.04656397503396066,"72":-0.0746758611104092,"73":-0.091470976514936,"74":-0.07874637864117288}}],"biases":{"sx":1,"sy":1,"depth":16,"w":{"0":0.16973728727787218,"1":0.09657944219411223,"2":0.14219942531228305,"3":-0.2553806480727679,"4":-0.13708138991020177,"5":-0.16127130317223298,"6":0.018740995880678374,"7":0.0454624329820438,"8":-0.01371227141996227,"9":-0.0932383948559558,"10":-0.052340499562003,"11":-0.05427431881431881,"12":-0.4219476270935008,"13":-0.014488289581688461,"14":-0.2828253383423886,"15":0.041415471064205345}}},{"out_depth":16,"out_sx":32,"out_sy":32,"layer_type":"relu"},{"sx":2,"sy":2,"stride":2,"in_depth":16,"out_depth":16,"out_sx":16,"out_sy":16,"layer_type":"pool","pad":0},{"sx":5,"sy":5,"stride":1,"in_depth":16,"out_depth":20,"out_sx":16,"out_sy":16,"layer_type":"conv","l1_decay_mul":0,"l2_decay_mul":1,"pad":2,"filters":[{"sx":5,"sy":5,"depth":16,"w":{"0":-0.3284684839531292,"1":-0.015782988823978165,"2":0.2736909356946824,"3":-0.002044573720133477,"4":-0.08157982724142665,"5":-0.026303797817825193,"6":-0.11080924224763564,"7":-0.05876265010359398,"8":0.09576539804601297,"9":-0.12429741773245552,"10":-0.11870083892709335,"11":-0.25583108103886737,"12":0.18173089382252744,"13":-0.4040520242387829,"14":-0.2732404547009369,"15":-0.018625135443592036,"16":-0.39856776300158014,"17":-0.262990008461475,"18":-0.2772038037144796,"19":-0.1401207593278401,"20":-0.2883803331834318,"21":-0.04683017461045405,"22":-0.29782719230857385,"23":0.02075881048695506,"24":-0.2514723125453891,"25":-0.03740991689560119,"26":0.05382634723819589,"27":-0.18213432080036834,"28":-0.27547792625723055,"29":-0.4362992205173052,"30":-0.22037906131636015,"31":-0.06761654959817973,"32":-0.45518523026864643,"33":0.1264551011226406,"34":-0.022402303591880227,"35":0.04917621005340695,"36":-0.1524322512267359,"37":0.026729721563733527,"38":-0.3388219349657065,"39":0.07508983768112626,"40":-0.22079100256383144,"41":-0.18742960226488306,"42":-0.10343462051518963,"43":0.0428195234055202,"44":-0.22895172957789967,"45":-0.4439578753130683,"46":0.1044217648068069,"47":-0.13617506076387106,"48":-0.15581516252824165,"49":0.14014044942973863,"50":-0.02666427385089207,"51":0.1406423451620638,"52":-0.3374832238391541,"53":0.022660695964635828,"54":0.02222220618687266,"55":0.0002559833574057779,"56":-0.006490233321845552,"57":0.009070160816557146,"58":0.05698323839029424,"59":0.19954762481247318,"60":-0.16402410114876806,"61":-0.18594802238009078,"62":-0.008047122081361517,"63":-0.08220786184203595,"64":-0.06901330794944112,"65":0.11664277082164985,"66":-0.0380886467868716,"67":-0.10759177741049768,"68":-0.028470082830829642,"69":0.13983911847605832,"70":0.2801689686203809,"71":-0.07659598626376984,"72":0.05834958254896784,"73":0.13049227433847743,"74":0.26550927238277255,"75":0.046452577106652036,"76":-0.047559883245891645,"77":-0.24315598306862016,"78":0.05603988592777943,"79":-0.09788001124589642,"80":-0.41988480094320674,"81":0.15505890685624624,"82":0.09871880991442805,"83":-0.04897052755156398,"84":-0.19140962198573785,"85":-0.099401558257671,"86":-0.2523539598269386,"87":-0.13751917456537682,"88":0.3935018329106349,"89":-0.09248098430903902,"90":-0.08057348776265941,"91":-0.3617135527686125,"92":-0.1196341390084481,"93":-0.17570041843561512,"94":-0.16832751895634385,"95":-0.2932380707051148,"96":-0.23116489711388588,"97":-0.4974325976861903,"98":-0.25786911210605773,"99":-0.004753337512877072,"100":-0.11822487359696267,"101":-0.19225186132852598,"102":-0.34150366721247527,"103":-0.3958428512125348,"104":-0.0358103302267114,"105":-0.04861681504512538,"106":-0.08313265893556487,"107":-0.27041522741804896,"108":-0.2829082692927464,"109":-0.3237012376843186,"110":-0.0685138445442062,"111":-0.2788291058124041,"112":-0.57802432416815,"113":-0.12917283812510577,"114":0.16559570976764756,"115":-0.009871111716721219,"116":-0.011792456862305607,"117":-0.21099203372168823,"118":-0.48308992519960803,"119":-0.10577376225786472,"120":-0.3319830867695334,"121":0.024888331532252173,"122":-0.23378808534914158,"123":-0.0693165278907262,"124":-0.1909069814237406,"125":-0.32579975531659905,"126":-0.23407611154389696,"127":-0.35258822552910596,"128":-0.3911680352051165,"129":0.011363176417836506,"130":-0.24078923544565492,"131":0.03745437782104086,"132":-0.4011962279323136,"133":-0.11751511735474734,"134":-0.40665190637042864,"135":0.06072391605764585,"136":-0.31294748710447545,"137":-0.23431779252074578,"138":-0.13372751232434904,"139":0.20633580118564301,"140":-0.3138479721316842,"141":-0.08497456897821021,"142":0.03597080267514289,"143":0.03799564531146664,"144":-0.29422534387746757,"145":0.05058062919472319,"146":-0.03480365976143265,"147":0.02249937466825773,"148":-0.14302385936957768,"149":0.00874619470296572,"150":0.24429243792672212,"151":0.11767183818415507,"152":0.040509228297863804,"153":-0.07195569131745347,"154":0.3593702955101375,"155":0.10374664225764746,"156":-0.2806475556329827,"157":0.12092978871683811,"158":0.010836106298527414,"159":-0.08228205945814825,"160":-0.33048808672714247,"161":0.4026017078509721,"162":-0.3131773499542902,"163":-0.03114093049764128,"164":-0.4038774517255371,"165":0.08259047467883408,"166":-0.0735073118484948,"167":0.011874137825005574,"168":0.08872766105915648,"169":-0.2689007975900871,"170":-0.24999814275035614,"171":0.10825586489049373,"172":-0.3228782696103541,"173":0.03813571891686776,"174":0.09247746551607776,"175":-0.3141913183930811,"176":-0.06686318690458658,"177":-0.09080152616045802,"178":-0.03619024842376553,"179":-0.04044285416970465,"180":-0.17424066273677785,"181":0.05504826602459313,"182":-0.20029764981065237,"183":-0.283097963214921,"184":-0.10093664004892669,"185":-0.10021285698501385,"186":-0.07065516996112213,"187":-0.019331015170034067,"188":-0.15465804137429973,"189":-0.14721849255813635,"190":-0.059874504576211816,"191":-0.33837813756867674,"192":-0.38013041207442033,"193":0.023675935911968364,"194":0.17082517199855346,"195":0.009077432979225671,"196":0.33255556994709107,"197":-0.003464522790220992,"198":-0.024302745873784184,"199":-0.40709640488272186,"200":-0.09174353661766436,"201":0.2780667155088706,"202":-0.04885076967861194,"203":0.007045395739237276,"204":-0.18133252676929196,"205":-0.027784611110986773,"206":-0.017330391801384033,"207":0.004060641175682309,"208":0.011226209332944373,"209":0.01675678692497997,"210":-0.07851402091986187,"211":0.08850753658130879,"212":-0.1788279204030642,"213":0.003353215099239052,"214":0.16924284057653471,"215":-0.3282879707403293,"216":-0.0282354917757794,"217":-0.12372558928021528,"218":-0.19105830782157154,"219":0.12018300634575142,"220":-0.09884803770702631,"221":0.16213507477695663,"222":0.015741627650445147,"223":0.16588129352761538,"224":-0.000617090744030315,"225":0.08210632733111448,"226":-0.0794571409101111,"227":0.03385240691256196,"228":-0.030388651508060454,"229":0.2003063793859873,"230":0.37158638699855134,"231":-0.15727641032481174,"232":0.037779623404185836,"233":-0.057655161302651324,"234":-0.12771392775357354,"235":-0.14293047958476465,"236":0.09893059318733163,"237":0.38691283196538123,"238":-0.061435347395128764,"239":-0.08157239745873902,"240":0.039653954905232096,"241":0.2193044965900118,"242":-0.267159233308769,"243":-0.08348202578625244,"244":-0.5680206742714643,"245":-0.04405791978972538,"246":0.0015401694220014343,"247":-0.016252530029102336,"248":0.0854209018482768,"249":-0.15981709573958666,"250":-0.31697521540702916,"251":0.4529711720063279,"252":0.030063247919937166,"253":0.03201275847308384,"254":-0.12928564515899701,"255":-0.03308169526585159,"256":0.2744569789915019,"257":-0.24052716247258266,"258":0.032637901924368655,"259":0.13615802918704684,"260":-0.025912566114978525,"261":0.11327654754098448,"262":0.11017705401346375,"263":-0.03487994740011538,"264":-0.05521322741600357,"265":-0.10925038916576295,"266":-0.37191922658297905,"267":-0.2052244418747388,"268":0.0041141834248584926,"269":0.2104970458157047,"270":-0.008447281843500458,"271":0.04281799856084684,"272":0.11948477673474495,"273":-0.12621204809655828,"274":-0.032670875226022314,"275":0.08583953149534954,"276":0.19758153332467962,"277":0.08644606558084961,"278":0.0037743464656230462,"279":0.06602122192555807,"280":0.1178784661648311,"281":0.11139169050285026,"282":-0.28912083653464343,"283":-0.07696224159954898,"284":0.23333212394107,"285":0.25230298911458915,"286":0.0992842922103598,"287":0.19271104280381773,"288":0.11038720311890422,"289":0.03177967980793337,"290":-0.06606729188271782,"291":0.03018894613360333,"292":0.09338433716311176,"293":0.11976599277543148,"294":0.041471875089125684,"295":0.16550174251862654,"296":0.005043022230813502,"297":0.156548321543964,"298":-0.1791344460932732,"299":-0.13462017571951293,"300":-0.0948830816208935,"301":0.15141929663813986,"302":0.11174921543069931,"303":-0.018665076617987972,"304":0.03543479355265113,"305":0.027662675947729476,"306":-0.12438296330221676,"307":0.13343759637560695,"308":0.22574031281351167,"309":0.12772935402723773,"310":0.0477277325138989,"311":0.3412987834158963,"312":0.05754768366529506,"313":0.19817497780835897,"314":0.15366711017456608,"315":-0.44460339009979993,"316":-0.1701644864619123,"317":0.4220159886646243,"318":0.08469312092297793,"319":-0.025669975025122957,"320":0.4894568810252949,"321":-0.014286806602049841,"322":-0.19792125850591238,"323":-0.0208283504897483,"324":-0.3772908144517267,"325":0.12381502091878556,"326":0.10966593205921868,"327":-0.21221664910168855,"328":0.37199743965420434,"329":-0.28841357646593213,"330":-0.22722919141385656,"331":0.31430397047492564,"332":-0.13175009743781793,"333":0.09761404964446405,"334":-0.06292585288335216,"335":0.061769982559026014,"336":0.3237381144911517,"337":-0.37875461075950473,"338":0.1475742293698468,"339":0.1611524704973817,"340":-0.00611028107699429,"341":0.2872797686971518,"342":0.15002755815930305,"343":-0.004516905332280585,"344":-0.020837858188793877,"345":-0.15662185256886602,"346":0.023174579072537636,"347":-0.32931041785410137,"348":0.037373615934792076,"349":-0.006578230872847577,"350":-0.04353814488114954,"351":0.003855198070157627,"352":0.30672099433916356,"353":0.08422899798651756,"354":0.1629002326025511,"355":-0.08345052955098868,"356":0.043863274523821,"357":0.3492219573167641,"358":0.3308465144747129,"359":0.11300604865107006,"360":0.13175138666719813,"361":0.19818533365388905,"362":0.22238526562785285,"363":0.192352336308833,"364":0.5781114391359977,"365":0.10711604147704047,"366":0.06599094975062278,"367":0.20628399585047855,"368":0.030392053450413757,"369":0.17005876272933496,"370":0.05935306327671787,"371":0.04626112600405045,"372":0.04988956963730681,"373":0.4229723943128794,"374":0.11169359532154007,"375":0.1741098536867051,"376":0.07208698801246187,"377":0.1157547302689232,"378":0.25205903114140804,"379":-0.013644538453393345,"380":0.16498034313017898,"381":0.10936631942736266,"382":-0.016064194362254047,"383":0.20430840450958956,"384":-0.0066595401117097094,"385":0.04747062792964175,"386":0.19626974388922372,"387":-0.04622824154356442,"388":0.03639338975779253,"389":0.30564167608039017,"390":0.16860419032213564,"391":-0.0028562233123920495,"392":0.012325257833961302,"393":0.11435195741615957,"394":0.3511515486517642,"395":-0.005853382936917077,"396":0.15845001248992613,"397":-0.17784787846037012,"398":-0.22499618346858385,"399":0.012293389444141418}},{"sx":5,"sy":5,"depth":16,"w":{"0":0.19597479222807215,"1":-0.07230773585670153,"2":-0.022669561355986113,"3":-0.07354487636159432,"4":-0.31891556749388106,"5":-0.08453708612460108,"6":0.007517583190386666,"7":-0.048470361905757604,"8":-0.1134635577690199,"9":-0.0559152372451203,"10":0.08777627448409667,"11":0.21554684223175752,"12":-0.13808286305798698,"13":-0.10571087467866777,"14":-0.0678125728852367,"15":-0.012405219344238137,"16":0.20379837362306963,"17":-0.24134209188679043,"18":0.20374693779268696,"19":0.04777998503121415,"20":-0.08696175601768466,"21":-0.1536552302225971,"22":-0.0723638502942002,"23":0.04428152925007187,"24":-0.18419729166891077,"25":-0.025611331439616674,"26":-0.2936635300040822,"27":-0.42246109790373815,"28":0.01872690811725823,"29":-0.16330128298576727,"30":-0.28336193935812437,"31":-0.44900003844126624,"32":-0.3199010645332879,"33":-0.39374516977040136,"34":0.07101026952551098,"35":-0.10715099482506216,"36":-0.047688305655460665,"37":-0.18352891323904208,"38":-0.3879223088159521,"39":-0.024133192819382105,"40":-0.2608407953598515,"41":-0.37516090942045327,"42":-0.2027017927760611,"43":-0.10402368865186377,"44":-0.019740544554253205,"45":-0.1404869356105716,"46":-0.33179491713923875,"47":0.07725804652393103,"48":-0.3669731739005876,"49":-0.157390825892406,"50":-0.6459318805236937,"51":-0.4000029388815471,"52":-0.12494776215596719,"53":-0.2284146259351731,"54":-0.17994255351556143,"55":0.03421605092973659,"56":-0.26892054895580003,"57":-0.31341603031332926,"58":-0.14608031169307098,"59":0.14340498230347154,"60":-0.11918918493978266,"61":0.05116195204104293,"62":-0.10801792800299868,"63":0.028895785869810668,"64":-0.03039801482540228,"65":0.22254734608240975,"66":-0.2642256600956142,"67":-0.16969698969089259,"68":-0.06952606941022269,"69":-0.28966185758361007,"70":0.13319695197830528,"71":0.16669681994713267,"72":-0.036972761180932644,"73":-0.21364393948607488,"74":-0.11524550862016189,"75":0.0007733887219219374,"76":-0.06898632232681125,"77":0.3711161614167996,"78":0.015809217132654547,"79":-0.27261670675075456,"80":0.13814470513250254,"81":0.08921367933965424,"82":0.09367733682008875,"83":-0.1289305835088755,"84":-0.035415622392123244,"85":-0.17412973970451778,"86":0.010712322974095807,"87":-0.10249438034171184,"88":-0.07588322767814407,"89":0.007105119047253791,"90":-0.05073057943776895,"91":0.2666095336630752,"92":0.05891242059769446,"93":0.02803103465025467,"94":-0.16602848716694307,"95":0.02521588903649906,"96":0.2512009841425631,"97":0.3731807853146198,"98":0.25120261632458335,"99":0.12810775231819466,"100":-0.23669242010681937,"101":-0.30242999119309844,"102":-0.007938481345219555,"103":-0.09462510731299653,"104":0.047082331064960715,"105":0.15699135528220926,"106":-0.04484913435591905,"107":-0.25619124415257616,"108":0.04447652352078395,"109":-0.06106021790282587,"110":0.018531650576027608,"111":-0.40431212977721354,"112":-0.30512658510629126,"113":-0.26807755508350295,"114":0.18893963767421532,"115":-0.2846772993755675,"116":-0.03495688245498115,"117":-0.11302006745928805,"118":-0.20567772924789224,"119":-0.13917362902938715,"120":0.30041699056110505,"121":-0.14556736538380274,"122":-0.06472418092546126,"123":0.0427816978353371,"124":-0.18791306345605963,"125":-0.4062585156594011,"126":-0.4218184321780984,"127":-0.023481549394179475,"128":-0.22986109644516184,"129":-0.5853583421097378,"130":-0.12689518141296063,"131":-0.23221134641008725,"132":-0.11017490905941546,"133":-0.15763362398857772,"134":-0.3928266314952703,"135":0.04546855111322501,"136":-0.6792873300492218,"137":-0.1935868025961707,"138":0.06183371943632125,"139":-0.024232092579348885,"140":-0.1274846182108497,"141":-0.32130607922974946,"142":-0.32446460827888324,"143":-0.1029724219379043,"144":-0.398788586852399,"145":-0.11680858479933698,"146":-0.1875864884138481,"147":-0.028282111177448964,"148":-0.2092136250952021,"149":-0.2694639864297401,"150":-0.24556308502787982,"151":0.1879794681559424,"152":-0.3318463634778404,"153":-0.16700772472237782,"154":0.16618275536289495,"155":-0.12357379725705278,"156":-0.27608115448782294,"157":-0.2593268599030848,"158":0.02350736536529652,"159":-0.15185626100860586,"160":0.03190674180402743,"161":-0.09993795416640136,"162":-0.06729058412652428,"163":0.004384010641099884,"164":0.11590573719391428,"165":-0.04545472615534957,"166":-0.27581031796448724,"167":-0.25851147347611136,"168":0.2065206444607741,"169":0.12651303684047638,"170":-0.1564144021757618,"171":-0.1264217519008356,"172":0.06689139589479073,"173":-0.2045988278249635,"174":0.03762716838129461,"175":-0.10020451270665495,"176":-0.025376395227381863,"177":0.5133332748758854,"178":0.15116500300013733,"179":0.09662509304430004,"180":-0.22254994047986051,"181":-0.02635198653833482,"182":0.10574745626217585,"183":-0.26984521467867006,"184":0.02617564752249349,"185":0.07132312029191161,"186":-0.39951149184097523,"187":-0.09376885745484487,"188":0.02739345089721855,"189":0.06495472942299968,"190":0.020795277533796598,"191":-0.18702958675283587,"192":-0.037259896428566905,"193":0.259102458096142,"194":0.1182845298047973,"195":-0.07884771575716085,"196":0.03804701343175605,"197":-0.06333076594920704,"198":0.37867168892298514,"199":-0.432553801710711,"200":0.40463141171530753,"201":-0.029007594075591833,"202":-0.3588306596241635,"203":0.0005092568869719062,"204":0.17631393635058334,"205":0.2566619481170135,"206":-0.004984775532122907,"207":-0.34397438234393035,"208":-0.15632430235625808,"209":-0.4736554854243497,"210":0.13951143415911618,"211":0.032058564943955314,"212":0.2692686491916221,"213":-0.02252428508782929,"214":0.1644940080741762,"215":-0.3675994145692389,"216":-0.12084092744575088,"217":-0.021172611713186965,"218":-0.10165148887948498,"219":-0.31201594763349794,"220":0.016004072643974222,"221":-0.005277646841474391,"222":-0.136260509420344,"223":0.06179778469879786,"224":-0.5038558677753507,"225":-0.21928796917900184,"226":-0.17658154547234015,"227":0.002918946521267228,"228":0.03042944187946212,"229":-0.09941237063511729,"230":-0.08678596528054405,"231":-0.013251758006953917,"232":-0.4177965039653469,"233":-0.2747854307906043,"234":-0.01069977030214411,"235":-0.14724970329771514,"236":-0.28952507455979887,"237":-0.12155786178514003,"238":-0.12736461017600706,"239":-0.24864680855200066,"240":-0.017200283691031142,"241":0.4972874445050697,"242":-0.11036026633900713,"243":-0.15498851684926274,"244":-0.30940463638786236,"245":-0.04460220535021862,"246":-0.33880829325163886,"247":-0.18975675360889083,"248":0.17913689061649452,"249":-0.06577847843497349,"250":-0.1325432898678284,"251":-0.0423019015985477,"252":-0.05287610268482621,"253":-0.15939936376750416,"254":-0.2131396305413167,"255":-0.11929615021599049,"256":0.06571421863292327,"257":0.15007540315060366,"258":0.0744953719565309,"259":-0.04694626758100762,"260":-0.021842773745189958,"261":-0.05062606349032622,"262":-0.2258511999999177,"263":-0.00733697034053385,"264":0.13695357238320344,"265":0.05174880007552184,"266":0.1864289836179528,"267":-0.1498880487747972,"268":0.0552202827436034,"269":-0.006394969978089845,"270":0.11126598485884885,"271":0.18574251064244748,"272":0.2876308544640253,"273":0.26786814992733077,"274":0.021792804063126447,"275":0.1226989222362013,"276":-0.13003001013924537,"277":0.087392249821221,"278":0.049535591740085594,"279":0.0942712320342002,"280":0.15063542522998208,"281":0.060169802025741084,"282":0.06848694081341575,"283":-0.03828558505646037,"284":0.12082539190807387,"285":0.37814308723758433,"286":0.09445299465344803,"287":-0.17592705319086807,"288":0.11485685968704473,"289":0.0653308068309158,"290":0.15147984107971954,"291":0.08703845251340053,"292":0.18810231026098154,"293":0.2751947397170546,"294":0.1860236562457906,"295":-0.2743388376485415,"296":0.06480675961863606,"297":0.2231980209938225,"298":0.05343801584823484,"299":0.010144860852629957,"300":0.13074271560204903,"301":0.03103409237443268,"302":0.0033876713883152156,"303":-0.2532662723221294,"304":-0.25157522572198054,"305":-0.23895162055247146,"306":-0.27852963716634915,"307":-0.04843103659775979,"308":-0.07803137025398259,"309":0.06123687092743645,"310":0.17676994575745147,"311":-0.452937415347206,"312":-0.15345584165379822,"313":-0.0022437814142389156,"314":0.008600649421210959,"315":-0.03979013424512715,"316":0.01333594848285271,"317":0.15842374691937805,"318":-0.30808031396954333,"319":-0.13714810444183215,"320":-0.003301427932515471,"321":0.019785814963861656,"322":0.08977649182065434,"323":-0.15638672961894992,"324":-0.12480808913254277,"325":0.11397315147935462,"326":-0.14890744189140295,"327":-0.3433430870746231,"328":-0.03062644269148373,"329":0.10086119094669523,"330":0.04245134851508717,"331":0.0790994097065197,"332":0.08884492061126704,"333":-0.4583803491909148,"334":-0.21852460899947462,"335":-0.03928626813178667,"336":-0.10775052125781298,"337":0.25107457490452273,"338":0.0038140191389835205,"339":-0.005961214758138249,"340":-0.006955409316877219,"341":0.15059256557841644,"342":-0.04115475219539068,"343":-0.2022441063521859,"344":0.08054654367188542,"345":0.10464886497625922,"346":-0.17883702687637176,"347":0.23183259498144235,"348":0.09457669040175913,"349":-0.08452850326355134,"350":-0.02616841072498507,"351":0.1931808753212026,"352":0.28924475262202093,"353":0.21694293571487552,"354":0.3392908442015346,"355":0.21010836673623967,"356":-0.2774010277523941,"357":0.10487043765366581,"358":0.22147892671455052,"359":0.08378335656574294,"360":0.1523867839589576,"361":0.0043253210128354445,"362":-0.11277055116897473,"363":-0.0709909609197182,"364":0.10311969930771984,"365":0.06489961943623322,"366":-0.10401685907395092,"367":-0.017191873711235997,"368":-0.03005224712507451,"369":-0.18110378291768298,"370":0.4340432165012686,"371":0.26807918347288606,"372":0.06579176948651436,"373":0.017475798401028565,"374":-0.07802713792541878,"375":0.07130198840119575,"376":-0.1468921643813297,"377":-0.04382166567409089,"378":-0.20623517403592684,"379":0.02911597624116055,"380":0.07778028720532032,"381":0.20397082386045248,"382":0.030578312764585527,"383":0.19562716359425264,"384":-0.2676857429707676,"385":-0.21253534836221397,"386":0.06142147165676995,"387":-0.11996194715740502,"388":0.033602036166719626,"389":-0.09602831346543557,"390":-0.18018579817388197,"391":-0.11246662442354265,"392":-0.4179767949125116,"393":0.08039197129152338,"394":-0.12229626927205063,"395":0.2250886039573465,"396":-0.10530564423806972,"397":0.2412228418598866,"398":-0.11339536565979061,"399":0.030128796979110247}},{"sx":5,"sy":5,"depth":16,"w":{"0":0.11362417428358332,"1":0.014034524096123914,"2":-0.003977197400069638,"3":-0.22205229896327078,"4":-0.24521827667543872,"5":-0.1312800978070742,"6":-0.032612977062217066,"7":0.36506611644016873,"8":0.2557679224283498,"9":0.1552555304487103,"10":0.10060102077291132,"11":-0.17507474833230594,"12":-0.0012559893856947987,"13":0.017680777723628336,"14":-0.05613498322618412,"15":-0.22572394410609553,"16":0.04473350315162136,"17":0.13694348104108423,"18":-0.15297977961879133,"19":-0.18448531786897038,"20":-0.20756192912798102,"21":-0.11425200391164493,"22":-0.0035316975848093883,"23":0.1998524451404761,"24":-0.08412745161045258,"25":0.10956087128759448,"26":-0.07901029326114202,"27":-0.08862108438571958,"28":-0.010349674168031215,"29":-0.07663420934067382,"30":0.008492429014132772,"31":0.06168504631773902,"32":-0.2442129946278077,"33":0.0192741901489255,"34":-0.03939324929996385,"35":-0.0036342308890574314,"36":0.37058288354197233,"37":0.12721686893660888,"38":-0.2525040108421317,"39":0.10707214824706333,"40":-0.10899490899505948,"41":0.005593838390929248,"42":-0.15393554977536933,"43":-0.062108103699751754,"44":0.04100251769946237,"45":-0.17014606997046944,"46":-0.040155645073185274,"47":0.05042712387815106,"48":0.11934680724421552,"49":0.008640612285430725,"50":-0.3510119557824793,"51":-0.27634874828894723,"52":-0.2643635697852406,"53":0.12494169788607594,"54":-0.027520015964556575,"55":-0.26524710731240286,"56":0.11182743315206954,"57":0.015461594325072901,"58":-0.23089314364414243,"59":0.03616641454191224,"60":0.014874271382283304,"61":0.06057582203446065,"62":0.03713351749332016,"63":-0.2642996395820126,"64":0.4153952815389335,"65":-0.29248173374774283,"66":0.07126416791412571,"67":-0.15319250552976144,"68":-0.013237013798861027,"69":-0.01843185474820539,"70":0.1121472167547893,"71":0.09379650787586599,"72":-0.039194605008199816,"73":-0.07503845506623726,"74":-0.10265882179588427,"75":-0.18951598058625832,"76":0.3059717356841681,"77":0.10573100039567179,"78":-0.21074894377298364,"79":-0.0885011710825376,"80":-0.17977770072155672,"81":0.09881199410989767,"82":-0.01938863442359781,"83":-0.02329937733590211,"84":-0.09436361041990848,"85":-0.020728576862726927,"86":-0.1661564441994601,"87":0.07427104354115174,"88":-0.044347237615844456,"89":-0.03883729051560967,"90":-0.11005590744809757,"91":-0.25938108675277066,"92":-0.1740302753078705,"93":-0.25488567486635777,"94":-0.35794899569041144,"95":-0.11575807224906479,"96":-0.26348142024574817,"97":-0.014785833498463814,"98":-0.22895335733643524,"99":-0.03615970077946701,"100":-0.2031002042789192,"101":-0.05671802595492966,"102":-0.1633853548954114,"103":-0.08849065336941025,"104":-0.19800125159856322,"105":-0.12196995269505566,"106":-0.03138156348312332,"107":-0.09077218194902151,"108":-0.02315882202338999,"109":-0.3994303155750171,"110":-0.08054233664132102,"111":0.12400335988740528,"112":-0.2235857832080665,"113":-0.04559365484344982,"114":0.1195608875881192,"115":-0.09521509186466406,"116":0.3935623311072041,"117":0.10514621146274464,"118":-0.2676653601416433,"119":0.02920373771438696,"120":-0.10716411979980067,"121":-0.08712541660877667,"122":-0.2808501944687699,"123":0.029384115708279385,"124":0.07448252398980659,"125":-0.16434785311059663,"126":-0.049478768801517,"127":0.033737547756113574,"128":0.025468192842838643,"129":-0.19518004196707145,"130":-0.20367495343143174,"131":-0.2787947661771099,"132":-0.2802478965912168,"133":0.13477316518715882,"134":-0.2696531359266625,"135":-0.3503893303793981,"136":-0.1285666301777152,"137":0.21132732964204007,"138":-0.032414615605893066,"139":0.028357689862935017,"140":-0.15371856809761886,"141":0.06745712024828945,"142":-0.14448641650355717,"143":-0.17135350752113002,"144":0.25807651567822254,"145":-0.21203816108878196,"146":0.34869212829271545,"147":-0.030698596962403225,"148":-0.16211786117551405,"149":-0.14254876940194922,"150":-0.2588866978958395,"151":-0.29785079962924904,"152":-0.1790957278133713,"153":-0.033935522558049346,"154":-0.1865977252089254,"155":-0.3439873051858911,"156":0.15275195486814602,"157":-0.07998583762000917,"158":-0.42012178334337935,"159":0.03667540747412815,"160":-0.1311366942764357,"161":0.2889136094896057,"162":-0.004893615507043045,"163":-0.12237946193961828,"164":-0.21678945754432843,"165":-0.06479961630895449,"166":0.052922667023117216,"167":-0.1383835315416948,"168":0.0768663715270597,"169":0.02403795655796986,"170":0.07539417210490643,"171":0.0023055998168634824,"172":-0.12694323136632824,"173":0.08822866341354096,"174":0.08904937837889126,"175":-0.27860169638914983,"176":-0.22792020764566706,"177":0.02783377246745485,"178":-0.07936005606285164,"179":0.08633163264852642,"180":0.08184248831334602,"181":-0.07800162984320765,"182":0.12777656433137313,"183":0.06258899590450942,"184":0.32249306137521977,"185":0.0186479402684736,"186":0.17437409920125552,"187":-0.009696340257994675,"188":0.10245885754925091,"189":-0.07961366397855346,"190":0.12632664497052154,"191":0.16329457981058915,"192":0.025680527058036768,"193":-0.06937843325717756,"194":0.13784158549744904,"195":0.16021391733761844,"196":0.14241708992077626,"197":0.051590974802352245,"198":-0.13193175718912672,"199":-0.01179558161855868,"200":0.15054990931284967,"201":0.12772796982694426,"202":-0.16646718422558593,"203":0.05932451230232865,"204":0.22796703973260177,"205":-0.05474763638321161,"206":0.28498377718412615,"207":0.2345656273465273,"208":0.16611592520489468,"209":-0.17854532647025526,"210":-0.20888901138362048,"211":-0.19291859825109967,"212":-0.13397975922102295,"213":0.025664658806595228,"214":-0.16288303503211465,"215":0.09285752454824082,"216":0.040486766277530555,"217":0.20984263639671563,"218":-0.2056235026031488,"219":0.0830673786751662,"220":-0.07372166205450666,"221":-0.22614322706404769,"222":-0.024993337044561963,"223":0.003088799602914507,"224":0.34264074207194056,"225":0.11399160368318408,"226":0.35756790596963667,"227":0.03999533407138009,"228":0.043857542076136576,"229":-0.21275896945963507,"230":-0.19316717874235118,"231":-0.10105191028142389,"232":-0.07358073578793495,"233":-0.043697337668663454,"234":-0.11776435409621332,"235":-0.2566118289563539,"236":0.1178326606850025,"237":-0.3691062519150033,"238":-0.2469447388763849,"239":0.09941908687788947,"240":-0.21334225474826976,"241":0.287349651494683,"242":-0.1078986035003751,"243":-0.1573715605210695,"244":0.002107541874700077,"245":0.05954126201882897,"246":0.05248267419088847,"247":-0.11416324886788728,"248":-0.014350949722754193,"249":-0.04136309443914373,"250":-0.21820802498110745,"251":-0.07916260628907597,"252":-0.3146593257905492,"253":0.16860719316901862,"254":0.08613940678913243,"255":-0.28932553587831356,"256":-0.1922026498027651,"257":0.1359024131420216,"258":-0.12815465947177967,"259":-0.004013481002965399,"260":0.0887859199335836,"261":-0.042890957022596404,"262":0.13826098499926304,"263":-0.2387245147194855,"264":0.0595957068253898,"265":0.11153827843171865,"266":-0.2818602763779071,"267":-0.14693874656311723,"268":-0.050683349189947796,"269":0.22533567450982572,"270":0.23235570792274998,"271":-0.019830242643950148,"272":0.011292109026020859,"273":-0.1633940007488834,"274":-0.020950940290332048,"275":0.12573084076213328,"276":0.12629277614127643,"277":0.03482162458793514,"278":-0.03363578094804359,"279":-0.31805891339704656,"280":0.3158433923185438,"281":0.1918445162246455,"282":-0.1222131208635079,"283":-0.050358666533004116,"284":0.2773059063314027,"285":0.19276088438014286,"286":-0.08355505210352608,"287":0.012139123662698832,"288":0.02585499994047273,"289":-0.10082089691749299,"290":0.017294750341269087,"291":0.00018321855865508662,"292":0.036118636601902565,"293":0.028323753830142517,"294":-0.11879641851342371,"295":0.045662899943898945,"296":-0.123424751258265,"297":0.11863720247002266,"298":0.1146353378160898,"299":0.29412529319702585,"300":0.012784263331157567,"301":-0.027620122945811617,"302":-0.004654698523959695,"303":0.09367262138093026,"304":0.43866008429481174,"305":0.07571571738837801,"306":0.4123261343165741,"307":0.1479904253553139,"308":0.08868083397797248,"309":-0.13540288583455834,"310":-0.025190263092064007,"311":-0.12931136052712133,"312":-0.03958678961204969,"313":0.08644144984075927,"314":0.023421175709004975,"315":0.13188734606848346,"316":0.2510266716931632,"317":-0.018495670331935752,"318":-0.1823119130849385,"319":-0.06749744797442449,"320":-0.3780840166902098,"321":0.5895645283755038,"322":-0.05867165752574226,"323":-0.19447066369604443,"324":-0.19627413939234498,"325":-0.23135973474310745,"326":0.14950163840039948,"327":-0.09283235416071331,"328":0.3278083758146061,"329":0.09058973858391169,"330":0.0802965895143436,"331":-0.08234005355050647,"332":-0.15505334316754238,"333":0.2576613078763414,"334":-0.018570963869963986,"335":-0.19634685919156367,"336":-0.28550722539961904,"337":0.018753425283256152,"338":-0.037692779543251814,"339":-0.059051876190806485,"340":-0.2012083601622996,"341":-0.29603483811386005,"342":-0.07327106354633701,"343":-0.2755516497648495,"344":0.043315696157613486,"345":0.04763697842208864,"346":0.15806932482929498,"347":-0.13502854294859193,"348":-0.1256669058213329,"349":0.19101857946230247,"350":-0.01321468385489141,"351":-0.01449736260596449,"352":-0.07434837912430807,"353":-0.045798498027534496,"354":0.09610016198223167,"355":0.10193674506236616,"356":-0.3559518927913914,"357":-0.2081071561875931,"358":-0.18568832025560367,"359":-0.3492244159132022,"360":-0.10688133446585531,"361":-0.020829207652638727,"362":-0.25836335150985823,"363":-0.04522036494296661,"364":-0.047397256150862856,"365":0.07039306880096928,"366":-0.23680142407608543,"367":-0.08534442449970481,"368":-0.09092126339169224,"369":0.0341271357745962,"370":-0.12919751315007968,"371":0.14060380500979267,"372":0.12370630570666004,"373":-0.043305901590053125,"374":-0.0698760183003144,"375":-0.21761926690609718,"376":-0.23561142992328474,"377":-0.11995030541002964,"378":-0.1435287150058468,"379":0.13520530447104268,"380":-0.11240974153918931,"381":-0.15058221700781224,"382":0.06635132343755683,"383":0.09132531769229789,"384":0.3902746340633452,"385":0.12935589028646127,"386":0.32061617980432505,"387":0.3361687702125576,"388":-0.19598426582153533,"389":-0.06676316226690458,"390":0.2161420136707051,"391":-0.44229195720084247,"392":0.13221718594717943,"393":-0.025556038851208253,"394":0.0948902085469291,"395":-0.20711028156075498,"396":0.09323484074015795,"397":0.399408384403278,"398":0.04363008254857142,"399":-0.23340984842914664}},{"sx":5,"sy":5,"depth":16,"w":{"0":-0.2597440288313466,"1":-0.27001530964946757,"2":0.0031082727028411677,"3":-0.025830535300812616,"4":0.04367729371018448,"5":-0.05604300018430236,"6":-0.11109147763350195,"7":-0.027874439762562916,"8":-0.017202536706750305,"9":-0.346956541939455,"10":0.12198601142731484,"11":-0.23589295865598994,"12":-0.19187111195500164,"13":0.07183798961923436,"14":-0.14054546841878296,"15":-0.05872806633904133,"16":-0.29684965923340767,"17":-0.19568039740130844,"18":-0.18379046119043735,"19":0.006411257308833199,"20":0.15103356668771134,"21":-0.06656312846832498,"22":-0.20243529608501873,"23":0.06584177518388372,"24":-0.16998396937689403,"25":-0.25086294041265295,"26":0.16680456808204233,"27":0.22777524053331938,"28":-0.010114268621377641,"29":0.13954453578449585,"30":0.15400014757820016,"31":0.1924536688573364,"32":0.04197652316011483,"33":0.08469760961364421,"34":-0.3871902651091633,"35":-0.049694218570762595,"36":0.07646772723531184,"37":0.31681002662431834,"38":-0.12710639985917233,"39":0.13671762651487,"40":0.02368882936237411,"41":-0.1627131141847178,"42":0.28223640515863413,"43":0.07012302910559379,"44":-0.11597222392371467,"45":-0.1280041889574856,"46":0.04449089385186364,"47":-0.20802887092921302,"48":0.20307712302588277,"49":0.042558124975670866,"50":-0.010819084308274454,"51":-0.07619988311746174,"52":-0.025621890245509135,"53":0.08641210918309944,"54":-0.058577217376682485,"55":0.0682998068985148,"56":0.1989071889454217,"57":0.13334365550843316,"58":0.11064666546438143,"59":-0.1246756067848226,"60":-0.05966708990293357,"61":-0.25175227584782434,"62":0.19218120766494148,"63":0.02283125746842426,"64":0.31963513273217387,"65":0.5001243804437752,"66":0.09148722704406119,"67":-0.06975016442258967,"68":0.19945726196721403,"69":-0.04153937328892247,"70":0.00812690065414252,"71":0.2674720608708735,"72":0.29066012649825756,"73":-0.01108424286466625,"74":-0.015506492794871573,"75":0.08768212401032031,"76":-0.012660838021429574,"77":-0.045690671104376655,"78":0.1397082107684366,"79":0.17164626719640683,"80":-0.3780030699383121,"81":-0.1530174807124095,"82":-0.08464486975744223,"83":-0.23363389456378314,"84":0.05267579518963861,"85":0.09331130391476213,"86":-0.021414312446629006,"87":-0.10560238679416742,"88":-0.030250544222399058,"89":-0.024300988957988937,"90":-0.13979589181330881,"91":-0.15236208141317745,"92":-0.10159931678279326,"93":0.055776087320359685,"94":-0.02366822577094586,"95":-0.14951897835836592,"96":-0.3866541611565079,"97":-0.2753669296800872,"98":-0.20348924923944678,"99":-0.23028926884765108,"100":0.12119960803633072,"101":-0.02542241561986819,"102":-0.048573020801663744,"103":-0.07600356948104502,"104":-0.07930057755965739,"105":0.1628881735113588,"106":-0.045689669939468894,"107":-0.08891787286157118,"108":-0.002750367595327666,"109":-0.14824164178578614,"110":0.02776696068039828,"111":0.10566882348384478,"112":0.07031600675204051,"113":-0.05683214627002547,"114":-0.09505589900587388,"115":-0.1713905866561932,"116":-0.03623090371007883,"117":0.1375692846260232,"118":0.12567254872593756,"119":0.058799083911831175,"120":0.010223243434757808,"121":0.20155727882113483,"122":0.27387114559988973,"123":-0.126881917169549,"124":0.053601354217682785,"125":-0.24847856869221846,"126":0.27656204796764144,"127":-0.07636119464747776,"128":-0.01145676162909257,"129":-0.23204438863530108,"130":0.05050054274827816,"131":-0.27614494240201354,"132":-0.07669333124254007,"133":0.17683711408351935,"134":0.1323370676328984,"135":0.029707992883822358,"136":0.3816666186678099,"137":0.016705825607156357,"138":0.019915031600978825,"139":-0.18772896523063892,"140":-0.08189263987937448,"141":-0.11363816900987879,"142":-0.061838860649856206,"143":-0.026266066929586874,"144":0.08101420387660102,"145":-0.05036577709653502,"146":-0.03126102442346713,"147":-0.2827565191885625,"148":0.026724810495527357,"149":0.06125166074731996,"150":-0.15882670697860143,"151":0.1952498369436143,"152":0.08570921444100527,"153":-0.17679890813148982,"154":-0.05934461544957981,"155":-0.2100605224843319,"156":0.0668606178647968,"157":-0.11387615526115286,"158":0.028617972844658106,"159":-0.13093602789795647,"160":-0.45814053387214304,"161":-0.3220532710290845,"162":-0.010291708706044275,"163":-0.38578765717231805,"164":-0.20121139332561688,"165":-0.012242382472187056,"166":-0.6031138242169176,"167":-0.18940144163711892,"168":-0.16927655251808307,"169":-0.09140593923515411,"170":-0.1282938914399459,"171":-0.16244961657365278,"172":0.02876131481045255,"173":-0.5228300855774776,"174":0.03299186013837606,"175":-0.3749227928412142,"176":-0.6284959820651349,"177":-0.21249592649157423,"178":-0.008462071668266317,"179":-0.3010297672059482,"180":-0.30351090917501117,"181":-0.09753700589219823,"182":-0.7579805258103809,"183":-0.2149166421700766,"184":-0.24795297394577356,"185":-0.04682376363561996,"186":-0.1817017220783849,"187":-0.1821549352315835,"188":-0.2024297226216472,"189":-0.6931306744538499,"190":-0.04225426251599984,"191":-0.17926820233905083,"192":-0.04229941154705884,"193":-0.13037783950741552,"194":0.0086626530813931,"195":-0.23933535334228825,"196":-0.08834397781863229,"197":-0.07657208926670978,"198":-0.3417220694956646,"199":0.1197194949707671,"200":-0.13532442467531325,"201":-0.0518035768118938,"202":-0.13960359513840356,"203":-0.16737486671934404,"204":-0.018319210513467108,"205":-0.20419722435108723,"206":0.005735292403847102,"207":-0.20179557119205185,"208":-0.2564485900308111,"209":-0.033866091417916404,"210":-0.038050229994395744,"211":-0.24331576142224776,"212":-0.2121621217580049,"213":0.07844150847365652,"214":-0.19850763936555668,"215":0.21222135816162416,"216":-0.22571885145730636,"217":-0.18179705500186125,"218":0.04485666340009311,"219":-0.09849291813360797,"220":-0.31514780835008205,"221":-0.18259913353667798,"222":-0.2782420421867533,"223":-0.41522146222146367,"224":-0.171330300492623,"225":0.0482519452568499,"226":0.15818788413935014,"227":-0.03951599657081709,"228":-0.23482022147984236,"229":-0.14415993795838186,"230":0.15825266850826986,"231":0.17791583361076818,"232":-0.16328167191169696,"233":-0.2508772119131649,"234":0.11907511038756241,"235":0.03846632895197224,"236":-0.10791313796809596,"237":-0.35678830523423327,"238":-0.20389231069612582,"239":-0.1654582883930834,"240":-0.14355892762774508,"241":-0.17726916603288778,"242":-0.00043386742155817693,"243":0.09479938768731078,"244":-0.1173289730123114,"245":0.10976127307588243,"246":0.13658777375597478,"247":-0.46234984229383,"248":-0.023738225958348035,"249":-0.03728964509476017,"250":-0.007868944095536155,"251":0.13301426005400482,"252":0.1263334145622632,"253":-0.21685606552265196,"254":-0.06261474738422457,"255":-0.16666809066852886,"256":-0.06456364313416166,"257":-0.21649867532487857,"258":-0.030808101138837547,"259":-0.016572147030981154,"260":-0.1468465160497911,"261":0.09382293368948903,"262":0.269213075716354,"263":-0.6690384403334577,"264":-0.09619469343017571,"265":-0.019785900803081267,"266":0.07673858349478466,"267":0.01312487188510006,"268":-0.13070908873230228,"269":-0.09033951564258731,"270":-0.1873493756821612,"271":-0.10096231129793774,"272":0.06651171459643856,"273":0.2083225589505049,"274":0.01759714628451945,"275":0.013131436018544492,"276":0.09119459519577637,"277":0.10075612755860315,"278":0.39788555895281774,"279":-0.5733724251037359,"280":0.15778747436441387,"281":0.004141785049852011,"282":0.09234655685984793,"283":-0.04604719525531967,"284":0.14262904700386078,"285":0.017187074152120913,"286":-0.3461296613125822,"287":-0.02710652834614204,"288":-0.03038205243935949,"289":0.02258037477464228,"290":0.15715568527970714,"291":-0.07069535048661164,"292":-0.014353848217791575,"293":0.17564828176937644,"294":0.4941414934704695,"295":-0.4924387978549601,"296":0.2509705477380574,"297":-0.2595832635074866,"298":0.04983776075785933,"299":0.03256372631000481,"300":0.0371509518425437,"301":0.09403064970282114,"302":-0.23497484329197926,"303":-0.05409735257879951,"304":0.2963749910147407,"305":-0.2637227167215847,"306":0.2706972554411005,"307":0.2650458504888585,"308":-0.19915607993026732,"309":-0.04207296896346635,"310":0.5164297061799966,"311":-0.509896652858556,"312":-0.010433426024703043,"313":-0.2427937739088933,"314":-0.10861624933883397,"315":-0.0436662236483266,"316":0.11362645857922511,"317":0.4747975469353862,"318":-0.31058718879572633,"319":0.06051000709916739,"320":-0.44915659266155833,"321":0.13210249096357812,"322":-0.07017575511491236,"323":0.1500122758333804,"324":0.058691940384485115,"325":0.08842728178514209,"326":-0.20201340660788453,"327":0.13172791746833198,"328":-0.06933340867951869,"329":-0.08046798676121397,"330":-0.2168469848772435,"331":0.015240918239061452,"332":-0.1299349324757295,"333":0.17410182508847383,"334":0.08999346960147234,"335":-0.05413769837993838,"336":-0.06568099329456853,"337":0.17776830373521518,"338":-0.3088544635511541,"339":0.06929160480624,"340":0.1500547912326611,"341":0.12651102790291366,"342":-0.13145512191142258,"343":-0.015225371249985424,"344":0.07637432852372804,"345":0.09285172343172457,"346":-0.08381939467386554,"347":0.054320190313931684,"348":-0.18570055848570696,"349":-0.049083555354289404,"350":-0.09321739490373615,"351":-0.199209826915855,"352":0.16523764190565282,"353":0.32045384338029465,"354":-0.04096622727960555,"355":-0.04093687205474603,"356":0.12742865837214687,"357":0.18701507793776745,"358":0.031454267154951025,"359":-0.0812067589826736,"360":-0.1572274397687853,"361":0.23368904741138985,"362":0.12280775334987833,"363":0.0774698598280958,"364":0.027792497523314585,"365":0.1740874444120708,"366":-0.15381025978961937,"367":0.09672023382489456,"368":0.00040589875599425274,"369":0.0023546440265791455,"370":0.01355967281213647,"371":0.13519257850241298,"372":0.2477114555215558,"373":0.10611944349419859,"374":-0.06968050263754277,"375":0.09747141611210644,"376":-0.12823358974299903,"377":-0.03877356198200687,"378":0.1865541962819972,"379":0.11281440710412036,"380":0.11512249239835332,"381":0.3548115945010306,"382":-0.18394836622980387,"383":0.08823730316678527,"384":0.2274836082696276,"385":0.04561891622902474,"386":0.032191184087314785,"387":0.1868759017958046,"388":-0.04398995180234704,"389":0.1069844102965951,"390":0.10793966140941086,"391":0.2967868928834912,"392":-0.018337894106216498,"393":-0.08857276956082007,"394":0.16286715312424585,"395":-0.19979877960065645,"396":0.24324123967085923,"397":0.329283818422766,"398":0.12330524901841655,"399":-0.3205799671487202}},{"sx":5,"sy":5,"depth":16,"w":{"0":-0.15053454976568986,"1":-0.1224480290632887,"2":-0.025986073068733413,"3":-0.14551134142692185,"4":0.014776374234612425,"5":-0.016150240595447875,"6":-0.09833463425803551,"7":-0.10980518824291896,"8":-0.050111116373828764,"9":0.029614030154325233,"10":-0.04172969392212801,"11":-0.060059244499267916,"12":-0.030701344011450298,"13":-0.07266623997494297,"14":-0.013324053269007145,"15":0.1003121037501358,"16":-0.14269763412241368,"17":-0.05662846651596542,"18":-0.25066026873016517,"19":-0.05897356279390943,"20":-0.047697300893905205,"21":-0.014066440413663025,"22":-0.10528406442890516,"23":-0.013504785426226192,"24":-0.13597198571439273,"25":0.007832083651939787,"26":0.0242094233912176,"27":0.02549387431357851,"28":-0.02302894063514858,"29":-0.007366324562192867,"30":-0.011567579998234587,"31":-0.01335801790041426,"32":0.028616484005937266,"33":0.13334063676206123,"34":0.10331897413275427,"35":-0.09268592342651548,"36":-0.07694766141595007,"37":0.01679627499049464,"38":-0.042148705308319497,"39":0.023559446658764176,"40":0.0009365304953237059,"41":-0.05364568282916121,"42":-0.0050728529069709065,"43":-0.07666158432083695,"44":-0.05945538483888499,"45":0.03138711948846367,"46":0.03707631091316889,"47":0.00353681044592926,"48":-0.06153625500200144,"49":0.022214653115683276,"50":0.026634423704025113,"51":-0.04472517373964093,"52":0.09379044710366977,"53":0.006995306275705091,"54":-0.16678162830584822,"55":-0.07053455801250617,"56":-0.1611983103421559,"57":-0.030625347218631187,"58":0.018821351670941868,"59":0.006095904087777647,"60":-0.04023098284778673,"61":0.00947257796669121,"62":0.0017773230740146149,"63":-0.009051465613658681,"64":-0.03863172660161912,"65":0.14835396882408683,"66":-0.035205094945738605,"67":-0.004596241662772703,"68":0.06009049607577364,"69":0.08307029456294084,"70":-0.13920021272775948,"71":-0.10072623199672778,"72":0.051540878575580755,"73":0.006558938961418564,"74":0.009377229835057599,"75":0.029471552338081367,"76":0.030751662358628987,"77":0.0705466669535102,"78":-0.03572238957407598,"79":-0.026873589399703725,"80":-0.2441576584217098,"81":-0.00693047635225109,"82":0.12816290496377028,"83":-0.15706299856532036,"84":0.08700009105906437,"85":0.02831347631459528,"86":-0.09820242167565692,"87":0.048353036695095275,"88":0.028613227257266474,"89":-0.013220329427608,"90":0.01884310208497189,"91":0.05158692257022914,"92":-0.015663867057936615,"93":0.11688843433697252,"94":-0.02407301385675287,"95":0.09491905531930545,"96":-0.1223668572897606,"97":0.06578333539812267,"98":-0.15975989126711315,"99":-0.00048089768828842044,"100":-0.04683264521531479,"101":0.0072745979590229035,"102":0.0013055500284131884,"103":-0.10375587796772014,"104":-0.13939174244367336,"105":0.003230382289368624,"106":-0.006249138406478131,"107":-0.038979135650262585,"108":-0.016157452100040656,"109":-0.04246472510415474,"110":0.011596771802300477,"111":-0.0538668101541246,"112":-0.1536741416692367,"113":-0.015251923915349646,"114":-0.04290676587064753,"115":-0.00040151871974238647,"116":-0.019312634240257694,"117":0.04921829704621415,"118":-0.11345606411689058,"119":-0.16997068245776323,"120":-0.04859397700387704,"121":-0.005546255986486223,"122":-0.03122324001245595,"123":-0.14760975120300665,"124":-0.016194559902901126,"125":-0.002299957660989027,"126":-0.0473745404847904,"127":-0.06125339671627847,"128":-0.0948841171978071,"129":-0.0144386214206642,"130":-0.007683669265336937,"131":0.016641220541958768,"132":0.049579468411533156,"133":0.0021451005687585217,"134":-0.16074617666016996,"135":0.00015729995423118567,"136":-0.03263941599251723,"137":0.03904850956374862,"138":-0.08067294888785805,"139":-0.17652992803499318,"140":-0.05415577640983374,"141":-0.017660976304384107,"142":0.019718304328820338,"143":-0.03470847422664956,"144":-0.07298908568823453,"145":-0.015538335569339461,"146":-0.04307340476011865,"147":0.003356796670776976,"148":0.04311473807422251,"149":0.007569506285689954,"150":-0.1219350366658692,"151":-0.08132975550621814,"152":-0.10038552496054941,"153":0.03464186927182755,"154":-0.03359191693902803,"155":0.05096881431020539,"156":0.006531906229078965,"157":-0.048659451873457195,"158":-0.11700756771236721,"159":-0.08522337668841322,"160":0.003511738763100165,"161":0.10453069760035567,"162":0.14631089942492537,"163":-0.13344263123896807,"164":0.027676499508742056,"165":-0.017659166767656744,"166":-0.10569248607769863,"167":-0.011671891612758846,"168":-0.03434236371116951,"169":-0.1480029538270762,"170":-0.05223624500964236,"171":0.021675054344318285,"172":-0.002628240627107971,"173":0.15253276086383452,"174":-0.03898102846994627,"175":0.20853916878228612,"176":-0.04548292217198645,"177":0.026470940315712455,"178":-0.19387002597283073,"179":-0.008674647896719716,"180":-0.011709540798087729,"181":-0.02860541288896111,"182":-0.07375478998263423,"183":-0.02279373230138588,"184":-0.09843199366504378,"185":-0.07138122857477364,"186":-0.009113204834573058,"187":-0.05388848977973736,"188":0.034821086144936904,"189":0.015203952490926285,"190":-0.04321118295982081,"191":-0.1402070147569515,"192":-0.0421712880371021,"193":0.05636228769845569,"194":-0.0673531520583049,"195":-0.00039786840509414796,"196":-0.008792087563422904,"197":-0.01641803144624469,"198":-0.06446943959559406,"199":-0.0751361968158378,"200":0.01113895214089549,"201":-0.028238883901620757,"202":0.012694260553429872,"203":-0.13251827334081623,"204":-0.014850289053618909,"205":-0.04286688307293317,"206":0.036447157663675685,"207":-0.1716599035671692,"208":-0.09424402863595314,"209":-0.02307760232230728,"210":-0.07820021350019181,"211":-0.03834589143745289,"212":0.026525942940761788,"213":0.03367986770598745,"214":-0.10789688818628299,"215":0.03089032554389182,"216":-0.1035892739071802,"217":0.032012251282858215,"218":0.053795869315089395,"219":-0.1485139888683507,"220":-0.022742452720313083,"221":-0.05335828811885003,"222":-0.024582743059866952,"223":-0.1358839660687634,"224":-0.12253886985971243,"225":0.006373180537273876,"226":-0.15854210826152057,"227":-0.0858244104912486,"228":-0.015210895943099345,"229":-0.001219720645520728,"230":-0.1770062304786737,"231":-0.016493157369316936,"232":-0.12438510571942914,"233":-0.04863314751139592,"234":-0.07290257102824435,"235":-0.05657849710107838,"236":-0.033090906008666966,"237":-0.025689148048447748,"238":-0.03912830952124081,"239":-0.1411508540200907,"240":0.020568117497984654,"241":0.044030879438857105,"242":0.17072790831107673,"243":-0.023446630763605578,"244":0.0066858774143545695,"245":-0.03387853810900909,"246":-0.10891798286767568,"247":-0.0225575731468965,"248":0.017711055553596942,"249":0.03541626341071075,"250":-0.0008269150163806784,"251":-0.0233708763920458,"252":0.08826190776892846,"253":0.11331103921592624,"254":-0.0015481469043168402,"255":0.1094408130533823,"256":0.028885318563706824,"257":0.02171969894847508,"258":-0.02686428992416566,"259":-0.0436182318276804,"260":-0.06086003036617372,"261":0.032274766880107324,"262":-0.15677175633635285,"263":-0.12336485650708842,"264":0.06600892556547251,"265":0.014102307033891997,"266":-0.08576611872430007,"267":-0.0056826683139456725,"268":-0.026680013403945945,"269":0.07250260161875839,"270":0.042683979222467194,"271":-0.015427053047800338,"272":-0.042038034518338575,"273":-0.0128145160945108,"274":-0.04553550305233867,"275":-0.07550950389489633,"276":-0.054322857593369855,"277":0.02884344481185973,"278":-0.10668876641840876,"279":-0.20017200033004895,"280":-0.12361139638713402,"281":0.01573382141150304,"282":-0.11808471717985601,"283":-0.10442374777310554,"284":0.02473022387159642,"285":-0.1079342187454977,"286":0.011544784129685811,"287":-0.14584223115091305,"288":-0.04244386489794897,"289":-0.05542068856645136,"290":-0.10480059559845131,"291":-0.11408066966636173,"292":0.04278599685889781,"293":-0.011998332349179606,"294":-0.16215408357025107,"295":-0.10727539336029544,"296":-0.07965892074071466,"297":-0.012906968686943146,"298":-0.004923757933240132,"299":-0.19162314791603785,"300":0.03457808718362765,"301":-0.04832865251046829,"302":0.010209440293250134,"303":-0.03116903431561916,"304":0.007302379389439294,"305":-0.04228753897418011,"306":-0.10151797697497891,"307":0.02322870708096934,"308":0.012397458699273497,"309":0.022503181417522358,"310":-0.06730706089336548,"311":-0.06786240011851662,"312":-0.1370022675018,"313":-0.00833102019475692,"314":-0.08652975674336472,"315":-0.061542795472562986,"316":-0.005901413814268084,"317":-0.10144854673062134,"318":-0.038689517398784574,"319":-0.11130847738746935,"320":-0.07629741205143678,"321":0.15078831081725091,"322":0.19289499125770043,"323":0.06873013882738857,"324":0.04804991409267271,"325":-0.009677079906564919,"326":-0.049592828672464694,"327":0.05295142222783545,"328":0.15071620596591842,"329":0.14599502831135264,"330":-0.03907783033376613,"331":-0.03464478185137873,"332":0.1041505526615354,"333":0.2187730952987105,"334":-0.019840961828989843,"335":0.02045955703433322,"336":0.03702353665654611,"337":0.06729834286820251,"338":0.006928902196762214,"339":-0.12941945989773468,"340":0.004128211985339594,"341":-0.020676847699355565,"342":-0.10122129719316199,"343":-0.09875402844616388,"344":0.03517491033718233,"345":-0.041239651889589064,"346":-0.07496793085067074,"347":-0.07578309576403398,"348":-0.10077187249986569,"349":0.04390285728663392,"350":-0.019536698624548657,"351":0.03032954188920136,"352":-0.13146915348768842,"353":-0.012199015335951283,"354":-0.09177408667624196,"355":-0.09822457323147427,"356":-0.012113328241214739,"357":-0.037421784179151665,"358":-0.19724301780696282,"359":-0.13336593535692365,"360":-0.07076709455232694,"361":-0.04260338580329495,"362":-0.06450048121647926,"363":-0.08266195913761304,"364":-0.07477052941187352,"365":-0.060905911458328,"366":-0.11941095009236452,"367":-0.1477739131841884,"368":-0.0551178843433513,"369":-0.02887255157739624,"370":-0.10337320624513911,"371":-0.11389205668810147,"372":-0.04195751658326593,"373":-0.019315595866545483,"374":-0.14638330814093245,"375":-0.11113369945459939,"376":-0.22893883613194474,"377":-0.04500205254865829,"378":-0.03576274903278834,"379":-0.1372420222303619,"380":-0.0037805022187332215,"381":-0.03009395617675379,"382":0.03089630590394392,"383":-0.0514611825940727,"384":-0.010256372288280574,"385":0.08650193559622811,"386":-0.11649579344788277,"387":-0.08396783783448704,"388":-0.06576586238303428,"389":0.00642614138047622,"390":-0.20609273371156206,"391":-0.18253959248422666,"392":-0.1078253237359684,"393":-0.022561404422094717,"394":-0.018069418242657537,"395":-0.026077629215402482,"396":0.009744697028391222,"397":-0.06383334808547653,"398":-0.05896618000289503,"399":-0.25456620285117526}},{"sx":5,"sy":5,"depth":16,"w":{"0":0.08559716798950176,"1":-0.008295221389097341,"2":0.380749319113485,"3":0.04603160655591094,"4":0.44376392282568783,"5":-0.038653640943209236,"6":-0.035279481178344424,"7":0.12153239818118342,"8":-0.06832559100709178,"9":-0.09084079094139737,"10":0.06491456644582605,"11":-0.5476301794588881,"12":0.08651970900488475,"13":0.09843829723404303,"14":-0.009575158289839595,"15":0.03251368063646645,"16":-0.130031795956596,"17":0.14837182264349622,"18":0.03225227824076762,"19":-0.2864461327915193,"20":-0.15647705081881072,"21":0.04822750903071892,"22":-0.0371396381870321,"23":0.20564981052414075,"24":-0.020954095176254038,"25":-0.01567594314123015,"26":0.01851921585660349,"27":-0.3247970281605701,"28":-0.11145735126056347,"29":-0.2598103877881894,"30":-0.00383805523604345,"31":-0.11179723026539051,"32":-0.17605078408427868,"33":0.17704173738628512,"34":0.0036992278563609993,"35":0.011265227811084232,"36":-0.279585002454619,"37":0.1260793884956427,"38":-0.08604431816056356,"39":0.3435892610232942,"40":0.002007729032710492,"41":-0.009332063729711194,"42":0.19839999794966434,"43":-0.0006320389213054364,"44":0.03567575543544497,"45":0.00486535339495368,"46":0.1410513824764773,"47":0.04324919742684903,"48":0.05405602582159809,"49":0.21055517794451797,"50":-0.3062593485132928,"51":-0.11287167100336887,"52":0.09176161840714811,"53":0.015404350213179395,"54":0.09504203225721591,"55":0.09414141721044783,"56":0.31150122271343644,"57":-0.2481057784059475,"58":0.22555532741877685,"59":0.03290533177626248,"60":-0.17281935844470922,"61":0.09223838753725462,"62":-0.06480216054028273,"63":0.061515236906969535,"64":0.08427838294915624,"65":0.32877841342357017,"66":0.019108672334987066,"67":0.04736194473642554,"68":-0.03685852773535978,"69":-0.15103282117583142,"70":0.28240645381324503,"71":-0.005210475793014217,"72":0.4547353102515628,"73":-0.051076667527405126,"74":-0.11614762869692362,"75":-0.21833875518018667,"76":-0.2016252082856043,"77":0.3083727386479236,"78":0.12314179235518542,"79":-0.06567845183090636,"80":-0.1428423827886808,"81":-0.08121513594304483,"82":0.306790907816241,"83":0.08083222410259167,"84":0.12472197487292495,"85":-0.12192559828811592,"86":0.010148747444292196,"87":0.12352020452581819,"88":0.31345249789119506,"89":-0.04596259441206531,"90":0.05299978621975891,"91":-0.6108609196923607,"92":0.02847155509929062,"93":-0.17068984362926595,"94":0.0959393575477827,"95":-0.2756959228736949,"96":-0.168601954891293,"97":-0.005647387653264217,"98":-0.020649063830182585,"99":0.004576522389886954,"100":-0.0336593829897712,"101":0.03299650220628876,"102":0.06587550683588658,"103":0.09229187886845547,"104":0.12129613547392187,"105":-0.027618855013886272,"106":0.13339197836034225,"107":-0.3439498011510555,"108":-0.12000548303214502,"109":0.0308669817568669,"110":0.05643181371058056,"111":-0.03063699054121962,"112":-0.19935242518178983,"113":-0.1208966169353206,"114":-0.17486951672617387,"115":-0.02141535331514362,"116":-0.07383099282460621,"117":0.11552197436824775,"118":0.09636785765876513,"119":-0.07422637190918363,"120":0.09133375059428225,"121":-0.14726649719661222,"122":0.007390787435957817,"123":-0.22852542484304703,"124":0.14757720843310904,"125":-0.1625087210144015,"126":0.18823257368569288,"127":-0.21031335113056923,"128":-0.10321105854338868,"129":0.19892809113820054,"130":-0.4185307133506956,"131":-0.38797317648705903,"132":-0.009628061575949712,"133":-0.020683828860833434,"134":0.10811126020183447,"135":0.27446179819913474,"136":-0.07978516096517979,"137":-0.05260519793706901,"138":-0.22708276822507573,"139":0.16463397766817517,"140":-0.1916351326448273,"141":0.08632184851590187,"142":-0.14015567337564314,"143":0.13553767291439175,"144":0.16116027358571214,"145":0.2680006232832067,"146":0.02326723349700198,"147":-0.1583854308331846,"148":-0.27591150879983145,"149":-0.08578185331548584,"150":0.39140093329841025,"151":0.3253762066103731,"152":0.5139927292251799,"153":-0.18368972069064718,"154":-0.33898548077986046,"155":0.21904888114475474,"156":0.08804585747133996,"157":0.024355183893881388,"158":0.01395608497237054,"159":-0.1049519461829283,"160":-0.16251859754630799,"161":-0.20025584690511386,"162":0.12901583106699582,"163":0.12857872806138934,"164":0.20929801767904008,"165":-0.0353884520894862,"166":-0.09445848958690001,"167":-0.1609040637918588,"168":0.2046498751594047,"169":-0.012292305930248808,"170":0.10542293314410447,"171":-0.13396533195853783,"172":0.0201923534698702,"173":-0.02810416685305601,"174":-0.004747724885307164,"175":-0.1227426776709528,"176":-0.18607531595995247,"177":-0.5282999483224822,"178":-0.1303052542466622,"179":-0.1318229383395036,"180":0.19707683126766765,"181":0.023835845989042436,"182":0.04798388936978514,"183":-0.039893473613889896,"184":-0.24885449665776058,"185":-0.024993507649311287,"186":0.36761596873998664,"187":-0.04355032692982081,"188":-0.027707126380995335,"189":-0.2611429250543619,"190":-0.09293225566605817,"191":-0.02175757529013705,"192":-0.09184091223079635,"193":-0.10181022290727894,"194":-0.14982024072242373,"195":-0.18192995615987434,"196":-0.09807308805141104,"197":0.025073669418695883,"198":-0.10110209621788445,"199":-0.041411822193846294,"200":-0.3222917525736816,"201":-0.14177622533776618,"202":0.19406854817452399,"203":0.07415005370000208,"204":-0.07453052886467276,"205":-0.33164091781024546,"206":0.05479912963899665,"207":-0.2760218008488358,"208":-0.01786570167698578,"209":0.13120557622942977,"210":-0.15970305962103024,"211":-0.6068697610543727,"212":-0.25734260162422185,"213":-0.07354142062960892,"214":-0.030691398065535384,"215":0.2857467193306054,"216":-0.15699914949153757,"217":0.05965402013804507,"218":0.16043110310998018,"219":0.039661692952624276,"220":-0.2280708871808461,"221":-0.10085228757928488,"222":-0.18126983748188785,"223":0.13097551490629122,"224":0.05352467094270743,"225":0.6004607725409069,"226":-0.05390150860977282,"227":-0.11465155464115545,"228":-0.22775224077767206,"229":-0.45750002874783374,"230":-0.03602410157628183,"231":0.020162058252366787,"232":0.20003904485493298,"233":-0.22768659497384275,"234":-0.3803394455785235,"235":0.29309958243115397,"236":-0.19299543384772425,"237":0.33631215668468395,"238":-0.04116328426658326,"239":0.16058355323698192,"240":0.004355744694698037,"241":-0.3805146954861196,"242":0.02236054873150229,"243":-0.0013688477389261345,"244":0.0015516303851640337,"245":-0.10317370762539839,"246":-0.23569056710328307,"247":-0.11868455846511852,"248":-0.27089924877320487,"249":-0.048613130142632376,"250":-0.2802600915488822,"251":-0.3126163847417601,"252":-0.06423055487691574,"253":-0.2235851066049531,"254":0.10642037365738821,"255":-0.15719272821382027,"256":-0.24623040802042506,"257":-0.19824960639244502,"258":-0.3463768213314287,"259":-0.0658531529817915,"260":-0.08772979567562811,"261":-0.05193886646543682,"262":-0.2945588900934407,"263":-0.04444394892109216,"264":-0.22630621924482058,"265":-0.08894797171084233,"266":-0.16490526201750774,"267":-0.24955979595647107,"268":0.0157126254568084,"269":-0.22766415455451344,"270":-0.022069916655232762,"271":-0.36460342673279067,"272":-0.26841103978749786,"273":-0.048819971097308755,"274":-0.19545956576784324,"275":-0.18927582332516085,"276":-0.014861035314938535,"277":0.05294440495016765,"278":-0.15202355608084958,"279":-0.3170050696594721,"280":-0.26763868824825765,"281":-0.0709120941662084,"282":-0.053303036405193086,"283":-0.07469691543579231,"284":-0.12842425235026558,"285":-0.33528275488400133,"286":0.08785283698330432,"287":-0.30663453734868373,"288":0.020280733957124736,"289":-0.034273460552104756,"290":-0.18959229046709677,"291":-0.3038518813757232,"292":0.06412485153769377,"293":-0.008091042972508362,"294":-0.05305559087292389,"295":-0.11557338421458686,"296":-0.1450833950067204,"297":-0.11739803411240046,"298":0.11911103245067145,"299":0.1290234983158446,"300":-0.4133467456827576,"301":-0.13856613132485102,"302":-0.14903207593630816,"303":0.1906822226721248,"304":0.035186114646060966,"305":0.2567662051799437,"306":-0.08680627702277716,"307":-0.1564199209376617,"308":-0.3011258006176221,"309":-0.14684284128693412,"310":-0.17471884165603552,"311":0.01323019677647421,"312":-0.1982974956542083,"313":-0.08331905089999143,"314":-0.3498861001350947,"315":0.3725529606088129,"316":-0.14176191935524543,"317":0.06181365611691244,"318":-0.0801680779530586,"319":0.15386783382709449,"320":-0.2527601328416641,"321":-0.37982507123437603,"322":0.3272214182807887,"323":0.07148979299766528,"324":-0.09646975549569967,"325":0.055758218393154306,"326":-0.10778876940232349,"327":-0.10563566753201614,"328":-0.27921583881537837,"329":-0.08011713098218985,"330":0.06471915424116567,"331":-0.5049547935707644,"332":-0.13287887712242705,"333":-0.09396569471132202,"334":0.029595448995268562,"335":-0.3145520405462303,"336":-0.3829380459839462,"337":-0.15668427706812646,"338":0.08174956108134188,"339":-0.0884816639191294,"340":-0.1942298597336998,"341":0.03244520264263478,"342":-0.1678497886701818,"343":0.025023008990815308,"344":-0.4927932541316857,"345":-0.2502724943102037,"346":-0.039309074021587766,"347":-0.2783365912621484,"348":-0.09343251190506781,"349":-0.20452886840779644,"350":-0.018027801702258744,"351":0.022056945485998156,"352":-0.30829465594500655,"353":0.04424696362385914,"354":0.034341179892079486,"355":-0.02375564350794247,"356":-0.046616584170277094,"357":0.012592901140320155,"358":0.004431341094401174,"359":-0.40036673786297283,"360":-0.5429817142019234,"361":0.1174666170398674,"362":-0.157324876560597,"363":0.39704137911236353,"364":0.06850865692695922,"365":0.11580101618591744,"366":-0.0028508089328467736,"367":0.1935735430490453,"368":0.13723447518188675,"369":-0.23889107383534086,"370":-0.20993078515381527,"371":-0.019224109706244368,"372":0.11558374427217588,"373":0.07500934796141726,"374":0.11579502972731104,"375":-0.48784541706108525,"376":-0.22770489581359166,"377":-0.06973864985186909,"378":-0.02552895148746135,"379":0.28137554844860296,"380":-0.3521844363751384,"381":0.10430818723517389,"382":-0.16629198940280704,"383":0.28964616824402056,"384":0.1326239716391646,"385":-0.038075049212785365,"386":0.13508166397047117,"387":0.11013883842318795,"388":-0.07041486647175317,"389":-0.11953964048983455,"390":-0.09326216791065738,"391":-0.20290825053669664,"392":-0.20728559178304065,"393":-0.11725571227087972,"394":0.08203084940596207,"395":0.2223637220394909,"396":-0.08820139478831482,"397":0.26669629898944747,"398":-0.25494601662205635,"399":0.09673688481514531}},{"sx":5,"sy":5,"depth":16,"w":{"0":-0.1519439337133716,"1":0.18538018528087918,"2":-0.21397725271056844,"3":0.1035313454720022,"4":-0.07111283824798698,"5":0.15578813898267146,"6":0.20748682497417728,"7":-0.3550568834059799,"8":-0.0625700164343701,"9":-0.12637345457279986,"10":-0.1402738087937709,"11":-0.1842984643149755,"12":-0.06497404615000188,"13":0.09874392092129969,"14":-0.07726823248063228,"15":-0.25302404336372836,"16":0.10234735425497371,"17":-0.11652417777547262,"18":0.0029876266231005,"19":0.059652874336109725,"20":-0.1824992293213785,"21":0.10187034005824153,"22":0.20010517727710153,"23":-0.45226891932637214,"24":0.0423938257684877,"25":-0.11320617490665709,"26":-0.3513305376222844,"27":-0.36869179300259786,"28":0.01070760729425549,"29":0.00986353698311452,"30":-0.044295591740652736,"31":-0.21500221412986031,"32":-0.3661707632701952,"33":-0.23511139595949143,"34":-0.07745639119714336,"35":-0.14376704257475686,"36":-0.12999384773709666,"37":0.1052540552946898,"38":-0.07178609312256609,"39":-0.47924903775518674,"40":-0.14543633697154892,"41":-0.131070080891799,"42":-0.32420441309531767,"43":-0.11439760847236073,"44":-0.15224408677015216,"45":-0.06051240717285918,"46":0.01400978594438456,"47":-0.08987629605286847,"48":-0.23601165654593254,"49":-0.08347408159987228,"50":-0.07708060451337166,"51":-0.19083994998277057,"52":-0.05761715354991253,"53":0.04793271745930945,"54":0.013112492641528565,"55":-0.36664145992348735,"56":-0.24137347834454578,"57":-0.03324071526076492,"58":-0.21001762933700924,"59":-0.06658901638754952,"60":-0.12327730772476592,"61":-0.039743979435823945,"62":-0.02903379263974879,"63":-0.025139348436360825,"64":0.13192837400679153,"65":0.15246371415235652,"66":0.19254467844862272,"67":-0.1507254276918898,"68":-0.05143275528250523,"69":-0.13552588212837752,"70":0.1557880114480141,"71":-0.3397908557759576,"72":-0.012890121178935772,"73":-0.13123655012952531,"74":-0.13415598861930902,"75":0.07826566987568051,"76":-0.2351514789484613,"77":0.10568457458410493,"78":-0.0067731291808140765,"79":-0.19389583304226038,"80":-0.18499198707577238,"81":0.3077434607463275,"82":0.15047645069359747,"83":0.14388005914176077,"84":-0.01584310269109103,"85":0.18742431285084027,"86":0.16362026027359583,"87":0.12419039942196446,"88":0.09438599035248806,"89":0.10323053007900945,"90":0.06422494629578843,"91":0.08119877710352305,"92":0.22705130712376173,"93":-0.08664471685846718,"94":0.029403166504524302,"95":-0.17560511752938368,"96":-0.024891046815882015,"97":0.08241304460619686,"98":0.289320177367113,"99":0.05152617938950611,"100":-0.036514069563523474,"101":0.11420088842337965,"102":0.2092592459364667,"103":0.22748969284828977,"104":0.32704336916327026,"105":0.15902098069293077,"106":-0.04439908610559764,"107":-0.13681527293384887,"108":0.09379302195559175,"109":-0.04298703127945105,"110":-0.2958681713413246,"111":-0.3101099069383282,"112":-0.4760696473137587,"113":-0.37357860296708234,"114":0.05874411669462651,"115":-0.05475899763208387,"116":-0.12943397898043177,"117":0.041825769309798526,"118":-0.23828735928654737,"119":0.10772214953528156,"120":-0.04514225496506897,"121":-0.08191886125798063,"122":-0.2169879587540183,"123":-0.07318962660825766,"124":-0.06905548642785822,"125":0.03133969435660085,"126":-0.14743101940962278,"127":-0.024634999169562966,"128":-0.5295732997719176,"129":0.28213920712609447,"130":-0.21233170287196582,"131":-0.18977251381946433,"132":-0.19078992774078368,"133":0.031218782089288875,"134":-0.15864600663516365,"135":0.21596117641247567,"136":-0.30424885804284224,"137":0.007832662069307548,"138":-0.38085977476897054,"139":0.0729231323575201,"140":-0.20822988854260635,"141":0.04068011447901684,"142":0.0016585633746347295,"143":0.10237354548878831,"144":0.11804751755796998,"145":0.3271269796588439,"146":-0.0862812753796592,"147":-0.13413594746286586,"148":-0.07249420583346133,"149":-0.05783929790187512,"150":0.07713636706506456,"151":0.20401797772421934,"152":0.0775417757265621,"153":-0.0773474104533191,"154":-0.31485854196713003,"155":0.16661544465722522,"156":-0.07505400105050182,"157":0.1653222615659428,"158":-0.037576344543997234,"159":-0.13424420145238058,"160":-0.1612211784449171,"161":0.07759022801429474,"162":-0.1173629082156155,"163":-0.008189669904803555,"164":0.07579876392315811,"165":0.23841436170299132,"166":-0.23755601569750903,"167":0.024381080709206027,"168":0.10228572523218052,"169":0.20421227143407158,"170":-0.14426025030085626,"171":-0.2274615631399109,"172":-0.04340658742244063,"173":-0.24622011451523054,"174":0.2739725576733001,"175":-0.12571295099913102,"176":0.09010642939310134,"177":0.4453025205414146,"178":0.032283362861659386,"179":-0.054892143706407395,"180":-0.0793847757390218,"181":0.1307168984851386,"182":0.05755187247236868,