{"layers":[{"out_depth":3,"out_sx":32,"out_sy":32,"layer_type":"input"},{"sx":5,"sy":5,"stride":1,"in_depth":3,"out_depth":16,"out_sx":32,"out_sy":32,"layer_type":"conv","l1_decay_mul":0,"l2_decay_mul":1,"pad":2,"filters":[{"sx":5,"sy":5,"depth":3,"w":{"0":0.19929783434065923,"1":0.10343111781310921,"2":-0.024121217286109838,"3":0.0897492453300823,"4":0.1711416979919477,"5":0.0332159055768169,"6":-0.23643761384690676,"7":-0.3363727191404742,"8":-0.2223368576939101,"9":-0.10773413353953389,"10":-0.12092460637945576,"11":-0.18779848577399844,"12":-0.43831042525520136,"13":-0.2472649369763506,"14":-0.0013008426700202357,"15":0.01678713886141902,"16":0.019969120572093647,"17":0.006230136312694559,"18":-0.24041167457142198,"19":-0.19743924196787174,"20":-0.22001087625890545,"21":-0.13088594323691585,"22":-0.177705432087,"23":0.028750278018232406,"24":0.1340046254415047,"25":0.07929662847914758,"26":0.006884675926167957,"27":0.01676869433637316,"28":-0.2969731890842713,"29":-0.05123163275266399,"30":0.03490664497647334,"31":-0.11250313004663898,"32":0.12447047264499486,"33":0.02948040388505922,"34":-0.19791668235761906,"35":-0.012116816008864703,"36":0.04086239175027117,"37":0.07592141637988226,"38":0.05177199205385915,"39":0.005185366655664214,"40":0.07005288060817813,"41":0.10927873073559055,"42":0.17439157463158764,"43":0.03536449811175445,"44":0.0758731396898781,"45":-0.06401501343245676,"46":0.058978942822713015,"47":0.06867988066860184,"48":-0.1413478800526616,"49":-0.3770226253525807,"50":-0.2924979356154885,"51":-0.23581557872132283,"52":-0.28501515929237603,"53":-0.3363650236702032,"54":-0.045471455466010544,"55":0.0978714471871008,"56":-0.05641446236982025,"57":0.0011009513066889188,"58":0.2847257248093901,"59":0.19322247759775135,"60":0.10274436281102262,"61":0.14016427518040114,"62":0.37518912926755005,"63":-0.28834294779726516,"64":-0.0483267555539309,"65":0.06542926062173159,"66":0.04254406582007232,"67":0.0354165795906273,"68":-0.17108007798544514,"69":0.0995031577313495,"70":0.1446257912722223,"71":0.21376211598223496,"72":0.0845746669991869,"73":-0.31542548851106356,"74":0.05993527004916645}},{"sx":5,"sy":5,"depth":3,"w":{"0":-0.18893144763715858,"1":-0.2263289668149742,"2":-0.00043090553631041555,"3":0.06019452092048715,"4":0.3657550019614879,"5":0.25329810753047177,"6":0.2275038907650535,"7":0.1488868686772743,"8":0.11258602594422226,"9":-0.039483150318668093,"10":-0.10106556670006517,"11":-0.0377965543701408,"12":-0.2853722724487049,"13":-0.23081576988579408,"14":-0.195239987363032,"15":-0.2971108971227054,"16":0.08388620582117158,"17":-0.08050211731115675,"18":0.17859809357142833,"19":-0.09053097115807243,"20":0.06398287003484675,"21":0.16168295878812713,"22":0.3112427625548186,"23":0.1808161240714306,"24":0.15833844182713,"25":0.3104659753879336,"26":-0.09538422556299611,"27":-0.23586242617085987,"28":-0.3384723358029427,"29":-0.29752859667736276,"30":-0.16327823668661137,"31":-0.20158630160820082,"32":-0.35618263564052105,"33":0.1131942793945831,"34":0.07424547717729302,"35":-0.035463384463121105,"36":0.02832585871057366,"37":-0.0775467287341308,"38":-0.08135280104081626,"39":0.2286843632785434,"40":0.0038392164883702317,"41":0.17845003521940084,"42":-0.23476203459452122,"43":-0.2601244967646324,"44":-0.36348982110476047,"45":-0.3104527797658679,"46":-0.002694504143117803,"47":-0.021331138902278977,"48":0.13222148867721226,"49":0.1257179978589013,"50":-0.04051637649485702,"51":-0.013327854349987235,"52":0.00042414746283562946,"53":0.007828990464051836,"54":0.08577044111563316,"55":0.1976959398583335,"56":-0.14176676936396498,"57":-0.08900686985863013,"58":-0.07019001559404846,"59":-0.016967409439275702,"60":-0.3942136828028535,"61":-0.19029639104808563,"62":-0.3823954530670064,"63":0.06331030519667762,"64":-0.10952244675685474,"65":-0.318995184305705,"66":-0.339952379964532,"67":-0.20597867091768074,"68":0.09787761455011434,"69":-0.16148338484475244,"70":0.036948038469472366,"71":0.03343729196203846,"72":-0.13703653492476733,"73":-0.1364246115045563,"74":0.029877973649708414}},{"sx":5,"sy":5,"depth":3,"w":{"0":0.013363393707881248,"1":-0.08711693735655762,"2":0.025719585507568875,"3":-0.05233609956231645,"4":-0.19440708533252338,"5":-0.05780366710132991,"6":-0.1687546096237011,"7":0.08949542641848449,"8":-0.12056407014771416,"9":0.16170942360705304,"10":0.15116597384471755,"11":0.09785254309382045,"12":-0.31590476802008854,"13":-0.09373307671502965,"14":-0.02812007552250029,"15":-0.09628607591402831,"16":0.2368983072928914,"17":0.09703050248366817,"18":0.14261227614609093,"19":-0.03653744361462309,"20":-0.10990552383333704,"21":-0.16430418567248592,"22":0.03537019119108883,"23":-0.24059164431386787,"24":-0.007722970037295858,"25":0.12474651548251264,"26":-0.043880194292621626,"27":-0.1840700937107825,"28":-0.2197606948284099,"29":-0.12157115674576029,"30":-0.22339441651614753,"31":-0.21344311027131635,"32":-0.2691002170755323,"33":-0.31577723962799836,"34":-0.06405771977211071,"35":-0.063370953193389,"36":-0.3583673762744296,"37":-0.33453171165026674,"38":-0.0582337453515935,"39":0.0831809326496571,"40":0.026186407315125327,"41":-0.07410696663089365,"42":-0.09413677272371464,"43":0.09226969266230058,"44":0.019865330495175422,"45":-0.012151712092015474,"46":0.0956623815667694,"47":-0.10836351895748958,"48":0.150315590292661,"49":0.1532500180631618,"50":0.1799984407123536,"51":0.01417217456502465,"52":-0.3115329678243861,"53":-0.20047413990122298,"54":0.3124066561045338,"55":0.17442690671194647,"56":0.09533853860139026,"57":0.1796636815694198,"58":0.1514855199357799,"59":0.19486065865350433,"60":0.12856934841117618,"61":-0.03401752411744843,"62":0.18141053914252095,"63":0.00843115593874235,"64":0.08808733431734758,"65":-0.011844360225446262,"66":-0.14513982988478932,"67":-0.10136294200902089,"68":-0.03328148260166044,"69":0.3347913107229025,"70":0.19761618736876696,"71":0.027704115977170707,"72":0.15869114627537223,"73":0.07562014079397776,"74":0.168150576316861}},{"sx":5,"sy":5,"depth":3,"w":{"0":-0.3349597179108642,"1":-0.3218251921536547,"2":-0.4778326264560119,"3":-0.20886745325623057,"4":-0.31902332126677524,"5":-0.13941462348563466,"6":-0.03593801080621088,"7":-0.026946875199234405,"8":0.016294965413023575,"9":0.3218587792015375,"10":0.3609134211608663,"11":0.4016769816599471,"12":0.164985966485267,"13":-0.004061003978006262,"14":-0.01185792747411995,"15":0.25209243559868444,"16":-0.022275777167668088,"17":0.07223495366778693,"18":-0.10540173624934332,"19":-0.06944711560231784,"20":-0.07016500189850713,"21":-0.3856563679351837,"22":-0.3872738382369475,"23":-0.0630964059149242,"24":0.17286405761220366,"25":-0.013142749979739677,"26":0.03852820218178479,"27":0.12495694014903258,"28":-0.00255721564067144,"29":0.3363102410356771,"30":-0.02028878399927506,"31":0.19458162279423508,"32":0.16496059857052342,"33":0.31354567063324584,"34":0.522675363493155,"35":0.09950313894981958,"36":-0.21084298614481292,"37":-0.2070984189826814,"38":-0.32356651385644536,"39":-0.3213073703778916,"40":-0.3114750354785631,"41":-0.13816301110643556,"42":-0.0697682935531882,"43":0.1914045308452076,"44":0.06949271098388429,"45":-0.12546774566561145,"46":-0.022626522258045734,"47":0.2739830985056763,"48":0.22897751122588123,"49":0.12962064911530521,"50":-0.14306543648188474,"51":0.029840842941185667,"52":0.29210077176698895,"53":0.23026626110559714,"54":-0.34684648591601736,"55":-0.39909984443324414,"56":-0.32163696029850203,"57":-0.0764458341381008,"58":-0.009224241566269666,"59":-0.07667717526644102,"60":0.14699504548718068,"61":0.17675877353477115,"62":0.0929510292670068,"63":-0.024997841944283516,"64":-0.061497159036480335,"65":-0.0644855755462589,"66":0.2506084823625707,"67":0.2475927266047616,"68":0.23643120079447819,"69":0.04322287543980929,"70":-0.016383266851760246,"71":-0.0037326836063182,"72":-0.38616480990199914,"73":-0.44242467882118075,"74":-0.2741350468430184}},{"sx":5,"sy":5,"depth":3,"w":{"0":-0.15811464690498667,"1":0.10314558040739681,"2":-0.08376177881164557,"3":-0.070029216525917,"4":0.1565226060523577,"5":-0.0698995134763012,"6":-0.12879662821024726,"7":-0.16320648892014725,"8":0.05793223495133224,"9":-0.04533940911824832,"10":-0.11475283654121836,"11":-0.04927271988186386,"12":-0.0672371474503887,"13":0.09026638419503577,"14":-0.028750907701209874,"15":-0.06874931738777748,"16":0.11374202541337987,"17":-0.12372440215227104,"18":-0.06252780933832403,"19":0.0694026287137015,"20":0.05610720356552541,"21":-0.051390014867279815,"22":-0.03955561699047784,"23":-0.11630389542266968,"24":-0.12927019107056112,"25":0.011957834548621146,"26":-0.203533869415413,"27":-0.2840338765701146,"28":-0.15985253074471176,"29":0.03544006130791056,"30":0.14489193325567779,"31":0.014233935114503344,"32":-0.0019093392702574142,"33":0.06444755664737468,"34":-0.012523435774146075,"35":0.1813733420943534,"36":0.08336892734535581,"37":0.18046709810315528,"38":0.13027375152514076,"39":0.1149908726346772,"40":0.21397409767008294,"41":0.06777911955976543,"42":0.19013524606496737,"43":0.059422029817096586,"44":0.06731721264553928,"45":-0.12848743308186067,"46":0.22144607625121432,"47":0.03334968269609504,"48":0.11295503455978861,"49":-0.18785759893376275,"50":-0.11670339687315268,"51":-0.12518338847756488,"52":0.08184718145719098,"53":-0.020885866132277216,"54":0.008032022224455072,"55":-0.0853861000245193,"56":-0.02315225768199306,"57":-0.21248157126511227,"58":-0.033938724721639196,"59":0.0015492625126004218,"60":0.18696192489591112,"61":0.10570991394671102,"62":0.11783547402478758,"63":-0.09160167985895944,"64":-0.013264803373986367,"65":-0.1904137639219611,"66":0.12416740231909838,"67":-0.15717390692454855,"68":-0.11526083012938812,"69":-0.15042643762636862,"70":-0.2380003198273285,"71":-0.002437364507760337,"72":-0.11297496327461372,"73":0.19500019862915022,"74":0.0005555687614676328}},{"sx":5,"sy":5,"depth":3,"w":{"0":-0.4006565589554187,"1":-0.022984277148716144,"2":-0.1865021291724149,"3":-0.13271538665945137,"4":-0.05433644335736225,"5":-0.35437433753167535,"6":0.18647461616042726,"7":0.22900766680490287,"8":-0.08729605686020568,"9":-0.24032328667090314,"10":0.0532098128525446,"11":-0.06829510353491122,"12":0.19737602386621744,"13":0.276961753181918,"14":0.17333376322830704,"15":-0.005139325828175754,"16":-0.11343888442567066,"17":0.03650381768264308,"18":-0.22662957284263957,"19":-0.23763915196776586,"20":-0.2510758678793797,"21":0.054675502906229065,"22":-0.01620044245518458,"23":0.1625809974826033,"24":0.15612999568021368,"25":0.2527076812047616,"26":0.17627397129645037,"27":0.2736969660528263,"28":0.07962439883664373,"29":0.1683071983366853,"30":-0.077447108083371,"31":-0.18662959661601303,"32":0.053530808148948575,"33":-0.13420349555536176,"34":-0.13523254955812095,"35":0.005744867392160207,"36":-0.14919915781005078,"37":0.0624643257874597,"38":0.021570798536809172,"39":0.08234934373376054,"40":-0.022702495872208826,"41":0.015407472376029258,"42":0.019442725572940578,"43":0.19023681012802823,"44":-0.07024081609588217,"45":-0.28448456392162136,"46":-0.26092608742648843,"47":-0.3380111714801828,"48":0.2733509725078284,"49":0.029093598946719715,"50":0.029472519726248404,"51":-0.276144957012461,"52":-0.20629079614069942,"53":-0.266416721481338,"54":-0.29932360840790845,"55":-0.016664526182228412,"56":-0.17220866766139087,"57":-0.0454449688214559,"58":-0.24823492037832698,"59":-0.2770046090455629,"60":0.14549003466802649,"61":-0.16210348888732118,"62":0.0293607872826843,"63":0.3503438949189957,"64":0.3420365580941858,"65":0.27352511439486005,"66":0.08914193423198484,"67":0.018044664786528043,"68":-0.07313299866250698,"69":0.04567799981873506,"70":0.08048657015577847,"71":0.19474705528683228,"72":0.21084870655607027,"73":0.22695319894920582,"74":0.21528721530411768}},{"sx":5,"sy":5,"depth":3,"w":{"0":-0.056838724704853474,"1":-0.2804930163074895,"2":-0.09195202530453654,"3":-0.16108367681230856,"4":0.056801247181250306,"5":0.008862042444928287,"6":-0.07230157718999497,"7":0.01660581550460166,"8":-0.1871877266469467,"9":-0.07039221145921845,"10":-0.11404868738074316,"11":-0.21911663049228486,"12":-0.052603493467697986,"13":0.011141148463735533,"14":0.023513526480047887,"15":0.09430026710785062,"16":-0.19966092195181537,"17":0.06279786058047314,"18":-0.07712509813371354,"19":0.017025289454529725,"20":-0.02585093867112678,"21":-0.05061335860598934,"22":-0.11526326376435204,"23":0.05617607635965515,"24":0.31727379847478177,"25":0.14886632933321817,"26":-0.26142157120601067,"27":0.015998441166225702,"28":0.09171904756559635,"29":0.13800684227857157,"30":-0.4247799626078474,"31":-0.23992854202116193,"32":-0.3885857806055618,"33":0.18675509100853196,"34":0.07417831887538283,"35":0.2066825221670908,"36":-0.0021849161198675892,"37":0.17189301261146464,"38":0.15216658232262836,"39":0.14290122714843748,"40":-0.021214417167155133,"41":0.0954444150958232,"42":-0.20491807074303092,"43":0.02442177269373058,"44":0.08484605500565845,"45":0.07909186401844608,"46":-0.29244725276601513,"47":-0.19849958990950292,"48":0.17092395959965576,"49":0.07430733489666028,"50":0.19655643265799738,"51":-0.008723842192133744,"52":0.0837374129723966,"53":-0.03457893781629579,"54":0.17851372401549004,"55":0.004083949631768582,"56":-0.013673297426495186,"57":0.12420868919518115,"58":-0.08271180790312813,"59":-0.04550581578812162,"60":-0.010545960421381157,"61":-0.0552372488922172,"62":-0.09650777233743314,"63":-0.07117376017413388,"64":0.20339397500725784,"65":-0.05450709632823911,"66":-0.03944857420308287,"67":0.17918503241538555,"68":0.16025674419213934,"69":0.015516542897562416,"70":0.0877615424354245,"71":0.12389582915183583,"72":-0.06126651195766364,"73":0.017622966331383105,"74":0.01642478042059983}},{"sx":5,"sy":5,"depth":3,"w":{"0":0.3930231939333802,"1":0.44912452202328396,"2":0.31705895297661363,"3":-0.07834883549720098,"4":0.12945569002417007,"5":0.1003942064039106,"6":0.11966588938907036,"7":0.09096695721893955,"8":0.2560660476977308,"9":0.13262325688935717,"10":-0.10814650286345584,"11":0.002833470105488861,"12":-0.048926291079203134,"13":-0.16098183574993835,"14":-0.032459555483276566,"15":0.3153774284469827,"16":0.26064065047266377,"17":0.3736750430449902,"18":0.14947833745157635,"19":-0.005914768947465532,"20":-0.24172835218385688,"21":-0.12388265813979038,"22":-0.4285229290821155,"23":-0.20246716531958756,"24":-0.2626674863698709,"25":-0.23230151302879468,"26":-0.24863001149032274,"27":-0.22063629631812529,"28":-0.053867508752380125,"29":-0.18684446452784204,"30":0.28177356703415823,"31":0.060741832886986764,"32":0.12220210315632998,"33":-0.3115602822702666,"34":-0.27919586085837333,"35":-0.3675005682974128,"36":-0.1375420026431012,"37":-0.29059900164866914,"38":-0.311735461727249,"39":0.04508332709854033,"40":-0.056646733834655315,"41":0.026764374526993085,"42":0.17604895216854927,"43":-0.0096278760172047,"44":0.1728860574789976,"45":-0.09277551067688351,"46":-0.1771663166694255,"47":-0.033531562160800193,"48":-0.102258975258037,"49":-0.20820105993511448,"50":0.008605883645513368,"51":-0.1954904545751068,"52":-0.12070539977370809,"53":0.0966459969451372,"54":0.07484059153893065,"55":0.20198182043289756,"56":-0.07359287563526747,"57":0.08904870225644439,"58":-0.20436613911447454,"59":0.007585117174842674,"60":-0.03852269517255648,"61":-0.2847143826457218,"62":0.23938619375216696,"63":-0.05584704209211803,"64":-0.2033848131258037,"65":0.15908478779666527,"66":0.2597794309146072,"67":0.08795712350817987,"68":-0.03516251841219746,"69":0.04395550295908716,"70":0.09790967786267601,"71":0.08033354538821964,"72":0.20327323794011223,"73":0.053881305700217166,"74":0.07799759065172651}},{"sx":5,"sy":5,"depth":3,"w":{"0":0.06944672232612724,"1":0.18808027480756714,"2":0.14570740312009722,"3":0.13931934734387444,"4":0.23491112187670138,"5":0.16491426936290046,"6":-0.4896482700069048,"7":-0.22662228634119827,"8":-0.5288466850680443,"9":0.17250730335267286,"10":0.03966076739807408,"11":-0.030277614979155005,"12":0.03322726087818875,"13":0.04044592842537521,"14":-0.13775790886079975,"15":-0.08060780668388265,"16":0.07774771845593292,"17":-0.01953230690877139,"18":0.18900341150487907,"19":0.14562567837936322,"20":0.12501000625345374,"21":-0.40289646907067245,"22":-0.48181105612355946,"23":-0.3002058043810287,"24":0.062481046157963425,"25":0.19078857013916925,"26":0.17916828083727052,"27":-0.008230123790477113,"28":0.015111404525547227,"29":0.13915663010547105,"30":0.1111424920523703,"31":-0.09417649379451862,"32":-0.020997539332707323,"33":0.007125682103489897,"34":-0.2464830816320541,"35":-0.09024941480019263,"36":-0.24589119142091526,"37":-0.32710128896579,"38":-0.19327934883959597,"39":0.17619736919278498,"40":0.020263951638650052,"41":0.35448047347790973,"42":0.2566065560431133,"43":0.17665670339203257,"44":0.07478871855566194,"45":0.03398752811843318,"46":0.10287200332188134,"47":-0.03203047011560928,"48":0.10318255300270567,"49":-0.06751438369968657,"50":0.11979300816371319,"51":-0.15182616911940608,"52":-0.12367500227484973,"53":-0.39860614687042534,"54":-0.034323786909636375,"55":-0.027755405141808746,"56":-0.06893886218856068,"57":0.2764327303261581,"58":0.22239709877376346,"59":0.02808330152422884,"60":-0.10634585492181708,"61":0.17528881633312007,"62":-0.04978404897899124,"63":-0.17158676526212932,"64":0.03877870659400335,"65":-0.07051312907865233,"66":0.11256905238646447,"67":0.16797573160133134,"68":-0.029344862632735495,"69":-0.030922889009723845,"70":-0.24557421588277806,"71":-0.040123982866306446,"72":-0.04833019080153064,"73":0.17085236334810874,"74":-0.019032077079266903}},{"sx":5,"sy":5,"depth":3,"w":{"0":-0.021343666535145956,"1":-0.06080222649164909,"2":-0.14986043178849082,"3":0.03810926799514951,"4":-0.1470718321055767,"5":-0.10580045041224628,"6":0.014685668810287147,"7":-0.1197961681265829,"8":-0.15124277539620967,"9":-0.030716286123607356,"10":0.12018410187223676,"11":-0.012840442513743536,"12":-0.13141242342587353,"13":-0.022660707414962497,"14":0.10003471696677034,"15":0.18694551003183393,"16":0.0644959498796042,"17":-0.03575364568361748,"18":0.0017686859221330263,"19":0.010847497421604636,"20":-0.13550726062614418,"21":0.1251348282822512,"22":-0.0014252262582954442,"23":0.07641338476819026,"24":0.11309464598732878,"25":-0.14524909478680675,"26":0.010720086498287795,"27":0.08156463310761725,"28":0.03346934244442581,"29":-0.0457495538808458,"30":-0.2829548383990872,"31":-0.07374724919938817,"32":-0.12674981458457538,"33":-0.24482709257570895,"34":-0.1993889354273197,"35":-0.16967677556546187,"36":-0.20359994493516276,"37":0.06542831596471428,"38":-0.03652737689649788,"39":-0.10475591786049358,"40":-0.2770812050666319,"41":-0.2692203872484484,"42":-0.15722031884611032,"43":-0.0919714156445658,"44":0.1704572975600067,"45":0.19732117145468486,"46":0.067014718243525,"47":0.023065070867563032,"48":0.021222095387010424,"49":0.03102110131360925,"50":-0.07050571181945176,"51":0.15460786512306793,"52":-0.05212907217774734,"53":0.0805679442375142,"54":0.1800056572542312,"55":-0.14581221659516427,"56":0.06888927280210123,"57":0.08712673765917178,"58":-0.012939620293117828,"59":-0.04410303904578353,"60":0.11585519297300566,"61":-0.00810608531567471,"62":-0.07223957423772163,"63":0.0039023430997147204,"64":-0.2680257659567862,"65":-0.18977468543508527,"66":-0.006890888720678601,"67":0.05043669190433755,"68":0.025681889946796467,"69":-0.03474451314286721,"70":-0.14540279393766722,"71":-0.05870185550125563,"72":0.08199788848706956,"73":-0.20268502859904358,"74":-0.02574941104277489}},{"sx":5,"sy":5,"depth":3,"w":{"0":-0.0052863255581495775,"1":-0.018052380068207707,"2":0.08334114797894189,"3":-0.17715511034390902,"4":-0.021795774823821355,"5":-0.14552535911307282,"6":-0.21413481633142759,"7":-0.13844076397081231,"8":-0.46117999638447954,"9":-0.05535847719950141,"10":-0.2855575937929599,"11":-0.31929954552535855,"12":-0.04589414667943246,"13":-0.10487874189139096,"14":-0.1894678615309396,"15":0.019363052599009275,"16":-0.07914939269492295,"17":0.024390365175577872,"18":0.10657675566340524,"19":-0.10474822746173115,"20":0.008232348328001756,"21":-0.12163408004187504,"22":-0.09151941565833539,"23":-0.2952052199755422,"24":-0.17198017191778175,"25":-0.16301245522843455,"26":-0.09872055706562242,"27":-0.08035598771491262,"28":0.08615672428947564,"29":-0.1444497652635671,"30":0.026812838386976817,"31":-0.13007289145608905,"32":-0.13573510430280447,"33":-0.061238083495388125,"34":-0.07156653213509083,"35":-0.19676338303045326,"36":-0.04933297369281723,"37":-0.27308244500727513,"38":-0.16072266431973592,"39":-0.12566011933899096,"40":-0.26618373048976307,"41":-0.12726894115169654,"42":-0.2852016589420627,"43":-0.18579276079300272,"44":-0.31707737053583335,"45":-0.19640786371472765,"46":0.02390459833325328,"47":-0.27798294778463656,"48":-0.02771316427201183,"49":0.08383197894509274,"50":-0.1455828037990543,"51":-0.05320943214562512,"52":-0.0830372111841756,"53":-0.027830501890572297,"54":0.09934819274145361,"55":0.042466596542730446,"56":0.022965120554907778,"57":0.0707145807884663,"58":-0.14303177764210862,"59":-0.26787093604566653,"60":-0.2693337292856086,"61":-0.08344227911888835,"62":-0.23118682920412992,"63":0.0000459312845555299,"64":-0.062107764053294025,"65":-0.1935091333209953,"66":-0.13970103017381363,"67":0.026657180115943743,"68":-0.10777620421541444,"69":-0.01250792342217806,"70":-0.13407688674259707,"71":-0.23152691674976186,"72":-0.2573100924426544,"73":-0.29712437553473237,"74":-0.04874750430436131}},{"sx":5,"sy":5,"depth":3,"w":{"0":0.2255968799326991,"1":0.061083598214164564,"2":0.3198545075765786,"3":0.12197672552122682,"4":0.2802881466999648,"5":0.25238555908808746,"6":0.2051848001134118,"7":0.10130437359433477,"8":-0.05489850410995515,"9":0.16363610567506037,"10":0.1651806956822158,"11":0.125982195224648,"12":-0.0043720172723102,"13":0.14404540568543886,"14":0.18453977585399126,"15":-0.047464270252599514,"16":-0.26721714331192026,"17":-0.2828657630351293,"18":0.0825475556531199,"19":0.014266261383218834,"20":0.004465744436859244,"21":0.06483151606477111,"22":-0.05370421625108862,"23":-0.08416134833517044,"24":-0.12581621864477896,"25":0.1791228133394987,"26":0.09567715437899177,"27":0.2358585629844056,"28":0.1751975920100393,"29":0.15686293455521538,"30":-0.34433143541080147,"31":-0.23337868231813277,"32":-0.23268257564038974,"33":-0.17847650583117802,"34":-0.314507601276157,"35":-0.4061380353410713,"36":-0.14394963704318792,"37":-0.16892590958681775,"38":-0.3380933934577707,"39":-0.1372991799892582,"40":-0.3137727756807724,"41":-0.24007380347350346,"42":-0.12335756809737897,"43":0.05549378358927767,"44":0.07940717739635489,"45":0.05628384780012787,"46":0.2721253512379485,"47":0.13202703869620627,"48":0.03539359696707977,"49":0.06934347756690208,"50":0.06805585745631164,"51":-0.2559029231104091,"52":0.2946984449959717,"53":0.08940516269983702,"54":-0.22302894855041563,"55":-0.045726256083683144,"56":-0.23087936686771496,"57":-0.14024901545079313,"58":-0.06263987407134086,"59":-0.14550739437304538,"60":0.2137895545799903,"61":-0.012447376830696657,"62":-0.08641139116507729,"63":0.3163031945033032,"64":0.07433634239306869,"65":0.04550377648137286,"66":0.12115731846944837,"67":0.12472924130518745,"68":-0.28193662218421445,"69":-0.003088226480135735,"70":-0.06756799515214862,"71":-0.31789110797712933,"72":-0.001209854923735952,"73":-0.05898539643669987,"74":-0.15130318925467512}},{"sx":5,"sy":5,"depth":3,"w":{"0":-0.12062647301242319,"1":-0.13201229443524204,"2":-0.08138547431605651,"3":-0.03719964838042195,"4":0.10063443646734756,"5":0.04712967815590473,"6":-0.033659758434696124,"7":0.09978993295177885,"8":-0.11867295212842469,"9":-0.17555277973454245,"10":-0.2319265844454078,"11":-0.10813190089456244,"12":-0.11302348094685041,"13":-0.10868251179707798,"14":0.02339950954183245,"15":0.12214663526449941,"16":0.1606481850530938,"17":-0.0031203385713382825,"18":0.11175172524162406,"19":0.1361168759179294,"20":0.13950382165352995,"21":-0.17838029799855282,"22":-0.13080090419525833,"23":0.21210960822081196,"24":-0.09086874098831123,"25":-0.002156756269407302,"26":-0.08834335736158944,"27":-0.5717696298343851,"28":-0.42492731620146135,"29":-0.2934488857091437,"30":-0.12724635485889305,"31":0.008403865937720183,"32":-0.008309106745846626,"33":0.06180714266771292,"34":0.35607780158882674,"35":0.11711515702286068,"36":0.01637697206676783,"37":0.04818271062642431,"38":0.10175685514782663,"39":-0.13028971293329664,"40":0.15701938654729417,"41":0.2780368425167179,"42":-0.0676311170761896,"43":-0.11929862452203142,"44":-0.03818692070675548,"45":-0.06848044183066548,"46":0.15572125940159523,"47":0.09738290571005975,"48":-0.10205403307992919,"49":0.14512815076991367,"50":0.11866419982064029,"51":0.08634472351264168,"52":-0.03656616056128243,"53":0.1723794352604321,"54":0.02090499930141999,"55":-0.08065540557045828,"56":0.12078383945228298,"57":-0.23965906167227505,"58":-0.21724304113928297,"59":-0.019988394858458602,"60":-0.02078486069741904,"61":0.0387600523007251,"62":-0.08940245383033721,"63":-0.04946285018947549,"64":0.10599430069974812,"65":0.06007209951499463,"66":0.016538152739119235,"67":0.11809179068893083,"68":0.18892242266130269,"69":0.22100418718905238,"70":0.2771294934962153,"71":0.05951902157053969,"72":0.09124732815333444,"73":-0.20817963858312974,"74":-0.226717694934936}},{"sx":5,"sy":5,"depth":3,"w":{"0":0.11986641125367171,"1":-0.16796457325343916,"2":-0.22442162513897812,"3":0.12946779952140614,"4":0.09727512386678737,"5":-0.0652044454330614,"6":0.10017685301778136,"7":0.07845351906594619,"8":0.03697315413865603,"9":-0.07341401304907096,"10":-0.06766250803469369,"11":-0.171594054314815,"12":-0.04572879016011541,"13":0.05718753306989381,"14":0.005541876278923038,"15":-0.1669104496912717,"16":0.014095153821412377,"17":-0.08417050425590622,"18":0.057308354525722985,"19":-0.23603672147786822,"20":-0.011164082957766145,"21":0.14134808526339018,"22":-0.08055269814541982,"23":-0.01012041049965423,"24":0.10897691976304338,"25":-0.10851726905761595,"26":-0.19111337304559503,"27":-0.0845631951214967,"28":-0.06297784636766966,"29":0.10282489743633275,"30":0.0004592296681513927,"31":0.10733030255856627,"32":-0.230240077537732,"33":0.05973385942328156,"34":0.04682632375511397,"35":-0.09750178447856428,"36":-0.09395870965460301,"37":0.09132375859865327,"38":-0.05526297620009258,"39":-0.06720977752781092,"40":0.029411042738895228,"41":-0.13161557278483732,"42":0.092473352217073,"43":-0.06300139871390295,"44":-0.02006555884145942,"45":-0.06058319599397596,"46":0.2295096363357409,"47":0.07672054643578036,"48":0.08213724900383222,"49":0.050448709499635695,"50":0.01207462546275298,"51":0.042679546708988124,"52":-0.11867519846752812,"53":-0.05770211456573648,"54":0.21220386585758916,"55":0.17290340231410115,"56":0.09983303235362502,"57":0.0024278552839000814,"58":-0.16165498574680204,"59":-0.038122246973119396,"60":-0.176691926143514,"61":0.003828981132149984,"62":0.037866497628382734,"63":-0.19853620098601776,"64":-0.3549375269297661,"65":-0.04356322477268506,"66":-0.20820134722542205,"67":-0.14524432256582442,"68":-0.1666529802396237,"69":0.15895641380379505,"70":-0.0465263016401133,"71":-0.16818236861907881,"72":-0.05819448129424444,"73":-0.0900788368201451,"74":-0.10284727355245318}},{"sx":5,"sy":5,"depth":3,"w":{"0":-0.0384665764353533,"1":0.014217692502042648,"2":-0.27013880686600705,"3":0.11186900917624137,"4":-0.04723602158932199,"5":0.04906585675857623,"6":-0.05527552579732292,"7":-0.1600263165877354,"8":-0.1859815702426333,"9":0.11492746658558757,"10":0.14459185430928775,"11":-0.037884182714402984,"12":0.17835019692946374,"13":0.12211239136968291,"14":-0.027826694961170125,"15":-0.11606531172907099,"16":-0.21670601009242085,"17":-0.11655853827738862,"18":-0.15327231246375367,"19":-0.2841501618293132,"20":-0.03407228140560159,"21":-0.18200730699957873,"22":-0.17947741145912066,"23":-0.310536840309906,"24":0.1762317744398957,"25":-0.15408765266596253,"26":0.042105362549917535,"27":0.10009005149140075,"28":0.15661601227867125,"29":-0.08827799862334487,"30":-0.21160950278115995,"31":-0.35791183049990494,"32":-0.36195510971848166,"33":-0.0860106732021759,"34":-0.02047930784944936,"35":0.04996878893027361,"36":-0.08009373275869813,"37":-0.03993219824828752,"38":0.0830912765564551,"39":0.009903446166394164,"40":-0.06320406893860307,"41":0.07021109438856132,"42":0.04721081423247646,"43":-0.10356914756344834,"44":-0.03343982952420852,"45":-0.2725659339569872,"46":-0.19325456901772567,"47":-0.3866363769776312,"48":-0.23767273482299003,"49":0.018201294820868057,"50":-0.3699632374435281,"51":-0.19723445841601656,"52":-0.0030314486022997396,"53":-0.03401417037756866,"54":-0.3068189219297889,"55":-0.2590844114554966,"56":-0.11429534187867914,"57":-0.1543093938076912,"58":-0.07604994929780542,"59":0.0032302210971963015,"60":-0.08456355936743791,"61":-0.06738562564820524,"62":-0.06636430110225412,"63":-0.0887311035730668,"64":-0.0033006035571642597,"65":0.12629267939814634,"66":0.1091234769631472,"67":0.23107261945686938,"68":-0.024902894376457665,"69":-0.23956977796812626,"70":0.0550687595481982,"71":0.050798308215630764,"72":-0.47821577230319967,"73":-0.34935030646425186,"74":-0.23482914192153848}},{"sx":5,"sy":5,"depth":3,"w":{"0":0.0023972852083413818,"1":-0.022327349498634852,"2":-0.04623020538865234,"3":0.024859010640205216,"4":0.13710914874540375,"5":0.08337866368244608,"6":-0.07066356792170889,"7":-0.023450204142493544,"8":-0.050712455225788405,"9":-0.30568025492445683,"10":0.01677951250287526,"11":-0.10514115786590897,"12":0.382653758384862,"13":0.3561845295445143,"14":0.2359469636474337,"15":-0.09667505664329058,"16":0.0013098395581822662,"17":-0.14767670833199914,"18":-0.3415678474944135,"19":-0.15192229593762324,"20":-0.05170401431488291,"21":-0.39313198025703344,"22":-0.12458096665388066,"23":-0.4792821274156876,"24":-0.0579093026240565,"25":-0.2493778845027487,"26":-0.1841193095999654,"27":-0.013935100010304891,"28":-0.22626582542611248,"29":0.05678002106784813,"30":-0.11950835770379167,"31":-0.011476969914309212,"32":0.041418080915063285,"33":0.05959227925982917,"34":-0.057068478512864534,"35":-0.09475159159734363,"36":-0.07871840586357594,"37":-0.18005275164922965,"38":-0.12270999006692235,"39":-0.025733279236830345,"40":-0.15406858531808673,"41":-0.24373060445011008,"42":-0.22936260153300353,"43":-0.12247047236656049,"44":-0.24719141293946054,"45":-0.008894520568196949,"46":-0.14833653207228786,"47":-0.12172413312742236,"48":0.07709486587491984,"49":0.4655771645818885,"50":0.06916007072959968,"51":-0.08174674729901901,"52":0.13226470652766414,"53":-0.013289502721489523,"54":-0.07285945505870536,"55":0.09406144212372428,"56":0.04971875258895121,"57":-0.16765519624432465,"58":0.0034148420360412676,"59":-0.1035939583284854,"60":-0.1611094117872915,"61":-0.046614268634628725,"62":-0.09915352534555014,"63":0.16501885852754727,"64":0.12193886197611743,"65":-0.0952443284708651,"66":0.18510463379940315,"67":-0.09295427017035848,"68":0.18553712347448512,"69":0.2334965502535707,"70":0.06152905492654681,"71":0.2798525805633807,"72":0.25302783908194315,"73":0.29962502282694187,"74":0.18754844120855904}}],"biases":{"sx":1,"sy":1,"depth":16,"w":{"0":0.11501143565947541,"1":0.1210365623136945,"2":0.08350990999830689,"3":0.21178838652316917,"4":-0.32554904359137593,"5":0.24319772423192113,"6":0.12302278122305732,"7":0.32357050119383024,"8":0.30933496729891186,"9":0.041017279070437805,"10":0.01549998728508911,"11":0.22681545162480662,"12":0.12942493556142412,"13":-0.2429827806794298,"14":0.049533759931844425,"15":0.11650631901223664}}},{"out_depth":16,"out_sx":32,"out_sy":32,"layer_type":"relu"},{"sx":2,"sy":2,"stride":2,"in_depth":16,"out_depth":16,"out_sx":16,"out_sy":16,"layer_type":"pool","pad":0},{"sx":5,"sy":5,"stride":1,"in_depth":16,"out_depth":20,"out_sx":16,"out_sy":16,"layer_type":"conv","l1_decay_mul":0,"l2_decay_mul":1,"pad":2,"filters":[{"sx":5,"sy":5,"depth":16,"w":{"0":0.0834328537238705,"1":0.11561673967345999,"2":0.04631741930311922,"3":-0.03260085826934446,"4":0.0364987830602049,"5":0.0010845246582478778,"6":0.1962831254333902,"7":0.2409346697949081,"8":0.08533575358960029,"9":0.017624568106348396,"10":0.008061110712083892,"11":-0.3496305352161573,"12":-0.23983484762249435,"13":-0.018839387904247638,"14":-0.15177071629421618,"15":0.16636700785375344,"16":-0.05643732556493338,"17":0.09237680708535241,"18":0.017417765650064556,"19":-0.13991424025251017,"20":-0.043498492133942294,"21":-0.26254520418306165,"22":-0.11975066140639404,"23":0.00037168536160414774,"24":-0.1474137739743075,"25":-0.09297524814169701,"26":-0.08569073156755587,"27":-0.18498535851665945,"28":-0.14234559533543073,"29":-0.110094746176463,"30":0.10698189391437905,"31":0.10809982565002316,"32":0.08745323163064989,"33":-0.1607376208732699,"34":0.014993836971388178,"35":0.08777428034248927,"36":0.051821966821404275,"37":-0.03928425887778074,"38":-0.010976744818512888,"39":-0.23746126487095837,"40":0.006838302662677735,"41":-0.07201831221470262,"42":0.0706239973551733,"43":-0.26031054006743504,"44":0.009262294878108224,"45":-0.011334223279173649,"46":0.035204191345068137,"47":0.058838112217768454,"48":-0.17611255240225318,"49":-0.15947063848515933,"50":-0.1902629834078223,"51":0.2030832090003015,"52":0.12632684893803645,"53":-0.01670591156876571,"54":0.05729499619476528,"55":-0.08142780677159027,"56":0.1873866090913774,"57":-0.1231674433717422,"58":0.1490217354074095,"59":-0.15360680446542527,"60":0.2611904164511948,"61":0.04121492162116904,"62":0.09411185356632788,"63":0.036297951448323,"64":0.148801803240254,"65":-0.008027205528816188,"66":-0.09836504917796375,"67":0.7715315826371169,"68":0.11613940104198886,"69":0.13439098962807722,"70":-0.1278706461385964,"71":0.11539354312331875,"72":0.19702344986875586,"73":0.05813426971923527,"74":0.16074109043774693,"75":0.13824181874785108,"76":0.29291687819399653,"77":-0.00803988465711517,"78":-0.003953408574794504,"79":-0.04085921159486744,"80":0.2024349260951543,"81":-0.12269505535057018,"82":0.021514835467209073,"83":-0.07208073030488181,"84":0.1762581055219589,"85":0.0359775334448328,"86":0.11944989720864795,"87":0.25085313224126576,"88":-0.01297852679025534,"89":-0.09803861534160505,"90":0.006252204217496235,"91":0.06435560864679485,"92":-0.3331711794119884,"93":-0.10761985218503119,"94":-0.143561176597173,"95":0.021673154082886916,"96":-0.0005327923111155153,"97":0.12715456080589355,"98":-0.028581386726381962,"99":-0.15179897730370617,"100":0.009112888131370392,"101":-0.2602942889133863,"102":-0.13706941961349453,"103":-0.22531300805175633,"104":-0.3080690740877288,"105":-0.08194627769551205,"106":0.05321331182447879,"107":-0.015340669976076474,"108":-0.26730801024180695,"109":-0.2198909004104893,"110":0.018750086067522036,"111":-0.0032121751257299385,"112":-0.10416714353021385,"113":-0.11959466771739535,"114":-0.08686077174658992,"115":-0.05757509576960537,"116":-0.06707771575686679,"117":-0.03214678500871773,"118":-0.04825987929501988,"119":-0.1875108999415745,"120":-0.14171443882174783,"121":-0.041027397734656385,"122":-0.02085556465795926,"123":-0.013114274663668914,"124":0.08721528972408267,"125":-0.05148705137143774,"126":-0.05370379666676667,"127":-0.01919803745824607,"128":-0.05375056533312102,"129":-0.2537125034120235,"130":0.014488991481493123,"131":0.1971373477771402,"132":-0.0497276236967517,"133":-0.19085314539484488,"134":-0.20322227823293876,"135":-0.09432918449044986,"136":0.1531013294944931,"137":-0.010429475355566223,"138":-0.07657103723741357,"139":0.07490693833883307,"140":0.21134346326416628,"141":0.009073832360874456,"142":-0.01067521743553627,"143":-0.2229311744081897,"144":0.019771378581242817,"145":-0.15552132054178255,"146":0.0218017169003042,"147":0.352812909754418,"148":-0.003750362768440166,"149":-0.005463832882151018,"150":-0.20230366822282608,"151":0.13289777350595935,"152":0.21488767566381453,"153":0.2445035235533297,"154":0.16075616265822434,"155":0.2934627888475749,"156":0.47560875719061424,"157":0.20688885385998496,"158":-0.05087381884630421,"159":0.004639183852537598,"160":0.030781279378525463,"161":-0.0563337847223226,"162":-0.027161735423747592,"163":0.10075833246467993,"164":-0.024674450263452545,"165":-0.05431548510655197,"166":0.030471949428654707,"167":0.13439601810857416,"168":0.037578204939514866,"169":0.001075123543804006,"170":-0.042851662188142944,"171":-0.04015039067634031,"172":-0.2080942012089823,"173":-0.058795520803630846,"174":-0.0318255722218719,"175":-0.0068592531521,"176":0.03548727814341225,"177":-0.12346806306705932,"178":-0.03681494363040394,"179":-0.12283760935254928,"180":-0.056255178846184715,"181":-0.09030884948452772,"182":-0.20063951042933087,"183":-0.11082026880765088,"184":-0.13546626885001625,"185":-0.1526893820175444,"186":-0.07298322170963759,"187":-0.09063367976999492,"188":-0.26362113777430934,"189":-0.18481275268309322,"190":-0.08206967489254989,"191":0.0631793856239541,"192":0.05396730108940598,"193":-0.031546194724925536,"194":0.00871722953623012,"195":-0.5773788113274938,"196":0.03890087744851098,"197":-0.035811712094543355,"198":0.02137880422302157,"199":-0.27572476678668373,"200":-0.2903547503387101,"201":-0.0377047333971289,"202":-0.18253288315585445,"203":-0.19049419767668951,"204":0.06801248112101388,"205":-0.06098948577621542,"206":-0.2035408899785855,"207":0.004319995891821261,"208":-0.16905490803484935,"209":-0.20934700160959357,"210":0.08463493305783334,"211":-0.046807996855139394,"212":-0.1002528758555842,"213":-0.17021888808676292,"214":-0.054934285771723074,"215":-0.20006389084559423,"216":-0.07011402145562999,"217":-0.07840798783482168,"218":0.021890645055908296,"219":-0.11503332602598682,"220":-0.04583033069755682,"221":-0.05873976016988342,"222":-0.14075090586071137,"223":-0.11495587885665995,"224":0.11356184141582244,"225":0.12915452215237286,"226":0.1112646214859624,"227":0.04205290766159592,"228":-0.0492174958640185,"229":0.0015534788192468909,"230":0.041656986305815956,"231":0.044170053440814934,"232":0.08434324324480348,"233":0.11992803641545328,"234":-0.019955169550615222,"235":-0.11713719924270109,"236":0.385324449647984,"237":0.1326410806953793,"238":-0.008283768961527296,"239":0.10110657515213395,"240":0.06729667266583853,"241":-0.20583108754167329,"242":-0.008439583171723261,"243":-0.11561615195639004,"244":0.09118306191263996,"245":-0.0007779989570767581,"246":-0.03783985597372692,"247":0.12274508670084404,"248":0.10300849749348559,"249":0.05330889393002339,"250":-0.011503231086832495,"251":-0.045893313323019796,"252":-0.12067190399411455,"253":0.018207981642088904,"254":-0.06988004988533492,"255":0.01713093145052707,"256":-0.22437412389044378,"257":-0.05437473721344553,"258":-0.1194324980009641,"259":-0.07092749978532549,"260":-0.06166089838504519,"261":-0.05112911071238843,"262":-0.1406708880921865,"263":-0.2524924662886374,"264":-0.08149366438801954,"265":-0.1580356865356727,"266":-0.06459244108597617,"267":-0.26008418849592796,"268":-0.18448655142981402,"269":0.00466058003921992,"270":-0.09336084024263178,"271":-0.19272512990082552,"272":-0.14485001613811105,"273":0.07131294612343317,"274":-0.15855059178963232,"275":-0.2218669384895446,"276":-0.06411048741246765,"277":0.03271394067238768,"278":0.07858916574375319,"279":-0.325143728827293,"280":-0.20923293886503322,"281":-0.17090042507641018,"282":-0.1580147475786127,"283":-0.25760759817473794,"284":0.10203127952093677,"285":-0.0548309135963598,"286":-0.09890157874045934,"287":-0.15022518742279983,"288":0.0002199451592566674,"289":-0.32415388929301275,"290":0.01669599035943934,"291":-0.10898423322238333,"292":-0.17967076650651367,"293":-0.20014656305369238,"294":-0.16933563880840355,"295":-0.060531588082387844,"296":-0.04904118159267185,"297":-0.14020729911369767,"298":0.06222042560940222,"299":0.051763614009325935,"300":-0.02040134034291024,"301":-0.02342535769471938,"302":0.023638044726400582,"303":-0.20586113963169,"304":0.00816032052053668,"305":-0.10700655211571837,"306":-0.18427634065742007,"307":-0.0286907342645119,"308":0.034091300292833485,"309":0.09665047364379875,"310":0.04005744867197029,"311":0.17868351212051695,"312":-0.0011164998741497684,"313":0.01132237786643749,"314":-0.053699232496990254,"315":-0.031269809305958414,"316":0.07555817501838102,"317":-0.06712393683089027,"318":-0.04300788959704888,"319":-0.06501956947656082,"320":0.14200207845567156,"321":-0.023131174681257142,"322":0.006703510588472948,"323":0.12547415489988614,"324":-0.03747363407856556,"325":0.136192835415275,"326":0.05745678199423143,"327":0.06318163246570974,"328":0.07181077147532523,"329":0.028614038809089058,"330":-0.10748976545126712,"331":0.0755007633094057,"332":-0.04532219893246664,"333":0.05125866838977779,"334":0.05394238845042772,"335":0.06409251533995966,"336":-0.24598947643856153,"337":-0.11682341315165433,"338":-0.17146401050385268,"339":0.04385854153432641,"340":-0.02946561452828993,"341":-0.26563456223689985,"342":-0.06966985038767182,"343":-0.1322829068498914,"344":-0.14468937179785304,"345":0.002501266177750484,"346":-0.16299152771972242,"347":-0.027208672349794263,"348":-0.12875431349954314,"349":0.014169866121060942,"350":-0.08340500847598159,"351":0.10063156414888451,"352":0.016251355221711387,"353":0.0740943816752729,"354":-0.10437476480982856,"355":-0.24487916641278246,"356":-0.048864944667129775,"357":-0.20643549131308667,"358":-0.05410299470816319,"359":-0.1117968018203578,"360":-0.1674544630376742,"361":-0.19839339312945833,"362":-0.187596243463379,"363":-0.13308611253024186,"364":0.09627476182980764,"365":-0.053944364750058656,"366":-0.20542389934716626,"367":-0.012135630532203389,"368":-0.0910153052906968,"369":-0.1653172688290849,"370":0.07458168230874097,"371":-0.11761670893253652,"372":0.002623003228075833,"373":-0.503020648270664,"374":-0.24838050035299553,"375":0.11761837832825918,"376":0.005359704268660311,"377":-0.09262539527702739,"378":-0.07707848341484105,"379":-0.035167993684348045,"380":0.026913049039110418,"381":-0.03829413366257506,"382":-0.04385760020499323,"383":0.055189466983650085,"384":0.056260825093487045,"385":-0.08824409420870186,"386":-0.028937444477673085,"387":-0.12110261844509904,"388":0.13766334067367889,"389":0.050901144926956764,"390":0.06355763986891594,"391":0.28322814229466226,"392":0.07778900459697971,"393":0.16028544897690603,"394":0.07585516333153003,"395":0.07599484532811986,"396":0.011741540148978387,"397":0.07072935560308215,"398":0.014390242209511222,"399":0.1589227843836734}},{"sx":5,"sy":5,"depth":16,"w":{"0":-0.0188913973104883,"1":0.04906355227209308,"2":-0.0069992993266274894,"3":-0.06323310037444042,"4":0.033795905138222886,"5":-0.06778122459363267,"6":-0.03528555711843946,"7":-0.06915422832210008,"8":-0.0809232866713674,"9":0.025691531485788673,"10":-0.01721566838765227,"11":0.005064721022542359,"12":-0.0888855034476873,"13":-0.009878467883810615,"14":-0.020595347014858538,"15":0.025421499926799995,"16":-0.015082850776333331,"17":0.049582397467045014,"18":-0.01422958949801532,"19":-0.014557693453458807,"20":-0.00534723119030465,"21":-0.07286051457534057,"22":-0.02960807554321282,"23":-0.03675262181566221,"24":0.027242503485439218,"25":-0.06951722580942532,"26":0.013514690373390901,"27":-0.05290332276527238,"28":0.0018988240689325117,"29":-0.13039429114068468,"30":-0.036499190457808535,"31":-0.06589771576873509,"32":0.006202651409746231,"33":0.00843284648851599,"34":-0.027075734712850276,"35":-0.0445263067105802,"36":0.023812682857352514,"37":0.006109866459732488,"38":0.015579302735543884,"39":-0.07719956292848752,"40":-0.01973011749887982,"41":0.005733256484651798,"42":-0.07895833602404513,"43":-0.06720887782933249,"44":-0.04108566710524058,"45":-0.144047477062341,"46":0.009174314376971077,"47":-0.015433665014696037,"48":0.003527161526471981,"49":0.046359412159187444,"50":0.013527590954994432,"51":0.037613411761655335,"52":-0.028792829497923746,"53":-0.02093880028025495,"54":-0.005398798648500829,"55":-0.030883491701807216,"56":-0.012520262134498816,"57":-0.05966222583039272,"58":0.014523706333008347,"59":0.019593816645262645,"60":-0.017751238093373853,"61":-0.011730353110708662,"62":-0.014088297249692058,"63":-0.07589805763947757,"64":0.013566169493163164,"65":0.013783147498688562,"66":-0.10988996900037684,"67":-0.09637311084571663,"68":-0.08550404435879777,"69":0.011201925634290774,"70":-0.029784427399347616,"71":-0.016375441068629735,"72":-0.04860700947611812,"73":-0.023737879142744264,"74":-0.031151234995905965,"75":-0.023067316210402082,"76":-0.05651669363799726,"77":0.013591646889678607,"78":0.011136481367202576,"79":0.06572255060668253,"80":0.09907810252019487,"81":-0.05395972432965066,"82":-0.06221900145661744,"83":-0.04181681177287628,"84":-0.008335291892299805,"85":-0.010923284400544938,"86":0.04050843805825325,"87":0.055870508063994635,"88":0.049050782555103624,"89":0.006540785517420319,"90":-0.03721377512326967,"91":-0.0512316000167162,"92":-0.020433615313511445,"93":0.03802564203922521,"94":0.04708078027449299,"95":-0.024687568874326653,"96":0.0004999429686069512,"97":-0.022581950116974118,"98":-0.028633776058297363,"99":-0.056938631579205284,"100":-0.03139224620454469,"101":-0.029575602051208173,"102":0.0338543583421986,"103":-0.012049271415543057,"104":-0.03318943566355107,"105":0.02303367217568793,"106":0.01497913083420367,"107":-0.06199505759009615,"108":-0.031276090086880405,"109":-0.04610321568903147,"110":0.05090694188277378,"111":-0.029885434160853434,"112":0.021636102999008547,"113":-0.04562443015472153,"114":0.038649093715068,"115":-0.10280374796243025,"116":0.017250536027732275,"117":-0.05337173902808943,"118":-0.03423600189717016,"119":0.04827453940916855,"120":-0.009874122567724275,"121":0.06702692857723566,"122":0.0007379798133114196,"123":0.033247311899001396,"124":-0.024803396470601077,"125":0.0399398630350057,"126":0.023322877494067796,"127":-0.04312828319560093,"128":-0.011366339123919359,"129":-0.02453794208563714,"130":-0.04974148446132664,"131":0.07422406550234392,"132":-0.0439576751035914,"133":-0.013881753845498062,"134":-0.032257735529235616,"135":-0.09067950486159436,"136":-0.03206583680590926,"137":0.007083445963223854,"138":0.036737954960096554,"139":-0.0579515465608931,"140":-0.06557896955713784,"141":-0.0732135818572598,"142":0.040538643022497045,"143":-0.050500368975683364,"144":0.024141418983033593,"145":-0.04257081642409702,"146":-0.060888077634228106,"147":0.019919471092698624,"148":-0.08998811594693136,"149":0.040331242985825425,"150":-0.002130890644686021,"151":0.026629690979767563,"152":-0.07694744209420672,"153":-0.00889882067614142,"154":0.012604381370409666,"155":-0.044832596678957386,"156":-0.043744037588633454,"157":-0.09666731622191575,"158":-0.00033170305533574985,"159":0.008557019847002823,"160":0.10478368633811344,"161":-0.0279061558380523,"162":0.0486113286261326,"163":0.015708609892837573,"164":-0.06537922240943055,"165":-0.027221730010428245,"166":-0.00015879970113444463,"167":0.04891620948428045,"168":-0.100966211171547,"169":-0.01917131358391485,"170":-0.025029423082074165,"171":-0.086499308534066,"172":-0.014234922831519382,"173":0.05780445692064158,"174":-0.021820788439677045,"175":-0.004360829383878472,"176":-0.0738262999922482,"177":0.0036230604678231157,"178":-0.04766621231099041,"179":-0.029150349828456587,"180":-0.1259902373179719,"181":-0.029782940787349995,"182":-0.05300612068309263,"183":-0.07163087301579155,"184":0.0731467292387116,"185":0.00801900670574409,"186":-0.1066741775133024,"187":-0.025030729264771796,"188":-0.04128447890896145,"189":-0.029176506163223124,"190":-0.015466737310382006,"191":-0.021607110821762733,"192":-0.07094193095904806,"193":0.06365777041889144,"194":-0.049123588464414586,"195":-0.03679659010693946,"196":-0.005938355329097356,"197":-0.0384910815205885,"198":0.01218078877854649,"199":-0.016743854407073683,"200":-0.002918730905570069,"201":-0.0024792666182218413,"202":0.023818652446790482,"203":-0.026322917734169664,"204":0.024029562125540985,"205":-0.010697057648043438,"206":0.028054955550968475,"207":0.015487807507136391,"208":-0.04754238590751234,"209":-0.005571357190453097,"210":-0.07396738261055762,"211":-0.09656803714521324,"212":0.0021365812847405734,"213":-0.03955958287935145,"214":-0.02290732513092069,"215":0.0436819931536405,"216":-0.009050715974755263,"217":-0.013519006001767336,"218":0.012142254342671042,"219":-0.030882402810384423,"220":0.03463312029755808,"221":-0.06285627216255622,"222":0.028425422919916694,"223":0.039165642864029016,"224":-0.0533961952536342,"225":0.027474427000010737,"226":-0.042445839308717905,"227":-0.05177960265107713,"228":-0.08459624978206819,"229":-0.04576526508113069,"230":-0.0018558704198518372,"231":-0.00202103080126726,"232":0.0005169590190875288,"233":-0.07721344305184623,"234":-0.016030186775590007,"235":-0.013514852997260317,"236":-0.05643391228276671,"237":-0.06663526943971787,"238":-0.019532454461921867,"239":0.0637742920266562,"240":-0.01686542187326456,"241":0.03289304987821481,"242":-0.022148456037567855,"243":-0.05403312722657837,"244":-0.05642455960518619,"245":-0.018950288131858443,"246":-0.0483587976249142,"247":-0.02696946077002149,"248":0.05651353988047641,"249":-0.011811970481611695,"250":-0.024207850867672832,"251":0.012752656827888837,"252":-0.05663464205917905,"253":-0.022434673932238997,"254":0.007970831764970075,"255":0.0007705865298825963,"256":-0.0350137445000566,"257":-0.0394445122757846,"258":-0.1352916819237741,"259":-0.010722847374509787,"260":-0.04806684922741015,"261":0.002886261849571997,"262":-0.02728495319041865,"263":-0.03596995912733905,"264":-0.04594610515061029,"265":0.010692905627090524,"266":-0.046090185010950545,"267":0.023729572232645563,"268":0.02499464234066096,"269":0.02328178576240416,"270":-0.06895016974244966,"271":0.024442252003067523,"272":0.05877552907539926,"273":-0.025624560072287885,"274":0.009457799583376557,"275":0.004377377891725613,"276":-0.04030818350594262,"277":-0.08398647842741397,"278":-0.04596653404709387,"279":0.0014968025238468103,"280":-0.02280353342310592,"281":-0.012702559095051602,"282":0.0770875911611993,"283":-0.014408321362650132,"284":-0.07965318661770926,"285":0.022552623997098363,"286":-0.00375367876663144,"287":0.033297260063952124,"288":-0.018644902503438695,"289":-0.026710586809860663,"290":-0.05741764009731267,"291":0.0091721982383259,"292":-0.048456795948844826,"293":-0.06261896616662681,"294":-0.028996567683783635,"295":0.07369173550228945,"296":-0.02371334295579114,"297":0.004387460510768376,"298":0.021025342144257136,"299":-0.10358541727036118,"300":-0.10429043301224204,"301":-0.04692772575291342,"302":0.02202575928718726,"303":0.02591487087418022,"304":-0.05668107644023101,"305":-0.003803074886350186,"306":-0.0525892048476574,"307":0.01787124640578843,"308":-0.0193468228350599,"309":-0.024850554693285162,"310":-0.03693542917962074,"311":0.039697241549610546,"312":-0.03527757573986782,"313":0.02030432955301522,"314":-0.07753041865983243,"315":0.03464637211735859,"316":-0.08515494941035302,"317":0.01213920027069268,"318":-0.0037952399138499763,"319":0.026405609268566985,"320":0.029576863510547467,"321":-0.014504692175396836,"322":0.02129828910470067,"323":-0.013096129119840262,"324":-0.019635054959428272,"325":-0.023511048846963447,"326":-0.018190627567996526,"327":-0.04001877571312136,"328":0.03654583960500304,"329":-0.06219712080413743,"330":-0.038915983955361895,"331":-0.037594251439308786,"332":-0.00977699868152468,"333":0.02906742274592444,"334":-0.03596131952166108,"335":0.04375535820373925,"336":-0.03687844267265237,"337":-0.07838085218456721,"338":-0.026733748042373866,"339":0.02165923975847818,"340":-0.02210318953264223,"341":-0.06859071390517567,"342":-0.043275567597053664,"343":0.027152241391724848,"344":0.11646910272117056,"345":-0.04406580797848969,"346":0.03807497098012622,"347":0.03477083313082054,"348":-0.037356990667351216,"349":0.03134036756002566,"350":-0.019562951154840892,"351":-0.09439657763100626,"352":0.010431029336991712,"353":0.04413455707922354,"354":-0.0529193027444463,"355":-0.04682099941147209,"356":-0.08405046477156126,"357":-0.011396398061752465,"358":-0.021810858771182735,"359":-0.02165849726580738,"360":-0.026515939486132373,"361":-0.06438005261804623,"362":0.01231772183384658,"363":-0.06549773186939037,"364":-0.018286162166399555,"365":-0.05499906969076,"366":0.06013151850707973,"367":0.015725415590881385,"368":-0.06290584226213905,"369":0.04943465283831475,"370":-0.04096151448875393,"371":-0.03886129462795835,"372":-0.09574806714291707,"373":0.025446234237758485,"374":-0.12034056267257034,"375":-0.0004490365390999217,"376":-0.08379513376702212,"377":-0.018613721692795775,"378":-0.05130821780106104,"379":0.04057982256479578,"380":-0.018242927978467004,"381":0.04028849762952729,"382":-0.00602231815356395,"383":0.031177426436515755,"384":0.026464860158454066,"385":-0.009499093920214806,"386":-0.06987804721478075,"387":-0.024121823781846786,"388":0.025061191660987938,"389":-0.013669995857801017,"390":-0.04925013647206289,"391":-0.05570046930891029,"392":-0.015176711445363911,"393":0.034851947510111905,"394":-0.00612116011444138,"395":-0.016968808553324423,"396":0.05375671055924171,"397":-0.03332236661600697,"398":0.024838395164340093,"399":0.004162429340011683}},{"sx":5,"sy":5,"depth":16,"w":{"0":-0.05424312568940133,"1":-0.02841600852883794,"2":0.11193285379401677,"3":-0.27418899578935435,"4":0.026500461081829567,"5":-0.1604778982008851,"6":0.04669474991535683,"7":0.17401783378887425,"8":-0.0522629136694939,"9":-0.09511690205661574,"10":0.051751228782175016,"11":0.01961688302661356,"12":-0.1680622479906661,"13":-0.10871849000100137,"14":-0.18309694558873316,"15":-0.046756305231250204,"16":-0.1648239748120688,"17":0.048488040202090694,"18":-0.05831158734187757,"19":-0.3816296387208107,"20":-0.03301450032651625,"21":-0.06364845614612702,"22":-0.021360942698898523,"23":0.22659091430900766,"24":-0.1563494640913905,"25":-0.18771440504615544,"26":0.04745195218753441,"27":-0.2402863933103242,"28":-0.15575975800862626,"29":0.036481214450983866,"30":-0.020280645174123924,"31":0.013813371521745596,"32":0.0015742835739995052,"33":-0.11166955977650551,"34":0.07706473196814574,"35":-0.24379724100692834,"36":0.006328279060180233,"37":0.08008710659399307,"38":0.2846143212639098,"39":0.016591100131301252,"40":-0.15616566130878892,"41":0.01729199391447276,"42":-0.06013845453457527,"43":-0.0841954367413785,"44":-0.06292499592053669,"45":-0.03474184312365824,"46":-0.14642749170049107,"47":-0.17162847294492642,"48":-0.2913220199317169,"49":-0.12245654437154621,"50":0.08762289242442832,"51":-0.10529095601290135,"52":-0.01658955508282764,"53":-0.3308989258614788,"54":-0.14177379155054573,"55":-0.2489234502034597,"56":-0.0938328906455178,"57":-0.1356448701529029,"58":-0.16731060207420123,"59":-0.28449244708810784,"60":-0.02720208884374363,"61":-0.05365372852215897,"62":-0.11599646586333104,"63":-0.17410595074926408,"64":-0.20012437446146983,"65":-0.029862686125092894,"66":-0.14128716723046983,"67":-0.03381557613968154,"68":-0.09723479372311744,"69":-0.10612720542200454,"70":0.003171645076555212,"71":-0.27113936336714856,"72":-0.04823042395584822,"73":-0.017919565495166923,"74":-0.14618213374453085,"75":-0.16955024764996718,"76":0.022399042347707756,"77":-0.13333843080510727,"78":-0.2106636330243696,"79":-0.17870888516900887,"80":0.042028006605543164,"81":-0.0653416022834392,"82":0.0968848055263822,"83":-0.10769961513035244,"84":0.12234866205138041,"85":-0.053415761259342484,"86":0.06642866902248737,"87":0.13079044945863488,"88":0.024664381657278574,"89":-0.10436763350641662,"90":0.0028313077319539366,"91":-0.16441004351562832,"92":-0.21672902940072153,"93":-0.02517524450716419,"94":-0.08918160861362541,"95":-0.15492687301754113,"96":-0.05032942379058341,"97":-0.06690453026510618,"98":-0.06443047788108024,"99":-0.17298761823052647,"100":0.0263334647371685,"101":-0.05009387606065393,"102":0.04203099094415848,"103":-0.012220028823367106,"104":-0.09579033165963999,"105":-0.19814871670541354,"106":-0.01277613564577892,"107":-0.16819884797236712,"108":-0.16523555418491276,"109":-0.08351996088790503,"110":-0.12334873434385639,"111":-0.11339085206999694,"112":-0.2945639629035426,"113":-0.08185069235981235,"114":-0.2924531368802158,"115":-0.11988202543628536,"116":0.0004029294612879653,"117":0.0686672970227453,"118":0.17631189805293568,"119":-0.42469444548111185,"120":-0.1989066168568284,"121":-0.1320435431878146,"122":-0.04277869982377736,"123":-0.05106236983388141,"124":-0.15415378700661722,"125":-0.12970752632297392,"126":-0.03235532412492964,"127":-0.17143574191740124,"128":-0.193744948641253,"129":-0.11147718651261551,"130":-0.041321128827414594,"131":-0.1627115188812859,"132":-0.06965523924034238,"133":-0.45179427381416604,"134":-0.4235999945554333,"135":-0.22838752856592887,"136":-0.09100890460431257,"137":-0.11558732814633628,"138":0.07140655186100749,"139":-0.16665607467926372,"140":-0.30214988546004296,"141":-0.1518029500785375,"142":-0.0571238512802086,"143":-0.30528270260140095,"144":-0.2131489678824245,"145":-0.013837622160306269,"146":-0.07602532861591461,"147":-0.09814482774436445,"148":-0.04382965314388286,"149":-0.0771238910540256,"150":-0.012802916398190931,"151":-0.14817072226584035,"152":-0.1460921373062054,"153":-0.07679338770821932,"154":-0.1858741989411647,"155":-0.08076861683550542,"156":0.03049645523665205,"157":-0.3169434034548695,"158":-0.0882094023930723,"159":-0.12007955653538653,"160":-0.03420224183110431,"161":-0.30490799126021567,"162":-0.10115744232777069,"163":-0.2258322063460478,"164":-0.16421749113528003,"165":0.025949801684482344,"166":0.050304256912845194,"167":0.012510672377649232,"168":0.05993461603768787,"169":-0.11502487257666648,"170":-0.1118543125506448,"171":-0.1586721561381403,"172":-0.19029620306589087,"173":-0.1449511219743979,"174":-0.14810875661093204,"175":-0.13634929807770024,"176":-0.1845270882264125,"177":-0.21824350087522906,"178":-0.16790692503378585,"179":-0.11207285468355989,"180":-0.13992524084251526,"181":-0.0001944719761925426,"182":-0.035346359077431576,"183":-0.25329457454600207,"184":-0.3419172653650849,"185":-0.26216930600564803,"186":-0.23500829670190437,"187":-0.05686403296561381,"188":-0.05885828617565982,"189":-0.20296111578530446,"190":-0.1174474073398614,"191":-0.18584615804740184,"192":-0.18815865711990484,"193":-0.11238074595195861,"194":-0.3136094765367421,"195":0.2409118162974883,"196":0.06208684032312882,"197":0.014561106094291171,"198":-0.06667937932651988,"199":-0.11079908835976023,"200":-0.31488609053406047,"201":-0.07903130543433406,"202":0.14243507080207196,"203":0.20115638010103465,"204":-0.01856857785309277,"205":-0.1260912346774008,"206":0.02958569276032459,"207":-0.11768708129385504,"208":-0.10910040291330633,"209":0.028096476278781275,"210":0.0753052307052374,"211":0.02184383944588014,"212":0.014364449392540463,"213":-0.2890079182495823,"214":-0.4375525223241531,"215":0.18180274084812795,"216":0.0716950484227453,"217":0.13755788331801364,"218":-0.016389207255888844,"219":0.12555780668434624,"220":-0.4026776907189492,"221":-0.1704125391672106,"222":0.1893896684342882,"223":0.009119303455589582,"224":-0.24017165512056496,"225":-0.1491491819967642,"226":0.11298527266437275,"227":-0.33558300609478814,"228":-0.11241157186318751,"229":0.1433223244669474,"230":-0.07037198516737862,"231":-0.12840503081719887,"232":-0.11172834205688606,"233":-0.11648058172847331,"234":0.09511896620778026,"235":0.015090908603902846,"236":-0.22147427351098203,"237":-0.1290350377386848,"238":0.04057744690525311,"239":-0.0933290300671409,"240":-0.007294327991265123,"241":-0.135327717392048,"242":0.05203320512585759,"243":-0.006702404939928731,"244":-0.11831072595055836,"245":-0.06979227596370924,"246":0.05665018462720462,"247":-0.0778905648297388,"248":-0.03383616252841532,"249":-0.032074649624512744,"250":-0.18277259865961304,"251":-0.11027668190578083,"252":-0.11763732172920259,"253":0.0014999937559554979,"254":-0.2735896500722256,"255":-0.16292945208357795,"256":-0.188295599231308,"257":-0.046063064520349965,"258":-0.2538139170781549,"259":-0.24427549629740755,"260":-0.1756364634928129,"261":-0.3063904671150291,"262":0.02487657179834723,"263":-0.35763309949499095,"264":-0.24373170466508237,"265":-0.042046975821687725,"266":-0.19677007251801013,"267":-0.14655743661145512,"268":0.02385731767287744,"269":0.007622150135240827,"270":-0.15574948844777262,"271":-0.14913931143617834,"272":0.06492420923294345,"273":0.08729354457235416,"274":-0.04888699329269245,"275":-0.010562588718311047,"276":0.00933771305939311,"277":-0.16459868567543254,"278":-0.20507879681448019,"279":0.08703569348293452,"280":0.07537419502609378,"281":0.14269058236891438,"282":0.16836844581704236,"283":0.03746282599706377,"284":0.23130910605106664,"285":0.06133704120827355,"286":0.07985111817230306,"287":0.1576926901301286,"288":0.06273798701787822,"289":0.05531126907709234,"290":0.2017832107632924,"291":0.23306281935738055,"292":0.15733019347247426,"293":-0.12834877092589725,"294":-0.0009861881599534117,"295":0.30285857432100916,"296":0.11047480286054681,"297":0.2097437604079414,"298":0.22493949560901666,"299":0.1841090577102748,"300":-0.011023074853071458,"301":-0.004807228774801351,"302":0.3238791234929027,"303":0.08026470165329469,"304":0.02356311656287623,"305":0.08008131984332063,"306":0.07380014211415518,"307":-0.05771552127185539,"308":0.1869987760125002,"309":0.11170533740017452,"310":0.227949747969265,"311":0.18522094898033564,"312":0.16719539846243067,"313":0.12604696808327479,"314":0.09307379349222109,"315":0.054904134198986196,"316":-0.1344836804956004,"317":0.10262973047604786,"318":0.20500279913842395,"319":0.11678497770712201,"320":-0.1660653883255652,"321":-0.10896168995647959,"322":-0.16904415975772633,"323":-0.14932591238353657,"324":-0.08629652462813568,"325":-0.1629648256060261,"326":0.09517003751838103,"327":-0.3608189346513479,"328":-0.20191915255841614,"329":-0.28475415416100786,"330":-0.07904544304117628,"331":-0.3550399197051031,"332":-0.24423304448482844,"333":-0.1300329002258585,"334":-0.15205841493465377,"335":-0.27250017518111286,"336":-0.2265548014204781,"337":0.0009546823266741658,"338":-0.1581567477080643,"339":-0.1453510849338196,"340":-0.2760396949804031,"341":-0.37162960086974617,"342":-0.03167791510616561,"343":-0.16705157505095866,"344":-0.21251795097821952,"345":-0.22192138999366207,"346":-0.16007880096721114,"347":-0.31291430151704264,"348":0.05466799111380454,"349":-0.1259742774533856,"350":-0.27450023815935526,"351":-0.23752082178988954,"352":0.03989067427566394,"353":0.11931592139480389,"354":-0.04967747758728777,"355":0.06490750302894174,"356":-0.09344490665574348,"357":-0.24209516188175353,"358":-0.21383924645729835,"359":0.2005681039634712,"360":0.16052129508489185,"361":-0.013957814829365707,"362":0.25968804361656683,"363":-0.022978929388053355,"364":0.3081890262664887,"365":0.1311504555613649,"366":0.023617267383395424,"367":0.20566983110648118,"368":0.12819458517724835,"369":0.25702171224685416,"370":0.03488648694701642,"371":0.255426874196591,"372":0.13921207949127942,"373":0.14404952796518952,"374":0.034876354189293905,"375":0.25729166444012697,"376":0.12792182648533099,"377":0.09983107829637707,"378":0.262418900564022,"379":0.09672968552300344,"380":0.09248998643817372,"381":0.12615908264005685,"382":0.14625091459265976,"383":0.1468048243692935,"384":0.1270613197320281,"385":0.15216250370364473,"386":0.06956038442389512,"387":0.14697180608947605,"388":0.06268094595432042,"389":0.24428765035688363,"390":0.08724090906097011,"391":0.09472863970975706,"392":0.08446105733016165,"393":0.20373241180927265,"394":0.1377379301361315,"395":0.2899722938338602,"396":-0.13425614763903973,"397":-0.039995672630130506,"398":0.20860311512494692,"399":0.07922340879820904}},{"sx":5,"sy":5,"depth":16,"w":{"0":-0.11524919211989605,"1":-0.05445621149362746,"2":-0.2483433482428755,"3":0.09146773217149852,"4":-0.09437294524968949,"5":-0.011122087682957135,"6":0.05056252953269364,"7":-0.0828707776043107,"8":0.11096700295521392,"9":-0.05263903799981344,"10":-0.08480212509763885,"11":0.05614415551687187,"12":0.0033797297652361493,"13":-0.1587146552048941,"14":0.014728548964230452,"15":0.0501094321081277,"16":0.008358514776047685,"17":-0.06642074324018266,"18":-0.22095783869912486,"19":0.09375550349809189,"20":-0.08581555370689342,"21":-0.03782913558499116,"22":-0.0988960651716165,"23":-0.1111560757941761,"24":-0.009368743805778023,"25":-0.004594106151401152,"26":-0.0638167866907091,"27":-0.016999365941537097,"28":-0.20804099095195525,"29":-0.1653708920854542,"30":0.010282889563720268,"31":-0.12945369509575047,"32":-0.1737272331070233,"33":0.010334151041410498,"34":-0.20773261388720837,"35":-0.2166406457472103,"36":-0.042280110188909766,"37":0.030843313392814133,"38":0.15075610069847037,"39":-0.20446351942810845,"40":-0.26458604810089104,"41":-0.014349305351044487,"42":-0.16250301218333396,"43":-0.03260270647901003,"44":-0.16979414139206378,"45":-0.15122082594437294,"46":-0.04404083128310964,"47":-0.09492279864338432,"48":-0.07902801296687391,"49":-0.10634595401680888,"50":-0.15164297492431825,"51":-0.052232599177490166,"52":0.061130239747614695,"53":-0.10946006409296441,"54":0.059625514837394415,"55":-0.11754993929042086,"56":-0.23161861314208154,"57":0.1306496385832945,"58":-0.010076496935914257,"59":-0.16013273197665012,"60":-0.1487190505810295,"61":-0.05660521671958571,"62":-0.08675908436002333,"63":0.01818643430201457,"64":-0.08412965454049226,"65":-0.10614964974809087,"66":-0.15465386103167358,"67":0.007525911301283725,"68":0.01652817771149556,"69":-0.05511187150750759,"70":-0.16622422876875956,"71":-0.022263363995708135,"72":-0.12262313991589303,"73":0.027550169097386234,"74":-0.007418144810917508,"75":-0.023936060414278662,"76":0.16403078390332426,"77":0.026756232095337396,"78":0.025991417323859987,"79":0.010958988029732542,"80":-0.0851872429744945,"81":-0.06021363441335422,"82":-0.265482971530801,"83":0.12101698611004998,"84":-0.06940158630936269,"85":-0.11112099169146566,"86":0.049371507224521625,"87":-0.09340160415592023,"88":-0.20477113502446842,"89":-0.08860869814339575,"90":-0.07050220313246593,"91":-0.18004666040312745,"92":0.05282403440946947,"93":-0.09485863987336357,"94":-0.05326615417338142,"95":0.14602129724233298,"96":-0.06008844190158154,"97":-0.08190955320582241,"98":-0.18040916421254022,"99":0.164806799531699,"100":-0.09612615616588337,"101":-0.05235367989451818,"102":-0.19469906850190052,"103":-0.21551740862854943,"104":-0.10551898647407705,"105":0.10399468487125141,"106":-0.10655250577664406,"107":0.001312865899613839,"108":0.06764203200507848,"109":-0.05021866489303014,"110":-0.00684771875415412,"111":0.010571700266334914,"112":-0.09396841335188337,"113":-0.043395242777020344,"114":-0.11004741038996985,"115":0.15759305471581697,"116":-0.02744798977231212,"117":0.2185198177527486,"118":0.1538836042877039,"119":-0.337101709693292,"120":0.026990683524572696,"121":0.08318404605444249,"122":-0.06938193197921504,"123":0.006065740749742845,"124":-0.12541903122829454,"125":-0.09252606910813796,"126":0.07169483276786157,"127":-0.014295277499949386,"128":0.0026810695514507587,"129":-0.08095287520410299,"130":-0.07642570621288776,"131":-0.27151019053025777,"132":-0.011175168610155752,"133":-0.0038364412521209976,"134":0.02476714215620458,"135":-0.004243901466791132,"136":-0.08429968560522626,"137":0.09495947570297468,"138":-0.002603564455916949,"139":-0.1719911706546935,"140":-0.09809195161093269,"141":-0.03641596223089606,"142":0.024037049352774283,"143":0.06701974635899786,"144":-0.02710015485065683,"145":0.06805619450028168,"146":-0.09612605263669981,"147":-0.012837117087354194,"148":-0.012581179920944914,"149":-0.12448645782233021,"150":-0.12481570265313077,"151":-0.19520901438258298,"152":-0.04163079949992569,"153":-0.05554938204029383,"154":0.05613170059360591,"155":-0.15444919733033022,"156":0.24211469572409663,"157":0.055201340524371444,"158":0.015917276367589075,"159":0.09853070737957705,"160":-0.062329407694881586,"161":-0.11199819696379579,"162":-0.04075733659509466,"163":-0.045299956495571156,"164":0.07262882417129092,"165":0.11024209528598339,"166":-0.13526215588530757,"167":-0.012590635629136272,"168":-0.06387064921880241,"169":-0.1395285088148354,"170":0.03842437274256979,"171":-0.056147351846114385,"172":-0.05856908797682262,"173":-0.020143069820630497,"174":-0.03354117722361686,"175":0.09694401484432093,"176":0.0008851435847333849,"177":-0.09088569392183667,"178":0.0666767695915486,"179":0.07461309568915599,"180":0.00012181886238515422,"181":-0.06584925456408482,"182":-0.14572003810559006,"183":0.13695245653478824,"184":-0.13028814972426206,"185":-0.053172327550997656,"186":-0.029684759880212967,"187":-0.09000252048461796,"188":0.1006274967302405,"189":-0.01824197140804925,"190":-0.11726624106901079,"191":0.151969063486798,"192":-0.1217723386313402,"193":-0.06904906789217856,"194":-0.10487999252221983,"195":0.2513405077120606,"196":-0.029345979631923907,"197":0.3718148387984943,"198":0.09033816462577786,"199":-0.21773286927921431,"200":-0.002648116993615855,"201":0.09632753360953518,"202":-0.04226755153534889,"203":0.1972612160240157,"204":-0.0338258771536915,"205":0.07847851093267762,"206":-0.0009714815929534378,"207":0.1323921511077374,"208":0.0074085848783987255,"209":-0.03358903823348937,"210":-0.14685314236852315,"211":0.15198011577726628,"212":0.0213707626885415,"213":0.14606870042752979,"214":0.00462716972006821,"215":-0.03393885057542901,"216":0.06834079637594953,"217":-0.06886821136888804,"218":-0.1745131167218303,"219":-0.012843331618633068,"220":-0.1377867251612647,"221":0.011380975645607158,"222":-0.020266121976767623,"223":-0.04557105995488544,"224":-0.09408194432129172,"225":0.3427938022140811,"226":-0.25920402067175435,"227":-0.06761286605159961,"228":-0.0633448817749026,"229":-0.051583400137599336,"230":-0.00414302478128668,"231":0.13945376340518045,"232":-0.2642173343895273,"233":-0.1878522441413015,"234":-0.06942442016292513,"235":-0.28938827642531884,"236":0.23848505788006213,"237":0.11686016162278899,"238":-0.15078437403493333,"239":-0.025054585684627255,"240":0.04582480853948085,"241":0.0019649406701521053,"242":0.004601807582023636,"243":0.028167928404922705,"244":-0.14228961698659268,"245":-0.07422027482543372,"246":-0.0179254948642185,"247":-0.08038301724964954,"248":-0.165874784133481,"249":-0.009459674483910033,"250":-0.0629068446337713,"251":0.014104764695081894,"252":0.03148091883424194,"253":-0.05803418342036885,"254":-0.04278882252431641,"255":-0.04209741599737199,"256":-0.06037417077131992,"257":-0.04881861466881086,"258":0.05171213518116063,"259":-0.1485646536468305,"260":-0.05530918365536917,"261":-0.27706814788793915,"262":-0.225228785037389,"263":-0.17059264770798394,"264":-0.1972591912980302,"265":0.030293866673603884,"266":-0.015030807531221388,"267":-0.1286941435877106,"268":0.06830863449927302,"269":-0.0021604269215151723,"270":0.015544818090903315,"271":0.04689591777262853,"272":-0.12789261522355433,"273":0.05761467329332837,"274":-0.11403026264285136,"275":0.03476373122468722,"276":-0.0446401061338234,"277":-0.2030385339375696,"278":-0.3592366574226383,"279":-0.11222283463723717,"280":-0.019108859491326104,"281":-0.014629167022189273,"282":0.08188481145959406,"283":0.015807835371638906,"284":0.022467948782357305,"285":0.05668171546145137,"286":0.030363636935296482,"287":0.057371931159818874,"288":0.009341496644913098,"289":-0.03550971127392191,"290":0.07775226609431898,"291":0.20039662032632985,"292":-0.057721344470797305,"293":0.09355931043886603,"294":-0.08970520370671468,"295":-0.12948540363232058,"296":0.16886293846988537,"297":-0.04255721249924876,"298":0.029287579893056765,"299":0.09124799826150785,"300":-0.26125291791107663,"301":0.014382026166840828,"302":-0.04538418271676996,"303":0.10458295934864081,"304":-0.09546572689351661,"305":-0.08995011574915664,"306":-0.22085114222549462,"307":0.020621588438152882,"308":-0.07902132668340442,"309":0.0244442562414859,"310":0.050266253845122226,"311":-0.21457848201386853,"312":-0.10696292513175738,"313":-0.10446941662633244,"314":-0.07450256576486489,"315":-0.04619199088223806,"316":-0.17056122542838523,"317":-0.1744027626246696,"318":-0.07848567737222757,"319":-0.02405347933694496,"320":0.009911951868577124,"321":-0.06459234710909126,"322":-0.2962367667360662,"323":-0.11149804304341615,"324":-0.135396785331951,"325":-0.08301226477092308,"326":-0.042383117510783906,"327":-0.16413173124243205,"328":-0.15584004967469645,"329":-0.19332988923589092,"330":-0.04434300998885568,"331":-0.2237978223253724,"332":-0.14692891945980596,"333":-0.08853462974545397,"334":-0.14825961730232315,"335":-0.08411427697643829,"336":0.022432271352861993,"337":0.03399484434029331,"338":-0.0010160491482357579,"339":-0.06381350158690981,"340":-0.008122816258557831,"341":-0.21599567746218057,"342":-0.15059519015974385,"343":-0.039335471990496744,"344":-0.15177513915115867,"345":-0.0940051256591753,"346":0.04293525118262645,"347":-0.1919944553640354,"348":0.006520596616273668,"349":-0.012247497026233314,"350":-0.20344433341980117,"351":-0.17469374625001635,"352":-0.03812870723725856,"353":-0.08627929689109616,"354":-0.08682461707889265,"355":-0.07348406047029697,"356":-0.015836086928202427,"357":-0.2778697847860323,"358":-0.2556109200538895,"359":0.1302592461800111,"360":0.02187792839586805,"361":-0.24003478004065,"362":-0.0065966212538883205,"363":-0.2113065544330408,"364":0.12674531178809428,"365":0.014950172879468116,"366":-0.13586527589004743,"367":-0.117412497444977,"368":-0.1505740053339627,"369":-0.17651804040579755,"370":-0.14251993576463456,"371":0.057899761261339604,"372":-0.06015171812912691,"373":-0.013705998847886145,"374":-0.00009888853794814446,"375":0.13045817000790458,"376":0.05911487336328127,"377":-0.1991833484397548,"378":-0.03330530190165559,"379":0.0035111788544440236,"380":-0.05269998885198473,"381":-0.009351956694554958,"382":-0.11127360109711867,"383":0.04274477677342728,"384":0.014091491429967839,"385":0.047050994521866535,"386":-0.07956286929517914,"387":0.05956438077482065,"388":-0.17071644766229235,"389":0.053334279733336716,"390":-0.007002447811639408,"391":-0.030638028932436993,"392":-0.12788375462316431,"393":-0.0747413258301745,"394":-0.20320783476248527,"395":0.04862682736234936,"396":-0.22510756204299115,"397":-0.1920633594878492,"398":0.08443631270604905,"399":-0.013593415888326351}},{"sx":5,"sy":5,"depth":16,"w":{"0":-0.002563763032834911,"1":-0.0356639842651249,"2":-0.18695680131111472,"3":0.06449103502182996,"4":0.036544248793793144,"5":-0.1376835482561554,"6":-0.1388139954566039,"7":-0.11972534796740587,"8":-0.0776349159687643,"9":-0.052019740225484064,"10":-0.0008566463402071744,"11":-0.15300178222199035,"12":-0.1134811441712854,"13":-0.10226467135805012,"14":0.014853914959608295,"15":-0.08446915496891724,"16":-0.011668307910048324,"17":0.013020990207752693,"18":-0.051943168945446476,"19":-0.025337401993196326,"20":-0.01492306937569453,"21":-0.1522813188441047,"22":-0.22344105534350334,"23":-0.013436074776960455,"24":-0.042804291724764125,"25":-0.10875335902331709,"26":-0.004017864428499634,"27":-0.06722517663951358,"28":0.02142387045038871,"29":-0.04974799250617463,"30":-0.01339337392632141,"31":-0.11563943861163527,"32":0.09980386363196035,"33":-0.17980513875141077,"34":0.019072426823801867,"35":0.2025389249294584,"36":-0.014598284701021747,"37":0.039906451819148134,"38":0.03591996240637019,"39":0.07472988383583337,"40":0.22095034693475601,"41":0.015764929003830117,"42":0.07405226178729246,"43":-0.04594982204961018,"44":0.057985289329939314,"45":0.023768589560127663,"46":-0.02966206588493754,"47":-0.07783504291965554,"48":0.05040379779384035,"49":-0.025571360260959772,"50":0.00871250081938097,"51":-0.16680840139424144,"52":0.01715763827779096,"53":-0.1496640085708011,"54":0.02320669090487846,"55":0.05136866770696861,"56":0.010462264520228194,"57":-0.07840703930727322,"58":-0.12717979661959716,"59":-0.223439270139909,"60":-0.388322649461375,"61":-0.054672080435475466,"62":-0.09864459875069258,"63":-0.16692327441931418,"64":-0.1219526213286214,"65":0.02245862837285559,"66":-0.11828221526078643,"67":-0.01690059155090008,"68":-0.040554661786393074,"69":0.015805357460470675,"70":0.08724183747155094,"71":-0.06756221486639623,"72":-0.057429536196191774,"73":-0.1648050457964282,"74":0.015489030189975458,"75":-0.1601095160419697,"76":0.19188354383902242,"77":-0.05670332306075106,"78":0.002873558100893532,"79":-0.17480669260249035,"80":-0.04750990649638762,"81":0.018438440261546007,"82":-0.30943907048567637,"83":-0.034816961801936656,"84":-0.029530640514964977,"85":-0.09718830858744361,"86":-0.04595369302875041,"87":-0.1606421829458256,"88":-0.10243874816621362,"89":-0.08852911559447349,"90":-0.051315682510314146,"91":-0.23970953982556747,"92":-0.32562943503023867,"93":-0.09561830996969084,"94":-0.042881762458855124,"95":-0.12250756608168864,"96":0.0776772144866221,"97":0.045149094499569234,"98":0.052249685219029944,"99":0.0021975473380294744,"100":-0.10425963443636622,"101":-0.24251684834481657,"102":-0.35830529285275803,"103":0.03219098251758689,"104":-0.03675159729789141,"105":-0.044881494087236226,"106":-0.016668220690571087,"107":-0.1367975957710075,"108":0.043798631671069524,"109":-0.10453377301875377,"110":-0.03187410723796843,"111":-0.02166366976986349,"112":0.08482957594825065,"113":-0.06821523469123851,"114":-0.02562775159046105,"115":0.1222852125243394,"116":-0.026866135261864873,"117":-0.01731978043896639,"118":-0.03142265326746312,"119":0.06947473149184173,"120":0.05576499608617761,"121":-0.002533396605298869,"122":0.027726215933571892,"123":0.06959917389467102,"124":0.04658548080050912,"125":-0.07869254362455716,"126":-0.013449133129759415,"127":-0.09766177669138114,"128":0.011101686141366593,"129":0.034999087277804444,"130":0.06745399638088331,"131":-0.09370437113760693,"132":-0.05429782160165289,"133":-0.1942987014818458,"134":-0.16615838482933343,"135":0.08930819803684625,"136":0.05955340776453039,"137":-0.09648552347368572,"138":-0.14986430139999718,"139":-0.19974002853057546,"140":-0.4061100591952198,"141":-0.03595849282996156,"142":-0.03398379761615398,"143":-0.08851568602662488,"144":-0.13045022775434664,"145":-0.05808212450568222,"146":-0.14843743861529987,"147":-0.01632257255311948,"148":-0.07319787956878672,"149":-0.034369290903881675,"150":-0.01565039304576104,"151":-0.1262285665596279,"152":-0.08391408565090526,"153":-0.17301707293148288,"154":-0.10190626300250087,"155":-0.18670379071990015,"156":0.27951163051356653,"157":0.007862681405772752,"158":0.06025673165399427,"159":-0.158955699101529,"160":-0.02173229873685164,"161":0.061414729870326916,"162":-0.11138198360280323,"163":-0.07296425090650696,"164":0.10603598468585247,"165":-0.1497170162630262,"166":-0.039300637296060904,"167":-0.019771689288549305,"168":-0.057684663520658756,"169":-0.04879925253086951,"170":-0.05907009550428308,"171":-0.04614063745354044,"172":-0.18705353309003714,"173":-0.03499083646142565,"174":-0.014130093629000536,"175":-0.07840009189733127,"176":0.08381894920278767,"177":-0.03391106087442274,"178":0.0005519449656365542,"179":-0.183353942512729,"180":0.0335752617530099,"181":-0.09244079704610257,"182":-0.19529381816478514,"183":0.07399570282957865,"184":-0.030755310835407154,"185":-0.016755239991869737,"186":-0.0038302290607452848,"187":-0.01991246013256676,"188":-0.04513049685328925,"189":-0.04294224797398993,"190":0.10191826644390917,"191":0.15557387273253476,"192":-0.04276575004578551,"193":-0.17381607910065264,"194":-0.028762542386509455,"195":0.1447817333821863,"196":-0.009004279800083378,"197":0.09388838046954252,"198":-0.00404381396846489,"199":0.028246944817400234,"200":0.11710501551403109,"201":0.04401279459969481,"202":0.026604678687722892,"203":-0.023308781718428144,"204":0.1076176227264901,"205":-0.039396470401552516,"206":0.05970943809104645,"207":0.031891581851924033,"208":-0.003023347875979706,"209":-0.09437800212329941,"210":0.05267019027701611,"211":-0.0022310468869981815,"212":-0.08154318053976913,"213":-0.14913605684632555,"214":-0.17845734795685494,"215":0.019909088943590184,"216":0.20121048289018095,"217":-0.02382185715577194,"218":-0.0803589472856052,"219":-0.010239106775468035,"220":-0.33648512807514425,"221":-0.10981857601051989,"222":-0.04350828769320692,"223":-0.09522937232884242,"224":-0.1719988189347082,"225":0.2958014227241281,"226":-0.05194402752614764,"227":-0.027653301836343215,"228":-0.08023992145864961,"229":-0.05258194946832227,"230":0.0015619949953639169,"231":0.025268440162630933,"232":-0.1621413454871339,"233":-0.03752285990065841,"234":-0.020166721648417252,"235":-0.12765336400642202,"236":0.19973297700890846,"237":-0.02992470325324649,"238":0.0721479004747874,"239":-0.019115933693024757,"240":0.018241294756461666,"241":0.07178951138631519,"242":-0.12156418682337018,"243":-0.057950021840974586,"244":0.025547041372582322,"245":-0.02461802134063604,"246":-0.0024224498447032593,"247":-0.08052012674838888,"248":-0.13292605032670587,"249":-0.05141391025200325,"250":-0.04006917526865209,"251":-0.0994123968651074,"252":-0.20747870197377394,"253":-0.014072420483177034,"254":-0.028473163394333586,"255":-0.13171574773337788,"256":-0.034572653489418466,"257":-0.002103100540476565,"258":0.04948275680566981,"259":-0.13418644756748274,"260":-0.15767054645513282,"261":-0.13197333438102907,"262":-0.15536633335122702,"263":0.10871995011889732,"264":0.11684814103206925,"265":0.022100882998553714,"266":-0.019155876530056147,"267":-0.20209446863455782,"268":-0.0852682595110627,"269":-0.022354937008198385,"270":-0.01612391941228961,"271":0.0654870267514125,"272":-0.12694875618019186,"273":-0.0761525356740473,"274":-0.18353761923177694,"275":0.06153376875282487,"276":-0.01405323164290766,"277":-0.13299049781141703,"278":0.1424170791507168,"279":0.01414932740948698,"280":0.05479698831363368,"281":0.0947952355129337,"282":-0.1821744542639353,"283":0.024369754474359497,"284":0.21166593786377053,"285":0.01989871717181535,"286":-0.06195655589011828,"287":-0.038675673246624735,"288":0.006742277532827736,"289":-0.1281080031677954,"290":0.11552460795163376,"291":-0.006147887025754842,"292":-0.11454559002314885,"293":-0.12469800964097205,"294":-0.12701775597247136,"295":0.050006687641740585,"296":0.14028018317970792,"297":-0.10608095989791515,"298":-0.06372076159237484,"299":-0.08522483211895379,"300":-0.13154306153068676,"301":-0.040942439782988026,"302":0.03413653755269859,"303":-0.14133461884435491,"304":-0.04610065836923858,"305":0.13432455316847933,"306":0.0025287946065254,"307":0.052451921863875366,"308":-0.016879869970921713,"309":-0.025596035039134594,"310":0.16627178350713204,"311":-0.18827326209930823,"312":-0.1240114189242024,"313":-0.13909342181454548,"314":0.04133110987902758,"315":-0.21679751356759133,"316":0.2508671680196868,"317":-0.08001028089113896,"318":0.014101191225703249,"319":-0.0025458757977068936,"320":-0.016718656566320864,"321":0.10183291984910732,"322":0.02829589032085266,"323":0.02624397191709217,"324":0.0057017899908395064,"325":-0.09817316924219754,"326":0.149723058803376,"327":-0.07294455737309714,"328":-0.0731615363550701,"329":0.11028211684710515,"330":0.04413612740464289,"331":-0.021133623681458057,"332":-0.16178766460523894,"333":-0.10052280040167584,"334":0.06428357318679195,"335":0.008819521637443092,"336":-0.057865131627314145,"337":0.04725690197019211,"338":0.12112174802540338,"339":-0.06135088798272704,"340":-0.09860194996250499,"341":-0.1403926801078359,"342":-0.12368374690632472,"343":0.09512071135301861,"344":0.00836873869898953,"345":0.004619587353594857,"346":-0.008467578463608641,"347":0.03666006387291904,"348":-0.12331609886800636,"349":-0.07385225000458029,"350":0.15681755944375364,"351":-0.08733993075745076,"352":-0.09778849431192634,"353":0.0533869014821515,"354":-0.13956249954738406,"355":0.05128263334502321,"356":-0.02201638981857164,"357":-0.11073426014303789,"358":0.037644173467142945,"359":0.016512448414076796,"360":-0.023043845829017136,"361":-0.034747389398607366,"362":-0.0745354523205125,"363":-0.02023733787245793,"364":0.18021583517544762,"365":0.00391132377565001,"366":0.026207180936910227,"367":0.06251456794212464,"368":0.13247909538595024,"369":-0.003495963675131715,"370":0.016342327931921106,"371":0.19304926407139636,"372":-0.15533655211207797,"373":-0.12300316092299565,"374":-0.26996005578462057,"375":-0.012540575222412842,"376":0.028579670227311452,"377":0.04354938481222293,"378":-0.03726922505706281,"379":0.06595026697014254,"380":-0.034340323775460854,"381":-0.05270318291285799,"382":-0.06602666881980801,"383":-0.027052680329753956,"384":0.005086622859349783,"385":0.16787331046281026,"386":-0.09539351434479416,"387":0.025522498401695085,"388":-0.03718830450997054,"389":-0.01214269365816767,"390":0.15973568084495662,"391":-0.12813872330991238,"392":0.01151547471826064,"393":-0.006989721251474841,"394":-0.07463395719526919,"395":-0.015500927196374685,"396":0.23059766418276062,"397":0.03174412266565243,"398":0.07214500659702629,"399":-0.0508483359837434}},{"sx":5,"sy":5,"depth":16,"w":{"0":-0.11148029705042736,"1":0.21248303291498763,"2":-0.03346115368040984,"3":-0.13165918537205656,"4":0.014479508303566778,"5":0.04346238773964686,"6":-0.20750570247348715,"7":0.28046229923697463,"8":0.08695337250447545,"9":0.07546652072626991,"10":-0.1606481486065297,"11":0.030421979344355903,"12":-0.12310441632761635,"13":-0.08443728030377648,"14":-0.061367022807109636,"15":-0.23444557894275742,"16":-0.012947812060098485,"17":-0.07370311050286432,"18":0.23268257667515202,"19":-0.08976172475286438,"20":0.017511903611802913,"21":0.13428333051147393,"22":0.08878321372233293,"23":0.27538457390507154,"24":0.09461490841112756,"25":0.018359742691301067,"26":-0.18543907271133828,"27":0.1050977015856324,"28":-0.07123939576364925,"29":-0.043858199562476136,"30":-0.13533299046436248,"31":-0.2957075987684623,"32":-0.27720177968102566,"33":-0.045306715695640404,"34":0.030355766458073512,"35":-0.2602538959645861,"36":-0.09174815093867796,"37":0.10347704131918736,"38":0.1836070884596386,"39":0.21738086042750066,"40":0.00787892944160765,"41":0.038242654717983854,"42":-0.02235454088340252,"43":0.08604850600449461,"44":0.025449306927347235,"45":-0.11706166394795485,"46":-0.1523807247861348,"47":-0.29634744310716804,"48":-0.244289521870683,"49":0.020013748881019876,"50":-0.08993396837675592,"51":-0.11900966706552957,"52":-0.02519185213853028,"53":0.17019763077964561,"54":-0.19474156089937647,"55":-0.05955759749545394,"56":-0.029703036789716156,"57":0.08698900691542115,"58":-0.06977141455864654,"59":0.15733082220965539,"60":0.0004993103232066481,"61":-0.07763803382643321,"62":-0.022410532003239628,"63":-0.1185346590032169,"64":-0.17953127703434307,"65":0.15836164745379785,"66":-0.017016249728876227,"67":-0.08476582922164602,"68":-0.06685719188418451,"69":0.063346109406978,"70":-0.06341446818230638,"71":-0.026735554627671042,"72":0.09964710146384101,"73":0.09960351498456618,"74":-0.17827207864392663,"75":0.1826595667740145,"76":-0.04126048382058473,"77":-0.16658293952566108,"78":-0.08762665637304935,"79":-0.2863509300592268,"80":0.20589238422783981,"81":0.10996606634632937,"82":0.0602745670681064,"83":-0.17913962845915402,"84":0.03672834661967714,"85":-0.06663050012145111,"86":0.027861015577070797,"87":0.5366384569442889,"88":0.03552126681956073,"89":0.15909670378620144,"90":0.10993720671136531,"91":-0.20095542602494207,"92":-0.15361220423833977,"93":0.06663476925673233,"94":-0.07593237374424579,"95":-0.20899099460415224,"96":-0.11985789222166318,"97":0.05147104106068135,"98":0.05636225746874628,"99":0.1241391207070521,"100":-0.15865694443001857,"101":0.0960870231874483,"102":0.11240420868710146,"103":0.4697586953663177,"104":0.06894394736157833,"105":0.03084858965643049,"106":0.07438129149166413,"107":-0.031013633447843806,"108":-0.1357345698155457,"109":-0.07987902795297455,"110":0.05523396179622387,"111":-0.13891058733391004,"112":-0.17208033398411537,"113":-0.08320096768388875,"114":-0.11250267370559532,"115":-0.05097588120966837,"116":-0.03418470880783263,"117":-0.1114120529342922,"118":-0.14359179182633844,"119":-0.009108454643006351,"120":-0.1832866809715414,"121":0.1026732701015433,"122":0.00664990335414293,"123":-0.07965466184669039,"124":-0.012271868805197449,"125":0.011501326272853501,"126":0.011870131798950863,"127":-0.11452548203387587,"128":-0.21657284154320092,"129":0.011939940547289954,"130":-0.11659952110247222,"131":-0.2086283147649399,"132":0.03217110461725509,"133":-0.2149893325340271,"134":-0.2901490602136542,"135":0.023559934714658122,"136":-0.08787835334017265,"137":0.06318571298921288,"138":0.05243167510682162,"139":0.07827381830258331,"140":0.11206852487697258,"141":0.03654481496246204,"142":-0.008768020441690292,"143":-0.10623485741149125,"144":-0.14136496220389386,"145":0.04579919388678015,"146":-0.05129534511982179,"147":-0.17430952724329996,"148":0.052318789034513945,"149":-0.15977604465954368,"150":-0.12176922488961647,"151":-0.0475457040122854,"152":0.06428411507294006,"153":0.04384009096701313,"154":-0.20976161301670257,"155":0.042779508858377856,"156":-0.04507743483751327,"157":0.09593002755118518,"158":-0.030474785993763975,"159":-0.0396524318657081,"160":0.09451932760222398,"161":-0.09691018535302179,"162":0.007273006908725339,"163":0.03148181336212444,"164":-0.09725564694144759,"165":0.10511325364883084,"166":0.18573844107109197,"167":0.24105839498081977,"168":-0.02254438567662868,"169":-0.09032819598406347,"170":0.0009350652036890785,"171":-0.1938306030267155,"172":-0.3634161090322052,"173":-0.1283973027811884,"174":0.03567341352501982,"175":-0.0452784033287508,"176":-0.05051760155347462,"177":0.08579194912954625,"178":0.020291798120268326,"179":0.35324959469841766,"180":-0.12540794353396428,"181":-0.1293051398764363,"182":0.08878022453242049,"183":-0.13586497341647039,"184":-0.18675235786119945,"185":-0.022897585765537,"186":-0.0967524335735701,"187":-0.26562028914415114,"188":-0.1768860290361237,"189":-0.08023718831592298,"190":0.015391243784146285,"191":-0.03487406351501728,"192":-0.09874771215870806,"193":-0.05363716842477499,"194":-0.002568677794794774,"195":0.003803345349377048,"196":-0.03522086765641521,"197":-0.5309375073845238,"198":-0.22530517880802747,"199":-0.02482055514704778,"200":-0.3119352032415399,"201":-0.1152264611340798,"202":-0.0022885645164081843,"203":-0.10070794012247633,"204":-0.07120487560951831,"205":-0.07587032334005811,"206":-0.07353866666902766,"207":-0.05440711164756314,"208":-0.12182627679301096,"209":-0.17067454592870632,"210":-0.037345316671720905,"211":-0.19588964571637857,"212":-0.04670328693611672,"213":-0.3143279903670301,"214":-0.041161299508532354,"215":-0.07480729754304066,"216":0.05167794785859136,"217":-0.0978815500407513,"218":0.012737063016872167,"219":-0.17729916857041458,"220":0.16982110339395884,"221":-0.014416861546830419,"222":-0.060459487833214275,"223":0.08357400553898066,"224":-0.09351633729096183,"225":-0.28501565243442056,"226":0.1284979806867039,"227":-0.33815221803656575,"228":-0.14285130572791738,"229":-0.15827939517225806,"230":0.04173228878603944,"231":-0.00033448053742327934,"232":0.16074885216380544,"233":-0.0181700453206842,"234":-0.12280562523067588,"235":-0.17765961372471123,"236":-0.10460043354300563,"237":0.007004106452323514,"238":-0.02735278138985057,"239":0.05550251308946659,"240":-0.07962951729853138,"241":-0.07389394628565904,"242":-0.1730667443879724,"243":0.32891920906797867,"244":0.03110713483402223,"245":0.13133197189693538,"246":0.11052765892282775,"247":-0.06425216097805166,"248":-0.07098339719006043,"249":-0.19291515389208902,"250":-0.026211354311260177,"251":-0.23789462189683352,"252":-0.15457535543325993,"253":-0.03780397988686446,"254":0.12128191684188935,"255":-0.10888652844809128,"256":-0.024000767560112532,"257":0.07357454431954583,"258":-0.03827443592051297,"259":0.12541937846321827,"260":-0.0170721808329169,"261":-0.228640031984659,"262":-0.023262278525777544,"263":-0.3212923403390539,"264":-0.17353266196984218,"265":-0.14163101272882272,"266":-0.08570671742444935,"267":-0.33098335663407397,"268":-0.17104958332405254,"269":-0.004726671389728093,"270":0.01937106610402202,"271":-0.09069064934497453,"272":0.006118968760815064,"273":-0.056343467420959525,"274":-0.12316377725118025,"275":-0.04947749376845935,"276":-0.009343493609437805,"277":-0.3708696431853357,"278":-0.1262352942034324,"279":-0.21639104073330556,"280":-0.2549873561644099,"281":-0.07866515281555425,"282":0.034747224560647334,"283":-0.3410028926446072,"284":-0.019314814123239443,"285":0.05752061145634216,"286":0.041406447673571316,"287":0.007585654203345332,"288":-0.015128417077592934,"289":-0.02081156352861174,"290":0.129538441761809,"291":-0.12199370238497319,"292":-0.06758680822287026,"293":-0.14759963205759763,"294":0.006395164843823452,"295":-0.3196680861523621,"296":0.1821391793315388,"297":-0.09652494413929709,"298":-0.06473296267733926,"299":-0.16367838853829295,"300":0.19728405516216532,"301":0.029213427397852498,"302":0.051747089033963155,"303":-0.002928110128390637,"304":-0.19594336154861042,"305":-0.22765062980924236,"306":0.13308635797568644,"307":-0.15118654890727795,"308":-0.05364010092693982,"309":-0.1421148150653301,"310":0.16918259141973813,"311":-0.13019582813492583,"312":0.2013710399045455,"313":-0.10197765354519238,"314":-0.07989202937910472,"315":-0.306721061176223,"316":-0.07222576819821407,"317":0.07643855411967156,"318":-0.006891384223565329,"319":-0.06582908887202717,"320":-0.18315600134861812,"321":-0.09569360933533008,"322":-0.3338598803573882,"323":0.2589927001614796,"324":-0.1262493717322445,"325":-0.0739232294242047,"326":-0.10342510832718964,"327":-0.1381100523537375,"328":-0.11698019581473715,"329":-0.14679908467401975,"330":-0.12548820471917815,"331":-0.14428437317770473,"332":-0.09153638766276927,"333":-0.07605922102986555,"334":0.2194431980019363,"335":0.13522707515940627,"336":-0.11494726111670017,"337":-0.032199002159859456,"338":-0.12859001198285885,"339":0.18642647070491944,"340":-0.010291269425093466,"341":-0.12464786464655672,"342":-0.1758517470460505,"343":-0.21323171204434585,"344":-0.13683032503479087,"345":-0.08372410040833651,"346":0.0010567128435344621,"347":-0.2042301949894268,"348":-0.2061757394102949,"349":0.02570936012126754,"350":0.06716350805339641,"351":0.1502096834819873,"352":-0.05153553266502056,"353":-0.05391590484651757,"354":-0.03787297337133008,"355":-0.08244358878433661,"356":-0.005341323702381062,"357":-0.18750254562396154,"358":-0.19715928110549324,"359":-0.20927943230465007,"360":-0.13984668093138705,"361":-0.16653278256966964,"362":0.036790873341955535,"363":-0.04947988972035404,"364":0.059191572442445904,"365":-0.06827524714631733,"366":-0.008080888484147777,"367":-0.06868091961678109,"368":0.11542147385842333,"369":-0.015449257080899536,"370":-0.0285941369215366,"371":-0.05701326246037223,"372":-0.02763266021023903,"373":0.058081899801338925,"374":-0.14308077975186834,"375":-0.3526172407155812,"376":0.11151023211973606,"377":-0.1507823269367677,"378":-0.058541048220084525,"379":-0.16771392331091958,"380":0.23268905456376604,"381":-0.014448780703204071,"382":-0.019798892827556515,"383":0.000561539197199264,"384":-0.24889231654618324,"385":0.06746812800784317,"386":0.04133672702842643,"387":0.01894061699981105,"388":-0.06187400169264477,"389":0.19956276550731647,"390":0.05431778254718935,"391":-0.1698463306068033,"392":0.2897611706516891,"393":0.04568439731146468,"394":-0.07985732398161721,"395":-0.09244750809705547,"396":-0.02069915022719488,"397":0.056103831991386785,"398":-0.08231676734200125,"399":-0.03691892164168681}},{"sx":5,"sy":5,"depth":16,"w":{"0":0.041446738932994186,"1":-0.0212726422262387,"2":-0.059885674918912356,"3":-0.06292793911385502,"4":0.010210855521125679,"5":-0.0834354059819034,"6":-0.05423669734793978,"7":0.08235855882995373,"8":0.043495585013823224,"9":0.10590063665907884,"10":-0.0486960446136725,"11":0.06884484585829881,"12":-0.04233820704444637,"13":-0.09501249665259352,"14":0.07591553770525723,"15":0.049817345820324155,"16":-0.07597339618391849,"17":0.019967890796845265,"18":-0.11573411100873636,"19":0.03939598626859442,"20":-0.00443366294292856,"21":-0.0839133528684827,"22":-0.15024561535584424,"23":0.09160094839510342,"24":0.027442429842148872,"25":-0.0008739244184945451,"26":-0.04181556718460229,"27":0.09057659967440124,"28":-0.020507903907378163,"29":-0.018528669922152866,"30":0.12670422069559942,"31":0.004155934805981591,"32":-0.14882091400385594,"33":-0.10575987297098216,"34":-0.0012759659680021875,"35":0.038218873298819685,"36":-0.03914202710270093,"37":0.021588313876014772,"38":0.029368600421892908,"39":0.0635433949552727,"40":-0.09217260196818244,"41":0.02392153656921744,"42":-0.05916398922349335,"43":0.13437982617313432,"44":-0.08130671271367244,"45":0.04597625557197868,"46":0.04143979281369567,"47":0.013724269209890253,"48":-0.10645948627895856,"49":0.08967729193965517,"50":-0.08572604551521525,"51":-0.03270538560206803,"52":-0.07092843794219943,"53":0.0245341199765218,"54":-0.03071828692070523,"55":0.03517497359532494,"56":0.0015368372720882678,"57":-0.050309438018220735,"58":0.011890989901354815,"59":-0.031122471035452206,"60":-0.04713120352409891,"61":-0.08029474264065575,"62":0.10958655327057319,"63":-0.02889647221647978,"64":-0.08810984531819217,"65":0.0008901726827138788,"66":-0.0610864652878736,"67":-0.20786364966568155,"68":-0.010825381741331337,"69":-0.019913982944673492,"70":0.0025698125479907286,"71":-0.1083499968539419,"72":-0.031790722170119745,"73":0.012266725544394765,"74":-0.04675960921330338,"75":-0.04814458180270874,"76":-0.10206713570951181,"77":-0.2049380017786919,"78":0.017398526095995553,"79":-0.06123703875582223,"80":-0.02266322866111893,"81":0.09262855947411404,"82":0.04499419751139082,"83":-0.0626643060089334,"84":0.0698644124882577,"85":-0.108001070626251,"86":-0.01201855579998002,"87":0.06782644758054175,"88":0.09849533121943187,"89":-0.04031490058300176,"90":-0.07532250920912605,"91":0.010652475776487653,"92":0.038531512579685824,"93":0.02821690937589468,"94":0.06315084058196084,"95":0.20901576102138156,"96":0.09289430168090572,"97":0.04681554800246717,"98":0.11635538672845322,"99":0.16489024787882473,"100":-0.024594507710976106,"101":-0.13973744392542695,"102":0.07115816843641996,"103":-0.04421948362648858,"104":0.062328103239695676,"105":-0.13221854118413276,"106":0.032166207320873344,"107":-0.02760450950818683,"108":0.10785976320370236,"109":0.009397148934768366,"110":-0.04032019703066636,"111":0.0801798069965547,"112":-0.041937358172882584,"113":-0.016786781184264982,"114":0.025481036106784802,"115":0.04836250826117321,"116":-0.03781830169816761,"117":-0.1621977963051909,"118":0.08078932607239842,"119":-0.047325193262940296,"120":-0.0012836559483300313,"121":-0.08766307533776187,"122":0.05137099226285186,"123":-0.032722109268189276,"124":0.06833831140573426,"125":0.03498759065293239,"126":0.11659613167942791,"127":0.11599431206291944,"128":-0.08076293110886004,"129":0.06109265306318817,"130":-0.052826929583601835,"131":0.09377479978271751,"132":0.12516861154845457,"133":-0.18832963705721123,"134":0.041547141950655335,"135":-0.011562569675096439,"136":0.06335877068384521,"137":0.04850328907134954,"138":-0.04247169223530814,"139":-0.019100932992219183,"140":-0.010488574861236784,"141":0.06380081181933546,"142":0.07631949468321798,"143":0.11494466157787764,"144":-0.0038086095811693164,"145":-0.04911499730261612,"146":0.02736834798945766,"147":0.023714966804479102,"148":0.002082703444180477,"149":-0.07326001871229391,"150":0.06024497405011098,"151":-0.10828869670937856,"152":0.12312371248987607,"153":0.06035101072268843,"154":-0.01997935652442819,"155":0.010423878244878827,"156":-0.021613842137097078,"157":-0.025897188687211904,"158":0.06086281825721897,"159":0.09781510216963032,"160":-0.026078626223688024,"161":0.0677825076123857,"162":-0.07255462315832377,"163":-0.06533070740333889,"164":0.03868152902657087,