{"layers":[{"out_depth":3,"out_sx":32,"out_sy":32,"layer_type":"input"},{"sx":5,"sy":5,"stride":1,"in_depth":3,"out_depth":16,"out_sx":32,"out_sy":32,"layer_type":"conv","l1_decay_mul":0,"l2_decay_mul":1,"pad":2,"filters":[{"sx":5,"sy":5,"depth":3,"w":{"0":-0.06855230923629865,"1":0.09832621312601414,"2":-0.15961782606200398,"3":-0.008773250919521037,"4":0.09495418020127706,"5":-0.06061560221806981,"6":0.022870658790444455,"7":-0.03531187689342336,"8":0.0656021006350957,"9":0.1516440959062377,"10":0.1733610020360541,"11":-0.08215765609266104,"12":-0.0055304096266436025,"13":-0.03675772457678368,"14":-0.019624687539558712,"15":-0.0485540724810278,"16":0.028602519280958874,"17":0.050325734377777466,"18":-0.08256698035088204,"19":-0.08163075985795148,"20":-0.08793466171110902,"21":0.045362813440310346,"22":-0.267135802728446,"23":-0.35099001173291905,"24":-0.22002436305859974,"25":-0.050054215259272436,"26":-0.1832750852924242,"27":-0.1897010270558839,"28":-0.3042347160960841,"29":-0.13800354435899748,"30":-0.05702389010657376,"31":-0.015491396269144683,"32":-0.11181367678637993,"33":0.1687880970376482,"34":-0.019000454921287636,"35":-0.15836491857866378,"36":-0.06116895424182595,"37":-0.028902853159807514,"38":-0.1207414220489069,"39":-0.08691570502065586,"40":-0.023458067801109154,"41":-0.03416337956880179,"42":0.18611359030305863,"43":0.19299000004188152,"44":0.2062765769995078,"45":0.04151876084389682,"46":-0.10930514522091621,"47":0.07255009831071108,"48":0.009905635606122436,"49":0.08989572051388817,"50":0.17128437719025577,"51":0.15085056116710158,"52":0.14946025781206773,"53":-0.12405439272430056,"54":-0.006697040223110606,"55":0.27674286861815006,"56":-0.11986847668108369,"57":0.03304106621724808,"58":0.09522211437664535,"59":0.04226989988383335,"60":0.2735448225536201,"61":0.17902832226877566,"62":0.014082451973373494,"63":0.016444916704680578,"64":0.15332759120578673,"65":0.13907017956457668,"66":0.10628219985016688,"67":0.14548723121143506,"68":0.026474220198264557,"69":0.13722627077463573,"70":0.07952477902630946,"71":0.22136554366010322,"72":0.003239201918800018,"73":0.1364376382488524,"74":0.005729849286573655}},{"sx":5,"sy":5,"depth":3,"w":{"0":-0.13021578003098846,"1":0.09032444423886088,"2":-0.3087688249163907,"3":-0.02908389913370981,"4":-0.1399268999997368,"5":-0.17997325034303432,"6":0.007681850094764387,"7":0.10958172088231012,"8":-0.2303844621047229,"9":-0.038047612719342504,"10":-0.020661712806258864,"11":-0.10549866499876943,"12":-0.262229585446549,"13":-0.19998612806994226,"14":-0.2507402691652814,"15":-0.10080861476881162,"16":-0.06185918453285411,"17":0.10200748345556672,"18":-0.06392818015890407,"19":0.024529593442786917,"20":-0.010171337408153984,"21":-0.0531743505180105,"22":0.09978646785254477,"23":0.08664605339539541,"24":-0.1108643800295198,"25":0.119273731593468,"26":-0.08466838612068936,"27":-0.12894062054657704,"28":-0.276713019423408,"29":-0.06415627907307622,"30":0.0005139841980369172,"31":0.029702637874736017,"32":-0.09736493510887163,"33":-0.06404400643880763,"34":0.08626495807848435,"35":-0.13533275142907097,"36":0.08842411207071052,"37":0.10010983710524556,"38":0.17978070986817024,"39":-0.012167211849065602,"40":-0.09198361168585092,"41":0.007804711567813631,"42":-0.19739211736835807,"43":-0.0650135550176345,"44":0.03373711263934778,"45":-0.1920777913244485,"46":-0.20425101868150605,"47":-0.10413355289425774,"48":0.06223156181104382,"49":-0.14950667614408164,"50":-0.08773294641976827,"51":-0.24301671796250948,"52":-0.0116873161208124,"53":-0.19565829647076455,"54":-0.05928706621117676,"55":0.0626873905291518,"56":-0.06224404469462252,"57":-0.18238426960977433,"58":0.15653319113881928,"59":0.20117967345599488,"60":-0.1253339351669608,"61":0.04842339126992338,"62":-0.03135298183841765,"63":-0.0842910324808783,"64":0.07068786790216637,"65":-0.1590234146591663,"66":-0.27712175371706294,"67":-0.3559657825134127,"68":-0.04739070658300351,"69":-0.10127338691445387,"70":-0.1387550002924057,"71":-0.2778868386449086,"72":-0.16850588948671202,"73":0.0039845028446977215,"74":0.07918989724723005}},{"sx":5,"sy":5,"depth":3,"w":{"0":-0.03828901523244275,"1":-0.14385876710854503,"2":0.02366102446302619,"3":-0.018506652019228607,"4":0.10059904714058678,"5":0.027277539296642107,"6":0.03184550969882082,"7":-0.21609279674663573,"8":0.2958526835713383,"9":-0.04736048592035818,"10":0.12553959288172392,"11":0.04336919044319918,"12":0.023505920390517476,"13":-0.035394005608491805,"14":0.08204999327696647,"15":-0.2631000930352927,"16":-0.06392057904964932,"17":-0.21782356009914397,"18":-0.2124236109066549,"19":-0.03415845727355801,"20":-0.10986834884921073,"21":0.08393695922609738,"22":0.12236606084838153,"23":0.1417529190266132,"24":0.24942603110647277,"25":-0.00725228968049045,"26":0.24934123108522907,"27":-0.08288587892622554,"28":-0.10583068607888926,"29":-0.1794712964806287,"30":-0.0776261275396119,"31":-0.003726872933022942,"32":-0.08149265213452832,"33":-0.29154266354922287,"34":-0.3500648825392411,"35":-0.22029417736083226,"36":-0.35593906873802733,"37":-0.4118804951767839,"38":0.000023870481872941153,"39":0.4232998485744945,"40":0.31917749748881735,"41":0.5193291401102631,"42":0.25740355162156603,"43":0.20370492589684203,"44":0.11091525547183873,"45":0.08225671209438488,"46":0.3221144326886526,"47":0.045243219580338515,"48":0.16103104411628233,"49":-0.04670832752416879,"50":0.1951576114743938,"51":-0.1712089646992472,"52":-0.19050608772182787,"53":-0.4560011673158025,"54":-0.5200933454227599,"55":-0.5752396666652824,"56":-0.35313400716041915,"57":0.11881453641393785,"58":-0.03498062292503008,"59":-0.0425814151868678,"60":0.05117047466211163,"61":0.18008789161533065,"62":0.10685492710431907,"63":0.21898192250922546,"64":0.1613461909669529,"65":0.2638850262616071,"66":0.42006978449874255,"67":0.3865829710782739,"68":0.4614157720986628,"69":-0.05649056174621248,"70":-0.12650449071651532,"71":-0.04374042100904211,"72":-0.5046120561726875,"73":-0.4204790186261573,"74":-0.06084091271813398}},{"sx":5,"sy":5,"depth":3,"w":{"0":0.043387734229127395,"1":0.07231775963879429,"2":-0.048194921862585255,"3":-0.3008882654058476,"4":-0.07712630811232207,"5":-0.2500588291404922,"6":0.03640313518527996,"7":-0.004094013079050929,"8":0.16321521581710474,"9":0.020751086351508987,"10":0.12406332619438254,"11":0.08980444748045514,"12":-0.045275431473634865,"13":-0.011259910451665854,"14":0.06735072609893959,"15":-0.1653247029609219,"16":-0.04319792366330724,"17":-0.09197349432511187,"18":0.18897776148570525,"19":-0.05326069605178786,"20":-0.40479329951713533,"21":-0.3036090090523497,"22":0.09165914383218383,"23":-0.028116133496665283,"24":-0.021337288699424233,"25":-0.035693586136680354,"26":-0.18957434901968945,"27":-0.13777041280252952,"28":-0.05512804141941107,"29":-0.009873273366322656,"30":-0.11998447333306542,"31":-0.10799476049186914,"32":-0.0448801289760021,"33":-0.04629800803138695,"34":0.041750975041473175,"35":0.05231253977073814,"36":-0.1017238515779638,"37":-0.07412216486437016,"38":-0.18743807984722707,"39":0.054166315665200526,"40":-0.09751459299337178,"41":-0.19942887659820838,"42":-0.022190757699197566,"43":-0.10748107370296664,"44":-0.177014346044783,"45":0.06889689947582384,"46":-0.05733753597701052,"47":-0.16091020762358504,"48":0.047746872839616754,"49":-0.00906878422001629,"50":-0.08616429870406962,"51":-0.1304371468718504,"52":-0.0033314723694503434,"53":-0.26980843019634976,"54":0.040526479793126936,"55":0.14815694026109408,"56":-0.1513403313825395,"57":0.057918494888886264,"58":0.001846578114552063,"59":0.0020877895307090492,"60":-0.1319349438226549,"61":-0.05843114021759225,"62":-0.11321755117088275,"63":-0.032366726681581644,"64":-0.1464097778654376,"65":-0.1426231993892688,"66":0.04322330370774334,"67":-0.015775470937898772,"68":0.1931072505771457,"69":-0.13174427382840906,"70":-0.015720284729560618,"71":-0.09859811921177021,"72":-0.09473685680857527,"73":-0.061187927607663714,"74":0.17454205410936313}},{"sx":5,"sy":5,"depth":3,"w":{"0":0.031635628986356204,"1":0.14698683291424727,"2":-0.16421263647680442,"3":0.16956355264227327,"4":0.10454317037002965,"5":0.04573766750033313,"6":-0.13538827342069237,"7":0.15139527725801374,"8":-0.042346202116768435,"9":-0.031999844518431096,"10":0.06698091763006925,"11":-0.1339674909067581,"12":0.03783731836133796,"13":-0.025191184284111094,"14":-0.05043390747110649,"15":-0.2842302054428295,"16":0.12941262442913723,"17":-0.1555779679858564,"18":0.43039657391284925,"19":0.4426214247531613,"20":0.3566344917971268,"21":-0.018322049026252635,"22":0.03158844405204081,"23":-0.00953388844361228,"24":-0.11522978932206437,"25":-0.040258513009964664,"26":-0.03723654635104911,"27":-0.08949347715512598,"28":-0.17062926307907267,"29":0.0735766615759879,"30":-0.051607332153945105,"31":-0.17780345176799567,"32":-0.2672472467058055,"33":0.0939349159787768,"34":0.30555598923474925,"35":0.2561415035233849,"36":0.14319954102509844,"37":0.32040281351298394,"38":0.35280478917387476,"39":0.2794793419606876,"40":0.05284448788405743,"41":0.09484322368398095,"42":-0.03603437683508424,"43":0.2736611891214817,"44":-0.012857207785448133,"45":-0.06381327822997253,"46":-0.11946306397791233,"47":-0.4638980249214567,"48":-0.0845109646852634,"49":-0.1408007377547345,"50":-0.3610009963786308,"51":-0.09701507917619308,"52":0.24383113790309144,"53":0.08999787617592107,"54":0.09792575992347569,"55":0.4423745698433045,"56":0.19231538585972424,"57":0.2007260915031463,"58":0.06812849956833077,"59":0.02301303429042451,"60":0.032800075639179374,"61":0.0009857758799387119,"62":-0.12377685718035611,"63":-0.1371610677195869,"64":-0.40165561053693105,"65":-0.25759169057646986,"66":-0.2898533405458063,"67":-0.37671800829981233,"68":-0.5121456530840691,"69":-0.05753272017696507,"70":-0.4970965255024704,"71":-0.19842417171667273,"72":-0.2277226616473343,"73":-0.13685674017580785,"74":-0.04801236822738578}},{"sx":5,"sy":5,"depth":3,"w":{"0":0.008602760759691911,"1":0.2457223234712942,"2":0.16530811612099347,"3":0.20580849036704438,"4":0.2460089068758286,"5":0.11824273085436483,"6":0.268969437857718,"7":-0.07159824133359038,"8":0.06404105127428152,"9":-0.10348913901807445,"10":-0.030723479369350406,"11":0.1525253959315126,"12":0.01981885154183115,"13":0.013544597041617971,"14":0.06747981268760922,"15":0.09700187648914504,"16":0.1373811175876064,"17":0.15875942799640944,"18":0.1912024146108781,"19":0.22783355354353804,"20":0.3135187925778987,"21":-0.2974237440929196,"22":-0.05056181058847666,"23":-0.41383400874355436,"24":-0.32603323414587215,"25":-0.29663049946081677,"26":-0.5615823045810319,"27":-0.036566825281796125,"28":-0.22551312848478955,"29":-0.10279711507340514,"30":0.4380494049431196,"31":0.041090603340829146,"32":0.18605074522508877,"33":0.10578517196051844,"34":0.020395980154600705,"35":-0.2845004313483614,"36":-0.39506578999440745,"37":-0.1841937925150845,"38":-0.037947790268951134,"39":-0.2671757394996507,"40":-0.4405833354986947,"41":-0.2096711318981726,"42":0.23568730921206438,"43":-0.07334032282967792,"44":-0.0338333223352187,"45":-0.03681259739043232,"46":-0.12159495816318362,"47":-0.22050947063029425,"48":-0.08300421609482567,"49":-0.033438259519335614,"50":-0.31102162842024034,"51":0.14934555363048851,"52":0.04301372736141853,"53":0.0831953920872821,"54":0.41374853437129167,"55":0.20534935501963797,"56":0.3681786081043386,"57":-0.36378104483790774,"58":-0.32614157458062515,"59":-0.4448909820303621,"60":-0.09703003058407203,"61":-0.12218317743802284,"62":-0.0827916684696078,"63":-0.07974150553470326,"64":-0.2738357056525346,"65":-0.16651248506031124,"66":0.19261166675059235,"67":0.31236501086851154,"68":-0.06957302048608865,"69":0.31348815715797484,"70":0.059324159564951774,"71":0.17640059984634293,"72":-0.1631907748462125,"73":-0.22561532603259585,"74":-0.2669261354547123}},{"sx":5,"sy":5,"depth":3,"w":{"0":-0.06125995745383541,"1":-0.1270198495148542,"2":0.0008021652716725264,"3":-0.18379647727361695,"4":-0.07321306061690246,"5":-0.12838939872921165,"6":-0.04661470169477457,"7":-0.014303907380595834,"8":-0.2220923753958212,"9":-0.23427332641088727,"10":-0.1561174146399639,"11":-0.03361138404547288,"12":-0.05724184333858703,"13":-0.10335328933870412,"14":-0.03603374864953908,"15":-0.08186635130149156,"16":0.025646610812892767,"17":0.06374191860246604,"18":0.2078395709689985,"19":-0.06149266040367683,"20":-0.011314523326312147,"21":0.07968144585337153,"22":-0.1527861363668347,"23":-0.12743172348231002,"24":0.08393749761112836,"25":0.25902076406610686,"26":-0.12699128191998235,"27":-0.11017500648140972,"28":-0.1277360205839737,"29":0.046392165041604386,"30":-0.19044553164668396,"31":-0.20904650437844263,"32":-0.12246522765602495,"33":0.0659258513538805,"34":0.10983434027788842,"35":0.05445979500573328,"36":0.06914076472719063,"37":0.19844202363702823,"38":0.0202453489802842,"39":-0.04492332772236175,"40":0.2851318379788401,"41":0.16418366793828268,"42":-0.07308244191170772,"43":-0.05620453196440635,"44":0.0547493344492088,"45":-0.14508311658969836,"46":-0.5706344746355779,"47":-0.31268212182614985,"48":0.03581574449580707,"49":0.1975276090966982,"50":0.17454255168458616,"51":0.09414412515462925,"52":0.10561381363828085,"53":0.039523020650503365,"54":0.09040402292235449,"55":0.2985426853652605,"56":0.10059864313424555,"57":0.10480785030471662,"58":-0.1253004547606292,"59":0.046379723552750045,"60":-0.12576919760968175,"61":-0.27393997557331856,"62":-0.21421722698654483,"63":-0.09585893219304094,"64":0.11058719238625232,"65":0.0546967171436023,"66":-0.033199194636816726,"67":0.23577326520730468,"68":0.027979412243782805,"69":-0.10707267906821728,"70":0.014671432368739853,"71":0.23414458808151384,"72":0.0916625142403429,"73":0.05417396881599068,"74":0.18623117731414968}},{"sx":5,"sy":5,"depth":3,"w":{"0":-0.0678094052394446,"1":-0.0802419845108471,"2":0.13927871914288897,"3":0.27129157936355075,"4":0.15319297523399728,"5":0.24656004911022328,"6":0.19718156248973462,"7":0.10697391096032229,"8":0.2744624361207133,"9":0.0015127344329975779,"10":-0.1754695179503813,"11":0.012583692011507833,"12":-0.06090117543831046,"13":-0.20691507565283718,"14":-0.17236395341116567,"15":-0.03161211698878046,"16":0.07973494863669583,"17":-0.12484207349389297,"18":0.14981256029163076,"19":0.048870603799254016,"20":0.3467494816863788,"21":0.24446193254653306,"22":0.1601738971763283,"23":-0.034427715914152585,"24":-0.21469755363989818,"25":0.032615773576591595,"26":-0.35945676557019657,"27":-0.30153027010193756,"28":-0.1550673493086739,"29":-0.21883184505941924,"30":0.07802879566143439,"31":0.005196275241727602,"32":-0.2293923365144431,"33":0.017904570362573882,"34":0.020258503962236284,"35":0.03565631031408221,"36":0.20865131404805373,"37":0.09964532208055207,"38":0.000747056451895559,"39":-0.012472244535000296,"40":-0.37056790538316625,"41":-0.048989688144864166,"42":-0.09352698704552033,"43":-0.30865544199294015,"44":-0.10323117808558653,"45":-0.22575204483052957,"46":-0.04044320453943069,"47":0.020725882364101864,"48":0.01566197069766976,"49":0.1739305243687152,"50":-0.0756971474905012,"51":-0.08886941004829313,"52":0.0023070608333067865,"53":-0.002673247250128307,"54":-0.2568655756003326,"55":-0.30989586067306474,"56":-0.28577705121634905,"57":0.20895855599402566,"58":-0.2100916052202258,"59":0.24877675488590825,"60":-0.07503163257245413,"61":-0.12980738392811542,"62":-0.38433264668955536,"63":0.06293262057461135,"64":0.19599296660138973,"65":0.10107915042264808,"66":-0.09396612747587382,"67":-0.17380981151430216,"68":-0.1481075102728442,"69":-0.16117624950554754,"70":0.09921019396493574,"71":-0.2118660425426707,"72":0.2124939710480835,"73":-0.03953169973671682,"74":0.078351096428759}},{"sx":5,"sy":5,"depth":3,"w":{"0":0.24927559309885283,"1":0.24834724283266615,"2":0.2192895879363005,"3":0.18542762393712112,"4":0.34519553556537286,"5":0.1546623049239185,"6":-0.38057142660712373,"7":-0.24741724226123452,"8":-0.3207748593604771,"9":-0.02064147835404824,"10":0.09169465809112706,"11":0.020142818239665187,"12":-0.11191530487242593,"13":0.008176977142773665,"14":-0.08132989030279797,"15":0.1959795690189651,"16":0.4252344174354617,"17":0.22045131022084433,"18":0.18081822150365928,"19":0.4790796491005772,"20":0.09322144105103598,"21":-0.23829542268026793,"22":-0.28527389642735135,"23":-0.38567771685823404,"24":0.12794620738565474,"25":0.11614799168157418,"26":-0.04711153243949378,"27":-0.021825355822827408,"28":0.07218343655113038,"29":-0.05245112838878178,"30":0.30729236017495815,"31":-0.23037044215567512,"32":-0.06572815169263205,"33":0.103005527433644,"34":0.1520926620586234,"35":0.024545993733016816,"36":-0.40524239093690007,"37":-0.4574509072258055,"38":-0.2504516965931644,"39":0.053923925176090494,"40":-0.08140913146867128,"41":-0.07297229275436558,"42":-0.1257761382645651,"43":-0.15317239641473265,"44":0.0068162348941654145,"45":-0.059409728013818705,"46":0.13975060289309327,"47":-0.05828878494308712,"48":0.2205912350482217,"49":0.3595397455149802,"50":0.1092741750471462,"51":-0.3057006669876241,"52":-0.10582525502482189,"53":-0.037415158951126654,"54":-0.07704678583838806,"55":-0.06596630851447062,"56":0.0393659095152145,"57":-0.07912204710620653,"58":-0.1336003149931903,"59":0.006802884115241797,"60":-0.10610102995655188,"61":0.048372791184847934,"62":-0.018608321851814266,"63":0.17318427086932334,"64":0.2303273273012961,"65":0.2706469050846096,"66":-0.13225385781525922,"67":0.036697073580870467,"68":-0.059582319893763086,"69":0.18870323352617277,"70":0.02562812606864013,"71":-0.05816849436496614,"72":0.031363023553025796,"73":-0.15556689581967528,"74":-0.3134067414246558}},{"sx":5,"sy":5,"depth":3,"w":{"0":-0.0708847603474917,"1":-0.16311453142090335,"2":-0.05438914164793909,"3":0.0786900618965372,"4":-0.13050642122255604,"5":0.20553198206761114,"6":-0.23548567338112203,"7":0.04688499363474231,"8":0.015679882449857536,"9":0.24792802051807605,"10":0.14277588484296036,"11":0.10525056292023138,"12":0.039687664054958945,"13":-0.012328147396532917,"14":-0.1515860287809708,"15":-0.06526104158985395,"16":0.02430567945161549,"17":-0.156847433691171,"18":-0.10037381848910051,"19":-0.13941493739648206,"20":0.030376495772552227,"21":0.28704198393956254,"22":0.09597554772790835,"23":0.26736811705534924,"24":0.012792948232792858,"25":0.0881693626797377,"26":-0.06525937806908795,"27":-0.1242319540502305,"28":0.3130280376351985,"29":-0.1290408878208625,"30":-0.28764311272517623,"31":-0.2287651325226148,"32":-0.15649025069844394,"33":-0.48322167241910874,"34":-0.4095005145454027,"35":-0.2773284684194664,"36":0.1099450421400763,"37":0.1783177631296046,"38":0.07414495524573737,"39":0.23332660017971904,"40":0.037117217983848746,"41":0.2855137491363982,"42":-0.015446100498867622,"43":0.05331096507574241,"44":-0.1622763256012579,"45":0.15498078174413613,"46":-0.04918001573193642,"47":-0.12872468973339557,"48":0.05731170295426954,"49":0.03646256733815987,"50":-0.044927592984634265,"51":-0.43077845739978576,"52":-0.3443917878563267,"53":-0.5583314201102764,"54":0.2795220629149738,"55":0.5029221551979768,"56":0.2735971532369009,"57":0.18881937989046582,"58":-0.13095772143573414,"59":0.24779483951473402,"60":0.35776835650319033,"61":0.1385628870055497,"62":0.3835258698336356,"63":0.40952724509717225,"64":0.361542565317588,"65":0.3952204017401084,"66":0.010110869811126843,"67":0.15487265610621676,"68":-0.06821043143547913,"69":-0.2096407552335361,"70":-0.4343643732277653,"71":-0.2560333187970596,"72":-0.2542042163963074,"73":-0.04963674961115678,"74":-0.2120420891014998}},{"sx":5,"sy":5,"depth":3,"w":{"0":-0.0025506401580009308,"1":-0.06124360998042947,"2":0.03558593842069616,"3":0.13849977130096514,"4":-0.06485886002315623,"5":-0.03533758421573769,"6":-0.09092139183889414,"7":-0.04109944871199638,"8":-0.20480006988956023,"9":0.01539445191218962,"10":-0.04828676320770314,"11":-0.049732560002388085,"12":0.19326604647930565,"13":0.10883543943169627,"14":0.1494721371410778,"15":0.10456669836225897,"16":-0.06951021439899682,"17":0.12235056129524449,"18":-0.042149854041092914,"19":-0.16141163577010087,"20":-0.12218192218418532,"21":-0.22400593530615265,"22":-0.11341112504644169,"23":-0.08879445488321389,"24":-0.11874101362336757,"25":-0.01637093647623284,"26":0.11643988093565548,"27":0.11163493030021099,"28":0.1999313683337591,"29":0.0382624613678128,"30":0.10775802420936038,"31":0.16127914779989666,"32":0.14379778040626517,"33":-0.06242969861841635,"34":-0.13265122128492285,"35":0.23421298719155928,"36":-0.09121373408926076,"37":-0.21418968992088147,"38":-0.20115193282875912,"39":-0.4014014948990397,"40":-0.14466423512186036,"41":-0.01970929696519347,"42":0.2298750425700034,"43":0.12372194074142959,"44":0.3075859034860919,"45":-0.06361867003278678,"46":0.05894089194429288,"47":-0.1368702658457517,"48":0.12386844747712873,"49":0.1667816752851633,"50":0.1348094764317524,"51":0.3313797584455398,"52":-0.10237531770940297,"53":0.24681349997479532,"54":-0.19528524324357477,"55":-0.48345148058910503,"56":-0.5697039213693281,"57":0.3192657322307878,"58":0.2186899115019736,"59":0.12830780181338852,"60":0.00750207937628795,"61":0.03629698744228552,"62":0.04457161692652538,"63":-0.05449202279082981,"64":-0.01777788785042237,"65":-0.03003519368588991,"66":0.20958502748390354,"67":0.1588255630444146,"68":-0.007313099228964451,"69":-0.21401064329362632,"70":-0.13914168277451186,"71":-0.24538659119313952,"72":0.010413014564188349,"73":0.12344375153392911,"74":0.2274051885423217}},{"sx":5,"sy":5,"depth":3,"w":{"0":-0.27925414085611927,"1":-0.1551892674396734,"2":-0.19975821665973384,"3":0.16839464378597202,"4":-0.08563720960339802,"5":0.21886661009162783,"6":-0.16749078407515433,"7":-0.12263928434792086,"8":-0.031394732978785186,"9":-0.04759913441201808,"10":0.10822265264092357,"11":-0.11833398951852392,"12":-0.026166518271570953,"13":0.004507279284333516,"14":0.0810909989555903,"15":-0.12156794488691058,"16":-0.040011565647354565,"17":-0.21218481411211773,"18":0.1525450356796185,"19":0.09658396039080944,"20":0.2879562444840701,"21":0.047619545538655626,"22":0.0433307392865309,"23":0.047847482240119796,"24":-0.2569059067218588,"25":-0.006559887524206822,"26":-0.21563588260798092,"27":0.09614529576581574,"28":0.011563453394949985,"29":0.14619385682969208,"30":-0.15875053725901953,"31":0.17120971156910023,"32":0.07981070568012907,"33":-0.31838101607303354,"34":-0.2541105794850545,"35":-0.3752836023989155,"36":0.01213693120358211,"37":0.2543950953695312,"38":0.46014395776658495,"39":-0.01859716274083896,"40":-0.21090236388023695,"41":-0.026621857490410114,"42":-0.12874673275284626,"43":-0.011068141477752078,"44":-0.11203370145493009,"45":0.3220352715474262,"46":0.26685087852857364,"47":0.17781855174164593,"48":-0.18460332752951555,"49":0.043031842224229865,"50":-0.017813313344942776,"51":-0.1465452780020595,"52":-0.12075982566192885,"53":-0.015192000037448267,"54":-0.028686363700477398,"55":-0.0444149532676154,"56":0.04809559612153075,"57":-0.3860346955816671,"58":-0.11340433919534108,"59":-0.13559970101208632,"60":0.011612031664871642,"61":0.027398479516464177,"62":0.07348952604667335,"63":0.10517511409300075,"64":0.13602243175789533,"65":-0.04279819376949332,"66":-0.1792005717487087,"67":-0.13675165889032567,"68":-0.16600602353644753,"69":-0.061817888705706356,"70":-0.31306689878892024,"71":0.17702090666370132,"72":-0.2567981189543315,"73":-0.1003678284366473,"74":-0.2374212843156324}},{"sx":5,"sy":5,"depth":3,"w":{"0":0.23731991305672986,"1":0.11223401618461122,"2":-0.10221181728913936,"3":0.1288992025168004,"4":0.043638512970053424,"5":0.4432116122609891,"6":-0.057493595159320135,"7":0.13174266029311804,"8":0.21551508320748033,"9":-0.5259361340411728,"10":-0.1137327214491332,"11":-0.21544791042321168,"12":-0.4590951411779473,"13":-0.11025125945997626,"14":-0.15794394296456946,"15":0.26373445221291475,"16":0.3139007427358505,"17":0.18397451819445432,"18":0.23329057743520315,"19":0.16913763890878564,"20":-0.006187211241037457,"21":0.16769519593027976,"22":-0.06184614730837463,"23":-0.0334720620459197,"24":-0.3608758574920426,"25":-0.4216501936990513,"26":-0.29794006650053195,"27":0.0771025303659234,"28":-0.2415202208516923,"29":-0.047527620010529965,"30":0.27879329299972994,"31":0.20734276143541785,"32":0.18322345910002588,"33":-0.06884883207262242,"34":-0.12988483111049737,"35":0.010097292633633848,"36":-0.6136757223108826,"37":-0.3118652061211154,"38":-0.38533547895883336,"39":-0.2182270219231587,"40":-0.2236046682743127,"41":-0.0922971304252965,"42":0.1602517630820913,"43":0.1477969585216013,"44":0.20698176415897215,"45":-0.28660036725410204,"46":-0.3394994441327685,"47":-0.32207702025165913,"48":-0.20328937281876105,"49":-0.1253899565409668,"50":-0.12076756015701885,"51":-0.13987871078766492,"52":-0.2547888340145186,"53":-0.1346906927247082,"54":0.5456302917254975,"55":0.43856114056657247,"56":0.39450120557947704,"57":0.3120879399278911,"58":0.2884183533871189,"59":0.1872115476366203,"60":-0.27876967234289435,"61":-0.4583770501695847,"62":-0.12053503702378578,"63":-0.10603458209289154,"64":-0.2413038145271287,"65":0.05974655231236518,"66":0.273390712597664,"67":0.15766572884469898,"68":0.10245305877474466,"69":0.612327661210412,"70":0.43042283325343866,"71":0.5734232984538241,"72":-0.15446225057720153,"73":-0.1554308741177906,"74":0.11035948660431255}},{"sx":5,"sy":5,"depth":3,"w":{"0":0.039474581863622266,"1":-0.16701172740446002,"2":-0.06694581433137856,"3":-0.017486226328544595,"4":-0.13340033171363244,"5":0.09326199727827872,"6":0.0024813183565555717,"7":-0.11513597653689242,"8":-0.07326605660486503,"9":-0.1251263225218271,"10":0.04206928751316064,"11":0.012713747288798361,"12":-0.039029386520481005,"13":-0.047310566899601655,"14":0.005576126037577877,"15":-0.10890938643772857,"16":-0.22152977009325792,"17":-0.22267981575647663,"18":-0.09963916674092882,"19":-0.06652776716711588,"20":0.01005294970891109,"21":0.13920082321828142,"22":0.30606736439694676,"23":0.05227960700636011,"24":0.3073046850101102,"25":0.21471256541893655,"26":0.11186624615911558,"27":0.058943212216175836,"28":0.16657592957072953,"29":0.1345073430194234,"30":0.07253051176795192,"31":-0.014482866408463727,"32":0.0496040375138736,"33":0.027348893723659444,"34":-0.12288781324676062,"35":0.046802615972974686,"36":0.05467510843726474,"37":-0.04225752259474439,"38":0.09187418444165604,"39":-0.08744991384170898,"40":-0.14647953709140143,"41":-0.06559625615304446,"42":-0.16702089903342052,"43":-0.009483370771363289,"44":0.06345361779645586,"45":0.016356259163307102,"46":-0.3334515502735363,"47":-0.34721391034268834,"48":-0.246782713394254,"49":-0.10045735313568781,"50":-0.12073752766960301,"51":-0.33339896500112076,"52":-0.04700067407291338,"53":-0.23946269307475623,"54":-0.021629821505947115,"55":0.11195596104873222,"56":0.01747428781986494,"57":-0.1392990067610724,"58":-0.15121297850187132,"59":0.02355166838146907,"60":-0.05433870814646468,"61":-0.25748289103221234,"62":-0.09299049392685599,"63":-0.10299668688062631,"64":0.09599847841149377,"65":0.043361801764119405,"66":-0.3451678870484206,"67":-0.3542238273814805,"68":0.044601442946226456,"69":-0.4291979840250216,"70":-0.024539485854055344,"71":-0.16496166633275475,"72":-0.08648804201855348,"73":-0.06512466420236512,"74":-0.0023554979271121932}},{"sx":5,"sy":5,"depth":3,"w":{"0":0.3832708944318572,"1":0.20393972149420445,"2":0.3273813848123358,"3":0.245853296183012,"4":0.3552415706108287,"5":0.38043409999862304,"6":0.19725591348994287,"7":0.13576377724770908,"8":0.38149904402007717,"9":-0.5713133433300517,"10":-0.2550719382604395,"11":-0.4546106890578895,"12":-0.3337379646168523,"13":-0.2226199835037193,"14":-0.332641568735412,"15":0.2391994496482179,"16":0.2579710288285828,"17":0.18187730056398974,"18":-0.19229683852673016,"19":0.05691574668825862,"20":-0.1862721740463882,"21":-0.15616603102094062,"22":-0.49296778389739127,"23":-0.57588992373634,"24":0.001906676351386878,"25":0.02081092545506729,"26":0.3046034268269727,"27":0.3790994600440523,"28":0.4148359541891421,"29":0.10320610216265873,"30":-0.3775133833841348,"31":-0.4701312219546374,"32":-0.2823651347481977,"33":-0.1476954941162475,"34":-0.24929849068415896,"35":-0.09564741283899655,"36":0.04357260793131358,"37":0.22073219693694623,"38":-0.044849819441280026,"39":0.37622996573915307,"40":0.46805944935057575,"41":0.37921657381520135,"42":0.18722396829036606,"43":-0.011565014682720106,"44":0.0779821186754766,"45":-0.07748025658362945,"46":-0.1695661504102659,"47":-0.1726945596812946,"48":-0.06286434175314749,"49":0.15109800441629664,"50":0.09404136395422995,"51":0.15777309258304853,"52":-0.0562989128618307,"53":0.01662616769393691,"54":-0.0344800332866778,"55":-0.10553548156527083,"56":0.20719758888711012,"57":0.18341576475639784,"58":0.023016315718091374,"59":0.016805587093905103,"60":0.018908886482306576,"61":0.07916064496999115,"62":0.08460602304539017,"63":-0.1340447144253489,"64":0.007153014612647004,"65":-0.14865702269138134,"66":0.207471500844985,"67":0.14826749244968299,"68":0.013931075611025728,"69":0.05165667982400239,"70":0.012234006847508598,"71":-0.2636104052914843,"72":-0.028418111424214992,"73":-0.08677212324054204,"74":-0.060280264532724274}},{"sx":5,"sy":5,"depth":3,"w":{"0":-0.13867975127488066,"1":0.08383027883609127,"2":-0.016517332461199557,"3":-0.0445579958271512,"4":-0.17414388840051834,"5":-0.033096104882354926,"6":-0.0668330390734918,"7":-0.12633728625425528,"8":-0.021442011520710246,"9":-0.16282974807245182,"10":-0.29332743291324376,"11":-0.15548348745261634,"12":-0.15546524763441671,"13":-0.26731961173099256,"14":-0.1932209793878125,"15":-0.1958641721009105,"16":-0.0730308528047359,"17":-0.018108818347947923,"18":-0.04525628771547818,"19":-0.13167259714368257,"20":-0.10412629575574418,"21":0.10272947305594984,"22":-0.05527624095972177,"23":0.22738564730772923,"24":0.004985697571771169,"25":0.10423284062849326,"26":-0.0034257210643719505,"27":-0.027352991216790707,"28":-0.05330337760151347,"29":-0.0770965871823878,"30":0.15598813296404468,"31":0.12221340512910883,"32":0.45311669324738457,"33":0.23307313684296707,"34":0.30191587114454904,"35":0.0695940601726412,"36":-0.02093353342140723,"37":0.23729086039316408,"38":0.1469294579900894,"39":0.2358203005363997,"40":0.23530296971918901,"41":0.27430163516112904,"42":0.04831175754529747,"43":-0.16099548515067216,"44":-0.1251308547606892,"45":-0.17203633204184776,"46":0.13633258978455512,"47":0.14755989071343661,"48":0.026560824079934604,"49":-0.020915774370488104,"50":-0.06775995052716934,"51":0.07436756368938276,"52":-0.011095221961322958,"53":-0.133010271901855,"54":0.16764087871556166,"55":0.036505585302882865,"56":0.08267439563525382,"57":0.00464673581262306,"58":-0.13794310951212307,"59":-0.15723123926997187,"60":-0.3271931889150035,"61":-0.29647969682731934,"62":-0.12339287382542083,"63":-0.11345782359432399,"64":-0.2930153997836803,"65":-0.5354872472255595,"66":-0.22648396708310867,"67":-0.20252753551012156,"68":-0.23707451997610615,"69":-0.12673173281880498,"70":-0.0594615218060718,"71":-0.0037728146286075473,"72":-0.017769433897427366,"73":-0.058259845320962865,"74":-0.15786893906450755}}],"biases":{"sx":1,"sy":1,"depth":16,"w":{"0":-0.2718930456797426,"1":-0.4562901726549094,"2":-0.020914674262939647,"3":-0.2920778823287622,"4":0.1738666505781818,"5":0.288216858647456,"6":-0.28017993349193665,"7":-0.2669882343048014,"8":-0.08985871368667792,"9":-0.4894233808434017,"10":0.09569903066021726,"11":-0.6181865847197513,"12":0.24413434595238834,"13":-0.48168772329629495,"14":-0.3766643045318845,"15":-0.4750961848012503}}},{"out_depth":16,"out_sx":32,"out_sy":32,"layer_type":"relu"},{"sx":2,"sy":2,"stride":2,"in_depth":16,"out_depth":16,"out_sx":16,"out_sy":16,"layer_type":"pool","pad":0},{"sx":5,"sy":5,"stride":1,"in_depth":16,"out_depth":20,"out_sx":16,"out_sy":16,"layer_type":"conv","l1_decay_mul":0,"l2_decay_mul":1,"pad":2,"filters":[{"sx":5,"sy":5,"depth":16,"w":{"0":-0.06439219866347685,"1":0.06992908195554302,"2":-0.0373472361150498,"3":0.021377800243209094,"4":-0.20835622765521392,"5":-0.17476245602455356,"6":-0.2061027609963561,"7":0.12432313978807034,"8":-0.01207576836077044,"9":-0.16372592728481034,"10":0.011770784996929752,"11":0.02167370687016713,"12":-0.2364678580014305,"13":-0.018026697660372595,"14":0.05586564530551839,"15":0.11788676530741697,"16":-0.13979606697435318,"17":0.06162045223205898,"18":-0.31592886288784106,"19":0.12994355190749748,"20":-0.26769245050785206,"21":0.16850720076105233,"22":-0.10783739685270062,"23":-0.13429650529670412,"24":0.1308848309678231,"25":-0.080247979079638,"26":-0.07908713967675625,"27":-0.036475004460163614,"28":-0.17275136938443014,"29":0.002554387917133269,"30":-0.25464960746240295,"31":0.11271341135916807,"32":-0.12156861883566453,"33":0.023940907706669633,"34":-0.4402254321959992,"35":0.1109749095706004,"36":-0.17494866903051737,"37":-0.11939707703716398,"38":0.15044289358084165,"39":-0.2853408691015077,"40":-0.4745517355496008,"41":-0.23988123870563668,"42":0.04007385958918832,"43":-0.07355356457828668,"44":-0.32231633678422467,"45":0.04871234180672788,"46":-0.22209707393912617,"47":-0.18941013313399951,"48":-0.018101904526147482,"49":-0.035083041590304134,"50":-0.16214400226675205,"51":-0.09408401707265303,"52":-0.20087742481329726,"53":-0.2885297117612664,"54":-0.15896168689022444,"55":-0.01599162155957571,"56":-0.15800210342198615,"57":-0.06936632345521834,"58":-0.2231570960176967,"59":-0.23239531427780083,"60":-0.29516509684374975,"61":-0.03593435404327846,"62":-0.16961762830771263,"63":-0.08682963998830341,"64":-0.0598757495542266,"65":-0.020272283724365014,"66":-0.25277145293513364,"67":-0.35813378698816956,"68":-0.3185853851159607,"69":-0.5492930003156044,"70":-0.4096569603161678,"71":-0.2515344595071783,"72":-0.2954309424873931,"73":-0.0684063190589521,"74":-0.41988000914344037,"75":-0.17799049568715752,"76":-0.5578043903407542,"77":-0.22463466828239334,"78":0.0615125834068995,"79":-0.36575968229922423,"80":0.15487525622424322,"81":0.049380680137959036,"82":-0.23242874599932895,"83":0.03590866529945095,"84":-0.17359629602435747,"85":-0.11814789562101706,"86":-0.3258513946597886,"87":0.10246370374895006,"88":-0.13808303008286846,"89":-0.26968277602600277,"90":0.11419506660055667,"91":0.004369918844439337,"92":-0.2860785994754656,"93":-0.024449773309520532,"94":-0.3355055647886235,"95":0.15248514807591368,"96":0.06068155779120684,"97":0.06553991726511721,"98":-0.30032163359849307,"99":0.09730386708965055,"100":-0.11861030820206261,"101":0.07412748570567858,"102":-0.26919329400526637,"103":-0.10173249331832605,"104":-0.04396751785782353,"105":-0.19906428638226364,"106":-0.14132566818109416,"107":-0.05854110197808014,"108":-0.3552712007227156,"109":-0.09583125642111938,"110":-0.3427627116523866,"111":0.10114023652042728,"112":0.18981733320499045,"113":-0.01031018679148735,"114":-0.09099893919324795,"115":-0.034526345814751766,"116":0.02890080938396717,"117":-0.14270800133075606,"118":0.1867240149776627,"119":-0.3849495462448723,"120":-0.41837729061799905,"121":0.1500685388633984,"122":-0.12931400669754262,"123":-0.06674899008964799,"124":-0.07329594217945402,"125":-0.2071301488861579,"126":-0.25219485090608057,"127":0.046239586667126215,"128":0.06160394110892996,"129":-0.040207158553079186,"130":0.26513526764816414,"131":0.025925381731983787,"132":0.04948624769584952,"133":-0.23791641531453087,"134":-0.06001933730496401,"135":0.03498348007566279,"136":-0.05818358277566366,"137":0.22145285238967613,"138":-0.18125891610576392,"139":-0.08040451467617524,"140":-0.5476862858845303,"141":-0.0669157053434651,"142":-0.3941415441427973,"143":0.14520633237679148,"144":-0.18818910540800038,"145":0.03142086955893183,"146":-0.22272403907639005,"147":-0.0801270886741134,"148":-0.21446019210436013,"149":-0.13090086551339072,"150":-0.35851104118307214,"151":-0.0774504442241603,"152":-0.12834109950434702,"153":-0.05740546921829433,"154":-0.04053036846817794,"155":0.09226100255722733,"156":-0.12085986909265063,"157":0.02733805153449396,"158":-0.3909597597481501,"159":-0.14130627699261486,"160":-0.19944039059898533,"161":0.0789740281677356,"162":0.047733334073299945,"163":0.17103100368712623,"164":-0.12398256491927938,"165":0.14155810731638313,"166":-0.25030469369025765,"167":0.11528423237238754,"168":0.08571961604427934,"169":0.01513752051304341,"170":0.17396612154041377,"171":0.03711167628824517,"172":-0.24061201052604486,"173":0.062440821031213026,"174":-0.15786690658256233,"175":-0.013085616285539671,"176":-0.15158114350699747,"177":0.2693014697887647,"178":-0.1811663297840436,"179":0.25873451178119733,"180":-0.24326094630238768,"181":-0.017256809166893875,"182":-0.0725075076806514,"183":0.011395716776969406,"184":0.07096285753310894,"185":-0.06908371026213729,"186":0.19582195586970463,"187":0.1326028245636743,"188":-0.07477464788558358,"189":0.13732402222799153,"190":-0.07848339275685715,"191":-0.0724297737705378,"192":0.04492120020802014,"193":0.11520704842910813,"194":0.35179845466552445,"195":0.24612075318494125,"196":-0.04289469563225021,"197":-0.035608339193154835,"198":0.0959109120594091,"199":-0.04012650775921387,"200":-0.13780847490083073,"201":0.13360988043802294,"202":-0.17980344597790462,"203":0.27277237139295507,"204":-0.2109644947913952,"205":-0.01110358641482821,"206":-0.16965429965247664,"207":-0.11129884331378785,"208":-0.2360782956456338,"209":-0.12319920026979385,"210":0.34501682630143726,"211":0.09551428027061498,"212":0.10506753188488233,"213":0.08901626295993884,"214":-0.4674544445865131,"215":0.008583819796957413,"216":0.10221863584364846,"217":0.17669610529794008,"218":0.24234826744195245,"219":-0.07427197174520889,"220":0.3399144534758939,"221":0.07559563941470993,"222":-0.1732303324694508,"223":0.08250374620042121,"224":-0.010337008680681301,"225":-0.01858724172995851,"226":-0.3618853181159879,"227":0.01901669005919401,"228":0.1416517470852072,"229":-0.0477999674481014,"230":0.05578870962583662,"231":0.07232523874056403,"232":-0.009292110809708466,"233":-0.08759805770818373,"234":0.28211907199876896,"235":-0.07766128889103883,"236":0.349556702315735,"237":-0.028947533291690742,"238":0.45708581379589736,"239":0.07642960958674147,"240":0.20275729003908965,"241":0.03824808271131731,"242":-0.07457533743571418,"243":0.09732668672867295,"244":0.07176033330651824,"245":0.2526266309585358,"246":-0.07708756653386814,"247":0.1596807998514677,"248":0.21404330114724493,"249":-0.05055298847654158,"250":0.23737399593994435,"251":-0.031219140482410444,"252":-0.15168300386426886,"253":0.007507044212495346,"254":-0.2016084623493635,"255":-0.1376637356086418,"256":0.2122362303082817,"257":0.14170653594432062,"258":-0.2567723500119887,"259":0.23074572166706397,"260":-0.02724261277217621,"261":0.04994892253577359,"262":-0.020307037119598168,"263":-0.17055648084700073,"264":-0.08009339391031117,"265":0.04305724943902104,"266":0.2590001456299372,"267":0.08497328845613676,"268":-0.07721956655776403,"269":0.00415445682734618,"270":-0.0756086300633119,"271":-0.07992202662530608,"272":-0.02359361178720418,"273":0.29991392092465474,"274":0.2690955105659258,"275":0.35051445082463295,"276":0.15733441554040847,"277":-0.08427359533541662,"278":-0.04367017744388747,"279":0.28743057842840053,"280":0.06738500497395086,"281":-0.2700997243013106,"282":-0.07076371857553657,"283":0.3158691452954747,"284":-0.17928985714502804,"285":0.1310634228702354,"286":0.159066754091663,"287":-0.04303815575535379,"288":0.12865302786801916,"289":0.10809750885876228,"290":0.11705098532028603,"291":0.3268490774876425,"292":-0.009157697370667742,"293":0.22870157131856486,"294":-0.15323862363752136,"295":0.2076717103654119,"296":0.12194273439847722,"297":-0.2730262668993613,"298":0.3470649022437918,"299":0.04799251969046237,"300":0.4561436769100761,"301":0.004827490726721891,"302":0.2043664501484937,"303":-0.07363564579233162,"304":0.11497537491590888,"305":0.10616626146778559,"306":-0.198898290200601,"307":0.18253510177306692,"308":-0.010297468157282996,"309":-0.05496823689680621,"310":0.30209121895057595,"311":0.1766057190344438,"312":0.026720180071097357,"313":-0.5043053333074051,"314":0.012955308602899718,"315":-0.027323608908148066,"316":0.2287617380609263,"317":0.05062821589071036,"318":0.44937347943847794,"319":-0.23444906688919007,"320":-0.09052144882063408,"321":0.18172786998163798,"322":-0.1918355881852302,"323":0.04363808422233982,"324":-0.20707555207377404,"325":-0.23128519647889664,"326":-0.22422140382883057,"327":-0.13414818532486975,"328":-0.2595996508219179,"329":-0.1297816597455268,"330":-0.11864573128557604,"331":-0.04309385610263498,"332":-0.3493490806027962,"333":-0.1130097872004504,"334":-0.2793161644779397,"335":-0.04384980069710133,"336":0.06785539480799038,"337":0.010506752633760863,"338":-0.023653195707320926,"339":0.12382283907697829,"340":-0.2816773120039859,"341":-0.13105140516667838,"342":-0.14417493687475896,"343":-0.5069263787677342,"344":-0.3507462554570479,"345":-0.008539996458449042,"346":0.0731907471732046,"347":0.013899214825315162,"348":-0.37483989431147613,"349":-0.08097188561337486,"350":-0.0026672112683273764,"351":0.15113403871330347,"352":0.016828475712365815,"353":0.18625909938257645,"354":0.29871060503973285,"355":0.23009600467581787,"356":0.21543798869306735,"357":-0.08592080772654928,"358":-0.2743095824832101,"359":0.33666670012615124,"360":0.12449205337450318,"361":0.061301737308149994,"362":0.06848941443159655,"363":0.301554062861338,"364":-0.01488219836300143,"365":0.21234954889393412,"366":-0.1837958187134759,"367":0.11274616643181487,"368":-0.10284703507865117,"369":0.25735012217940006,"370":0.168119418621002,"371":0.2257460017013649,"372":0.0008141296049213533,"373":0.1560316446866903,"374":0.0007440784486949007,"375":-0.021494728739432045,"376":0.3272700055701694,"377":-0.11198083381950669,"378":0.020397313716920763,"379":-0.08328973318067256,"380":0.23725327871907417,"381":0.0481963676805336,"382":0.19105622411056558,"383":0.04162383790093509,"384":-0.008043366258379632,"385":0.083249007253919,"386":-0.2923808182209427,"387":0.06725208307004676,"388":-0.3557992313857815,"389":-0.1728148654183214,"390":0.1763522146005154,"391":-0.20883624111100396,"392":-0.5843216395837264,"393":-0.23798431613379387,"394":-0.6282939965736434,"395":-0.12739025244033514,"396":-0.15499714948108737,"397":-0.048343588952532754,"398":-0.07868040535376043,"399":0.03798857182854026}},{"sx":5,"sy":5,"depth":16,"w":{"0":-0.10425525241381223,"1":-0.046862427794857255,"2":-0.0762095719417103,"3":0.18763722182424675,"4":-0.101088565688911,"5":0.16835018771904148,"6":-0.09765669313273237,"7":0.15289943977289583,"8":0.04082892176512552,"9":-0.1776154126873863,"10":0.1457350051156936,"11":-0.10423469867743104,"12":0.02700459792058636,"13":0.01753387621503858,"14":0.00855259825144153,"15":-0.042694713199634665,"16":-0.22811762081016349,"17":-0.05109211229008814,"18":0.15637847026939491,"19":-0.0710742140665043,"20":0.07451352744238642,"21":-0.1425221231077046,"22":-0.09428215316465674,"23":-0.17289821774555922,"24":0.16143457213802442,"25":0.25940268347782913,"26":0.04817151572508696,"27":-0.117255007607957,"28":-0.234372025268854,"29":0.007149723275079705,"30":-0.4963291762989952,"31":-0.14908202051025635,"32":-0.28747937964802167,"33":0.10210149957718152,"34":-0.011184171001175832,"35":-0.006980935178298485,"36":0.3165808151104431,"37":0.006776790951635035,"38":-0.22439345453301313,"39":0.25672012729804927,"40":-0.00437378468584277,"41":-0.11073999009921141,"42":-0.026953152228062445,"43":-0.2983614239820208,"44":-0.29338971296857286,"45":-0.006462759435689195,"46":-0.5459244427215889,"47":0.08564932270283977,"48":-0.013861499774784432,"49":0.35337767651341473,"50":0.16874367166961374,"51":0.13297818859772012,"52":0.063322629478985,"53":-0.06257059989467975,"54":-0.08295349948085096,"55":0.060040674941188046,"56":0.423816860994694,"57":0.010503386333788554,"58":0.36922321182906026,"59":-0.1813487205352029,"60":-0.1623602045212918,"61":-0.03513089019246545,"62":0.20631476972115112,"63":-0.28722123216797896,"64":0.006611112497621591,"65":0.11981187351290018,"66":-0.1349264259754472,"67":0.24370906735700013,"68":0.1697804745211203,"69":0.03239892218703674,"70":0.23657089521139776,"71":-0.2561908566913365,"72":-0.10491852324117942,"73":-0.3507377625102247,"74":0.21919642407438364,"75":-0.07647371962056815,"76":-0.24106594187810565,"77":-0.13536504444894693,"78":0.10128505781609558,"79":-0.07433126747491244,"80":0.15290511427137726,"81":0.03484782515459025,"82":-0.04270805531229668,"83":0.11990197512033253,"84":-0.03771122322477872,"85":0.031191792006012936,"86":-0.044357480356571284,"87":0.03362586956000729,"88":-0.208133641272459,"89":-0.1815145945400524,"90":0.24420875187629967,"91":0.09582578499707409,"92":0.3121652349606412,"93":0.13226685592190363,"94":0.0058239815534659335,"95":0.49975875847417456,"96":0.066621621872933,"97":-0.009053927470315548,"98":0.5543324819755052,"99":0.10516805973100811,"100":-0.264562648107324,"101":-0.20909795235666206,"102":0.08169969502961405,"103":-0.19728429436725092,"104":-0.12265450556002849,"105":0.18882704611787773,"106":0.2842963278104986,"107":-0.0784901342920022,"108":-0.03496422012331798,"109":0.027192134511323126,"110":-0.06488847793211766,"111":0.11173799858574456,"112":0.06585842593326617,"113":0.20197726176992492,"114":0.19746313466664228,"115":0.1700456859880429,"116":0.12147723244475901,"117":0.07113336670052081,"118":-0.028178290577713375,"119":0.16709214177303583,"120":0.05816662298586658,"121":0.21913104252701726,"122":-0.01634983744022142,"123":0.12713643130584223,"124":0.2851559473935074,"125":0.06827246325021058,"126":0.1640064536644111,"127":0.07566895015715777,"128":0.14058201224764702,"129":-0.07292417506151254,"130":0.2606564910985753,"131":0.2245842939061606,"132":-0.11278244480912458,"133":-0.0170609112838097,"134":-0.11884080202332394,"135":0.028116869825421106,"136":0.46017593478124447,"137":0.2505203307219723,"138":0.4033412152484651,"139":0.13391708302750835,"140":-0.07932756359593084,"141":0.041076514842327404,"142":-0.18394026235592525,"143":-0.2523111789860375,"144":-0.03434157997827923,"145":0.06375111710130471,"146":0.09625402859703623,"147":0.1336606509809378,"148":-0.018229337513684152,"149":-0.21585178246772435,"150":-0.07633334979677932,"151":-0.11479810260006369,"152":0.02940544885674706,"153":-0.2238464283231459,"154":-0.03273798244565463,"155":0.07861852437771925,"156":-0.1960797731284984,"157":-0.01382419604718106,"158":-0.45770940582860287,"159":0.04160420539882849,"160":0.10372435818098151,"161":0.23035407683727438,"162":0.47491700617284904,"163":0.15677059421969583,"164":0.17509847754033372,"165":-0.043806649144602534,"166":-0.0697334371382371,"167":-0.1257343894672857,"168":0.14981326753567464,"169":0.14543357521723194,"170":0.03212807559329899,"171":0.057992324088074025,"172":0.30561136364965513,"173":0.3085017807466449,"174":0.41499644276909503,"175":0.2673497025703425,"176":-0.14294531844958366,"177":0.1019898177434266,"178":0.4958344607258312,"179":0.1499448895624012,"180":0.2901240526025356,"181":-0.046882561791785904,"182":-0.1800794025421733,"183":-0.09671968281525374,"184":0.04869152033596668,"185":0.26522794456060017,"186":0.1641884104976115,"187":0.16196051531409966,"188":-0.14418014608034088,"189":0.0037516074455622266,"190":0.1773862323065114,"191":-0.2075776098389585,"192":-0.005230682202909097,"193":0.2340979296110822,"194":-0.30452022547306556,"195":0.31428597825666854,"196":0.17396270091839,"197":0.10964408602980842,"198":-0.03900145880720318,"199":0.036251857936066396,"200":0.03487450951699587,"201":0.29535682745233405,"202":0.09418553561007875,"203":0.030846836973835803,"204":0.5261878738218562,"205":0.1513960255426876,"206":0.06244885125860076,"207":-0.0035041144552732098,"208":0.06946557554378363,"209":0.1728900022758109,"210":-0.543464857157939,"211":0.17541558987433112,"212":-0.17201801749411788,"213":-0.03968727238602939,"214":0.23957678962236267,"215":-0.0024294852241804926,"216":-0.08869410274903762,"217":-0.4733767829309711,"218":-0.17770966204500802,"219":-0.0018694343495003073,"220":0.3864931334917718,"221":-0.013734814928163844,"222":0.14545514173899146,"223":-0.25320415611735075,"224":0.1974240767533035,"225":0.028100294581824104,"226":-0.42166693162614405,"227":0.28236515057206674,"228":-0.37964333863834643,"229":-0.1272269791156259,"230":-0.08725965215550802,"231":-0.4842522934303661,"232":-0.3125294557440279,"233":-0.2305860046603167,"234":-0.3942947776715549,"235":0.1782223436299748,"236":-0.08752701644881022,"237":-0.04130062411705459,"238":-0.29373951239968443,"239":-0.25700351370060853,"240":0.0058575104518672596,"241":0.08630759504463145,"242":0.3220293804799574,"243":-0.07400244164407187,"244":-0.13491105074452123,"245":0.19992727364940407,"246":-0.0765751015896314,"247":-0.08560488867919591,"248":0.010011356102422727,"249":0.12990440634909356,"250":-0.013375449233953991,"251":-0.15299373339733813,"252":0.22597205180565075,"253":-0.16403431078129985,"254":0.03251055231040786,"255":-0.11308169713059783,"256":0.08591389230337033,"257":0.17908131530340843,"258":-0.0006313551431532093,"259":-0.14354446174398947,"260":0.06949778738078279,"261":-0.3485746445591059,"262":-0.14993163868322237,"263":-0.048359390937268334,"264":0.13084595285925457,"265":-0.034501875055684854,"266":0.21805303341788038,"267":0.2549411752470044,"268":0.004597174967730768,"269":-0.3033161573408436,"270":0.19709014081319,"271":-0.4553817977171634,"272":0.15090894684801362,"273":0.21823526222276982,"274":-0.16981261422331745,"275":-0.0770996557775762,"276":-0.46879368893393725,"277":-0.253989727879528,"278":0.3304684159253739,"279":-0.7245259931831186,"280":-0.2326351650186359,"281":-0.24839890162167985,"282":-0.18123266908123836,"283":-0.05687115473729574,"284":0.34298887253674426,"285":-0.21749660717580574,"286":0.3123181553543875,"287":-0.05813319505289747,"288":0.15395528703447856,"289":0.09615396428356074,"290":0.12554462233019462,"291":-0.07393021432826982,"292":-0.23056331974941513,"293":-0.3538254023323227,"294":0.3109932060972236,"295":-0.11472368731699233,"296":-0.4540712496960879,"297":0.16082187084281016,"298":-0.19227472834926854,"299":0.03094535344357533,"300":-0.08032033828633567,"301":-0.14013178398560236,"302":0.13802201804967626,"303":-0.32156484757306414,"304":-0.054363938663812714,"305":0.04774151500833257,"306":0.025879257291045586,"307":-0.21944773374798343,"308":-0.24561211217908036,"309":-0.48461629562774083,"310":-0.03405068208944139,"311":-0.26598702095733157,"312":-0.5200608323973666,"313":0.023427572115407618,"314":-0.5947447670933317,"315":-0.07948571780241814,"316":-0.8799285409028851,"317":-0.2412859445906517,"318":-0.3059329670213292,"319":0.04581714106625536,"320":0.007540773455624416,"321":0.04547652666856834,"322":-0.013191623763725303,"323":-0.15708087584699906,"324":-0.03575895558258093,"325":-0.15482064457746844,"326":0.37276811379800395,"327":0.019440194284935788,"328":-0.20689612148238842,"329":-0.4631767114977989,"330":-0.21961053675940606,"331":-0.5214561527350879,"332":0.16316079281785187,"333":-0.31695695579489697,"334":0.07748952135580577,"335":-0.13393341471706605,"336":0.12384842481718966,"337":0.11301727934709613,"338":-0.21916798801452858,"339":-0.19914715288370216,"340":-0.5587648809182508,"341":-0.35348063606515817,"342":-0.03375804706920275,"343":0.29151937289199514,"344":0.06610262488725145,"345":-0.26787362819771654,"346":0.18169069894184112,"347":-0.044654029818083286,"348":0.26459727760727547,"349":-0.3041726509554942,"350":0.051428531198303304,"351":-0.19251900932882024,"352":0.08023386627141095,"353":0.2022702240829841,"354":-0.40461850615906364,"355":-0.11278296226311238,"356":-0.8179598997300305,"357":-0.3004217428326809,"358":0.26669057081029995,"359":-0.7485563044894971,"360":-0.3708968411951306,"361":-0.09612735677304803,"362":-0.4205416825598868,"363":0.10482738837600555,"364":0.1364668411288195,"365":0.07090947132070986,"366":0.17821271085236828,"367":0.0617609798903846,"368":-0.009152899275175685,"369":-0.06022010627775166,"370":-0.14631921877120752,"371":0.10302299865258584,"372":-0.4978148724353148,"373":-0.32988503788150997,"374":0.2651497422589987,"375":0.18746639370151144,"376":-0.27704982957145585,"377":-0.02568998639542939,"378":-0.4842625802166636,"379":0.026315309295782612,"380":-0.6652064624585339,"381":0.0411521149533132,"382":-0.052393714429855895,"383":-0.24625860995982546,"384":-0.11955876910575629,"385":0.05843494038413819,"386":-0.2365874424250834,"387":0.01259232721416666,"388":-0.44479310627053054,"389":-0.06174841029107172,"390":-0.27080709036753375,"391":-0.23287598865822423,"392":-0.4695112545397739,"393":-0.3638185336036255,"394":-0.4779153526814107,"395":-0.04179905144828703,"396":-0.5458595535955278,"397":-0.049979909633486155,"398":-0.22576310453113174,"399":-0.11182964253027931}},{"sx":5,"sy":5,"depth":16,"w":{"0":-0.16877211692630537,"1":0.10507019460783126,"2":-0.5876664648436218,"3":0.21822800092081407,"4":0.057258659685549836,"5":0.021326260583387727,"6":0.16030148888336168,"7":-0.0930012800008644,"8":-0.12656702512608722,"9":-0.342311286875525,"10":0.1208000346682319,"11":-0.08069109401329039,"12":0.28583043575840844,"13":-0.09718714554170657,"14":-0.05410073283984715,"15":-0.25287331462819623,"16":0.15181447536692125,"17":-0.03969056365230087,"18":-0.08159751469672474,"19":-0.10311153382731698,"20":0.07636009527201541,"21":-0.014877905290290958,"22":0.4521872098806178,"23":-0.3246621761134743,"24":-0.4224597876090172,"25":-0.13911493115654192,"26":-0.15324389385822854,"27":-0.03450973750199227,"28":0.2789857425271518,"29":-0.1402801343337427,"30":0.3889650033370758,"31":-0.3451989296281927,"32":-0.0012336684211126186,"33":-0.1922962860164534,"34":0.1022927970542879,"35":-0.11210120707980019,"36":0.019800852178606825,"37":-0.10427124634221531,"38":0.20588929589552374,"39":-0.16102453149617055,"40":-0.36588980167755375,"41":0.02890415736522231,"42":-0.1691407664979511,"43":0.10952163450503997,"44":-0.25943262312280696,"45":-0.14843424158967228,"46":-0.03856890728084104,"47":-0.1336901696508272,"48":-0.32856772678240403,"49":-0.1751944745757636,"50":0.18911651225583306,"51":-0.13719391226494557,"52":0.06355141465148816,"53":-0.16175821236273638,"54":-0.40639902214784485,"55":0.07693989605220108,"56":0.06689056638489088,"57":0.14870982695126797,"58":0.025933980856099912,"59":-0.08728026107617286,"60":-0.5961998874738963,"61":-0.2519166484017655,"62":-0.25706754539604615,"63":-0.30171659304637305,"64":-0.5823288531167028,"65":-0.13868702525455387,"66":0.05828662832175872,"67":-0.14128196827795939,"68":0.22627535625333342,"69":-0.11917161036837008,"70":-0.07098693826089936,"71":-0.14256748518674486,"72":-0.08383748787037401,"73":-0.047567865615061815,"74":-0.06097356132630701,"75":-0.11607440420967927,"76":-0.14327172190831397,"77":-0.1850532314275228,"78":-0.16828247137537775,"79":0.02361849602249186,"80":0.23053115349796025,"81":-0.0396221321503746,"82":-0.31380779702302714,"83":0.09313726128981147,"84":-0.28100819172508773,"85":-0.0860665961473377,"86":0.3007540640399834,"87":-0.14055532740926363,"88":-0.03720117078427098,"89":-0.4700654738558019,"90":0.24519704108642704,"91":-0.09033564665536596,"92":0.2359296963075005,"93":-0.07053278481722691,"94":0.048452726680211194,"95":-0.3011935195404548,"96":0.21993159864156178,"97":-0.07250974202784996,"98":0.000529663166615409,"99":-0.11530707218271309,"100":-0.034120821615316994,"101":-0.248265206243989,"102":0.23206888444618223,"103":-0.1880478489531223,"104":-0.16014304488278616,"105":0.023130186022784754,"106":-0.011314662544749863,"107":-0.16580105869945988,"108":-0.2855583333343755,"109":-0.053548455968254055,"110":-0.2166098142491635,"111":-0.15577217497097873,"112":-0.002451537114976281,"113":-0.10146568627729136,"114":-0.023059840412905666,"115":-0.11797758100597434,"116":-0.05239644027404718,"117":-0.2774123262599068,"118":-0.01736132579270981,"119":0.09313946552854248,"120":-0.15636220901824327,"121":-0.06601606176395443,"122":-0.5128071082152702,"123":-0.06613792587090574,"124":-0.28075177205786034,"125":0.05030124609512408,"126":0.007637916262307813,"127":-0.13389329397434624,"128":0.07560610685220559,"129":-0.1619902131955543,"130":0.1771224618008545,"131":-0.15801588294860372,"132":-0.09080267121973853,"133":-0.03973968391403313,"134":-0.2713419858784692,"135":0.08863674804261643,"136":0.2842288348811201,"137":-0.32271761664562587,"138":0.18633314291436137,"139":-0.09993594371002724,"140":-0.34327838634382984,"141":-0.046733751481788884,"142":-0.45946849294476044,"143":0.04836246779358139,"144":-0.14194756767806907,"145":0.11885885507242619,"146":0.3116524777275934,"147":0.03266044586596192,"148":-0.08215082579672049,"149":-0.22991205932945152,"150":-0.3513282638067689,"151":0.08338500687861168,"152":0.16064097555295345,"153":0.16515819958595102,"154":0.13136439731403293,"155":0.17672105017906822,"156":-0.17769684252691662,"157":-0.01357986503193288,"158":0.09400440607133173,"159":0.2294885659152782,"160":0.24892089042747226,"161":-0.0774533992529339,"162":-0.11119113445532798,"163":-0.00836848849194966,"164":-0.05275409665052882,"165":0.020784177640124087,"166":0.27645078263370154,"167":-0.11966226884245794,"168":-0.0069189057723504435,"169":-0.0870001356770254,"170":0.1322795742957899,"171":0.25288523780376937,"172":0.15353407751548662,"173":-0.22915309530956193,"174":0.19248264726406267,"175":-0.10650094953186733,"176":0.12564171762462137,"177":-0.1667115890092326,"178":-0.017326505657361355,"179":-0.07403771351109688,"180":-0.2777162305747303,"181":-0.3409460689458541,"182":0.10853440672511179,"183":-0.022529110790537342,"184":0.1667604888514424,"185":0.058503157072200725,"186":0.09364265241660982,"187":0.031152850512908052,"188":-0.1536454312946872,"189":-0.06407198527690874,"190":-0.26134681686708106,"191":-0.2713592775311136,"192":-0.1288762454574213,"193":-0.08312815091003663,"194":-0.19359968117309997,"195":-0.05107609190790804,"196":-0.2064906592263525,"197":0.017757348681406042,"198":-0.053767147175045285,"199":0.00493415599263991,"200":-0.1811966492251558,"201":0.0258503342967637,"202":-0.15036798117900047,"203":0.02991655843823059,"204":-0.38059653492996665,"205":-0.03525202741314797,"206":-0.04343082405003823,"207":-0.08610255541076309,"208":-0.29762751548095284,"209":-0.07470889209831331,"210":-0.04734583663178487,"211":-0.07678780700384184,"212":-0.4006836837535229,"213":0.22911464315867647,"214":-0.3832948934189718,"215":0.039097192917860284,"216":0.26778035748584206,"217":0.04633684927031095,"218":0.03357919715393733,"219":0.021141437456884172,"220":-0.1724822673524623,"221":-0.014521944739096364,"222":-0.1553121700581197,"223":-0.23120706362799673,"224":-0.20222080332234063,"225":0.12696710574029793,"226":0.218321319976687,"227":0.05616288015749833,"228":-0.37019580728481416,"229":0.0765460483036825,"230":-0.30287164098224084,"231":0.1566829024224492,"232":0.3165078547999226,"233":-0.04320452420791477,"234":0.19806749373957663,"235":0.120499138315907,"236":0.03204411667158988,"237":0.010478539539054518,"238":0.24704403815960504,"239":0.07015818453664964,"240":0.1026514768590429,"241":0.05727984141040405,"242":0.04131201819730177,"243":-0.06056006531843867,"244":-0.10235424034920491,"245":0.025163134033476923,"246":0.3330092510319189,"247":-0.3751967479112809,"248":-0.11211662556411468,"249":-0.10973058094416553,"250":0.04461087558904389,"251":-0.013556082745615898,"252":0.08119072847834892,"253":-0.2048111495475815,"254":0.015421591286639547,"255":-0.04016553742436629,"256":0.05414853640140132,"257":-0.11488487416826519,"258":-0.312314010427478,"259":-0.05887108198106494,"260":-0.06540944422430638,"261":-0.13895289302117605,"262":0.20311750992536673,"263":-0.07763333091671941,"264":0.06341463340622305,"265":-0.2342185897748642,"266":0.06840778911387527,"267":-0.16529662657192035,"268":-0.22977531626328165,"269":-0.1394432518129629,"270":-0.1435624600605377,"271":-0.10146437382894362,"272":-0.021389016057618816,"273":-0.055509214760895015,"274":-0.15252504150252116,"275":-0.02778398539728143,"276":-0.2513803942556954,"277":-0.0730648868841638,"278":-0.015536090585915447,"279":-0.04554515115100317,"280":-0.2803345620946118,"281":0.010055984422795762,"282":-0.3024950114310528,"283":-0.0592350674609619,"284":-0.3628014513835649,"285":-0.1535920456836758,"286":-0.23675655952510688,"287":-0.12685648269246091,"288":-0.03503382721706297,"289":-0.007187114752708193,"290":0.04057847242167979,"291":-0.0621756103681133,"292":-0.16863082049206357,"293":0.2578331383877502,"294":-0.39928330729736916,"295":0.2074076005129153,"296":0.037092681688385885,"297":-0.08305660970134236,"298":0.04740590617016605,"299":0.11559823858037924,"300":0.043900120827898674,"301":-0.11155884687193415,"302":-0.10952125173723833,"303":0.012800153777140558,"304":-0.20227840994510646,"305":0.1214888543001374,"306":-0.22199970139601505,"307":0.2661867878558756,"308":-0.3156535704682098,"309":0.11841690459270633,"310":-0.4205215317352035,"311":0.16896126517126886,"312":0.3173582540648918,"313":-0.1325084017651349,"314":0.18809907794136413,"315":0.03450226676916869,"316":0.19056287838195976,"317":-0.20836550251818525,"318":-0.017213840390288112,"319":-0.03865748653467913,"320":-0.06052874809415303,"321":0.01900269270479128,"322":-0.07625579380070158,"323":0.3253589231998594,"324":-0.03880908174533134,"325":-0.2004461013647038,"326":0.08969513123675334,"327":-0.30287222649999807,"328":-0.1544463145654829,"329":-0.014567693505998949,"330":-0.16957962346906436,"331":0.06433142388915315,"332":-0.09182129874688454,"333":0.17491790274774857,"334":0.06280118590049817,"335":-0.11311133463833684,"336":0.10557140144322191,"337":-0.05856758187364625,"338":-0.23841642708064884,"339":-0.14335942467428078,"340":0.0556357989789469,"341":-0.11549888397738362,"342":0.36807967719572016,"343":0.07921942046410232,"344":0.012928983673383375,"345":-0.2453057399235631,"346":0.22593236044239448,"347":-0.17002710440308264,"348":0.255345665857637,"349":-0.3304821105885102,"350":0.06396443987631106,"351":-0.1982860263181161,"352":0.02675586422615981,"353":-0.05052825457137713,"354":-0.1739669311039346,"355":-0.02361970264848351,"356":-0.17381885234141523,"357":-0.0422805159985106,"358":0.1538778252187831,"359":-0.3699956165899654,"360":-0.36050128720249464,"361":-0.10221956918230604,"362":-0.2260435519895221,"363":0.0022136357897831246,"364":0.09478805278485046,"365":-0.23501638996541213,"366":0.0037134644439927277,"367":-0.4016833329171194,"368":0.13772370676543044,"369":-0.04937990527271598,"370":-0.09874846971511413,"371":-0.05028743516642729,"372":-0.3073205927117177,"373":0.2719828220222593,"374":-0.4713229260490755,"375":0.13021227444769023,"376":-0.054357443214676573,"377":-0.25190738353706826,"378":-0.05044920536649548,"379":0.05492756226692261,"380":-0.20090308165590368,"381":-0.11303143688354725,"382":-0.09815437750602367,"383":-0.07594464757322636,"384":-0.42771669277523083,"385":0.11207709615056156,"386":-0.20453406252426326,"387":0.31601993528380545,"388":-0.5440391121403672,"389":0.17173842277676915,"390":-0.21263145219010923,"391":0.11175623850248972,"392":0.4382858718827394,"393":-0.24451914432644858,"394":0.19872304426994242,"395":-0.007021622764741316,"396":-0.060310979540258644,"397":0.007084270149856765,"398":0.01023634376692361,"399":0.06028029453061248}},{"sx":5,"sy":5,"depth":16,"w":{"0":-0.15619026604859743,"1":-0.24140053765882036,"2":0.21021208854037235,"3":-0.2186926294268024,"4":0.2131728844026849,"5":-0.13311639151921278,"6":0.07980693459717648,"7":-0.2175736499422492,"8":0.18488548057671478,"9":-0.16205539584364892,"10":0.12785080044527322,"11":-0.01888173817107435,"12":0.07971988390334285,"13":-0.022341650066864647,"14":0.026400704138031937,"15":0.15295779705007595,"16":-0.15439433971712826,"17":-0.12537430685605674,"18":0.16518897943308986,"19":-0.0002142649981023013,"20":0.1635319352506555,"21":-0.2215222221145029,"22":-0.15941120970951148,"23":-0.16830893994092141,"24":0.1782835470431821,"25":-0.029795377381277764,"26":0.11598443164072705,"27":0.1477409126001945,"28":-0.14809530755202313,"29":-0.015484464627783906,"30":-0.4335896650427853,"31":0.15294052964501217,"32":-0.2706155045623739,"33":-0.01676611224424305,"34":0.17049296069903913,"35":-0.05482395072448654,"36":0.1883771282288369,"37":-0.3783520607553899,"38":0.018434624742079478,"39":0.04325081791529203,"40":-0.05280683587921806,"41":0.14337489770257245,"42":-0.16506689431105898,"43":0.05737024794609365,"44":-0.06642892313589234,"45":-0.01591766934314642,"46":-0.0015403870390783931,"47":0.03088191426664801,"48":-0.2537775267430419,"49":-0.38331679346798103,"50":0.024644946121355652,"51":-0.18331539368360933,"52":0.24087507600468028,"53":-0.297053714182714,"54":-0.06802730741519798,"55":0.11179525853524477,"56":0.07921900947600995,"57":-0.18036625960334698,"58":-0.004925388836452371,"59":-0.3645927218971918,"60":-0.019474894247922467,"61":-0.039638180704305456,"62":-0.03647420471233449,"63":0.035085179375102846,"64":-0.16724976344686288,"65":-0.24931071115217107,"66":-0.0092600025077326,"67":-0.46066314919064033,"68":0.19102934331781185,"69":-0.004033189149118161,"70":-0.009738839801703354,"71":-0.03736891190750389,"72":0.2964798766286503,"73":-0.07084193572758646,"74":0.03626643689480575,"75":-0.30623448507431944,"76":0.3364676258515117,"77":-0.20295751513099355,"78":-0.017498176159285866,"79":-0.11062773925481649,"80":0.32953631915237475,"81":-0.0054006937597016556,"82":-0.39446282353744627,"83":-0.22207763022693522,"84":-0.5953820925865916,"85":-0.28794269086320684,"86":0.3260602153269853,"87":-0.33862734143990575,"88":-0.05142790745993951,"89":-0.07522282327641629,"90":-0.028910795181838474,"91":-0.015466714343838225,"92":-0.08628417248651996,"93":-0.05799924420787995,"94":-0.0032469768575662454,"95":0.06366369278496645,"96":0.28046594849310047,"97":0.045844351385863534,"98":-0.26079662180112817,"99":0.08711956990916019,"100":-0.692474427907759,"101":0.15858468170472123,"102":0.09332866049598965,"103":-0.26081700368181726,"104":0.17386632164644697,"105":0.0146352152726711,"106":0.14179524664676835,"107":-0.03815607786388177,"108":-0.10320013434523101,"109":-0.004788915811060435,"110":-0.2968062168841199,"111":0.2599012130565977,"112":0.3452819383839506,"113":-0.06629605131467821,"114":-0.15118095041086405,"115":0.09327002590035131,"116":-0.7056208924371733,"117":0.05469050508569359,"118":-0.06519114487306182,"119":-0.13133348101460096,"120":-0.2023655059510678,"121":0.2311847997938318,"122":0.0955319989151623,"123":0.07005820514565125,"124":-0.16027151451639296,"125":0.08172363611684176,"126":-0.20146646638191903,"127":0.09348884835263048,"128":0.30849747846025233,"129":-0.03782663871184396,"130":-0.26968638498346903,"131":-0.18370556321251377,"132":-0.7787959669306044,"133":-0.012037359007656099,"134":-0.02435672686805787,"135":-0.03205166490058866,"136":-0.08012714743374005,"137":-0.024552391639143478,"138":0.21522288265020822,"139":0.06333913658585437,"140":-0.14434313168661242,"141":-0.12596962391506578,"142":-0.0544875693945378,"143":0.17110497196677618,"144":0.06136773158017752,"145":-0.05910864838508518,"146":0.2241959825166984,"147":-0.12208285666580239,"148":-0.8223868356191111,"149":0.009444434828486928,"150":0.054949740039454964,"151":-0.030741843066121738,"152":0.11122129408984878,"153":-0.02072329996614672,"154":0.16627642708247062,"155":0.2612682641306631,"156":-0.1483103029828245,"157":0.017642921773796085,"158":0.33774834565366824,"159":0.4071438478194331,"160":-0.3431121417226769,"161":-0.17265905440404214,"162":0.07860056561143618,"163":0.04415833492511519,"164":0.16924091220402834,"165":-0.3093123289154857,"166":0.10147173989869364,"167":-0.3826029714828809,"168":-0.1107823955639144,"169":0.005729076948911912,"170":-0.24944914325477638,"171":0.25918309587473193,"172":-0.544172789148745,"173":0.2727675006499078,"174":-0.36507126764497994,"175":0.30090341444494184,"176":-0.0771070845417965,"177":0.08493786509537417,"178":-0.0579895253762998,"179":0.06409849552655125,"180":0.19395878611209733,"181":-0.10046511012700995,"182":0.2130728207933189,"183":-0.04654107449005887,"184":-0.20856154191517146,"185":0.08672256786170872,"186":-0.40924520892360533,"187":0.1514481357202587,"188":-0.10613000413377653,"189":0.2856749493613872,"190":-0.10757365370399401,"191":0.22282430718207336,"192":0.08845446841640466,"193":0.11054225503679169,"194":-0.05430284643892187,"195":0.19504331715286222,"196":0.2382453173999548,"197":0.04841873300940585,"198":-0.017942586946648926,"199":-0.12628104417413608,"200":-0.2609981772995066,"201":-0.09303557150274025,"202":-0.36364043682775743,"203":-0.12179968759186874,"204":-0.2890727028855294,"205":0.3993414302085078,"206":0.10352656288359373,"207":0.1681815902780776,"208":0.0015939201900168347,"209":-0.16410684505949968,"210":-0.28531814602065125,"211":0.16127379318529586,"212":0.13031604620291645,"213":-0.3115274391888333,"214":-0.0703406021394467,"215":-0.07042399068277558,"216":-0.13389167750014522,"217":-0.098197927016683,"218":-0.15169756281396338,"219":0.012518094958247992,"220":-0.24560630532077357,"221":0.2592705689621064,"222":0.07623043934198838,"223":0.10879971400318117,"224":-0.10048845659404614,"225":0.08779291061385963,"226":-0.22219705335268092,"227":0.056327275317869796,"228":0.17297866399654308,"229":-0.3000357807570223,"230":0.07989730501770047,"231":0.2665905108126657,"232":0.09475004891915817,"233":0.023946999746632926,"234":-0.0033414348051336506,"235":-0.1095678066162949,"236":-0.015382081826041127,"237":0.15442787846602046,"238":0.2554171996407137,"239":0.1970310493426717,"240":0.1269775188673804,"241":0.04128534767797139,"242":0.418223049737028,"243":0.3367738296829625,"244":0.1406946294386094,"245":0.07348321889530797,"246":-0.19485246041789916,"247":-0.14345467977341433,"248":0.037199736217296595,"249":0.28991947366069276,"250":0.172887231922055,"251":0.17296361773588428,"252":-0.24627938926338303,"253":0.005406208049478823,"254":-0.18996760829818682,"255":-0.1862289421663962,"256":0.06330923051495466,"257":-0.018332082568431468,"258":0.13894659143126045,"259":0.28340926834588676,"260":0.121992472526627,"261":-0.05555543058917291,"262":0.19835065225370202,"263":0.06910443901926641,"264":0.15874691283005282,"265":0.20171853283473531,"266":0.23713916497806653,"267":0.2616280928852627,"268":-0.14290284527415414,"269":-0.027770748586766914,"270":0.18169590270245417,"271":-0.1858900594140748,"272":0.017393484529574406,"273":0.06159848850075534,"274":-0.06151264189403529,"275":0.34372407290495605,"276":0.16938181316161924,"277":0.324582942110706,"278":-0.06396798672628198,"279":0.04347066302151085,"280":0.08116383681534821,"281":0.012303216971729598,"282":-0.11387368613572045,"283":0.0368296780018833,"284":-0.0943714757159086,"285":0.2770883056939226,"286":0.061979513378307066,"287":-0.07660819228739041,"288":0.23573265995885703,"289":0.10468074173268702,"290":0.10311100626675695,"291":0.22959759185516387,"292":-0.015163473658748428,"293":0.17643601224246377,"294":-0.42814693681414234,"295":0.11476060375745667,"296":0.16376055570081896,"297":-0.27826743747620186,"298":0.10472730943444125,"299":0.004618599569910287,"300":-0.018970227599483032,"301":0.14755864695251994,"302":-0.02155530295752283,"303":-0.04891240058393563,"304":-0.029209968801537554,"305":0.2811791535805927,"306":0.21464306756338478,"307":0.09878972510016955,"308":0.2010126747364097,"309":-0.01929193101070239,"310":-0.016940429911276183,"311":0.3645662486699712,"312":0.23779881803032024,"313":-0.15576573927688558,"314":0.25767859488709155,"315":0.09845680768780873,"316":0.2619872792555463,"317":0.04309241419341144,"318":0.3960067049462546,"319":-0.04562341259118878,"320":-0.20941550019156935,"321":0.28787045155437463,"322":-0.20489798284049554,"323":0.2744241177583908,"324":-0.006552942304598482,"325":-0.11529810651436599,"326":-0.22699887477210262,"327":-0.11119006219385147,"328":-0.08710846529944538,"329":0.09776788741881257,"330":-0.33496857975178745,"331":0.13789752101248834,"332":-0.2868014000146538,"333":0.11389083863876566,"334":-0.12662275339899884,"335":0.026708187795619398,"336":-0.11774604357335854,"337":0.16047090579049206,"338":-0.061764056417616585,"339":0.20265503722371853,"340":0.07683804788839385,"341":0.07811045153780441,"342":0.26519459580441496,"343":-0.11463769975963509,"344":-0.20247497935177916,"345":-0.12291707670090521,"346":0.002741668993308483,"347":0.1412187233731512,"348":0.1716120197207874,"349":0.02300528457308931,"350":-0.127520186282456,"351":-0.04856641122568,"352":-0.152200923216095,"353":0.07331585422841733,"354":0.041957948726238065,"355":0.2233359894980126,"356":-0.08817590337719029,"357":0.03286410203222632,"358":-0.12716474540519748,"359":-0.17616151056778223,"360":-0.19907552482798602,"361":0.2965888935599014,"362":-0.4403937641568884,"363":0.20771507783664545,"364":-0.1754104480504138,"365":0.01414106749280013,"366":-0.08611479600096986,"367":0.01480361378742716,"368":-0.21025371930992734,"369":-0.019106180416300897,"370":0.19784396318419245,"371":0.28197630894518355,"372":-0.08885128807565403,"373":0.03792003972597224,"374":-0.21267335913239271,"375":-0.0630395129796007,"376":-0.021337423972890967,"377":0.023925572551826303,"378":-0.2810933664653196,"379":0.1924817280093429,"380":-0.24661681531167828,"381":0.07117057567834488,"382":-0.23737995436878145,"383":0.11120238200012067,"384":-0.32191601438740586,"385":0.12533037721552048,"386":-0.17147398802376815,"387":0.03537890047908186,"388":0.07700473823131909,"389":-0.25954584803740177,"390":-0.17586374545287664,"391":0.0716631346223117,"392":0.1235808477786485,"393":0.028126783193075794,"394":0.2977576646891184,"395":0.14452383267126487,"396":-0.38926520132225445,"397":0.09631119615205734,"398":-0.24557187224946705,"399":0.14695417470310118}},{"sx":5,"sy":5,"depth":16,"w":{"0":0.13552059510588793,"1":-0.051441912613833976,"2":-0.2085695560660029,"3":0.052161150729732,"4":-0.0439151916372857,"5":-0.0014601565328108055,"6":-0.18813535363863995,"7":-0.0269729265633472,"8":-0.2968614765797522,"9":-0.15807150734876904,"10":-0.06967821152209488,"11":-0.057466815157746896,"12":-0.03444184494551361,"13":0.07257914572553076,"14":-0.056857684501184044,"15":0.052127848500605825,"16":0.15463642837127461,"17":-0.07487085489969582,"18":-0.20423160225310605,"19":-0.07159988566538346,"20":-0.10548212434428565,"21":-0.012640932153044317,"22":-0.05805997048487765,"23":-0.037153230804256324,"24":-0.20299149586605977,"25":-0.17976088251594194,"26":-0.08879993232089176,"27":-0.04337044528694422,"28":-0.0489838819399016,"29":0.1575520427221162,"30":-0.21585181253239208,"31":0.13064162351332703,"32":0.3802340020994089,"33":0.28735539449886893,"34":-0.11460817153861604,"35":-0.06636224224458483,"36":-0.14833770662082438,"37":-0.001886373001175556,"38":0.2420454125976825,"39":-0.38960375912031253,"40":-0.22987684527890712,"41":0.07427034321058264,"42":-0.02973504084925737,"43":-0.11116150946841823,"44":0.23181655673831855,"45":0.12058453896573462,"46":0.3634007649088857,"47":0.38029140360835795,"48":0.2573948448409081,"49":0.016274464967572174,"50":-0.09769684979918065,"51":-0.11659643831234831,"52":-0.0683956717846074,"53":-0.08974017777648977,"54":0.4783650294231655,"55":-0.10575236878956323,"56":-0.28925734956334287,"57":-0.06825926786982581,"58":-0.08856501090045592,"59":-0.11344716959765296,"60":0.25998469542817537,"61":0.07807092124020205,"62":0.28578958847043606,"63":0.32125182728737683,"64":0.2645405972744643,"65":-0.05704188903317066,"66":0.09494077636365497,"67":-0.20410574405428644,"68":-0.07824469237844431,"69":-0.1784208197804769,"70":-0.10491114327247532,"71":-0.06761111324103694,"72":0.20799776578245516,"73":-0.32691590989103103,"74":0.06972874528857388,"75":-0.17485832203829896,"76":-0.27731317894539587,"77":0.020880846988009648,"78":-0.08991923398375155,"79":0.15179952271146488,"80":0.2366722044683424,"81":0.0126442120393234,"82":0.03235700182957099,"83":0.04199715890388349,"84":-0.4810222522494067,"85":-0.05674664851243448,"86":-0.06728018898405799,"87":-0.25739256592340953,"88":-0.15597123971463095,"89":0.18892037869082537,"90":-0.10325587472306054,"91":-0.017763381326298597,"92":0.07072922667121018,"93":-0.13350666743492468,"94":0.07527752120476636,"95":0.12184402055220037,"96":0.19322469105913395,"97":0.12371625916915127,"98":0.21906316101165052,"99":-0.1282403046959884,"100":-0.2983027544557798,"101":-0.11980417840703556,"102":0.08467340888725353,"103":0.043316805481364934,"104":-0.29257745729612783,"105":0.08596875137278351,"106":0.08433211345869243,"107":0.06118627516164482,"108":-0.10924358001206719,"109":-0.08047960155146605,"110":0.053821391369848995,"111":0.08263118866362966,"112":0.21705128126924417,"113":0.03844084203680872,"114":0.1916449723822895,"115":-0.13667186701570727,"116":-0.1684721829744229,"117":-0.413928051564806,"118":0.12639031253968117,"119":-0.35156400716184977,"120":0.0687474918831215,"121":0.060541509578333874,"122":0.02903061791669345,"123":0.07314064076278548,"124":-0.2273710049360706,"125":-0.1720641032117401,"126":-0.02931549022117266,"127":-0.01929682633381427,"128":0.15208744191681567,"129":-0.05505111805728615,"130":-0.0054225023537553116,"131":-0.044995641633236834,"132":0.022998419553534932,"133":-0.25004494185016957,"134":0.28772051544631866,"135":-0.2729084052211433,"136":-0.16822810582267114,"137":0.09361004428067861,"138":-0.04420391252986851,"139":-0.06296754315274598,"140":-0.30823930355335555,"141":-0.09768075969976911,"142":-0.18499102006870108,"143":-0.05781239411809849,"144":0.1233821101480088,"145":-0.05409768291119949,"146":-0.16822186247927862,"147":-0.06180087479489068,"148":-0.4411732616745228,"149":-0.14446369145702917,"150":-0.13948316562988797,"151":-0.011932814047749422,"152":0.11906778173480115,"153":-0.06715349787526538,"154":-0.2045142229485121,"155":0.02566797339689076,"156":-0.34947950800011524,"157":-0.08635916067688336,"158":-0.2080056352300323,"159":-0.2813099256266905,"160":-0.24785951906832068,"161":-0.020154821897743456,"162":-0.2072842860216963,"163":-0.027739865339725594,"164":-0.5479201419614887,"165":-0.15699680367794358,"166":-0.3156125001875535,"167":-0.033683500047403725,"168":-0.3096282586645514,"169":0.024190499761727283,"170":-0.030421669097216827,"171":0.03220483653695556,"172":-0.09762045663374651,"173":-0.1613744887241872,"174":-0.052952344624369374,"175":-0.005722490154884995,"176":-0.21744507448883055,"177":0.07379491182971336,"178":-0.18646220461086982,"179":-0.11928661190678767,"180":-0.5044737489811264,"181":-0.3335850611624276,"182":-0.04003293205276032,"183":0.20099884741979163,"184":-0.2332828963964314,"185":0.20388631329177828,"186":0.11307451116599192,"187":-0.023044613923371145,"188":-0.18211580948062556,"189":-0.08973533535293683,"190":-0.03441395024186764,"191":-0.0979057954927706,"192":-0.12994450254950077,"193":-0.06270986778615967,"194":-0.06801958547751491,"195":-0.0504489309538525,"196":-0.1620057340910194,"197":-0.30976165409791867,"198":0.19524367862292402,"199":-0.1800753664138558,"200":0.16265340756550517,"201":0.07458678535595684,"202":-0.016906678021486418,"203":0.0003061298330185103,"204":0.14943195611801094,"205":0.013654668760825706,"206":-0.04616449055845919,"207":-0.23840995971800627,"208":-0.28790309963157606,"209":0.014692903629219687,"210":-0.07657302274846496,"211":-0.05632562668391194,"212":0.0006444056076144749,"213":-0.21874103861090866,"214":0.16990091406628643,"215":-0.26015522222862875,"216":-0.31632143847177163,"217":0.07313996334805718,"218":-0.08044031068609725,"219":0.03492909281278312,"220":-0.08369932630970317,"221":-0.07222943282377102,"222":0.14072198320401483,"223":-0.03346682635229413,"224":-0.4252582564654101,"225":-0.015661191713790986,"226":-0.24446544384731525,"227":-0.07468929519427003,"228":-0.49896388332106095,"229":-0.19979272931275568,"230":-0.2482478406203868,"231":-0.23578771648304592,"232":-0.04058392999234559,"233":0.03622838490038053,"234":-0.11569444359397044,"235":-0.009004750695275412,"236":-0.3746215386752855,"237":0.04223922426971905,"238":-0.13052110235854145,"239":-0.096244169973709,"240":-0.20453128748836985,"241":-0.09197764143122036,"242":-0.5043596224289826,"243":-0.0947361646582545,"244":-0.04621661082175417,"245":-0.17622899636980588,"246":-0.4009164255218476,"247":0.10192019764153923,"248":-0.49841001566470844,"249":-0.2784431649630593,"250":-0.2318620510729893,"251":-0.10248963169900215,"252":-0.1703397012965813,"253":-0.21804353963029227,"254":0.023244466155627034,"255":-0.01884128909462129,"256":-0.22046307286733627,"257":-0.0743920716561949,"258":-0.06475264002550869,"259":-0.22310026411549894,"260":-0.008627041985316738,"261":-0.38924631409243515,"262":-0.14789820812757118,"263":0.11839197627551871,"264":-0.3153302019690252,"265":-0.18997563388106214,"266":0.08949428909905457,"267":-0.03953210951553862,"268":-0.3819352921447956,"269":-0.29853000457541545,"270":-0.019191235234121407,"271":-0.06984749779172261,"272":0.039402300109483625,"273":0.005485590694082714,"274":-0.12213723425998192,"275":0.10456402758522869,"276":-0.12480884266448929,"277":-0.27365647707787866,"278":0.1766280497942758,"279":-0.17004942280854643,"280":0.08297238610491796,"281":0.10060229087257275,"282":0.00010464384630886402,"283":0.06022360016414827,"284":-0.16275947121628992,"285":-0.03851343274149654,"286":0.08440776395575145,"287":0.016831073510631036,"288":-0.24535939158162015,"289":-0.029034452147771426,"290":-0.1757652552492178,"291":-0.08074250224713019,"292":0.15495536612950417,"293":-0.3923353436661207,"294":0.23339151408583195,"295":-0.32064012159971356,"296":-0.24049434785565732,"297":0.043175856033511116,"298":0.1538896951890612,"299":0.09030849067490548,"300":-0.015517864712707682,"301":-0.14299054434615402,"302":0.051307632890221874,"303":-0.09566972814164681,"304":-0.16607468747857723,"305":0.028980106290035255,"306":0.1711108616689344,"307":-0.0727509459992645,"308":0.14536571942194493,"309":-0.029678279618631922,"310":-0.5297527868133503,"311":-0.12817228222188762,"312":-0.11294316903115043,"313":0.05093170084891553,"314":-0.3660141128714123,"315":0.1107149712513991,"316":-0.27381875730755456,"317":-0.17339452248673604,"318":-0.37268041721248063,"319":-0.00021332222792878192,"320":-0.3291749677746826,"321":0.0015502399707390485,"322":-0.08431127878948601,"323":-0.16081400389605668,"324":0.20826393350536362,"325":-0.016032151028543534,"326":-0.5773383409226108,"327":-0.10245753623845996,"328":-0.08288378676763171,"329":0.06836223476344186,"330":-0.274988476013717,"331":-0.0976789832822595,"332":-0.09031438311034709,"333":-0.052847671791139396,"334":0.0062937513948026,"335":-0.1316196246190112,"336":-0.20607387124453364,"337":0.01401165507050648,"338":0.13253889306142524,"339":-0.1102461853637805,"340":0.31617173858646946,"341":-0.12442976165871793,"342":-0.43960036523988844,"343":0.1709684552184922,"344":-0.09106687366758939,"345":-0.060563106094832855,"346":-0.06809065200632239,"347":-0.040600297473989744,"348":-0.1630592832012966,"349":-0.03557616135003406,"350":-0.16894140251880294,"351":-0.20031882737228796,"352":0.20368716863595662,"353":0.09439416995546596,"354":0.04250963541326747,"355":0.029640452176258325,"356":0.2221349460455746,"357":-0.002537069541340735,"358":0.07501755540661016,"359":-0.10838318982829147,"360":0.2697066567145584,"361":0.1017107606506373,"362":-0.014080686318082875,"363":-0.1859710781793173,"364":0.21518072322477494,"365":-0.008173101731694566,"366":0.02468238062904906,"367":-0.11125103470947757,"368":0.1335641737927777,"369":0.037395240017026606,"370":0.18318784311531414,"371":0.028377932185493587,"372":0.3114442083088319,"373":-0.28782421132247676,"374":0.2556772750450925,"375":0.12762507229570408,"376":-0.11905905588311778,"377":-0.0533282670816219,"378":0.0204695197792563,"379":-0.09202282438837686,"380":0.14458902288314485,"381":0.030377430608447435,"382":0.17033011857598798,"383":-0.06344673739761998,"384":0.1112065456555092,"385":-0.12126070714660282,"386":0.24140528436277028,"387":-0.15187642153944636,"388":0.30930049240493995,"389":-0.06182982429095378,"390":-0.36388071455705173,"391":0.15562141456160297,"392":0.12592363342861274,"393":-0.044668406572919296,"394":-0.05120439928466787,"395":-0.09472126875763891,"396":-0.2894432232281582,"397":-0.18180850948418903,"398":-0.284647482159681,"399":-0.03645812067847359}},{"sx":5,"sy":5,"depth":16,"w":{"0":0.3143732313367762,"1":-0.07578662787619321,"2":-0.14932824036040598,"3":0.00978352406975749,"4":-0.2480721386335727,"5":-0.15238754512025696,"6":-0.08762239266678605,"7":-0.1574440217288797,"8":-0.284046911562928,"9":-0.016362816075345434,"10":-0.3525081011374077,"11":0.028601207552234987,"12":-0.2681313590290891,"13":-0.0037371389585160184,"14":-0.019860538261027155,"15":-0.2689525254415692,"16":0.3090158611346828,"17":-0.01696890148385329,"18":-0.23870894428443187,"19":0.08160731134930703,"20":-0.3650011461025211,"21":-0.020664593169867882,"22":-0.12126109073903585,"23":-0.3490093393648234,"24":-0.20173968245555146,"25":-0.09894263649497767,"26":-0.17688386962870306,"27":0.005046397952631976,"28":-0.03572235649137378,"29":-0.00587572901344941,"30":0.13480886460188934,"31":-0.10251976818261908,"32":0.25843070382609074,"33":-0.07493212026870932,"34":-0.20098100951746173,"35":0.034460814071180006,"36":0.00428770321592808,"37":-0.14920557045993751,"38":0.063484750966515,"39":-0.06290359470374247,"40":-0.05179408946868278,"41":0.07397623917951701,"42":0.019445600949045152,"43":0.0752605984341919,"44":-0.18545412091035113,"45":0.11650743216493491,"46":-0.1797213840637148,"47":-0.08341159679445553,"48":0.1473444374142932,"49":-0.08590521720865124,"50":-0.06190575523179482,"51":0.036626947647707714,"52":-0.18270383486565847,"53":-0.13194531049268568,"54":0.21329120624789108,"55":0.052410886219926685,"56":0.2498086293014596,"57":-0.18946286058993003,"58":0.07346312817684057,"59":-0.0418658263206346,"60":0.03243087672044879,"61":-0.02208368969197527,"62":-0.03535717418073915,"63":-0.18678040507431762,"64":0.09439107911311058,"65":-0.013276284945279115,"66":-0.23021149201116253,"67":0.02586607099943548,"68":-0.09106337745285671,"69":-0.11641696131366525,"70":0.2767000968728475,"71":0.042334560355196164,"72":-0.062253074676180055,"73":-0.21100105811340963,"74":-0.017136887327922505,"75":-0.08596265578488244,"76":-0.20515059325920051,"77":0.020396605043718073,"78":0.1969119928311975,"79":-0.04227455611319076,"80":-0.20976964939286577,"81":0.040704040940214674,"82":-0.10048315725069902,"83":-0.07074074049838142,"84":-0.15866437889119805,"85":-0.21225651809795004,"86":-0.3059053146064701,"87":-0.1945093887613582,"88":-0.06218935318824684,"89":-0.03071524119530207,"90":-0.164803797682724,"91":0.020734061404385898,"92":-0.0716075288987237,"93":-0.10562680222483434,"94":-0.1702373095863357,"95":0.042316099789527946,"96":-0.07332241440082815,"97":-0.04621463581074125,"98":-0.08561624990298063,"99":-0.0022134914095245594,"100":-0.14575890428145474,"101":-0.1070790477198915,"102":-0.19791443077120777,"103":0.006274580952621158,"104":-0.15696985500669833,"105":-0.0712847867408148,"106":-0.08595718317661635,"107":0.007642090990703716,"108":0.09511867275267116,"109":-0.011911029136789347,"110":-0.0654825298530825,"111":-0.04236075096082706,"112":0.03942872030515563,"113":0.07938154040076367,"114":-0.01691843833779671,"115":0.02006484373548462,"116":0.012714476741897195,"117":-0.11511926492609896,"118":0.023155470564650386,"119":-0.07902956945943213,"120":0.0482287613297855,"121":0.1762397576103602,"122":0.2905962385210848,"123":-0.12256483255304595,"124":-0.024635990650160176,"125":0.17653840149755162,"126":0.02958164314107706,"127":0.10278139198442826,"128":-0.06279591711692269,"129":-0.03608506972629034,"130":-0.20892737544694504,"131":0.03536825446696614,"132":-0.009425721417950823,"133":0.006365727210095619,"134":0.29536046144917166,"135":0.12547137731005925,"136":0.1795419458776092,"137":-0.1869544161949189,"138":0.16061286322653434,"139":-0.05489035236228148,"140":-0.0629348540200287,"141":-0.060758995432800104,"142":-0.12375993006705721,"143":0.024573442431739288,"144":-0.00877587372583095,"145":-0.09016074777676963,"146":-0.12642856310393955,"147":-0.004974005697501667,"148":-0.24319090700239807,"149":0.11963172114069678,"150":0.2068991140354257,"151":-0.0489195558631895,"152":-0.24407313175260856,"153":-0.24632554517124375,"154":-0.10118893919783863,"155":-0.03537534109513183,"156":-0.0926830715644565,"157":-0.057873140352743845,"158":-0.1921953477156552,"159":-0.04383684963024937,"160":-0.010565214847139293,"161":-0.04294587819486996,"162":-0.14036420446499542,"163":-0.18122654152733775,"164":-0.09123212886957269,"165":-0.06493000421611998,"166":-0.2915888644569805,"167":0.049065164895533614,"168":-0.005132274825759129,"169":0.0761036507864772,"170":-0.031070064579339078,"171":-0.14388807828109182,"172":0.08953465600209161,"173":-0.060121531450788614,"174":0.20668559226915123,"175":0.07411645557972923,"176":0.020524548848325806,"177":-0.09552296011171096,"178":-0.06865863445703797,"179":-0.1422676304930214,"180":-0.19765658155816762,"181":-0.20973404786261107,"182":-0.007433355100859887,"183":-0.08272175868579269,"184":-0.11993659609442357,"185":-0.18190854087939848,"186":-0.1316493747242799,"187":0.08060976061128214,"188":0.16103486302636685,"189":0.07715669194438349,"190":0.22676373089988433,"191":0.08206767524167374,"192":-0.06995858331770624,"193":0.04844875411832087,"194":0.28514765161067523,"195":0.21409471961872487,"196":-0.08398376498835215,"197":-0.16493712260088045,"198":-0.048911120160177554,"199":-0.024041854785038112,"200":0.18256487161901586,"201":0.10703673371413391,"202":0.4812627107138775,"203":0.10776408355741973,"204":-0.22693113424662031,"205":0.3080327770795032,"206":-0.0385377154394611,"207":0.26275210726558074,"208":-0.32605882704264344,"209":-0.02383174670928332,"210":0.216433712132709,"211":0.07486530960380612,"212":0.09252494823265292,"213":-0.08482639280784757,"214":0.21976398868138444,"215":0.26127853718712163,"216":0.18980252149881022,"217":0.40590239529795336,"218":0.024226178711179155,"219":0.006369047343571059,"220":0.07009142576646356,"221":0.16856674800618268,"222":-0.06809467848310254,"223":0.1504032872911721,"224":-0.10288718846026432,"225":0.04606920608977843,"226":-0.11904732833979129,"227":0.0400288536492919,"228":0.19535405547477622,"229":-0.06283641164728716,"230":0.25724609830842926,"231":-0.10706687285385463,"232":-0.15233643410991207,"233":0.2504045146675314,"234":-0.16145618983923116,"235":0.1717079364441758,"236":-0.24834060250918075,"237":0.18833371942186192,"238":0.18586720619303196,"239":0.16005017933511126,"240":-0.01723193150677681,"241":-0.09159343223391625,"242":0.1665837052497218,"243":-0.08532279034227182,"244":0.3107336140895997,"245":-0.0077011806275755846,"246":-0.5181411680152672,"247":0.14901036781751237,"248":0.250874955483757,"249":0.17423255186256242,"250":-0.10453249741222256,"251":0.09769453502529517,"252":-0.007982542353329906,"253":-0.28955344183570103,"254":0.1020394838671639,"255":0.0032033231196835605,"256":-0.06892825095940953,"257":0.07966514297435841,"258":0.2919708539912006,"259":0.05497039209413286,"260":0.2457034558693963,"261":-0.10405550369540491,"262":-0.2762109083053058,"263":0.11647434123845846,"264":-0.07098096897649928,"265":0.1559813755372246,"266":0.026410600879954765,"267":-0.04759037225161208,"268":-0.12014882260916553,"269":-0.02774724456889948,"270":-0.17923970389416613,"271":-0.010035081346885707,"272":-0.05212720983868167,"273":0.11638308443722889,"274":0.12232769124537367,"275":0.16228123444866094,"276":0.26258575938352224,"277":0.08149798462761469,"278":0.08718432861110041,"279":0.21017644974914332,"280":0.34008751247824703,"281":-0.07236534089883491,"282":0.25418211039290617,"283":0.15233971621525103,"284":0.05303305049786096,"285":-0.055782091791599805,"286":0.042074706206137215,"287":0.1163229924820808,"288":-0.17119598038705794,"289":0.13003325332968743,"290":0.24718681048897378,"291":0.11625821789036678,"292":0.25873875973256183,"293":0.11799963262105669,"294":-0.07624106436828582,"295":0.2140086576181814,"296":0.06270208166028728,"297":0.08295301028854324,"298":0.07960452536271993,"299":0.2021948552961248,"300":0.156240135943186,"301":-0.01853081915164427,"302":-0.03912715825628602,"303":-0.03659443924417038,"304":-0.28415009388877166,"305":-0.03855752627034079,"306":0.1847982124950396,"307":0.09274371209083596,"308":-0.01104472423911867,"309":-0.0013003365238688012,"310":-0.0035790993447130676,"311":0.03126264824775212,"312":-0.11508266513846672,"313":0.06404914587171284,"314":0.04974542339981725,"315":0.3190703591088445,"316":-0.40267529413994474,"317":0.050705127625632895,"318":-0.38365506326850257,"319":-0.16814955583599656,"320":0.16090639662315168,"321":0.21843621885886194,"322":-0.44799127661626104,"323":-0.012957169417237917,"324":-0.04511192969728545,"325":0.06613073484534933,"326":-0.2434938657351674,"327":-0.07353301570949727,"328":0.06702276437803145,"329":0.03846958652376572,"330":-0.3047779669027061,"331":0.13040532876945682,"332":-0.15602979613208748,"333":0.14356358470854935,"334":-0.1565753390616749,"335":0.30099776848888865,"336":0.025368436605251073,"337":0.27141625271506065,"338":-0.3244786911510401,"339":0.27737203609930006,"340":-0.12166110200239605,"341":0.1171131151885864,"342":-0.21087256670265125,"343":-0.1802552260158769,"344":-0.05932537695088108,"345":-0.11187063087054352,"346":0.048557898413055446,"347":0.2606911535708801,"348":-0.18457790383610084,"349":0.2547929381100096,"350":-0.12566741470917311,"351":0.32574112113211684,"352":0.07740368561887467,"353":0.3548247647241704,"354":-0.5261695204875131,"355":0.19062880603045435,"356":-0.3190244676530705,"357":0.014014279987868104,"358":0.28861138944719583,"359":-0.2633125419033389,"360":-0.11361222671177322,"361":-0.25939036667437293,"362":-0.08434903492265462,"363":-0.0039346516441643815,"364":0.10660618193813758,"365":0.14755861676483212,"366":0.14455827951154646,"367":0.1824907564758806,"368":0.06535820132640573,"369":0.2322160417823978,"370":-0.23084493134164863,"371":0.05359514495511883,"372":-0.2623486187514642,"373":-0.17535512713145907,"374":0.22094183019772565,"375":0.05660532366594872,"376":-0.15982624821393215,"377":-0.24282034507698144,"378":-0.09559221079078094,"379":0.07476106460172598,"380":-0.3552185038044298,"381":0.06735329213499382,"382":0.04792357379129688,"383":0.10665294847002041,"384":-0.031248168630547368,"385":0.2106941212998461,"386":-0.34871334260043424,"387":0.25774608724053305,"388":-0.385014162762949,"389":0.0888362176739465,"390":-0.09045615849434047,"391":-0.157245561308923,"392":-0.20451904688707867,"393":-0.2131315530991919,"394":-0.20628459121265297,"395":0.008676176413461275,"396":-0.508498615054221,"397":0.06465583915397888,"398":-0.2754731630075769,"399":0.15552364403882984}},{"sx":5,"sy":5,"depth":16,"w":{"0":-0.12648590492417294,"1":-0.11719131705698227,"2":-0.06947725105909969,"3":-0.11498861251451291,"4":-0.18852639473641103,"5":0.1660499900642061,"6":-0.06125292192635112,"7":-0.04539373900947255,"8":-0.24238016425210915,"9":-0.16969256640306835,"10":-0.1613909532425197,"11":-0.03749866344334092,"12":0.045030499877157654,"13":-0.03556304544803859,"14":0.1354048821806815,"15":-0.1500334700910912,"16":-0.21017160706535745,"17":-0.15762765470415008,"18":0.21314587163477408,"19":-0.09955840689203929,"20":0.0030692189075097282,"21":-0.131088001408314,"22":0.1436076199526395,"23":-0.017314873579904477,"24":-0.14605327271281332,"25":0.059899189404077055,"26":0.10628315058428016,"27":0.06867188857558787,"28":-0.25793108529126846,"29":-0.21836599657450806,"30":-0.01970269498797531,"31":-0.11913257583290186,"32":-0.4962786624108781,"33":-0.07529406306813181,"34":0.298180327231701,"35":0.018356723650376862,"36":-0.185441772003342,"37":-0.33626066203502675,"38":-0.2538745071204751,"39":-0.29315630468200204,"40":-0.031411093047449996,"41":0.2403765601598494,"42":-0.14834870253173585,"43":0.040244204122437864,"44":-0.2560251727584194,"45":-0.16975609376084771,"46":-0.08609736749972415,"47":-0.4074872837806974,"48":-0.3530183846851171,"49":-0.053530404290188786,"50":-0.04711316764268806,"51":-0.09132641339116304,"52":-0.04702645522640053,"53":-0.1783736479395994,"54":-0.19312577905034878,"55":-0.07643551749421434,"56":-0.37853547308704993,"57":-0.014396629023766348,"58":-0.12540381374708215,"59":0.0735489979002288,"60":-0.1434712509163413,"61":-0.06165737920011322,"62":0.007914455994787791,"63":-0.20430911054512543,"64":-0.599845881368089,"65":-0.0507343251726643,"66":-0.045486421891482665,"67":-0.07448335104021098,"68":-0.35710031694900307,"69":-0.10016825603853406,"70":0.09970527154756145,"71":-0.21930268520904153,"72":-0.19702266291824205,"73":0.0976182152143167,"74":0.2533833782832829,"75":0.049745771996210886,"76":-0.6638996879053576,"77":0.048071250470476175,"78":-0.044423772742843516,"79":-0.16913731344806102,"80":-0.22895406671921426,"81":-0.05055867882551318,"82":0.09601708234921034,"83":-0.07917079659762738,"84":0.0680399661299272,"85":-0.02581491094741567,"86":-0.05613520886653688,"87":0.00563816088605484,"88":-0.20187316332862176,"89":0.001880704926850592,"90":-0.11877458081038562,"91":-0.03839862583584652,"92":0.07653481905412815,"93":-0.04560036228482643,"94":0.06700675587192918,"95":-0.03476244319507867,"96":-0.31918985036651176,"97":-0.14257533779617432,"98":0.2885263249963884,"99":-0.07101371254325102,"100":0.19675051013750716,"101":-0.15246276513456025,"102":0.014947225782943928,"103":0.05450846677374758,"104":0.06301176009884156,"105":-0.020843711484293287,"106":-0.05881410374723399,"107":0.06621425709201993,"108":0.16909407151995648,"109":-0.20865378158361414,"110":0.02791005007423925,"111":-0.07039741074115308,"112":-0.4291315366453266,"113":-0.13760871816478487,"114":0.08954697464491945,"115":0.07048132421383167,"116":-0.12224444580836939,"117":-0.2241016718070992,"118":-0.22471960332682092,"119":-0.3242558576800513,"120":-0.08878298386783327,"121":-0.15548727119527492,"122":-0.06426436114982928,"123":-0.024653702608268695,"124":0.04686343832567213,"125":-0.039536019681456175,"126":0.07276264398478567,"127":0.039958018056586914,"128":-0.48971758744129174,"129":-0.008186184041760984,"130":-0.16021438205439195,"131":-0.06850317892392575,"132":-0.031271755878855174,"133":-0.1609046877851472,"134":-0.12578518539850006,"135":-0.29063694714962474,"136":-0.22526833051494632,"137":-0.11128447234176231,"138":-0.21841175363277193,"139":0.013065464465651743,"140":0.11758179108438412,"141":-0.02666340864702299,"142":0.2342406804693008,"143":0.2953441468787831,"144":-0.3752687107587418,"145":0.01882763029232957,"146":-0.06815063734761238,"147":0.0031502780027258957,"148":-0.29558135013942555,"149":-0.17668791968030936,"150":0.06215597865388667,"151":-0.39629325632687484,"152":-0.21339329426416792,"153":-0.12800312836253222,"154":0.11481634437416266,"155":-0.08668420754925242,"156":-0.5175992974552874,"157":0.05634380732154612,"158":-0.25152025048568666,"159":0.08702327228166977,"160":0.06332751508734068,"161":0.03844934132883255,"162":-0.1665360777464312,"163":0.05553589977637614,"164":-0.16985276688771428,"165":-0.2989055599346742,"166":-0.23034924359736492,"167":0.04075327815538913,"168":-0.3605481852606209,"169":0.03256865669388423,"170":-0.06155536541628897,"171":-0.15935417862689408,"172":-0.2334594533598734,"173":0.09109811103116157,"174":-0.006380525565221393,"175":-0.15567628114593884,"176":-0.09812257350540406,"177":-0.07686168327714674,"178":-0.010305147528305095,"179":-0.1214685467556042,"180":-0.14214134477072868,"181":0.22632275084594647,"182":0.15792406384745886,"183":-0.06494215588454713,"184":0.13650223733852018,"185":-0.09072619599407368,"186":0.1910507212975532,"187":-0.21917390209962584,"188":0.22750547016845454,"189":-0.0914171207818634,"190":0.20987293143283572,"191":-0.11043561222600379,"192":-0.25677299717131374,"193":-0.02594714217676236,