{"layers":[{"out_depth":3,"out_sx":32,"out_sy":32,"layer_type":"input"},{"sx":5,"sy":5,"stride":1,"in_depth":3,"out_depth":16,"out_sx":32,"out_sy":32,"layer_type":"conv","l1_decay_mul":0,"l2_decay_mul":1,"pad":2,"filters":[{"sx":5,"sy":5,"depth":3,"w":{"0":-0.39241600042869595,"1":-0.16522879197256088,"2":-0.21095298983088653,"3":0.021077799567141665,"4":-0.0013282029658847542,"5":0.07413340283198407,"6":0.13368831952492985,"7":0.00891235100298988,"8":0.1705798201571919,"9":0.007847082110014022,"10":0.056416406787905445,"11":-0.02684318433912082,"12":0.09556893404212956,"13":0.3279921301887228,"14":0.06116018886675616,"15":0.01813145622342908,"16":-0.0469955735726721,"17":-0.15196844199831475,"18":0.04796996315309048,"19":0.007143810716406239,"20":0.11063306204237215,"21":-0.143229240948485,"22":0.08236231071610979,"23":-0.1121856314660354,"24":-0.25768418763860224,"25":-0.20262828926259507,"26":0.11635115171695734,"27":0.003032866837049046,"28":-0.01018043166456473,"29":0.13096622807014632,"30":-0.08883692906430701,"31":-0.06498255244186786,"32":-0.1869233131769496,"33":0.0325527207166144,"34":0.09063454641255085,"35":-0.016084613831064434,"36":-0.21534030328069179,"37":-0.12683806141893691,"38":-0.09702462189547631,"39":-0.17997912819025277,"40":-0.13625479042828176,"41":-0.12225830276314502,"42":-0.16918293294693232,"43":-0.10765024852077132,"44":-0.14159413557674458,"45":0.168187959846835,"46":-0.03438838575716386,"47":-0.01412841510658164,"48":0.4143477686034628,"49":0.4824322043530542,"50":0.029262428434381323,"51":0.029507641959752223,"52":0.21133129020313224,"53":-0.02231369165848218,"54":0.24917965108545037,"55":-0.09187786751420214,"56":-0.02966271919364229,"57":0.2933099943751903,"58":0.02525005060568609,"59":0.29122426762670556,"60":-0.17784976904866806,"61":-0.2618938988712605,"62":0.04049353202741264,"63":0.2590436778858107,"64":0.17395214259910594,"65":-0.157414486388019,"66":-0.24979919234373477,"67":-0.1376450994953006,"68":-0.2900398673451198,"69":-0.2793163996959701,"70":-0.04029788217102356,"71":-0.19318171933835324,"72":0.06870501681083109,"73":0.07658046001917167,"74":0.15636636354396444}},{"sx":5,"sy":5,"depth":3,"w":{"0":0.07748478324155182,"1":-0.23675270909294577,"2":0.007220378613522462,"3":0.006121461392479364,"4":0.03888318062958559,"5":-0.21797335513173036,"6":-0.15652502371082405,"7":-0.09095129645440059,"8":-0.18951611874240162,"9":-0.004993992656907427,"10":-0.33381894983878563,"11":-0.20033583068992958,"12":0.06780930103290765,"13":0.009808126956067816,"14":-0.09484923544974933,"15":-0.06807852343454232,"16":0.0518285328947713,"17":-0.1786253346699661,"18":-0.18585511656192136,"19":-0.22882263791577365,"20":-0.18783698394936754,"21":0.02270445194113304,"22":-0.09147522512588202,"23":0.02754102369705456,"24":0.08446468189430878,"25":0.19217282636984448,"26":0.31752040938627735,"27":0.3268459313467993,"28":0.0703868440273114,"29":0.2317186899065647,"30":-0.21821140233068198,"31":-0.24253727890763774,"32":-0.15992711675211307,"33":-0.11629348317715539,"34":-0.11268389656058622,"35":-0.1656349388960597,"36":0.0025411706409059183,"37":0.09434776387170424,"38":0.04647026682674165,"39":0.10109229249605331,"40":-0.18699054590370134,"41":0.22928360436105114,"42":0.40943511809333283,"43":0.2194858871785118,"44":0.16943953730622477,"45":-0.3185368102851575,"46":-0.4524356647548601,"47":-0.23647586361936576,"48":0.11327249084810057,"49":0.04591554375158431,"50":-0.07936719923099038,"51":0.14733733120976777,"52":0.1401687597447372,"53":-0.07383580629252147,"54":0.20392089913842165,"55":0.23284429685577393,"56":0.22841657186818795,"57":0.3282274530403391,"58":0.2357795802946459,"59":0.2394857873512535,"60":-0.31479213558417024,"61":-0.22600077914403316,"62":-0.2928855816121224,"63":-0.08587265741744309,"64":-0.019756671706011603,"65":0.04954244217351793,"66":-0.013369186112152123,"67":0.28111951786505296,"68":0.045966429817297476,"69":0.006929853606324929,"70":0.15240029154955756,"71":-0.010784005664590743,"72":0.12097693869755573,"73":0.19682309415515598,"74":0.032308437963535386}},{"sx":5,"sy":5,"depth":3,"w":{"0":0.13138720710928078,"1":-0.13517407065572565,"2":-0.12987938381066336,"3":0.05904279708266755,"4":0.3491263022691254,"5":-0.1962305436435647,"6":0.025977222033897202,"7":0.10077064453235116,"8":0.1315795164252804,"9":-0.3562720520635226,"10":-0.21906365853867552,"11":-0.2667751626708885,"12":0.0790731085940424,"13":0.1115964872764337,"14":0.2997378688891179,"15":0.15723199248947495,"16":-0.051802358149870366,"17":-0.14098557067627973,"18":0.2440475780348621,"19":0.23418443622711738,"20":0.22791930781682762,"21":-0.13794030446092573,"22":-0.09350136123717427,"23":0.23194425425646598,"24":-0.4309781396188278,"25":-0.31941806711969367,"26":-0.4122234214379417,"27":0.2268794347687293,"28":0.11826769041075225,"29":0.07831264450812579,"30":0.02810486119554806,"31":0.28744243129522223,"32":0.03788708481095255,"33":-0.11002165751126868,"34":0.22707684355220217,"35":-0.12454401989559892,"36":-0.1633760223370924,"37":-0.08034676838847234,"38":-0.17716189883550096,"39":-0.11487549378588403,"40":-0.09464792401920635,"41":-0.43850788682911085,"42":0.2376847135251097,"43":0.3307112427740563,"44":0.30402499006649314,"45":0.13928507573699478,"46":-0.06572654428849319,"47":0.04329210053053418,"48":-0.2716345749786902,"49":-0.25494652026247755,"50":-0.2264081620886704,"51":-0.08347505056747861,"52":-0.09092118307658541,"53":-0.1953515044851541,"54":0.05390735037287337,"55":0.030842803772689737,"56":-0.10369514720953472,"57":0.3137010703072846,"58":0.06933371765772822,"59":0.4260472314039648,"60":0.025511371402916934,"61":-0.17654752013585148,"62":-0.028066901267699472,"63":0.05770520587673273,"64":-0.012153048587563886,"65":0.1261151146558063,"66":0.07107362575010388,"67":-0.034789907888677446,"68":0.0451715623309819,"69":-0.10633884576215308,"70":-0.20097594406399577,"71":0.07026036599734765,"72":-0.12403657787095548,"73":-0.00524118600118899,"74":0.16960061163018517}},{"sx":5,"sy":5,"depth":3,"w":{"0":-0.2073833197718691,"1":-0.19532357539329673,"2":-0.19115197774657405,"3":-0.2524052432925686,"4":-0.2497997895076845,"5":-0.21632180296331957,"6":0.06699711245579995,"7":-0.06138992982298764,"8":-0.0011357976216353621,"9":-0.12492208033795113,"10":-0.14320567808838044,"11":0.048137522808461196,"12":-0.09795530272084142,"13":0.07757371925248568,"14":0.11840316492043498,"15":0.14313378008737612,"16":-0.06462189854507143,"17":0.15987010031888493,"18":0.027675626547063924,"19":0.09059572769605194,"20":0.1607235794892271,"21":0.20075557142796066,"22":0.09193569405737377,"23":0.1107798143172383,"24":0.010995131987282927,"25":0.06807464227856665,"26":0.29653545814698806,"27":-0.05719779356787828,"28":0.06470495703560206,"29":-0.07904283968903646,"30":0.10109791299228159,"31":0.028088428532722146,"32":0.18470045314020228,"33":0.15061333871774243,"34":0.09069873846341935,"35":0.010678104559199701,"36":0.15802160540971585,"37":0.008749814190725836,"38":-0.05847010622949648,"39":0.17454558529996655,"40":0.2233478067977717,"41":-0.08399387622708682,"42":-0.08337787685286747,"43":-0.005068698836947459,"44":0.04074915779795552,"45":-0.2524991571001588,"46":-0.13794780582141103,"47":-0.32199557323101824,"48":-0.08992484177205964,"49":0.06106328408324096,"50":-0.09137258105128158,"51":-0.2629194699224794,"52":-0.2869396790268705,"53":-0.032349574699864256,"54":-0.31119372679474194,"55":-0.0358281551245514,"56":-0.13486681599179298,"57":-0.4161814963692255,"58":-0.03524440379728037,"59":-0.06826346544778118,"60":-0.22162980864990312,"61":-0.02321724245025873,"62":-0.025463774350601463,"63":-0.0960497653170412,"64":0.03656041391568467,"65":0.35563126013159774,"66":0.12043676395816157,"67":0.0833879867086317,"68":-0.13978141086772358,"69":-0.10930969920628682,"70":-0.010536577771938213,"71":-0.1350850005184096,"72":-0.04684954230340396,"73":-0.08571532906253013,"74":-0.12139901471986542}},{"sx":5,"sy":5,"depth":3,"w":{"0":-0.05490997395463617,"1":0.03717694389598746,"2":-0.08310841402189348,"3":0.09061185709271934,"4":-0.06360094009340937,"5":-0.12976600576819114,"6":-0.17544090666335554,"7":0.030380636240349247,"8":-0.026465116897818365,"9":0.07975017713724857,"10":0.014889852426757185,"11":-0.08346759078433369,"12":-0.08778046460613859,"13":0.0336312080061435,"14":-0.25349840903154425,"15":-0.002010764825983195,"16":-0.16243277838251283,"17":-0.11800096910495934,"18":0.15214605521457678,"19":0.14669601192856946,"20":-0.0856074125210159,"21":0.025910210538259572,"22":-0.04723506207991655,"23":0.050707717763081105,"24":-0.1797140372264008,"25":0.07865440309796044,"26":0.05649272741466996,"27":0.05858634292012497,"28":-0.11716321022164108,"29":-0.025744927484263685,"30":-0.06759288182179536,"31":-0.08289485491898482,"32":-0.14428620027934386,"33":-0.011948598146056935,"34":-0.0712276644185201,"35":-0.059493065121376275,"36":0.06799276529179998,"37":0.004174128641763918,"38":-0.01798188874713703,"39":0.042338144069260494,"40":0.13925765704610182,"41":-0.018296497035487243,"42":-0.20002084186257504,"43":-0.09871490143135345,"44":0.17343083131063688,"45":-0.19470617492133616,"46":-0.03251500852948777,"47":-0.052386556819314055,"48":0.0831546150086987,"49":0.011566932711790672,"50":-0.0012900486073063448,"51":0.055798781183234156,"52":-0.2098766372380368,"53":0.10218143632032484,"54":-0.05441274494959667,"55":-0.15261755393783755,"56":0.01546365342551781,"57":-0.17949366139847014,"58":0.07847837341808052,"59":0.18058034392483235,"60":-0.1739613913343076,"61":-0.07179470991438656,"62":-0.07145197797995262,"63":-0.1958680767850891,"64":0.017723250599904525,"65":0.03480790089036567,"66":-0.0022589487217076925,"67":0.015502602854693246,"68":-0.031806942948108104,"69":-0.056301897283758395,"70":-0.040980772379464465,"71":-0.06727490822871796,"72":-0.10445225870679724,"73":0.04197795752674669,"74":-0.3144609132303321}},{"sx":5,"sy":5,"depth":3,"w":{"0":0.3449212867127843,"1":0.23501640579112995,"2":0.16828172684762713,"3":-0.1467136912586364,"4":-0.045598218560055664,"5":0.00173561370519727,"6":0.035372466795640475,"7":-0.09316309749936623,"8":0.0017318554041463386,"9":0.2676485209435727,"10":0.15060061398906316,"11":0.011451624177049103,"12":-0.08925095566027116,"13":0.021627035563283187,"14":-0.01770199008472928,"15":-0.1864218223945752,"16":0.03575906246599963,"17":-0.1794929467102104,"18":-0.5460046602628007,"19":-0.34148980251576555,"20":-0.04059121196395785,"21":-0.052998136136146436,"22":-0.29126984859762384,"23":-0.1392422379313068,"24":-0.33709908951490103,"25":-0.204430106131024,"26":-0.2224186065306722,"27":-0.2043558587933456,"28":-0.07834397387110985,"29":-0.15268651475337655,"30":-0.14417907775190958,"31":-0.3473790998197643,"32":-0.10705555745192245,"33":0.18367364048771198,"34":-0.06809804503254918,"35":-0.08001839590574239,"36":0.009814940403618168,"37":-0.0387185352547661,"38":0.08580542114412237,"39":0.05838045932197701,"40":0.07108122710741673,"41":-0.16229702745126356,"42":0.01948823211652655,"43":0.12077926323354882,"44":-0.06863628287915341,"45":0.08397632466667247,"46":0.011400058165771568,"47":-0.01874242618235787,"48":0.45234266443833526,"49":0.15546763468663596,"50":0.3991318674101595,"51":0.11756108674436705,"52":0.19682208879416543,"53":0.28342224488074474,"54":0.15244093266917594,"55":0.011467147367405535,"56":0.2743278225460096,"57":0.0011922675100425107,"58":0.10892449653632398,"59":0.3910712413527706,"60":0.10753058656313673,"61":0.09325405028358622,"62":-0.12236648926684644,"63":-0.01295888557189286,"64":0.11078150512246426,"65":0.07860705395848404,"66":-0.1804698516865354,"67":0.04330944103203315,"68":-0.09199899155330488,"69":-0.12393921750564278,"70":-0.027721610283551894,"71":-0.24373141722711447,"72":0.0711528119987145,"73":-0.15533098420369848,"74":-0.05532869224827178}},{"sx":5,"sy":5,"depth":3,"w":{"0":-0.03908452377925406,"1":0.19526971467422274,"2":0.11921315351014912,"3":0.03548211112706803,"4":0.11352445513472532,"5":-0.04162519407731226,"6":0.08021668121804264,"7":0.23284458417001122,"8":0.015810281943613478,"9":-0.24498826229809392,"10":-0.14197842037155123,"11":-0.1290258406245055,"12":-0.1693425877602203,"13":-0.04568681069507332,"14":-0.1796915172871868,"15":0.17602983326384067,"16":0.05530113787323008,"17":0.021701044933242583,"18":0.08953771127711149,"19":-0.10185651974619434,"20":0.3389807505294665,"21":-0.07718578224885055,"22":0.01734328122881973,"23":-0.036395411312426594,"24":-0.186666017761039,"25":-0.13363620260084946,"26":-0.22233742024660305,"27":0.04146594920882553,"28":0.03710394851161239,"29":-0.03358832403032232,"30":-0.0013819591016327654,"31":-0.033560925065849054,"32":-0.14038872617087145,"33":-0.17961377496812175,"34":-0.24194460599249634,"35":-0.3450473846247359,"36":0.06684398088120865,"37":-0.19564591551285654,"38":-0.18343142921742323,"39":0.16234567021313356,"40":0.2323141208971805,"41":0.14608435800150513,"42":0.021763880646511594,"43":0.2536336327016396,"44":0.06713962755592948,"45":-0.11053786206472976,"46":-0.12755592623362785,"47":-0.276679134762378,"48":-0.13507592553314596,"49":-0.10149080732691357,"50":-0.13752742687686612,"51":-0.10530882394638479,"52":-0.053934817804476266,"53":-0.18310135574680178,"54":0.19662900618933546,"55":-0.02480883975743059,"56":0.25001273612774755,"57":-0.05361978841527357,"58":0.0853238749025632,"59":0.04211583162702633,"60":-0.10524269778626244,"61":-0.09678391961566075,"62":0.10375957364023695,"63":0.32796226079815227,"64":0.1482171506330999,"65":0.04760664054319958,"66":-0.18784628938493828,"67":-0.15944243262884011,"68":-0.04386567503088437,"69":0.038105003305659926,"70":-0.05709317466623985,"71":0.06446343329948191,"72":0.09354652383757034,"73":-0.34904630726032493,"74":-0.10926496941620883}},{"sx":5,"sy":5,"depth":3,"w":{"0":0.13979142813333129,"1":-0.20351209899838263,"2":0.11489512720067037,"3":0.07359417873100575,"4":0.1256680541208947,"5":-0.07135119076600553,"6":-0.02940221052973379,"7":-0.16089250212432699,"8":0.2737359283823459,"9":0.007789903386306221,"10":0.034319616017150834,"11":-0.09283476344393732,"12":-0.05556398070777859,"13":-0.22353500002281784,"14":-0.12633778432433043,"15":-0.17675966611078767,"16":0.006096107256470761,"17":0.2451094352554097,"18":-0.05361641534598269,"19":-0.07210177289013106,"20":-0.2544768399921032,"21":0.01069287879898134,"22":-0.23751282534792362,"23":-0.04067333859045742,"24":-0.11996678008417938,"25":-0.11537973250539268,"26":-0.12325581273962175,"27":-0.23899962829976842,"28":-0.08006772771932207,"29":-0.14372094573601776,"30":-0.21229353036142495,"31":-0.15642999642316685,"32":-0.03569165432932848,"33":-0.21360424319982155,"34":0.10019023939657037,"35":0.15817121356614508,"36":-0.10082756125079446,"37":-0.030986547786515134,"38":0.08825784284101584,"39":-0.20082760128953137,"40":-0.3464722219605741,"41":-0.21735585158356738,"42":-0.1259112843904155,"43":-0.08304699548641198,"44":-0.07648644595685102,"45":-0.29109900011799295,"46":-0.08746177775673833,"47":-0.1368555482330531,"48":-0.011239667272757943,"49":0.010487179729935191,"50":0.18878438179859622,"51":0.13240977037126464,"52":-0.14250393422239163,"53":-0.02230436961760216,"54":-0.06885302396106927,"55":-0.1782798086071144,"56":0.001090515165439297,"57":-0.10975873898962554,"58":-0.02840946698973843,"59":-0.015743871544300313,"60":0.14521325096187726,"61":0.09924588742570799,"62":0.020555250417213036,"63":-0.11472502680475764,"64":-0.13247909229820168,"65":-0.16867943226624044,"66":-0.1146619232374146,"67":0.06655566619715857,"68":0.017337236361199482,"69":-0.1500840888271464,"70":-0.36218210073506063,"71":-0.2086749080383144,"72":0.10225936865770753,"73":0.032733174907321576,"74":0.02954144290733606}},{"sx":5,"sy":5,"depth":3,"w":{"0":0.1912075551146066,"1":0.24443424324146512,"2":0.08881916679143008,"3":-0.07499963500562461,"4":0.1709140718693501,"5":0.3093515033203509,"6":-0.34593456090812325,"7":-0.24143279572923246,"8":-0.2576303534999196,"9":-0.044894553068047516,"10":-0.17039718512120125,"11":0.09423832558480477,"12":-0.10262436735877686,"13":-0.029566828291027206,"14":-0.06272415641992683,"15":0.36433134076509854,"16":0.22223928747131153,"17":0.17635548682718966,"18":-0.12555926431343034,"19":-0.18533023680076655,"20":-0.21027445044932191,"21":-0.1581989697683409,"22":-0.05942492910786963,"23":-0.2925423277224961,"24":0.08482138919637648,"25":0.17228770286664785,"26":-0.20711004404729494,"27":0.095815099798408,"28":-0.03021257609317222,"29":0.17289214921925963,"30":-0.11872271543024185,"31":-0.26055387915549383,"32":-0.15880807595104832,"33":-0.25826510752291415,"34":-0.42780892208684396,"35":-0.5176656981697147,"36":0.10852306904869051,"37":0.11229173945504162,"38":0.12286039547625278,"39":-0.18866986271742328,"40":-0.13727923628429853,"41":-0.006603715863305121,"42":0.062171700112197,"43":-0.01573338067151778,"44":0.049423692524800354,"45":-0.08855184066331433,"46":-0.2504911116378395,"47":0.021919849106129433,"48":0.2268027648764914,"49":0.09134697600775872,"50":0.13136946772377486,"51":0.3372129883566802,"52":0.21109527261832584,"53":0.2513828312448477,"54":-0.1868550174726282,"55":0.1416524116040048,"56":0.08929857645017589,"57":-0.06004458980875672,"58":-0.11987907857584632,"59":-0.03887865439574628,"60":-0.1731433715415088,"61":-0.16543718296423446,"62":-0.03237332223102751,"63":0.29128143650310473,"64":0.13328908907041348,"65":0.25667779218261505,"66":0.11653802307611127,"67":0.05224164403597442,"68":0.04930501540910332,"69":0.16666955859844443,"70":-0.00813923551219339,"71":0.1911776102129048,"72":0.01759279302794754,"73":-0.06909211005789422,"74":-0.003291379354678471}},{"sx":5,"sy":5,"depth":3,"w":{"0":0.050918603058328536,"1":-0.12461816626401484,"2":-0.21738774664609278,"3":-0.05574340085908317,"4":0.05745650936256939,"5":0.06269122614007872,"6":0.060386116889127615,"7":-0.031247084138338262,"8":0.08024547245464116,"9":0.05328220681711924,"10":0.013919040520073664,"11":0.19203249816396106,"12":0.05295827742189804,"13":0.1043305451595742,"14":0.030492278117617892,"15":-0.17567964167944275,"16":-0.24286960283727183,"17":-0.3172630360877352,"18":0.16528918599130862,"19":0.30625196622164946,"20":0.17983682667702053,"21":0.0463139876499497,"22":0.06857369451880498,"23":0.17434083376501966,"24":0.2003450608488478,"25":-0.042604311475113406,"26":0.17736305131509425,"27":-0.2248778012781929,"28":-0.09929849284895871,"29":-0.003479367938915907,"30":-0.0457422411521745,"31":-0.2862338276194665,"32":-0.22560518767413684,"33":0.07295176405639878,"34":0.06968419939485376,"35":0.14621315297871543,"36":0.33688700900607144,"37":0.19177442174474832,"38":0.1370143232555707,"39":0.35438088851382016,"40":0.1775383418683766,"41":0.2948976551691056,"42":-0.05786935861952109,"43":0.04141959767653052,"44":0.12681204061783144,"45":-0.09063819225498056,"46":-0.17077031746783694,"47":-0.06744965511630065,"48":-0.20976961803723607,"49":-0.10819567687108557,"50":-0.0800578025966045,"51":-0.0010181666323942529,"52":0.01652314639128369,"53":-0.09795617456672742,"54":0.08091594492484806,"55":0.25342812659561914,"56":0.19287622106489366,"57":0.14937050582700426,"58":-0.09266308481655235,"59":0.061677278142896856,"60":-0.16647763479830233,"61":-0.10499426758052635,"62":0.058921641601477386,"63":-0.025765740055623165,"64":-0.05254316412468404,"65":-0.08659610655496428,"66":-0.2329088149544075,"67":-0.033155621848474905,"68":-0.40083636730728633,"69":-0.23589355715329852,"70":-0.20069892658500574,"71":-0.1539808936333588,"72":-0.12186883072286717,"73":-0.23815413426067042,"74":-0.04265181974937473}},{"sx":5,"sy":5,"depth":3,"w":{"0":-0.5772795576177194,"1":-0.5222425921576594,"2":-0.1692431528300215,"3":-0.1501724074499843,"4":-0.330138976688711,"5":0.0917166483077993,"6":0.10415045264877516,"7":0.14045800249187157,"8":0.24001852395706297,"9":0.06753041222281678,"10":0.23316946169606265,"11":0.14375650404180737,"12":0.03785271872161709,"13":-0.10497485922084716,"14":0.09651572741555942,"15":-0.03435873289403965,"16":-0.16055584857205932,"17":-0.08154401752384163,"18":-0.187732477261519,"19":-0.461606193788506,"20":-0.26309216495820387,"21":0.1413160800440844,"22":-0.20059506116648376,"23":-0.0006453749948963899,"24":0.17294072715637723,"25":0.26494195275743593,"26":0.24579181870716377,"27":0.3825064837078562,"28":0.026214328638460505,"29":0.10295989686893557,"30":-0.06582219086052518,"31":0.15638599191005795,"32":0.06217422508712124,"33":-0.007514328773469147,"34":-0.001296870262830302,"35":0.04523807802340746,"36":-0.18366606348843514,"37":-0.28763438376369205,"38":-0.07261806445432793,"39":-0.007770204301635934,"40":0.06042960353997315,"41":0.006226676700398035,"42":0.13182618375016908,"43":0.337061603635813,"44":0.04387679492942505,"45":0.24557325469095082,"46":0.11014610591951367,"47":0.1875391614171388,"48":0.15595455566165164,"49":0.15099633883692526,"50":0.0705197632885019,"51":-0.11515815429399075,"52":0.24816824773237017,"53":-0.02681299555755129,"54":-0.21154507578437012,"55":-0.4042311483721011,"56":-0.08309734198198332,"57":-0.11044936804504812,"58":-0.17528670484565295,"59":-0.2213770073365554,"60":0.30228678328970593,"61":0.28675886928165206,"62":0.03566151442788301,"63":0.4559785217146077,"64":0.20540582130309598,"65":0.30688949416041317,"66":0.07371055335282253,"67":0.15428257106892954,"68":-0.10410164857546464,"69":-0.2334255202556548,"70":-0.33848644047069193,"71":-0.20720880908433786,"72":-0.4549712598130925,"73":-0.044317967037091045,"74":-0.4570561219637237}},{"sx":5,"sy":5,"depth":3,"w":{"0":-0.109573021429838,"1":-0.11882133222736845,"2":-0.18088285954308123,"3":-0.1985656053092655,"4":-0.09438647936136484,"5":-0.20119049777900017,"6":0.11857716439069542,"7":0.07069466368423709,"8":-0.05008252342297641,"9":-0.05366712151450173,"10":-0.14845337165965167,"11":-0.3422892663670717,"12":0.11056206338969848,"13":-0.04772583583336092,"14":0.12128969104377456,"15":-0.15937422358514458,"16":-0.2530867430069032,"17":-0.13609382546037702,"18":0.05569915456501097,"19":0.07159648999729552,"20":0.0018642155223638796,"21":0.08332765593076222,"22":-0.02956014508881868,"23":0.012554506876541596,"24":-0.1246869716415361,"25":-0.11051777681149409,"26":-0.19171714744000753,"27":0.15410314076807005,"28":-0.08715287432217074,"29":0.05042116546470357,"30":0.08894946586107098,"31":-0.11109320819996099,"32":-0.16711866118081065,"33":0.1283224248377253,"34":0.0585702967355229,"35":-0.08048334129672012,"36":0.31713770557496235,"37":0.25288641057234185,"38":0.13538228330384888,"39":-0.07707218381509318,"40":-0.18645200868189712,"41":-0.24857497714136892,"42":-0.09757993498513787,"43":-0.20470241001104503,"44":-0.5564684114105735,"45":-0.12422196913586006,"46":-0.1695087304462097,"47":-0.27944131120922,"48":-0.004244868609447186,"49":0.018990448543903388,"50":0.02614096436896922,"51":0.5871110663482899,"52":0.36894085332645243,"53":0.2584040078814708,"54":-0.28332632569351573,"55":-0.07604106689121651,"56":0.02578112662884996,"57":-0.34578788330931953,"58":-0.363550309693002,"59":-0.3373981109964598,"60":-0.07005521424559477,"61":-0.12808535417081188,"62":-0.08804260671744599,"63":-0.13067040638004337,"64":-0.1097272221595175,"65":0.013287956964317272,"66":0.10999956483043473,"67":0.20325860103844806,"68":0.28411339970358435,"69":-0.15979642709585182,"70":-0.08549705062633568,"71":-0.2758018313162999,"72":0.18513814398650655,"73":0.20641887769785042,"74":-0.06372484105289196}},{"sx":5,"sy":5,"depth":3,"w":{"0":-0.30955936141797474,"1":0.11492578457993215,"2":0.12336426454386025,"3":0.32234037195339466,"4":0.10762494350025269,"5":0.20437626241987075,"6":0.20603073187148788,"7":0.3817842256975543,"8":0.008010551721967712,"9":-0.26750718331426676,"10":-0.31061120533775355,"11":-0.125670445998127,"12":-0.2975960120456557,"13":-0.25198167476954186,"14":-0.18000017073993874,"15":0.012106943943758993,"16":0.132112502101858,"17":-0.08402376605359213,"18":0.3076151055094053,"19":0.502824383138707,"20":0.31673014955256396,"21":0.2639491292923634,"22":0.21835663046104592,"23":0.3760003133613522,"24":-0.25254744075259844,"25":-0.17482011288583427,"26":-0.09238280284837666,"27":-0.06179421999629659,"28":-0.16567850014317884,"29":-0.37713980392646007,"30":0.18437752178679187,"31":0.06672717946197244,"32":0.21566564278352632,"33":0.46480234387756536,"34":0.1511359208628639,"35":0.1976760003382632,"36":0.17638338690831748,"37":-0.02106333967830469,"38":0.018725000165840805,"39":-0.3115661016600148,"40":-0.1327291880051984,"41":-0.14096469847705792,"42":-0.2438215364219155,"43":-0.11609632382445223,"44":-0.010753489744870141,"45":-0.05358836641101935,"46":-0.00033998904231833304,"47":0.034281954722957045,"48":-0.01251357098218748,"49":0.10189925117051891,"50":-0.07652611927323419,"51":-0.13410642767621514,"52":0.0003361517581416722,"53":-0.2774216706868056,"54":-0.15251785575145613,"55":-0.13886472690536072,"56":-0.045456485160208705,"57":-0.20146841630147774,"58":-0.27410400122647377,"59":0.11299545515437777,"60":-0.16321429944276397,"61":-0.1479334978021199,"62":-0.11294075623629583,"63":-0.14588102629071226,"64":-0.13718388273450116,"65":-0.15392579155830993,"66":0.2381810035040092,"67":0.07437475260793247,"68":0.061955348530457685,"69":-0.05383499154451673,"70":0.16795293933352973,"71":-0.06230066374425858,"72":0.08830251445414142,"73":0.165061651724329,"74":0.30704779974014906}},{"sx":5,"sy":5,"depth":3,"w":{"0":-0.1567006327920552,"1":-0.1856093472452559,"2":-0.08301060449039775,"3":0.042221207357396096,"4":0.05674452528182348,"5":-0.0567528542485665,"6":0.05614227039243223,"7":-0.12063045379085263,"8":0.02237847476098349,"9":0.07115029263920822,"10":0.10133674032256655,"11":0.0043529527745037365,"12":0.11006595895612392,"13":-0.07662246676106227,"14":-0.17450763324158675,"15":0.03936796605434241,"16":0.011557254707871412,"17":0.060695222392211486,"18":0.029204985900546866,"19":-0.13202592353549691,"20":-0.012673472000005605,"21":0.10349010989025648,"22":0.03139191637674468,"23":0.12561053876858616,"24":-0.11165741835783716,"25":0.27776817947019417,"26":0.22378268015495614,"27":-0.12692644293683486,"28":0.004153248992088569,"29":0.16747420332266466,"30":-0.08235660283444882,"31":-0.051163193758393996,"32":-0.12893022690175396,"33":-0.23605135228110913,"34":-0.3447070296454687,"35":-0.082089457761585,"36":-0.3325121927395607,"37":0.058910292887995395,"38":-0.3059090425927762,"39":0.38540139023168024,"40":0.3704844705994182,"41":0.06235730035644885,"42":-0.22579884485459786,"43":0.22227368467124384,"44":0.019873014747274518,"45":-0.11819003155084973,"46":-0.1085328686371207,"47":-0.01680155378161819,"48":0.018080275168233493,"49":-0.1214879336626093,"50":-0.13095993250991403,"51":-0.1862744506429253,"52":-0.38859725398804495,"53":-0.3208100127582308,"54":0.060001806224297176,"55":0.016050566372246156,"56":0.23766289377307512,"57":-0.07175288338167417,"58":0.07538026136807341,"59":-0.05667026755015571,"60":-0.11688496443068237,"61":0.08680834697251744,"62":0.08955953134675251,"63":0.32826653625661634,"64":0.21040996289859423,"65":0.2450653614791726,"66":-0.43081524519184555,"67":-0.3354403437795155,"68":-0.30563960228013604,"69":0.30168153406152615,"70":0.15394510746160248,"71":0.21269902435331353,"72":-0.03674845077817402,"73":-0.06705090492351014,"74":-0.2583693422400336}},{"sx":5,"sy":5,"depth":3,"w":{"0":-0.18189528805749078,"1":-0.14482714538563587,"2":-0.03854106553827462,"3":0.09192439885660608,"4":0.16270140652046547,"5":0.01903073339605295,"6":0.3149510429582006,"7":-0.0812585266720081,"8":0.17152845342803377,"9":-0.08945969166705522,"10":-0.16964754129723872,"11":-0.244468949939424,"12":0.065067070078348,"13":-0.16887743395237226,"14":-0.06764015670348002,"15":0.00016467663435738768,"16":-0.03268200986900629,"17":-0.15851580636257115,"18":-0.08119317064703341,"19":-0.05715970408140931,"20":0.17428022284720077,"21":0.03436135056562032,"22":0.22068633410032454,"23":0.06297057426016887,"24":0.21573698597512653,"25":0.2502432375109664,"26":0.01045184229187496,"27":-0.1567467100623121,"28":-0.11153793378985889,"29":-0.2353352418295525,"30":0.2507705021234686,"31":0.2236180145116598,"32":0.29324035212246996,"33":0.2771363817412485,"34":0.2387621806001862,"35":0.3423723833519968,"36":0.10346403135462838,"37":-0.18293462965157095,"38":0.0716902937858901,"39":-0.13843163146205364,"40":0.05848879830637602,"41":0.03351926511276695,"42":-0.1606381129155331,"43":-0.1650100150752385,"44":-0.32260283515390104,"45":0.026400166140371238,"46":-0.05873666907947662,"47":0.12838298888101884,"48":-0.04827106620269291,"49":-0.025741009375864387,"50":0.15401579149145653,"51":0.020245128209106754,"52":0.00106934679000376,"53":0.07578440768830377,"54":0.06984557281232703,"55":0.006658261635070924,"56":0.1861062768511291,"57":-0.33808800869850497,"58":-0.036067391593735884,"59":-0.3346380903066885,"60":-0.5203386051055984,"61":-0.05927682334628739,"62":-0.17689167802084008,"63":0.10122891708473215,"64":0.0470734772360451,"65":-0.1336262963597214,"66":0.20303362008815326,"67":0.14104163222094282,"68":0.16489802542538676,"69":0.10951278756865138,"70":0.04867222995440015,"71":0.1434354505743059,"72":-0.12421956313957688,"73":0.15810672778349588,"74":-0.07200244632452846}},{"sx":5,"sy":5,"depth":3,"w":{"0":-0.003337326083938159,"1":0.03522861468772636,"2":0.19326524148107374,"3":0.05988129587860886,"4":-0.10151630940179002,"5":-0.08668444091568761,"6":-0.11100407729434689,"7":-0.40224008835540137,"8":-0.3143021016293808,"9":-0.18740765351528896,"10":-0.33599737562893867,"11":-0.2926052380259341,"12":-0.08082161496181958,"13":-0.22140005744948305,"14":-0.2193212647282621,"15":-0.14021736259484094,"16":-0.3259130251856618,"17":-0.17992018072836885,"18":-0.19416833118786608,"19":-0.13983931499796468,"20":-0.26889004784176074,"21":-0.10732677534765116,"22":-0.12391123823476899,"23":0.04120094132683015,"24":-0.04487319872667879,"25":0.015454747109049122,"26":0.10703279598155162,"27":0.06555293879139772,"28":-0.11932904365018883,"29":0.12052903680963674,"30":0.22998524343619142,"31":0.03445401470489996,"32":-0.0359746375874763,"33":-0.045070361075476434,"34":-0.03120120780795356,"35":0.17658435515286733,"36":0.14814368696997063,"37":0.036564445648260335,"38":0.006414275164515935,"39":0.0873500413277344,"40":0.011955391562628367,"41":0.13145002627723187,"42":-0.03982461265429617,"43":-0.04156975208229892,"44":0.15914688544436442,"45":0.008789002726191725,"46":0.2151961474345576,"47":0.09815831604887229,"48":0.1085692388946091,"49":0.2736655211732327,"50":0.15783770713858936,"51":0.23858884566753263,"52":0.25809206109261495,"53":0.10189457359783527,"54":0.20174224475669955,"55":0.2214097836256648,"56":0.08417534560407215,"57":0.10054275348769379,"58":0.17593181273032918,"59":0.1271833806316698,"60":0.06591408060778443,"61":-0.13627723284303167,"62":-0.05363764124017857,"63":0.17284209662673167,"64":-0.061052357483881145,"65":-0.10526252569139741,"66":0.1520185077067781,"67":0.146702099183343,"68":0.18412281042353884,"69":0.05518111547550162,"70":0.3207016645239455,"71":-0.09058100303725523,"72":0.05075731579639937,"73":-0.16057706959985849,"74":0.2084425074993658}}],"biases":{"sx":1,"sy":1,"depth":16,"w":{"0":-0.09654955562948951,"1":-0.05562898540930016,"2":-0.012799108367378907,"3":-0.11917378234486024,"4":-0.2887636196521295,"5":0.005714145116899149,"6":-0.28726428811419563,"7":0.09383552482844723,"8":0.05716293571331775,"9":0.18388839839752838,"10":0.1274867604103298,"11":0.019768200669862748,"12":-0.16458935406382413,"13":0.15598026994093778,"14":-0.17269191211707213,"15":0.02926154738563858}}},{"out_depth":16,"out_sx":32,"out_sy":32,"layer_type":"relu"},{"sx":2,"sy":2,"stride":2,"in_depth":16,"out_depth":16,"out_sx":16,"out_sy":16,"layer_type":"pool","pad":0},{"sx":5,"sy":5,"stride":1,"in_depth":16,"out_depth":20,"out_sx":16,"out_sy":16,"layer_type":"conv","l1_decay_mul":0,"l2_decay_mul":1,"pad":2,"filters":[{"sx":5,"sy":5,"depth":16,"w":{"0":-0.04813186287360577,"1":-0.11620764407403812,"2":-0.018381654361211707,"3":0.023485731865543265,"4":-0.07344295104473311,"5":0.03987882981351054,"6":0.01674625856917868,"7":0.015020920174150746,"8":-0.10262957130134844,"9":-0.20039890213801514,"10":-0.038687231105527194,"11":0.022749769530040074,"12":0.0110757330796913,"13":-0.0534115813879795,"14":0.015235178648492474,"15":0.09986674149985421,"16":-0.027313549844338807,"17":-0.06000325803279738,"18":0.040533814861875295,"19":-0.035394140764428636,"20":-0.06631427175171829,"21":-0.06938218491357011,"22":0.0621798411542206,"23":-0.06662326245372811,"24":-0.019933607483387527,"25":-0.086268373755219,"26":-0.13230979153139497,"27":-0.031734546063410383,"28":0.00772942627080877,"29":-0.03112976516494565,"30":-0.018504611169568645,"31":0.03342682246139396,"32":-0.04152368820485249,"33":-0.032999511913216706,"34":-0.12061219705531133,"35":-0.08539467579664885,"36":0.0350122112235183,"37":0.013415922338541475,"38":0.035307091820141655,"39":-0.05251592018325253,"40":-0.011773057373551051,"41":-0.19529600455658255,"42":-0.07623479462967375,"43":-0.01939811652056541,"44":-0.1651051884212092,"45":-0.12740367951045867,"46":0.07693623726903438,"47":-0.013906062368865218,"48":-0.04603571198149687,"49":-0.016615362170514045,"50":-0.003927495522299564,"51":0.10611418746681843,"52":-0.02038069834393518,"53":0.007054973527813792,"54":-0.07838060494219366,"55":0.08877031711971169,"56":-0.060963730762580506,"57":-0.053346887596938224,"58":-0.014225191290350069,"59":0.05275522386770458,"60":-0.04646232833632188,"61":-0.00688842750514807,"62":-0.13519761156806337,"63":0.006389180781926087,"64":0.025288967520126,"65":0.023572961308999305,"66":-0.07750709266026333,"67":-0.01714469782827769,"68":-0.017692892973005532,"69":0.01863600289862864,"70":-0.05767513277871615,"71":0.014929184042775856,"72":0.01789942617777822,"73":-0.15853722689195224,"74":0.032902407632369325,"75":0.054793870020231845,"76":-0.07292362786347492,"77":0.06368547339318704,"78":-0.0002489654626405052,"79":0.11592421393399033,"80":-0.08366876043527491,"81":-0.2232218237689554,"82":-0.10307361870608334,"83":0.03556458054703459,"84":-0.022083299308389946,"85":-0.14204078163122086,"86":-0.03540055187329085,"87":0.03830832368932626,"88":-0.10308549559193396,"89":0.041948332035607105,"90":-0.11162332357680473,"91":-0.04286050204566094,"92":-0.04608565781984284,"93":-0.06438828048300876,"94":-0.07564651499853901,"95":-0.1817725356294921,"96":-0.029865551934384414,"97":-0.16983511939209434,"98":-0.1245461072743478,"99":-0.023411670530011308,"100":0.04724189574450688,"101":-0.11526030948016762,"102":0.008913145081781535,"103":0.004017691424113666,"104":-0.14978344303620603,"105":-0.11602506355865483,"106":-0.09999810412177501,"107":-0.006694940843620944,"108":0.006433218468247432,"109":-0.0915953817314689,"110":-0.1318430885645196,"111":-0.05519347044692493,"112":-0.10781783465587232,"113":-0.18063299953257428,"114":-0.02474206296629319,"115":-0.009409302401823819,"116":-0.03399776115950176,"117":-0.04680454811839971,"118":0.005106963479126358,"119":-0.07545385645355576,"120":-0.13062616831403834,"121":-0.023737493233612753,"122":-0.038682355448953196,"123":-0.09406643790973299,"124":-0.15112902252486404,"125":-0.08803253638391899,"126":-0.1290840296510072,"127":0.008682523719661668,"128":-0.12153022628531684,"129":-0.16522157796288653,"130":-0.04648686105724261,"131":-0.08349276553538519,"132":-0.04352686260967982,"133":-0.15871119120288257,"134":-0.005209120182539425,"135":-0.0005322945298610248,"136":-0.21350948617242857,"137":-0.04880660139237608,"138":-0.14051407059719756,"139":-0.054307146748430686,"140":-0.1511228500166293,"141":-0.10019213055924972,"142":-0.018081992058050986,"143":-0.005248336120662574,"144":-0.014666970334439554,"145":0.0064451877709424624,"146":-0.05958214671732483,"147":0.10748287517607566,"148":-0.026268387264291756,"149":-0.06955273451058629,"150":0.02596715344557687,"151":-0.08673940805125513,"152":-0.10177618404883375,"153":0.10120625686887776,"154":0.04383975148440077,"155":-0.11501284948598979,"156":-0.0002510998296929752,"157":-0.01197859600559496,"158":-0.012775781298624424,"159":-0.04828497683604765,"160":-0.059243506320976164,"161":-0.1043506650943648,"162":-0.06240414193913777,"163":-0.10885758894819436,"164":-0.002759941790496134,"165":-0.15740252592682868,"166":-0.026922207103152095,"167":0.01631427199613389,"168":0.010111785132325059,"169":-0.0816913086169542,"170":-0.23503936492658214,"171":-0.05957746038634785,"172":-0.09084015339514498,"173":-0.05319014246782564,"174":-0.13210940944174276,"175":-0.16252163660531196,"176":-0.05885096079133446,"177":-0.13728046433164917,"178":-0.009345856472988601,"179":-0.08035575136804486,"180":0.032393476544746606,"181":-0.06211608420171268,"182":-0.048670949720366716,"183":-0.022182715696013357,"184":-0.06888727205302876,"185":-0.08820032137604107,"186":-0.11906103160920782,"187":-0.032935521567182255,"188":-0.09685005813188921,"189":-0.14598563654808072,"190":-0.07921181930671357,"191":-0.18136031443262435,"192":-0.03746811821085788,"193":-0.16210880815637072,"194":-0.022124087902453,"195":-0.10130901822731338,"196":0.014709051779878246,"197":-0.1436972187973163,"198":-0.0016807479364076739,"199":-0.07403553821249773,"200":-0.04661081363347538,"201":-0.09889509306359266,"202":-0.08024759079259348,"203":-0.07566676267335015,"204":-0.08706394601412722,"205":-0.161757307603982,"206":-0.10639107428298915,"207":-0.1696468175355888,"208":-0.10473278357589202,"209":-0.16845986764812848,"210":-0.06985117660914944,"211":-0.05656768460842211,"212":-0.05148598500744629,"213":-0.03959979094010538,"214":-0.08537518405480603,"215":-0.15407296246714203,"216":-0.027954867543615234,"217":-0.129626939548975,"218":-0.08005397044514724,"219":-0.0924685675684617,"220":-0.10403489106627015,"221":-0.04158884517707188,"222":-0.13106615462749202,"223":-0.1473375649007814,"224":0.023359021125041478,"225":-0.06639495623850084,"226":-0.06515041111866865,"227":0.008849472894960736,"228":-0.027245917677746652,"229":-0.10224528257174395,"230":-0.026721249347428536,"231":-0.05781364792655371,"232":0.0014399194634577368,"233":-0.12578908022655425,"234":-0.1332621302838792,"235":0.013402340633463168,"236":0.034994348263665015,"237":-0.03026627990099991,"238":0.007695834697514349,"239":-0.08873069307888147,"240":0.08612831568793235,"241":-0.08402251428346778,"242":-0.110513532179835,"243":-0.02219612157420326,"244":-0.023082210039241487,"245":0.09960269393273427,"246":-0.11887271472193627,"247":-0.03511363284531085,"248":-0.07596791575510924,"249":-0.11428319154488903,"250":-0.16265059082291586,"251":-0.0008555265356483996,"252":0.03818425802373543,"253":-0.050544731889262444,"254":-0.05777390578406646,"255":-0.00182801954375107,"256":-0.030310642724181578,"257":-0.17328565060433415,"258":-0.13159583526690047,"259":-0.02083618684815705,"260":-0.05391160940913339,"261":-0.0007228405511358149,"262":-0.0650990807690503,"263":-0.048745486201418685,"264":-0.07016250264449816,"265":-0.1156434203334078,"266":-0.15442860906606332,"267":-0.03461248649991009,"268":-0.005171961642394699,"269":-0.09575941693519649,"270":-0.05838573753266001,"271":0.07699319386245582,"272":-0.08343728198636224,"273":-0.16869057293648937,"274":-0.013484638389913955,"275":-0.04919332289259619,"276":-0.04540037484347274,"277":0.13877693720336853,"278":-0.06374799666029632,"279":0.003943163485657453,"280":-0.0353925597700399,"281":-0.21601619054424412,"282":-0.32101936246973284,"283":-0.04831232572250702,"284":-0.07046354322323124,"285":-0.08833691960112869,"286":-0.07780596338966003,"287":-0.025387861849828552,"288":-0.04113160365758872,"289":-0.06782098393017591,"290":0.008952618152250007,"291":-0.09585631946907382,"292":-0.011222858477023912,"293":0.09260542630109397,"294":-0.07416171736122808,"295":-0.11015936653928934,"296":0.042940192109971784,"297":-0.09668485327598367,"298":-0.21455541728386562,"299":-0.08932770167523206,"300":-0.09716322822953123,"301":0.025976182724149432,"302":-0.15043817410606714,"303":0.05411280406950177,"304":-0.03479761115568655,"305":0.03327516520396225,"306":-0.10578091142756342,"307":-0.08473598374260798,"308":-0.07181588934249802,"309":0.016128722922961067,"310":-0.029670495653761238,"311":-0.03308512443402561,"312":0.01546222535300326,"313":0.06891733128674939,"314":-0.04149737412991236,"315":-0.10969943282312894,"316":0.0019773974353684484,"317":0.007480283072057192,"318":-0.011618456270902699,"319":0.09703697123704415,"320":-0.0403929601594953,"321":-0.0866180709419957,"322":-0.1459280719832588,"323":0.06241218399541715,"324":-0.06706779247088966,"325":0.07519080893468302,"326":-0.07680964527662476,"327":-0.011024629652707547,"328":-0.16552570575503872,"329":0.2172431638593484,"330":0.1140528324137338,"331":-0.02645388283724451,"332":0.10432986387647057,"333":-0.06936936175404186,"334":-0.013547243692854267,"335":-0.07476235756947328,"336":0.030113118405278517,"337":-0.08284243390881565,"338":-0.025795885775964957,"339":0.13815750041322075,"340":0.12178535077740943,"341":0.007603773153974943,"342":-0.13404913602403268,"343":-0.03686099159498935,"344":-0.18536724435542642,"345":0.22571899600303588,"346":-0.06979982520516588,"347":0.014984298621009926,"348":0.15526181390471572,"349":0.03962175340611255,"350":0.016116538589804177,"351":-0.08057875658872435,"352":-0.053538809363381006,"353":0.04398431027926166,"354":-0.12447672684284823,"355":0.05765469128286075,"356":-0.006348064450634632,"357":0.015607570064517589,"358":0.013987105470698891,"359":-0.03554002914684455,"360":-0.11990950588216003,"361":0.10170651468790563,"362":-0.07815610907885998,"363":-0.05087381822694533,"364":0.11940158282571328,"365":0.026896642098242846,"366":0.014226652991424215,"367":-0.07738455742443252,"368":-0.09047920072090546,"369":0.08666049745724451,"370":-0.19757971763518145,"371":-0.11005489478013404,"372":-0.02541765024624113,"373":-0.02661343953029318,"374":-0.0792292608146119,"375":-0.02964668372157097,"376":-0.15436721775644416,"377":0.19969702570744818,"378":0.048001411250825896,"379":-0.11891736053563391,"380":-0.022125212997875073,"381":-0.03967328267191888,"382":-0.08842360368960803,"383":-0.02173935389654379,"384":-0.061336908332502674,"385":-0.07939903258763495,"386":0.07303450005729521,"387":-0.0768285391182665,"388":-0.0239435719172151,"389":0.020883798035681685,"390":0.006339625073357295,"391":-0.16958374590585268,"392":-0.2944703616582662,"393":0.17626818428241203,"394":-0.06208037286194937,"395":-0.10876397218272083,"396":0.16693747470435885,"397":-0.03522860339818243,"398":0.028459722906845786,"399":-0.020441923703015258}},{"sx":5,"sy":5,"depth":16,"w":{"0":0.014413575540063587,"1":0.021207790010496632,"2":-0.04458144737647828,"3":0.05446151215649534,"4":0.00506860816609847,"5":0.029702874315016357,"6":-0.09003813473779308,"7":-0.006392412790275246,"8":0.1003029539737454,"9":-0.036648827201522134,"10":0.1739877285403827,"11":0.02352268504365877,"12":-0.04118186958378706,"13":-0.07662517733247624,"14":0.08695114176242813,"15":0.04926779936547889,"16":0.04324913096815099,"17":-0.2107355752503298,"18":-0.17674444613900603,"19":0.004418895991643279,"20":-0.04751840380354806,"21":-0.10335929770663971,"22":0.13377902457260132,"23":0.06364447683328371,"24":0.10886627967235661,"25":-0.02707140860140052,"26":0.13659296040365898,"27":0.062229582084860714,"28":0.07717712242280156,"29":0.005961288861670643,"30":-0.04106091896496828,"31":-0.10780899269427628,"32":0.04712375763905953,"33":-0.09055812370736199,"34":-0.10173028905578393,"35":-0.06559787592618843,"36":-0.04510333226594417,"37":-0.05097494000007447,"38":-0.06946035580619528,"39":0.14019185445009097,"40":0.2112817803213459,"41":0.07237592712138233,"42":0.010806571117066231,"43":-0.1407170696057563,"44":0.038781577003847933,"45":-0.04569724145274782,"46":-0.06889216678185121,"47":-0.05893892858701796,"48":0.023082700053915734,"49":-0.11978937805452745,"50":0.04873671989709025,"51":-0.01200443060633101,"52":0.05066664381275659,"53":-0.010085603501962838,"54":-0.10107327470455053,"55":0.1749287825048892,"56":0.050899394007650006,"57":-0.08258503027767332,"58":0.04815711768590052,"59":-0.016021699125218287,"60":0.1147875450538033,"61":-0.06549033524835156,"62":0.06263092419708892,"63":-0.07996763368952517,"64":-0.08213341471429611,"65":-0.10249438122645566,"66":0.011608083116752948,"67":-0.03543490484277555,"68":0.01389603963202811,"69":-0.04906692822106317,"70":0.05992609705484088,"71":0.04150897398078282,"72":0.19856357012124676,"73":-0.05560533856537408,"74":-0.16922048788424993,"75":-0.07471829688614363,"76":0.08577371485857477,"77":-0.0071429697558341165,"78":-0.17538261057600382,"79":0.02902050837208689,"80":-0.15291150405513299,"81":-0.0009754812420121012,"82":0.022238281931149823,"83":0.1290465125938476,"84":0.05163323303564681,"85":0.12403159557775788,"86":-0.04076699537285018,"87":0.013248604618401178,"88":-0.09271081947022873,"89":0.04860961891667853,"90":0.020182812241191936,"91":0.08432050056851648,"92":-0.015141518270905017,"93":-0.017864912274014596,"94":0.011550118882988392,"95":0.06798303326358686,"96":-0.15993032275078933,"97":0.07802086664947301,"98":-0.029714640773365556,"99":0.07514961231024114,"100":0.05982001086367457,"101":0.15118123420388282,"102":-0.060066062629545586,"103":0.041960823276465914,"104":-0.03648447983757606,"105":0.05743128329600814,"106":0.04434001494982308,"107":-0.03319402090709695,"108":0.022528076422729245,"109":0.09991820855820513,"110":-0.048162859968574195,"111":0.055703285907127476,"112":-0.06717051072846535,"113":-0.045683458683226014,"114":0.020931359720279822,"115":0.014526119467033447,"116":0.07708395344955327,"117":0.1366482182110153,"118":-0.12882336623791565,"119":-0.033623067476812214,"120":-0.018981720309468417,"121":0.11479460180910876,"122":-0.014282670392203442,"123":-0.022356888258241316,"124":-0.02832954396903966,"125":0.010155186332791565,"126":-0.031180176406423857,"127":0.12674422606188307,"128":-0.10030445853263932,"129":-0.01603546883521087,"130":0.05243624663821556,"131":0.06256546590861067,"132":0.015655588312293158,"133":0.10965372651654375,"134":-0.11129098398544132,"135":0.027377584199819734,"136":-0.015526067725422726,"137":0.08312299044336965,"138":-0.008466074418802537,"139":-0.03958185397405643,"140":-0.15218624255700164,"141":0.01011407464845435,"142":-0.028176918440971126,"143":0.15201706819722713,"144":-0.07770342474812404,"145":0.09557709627538698,"146":-0.053478956177396716,"147":0.08341585924862481,"148":0.0301194017518392,"149":0.04126632212554225,"150":-0.10085713989679804,"151":0.011431089463570387,"152":-0.02050300529367526,"153":-0.026271038883318,"154":-0.0086821160607791,"155":-0.024837367261057376,"156":-0.11591724933530528,"157":-0.014561381310182385,"158":-0.22136836008415667,"159":0.10294214755457783,"160":0.0024134314860745692,"161":-0.09523890590408986,"162":-0.031273886361531056,"163":-0.050376814805309277,"164":-0.08472749222610587,"165":-0.07710752247653123,"166":0.05854606691930308,"167":0.07061250364835091,"168":0.014664649927248094,"169":0.06318276250229216,"170":-0.1027242245655114,"171":-0.01706414117849537,"172":-0.06328551823891672,"173":0.07000581890409223,"174":-0.09627141240074492,"175":0.06825920043572985,"176":0.05536318227719278,"177":-0.16508441565698442,"178":-0.042859274971941974,"179":-0.04100000718851596,"180":0.0008715740900296981,"181":-0.06424050094098782,"182":0.0802960571776631,"183":-0.008454261375758164,"184":0.006350590159859919,"185":0.09148323660740931,"186":-0.23497634118213895,"187":-0.008821760057564115,"188":-0.08030676216297424,"189":0.07692858911841882,"190":-0.11126974347819475,"191":0.031249878251433882,"192":0.02294242912102073,"193":-0.10455277616135485,"194":-0.0646336690013073,"195":0.01698829643784207,"196":0.048408776202941345,"197":-0.02273818806792174,"198":-0.06392959556411815,"199":0.09880362644239932,"200":-0.034417168107984154,"201":-0.02388918441289276,"202":-0.17794469798554674,"203":-0.02195109270015842,"204":-0.13448331712702172,"205":-0.010605915649430312,"206":-0.15660683267380282,"207":0.11021827469273712,"208":0.07109052932762763,"209":-0.07175654945481791,"210":-0.021318118882664747,"211":-0.08489009000460856,"212":-0.05051477037530765,"213":0.018446311230926004,"214":0.004431244563767165,"215":0.015254367467500928,"216":0.0012260343428380296,"217":0.04678473379884008,"218":-0.08846431229113565,"219":-0.039429301772364825,"220":-0.16942136414683873,"221":0.013761380936980093,"222":-0.16930998924149807,"223":0.08042701939915796,"224":0.047309901638812754,"225":-0.18091743467505972,"226":-0.14456836112638546,"227":-0.06676064410024096,"228":-0.047232036857519,"229":0.035969556026619165,"230":0.0915381997731516,"231":0.001037236749594613,"232":0.03175963521546444,"233":0.05973205628045778,"234":-0.08346999182898585,"235":-0.0773229910234095,"236":-0.22106851772876962,"237":0.0033588813744165735,"238":-0.35043342066097716,"239":-0.022856564494949307,"240":-0.05521269188787928,"241":-0.10100985062244709,"242":-0.012916737287412144,"243":0.05244995550367373,"244":-0.05866269121655246,"245":-0.14531657301527284,"246":-0.08978930300069161,"247":0.025342174182497162,"248":0.03149278461746009,"249":-0.030865781811407554,"250":0.0671831542297772,"251":-0.02537268911488408,"252":-0.04198741562123112,"253":-0.002061236477432072,"254":-0.10065263617956365,"255":0.022283062190520373,"256":-0.15180250131577105,"257":-0.1912798633172868,"258":-0.003052880034812492,"259":0.07311089589041263,"260":0.005765137966649218,"261":-0.08317165386621203,"262":-0.11931174710352604,"263":-0.020474697082917794,"264":0.0698312118143131,"265":0.028049038759267383,"266":0.03556412311970328,"267":0.06209946167225545,"268":0.048005511541997295,"269":0.01668898949121306,"270":-0.062096457906772276,"271":0.021167167210474177,"272":-0.03134273470616985,"273":-0.12105043240448672,"274":-0.15886555198036795,"275":-0.035094934508022334,"276":0.015320794090433291,"277":-0.16091470954972903,"278":-0.14103654930611353,"279":-0.06052603064602536,"280":-0.00906227971942486,"281":-0.011715969118602676,"282":0.03461712076347668,"283":-0.09825040413482858,"284":-0.057166928012508424,"285":0.014102653350494682,"286":-0.1525690409503316,"287":0.08189479155966137,"288":-0.09332415966882876,"289":-0.1028076468908041,"290":-0.07850484399825586,"291":-0.04660295977506077,"292":0.009979932886256277,"293":-0.15791319395463116,"294":-0.033770210345319254,"295":0.05373189808975946,"296":0.009431858253281055,"297":0.06158550856507607,"298":-0.0007820996623576849,"299":0.004384726479591013,"300":-0.045608910900492725,"301":-0.004396338179368055,"302":-0.09114136912536774,"303":0.0422070085470525,"304":-0.04231825961868568,"305":-0.06952688473774885,"306":0.017349613391891575,"307":-0.038902788776475364,"308":-0.15387315105545382,"309":-0.23338941775920266,"310":-0.11118018368916442,"311":0.03395034850876458,"312":-0.01375871379042516,"313":0.015603399070796206,"314":-0.05666731606544043,"315":-0.15055415656145738,"316":-0.09424788887126857,"317":-0.10905168840251861,"318":-0.12025963436176808,"319":0.059451964293038,"320":-0.013645804588608281,"321":-0.16511646667396448,"322":-0.0638405136216712,"323":-0.037439487616375916,"324":-0.003432434840727699,"325":0.08294890959844418,"326":-0.06529413636484219,"327":-0.0036969881224286336,"328":0.014865185894464873,"329":0.013455222163904854,"330":-0.07980733561740434,"331":-0.07644653369436323,"332":-0.138690757254545,"333":-0.09471863175023051,"334":-0.09138820577010721,"335":0.14654856987704307,"336":0.0072816399405468205,"337":-0.17458652531498364,"338":-0.0652001705961849,"339":-0.09505213302721255,"340":-0.07067315803167237,"341":0.14095308897814518,"342":-0.031781552516145374,"343":-0.027145990790739448,"344":0.11125842837429017,"345":-0.044720117958060135,"346":0.10306180462561236,"347":-0.0368541778263886,"348":-0.014290311974858395,"349":-0.03613253857120874,"350":-0.13411665914908397,"351":0.02553611843163583,"352":-0.01573733343529749,"353":-0.15770477216417514,"354":-0.017608432764928534,"355":-0.06551257955828854,"356":-0.08165994202991163,"357":0.1412875628719199,"358":0.017664207827811855,"359":-0.06749325997056307,"360":0.11167156888463785,"361":-0.09806244656644796,"362":0.003782923015861098,"363":-0.06965149387183739,"364":-0.10617916829099228,"365":-0.05799654843917882,"366":-0.10198004432116395,"367":0.06550529193646396,"368":-0.008552892997590157,"369":-0.09553094221575532,"370":-0.028521315356228517,"371":-0.1359833747816942,"372":-0.0640182291853653,"373":0.13887610292738292,"374":-0.09807972841951912,"375":-0.021253564477169487,"376":0.13698684531141658,"377":0.004480068241075863,"378":-0.05746023294748974,"379":-0.024103522144005428,"380":-0.09297113134637533,"381":-0.09976097606206996,"382":-0.07117131309139228,"383":0.11020415860288564,"384":0.10418615664217727,"385":-0.10728775057589983,"386":-0.10650723863549111,"387":-0.035734122439805165,"388":0.02797947477091751,"389":0.06368585776596976,"390":-0.008737349614896164,"391":0.007629763079146251,"392":0.015508105253842433,"393":0.009006014030279825,"394":-0.0002978952249155147,"395":0.07814224762355453,"396":-0.14938324864306782,"397":-0.1352855964786664,"398":-0.010605898882450318,"399":0.13382722021329593}},{"sx":5,"sy":5,"depth":16,"w":{"0":0.09706393046092708,"1":-0.014020469301884053,"2":0.23773025060019398,"3":-0.01840643082852305,"4":0.1008140731859745,"5":-0.133893898229458,"6":0.22130547710801374,"7":0.05645997340819787,"8":-0.10912582170435974,"9":-0.07787505305000822,"10":0.002484890531890615,"11":0.24111338043650088,"12":0.2988953584843611,"13":0.2629759094886359,"14":0.004800083344596283,"15":-0.28374303982793325,"16":0.09491505578137065,"17":-0.004614228966680701,"18":0.018179489049843754,"19":-0.06033450484475438,"20":0.039821251449263184,"21":-0.12880742750743832,"22":-0.06497440219179923,"23":0.07639583674328636,"24":0.06693064208608326,"25":0.003524216401318121,"26":0.03486718778669285,"27":-0.1586285303217291,"28":-0.2835258234695875,"29":0.19558633662927713,"30":-0.22594273481548513,"31":-0.08631559170558159,"32":0.17334586714419217,"33":-0.10433291803965156,"34":0.08675797260325883,"35":-0.02163059143954501,"36":-0.011734940950738203,"37":-0.09879623774450075,"38":0.15979419449624835,"39":-0.029679955286473592,"40":-0.2200608980754622,"41":0.08400411153498659,"42":-0.026191643660468316,"43":0.14478393991853297,"44":0.23313305475053106,"45":-0.02017163767002883,"46":0.0016016155366664069,"47":-0.16429327186128062,"48":0.032749923249377026,"49":0.03669456078873196,"50":0.1703687569848988,"51":-0.021998293403098598,"52":0.024372377409998196,"53":-0.019777459260400934,"54":0.04389290437119676,"55":-0.06801998915546814,"56":0.1299461854310866,"57":0.02121688666052813,"58":0.03945699974744087,"59":-0.038900270430881394,"60":-0.07123705891385991,"61":0.012205025152189613,"62":-0.248144165000691,"63":-0.14964898906129995,"64":0.1408152644182413,"65":-0.06129005665072189,"66":0.07742932144992327,"67":-0.013848411036120584,"68":-0.027399314350440164,"69":0.03513027463649896,"70":0.12051163702284137,"71":-0.05095760754296565,"72":-0.1282488865561848,"73":0.13212901914076017,"74":0.1752364321520592,"75":0.03656366205956657,"76":-0.06870876947060846,"77":0.284846129927673,"78":-0.03497554497575683,"79":-0.07930016428191491,"80":0.07760851895967248,"81":0.08708524311310589,"82":0.17340694439053922,"83":-0.006294621985735224,"84":0.028664040587476722,"85":-0.03842494717984028,"86":0.06864345596442889,"87":0.1017861542727082,"88":-0.15781013527036247,"89":-0.042647525962124636,"90":0.01423331616705884,"91":0.18492221521449387,"92":0.04656116824484747,"93":0.13552428696753116,"94":-0.005027949131119784,"95":-0.12430525400294268,"96":0.17032234627709425,"97":0.10929919425515984,"98":-0.11700926498550226,"99":-0.04508763438064046,"100":-0.031075119365525927,"101":-0.04326145255924261,"102":-0.18335724403203912,"103":0.006337607477001241,"104":-0.2921136485648233,"105":0.09961719397240303,"106":-0.15733669745562015,"107":-0.14994179851863274,"108":-0.2871147399132345,"109":0.17181049535137444,"110":-0.2582781223990278,"111":-0.13159866992666952,"112":0.07285046154435786,"113":-0.008523275466258699,"114":-0.02200112876628958,"115":0.015419859519104597,"116":0.012415537862045531,"117":0.10353190765483128,"118":-0.0006376341513046627,"119":0.08322249293663082,"120":-0.08542987603333949,"121":0.1152085202295406,"122":-0.1595309524371635,"123":0.037809524026610586,"124":-0.03765075222749059,"125":0.013625907396851503,"126":0.08112696089873359,"127":-0.12985227837284796,"128":0.06508344758943448,"129":0.11356142500667538,"130":-0.2057072589219225,"131":0.022889777374874107,"132":-0.06854541912969644,"133":0.11677107829967406,"134":-0.13573565671190183,"135":-0.023746935389134242,"136":-0.09820344676634211,"137":0.1096595188535222,"138":-0.04514872639524419,"139":-0.2181426447078922,"140":-0.07092382371048542,"141":0.066308666813482,"142":-0.11216939414842686,"143":-0.07152683959918185,"144":0.10372746918159927,"145":-0.09672799786602868,"146":-0.022902910595104485,"147":0.19109749385875255,"148":-0.0340347535097125,"149":0.01844327010072147,"150":-0.220243144451649,"151":-0.031070390051351465,"152":-0.3265874234821887,"153":-0.03823107288567383,"154":0.06338336856117288,"155":-0.15900770680739584,"156":-0.1045218467488546,"157":-0.044781430974806684,"158":-0.15531602939534064,"159":-0.09201069439025657,"160":-0.011985442160670205,"161":-0.1359060352414121,"162":0.08169573023485004,"163":-0.25172238441746486,"164":0.01487891996014281,"165":-0.036002536368046976,"166":-0.15191838569805666,"167":0.03273105517815428,"168":-0.00283841265502616,"169":-0.10494629458202272,"170":0.08253814826350292,"171":-0.1048210478560037,"172":0.21113205906879556,"173":-0.07965163464872395,"174":0.2245308340034489,"175":0.05855259731160069,"176":-0.07461258498730455,"177":-0.16912447601170033,"178":-0.16634009881690745,"179":-0.3148604201624769,"180":0.06681796226927968,"181":0.015547823750139932,"182":-0.18952369012533615,"183":-0.056332831687900486,"184":0.016366231825553093,"185":-0.2047320579729905,"186":-0.22346904563816647,"187":-0.1537770081785353,"188":-0.04521128719343254,"189":-0.17729949385327104,"190":-0.060787463458219795,"191":0.0023811477474959897,"192":-0.04770137475036855,"193":-0.26509413410275023,"194":0.0006992176436439619,"195":-0.12916227594584892,"196":-0.03684163747574587,"197":-0.10618628463341652,"198":-0.1655093788642888,"199":-0.05219337362290714,"200":0.12171159147233544,"201":-0.07461626192657235,"202":-0.22671282905144605,"203":-0.21723683213262718,"204":0.12412836025397352,"205":-0.28326802155947667,"206":-0.11990021508475053,"207":0.014936288916831294,"208":-0.16362834163103587,"209":-0.014913226204184052,"210":-0.1333714054669498,"211":-0.23858038158029116,"212":-0.023016902024492504,"213":-0.0029531755270494125,"214":-0.133598237098968,"215":-0.08815426320447627,"216":0.1897127665993875,"217":-0.20769618210546958,"218":-0.21371893958278587,"219":-0.31269646462699535,"220":-0.07954815303270564,"221":-0.3040422289770072,"222":-0.18331296678500558,"223":0.020280422791725518,"224":-0.10422186554062017,"225":-0.14152544066563003,"226":-0.037310432828264066,"227":-0.30297462925913166,"228":-0.1492439627884563,"229":0.048358443676090934,"230":0.02138292009453725,"231":-0.15925201086458018,"232":0.2337107883672731,"233":-0.28787693083568927,"234":-0.19612711833852972,"235":-0.34214531412741667,"236":-0.008915337063422948,"237":-0.4335873081753775,"238":-0.22115172960476487,"239":0.07525521210525861,"240":-0.07175947755183157,"241":-0.03360101492771937,"242":0.05710985920812685,"243":0.15698538254241015,"244":0.004255455307878403,"245":0.041561147573520134,"246":-0.18976775385866354,"247":-0.09838791627157079,"248":-0.03592078986856304,"249":0.007918082155448945,"250":-0.14592988423423867,"251":-0.10126521540112507,"252":0.16512036323516305,"253":0.20211880807416235,"254":0.16796245682924035,"255":0.1779688807806455,"256":-0.06763906787363962,"257":0.03604372164952359,"258":-0.14816259744385055,"259":0.06870129388368372,"260":0.08367371721976233,"261":0.2095649516600821,"262":-0.28059963707948304,"263":-0.17815097127874752,"264":0.03295084040785719,"265":-0.04839794737180078,"266":-0.2538285541114685,"267":-0.17466460339315473,"268":-0.15176716525297984,"269":-0.025992237047716218,"270":-0.018579352504393923,"271":0.300983485336755,"272":-0.13151444177717778,"273":-0.0011040941500100668,"274":-0.16517204801961083,"275":0.17472593323775573,"276":0.147145331700407,"277":0.30929090326055186,"278":-0.081627875803788,"279":-0.13888723336134431,"280":0.04834147152970136,"281":0.030142065044890292,"282":-0.0986699584753729,"283":-0.1524657240804188,"284":-0.1680953326391538,"285":0.18024312752637203,"286":0.0161814416269427,"287":0.3255973167021419,"288":-0.05307245828295104,"289":0.15176508812560188,"290":-0.20587869804577663,"291":0.28421592663457806,"292":0.031326889389678515,"293":0.21929883298420327,"294":-0.20563039871030023,"295":-0.21585883231411904,"296":0.12840801454567682,"297":0.0002712362287418911,"298":-0.1707898195407526,"299":-0.18176292333914762,"300":-0.25322255396008747,"301":-0.12531796019161917,"302":-0.006778498560147576,"303":0.22368864553894283,"304":-0.08217233437305477,"305":0.0725004944750327,"306":-0.11795827405249014,"307":0.2893235863380492,"308":0.1514695143660688,"309":0.26891318937853237,"310":-0.04077187406114892,"311":-0.20335472291035153,"312":0.05456165467704441,"313":0.03867445626869149,"314":0.05129283859433534,"315":0.003389558715913291,"316":-0.1814251896465352,"317":0.13616516745042825,"318":0.04490111688104654,"319":0.261599954037789,"320":0.09493573786766413,"321":0.07263364732430089,"322":0.04904189333621902,"323":-0.0491801994840394,"324":0.06201908541796961,"325":-0.13958566823491703,"326":0.03315025896921435,"327":-0.19904022098248772,"328":-0.08900002807119695,"329":0.11482200453775417,"330":-0.012107897467164404,"331":0.03543663399211371,"332":0.051597377076610065,"333":0.18229101741571063,"334":-0.03447658171059065,"335":0.07034477569328486,"336":-0.15167358542316248,"337":0.2269476109002893,"338":-0.16694033134801248,"339":-0.03785204412276052,"340":-0.2492359617473616,"341":-0.1963130706670261,"342":-0.13908782610576137,"343":-0.012751555886540126,"344":-0.008820933991728713,"345":-0.0526097713813706,"346":-0.2026876157343836,"347":0.07346260963131618,"348":-0.18090957054232004,"349":-0.02717312012675012,"350":0.08913317084428847,"351":0.14091212835516975,"352":-0.04230613360232084,"353":0.07311849176972124,"354":-0.09668565135177548,"355":0.0069745493393032175,"356":-0.06099378326171506,"357":-0.1658552017656291,"358":0.11564128870555952,"359":-0.05193699686965729,"360":-0.1318375735753551,"361":-0.04574314352109207,"362":0.03574302353205463,"363":0.021560793168633085,"364":-0.10475459885012502,"365":-0.13880467368118551,"366":0.051005997322333047,"367":0.03958825701507992,"368":-0.09966076209245339,"369":0.09034882849281273,"370":-0.1702054710270092,"371":-0.09020211363524777,"372":-0.09544057122472512,"373":-0.07383663649484949,"374":0.014923898231089973,"375":-0.07236338544432121,"376":-0.04472191797909031,"377":0.12288478693043582,"378":0.00691558997919901,"379":0.024623422807345904,"380":-0.10369954498295077,"381":-0.13333810489112868,"382":-0.0004684742158077267,"383":-0.04097583325183124,"384":-0.16547582037114533,"385":0.12036089261264578,"386":-0.17213941181900175,"387":0.0038108789543823273,"388":0.0009558730975429682,"389":0.056598334605236306,"390":0.15702791223006032,"391":-0.030546064687165777,"392":0.0802280923460404,"393":-0.11660306126913073,"394":0.3306257435027977,"395":-0.10029578410587484,"396":0.09909567140885894,"397":-0.010610939044004637,"398":0.15301898125742847,"399":-0.10989007116957378}},{"sx":5,"sy":5,"depth":16,"w":{"0":0.02264910040103388,"1":0.12942950666985117,"2":0.006814930120290487,"3":-0.07524697758975299,"4":-0.021717987994316484,"5":0.010668130476779307,"6":0.060470380940731906,"7":-0.022299230559200564,"8":-0.05182587714827764,"9":0.045844461595923175,"10":-0.10096781458262458,"11":0.01975547081251398,"12":-0.22321743241844677,"13":0.09289085329516025,"14":-0.17018117846827222,"15":-0.003870973873247519,"16":-0.14685296326904143,"17":-0.11900911557627997,"18":-0.13048466371095666,"19":-0.030461738354540868,"20":-0.028302162593260217,"21":-0.0217345853964655,"22":0.04845244110426362,"23":-0.05136876895799451,"24":-0.04946730196687211,"25":-0.09880273274040044,"26":-0.023139331315885508,"27":-0.06524635604334786,"28":-0.38759837051808727,"29":-0.28881467685886847,"30":-0.1798479796548979,"31":0.01815400372984975,"32":-0.0455917136336687,"33":-0.2852093147527461,"34":-0.18969588268020685,"35":-0.004579570738511867,"36":0.06293884765183792,"37":-0.1299484712123867,"38":-0.265087939837627,"39":-0.0728491280229528,"40":-0.2383592607326485,"41":0.007516998933690477,"42":-0.10291960251686687,"43":-0.17592537287556262,"44":0.06168111025270655,"45":-0.2509281970938837,"46":0.017615483416131627,"47":-0.15697614544233668,"48":-0.07231018014571812,"49":-0.14634093547099664,"50":0.030158396072269146,"51":0.012360772548864158,"52":-0.030273657128989596,"53":-0.03326250976645153,"54":-0.03426964869456875,"55":-0.1587727933024695,"56":-0.07667828363145238,"57":-0.12084259827118644,"58":-0.06176933771020369,"59":-0.0284930856315923,"60":-0.15935649154459464,"61":-0.03665863353240746,"62":-0.19806978585043183,"63":-0.037083555752126005,"64":-0.14820847003653193,"65":-0.00029265257245534096,"66":-0.1481099510352115,"67":-0.02528617516519625,"68":-0.09191394019427697,"69":0.035450479246810745,"70":0.0476849960087474,"71":-0.1478126580242681,"72":0.04679193925937751,"73":0.11418663156288043,"74":-0.06975494802686848,"75":-0.11059317277881275,"76":-0.21093456022036366,"77":-0.14903853830810085,"78":-0.18694821929581504,"79":-0.04813418534377304,"80":0.03608518901990555,"81":0.10538784338040388,"82":-0.06373598679640549,"83":-0.11672351098907177,"84":0.04166136426683437,"85":0.18271026944635244,"86":-0.21106446731374243,"87":-0.1604059675897969,"88":-0.12548997144878068,"89":0.12359260814875593,"90":-0.0742372964827502,"91":0.12054589409959661,"92":-0.11274623649408146,"93":0.020937684376565433,"94":0.12126764573762212,"95":0.07480550682217112,"96":0.021093277091438278,"97":-0.12057046861351439,"98":-0.16909614425500358,"99":-0.03441500881354083,"100":0.023988377373399088,"101":-0.004486554043741634,"102":0.028350255128977167,"103":-0.08363568239332732,"104":-0.1999988436290034,"105":-0.25345680858937303,"106":-0.15135842424332108,"107":-0.19638888098579746,"108":-0.31119038336227217,"109":-0.10254845673783118,"110":-0.1895030030643715,"111":0.020879254686492058,"112":-0.24726679137068283,"113":-0.28669200372557213,"114":-0.14938937956972098,"115":-0.05663758661773248,"116":-0.04969632226356998,"117":0.05811852007476311,"118":-0.040364113116529855,"119":-0.07302212044767031,"120":0.11627497047701205,"121":-0.21144504018626564,"122":-0.05240452009505901,"123":-0.08417123133006285,"124":0.22688247085109708,"125":-0.2045518505286203,"126":0.1245075179380116,"127":0.06446107807398808,"128":0.01203890310605294,"129":-0.20871013548633235,"130":-0.0005708545021028454,"131":-0.0968560670829024,"132":-0.1412264731672846,"133":-0.009179544935674192,"134":-0.050252148500985146,"135":-0.02224463056360822,"136":0.01882045506274495,"137":0.0632935536390011,"138":0.0409854807986225,"139":-0.05926888434913327,"140":-0.01837344844371882,"141":-0.03903958498648412,"142":-0.10319587952934924,"143":-0.15393233288190056,"144":-0.16214856891022686,"145":0.03904577212885754,"146":-0.26978163122676807,"147":-0.1350617545632402,"148":-0.017053724688191843,"149":-0.21027428796963096,"150":-0.09082802755044209,"151":-0.1258724637480879,"152":-0.07975409064823605,"153":0.038336040470950385,"154":0.00586580380781733,"155":-0.026044194786055217,"156":-0.28532784694828517,"157":-0.09602659258798486,"158":-0.21080268012981995,"159":-0.12144702039874372,"160":-0.16595153524435566,"161":0.0761250666083689,"162":0.02447130558989665,"163":-0.13951021330644686,"164":0.07399993054423906,"165":-0.12022370462666088,"166":-0.13808067252663314,"167":-0.04064340905169302,"168":0.09529651593554568,"169":0.1797602276682653,"170":0.07424067324336832,"171":0.012804075073542514,"172":-0.19007971539987892,"173":-0.026442310757355984,"174":0.050594500573515236,"175":-0.1560500510734301,"176":0.012885208801881435,"177":-0.10576825070682182,"178":-0.15982837951036827,"179":-0.2578778657756877,"180":-0.07906221313194277,"181":-0.007257405061945242,"182":-0.04640043569663935,"183":-0.06548196816895428,"184":-0.2591266145135589,"185":-0.012325882214803161,"186":0.043033690696546875,"187":-0.1632620601631288,"188":-0.28230871457515083,"189":-0.09990899021612418,"190":-0.20293438443468992,"191":-0.09418800596802655,"192":-0.28087710984281833,"193":-0.20190317015241907,"194":-0.23233768502012364,"195":-0.15179001478773196,"196":0.02395121588617755,"197":-0.018748340571595353,"198":-0.17811923212339328,"199":-0.01252905261688308,"200":0.13051472893944413,"201":-0.1718118497803397,"202":-0.25376959189727794,"203":0.03263863742492088,"204":0.169635755449608,"205":-0.06852118457975462,"206":0.12948095233664286,"207":0.056222724457068045,"208":-0.05012870460326502,"209":-0.08105942058098385,"210":-0.013489963900620966,"211":0.01747537756613211,"212":0.030580525657640238,"213":0.049619644066023476,"214":-0.05919873471662572,"215":-0.07595321629812879,"216":0.0037018480263870312,"217":-0.05849016090012766,"218":-0.07383934662793423,"219":-0.18930031266243935,"220":-0.05936264751169502,"221":-0.09490373092826287,"222":-0.12986517836385153,"223":-0.12225702790141196,"224":0.0015878542935047913,"225":-0.02200525634693523,"226":-0.2522027797009043,"227":-0.046363268955388434,"228":-0.10636093119628556,"229":0.06636517921181039,"230":-0.1307586094657735,"231":-0.14585735903649308,"232":-0.04072010015898933,"233":-0.009129884762092803,"234":-0.051927122762434344,"235":-0.028674741253788646,"236":-0.10385875867644391,"237":0.025822784356675222,"238":-0.23252451212989783,"239":-0.1760178657499551,"240":0.02419090277256291,"241":0.2003157061207266,"242":-0.03367190516503045,"243":-0.21158462072521242,"244":-0.03831380118910175,"245":-0.1261063777330831,"246":-0.044107017187887475,"247":-0.04925298239707204,"248":0.038609200683766456,"249":0.03739732218428914,"250":0.14550865339618108,"251":-0.006088086036116768,"252":-0.17952977274607262,"253":-0.008651162461826923,"254":-0.003287314472259694,"255":0.06020740563807759,"256":0.07096321725107033,"257":-0.17759954723309004,"258":0.06091797404634013,"259":-0.30128616663680474,"260":-0.0646973551528342,"261":-0.1918122321653594,"262":0.03958454679323799,"263":-0.08627796742952125,"264":0.1419281929614645,"265":-0.22684156823512552,"266":0.18554059683132806,"267":-0.0006789600563131951,"268":-0.21540868199898094,"269":-0.012748751246659099,"270":-0.3366102488724423,"271":-0.2295785444168,"272":-0.3539570844757607,"273":-0.180031652868357,"274":-0.16932026600027492,"275":-0.24004416729472364,"276":-0.0488895689907799,"277":-0.15112663736277665,"278":-0.22335294282681578,"279":-0.18070148304049666,"280":0.05106413985140841,"281":0.03427485518108958,"282":-0.34352324073557877,"283":0.23009736962238786,"284":0.312048396307813,"285":0.1663301856996288,"286":0.024033116347370025,"287":0.03912371180156424,"288":0.03637703289801665,"289":-0.17039140769133396,"290":0.003566987183560494,"291":-0.09520493594335369,"292":-0.050541952242293874,"293":0.13200129924207674,"294":-0.0286445649921689,"295":-0.0728610703434984,"296":0.06850587753218557,"297":-0.1949516214637147,"298":0.01839375768355296,"299":0.04389679334851278,"300":-0.0505817557683771,"301":-0.056438791903794853,"302":-0.20023032461021528,"303":-0.04539264441493842,"304":0.0015865583503805653,"305":-0.09139809756589587,"306":-0.180717710504397,"307":-0.07764951459598118,"308":-0.004066968389789916,"309":-0.02480094094905785,"310":-0.05507410096246082,"311":-0.14207290326151698,"312":0.017277539659391387,"313":-0.08695806824812806,"314":0.011305543349003116,"315":-0.04374835532643583,"316":-0.4220587839368972,"317":-0.011593527730602023,"318":-0.3279318179008561,"319":-0.07836399677558732,"320":0.16948944684307027,"321":0.10807651801322087,"322":0.059668193160702286,"323":-0.11666391694547631,"324":-0.0050246923983757255,"325":-0.15981194497542792,"326":-0.10023489258884304,"327":0.09534258557488325,"328":-0.04541574705949558,"329":0.17008856324571892,"330":-0.03595083670834304,"331":0.07663467976548206,"332":-0.09912475900763652,"333":0.15887055722678844,"334":0.0816111163219047,"335":-0.11280344252929292,"336":0.12039080090519955,"337":-0.23108319427666094,"338":0.09738176658501986,"339":-0.08536643814574216,"340":0.014176915168250778,"341":0.034414525530316306,"342":-0.02781370798543761,"343":-0.08721652091306634,"344":0.22535769668557917,"345":-0.08982064378460328,"346":0.20658609766066488,"347":0.09117761219869655,"348":0.08702777122638697,"349":-0.008880622322465934,"350":-0.022254880238655846,"351":-0.1434606405191157,"352":-0.15247727571193936,"353":-0.03756487957918048,"354":-0.03345685207201761,"355":-0.0428163441075974,"356":-0.10141320340410452,"357":0.04357710795983232,"358":-0.04748693463195283,"359":-0.2618869432856249,"360":-0.186264641621837,"361":0.1329638799894922,"362":0.21637778609338798,"363":0.19546800079796126,"364":0.21782172834783523,"365":0.19562251518629922,"366":0.023015574064667418,"367":-0.13953006837786508,"368":-0.051098622037073056,"369":-0.13449067818885194,"370":-0.048318802052113745,"371":0.11224304870826488,"372":0.05730771075050101,"373":-0.05127929147880634,"374":-0.21245455593547388,"375":-0.013141787595092484,"376":-0.23247224017492255,"377":-0.10341384265767058,"378":-0.2043635773127116,"379":-0.0457562978290111,"380":-0.009536226581423925,"381":-0.12893667795514002,"382":-0.12164432281495187,"383":-0.019673086877876476,"384":-0.080541264327871,"385":0.027073080567402322,"386":-0.2355134609023253,"387":0.08402840405689523,"388":-0.05570926479078003,"389":-0.06045036767159499,"390":-0.1274366326063111,"391":-0.01114903650064163,"392":0.04804325544296371,"393":0.020792915649229,"394":-0.07304086958375798,"395":0.1668806630950223,"396":-0.28919482899077825,"397":-0.004503934426585049,"398":-0.08304182289730837,"399":-0.047366205147472376}},{"sx":5,"sy":5,"depth":16,"w":{"0":-0.036766595882667584,"1":0.13851150605804477,"2":-0.24617510147718014,"3":0.03621202347827705,"4":0.021137646319153748,"5":0.07649275868298974,"6":-0.08854254348664986,"7":0.012815382175296899,"8":-0.038484899674357725,"9":0.0027156890360774243,"10":0.08314113553449498,"11":0.19391932180931234,"12":-0.22532353804921157,"13":0.10964092152928781,"14":0.03393792359192725,"15":0.02904115234348698,"16":-0.13977637449790425,"17":-0.12009456259941709,"18":-0.2621438948811521,"19":-0.007109284762046836,"20":-0.004721801675271676,"21":-0.14272659927733403,"22":-0.06103500041473845,"23":0.08340977510365741,"24":-0.40936501393725844,"25":-0.19738743320212385,"26":-0.4825014618374682,"27":0.004566542203714214,"28":-0.10721126276176908,"29":-0.09673782233258764,"30":-0.20777463653661365,"31":-0.054713820074389075,"32":-0.24145369459495059,"33":-0.14996244643728202,"34":-0.08979206977806459,"35":-0.03107727613987363,"36":0.0008025693089813759,"37":-0.10702393433625904,"38":-0.07017530349009234,"39":0.027800024690084833,"40":-0.45361847496998126,"41":-0.3482006566639204,"42":-0.31139515174268584,"43":-0.14451583140746047,"44":-0.20290040799152367,"45":0.2307057392832871,"46":-0.20784460326206222,"47":-0.08498770422435807,"48":-0.004372352949763133,"49":0.011805695232689274,"50":-0.015854965355068813,"51":-0.12738355606157853,"52":-0.03168812919093314,"53":-0.06608085033984573,"54":-0.016838755457163592,"55":-0.09304408636597526,"56":-0.13851698843447643,"57":-0.2671644321688946,"58":-0.32988499195301957,"59":0.09560314931659677,"60":-0.06467444037614249,"61":-0.09594500554586753,"62":-0.016969249788610592,"63":-0.0069905066573955135,"64":-0.03419530731194085,"65":-0.28643084506038907,"66":0.012013355210092171,"67":0.10444372441539136,"68":0.06415632161796538,"69":0.006696727929859099,"70":-0.2320571621118009,"71":-0.14117463862373072,"72":0.056806414806660536,"73":-0.301372786414185,"74":-0.15291256721822274,"75":-0.050693685869608665,"76":0.23737586584150247,"77":-0.08861444882350576,"78":0.2898198565589414,"79":0.0782172493166502,"80":-0.10577864107896903,"81":0.0537735397049636,"82":-0.2764055297302862,"83":-0.07166085197359655,"84":0.01130716251711563,"85":-0.2118777200289147,"86":-0.07452488726391154,"87":0.06081801662819822,"88":-0.2048502410948056,"89":-0.037711378256275505,"90":-0.02734272471510661,"91":0.07906584322550213,"92":-0.12851179977375027,"93":-0.01454419163695117,"94":-0.02037520399986374,"95":-0.0007875567328175589,"96":-0.15156033176126418,"97":-0.09700712493155565,"98":-0.2146436720659845,"99":0.045268981694023644,"100":0.09421459023541862,"101":-0.35173861547438484,"102":0.011758059346470921,"103":0.12450732600912286,"104":-0.3009296723852315,"105":-0.09177206904986808,"106":-0.20658636036357014,"107":0.12232167100574898,"108":-0.22428838626633196,"109":-0.004565372236467435,"110":-0.28288280292112084,"111":-0.0507620635098456,"112":-0.240085766171266,"113":-0.05785636583185196,"114":-0.13380457142633,"115":-0.08487402380177275,"116":-0.01666163717583077,"117":-0.1061920210699452,"118":-0.02472753078535353,"119":0.1347321327587782,"120":-0.2193801714423015,"121":-0.295705040074487,"122":-0.12909274193042247,"123":0.042337566484438954,"124":-0.1494615559163589,"125":0.04977748612347549,"126":-0.22700995617502231,"127":-0.10371972290823697,"128":-0.16278487626427662,"129":-0.10140557587761134,"130":0.03304531176802711,"131":0.030151419340019775,"132":-0.008457699461788547,"133":-0.290981008859492,"134":0.03549388287469855,"135":-0.05160756026647177,"136":-0.32760777031731747,"137":-0.03482694201699703,"138":-0.12873761401388445,"139":0.18274134222233082,"140":-0.017392404422090668,"141":0.009905499142342747,"142":-0.15711973903066276,"143":-0.04334429157275469,"144":-0.07016454948754336,"145":-0.25921366922607314,"146":0.04230164325465214,"147":0.02813771587597326,"148":-0.061684926994752365,"149":-0.15751093020033158,"150":-0.1925957441291979,"151":-0.16915455867048748,"152":-0.14911345309395774,"153":-0.13992107142505056,"154":0.0641492634546973,"155":0.0983117034202154,"156":0.1273076162102963,"157":-0.1206294673873975,"158":0.040064274474320635,"159":-0.11194276486565624,"160":-0.07146132264562267,"161":0.11226354799747727,"162":-0.09573386508772316,"163":0.12132335156400059,"164":0.032669415896197686,"165":-0.14075389878990946,"166":0.07934342340427837,"167":0.04619740442168442,"168":-0.04591557296869216,"169":0.24267577699848025,"170":-0.04916889401111811,"171":0.07912677372458449,"172":-0.01606948694654802,"173":-0.021577557413918445,"174":-0.16810616622026575,"175":-0.19054392541573906,"176":-0.280146129309486,"177":-0.10955068642362752,"178":-0.36643366236720687,"179":0.2598449899130011,"180":0.09609335978837054,"181":-0.23890148341005138,"182":0.022148407274228454,"183":0.11564457529745695,"184":-0.23880143057456057,"185":0.11711008205540484,"186":-0.45972459911197294,"187":-0.13886288707165953,"188":-0.14022332034302357,"189":-0.10490805273101,"190":-0.24711415678101395,"191":-0.18767106125103197,"192":-0.20277840310958642,"193":-0.24016462226907478,"194":-0.18551609553506712,"195":0.19843611067638106,"196":0.024908765459604222,"197":-0.3360348567315632,"198":-0.07425960144416577,"199":-0.02627699635386927,"200":-0.3244347861674076,"201":-0.012537359864930504,"202":-0.26305641915168165,"203":-0.035957536177373295,"204":-0.016990957954972092,"205":-0.15430169793713516,"206":-0.05423323117365151,"207":-0.12641786935500662,"208":-0.13881916993293383,"209":-0.23907524781285852,"210":-0.10951696055756276,"211":0.12470018122776955,"212":0.08527625180236814,"213":-0.24529300991349448,"214":0.20346234102425861,"215":-0.07252786285940029,"216":-0.2600423890278748,"217":0.2197332852670195,"218":0.08491536956617952,"219":-0.19961833546519184,"220":-0.04880470028400744,"221":0.02090519387191854,"222":-0.06917197966047632,"223":-0.3984760321259817,"224":0.06967295536299833,"225":-0.22168874955009907,"226":0.1302359486357013,"227":0.09661475206967936,"228":0.10595346101212193,"229":-0.23266559076514656,"230":0.07971705635723034,"231":-0.025825987133011864,"232":-0.402176762181916,"233":0.050946113450561326,"234":-0.04250096371727673,"235":-0.005758342183207104,"236":0.25690457068281736,"237":-0.20355782825694604,"238":0.06888506926905955,"239":-0.42439487777828605,"240":0.04719743415381068,"241":0.1860014919581111,"242":-0.11710863786335979,"243":0.032762415468877336,"244":0.09246646072734,"245":0.037527272914319745,"246":0.08626289536633691,"247":0.1000561466387894,"248":-0.01120182521162834,"249":0.3463793821014472,"250":-0.000340754613964218,"251":0.16581128019929273,"252":-0.12034783629665219,"253":0.07025500788529408,"254":-0.07399061161296464,"255":-0.050078736043405306,"256":-0.11010749123768887,"257":-0.15306668047116934,"258":-0.15076201733287536,"259":0.043270923748567364,"260":0.07271805710545075,"261":-0.08117358310575179,"262":0.019566388251906316,"263":0.1632833055752209,"264":-0.11519359423022486,"265":0.29618404808038673,"266":-0.17493004301073967,"267":-0.10002550646632626,"268":-0.1270161700127791,"269":0.07286239545878748,"270":-0.22851386886248934,"271":-0.03825422535894802,"272":0.050015812156327076,"273":-0.29518154274416836,"274":-0.16681807280236777,"275":0.06170489551186352,"276":-0.027912501049563512,"277":0.007269736871494646,"278":-0.04384896531463137,"279":0.0190805860370331,"280":0.0281342707029492,"281":0.12293558609394217,"282":0.018623549348920763,"283":0.04436928665833932,"284":-0.023397017074831748,"285":-0.00325588761069514,"286":-0.005201784841874716,"287":-0.01294343919304865,"288":0.015533430782174808,"289":-0.5148186192177446,"290":0.08702665342105115,"291":0.02831252726823453,"292":-0.06295116992630216,"293":-0.016674546541698053,"294":-0.0490979558795328,"295":-0.0794019099696006,"296":0.06669625425543144,"297":0.09509478640252839,"298":0.107766039121831,"299":0.08539510236407251,"300":0.2632562044949357,"301":-0.2593500204837041,"302":0.14071465479346448,"303":-0.07584721346576437,"304":0.12194447937761543,"305":-0.061162085265642645,"306":0.4411257195532479,"307":-0.11588163297526632,"308":-0.16260729944624364,"309":0.07285621055481485,"310":0.2537821411877756,"311":0.026155677969186497,"312":0.20652037554347577,"313":0.020335019534005537,"314":-0.1767993436783309,"315":-0.13772208749982007,"316":0.1987850592600591,"317":-0.19021082070938972,"318":0.20709504645430463,"319":0.08982015440113787,"320":0.3519748066716088,"321":0.1105535031175212,"322":0.023626102908031393,"323":0.04407319167546219,"324":0.12721349827558395,"325":0.24366316917988848,"326":0.055578075354282525,"327":0.0178584373667268,"328":0.23949649147017754,"329":0.24986091041139868,"330":0.15008284339934222,"331":0.3167551406617331,"332":-0.2732971779366415,"333":0.09637022702911091,"334":0.07608369656526896,"335":0.1691583508637624,"336":0.06934219543885758,"337":0.03101836897738692,"338":-0.09739829006181396,"339":-0.0823517255708352,"340":0.11509678497019528,"341":0.39283010812256275,"342":0.0024189710218853176,"343":-0.1526290431091752,"344":0.1567309614931242,"345":-0.015447546885076123,"346":-0.08878007667200731,"347":-0.18012782025378227,"348":-0.1934805389258968,"349":-0.10916016515382697,"350":0.016570116673313613,"351":0.1634962147398603,"352":0.19813530478860714,"353":-0.027452200431342867,"354":-0.07747440158520927,"355":-0.045982500626265056,"356":0.027314893726918168,"357":0.3098541086997835,"358":0.14339131054031187,"359":-0.15241915536773407,"360":0.2482658560463896,"361":-0.07965714409320637,"362":-0.020639874644367652,"363":-0.10409408148035793,"364":0.020426069413661943,"365":-0.02980720294767423,"366":0.04935132917421323,"367":0.12570309804727697,"368":0.004785828010166046,"369":0.06534651868401012,"370":0.30384887766572244,"371":-0.014091409253507119,"372":-0.032027254913344703,"373":0.20075130211606093,"374":0.2807268308276611,"375":-0.13668427213423553,"376":0.417372478101402,"377":-0.14577922946425834,"378":-0.1325421283880312,"379":-0.017359556832537773,"380":0.3418638678701392,"381":-0.2043628204971167,"382":0.11680421083503051,"383":0.19952633366786487,"384":0.1701293430436376,"385":0.1427047253624276,"386":0.0639902055072629,"387":0.030394804069971124,"388":-0.08049480975574734,"389":0.19849467825888925,"390":0.1603067809406831,"391":0.005331021067138919,"392":0.5451104855773371,"393":0.054159017525278005,"394":0.11810504412512215,"395":-0.021077903944627448,"396":-0.21433572406992443,"397":0.03610199630499805,"398":-0.038522092850861916,"399":0.2760527127367659}},{"sx":5,"sy":5,"depth":16,"w":{"0":-0.0253399918273105,"1":-0.307796174575361,"2":-0.07114554227557776,"3":0.03889355822703819,"4":0.010467589973103012,"5":0.07561677683398546,"6":0.05397722472142111,"7":-0.023045044175725674,"8":0.06740412242901944,"9":0.023729393370006287,"10":0.24901424896117771,"11":-0.02270388491563577,"12":0.24324140809954645,"13":-0.00982694490560488,"14":0.23818300689552713,"15":0.1065692952228688,"16":0.19247217933946423,"17":-0.0557325660503022,"18":0.12449408314149382,"19":-0.05616264869173626,"20":-0.038955298511875694,"21":-0.003224571141039386,"22":0.08510832916815604,"23":0.1416890903578645,"24":0.021488620897745656,"25":0.18984329740084913,"26":0.22269395770736872,"27":-0.0014115641045429521,"28":-0.003943134071445532,"29":-0.02234757225480903,"30":-0.05125822464932614,"31":-0.1831630026547093,"32":-0.012796697407070401,"33":0.07668132410850273,"34":-0.007422103441229477,"35":0.022779559421919948,"36":-0.005037567861806947,"37":-0.23067044296088568,"38":0.07490447440174013,"39":0.07373065348735064,"40":-0.019300418740894217,"41":0.18290874741618116,"42":0.05796325070995398,"43":-0.0014901966808313811,"44":-0.2850181068464116,"45":0.03517141891678864,"46":-0.09588915384376652,"47":-0.08858489206672138,"48":-0.10121771178564865,"49":-0.08251099390133206,"50":0.05003439029611426,"51":-0.16069701659530133,"52":-0.1429679819495626,"53":-0.16911468639045896,"54":0.07746688070576946,"55":-0.023596082497404962,"56":-0.11217836769377233,"57":-0.09643477447070875,"58":-0.13315006251333988,"59":-0.015177734587954753,"60":0.061210978077514924,"61":-0.06323009828654833,"62":0.06108061783806434,"63":-0.13945425349526283,"64":-0.020444118520817657,"65":0.06915415259108658,"66":0.04130033500224498,"67":0.026980735941105026,"68":-0.025839631738895488,"69":-0.12771606292746146,"70":-0.03848418521347679,"71":-0.03081000103533809,"72":-0.11094420752421112,"73":0.06356935709318526,"74":-0.09856853543378945,"75":0.022297194715311445,"76":0.17047840128338201,"77":-0.055119704695826964,"78":0.09140140409691076,"79":-0.05554522393457368,"80":-0.2182539191152538,"81":-0.24032317624379634,"82":-0.06673682606373828,"83":-0.2591686934075247,"84":-0.103348942003975,"85":0.21893067745595762,"86":0.05645084331822038,"87":-0.05410869164783702,"88":0.1372329955701425,"89":-0.2795275730014992,"90":-0.05922979910108973,"91":0.13687842209824744,"92":0.16525670938150697,"93":-0.07743069468045337,"94":0.12016463994023102,"95":0.3007447603689397,"96":0.07120597716583735,"97":-0.22763006048361684,"98":-0.03887335509477816,"99":-0.12018771813932717,"100":-0.15155109902127095,"101":0.16016730687635863,"102":-0.11734260074098586,"103":-0.05949510987860994,"104":0.06377288629085902,"105":-0.29742429115576585,"106":0.3203173718298307,"107":-0.016087911597119933,"108":0.01171396366068775,"109":0.004382270053803452,"110":0.1708889853601685,"111":0.21597517749707512,"112":0.01931668775617716,"113":-0.11329611991314165,"114":-0.09775447429128295,"115":0.1563550430929532,"116":-0.03298266184490451,"117":0.023630688849873197,"118":0.19457533900306456,"119":0.04359447233390715,"120":0.05590219354231492,"121":0.020063451664520397,"122":0.4167882887857688,"123":-0.042767312389582396,"124":-0.4030189496155752,"125":0.08278670273685039,"126":-0.1541210273113346,"127":0.059987378793485265,"128":-0.04660317265466885,"129":-0.185251545455175,"130":0.023581959281250918,"131":0.040891427625548774,"132":0.013421634158686963,"133":-0.21947964876688764,"134":0.17492012834282933,"135":-0.019586307425941855,"136":-0.05537878754298862,"137":0.10605070065597114,"138":0.10237365210508662,"139":0.09229673783600764,"140":0.045503377240021424,"141":0.17517302046870842,"142":0.1331168781483286,"143":-0.3124385270553599,"144":-0.040173231923749726,"145":0.017236720301556235,"146":0.07583743186014705,"147":-0.06845156082779402,"148":0.009331740272018822,"149":-0.14382937964003764,"150":0.06986848293732816,"151":-0.06549418621862321,"152":-0.23171549346246503,"153":0.17763758322675827,"154":0.07521411844535408,"155":-0.003224572894008088,"156":-0.0023637560533978324,"157":-0.029627550267249645,"158":0.01683051311633271,"159":-0.25907411263349844,"160":-0.21386502985157277,"161":-0.10232498160173882,"162":-0.18633128509949398,"163":-0.40362230355563106,"164":-0.04809058067995395,"165":-0.24921052506577837,"166":-0.23018006808966385,"167":-0.2493383055342035,"168":-0.21295043257738885,"169":-0.12287527936021411,"170":-0.20464439582710722,"171":-0.09501672510393426,"172":-0.006996567049868702,"173":-0.27842654313017245,"174":0.05135059030407065,"175":0.1955293901144063,"176":-0.3433190280866388,"177":-0.15066231300708316,"178":-0.14827620795856095,"179":-0.2865035039842504,"180":-0.040529336355255435,"181":-0.007383550948647334,"182":-0.08583050436090349,"183":-0.06676378222404843,"184":-0.05637848348801648,"185":-0.03605211201275866,"186":-0.04043889248520858,"187":-0.20848720799969947,"188":0.17278642922979226,"189":-0.2590276390846204,"190":-0.007729729210805596,"191":0.15586063702163186,"192":-0.004121980841690155,"193":-0.21657388293193133,"194":-0.14214040627997135,"195":0.012430540943836877,"196":-0.12591585383473883,"197":0.10879060044227847,"198":-0.04178445273006163,"199":-0.17896713815623105,"200":0.042373475644820545,"201":-0.15644474755506982,"202":0.34254983095056146,"203":0.04756607498611208,"204":-0.10413810461567491,"205":-0.099532403435466,"206":0.09857181972842595,"207":0.029104337834180906,"208":0.07025356928992302,"209":-0.19733137873556067,"210":0.10953663358829373,"211":-0.007282882375266274,"212":-0.03015897792892674,"213":0.014922496975786056,"214":-0.0013025758946310024,"215":-0.14916693501259043,"216":-0.17020296521314413,"217":0.06221367021402746,"218":0.16939502423811853,"219":0.12128652301884671,"220":-0.11025006742237818,"221":-0.011520420869871598,"222":0.11476318618208868,"223":-0.03241984163895329,"224":0.09859784267634276,"225":-0.007720903996556543,"226":0.07604041056160235,"227":-0.1332010653368126,"228":-0.07945548444964011,"229":0.022987460427573048,"230":0.09636737499492658,"231":-0.036207623595961455,"232":0.01828984741954396,"233":-0.0329414483115958,"234":0.08931585084985291,"235":0.15843000132862978,"236":-0.039123250807351836,"237":-0.06650265403786607,"238":0.14614392050549974,"239":-0.1573719770299307,"240":-0.12490224255650327,"241":-0.2724019063984404,"242":-0.20267552393346147,"243":0.02720379388017493,"244":0.0036808270385793257,"245":-0.178278410415689,"246":-0.002602668561442088,"247":-0.057912352032721465,"248":0.0730613492151271,"249":-0.03995396625875345,"250":-0.21408736621652574,"251":-0.07551962188426949,"252":-0.021012519010401878,"253":-0.09171643519740959,"254":-0.12092372361358847,"255":-0.2957991051810924,"256":-0.24658907685278972,"257":-0.31239965886423193,"258":-0.16243842458657304,"259":-0.03330175507377774,"260":0.014022932852166633,"261":-0.16988964254118277,"262":-0.11946531173178011,"263":-0.04967143266841683,"264":0.047213612200121734,"265":-0.17078115317325002,"266":-0.24007585992426836,"267":-0.14200980026738513,"268":0.013618660488242125,"269":-0.053863356922374254,"270":0.047981925346063554,"271":-0.010195925300678718,"272":-0.020455079790339364,"273":-0.2961493403510804,"274":-0.08305499095023057,"275":0.0610066607828398,"276":-0.0742172012268812,"277":-0.06426265199086706,"278":0.04568147633797022,"279":-0.11156286392016646,"280":0.14553453025946292,"281":-0.1784147408423135,"282":-0.1921920475592294,"283":0.1042298119813174,"284":0.05375421809496433,"285":-0.13168473329792452,"286":0.038107803774745694,"287":0.13772234143449005,"288":0.04392749190406374,"289":-0.017421973814157943,"290":0.1250163994027425,"291":-0.16949426612220023,"292":0.03200304705317558,"293":0.011556330654288243,"294":0.16019060445439742,"295":0.034518379566074044,"296":0.03841168911690284,"297":-0.010233112597174162,"298":0.10823862728193194,"299":-0.08033862311382217,"300":-0.04001092782535548,"301":0.1611972450187512,"302":-0.012688521624558524,"303":0.023879019450894188,"304":0.08518594955652102,"305":0.185186279449455,"306":-0.029549478016380776,"307":-0.1742131153393229,"308":0.07118495501528682,"309":0.004377356696929618,"310":0.08001526684443744,"311":0.04961615393232483,"312":0.18117146036657467,"313":0.11623069141183882,"314":0.11388977700912335,"315":0.05327466590552953,"316":0.0036016011124293396,"317":-0.047790048354700986,"318":-0.15676598963608826,"319":0.0942987871895395,"320":-0.1290796951350173,"321":0.05160099658344298,"322":-0.022816492423968673,"323":0.06229950674949713,"324":-0.014880190958911112,"325":0.11249726169770033,"326":0.018219763935599598,"327":0.05547469188216563,"328":0.12638776725002263,"329":-0.019549834747174394,"330":-0.06793784151934358,"331":-0.05525904738183095,"332":-0.15030018340897655,"333":0.0969925402011266,"334":-0.26675435335531283,"335":-0.060618073164580503,"336":-0.14943721092850165,"337":-0.18627027967272541,"338":-0.09331120377512017,"339":0.05031374317372505,"340":-0.013243137267427603,"341":-0.023119195510315747,"342":-0.15679434506178688,"343":-0.02596813529155398,"344":-0.023818577039001917,"345":-0.2498929024464961,"346":-0.31634375344784454,"347":-0.05121829590210702,"348":-0.031127885503799888,"349":-0.20628412481361927,"350":-0.012743676201366079,"351":-0.12400027901689847,"352":-0.09399352028402323,"353":-0.04112006331751299,"354":-0.12434589395120169,"355":0.032688205358207,"356":0.04000648327376877,"357":0.10865472438680107,"358":-0.12188676042737437,"359":-0.05322558674472757,"360":-0.04895606785673162,"361":-0.24979311653195185,"362":-0.18162440493968718,"363":0.06554109310318086,"364":-0.08846285232436571,"365":-0.10971640617077516,"366":0.050502071847222114,"367":0.03581573743720994,"368":0.07317814996410868,"369":-0.13632056492336192,"370":0.12890317916797844,"371":-0.03627329452278231,"372":-0.03868198302674164,"373":0.058221610593144464,"374":-0.04953993263428704,"375":-0.22496486118834005,"376":-0.06972155065279907,"377":-0.2362305466216677,"378":-0.13860889744572244,"379":-0.07909169414047221,"380":-0.025360801317333793,"381":0.04296136876351224,"382":-0.09824567468046147,"383":0.11038380232456066,"384":-0.023089821999324304,"385":0.06408157416280294,"386":-0.0367088850111541,"387":-0.10185671102473558,"388":0.0017519885128036879,"389":0.24340125257556025,"390":-0.015035691747775588,"391":-0.12431672270186435,"392":0.11559111399834612,"393":-0.01499612183969715,"394":0.13333311752127786,"395":0.04007036276864418,"396":-0.06497085687728307,"397":-0.10669150952091432,"398":0.0938819032866166,"399":0.08614134120570563}},{"sx":5,"sy":5,"depth":16,"w":{"0":-0.005053819896176973,"1":-0.14045907810390154,"2":0.00750449579752197,"3":-0.12107842813523213,"4":0.1344910618351374,"5":-0.26390034124654294,"6":-0.1550379127159435,"7":-0.084233757876683,"8":-0.20898749165515698,"9":0.11727137874475037,"10":-0.14734779963417702,"11":0.07582646344916498,"12":0.1772475975864176,"13":0.04380039067785755,"14":0.0801153680155321,"15":-0.39128429806162784,"16":-0.23330358204484128,"17":-0.19700563609571684,"18":-0.15839347610518845,"19":-0.11446930043452878,"20":-0.03603672233481824,"21":-0.10927722930673052,"22":0.1273186547913929,"23":-0.00037060953352514945,"24":-0.0028113727741094986,"25":0.08510071003350027,"26":-0.10885496551305619,"27":0.06068103460521895,"28":-0.09196376002510186,"29":0.01563159053218081,"30":-0.25903572872918873,"31":-0.284949671874851,"32":0.19785046035795306,"33":-0.32188866848915315,"34":-0.09372350426095297,"35":-0.13803618101824938,"36":-0.04274100863879254,"37":-0.09765619953935367,"38":0.1328283850839651,"39":-0.0028312991601718443,"40":-0.14974416200736113,"41":0.013911475508578904,"42":-0.07519541652245937,"43":0.15847679718314558,"44":0.1523147440918042,"45":-0.13729890004191928,"46":0.08100297539900847,"47":-0.2862226740024395,"48":-0.15745975157661213,"49":-0.14190353855715063,"50":-0.0034981626171259896,"51":-0.19921680000293687,"52":0.008915264595266727,"53":-0.2036988799112657,"54":0.11487684671764428,"55":-0.12754295140155514,"56":0.1617728453734262,"57":0.03349241702011769,"58":0.08286701109744632,"59":-0.15698860851139437,"60":0.04161285125584599,"61":0.006532476637835406,"62":-0.09879820822496642,"63":-0.19021977768574305,"64":0.06987517119384752,"65":0.10307262532490458,"66":-0.10123920432757992,"67":-0.042627839987842364,"68":-0.05538879948253431,"69":-0.11906432466383189,"70":0.08699136278554943,"71":0.0017097030355834866,"72":-0.08050807301708839,"73":0.2471003056481133,"74":0.1702338937627454,"75":0.07364918495660482,"76":0.22075182765469073,"77":0.14838022882398455,"78":0.03277377886155793,"79":-0.20028360827088934,"80":0.14486171690809407,"81":-0.09259687604863753,"82":0.001724107174225327,"83":-0.004375913920972127,"84":0.01515067105219175,"85":0.16823571509412394,"86":0.12439845599981238,"87":-0.09566534120895745,"88":-0.07753029604002971,"89":-0.060806841007723635,"90":-0.0926575385324776,"91":0.128872249356655,"92":0.10312523115718727,"93":-0.05748100468265664,"94":-0.06304687572039024,"95":0.02027515736725342,"96":-0.005214465931098154,"97":-0.012301892682667459,"98":-0.24290227758358768,"99":0.10939218461583118,"100":-0.09318640692837746,"101":0.14617263449480425,"102":0.012063523041241439,"103":-0.050456186391612555,"104":0.13708556122233848,"105":-0.0418104375235423,"106":-0.07535286322231584,"107":0.1759960545863285,"108":-0.21093765275253634,"109":-0.05471353139285385,"110":-0.16313175019804632,"111":-0.03338868427877216,"112":0.0850413717506429,"113":-0.017589617125357965,"114":0.1905474146142521,"115":-0.014636217814492867,"116":-0.05689224077417874,"117":0.14757649477657736,"118":0.09445934310232539,"119":-0.17063804411818762,"120":-0.18240054598495287,"121":-0.06313741300766963,"122":-0.1365502900663017,"123":-0.20604997403981795,"124":0.09718848011765938,"125":0.12605449449086958,"126":-0.026524728148168933,"127":0.019110876294489675,"128":0.034172320483284335,"129":0.04209819618585078,"130":-0.16066848837154818,"131":-0.04420945394974779,"132":-0.07887205115818463,"133":0.22831630550682674,"134":0.02571303463316776,"135":-0.12413558578467565,"136":0.1126742867961583,"137":-0.11766575754863293,"138":0.2073417544386426,"139":0.16427079942945808,"140":-0.10954755342823622,"141":-0.009557782494665346,"142":-0.02464778653491357,"143":0.028843337678223644,"144":-0.018083425712466194,"145":0.11588921225786775,"146":-0.011579239431415835,"147":-0.1123414985729708,"148":0.07121685164359198,"149":0.1013709803051787,"150":-0.026013568383490088,"151":0.03657110630471634,"152":-0.24389183071736428,"153":0.0214828285229994,"154":0.16242451399983443,"155":-0.10278677901185876,"156":0.047892815933133964,"157":-0.077995902373528,"158":-0.02151596253712655,"159":-0.09370902975477895,"160":-0.0012057107612863812,"161":-0.16273407410858648,"162":-0.01984370532510712,"163":-0.04874034301045002,"164":0.023971846118972937,"165":0.11174719313641177,"166":-0.15374866834162634,"167":-0.02912289012951324,"168":-0.13338642229211442,"169":-0.09307936996976438,"170":0.09318875489535629,