{"layers":[{"out_depth":3,"out_sx":32,"out_sy":32,"layer_type":"input"},{"sx":5,"sy":5,"stride":1,"in_depth":3,"out_depth":16,"out_sx":32,"out_sy":32,"layer_type":"conv","l1_decay_mul":0,"l2_decay_mul":1,"pad":2,"filters":[{"sx":5,"sy":5,"depth":3,"w":{"0":0.19826349604292867,"1":0.06270527350216652,"2":-0.07148043505229845,"3":0.0047202566529887776,"4":0.2030588671822421,"5":-0.04169792244446802,"6":-0.015635168931599625,"7":0.040583122979326244,"8":-0.06477271497758769,"9":0.3608307615718417,"10":0.09291361059562318,"11":0.2177558763279477,"12":-0.038657713521030805,"13":0.09459200351274755,"14":0.10581800754387867,"15":0.09505186816971196,"16":0.061040192601057995,"17":-0.04812326985965717,"18":-0.01644343108133892,"19":-0.09563554934495651,"20":-0.04350876743350933,"21":0.28814899169447344,"22":-0.08076544484369061,"23":-0.20369137707819937,"24":-0.02771305220694121,"25":0.13504979819854815,"26":0.14702827555227177,"27":0.22723977709605403,"28":-0.07638533224363803,"29":0.022282310612775573,"30":0.10387348736993812,"31":-0.022811086137749,"32":0.09219553418011274,"33":0.17098484389442942,"34":0.06881508724192843,"35":0.22012642634122345,"36":0.02091009409723516,"37":-0.23658502025041703,"38":0.07511376058666705,"39":0.04743139311808307,"40":-0.011720095174162993,"41":-0.23770188014216864,"42":-0.11385920010498694,"43":-0.03058523316293539,"44":0.2645822604548441,"45":-0.05823309354141353,"46":-0.0021668568584302626,"47":0.03965015760965828,"48":0.20760406570229356,"49":0.10015014319451669,"50":0.0626892302788331,"51":0.16725491851246332,"52":0.12784002452581605,"53":-0.183590559124682,"54":-0.05060903046503076,"55":0.011373641933451953,"56":-0.0299924044727269,"57":0.19034373044765596,"58":0.07104449252706974,"59":0.0024641508454968375,"60":-0.043184188474828716,"61":-0.11863433438462236,"62":-0.0820470778518001,"63":-0.2407931725388859,"64":-0.1914208231332863,"65":-0.4089605866645124,"66":-0.1047540306895129,"67":-0.07326753916323844,"68":0.139139584535524,"69":-0.4370444778722502,"70":-0.06208882219205446,"71":-0.18542246616603736,"72":-0.2554056264116885,"73":0.19426283714766046,"74":-0.021092860080296476}},{"sx":5,"sy":5,"depth":3,"w":{"0":0.2176102180796422,"1":0.1280036160221597,"2":0.2569606279411221,"3":-0.15083078177319675,"4":0.06080284521313093,"5":0.11030481055653181,"6":0.02198635385775783,"7":-0.20286634275592655,"8":-0.15292189742845427,"9":-0.26027249532726354,"10":-0.1793416787961439,"11":-0.24340840624947022,"12":-0.21110308816737122,"13":-0.2774309933681749,"14":0.018062075279613732,"15":0.024965917979100173,"16":-0.059241479330046046,"17":0.04995594048765373,"18":0.028000261708416522,"19":0.0780819739439779,"20":-0.11515509465827369,"21":0.056807395275171084,"22":-0.10345389611855858,"23":0.23562988528340775,"24":-0.06988706375340549,"25":0.014871824063232194,"26":0.08604569793683413,"27":0.08474410068272066,"28":-0.13999493203387867,"29":-0.1525308059711721,"30":-0.019190423768254077,"31":-0.18300848358273406,"32":-0.2324011783670501,"33":-0.16036928521187652,"34":-0.012288032744041246,"35":-0.040536805218384375,"36":-0.07703841334299234,"37":0.051667332607888306,"38":-0.0679447913959045,"39":0.053393343539573986,"40":-0.037745975432467826,"41":-0.03798532843320075,"42":-0.22624699932425602,"43":-0.21502779821657478,"44":-0.13548835715192697,"45":-0.17739792495232273,"46":-0.20054344371924768,"47":-0.21783122408068803,"48":-0.06294722206198379,"49":0.07186942450945981,"50":0.15427942956027332,"51":-0.1480616034440157,"52":-0.0118820348445442,"53":0.12838073733835703,"54":-0.11252808986704747,"55":-0.12534098890946702,"56":-0.018649603710542098,"57":-0.02716641427763524,"58":-0.0858458380455357,"59":0.0816860771980858,"60":-0.08806368215749825,"61":-0.06125623207350164,"62":-0.27534149621442094,"63":-0.010175569693978363,"64":-0.40584364404003415,"65":-0.21276884852217917,"66":0.034699874797428545,"67":-0.12313864992759739,"68":0.11003054110475956,"69":0.04312150314849321,"70":-0.08808500286382744,"71":0.1473780273793398,"72":0.02678485083790255,"73":-0.25708720357773573,"74":-0.1165315834462251}},{"sx":5,"sy":5,"depth":3,"w":{"0":-0.1006166006321455,"1":-0.17749586104029952,"2":-0.37392333271116207,"3":-0.11268041610722325,"4":-0.26448324692832453,"5":-0.32476733958731796,"6":-0.22949685384277388,"7":-0.06202428405842407,"8":-0.11964571685011655,"9":0.10782713845726472,"10":0.1575603243949012,"11":-0.07854888175512591,"12":0.0025721356113506386,"13":0.07787123196532171,"14":0.2685986259623867,"15":0.01854668801889003,"16":0.09662235658717065,"17":-0.07625501872636409,"18":-0.1111160885438144,"19":-0.11792169350407092,"20":-0.03256150741922357,"21":-0.09954680239316857,"22":-0.2685615722547632,"23":-0.20346268058153702,"24":0.0451793921042551,"25":-0.13391698782389633,"26":-0.015334332127573617,"27":-0.2031248782180945,"28":0.07293750765826837,"29":0.07124770662308577,"30":0.17267665011450176,"31":-0.21727428862189188,"32":-0.05174470648861507,"33":0.059772585319017225,"34":-0.07364710915654024,"35":-0.03869276341256908,"36":-0.1536271238327047,"37":-0.2296265628251711,"38":-0.32585012350893594,"39":-0.30978286881100814,"40":-0.14095003840002246,"41":-0.17995722694495528,"42":-0.06403638162285849,"43":0.016911552557598727,"44":-0.10812922803839184,"45":-0.127643151400483,"46":0.2011242789742625,"47":0.12033780868994477,"48":-0.15621982417125768,"49":0.18121270449399546,"50":0.18343404545857034,"51":0.13259448448397362,"52":-0.011511727858628217,"53":0.21390457805146987,"54":-0.20027145053161746,"55":-0.12447012667579538,"56":-0.03818873808919701,"57":-0.14837583197685036,"58":-0.17524729589886331,"59":-0.17722825294470657,"60":0.47159398923228435,"61":-0.02717688339743579,"62":0.19127881361125948,"63":0.0913639961603363,"64":0.2505514704141143,"65":0.33651439739559047,"66":0.29037723315258596,"67":0.06471624407431484,"68":-0.10184925742861918,"69":0.02914074180536983,"70":-0.24742192595931492,"71":0.014396070511593704,"72":-0.23728868571778683,"73":-0.4421451990162139,"74":-0.21231286841917799}},{"sx":5,"sy":5,"depth":3,"w":{"0":-0.08721491533150147,"1":-0.0944844026453319,"2":-0.09177312691590876,"3":-0.2976184854549194,"4":-0.1267637434211822,"5":-0.14412769640845374,"6":0.017176110072437332,"7":0.33827460198393045,"8":0.0482593883663933,"9":-0.2228110118442166,"10":0.08361172531820371,"11":0.2716107418687639,"12":0.034815846576500845,"13":-0.09861488413508065,"14":0.25136350790635326,"15":-0.09051040821442329,"16":0.0430945634643827,"17":-0.14398064598063823,"18":-0.17328212845976823,"19":-0.0068016843173265866,"20":-0.2190041283034345,"21":-0.2055431523479506,"22":-0.4977469513343998,"23":-0.22509808125279743,"24":0.06530208437908219,"25":0.10899968824855895,"26":0.10618771339223443,"27":0.07116170922601149,"28":0.01844532185794313,"29":0.1812691864471115,"30":0.16881562849230014,"31":0.17817962286501673,"32":0.09288271238384989,"33":0.13911309609744482,"34":0.10011102213970295,"35":-0.040760894588425335,"36":-0.3387604181348332,"37":-0.2575278521559973,"38":-0.36820045546962743,"39":-0.03295047898359228,"40":-0.30523898156117835,"41":-0.25071286375461166,"42":0.006937828898043749,"43":0.08242438125078777,"44":-0.060366179091551175,"45":-0.016566852589049993,"46":-0.04853526990629276,"47":-0.028496147873970902,"48":0.12063890489218203,"49":0.2537125009001638,"50":0.249792521908822,"51":0.01363088428203927,"52":0.1525212728344657,"53":0.12485114310714393,"54":-0.1837868964002322,"55":-0.23110034607356986,"56":-0.11254148187346567,"57":-0.13010799679459095,"58":-0.15692483555341488,"59":-0.11466865112820615,"60":-0.22660703938410443,"61":0.006231785870248821,"62":0.001207638786026981,"63":-0.08711191734927362,"64":-0.014822781762229034,"65":-0.06548531100300482,"66":0.2620022968295158,"67":0.2661560059960632,"68":0.06427188686422566,"69":0.21119253752729567,"70":-0.031646881512305554,"71":0.01926232183383903,"72":-0.15579926582289763,"73":-0.23444493290836196,"74":-0.11808069443705899}},{"sx":5,"sy":5,"depth":3,"w":{"0":0.11193999920308076,"1":-0.059901396476154646,"2":0.2021900495557028,"3":-0.022731742395345644,"4":-0.1372278337686811,"5":-0.20196759913256743,"6":-0.022447340349774976,"7":0.07838511697961871,"8":-0.08471885279390802,"9":-0.012658987871993982,"10":-0.06715767586846647,"11":0.1899422244585638,"12":-0.31656849943923837,"13":-0.04419463255667935,"14":-0.25363266608842366,"15":0.30568302637985795,"16":0.20314975985429334,"17":0.06532982166598451,"18":-0.11516209215547482,"19":-0.13204493646403634,"20":-0.2265979055686781,"21":0.003933491845211741,"22":-0.05862728313114641,"23":0.18743821520094237,"24":-0.11315136749275001,"25":-0.08054800932470114,"26":-0.22008969766739708,"27":0.18409087789331388,"28":-0.28782229316809427,"29":0.08039215090751373,"30":-0.1498146976066835,"31":-0.24585492764182906,"32":-0.05684197336789237,"33":-0.04515036497205891,"34":-0.1190545250584824,"35":0.07263506566200852,"36":-0.1273261086974651,"37":-0.07456128409506185,"38":0.11607288686677604,"39":-0.34953105698694775,"40":-0.0014656347796767701,"41":-0.19917401297130566,"42":0.09668447251445134,"43":-0.06764970172494733,"44":0.04632080483734218,"45":-0.03142045216101023,"46":-0.02211980407009457,"47":0.0706360580776369,"48":-0.06529867915844395,"49":-0.005578787348027553,"50":0.16755063139505927,"51":-0.32173860609848937,"52":-0.1447555222882352,"53":-0.1617751354468969,"54":0.18586624315684536,"55":-0.060945790538707564,"56":-0.056663229764630466,"57":0.2991646054286842,"58":0.19249415045657584,"59":0.2007924049028912,"60":-0.0909342769450428,"61":0.1760060838215616,"62":0.2629638540652091,"63":-0.1747600496386929,"64":-0.0067578604227877615,"65":0.03074991332847169,"66":0.093375377621741,"67":-0.0631060449374816,"68":0.11348703356707984,"69":0.18157161730657703,"70":0.24145819295004373,"71":-0.1848286427632782,"72":0.09314992734177141,"73":0.24224754212071403,"74":0.11312880890612124}},{"sx":5,"sy":5,"depth":3,"w":{"0":0.08203567103016356,"1":-0.06453863769549027,"2":-0.10655660803149176,"3":-0.07625902681146068,"4":0.07356800248089997,"5":-0.04122988077562263,"6":0.08117322277027059,"7":-0.08929944367621113,"8":-0.029691840053856406,"9":0.1435901333509773,"10":0.13230856766183033,"11":-0.06277477038023137,"12":-0.1548702336311456,"13":-0.1284642041235359,"14":-0.06273172511655109,"15":0.1872607803271844,"16":0.20043923332234082,"17":0.05254332014308595,"18":0.009420348965371755,"19":0.16315889493311037,"20":-0.12215295696495436,"21":0.022484636267830378,"22":-0.14867410403594342,"23":-0.14260957878695035,"24":-0.2145706739040564,"25":0.11555147933813877,"26":0.0574676727307553,"27":-0.19702611586228957,"28":-0.2072711309932564,"29":-0.005316203510418664,"30":-0.09984727061099807,"31":0.21567087119313869,"32":0.1454195817910843,"33":0.08289336885588504,"34":0.20803956399762613,"35":-0.008000770590197017,"36":-0.0957134797143203,"37":-0.07512559568142908,"38":-0.28716142207213663,"39":-0.04883200760783675,"40":-0.2024200467796193,"41":-0.0018460751883372984,"42":0.024123009523846006,"43":0.017738361135415655,"44":-0.039770322216915795,"45":0.41562076826460864,"46":0.10700445410361864,"47":-0.11561427561710423,"48":-0.09300640352438291,"49":0.1203537513451467,"50":-0.09577333504573533,"51":-0.2601606989119912,"52":-0.4169973098557056,"53":-0.3691296794046257,"54":-0.16502334725127946,"55":0.10372575951141624,"56":0.07269058214250719,"57":0.18370052094677947,"58":0.1576336293018801,"59":0.18155457461720026,"60":0.07541684332080988,"61":0.10214238843112641,"62":0.38408430834264295,"63":-0.30389913698827076,"64":-0.2506220455932971,"65":-0.36431132346236184,"66":-0.015000403138973889,"67":-0.14235768787227837,"68":-0.24461598864509337,"69":0.06224496785844964,"70":0.12588198868008701,"71":0.21493108091459967,"72":0.17635220975632115,"73":0.019936921073841846,"74":0.3019615366787029}},{"sx":5,"sy":5,"depth":3,"w":{"0":0.10427641948054762,"1":-0.0024790898120208788,"2":-0.08163439632745402,"3":0.010047578219272445,"4":0.006375057893123795,"5":0.1889389463119487,"6":-0.19663322657081642,"7":-0.0037835849370774586,"8":-0.1141161526321913,"9":0.017935666847724033,"10":0.1367224501095442,"11":-0.07339937732103502,"12":-0.12397265163662151,"13":-0.3178482423101812,"14":-0.18750950143716025,"15":-0.02727263632324815,"16":0.026516059296413617,"17":-0.004557476605514468,"18":0.061279423088159146,"19":-0.12236469624123737,"20":-0.12751973544666173,"21":-0.07876071889387586,"22":-0.034481711170193184,"23":0.018628448968556678,"24":-0.17058023188204177,"25":0.019287132056447005,"26":0.03050995163213051,"27":0.11312338040084294,"28":-0.1470754779084048,"29":0.1033137606752328,"30":-0.00638544116287787,"31":-0.13134203984966364,"32":-0.1601471021114532,"33":-0.029943543246972678,"34":-0.23657596616191662,"35":-0.08583199941514187,"36":-0.07487412699832122,"37":-0.2876800502911006,"38":-0.10433859647467178,"39":-0.1978196863566787,"40":0.12230698913865372,"41":-0.01874223894235984,"42":-0.08518120774795823,"43":-0.1269838554482438,"44":-0.13518577075631666,"45":-0.20900949855908837,"46":-0.14518787450944048,"47":-0.30656624535237575,"48":-0.10893691950291641,"49":-0.22515076910184367,"50":-0.10779013790745934,"51":-0.21554877172582196,"52":0.15145948346703222,"53":-0.09130401400500236,"54":-0.17415139243555314,"55":-0.028027440289719104,"56":-0.1217668599638037,"57":-0.21507879338267272,"58":0.13025886555698452,"59":-0.30242873094344236,"60":0.030442543282142645,"61":-0.2929310742038593,"62":-0.0851649115127786,"63":-0.3795658928339547,"64":-0.4113920176955654,"65":-0.29982439209346556,"66":-0.0028936511205416306,"67":-0.057685757659284034,"68":-0.12625149179381434,"69":-0.04657316616794703,"70":-0.08221016556997102,"71":-0.1928507106047986,"72":0.06734295448974192,"73":-0.11761179213704932,"74":-0.29295397511200805}},{"sx":5,"sy":5,"depth":3,"w":{"0":0.06984141455153701,"1":0.08190792439469959,"2":-0.1281277088598284,"3":-0.09351991505622108,"4":0.10147721730589408,"5":0.13566998237832217,"6":-0.29362634529766374,"7":-0.22326975369952715,"8":-0.23230267039103428,"9":-0.11654438181644294,"10":0.01727268492654533,"11":0.07575852105641359,"12":0.21073993214364467,"13":0.1945282256173859,"14":0.16698305906429464,"15":-0.26007570596181734,"16":-0.13756942200697975,"17":0.09764505615532489,"18":-0.14601124626638134,"19":-0.23007925950791627,"20":-0.20560874704543286,"21":-0.18989930795155371,"22":-0.20060946173704733,"23":-0.01871833142040525,"24":0.2626164848485051,"25":0.2392854540867192,"26":0.22921865721916432,"27":0.1257729966037314,"28":0.16567030468856933,"29":0.10812803678137599,"30":0.020861709269669987,"31":-0.15934736585451995,"32":-0.02842683454124272,"33":0.10243165308672615,"34":-0.05329780625341069,"35":0.08030420072113754,"36":-0.2569433695897133,"37":-0.1268903600753948,"38":-0.06257643838994355,"39":-0.16718075952390107,"40":0.12353823063497038,"41":-0.07134410350122408,"42":-0.09239861609307336,"43":0.13206817356576875,"44":0.08255334413108495,"45":0.07472483434378682,"46":0.23886217249782896,"47":0.054174136460201826,"48":-0.2667527162681189,"49":0.06130425119025549,"50":-0.22390646525350608,"51":-0.3074143768518932,"52":-0.4119110361980662,"53":-0.20197436849694442,"54":0.003638434048822882,"55":0.4213958213892442,"56":0.015870118425701192,"57":0.2990388722576731,"58":0.15296993847845852,"59":0.254676086362993,"60":-0.09469902280204764,"61":-0.16392219625620175,"62":-0.12602046181308726,"63":-0.15082498762521562,"64":-0.2024752461561097,"65":-0.08310199219496409,"66":-0.1083166305575659,"67":0.03829199068158502,"68":-0.01219999317071914,"69":0.17754627467215506,"70":0.04641961542839003,"71":0.370115821691287,"72":0.0032610635552579523,"73":0.1493697606540582,"74":0.052524943718054926}},{"sx":5,"sy":5,"depth":3,"w":{"0":0.34494175680656813,"1":0.21397227653722584,"2":-0.20742080251467124,"3":-0.3038229998963856,"4":-0.02038677534176152,"5":-0.06549085622366428,"6":-0.03435979521710974,"7":-0.18996137768858917,"8":-0.2556286031959391,"9":-0.0738926981677781,"10":0.170663038110507,"11":-0.06907208675876456,"12":0.09688521399208554,"13":0.31909275996844216,"14":0.22791992407326914,"15":0.0632634445601987,"16":0.07365003940546565,"17":0.2605344056030972,"18":0.14234649993020307,"19":-0.2536635346956461,"20":0.1203319392002238,"21":0.1335999258968457,"22":0.12280698918075011,"23":-0.027555609656387745,"24":0.07845130386079728,"25":0.08510014294745497,"26":0.11426108040920857,"27":-0.19372833943659737,"28":-0.10174350140588447,"29":-0.17010321082593738,"30":-0.2680621767322252,"31":-0.14648484964975905,"32":-0.2579643650539161,"33":-0.28842980508739274,"34":-0.28196546682950374,"35":-0.16667287713883028,"36":-0.12904146872952285,"37":-0.11854585485419929,"38":-0.17659441636240433,"39":-0.06646558915714904,"40":-0.09247232864084316,"41":-0.21753871197726685,"42":0.019463143283279354,"43":-0.1733796006327892,"44":-0.2912031279265451,"45":-0.12400592091910075,"46":-0.2686149586389811,"47":-0.3931500002700394,"48":-0.028150132832405427,"49":0.1120900816376473,"50":0.08167121887485324,"51":-0.11992194920347862,"52":0.10657843677351153,"53":0.23083201710482384,"54":-0.021447778195932996,"55":0.03970457619765735,"56":0.0895160682485519,"57":-0.027572958825368983,"58":-0.07325418868212709,"59":-0.06938557166505262,"60":0.025325294778909983,"61":-0.10186099846782837,"62":0.14907954475020244,"63":0.3514704900610111,"64":0.32767201723185985,"65":0.34985546258685585,"66":0.12080747002106813,"67":0.11149605299657653,"68":0.2827085407196173,"69":0.23373698736257584,"70":-0.13591466304959626,"71":-0.1542465946034464,"72":0.20361573383267198,"73":0.29192546775843364,"74":0.1980288249775241}},{"sx":5,"sy":5,"depth":3,"w":{"0":-0.060973388256946814,"1":-0.016537541331066184,"2":0.1981189533955026,"3":0.031065767185797996,"4":0.017620414235042126,"5":0.20346064143526774,"6":-0.27136951013692445,"7":-0.14848809471904478,"8":-0.027532335524746453,"9":0.08477076103055639,"10":0.057674781626992376,"11":0.06858456756767493,"12":-0.09255364186684675,"13":0.08331966801397446,"14":-0.07218612981116647,"15":0.005665929741580693,"16":0.09115114444125647,"17":0.18510229620710225,"18":-0.0668091826559662,"19":-0.042465756299203024,"20":0.06320780233872823,"21":0.040524279460182944,"22":0.10905183821409088,"23":-0.009898701597345164,"24":-0.14516361222465454,"25":-0.15011318956144787,"26":-0.11536465827564799,"27":0.06662167211519437,"28":-0.1865239483270407,"29":-0.031829345485171,"30":0.16963109698266016,"31":0.31223690368063245,"32":0.12308992812382506,"33":0.040065851789732314,"34":-0.16727737564502812,"35":0.021244700490086154,"36":-0.13423263719337145,"37":-0.08148845175331304,"38":-0.09060085811235558,"39":-0.028725359457100814,"40":0.016045644264705318,"41":0.061384092732440006,"42":-0.21811287639556518,"43":-0.08879688157718128,"44":-0.02114216475339779,"45":0.07885986412042967,"46":0.20317533292072362,"47":0.22362864501180338,"48":0.1701695652865124,"49":0.1907655639131149,"50":0.004705840068654005,"51":0.01735578148822574,"52":-0.037458150177770155,"53":-0.00792787201024014,"54":-0.018590306174000978,"55":-0.27839945502086044,"56":-0.2338287698376433,"57":-0.15141334648550378,"58":0.11479251598482383,"59":-0.28604825927124994,"60":0.04821435803412178,"61":0.05988628069520441,"62":0.09257000825756881,"63":0.10530799696507566,"64":-0.05611869009168329,"65":-0.09685587517388873,"66":-0.18606569412062046,"67":-0.07778351799477937,"68":-0.04651686774469179,"69":-0.1847207742711115,"70":0.032019738012259595,"71":0.09795937839408046,"72":0.03632049492709819,"73":-0.18509859985586657,"74":0.081276555813412}},{"sx":5,"sy":5,"depth":3,"w":{"0":0.24270989886552893,"1":0.11442081768773311,"2":0.20515735829024703,"3":-0.4095583784335518,"4":-0.1430594579582793,"5":-0.17412990663450728,"6":0.2974532025510659,"7":0.2783974813947759,"8":0.05548119615378243,"9":0.09965852485354536,"10":0.016811491412566732,"11":-0.04091232887521187,"12":-0.17408799573782932,"13":-0.1347905771795944,"14":-0.16332695131751399,"15":0.34711580291277605,"16":0.2028066805601207,"17":0.06205470564444881,"18":-0.01623498472726459,"19":-0.03467983943782481,"20":-0.15719386429165216,"21":-0.06851975698199628,"22":-0.0374958028219249,"23":-0.11729994719401253,"24":-0.25713177316057084,"25":-0.04765787065468752,"26":-0.26418746963884304,"27":-0.17502673799410984,"28":-0.24919486648715636,"29":-0.1127873406828456,"30":-0.002532314753537778,"31":-0.1304424905270324,"32":0.06711290492109677,"33":-0.41103295666391354,"34":-0.24441111161492632,"35":0.001612965624933316,"36":0.09446501352144593,"37":-0.22087453915778976,"38":0.10701297455190935,"39":0.1289624653796905,"40":-0.1925696636737305,"41":0.03558348361349993,"42":-0.09994520350609773,"43":-0.07311737039710813,"44":-0.0654997189105571,"45":-0.09853268259636673,"46":-0.33435445139519043,"47":-0.423861355051771,"48":0.09702269448027977,"49":-0.06446303407003194,"50":0.23558800521018777,"51":0.04611131736686959,"52":0.0939417585927113,"53":0.05808079846695133,"54":0.0808911414893788,"55":0.10931220583922946,"56":0.08582327280084755,"57":-0.17988742333992497,"58":0.06840760114379213,"59":0.17363923755033,"60":-0.021685859143854295,"61":0.016087575494780047,"62":-0.06002510201903777,"63":0.03172338375903419,"64":0.19190450748130863,"65":0.18593770068173532,"66":0.18560567065412706,"67":0.1582505821475699,"68":0.021884599410467023,"69":0.07458887609361047,"70":0.3148882784258862,"71":0.2427194068309822,"72":0.10218411544223818,"73":0.0026627449617963985,"74":0.2853344829137821}},{"sx":5,"sy":5,"depth":3,"w":{"0":0.2313943797976029,"1":0.18629639027534312,"2":0.03604028033703285,"3":0.10208674466599478,"4":0.05401561576343944,"5":0.2569014427311606,"6":-0.10026605621835026,"7":-0.07720693972226494,"8":-0.21981380613669005,"9":-0.014423828283724892,"10":-0.17841463380846842,"11":-0.3533136055595596,"12":0.1669466511446695,"13":0.005846923927591942,"14":-0.09565276164756237,"15":-0.2521256419732566,"16":-0.13074598780006377,"17":-0.17152339140383485,"18":-0.04828223941517817,"19":-0.2247744337259234,"20":-0.20705376719292148,"21":-0.03123906948463521,"22":-0.04698463715002172,"23":-0.09475313886566268,"24":0.22952477693905365,"25":0.11266269952108333,"26":0.12002766387856492,"27":0.235013736924861,"28":0.14655096689653627,"29":0.24588703020373048,"30":0.22101437678658822,"31":-0.05074273375594883,"32":-0.08258778937281841,"33":0.130834531355182,"34":0.10495576365605878,"35":0.08720982523804835,"36":-0.11782119774498692,"37":-0.28085968358243185,"38":-0.17090706499801703,"39":-0.317447982644563,"40":0.11257425836384004,"41":-0.00952355601547326,"42":0.06156778425975055,"43":0.3498707929873937,"44":-0.06495596948880057,"45":0.16227813516861767,"46":0.0017553588986728762,"47":0.02589598779949466,"48":-0.0027493945151211173,"49":-0.12765825748537915,"50":0.03606617765619929,"51":-0.09304693991265675,"52":-0.3013684293627246,"53":-0.16070536796991775,"54":-0.09912343724426644,"55":-0.07507612275602057,"56":0.2392647931270457,"57":-0.09151611817963941,"58":0.09813007425059561,"59":0.12374422076166913,"60":0.06986582463957854,"61":0.12405332162324033,"62":0.03176377499890932,"63":-0.20063759697539216,"64":-0.18039775169602656,"65":-0.05533873853755371,"66":-0.18717637035408832,"67":-0.3213713409373852,"68":0.015925551789042623,"69":0.07090353955849912,"70":0.05984708588263383,"71":0.047401364139309086,"72":0.08425359016667874,"73":0.12609636029971585,"74":0.05261693033552492}},{"sx":5,"sy":5,"depth":3,"w":{"0":-0.16097833878763937,"1":-0.25599719716131236,"2":-0.12404698913360589,"3":-0.08528533888447597,"4":-0.06769674914427133,"5":-0.008902669679205883,"6":0.39332240510393773,"7":0.06604895540839403,"8":0.15210897640176724,"9":-0.0125717058007377,"10":-0.12475110043165274,"11":-0.033495575866342255,"12":-0.17359792785158712,"13":-0.22959960445287597,"14":-0.16652484189611347,"15":-0.29774146092912973,"16":-0.2079817349908528,"17":-0.15667418348751216,"18":0.028821412028833725,"19":0.06561405292175067,"20":0.1275103799756184,"21":0.07950347269075445,"22":0.09659454502911545,"23":0.2104985681519577,"24":-0.0027202939186376602,"25":-0.05254347315085506,"26":0.08166841332187635,"27":-0.4416953115743413,"28":-0.15632007476366996,"29":-0.09412807936825261,"30":-0.18769498227115503,"31":-0.137573018121971,"32":-0.08985804826940322,"33":0.1367410231697595,"34":0.06557348663121895,"35":-0.04462521307235954,"36":0.2752641868289374,"37":0.0534783282273584,"38":0.09748534674799626,"39":0.08348534604216645,"40":0.25138996408670117,"41":-0.08623920857787773,"42":-0.19604182971208597,"43":-0.22354985398006316,"44":-0.38668064003195257,"45":0.0025357431312291825,"46":-0.12577367702443157,"47":-0.12219096197029068,"48":0.21177676109643975,"49":-0.09977598996999784,"50":0.048867594810881536,"51":0.26052771925349205,"52":-0.022429835465488164,"53":0.18731258657653516,"54":0.02113478310455818,"55":0.029421613465653165,"56":0.08765403511989797,"57":-0.23446476872469896,"58":-0.39636009472737793,"59":-0.07287213026026294,"60":0.008254666183839509,"61":-0.1293527990842453,"62":0.11808118066156964,"63":-0.13854567964607703,"64":0.1048680836846286,"65":0.07023559616908302,"66":0.012821627622948379,"67":-0.033563598184800474,"68":-0.0796308621715805,"69":-0.0952079528850027,"70":-0.017740720187178365,"71":-0.20410553151257785,"72":-0.27124254585445245,"73":-0.18885904050354427,"74":-0.17282551748821742}},{"sx":5,"sy":5,"depth":3,"w":{"0":-0.02127250474388013,"1":-0.022699476212736,"2":0.28223962283151216,"3":0.022985621363229913,"4":0.05515751405491617,"5":0.05392622425807006,"6":-0.06500745071474526,"7":-0.01888657966915462,"8":-0.09066545111935467,"9":-0.10808021605700364,"10":-0.0412004766152634,"11":0.10870658308245583,"12":-0.10164953162019477,"13":-0.12385633911401296,"14":-0.18767452026802672,"15":-0.09035856423417495,"16":0.04053365518266562,"17":-0.10763743359611938,"18":-0.1329251922425091,"19":0.010441815041111564,"20":-0.06261591408094255,"21":0.08516358881874948,"22":0.041464007579514066,"23":0.08891948173316301,"24":0.020921618958444424,"25":0.2684426388836497,"26":-0.12189009580039359,"27":-0.09532619749815477,"28":-0.20094041334639112,"29":-0.22563968331281925,"30":-0.12206192359937867,"31":-0.11207951671368858,"32":0.08544787371492614,"33":0.06782939435436856,"34":-0.11762470185612021,"35":0.27936266350390265,"36":0.1820225116283895,"37":0.14885851650780418,"38":0.2575090656587733,"39":0.12590905392609664,"40":-0.003640312384580178,"41":0.07417293821498332,"42":-0.14491387151321342,"43":0.04366689135953587,"44":-0.004012146908375579,"45":-0.06989523157087875,"46":-0.027022778786869713,"47":-0.17947929128412607,"48":-0.19535207805898464,"49":-0.04433316922409663,"50":0.14377843993387385,"51":0.11554338083861689,"52":-0.06732762464337168,"53":0.11034270360852762,"54":-0.07707229517138701,"55":0.10628909199558446,"56":-0.023628903391217614,"57":-0.3448896393949754,"58":-0.2901346084079646,"59":-0.2586112287631138,"60":0.06543858458821017,"61":-0.2918102171462025,"62":0.00511503039163203,"63":-0.12331645517122498,"64":-0.09181426209567357,"65":-0.00736564148072482,"66":0.10930939474656136,"67":0.15707281671899703,"68":-0.05406350056846666,"69":0.3381224533437502,"70":-0.011148781856633743,"71":0.1874261933046443,"72":-0.14116932006647007,"73":-0.03621916091436126,"74":-0.1707237306403566}},{"sx":5,"sy":5,"depth":3,"w":{"0":0.015904386276739776,"1":0.14098272971479775,"2":0.23717120434072703,"3":-0.2643738396583211,"4":-0.21448004865528694,"5":-0.33109087390062913,"6":0.09346412321300238,"7":0.09764951819507456,"8":0.18101626157773126,"9":-0.03991102959451386,"10":-0.03432559215290909,"11":0.18940630938238673,"12":-0.037188059654583924,"13":-0.14100573767419872,"14":-0.05567442482543712,"15":0.1331837383456935,"16":0.08923945684221975,"17":0.222319875621879,"18":-0.30417131106499967,"19":-0.37037354789806126,"20":-0.12308796069368338,"21":0.31749571999956133,"22":-0.02882645822629202,"23":0.26728110413765677,"24":-0.20029619081191605,"25":-0.19414290869135456,"26":-0.04922473839660025,"27":-0.09464954737977849,"28":0.0011363843969073107,"29":0.15227768285166507,"30":-0.24086958598023117,"31":0.018785429277071972,"32":-0.07382276022717839,"33":0.07061406994810221,"34":0.018750544612245578,"35":0.047838980520996686,"36":0.13551633843300723,"37":-0.06680408440804836,"38":-0.01045450485490542,"39":-0.09202438087671463,"40":0.02943784242230041,"41":-0.029014553548732037,"42":0.14460174662817618,"43":0.025972291736760113,"44":0.037387021933754636,"45":-0.3376417316629086,"46":-0.18398543918575602,"47":-0.1973198809092057,"48":0.044588392072811844,"49":0.19588597353792897,"50":0.10826734798736752,"51":-0.05616574298197331,"52":-0.014234164216927702,"53":-0.05694125055448794,"54":-0.03401522993423069,"55":0.07609938259696529,"56":0.014651846049696443,"57":0.061094259231725755,"58":-0.018592741913867006,"59":0.04631404643743465,"60":-0.06255498785409622,"61":-0.11411559989344539,"62":0.20486893850018406,"63":-0.13250180386565,"64":0.0699581090693496,"65":0.15766513809820282,"66":-0.3075378699660022,"67":0.0394834950588197,"68":0.02472282436551964,"69":0.028213083640675006,"70":0.06642913849491949,"71":0.029470140468015965,"72":-0.23654971694381877,"73":0.08089558449630282,"74":-0.05736677385852826}},{"sx":5,"sy":5,"depth":3,"w":{"0":-0.12933758247109012,"1":0.1612057396546417,"2":0.03057872831920855,"3":0.2392232635452493,"4":0.10555989723793359,"5":0.16971695879892545,"6":0.026954359109017934,"7":-0.13718414738936027,"8":-0.010035800210505236,"9":0.13416768829467116,"10":-0.01271683895994221,"11":-0.13486650349475854,"12":-0.1179274153740189,"13":0.10013297550997449,"14":-0.06590859877175534,"15":0.035598687603882614,"16":-0.1584242484155495,"17":-0.017761607309932186,"18":-0.05131840462811304,"19":-0.09322400697664475,"20":-0.2902154671035646,"21":-0.36294278185673345,"22":-0.23237531099616093,"23":-0.17542562343840792,"24":0.16443060144055424,"25":-0.2888559382045086,"26":-0.07000216811712055,"27":-0.13569777875899813,"28":-0.27677163776071934,"29":-0.1387800452114243,"30":0.23813389607804536,"31":0.13199991376525683,"32":0.22735524188465928,"33":-0.0736058412304715,"34":-0.034534155270966115,"35":0.04440994863060767,"36":-0.06091309700038568,"37":0.2667705945368625,"38":0.12068584383702957,"39":0.08722646344540393,"40":0.267196142486938,"41":-0.0810228380297565,"42":-0.07761305718200143,"43":0.2269485280435,"44":0.033043034873698605,"45":-0.04718279587666811,"46":0.18352784090831845,"47":0.08438908854378069,"48":-0.05543160152953565,"49":-0.04854434211748068,"50":-0.02331410034809381,"51":-0.07742607839355165,"52":0.03424987672141365,"53":-0.054578463086898954,"54":-0.02254577890370806,"55":-0.07393260168922046,"56":0.004819506743193071,"57":-0.03891055881374961,"58":0.06658737413710336,"59":-0.23819578860541582,"60":-0.2973917035927597,"61":-0.40443050364720534,"62":-0.2560292914166555,"63":0.058460148879305944,"64":-0.2326329178644611,"65":-0.04131391531713342,"66":-0.11696246748459103,"67":-0.0853563833890554,"68":-0.03832856457393996,"69":-0.20792380586769613,"70":-0.06999808115088411,"71":-0.09269422786264149,"72":0.005731358881638386,"73":-0.04586912958920479,"74":0.03784225725182182}}],"biases":{"sx":1,"sy":1,"depth":16,"w":{"0":0.036191341187726205,"1":0.06887481973941305,"2":0.13934978128064182,"3":0.21148104452946448,"4":0.17030148471159154,"5":0.20440692937984756,"6":0.11461157352562194,"7":0.2569153926476105,"8":0.24865235241182718,"9":0.033471828987632284,"10":0.03671130078450791,"11":0.13287478903177766,"12":0.015933089434377455,"13":-0.06280697303131862,"14":-0.020664249360998792,"15":0.04291258859764914}}},{"out_depth":16,"out_sx":32,"out_sy":32,"layer_type":"relu"},{"sx":2,"sy":2,"stride":2,"in_depth":16,"out_depth":16,"out_sx":16,"out_sy":16,"layer_type":"pool","pad":0},{"sx":5,"sy":5,"stride":1,"in_depth":16,"out_depth":20,"out_sx":16,"out_sy":16,"layer_type":"conv","l1_decay_mul":0,"l2_decay_mul":1,"pad":2,"filters":[{"sx":5,"sy":5,"depth":16,"w":{"0":-0.06721412081197532,"1":-0.0754639070445093,"2":-0.06541799821287647,"3":-0.040034716006494706,"4":-0.00459135820624959,"5":-0.012088021903911382,"6":-0.0059880367221023835,"7":-0.020258729808436446,"8":-0.08975937477308615,"9":0.035516020331183264,"10":-0.09282995907974884,"11":-0.0810454752173859,"12":0.05401595016520218,"13":-0.0474061701599143,"14":-0.05922284693272924,"15":-0.057893780812608715,"16":-0.017095620981940816,"17":0.04416114627383822,"18":0.00820887288614763,"19":-0.022300499913327738,"20":0.022748604981839556,"21":-0.09970870839979547,"22":-0.03725144509253105,"23":-0.08207821626320855,"24":-0.012184983319982272,"25":-0.056713578951356335,"26":0.029374071715407256,"27":-0.058224974682146255,"28":0.06854539884130703,"29":-0.04626898046604137,"30":-0.037624287096944264,"31":-0.007035118313188007,"32":-0.02132250691766154,"33":-0.007984106997447055,"34":0.0808470499203554,"35":0.002389173018299647,"36":-0.07949994764942864,"37":-0.12451584853972202,"38":0.0026239934276451327,"39":-0.04588682812463433,"40":-0.015229080602250783,"41":0.12227842271969205,"42":-0.027272857593104,"43":-0.08341376682019853,"44":-0.05140438383869499,"45":-0.02944766840314713,"46":-0.059790528487865924,"47":-0.11028820437149137,"48":-0.07928599230854076,"49":-0.013171307186065916,"50":-0.039076826329182635,"51":-0.040851033349506856,"52":-0.002019339856373516,"53":-0.11934662461620119,"54":-0.026272244859890256,"55":-0.04236163855712375,"56":-0.006595947387502634,"57":0.017944194943481116,"58":-0.09144727250319708,"59":-0.07889963608678018,"60":0.049053867586446656,"61":-0.05811450194053175,"62":-0.05242185865268726,"63":-0.02961402505405935,"64":-0.07849714426868235,"65":-0.04812605629316175,"66":-0.03675597964557111,"67":-0.0593678050899554,"68":-0.010293834215544827,"69":-0.058282555413228646,"70":-0.04401278292325214,"71":-0.013374096759615879,"72":-0.034824878795242833,"73":-0.01556522106780568,"74":-0.02611788763479806,"75":-0.04912553065997078,"76":0.012094155817737335,"77":-0.010931860810780193,"78":-0.05009349779230206,"79":-0.0144332822791011,"80":0.03328835710318055,"81":0.02967310877544625,"82":0.02572523172795551,"83":0.06272838055968825,"84":0.031204416423527698,"85":-0.05595816441815663,"86":-0.008123758584349886,"87":-0.024576716771247852,"88":-0.0033897952034804926,"89":-0.03978085743748352,"90":-0.08548685840252718,"91":-0.06006865828513453,"92":-0.07732022533508157,"93":-0.040370247944125706,"94":-0.013293821718772822,"95":-0.011648020841608079,"96":-0.02585808555920448,"97":-0.037675742312202,"98":-0.08054281436429944,"99":-0.018425595261185833,"100":-0.0842720482670724,"101":-0.052568489911094016,"102":-0.008439442013193788,"103":-0.032029360950802825,"104":0.05068361153993522,"105":-0.07399265530618208,"106":-0.027312181931673268,"107":-0.09864131042302625,"108":-0.023537777164785702,"109":0.023714692705580475,"110":-0.01948080423344281,"111":-0.03140269939915151,"112":0.0776624954709127,"113":0.009708830736114392,"114":-0.034967919188018406,"115":0.008751313119580988,"116":-0.033604200657896106,"117":0.046877965307798815,"118":0.03245422676876656,"119":-0.00067807764311533,"120":-0.0026596976268788526,"121":-0.06714518547834752,"122":-0.010731646571769374,"123":0.022314812167843905,"124":-0.023272154325018172,"125":-0.04982034651183424,"126":-0.05416554216723256,"127":-0.021276956408012335,"128":0.04882827754242848,"129":-0.011543964678692986,"130":0.010666708033597774,"131":-0.015070721452932808,"132":-0.05120527304752564,"133":0.05418743870745929,"134":0.026805630259112305,"135":0.020234397285787468,"136":0.038606851236632427,"137":-0.085362656087681,"138":0.0066492041072422755,"139":0.01367738337428162,"140":0.030037244148576926,"141":-0.04957452767771024,"142":-0.07113906024130981,"143":-0.056462630422525736,"144":-0.024037843626081423,"145":-0.028517180775778257,"146":0.02794496112430571,"147":-0.0076398908566328305,"148":0.006950952240857399,"149":-0.027944847500768876,"150":0.02422195913026963,"151":0.029714547688472828,"152":-0.033165429508600186,"153":-0.030365952450458856,"154":-0.006860433344663441,"155":0.0010232757442087902,"156":-0.04662824080435262,"157":0.08868244454542056,"158":-0.00922931516072895,"159":0.014116045006821587,"160":-0.02239213013506249,"161":0.03645527899646425,"162":-0.06388618390648965,"163":0.014658983459734008,"164":-0.06642777843846401,"165":-0.06310571662887086,"166":0.04268315707277497,"167":-0.08759407812784922,"168":-0.019028311681700775,"169":-0.03707325976001942,"170":-0.07502951157920844,"171":-0.05177601537585531,"172":-0.006270594480826336,"173":-0.12393937849311883,"174":-0.021281241303506566,"175":0.018323669387179865,"176":-0.14707409761767976,"177":-0.0383229992128806,"178":0.02069011941435508,"179":0.015021401274886301,"180":-0.09575312614164955,"181":-0.07291661094407187,"182":0.03895366093486918,"183":-0.12127592195853738,"184":-0.06465711374813544,"185":-0.07177535643662135,"186":-0.005970239490026723,"187":-0.01282262971133127,"188":-0.13031967126299202,"189":-0.02916065455381403,"190":-0.09028352637455128,"191":-0.07235757841325333,"192":0.023595703056667357,"193":-0.024968518498589682,"194":-0.010217290496007465,"195":0.10492190810939424,"196":-0.021339727206997554,"197":-0.008887461948027803,"198":0.018222345827220744,"199":-0.09929400926408495,"200":-0.033596256675086686,"201":0.08556525298892462,"202":-0.1173005425119742,"203":-0.00671933206514303,"204":0.05149074111216998,"205":-0.06386374312762391,"206":-0.03009477863027461,"207":0.0009928185759540242,"208":-0.12396592624482525,"209":0.013834444518214611,"210":0.005013357000454627,"211":-0.0087183398356007,"212":-0.012059334246715715,"213":-0.014800771660653255,"214":-0.02868257404184977,"215":-0.021060513265142064,"216":0.0042694937006416515,"217":-0.032429323848038136,"218":-0.0050060479956296035,"219":-0.10859520900490552,"220":-0.01046036442295508,"221":-0.02818101573507756,"222":-0.029343163789525804,"223":0.050165035638850726,"224":-0.05291467011398837,"225":-0.012557718837819977,"226":-0.018070325941250152,"227":-0.03544411695028471,"228":-0.047192912315581044,"229":-0.07895281927970614,"230":-0.015258220955489163,"231":-0.1137913710982513,"232":-0.004191274206212756,"233":0.0040367783093468845,"234":0.049223048656906646,"235":-0.02189210196218822,"236":-0.023440833673625695,"237":-0.10051464162427404,"238":0.0007992349193241672,"239":-0.02618708907855209,"240":-0.06255382143273573,"241":0.024040017831556282,"242":0.02297072989840421,"243":-0.0744730905134861,"244":-0.07626539956249155,"245":-0.05440905910859574,"246":0.005136894857733905,"247":-0.15088593068965117,"248":-0.06636280580115513,"249":-0.036045976701708206,"250":0.0029863488503521305,"251":-0.14329611118720978,"252":0.02953166064353169,"253":0.05332290510900811,"254":-0.10272165960777127,"255":-0.06212092303752599,"256":-0.13019394298332518,"257":0.09226958257698362,"258":0.07176051703997821,"259":-0.04508738644315527,"260":0.039494984248532095,"261":-0.05392632889768208,"262":-0.014395526776059495,"263":-0.03236830530934174,"264":-0.029582554416076656,"265":-0.07799408507582674,"266":-0.06935740134971068,"267":-0.14325713470029158,"268":0.030360181385186775,"269":-0.07144563006382061,"270":-0.0681930302132796,"271":0.01675965637381524,"272":-0.057888442685554056,"273":-0.014700344631812553,"274":0.004730496477569295,"275":-0.02421943196347596,"276":-0.08156593560793401,"277":0.006734199055868462,"278":-0.0036680538655303125,"279":-0.08275764145116651,"280":0.02304643637328216,"281":0.04679910578308622,"282":-0.03429170316659862,"283":-0.04219921958417584,"284":-0.007006552487022996,"285":-0.011019519836001785,"286":0.01423148592678598,"287":0.03136906711712742,"288":-0.04885130572986063,"289":-0.023377373004976023,"290":0.001970266038232537,"291":0.0009126974136501416,"292":-0.009535110905607058,"293":-0.055294296737627556,"294":0.020574165739411437,"295":-0.030659573915432246,"296":-0.004574913457932078,"297":-0.02535196799797646,"298":-0.006850094850195388,"299":-0.08930929737740483,"300":-0.05062808632829171,"301":-0.0136629479511375,"302":0.0681065341762147,"303":-0.06465839813161263,"304":-0.0070513203990522745,"305":-0.031459679588027575,"306":-0.01950768974807528,"307":-0.02072970875609743,"308":-0.06771675834627497,"309":-0.03454174717687174,"310":-0.01653919185236611,"311":-0.12064116728002224,"312":-0.02399384335103193,"313":-0.02980778050612226,"314":-0.07241007282095879,"315":0.02662861689310817,"316":-0.02613755304763956,"317":0.039734373822459285,"318":0.05180199629789994,"319":-0.021785641589222606,"320":-0.1069610148588348,"321":0.0059301222310754855,"322":0.11291715559509247,"323":-0.048419681381918815,"324":0.011720198597887446,"325":-0.08076776868727586,"326":-0.027247126087964185,"327":-0.05283313604987983,"328":0.019697615716133328,"329":-0.0396701769091198,"330":-0.019096648104893293,"331":-0.014840452261598573,"332":0.027846585390068245,"333":-0.0896057397060937,"334":-0.02484394834437524,"335":-0.00784669291437547,"336":-0.1445040210893332,"337":-0.006927829996218368,"338":0.055084008295164175,"339":-0.08402438625082867,"340":0.008782100214501883,"341":-0.10285104357977164,"342":-0.0533842767848929,"343":-0.08762922306689384,"344":-0.07575941499972318,"345":-0.05697621149400481,"346":-0.15105567283798946,"347":-0.0033044781920239822,"348":0.04509855977333095,"349":-0.019882101326248545,"350":-0.06446957932445611,"351":-0.006878877638054077,"352":-0.07635808298395241,"353":0.012925541134180783,"354":-0.02926659829848131,"355":-0.037842210050133974,"356":-0.06474017785168729,"357":-0.04071353627577231,"358":0.009614959251023002,"359":-0.030332958756349858,"360":0.004941063065535164,"361":0.04572570329009644,"362":-0.060261790867354836,"363":-0.00002465641341062688,"364":-0.08512130431328142,"365":-0.09927653267843312,"366":-0.01082194708154339,"367":-0.0472856493149673,"368":-0.07117925963210009,"369":-0.01876143981430111,"370":0.03540284451263203,"371":0.048749451028281036,"372":-0.11799045252456758,"373":-0.05870441879955884,"374":0.03748605048691402,"375":-0.024209967160699012,"376":-0.009521200607338345,"377":-0.02628016252140179,"378":-0.09521701028918547,"379":0.0036449758879118204,"380":0.05264456244001887,"381":-0.015758935429804045,"382":-0.03672448288874421,"383":-0.013874143937950256,"384":-0.09202547074212186,"385":-0.05783168090217109,"386":-0.10306136147261943,"387":-0.10034439935841885,"388":-0.020058822798642063,"389":-0.04065363465489677,"390":-0.03250521273846425,"391":-0.09361676592399655,"392":0.0796352885377634,"393":-0.026089530954989094,"394":-0.08856052101280694,"395":-0.050515328135310004,"396":0.02095794259822577,"397":-0.02907147170322747,"398":0.04359568261264208,"399":-0.05438163286039196}},{"sx":5,"sy":5,"depth":16,"w":{"0":-0.06131603125121533,"1":0.07666242054214595,"2":0.0805095949250299,"3":-0.08068650230500773,"4":-0.02691155209309282,"5":-0.1430658376043156,"6":0.00204423032009383,"7":0.09386803571198352,"8":-0.1179783685425853,"9":-0.06620920898680994,"10":-0.1132989488655638,"11":0.006891828700132666,"12":-0.024305790859439725,"13":-0.08378934660773972,"14":0.015499229136722744,"15":-0.016061054313123057,"16":0.02757943634869312,"17":0.029868110434923104,"18":-0.05425486168442117,"19":-0.03761172633692925,"20":-0.0774983203720192,"21":-0.26189123355787913,"22":-0.04195931592439277,"23":-0.02915586929889274,"24":-0.07237337740880113,"25":-0.11027607914347044,"26":-0.22381822471845933,"27":-0.06318512902948539,"28":-0.048581310431416294,"29":-0.024055557295210826,"30":0.0667829858075864,"31":-0.1399378625474158,"32":0.011330146771814126,"33":-0.06704455302231827,"34":-0.05386650807228223,"35":-0.15925613786223583,"36":-0.03556272107358175,"37":-0.007717858947330978,"38":-0.024706135755822076,"39":0.16721605221631694,"40":-0.03529210662492648,"41":-0.10823966758009139,"42":-0.05353821846393467,"43":-0.0008190880029476811,"44":-0.13059332417178154,"45":-0.024022931013710405,"46":0.07168985843289936,"47":-0.17394936276912384,"48":-0.13828403136857287,"49":-0.07000842975089439,"50":-0.16857033287495785,"51":-0.10400239853660546,"52":0.16433829380072013,"53":-0.03280953390937419,"54":-0.08291404674285849,"55":-0.21240256274738087,"56":-0.35766625878078434,"57":-0.028058757130615355,"58":-0.22745091039567125,"59":-0.032105740603287546,"60":-0.011984978542632458,"61":-0.04331800080668857,"62":0.1161952706647098,"63":-0.09852821846058639,"64":-0.11001404279606351,"65":0.12223674830116361,"66":-0.05170744324695312,"67":-0.028235339857918918,"68":0.12083237509409078,"69":0.1281834816423219,"70":-0.07629994088799301,"71":-0.07685221112949372,"72":-0.16124306389462384,"73":0.041399782187552754,"74":0.1262530768031821,"75":0.18158257284646584,"76":0.009960063050191616,"77":-0.03410322572115853,"78":0.053378487409266,"79":-0.13778282482581827,"80":-0.19816302729756605,"81":-0.03990290680400958,"82":0.05678580799235004,"83":0.08676903579957242,"84":0.15980225580568344,"85":-0.2895479845698812,"86":-0.05051105956944638,"87":0.13651176858587125,"88":-0.136181922784153,"89":0.02891554568825972,"90":0.01392233980964792,"91":0.03627206941763622,"92":-0.07341515010689664,"93":-0.11760389541998031,"94":-0.07351003481500185,"95":-0.026904693809157346,"96":-0.08750074557233764,"97":-0.046367572143531086,"98":0.02726572728077966,"99":-0.039296241387042595,"100":-0.03234419791101118,"101":-0.10453020587191168,"102":-0.06181389320336174,"103":-0.06906311003966988,"104":-0.18005463151464102,"105":-0.06850554730733968,"106":0.0633157099395468,"107":0.052017531218348956,"108":0.0011769618319424373,"109":-0.03512342162245248,"110":0.04699542495566365,"111":0.079328429995898,"112":-0.040551960429562314,"113":0.010847529968730856,"114":-0.049928666821146196,"115":-0.042348046285986644,"116":0.01595134318901355,"117":-0.061043408346958074,"118":-0.053881292102129524,"119":0.09076016259599326,"120":0.024792821469573147,"121":-0.045442862452425146,"122":0.07957230594403733,"123":-0.0810001481122604,"124":-0.06292876760796212,"125":0.003271795569139889,"126":-0.027943475802154172,"127":-0.0049683727975277404,"128":-0.1468228805371723,"129":-0.1194956500036517,"130":0.08759676241414727,"131":0.04778999846831891,"132":-0.001337284845107472,"133":-0.20260712157999242,"134":-0.061305999543058536,"135":-0.06412840080740839,"136":-0.2525558415216508,"137":0.1354000640037449,"138":0.013870927894434323,"139":-0.048769987448604835,"140":0.05066603429139061,"141":0.047902055482006274,"142":0.03743740423951678,"143":-0.05255849754310393,"144":-0.05502247995572396,"145":0.009860024969836494,"146":-0.05466651412036974,"147":0.07465801122230285,"148":0.15353758462587802,"149":-0.04965816865900262,"150":-0.05274071775921043,"151":0.01948978451840697,"152":-0.23414562010634277,"153":0.12613148714424866,"154":-0.017165797423304863,"155":0.10412626520656343,"156":0.09088463850250957,"157":-0.1170038098857425,"158":0.06849876536859516,"159":-0.03661408447169866,"160":0.07328090617569497,"161":-0.016073935330209187,"162":0.04621576296308346,"163":-0.12107694574361007,"164":-0.0035434742166134247,"165":-0.18863117498637455,"166":0.05501708745524179,"167":-0.07642804426703007,"168":-0.1478060701742876,"169":-0.0657739397566114,"170":-0.13583882727566088,"171":-0.053552740071824104,"172":0.030471770577788337,"173":-0.10693257577614315,"174":-0.027445527663533996,"175":-0.07033672826919406,"176":0.0020498910173890063,"177":-0.030186388090202777,"178":0.09710686156441337,"179":-0.12075819187604417,"180":0.023318209613795677,"181":-0.08696294773403651,"182":0.008046111595747871,"183":-0.09353218562282245,"184":-0.178309591005818,"185":-0.031129585204407763,"186":-0.06112129180406663,"187":-0.007999296682993299,"188":0.025069476310013793,"189":0.029629842349403596,"190":0.06709066628637492,"191":0.04507546259095714,"192":0.07967792359069487,"193":-0.04804517784053991,"194":0.10797949199991502,"195":-0.07019373221777264,"196":-0.048183477464629317,"197":-0.16189944369061765,"198":-0.058552653127522024,"199":0.20351118834191054,"200":0.06139827432340785,"201":-0.017999271205067863,"202":0.04656055524333196,"203":-0.16404644284364006,"204":-0.020814771284444207,"205":0.17068980926784555,"206":-0.03166999533853,"207":-0.03047318878332643,"208":0.06994438065577187,"209":-0.05742566935301356,"210":0.03029612355627797,"211":0.01244068751996706,"212":0.03692413408526111,"213":-0.10385428772155054,"214":-0.04597041258328196,"215":-0.08358269496490894,"216":-0.21637358532823675,"217":0.09296897039340402,"218":-0.19030316570524047,"219":-0.15675337231892655,"220":-0.07392739720231642,"221":0.0666752904913108,"222":0.03806553624255081,"223":0.038808115465455005,"224":-0.0448682905553338,"225":-0.04589621702239112,"226":-0.029567158232447703,"227":0.008767510557300262,"228":-0.14040911927009,"229":-0.10371492431044473,"230":-0.07336506854242124,"231":-0.022472285450018153,"232":-0.314057466780254,"233":-0.021629977278252187,"234":-0.046565062879257546,"235":0.05507579315112873,"236":0.008099291735610711,"237":-0.008273515026998952,"238":-0.1310199489327667,"239":-0.09371358694142856,"240":0.05162990275485721,"241":0.09204506585722493,"242":-0.04095177035847978,"243":-0.03470100170372638,"244":-0.0024027847798609387,"245":-0.1510492369313425,"246":-0.034290838947599475,"247":-0.0910055755799993,"248":-0.1694189918777427,"249":0.007358585592299176,"250":0.006426113723537075,"251":-0.07079562544254143,"252":-0.07876372212047696,"253":-0.028952502192867123,"254":-0.09716359843675815,"255":-0.010394032453733203,"256":-0.002244446552932231,"257":0.059952167992781816,"258":0.03782409264618259,"259":0.0056248203915081,"260":-0.12426735481413277,"261":-0.12665086029871722,"262":-0.06476766992156394,"263":-0.03111720847666298,"264":-0.09165295385363134,"265":-0.1589612476162222,"266":-0.057875213958031864,"267":0.03822545320157637,"268":0.017679160885808863,"269":0.02992959751586483,"270":0.011993586317236113,"271":-0.11295958626971601,"272":-0.056333584440394206,"273":-0.0855994314328537,"274":0.07384117486766428,"275":-0.08915483534244024,"276":-0.10716501621411269,"277":-0.15929672860086574,"278":-0.12538789007798673,"279":0.08612057343066634,"280":-0.14685717339154247,"281":-0.028039305766172102,"282":0.1449171323240481,"283":-0.17190058072273523,"284":-0.0490120448761268,"285":0.030403848869577844,"286":0.003945585338728017,"287":0.008457290006135328,"288":-0.11558588751345636,"289":0.010602319433364166,"290":-0.04510848454286874,"291":0.003288643916973332,"292":-0.056958811047026464,"293":-0.007286126673131957,"294":0.01969999950523064,"295":-0.10076812032685141,"296":-0.1587190865431316,"297":-0.007594265664275613,"298":-0.14980847305115141,"299":-0.02811639083204692,"300":-0.03226120276493217,"301":-0.10194839602699009,"302":0.09631528151581524,"303":0.07621636781061843,"304":-0.26137487493255346,"305":0.021881662208687036,"306":0.052813943046902706,"307":-0.04730130196624145,"308":-0.039695493754815354,"309":-0.1677282667392128,"310":-0.08298980686406589,"311":0.021558768458732138,"312":-0.17305845654384283,"313":0.05747035107206132,"314":-0.010360526647156509,"315":-0.10844339103696958,"316":0.08318918693487853,"317":0.013464719601943164,"318":-0.10235613905030795,"319":-0.016068320281903203,"320":-0.03984384323932885,"321":0.0029934297238127894,"322":0.058641875140480935,"323":-0.029665884881521904,"324":-0.002583580934177803,"325":-0.135983783036821,"326":-0.07309934194335377,"327":0.02239802513063137,"328":0.03288842059759348,"329":-0.010011594594268335,"330":-0.09100114682912863,"331":-0.1325772900846217,"332":-0.09142056969903746,"333":-0.1024319056435337,"334":0.042003516138897724,"335":-0.09894426316475999,"336":-0.07308910062233326,"337":0.1141384005986288,"338":-0.07269528625432738,"339":-0.20889075172187127,"340":0.004385294928932645,"341":-0.034059248170276564,"342":-0.06287828576679444,"343":-0.03830802200691385,"344":-0.02065399970326123,"345":-0.011468352415497877,"346":-0.07133060077619452,"347":0.03419234528694542,"348":0.01664454317396656,"349":0.06052159929621211,"350":0.024774544023490205,"351":-0.05141735949250323,"352":-0.09018751390077323,"353":0.053231674991990115,"354":0.040400202348854955,"355":0.05553331910036874,"356":-0.06076799148085264,"357":-0.16205275264975386,"358":-0.016993304596289515,"359":0.08794888738115926,"360":-0.1535924329062846,"361":0.00014159767715388313,"362":0.043160744412453544,"363":-0.1220768190457212,"364":0.092239441838401,"365":-0.001880988824969401,"366":-0.0211572027220576,"367":-0.06328898887173866,"368":-0.09159658005960505,"369":-0.059428174523638445,"370":0.04755584957457903,"371":-0.019960892911991584,"372":-0.036091004299595705,"373":-0.08878110812336236,"374":-0.15792037918035104,"375":-0.12312988695987896,"376":-0.07364090201658131,"377":0.018576205850126395,"378":-0.0922435718993206,"379":0.032005466397504206,"380":-0.14275299845656314,"381":-0.25999952089981027,"382":0.03186560695087434,"383":-0.02177715607428539,"384":0.017554032546819476,"385":0.0416309762395078,"386":-0.07224261169658508,"387":0.04589755940168757,"388":-0.12809200504765192,"389":-0.22001065876240103,"390":0.0226120480364741,"391":-0.04815325318373488,"392":-0.06578417209350014,"393":-0.03758515688200104,"394":-0.17146117501517003,"395":-0.13822899217776763,"396":0.059616744393215515,"397":-0.003123189065328441,"398":-0.022021081200385585,"399":-0.0119457021698074}},{"sx":5,"sy":5,"depth":16,"w":{"0":-0.13291056507037147,"1":-0.16272809056862833,"2":-0.20292718500723927,"3":-0.12917358542627114,"4":-0.07708487343547729,"5":-0.10392549277273568,"6":-0.09137600807094282,"7":-0.2163804985841694,"8":-0.2482570920534692,"9":-0.06499720461427683,"10":-0.003922841065883414,"11":-0.1050280468277988,"12":-0.010933307821090374,"13":-0.05680401639753823,"14":-0.061512532349859386,"15":0.09293563678707467,"16":-0.05297461914520698,"17":-0.06530529429690494,"18":-0.16079065222301137,"19":-0.257705797005516,"20":0.06997059828570648,"21":0.02824493921483519,"22":-0.06836083989828357,"23":0.09649534766935457,"24":-0.11286179711129461,"25":-0.15914186236834954,"26":0.16287799579155474,"27":0.13573257225231794,"28":-0.11380015948319656,"29":-0.0035382894260904264,"30":0.08979100562628162,"31":0.06725956992420484,"32":-0.018066166871205835,"33":0.06676915692798975,"34":0.1093933395633574,"35":-0.014496740803651148,"36":0.08681827616065171,"37":0.0780894748695919,"38":-0.067355177900263,"39":-0.21343877766063693,"40":0.02856433167345752,"41":0.043730825666132504,"42":0.18752999347985203,"43":-0.03411465497983747,"44":0.17790555600079094,"45":0.1092204111466838,"46":0.135695094392979,"47":0.10839545173912976,"48":-0.045960307450700434,"49":0.009439903707078702,"50":-0.028092191562853995,"51":-0.12411290879281685,"52":0.014190934510536886,"53":-0.010320285601814543,"54":0.02229252455633701,"55":-0.18425029561649714,"56":-0.030413238406711146,"57":-0.17961995348306248,"58":0.031926683229707695,"59":0.11566314848190459,"60":-0.07572248131524793,"61":-0.11038185518636941,"62":-0.13302447812903656,"63":0.01939779528158739,"64":-0.10245013429291798,"65":-0.014422856817563287,"66":-0.0027609949441345974,"67":0.10153824658303265,"68":0.06825890359914424,"69":0.012959523207666437,"70":0.04429354348739491,"71":-0.155046846923162,"72":-0.09147506237361988,"73":-0.20421751395994595,"74":0.034754502598516174,"75":0.09586037082440174,"76":-0.033092010380947556,"77":0.023998798671321812,"78":-0.07214892150225574,"79":0.140584207110939,"80":-0.13964149752895882,"81":0.026255103606481735,"82":-0.21805121173653155,"83":-0.19072691602091635,"84":-0.14341568202751503,"85":-0.04100713126692571,"86":-0.13863696598122768,"87":-0.10158074726877835,"88":-0.16776391528015894,"89":-0.18226276627795135,"90":-0.07220996687474959,"91":-0.11374632273163036,"92":-0.03571419782221596,"93":0.026561796355492724,"94":0.09446710123157276,"95":-0.11282222411430634,"96":-0.14351956544946967,"97":-0.008498016395477936,"98":-0.14277622598390682,"99":-0.1429200379814435,"100":-0.10609180460360057,"101":0.051825347750048975,"102":-0.053430937540559706,"103":0.09498862250996075,"104":-0.1118505681889282,"105":0.004414669841272668,"106":-0.12140555737113476,"107":-0.023871069695150952,"108":-0.008323575249996565,"109":-0.04514588182729065,"110":0.04401993896676986,"111":-0.001569872721588657,"112":-0.16960813909790828,"113":-0.032709179314841075,"114":-0.18308450041773025,"115":-0.06075222327101954,"116":-0.06205442263839618,"117":0.10061586317273474,"118":-0.032316825201425106,"119":-0.09286688801927183,"120":-0.15065742128927,"121":0.13350385080790556,"122":0.030654715348321815,"123":-0.10580484873147185,"124":0.146586087977196,"125":0.055241898901492656,"126":0.17390727716119866,"127":-0.05188739227324518,"128":-0.0793641964710558,"129":-0.13674726751492264,"130":-0.13706976148767255,"131":-0.16265589521266252,"132":-0.24236928179558176,"133":0.006842363881033374,"134":-0.0681143756169217,"135":-0.0934576073251851,"136":-0.17722891849326255,"137":-0.21839593833340717,"138":-0.16968904273002694,"139":-0.0042985346893694015,"140":-0.10527607082050948,"141":-0.09798404906482605,"142":0.06784583304367597,"143":-0.11690331212295463,"144":0.028825006173276137,"145":-0.05861623218573344,"146":-0.20397035254219578,"147":-0.01353416170978382,"148":-0.11322657138649259,"149":0.03364919109467388,"150":0.00677552112118186,"151":-0.0731473560505507,"152":-0.022201585851791078,"153":-0.2656493098774592,"154":-0.08678417540909154,"155":-0.03138687784762154,"156":0.0005813280554341781,"157":-0.06286637209717723,"158":0.009086944037800321,"159":-0.05379603350367579,"160":0.08191392826334505,"161":-0.05719531972550872,"162":-0.18802958469153733,"163":-0.06069422282839889,"164":0.03350385673185064,"165":-0.07610293169647593,"166":-0.021847300297713944,"167":-0.16567206545333216,"168":-0.28150276348862724,"169":-0.09283181476461512,"170":0.20351021302919833,"171":0.00021075239471692907,"172":0.045689853469224675,"173":0.009288278363423975,"174":-0.1624284478588348,"175":-0.02156273375043435,"176":0.09039307281167697,"177":-0.022288528855979664,"178":-0.029164867796753594,"179":-0.13937551892334504,"180":0.15265405479958474,"181":-0.041864193241509244,"182":-0.013656530983150526,"183":0.09200838143639567,"184":-0.29309714128219644,"185":-0.05828959552320527,"186":0.1720797987767449,"187":0.05676477856788754,"188":-0.12063339965062053,"189":0.060047913162295144,"190":0.061868680726933904,"191":-0.03193093494767481,"192":0.09345176989867053,"193":-0.032938912489856295,"194":-0.0563116849991602,"195":-0.013433744907772044,"196":0.16123735765101455,"197":0.11251603575145684,"198":-0.09201381827185451,"199":-0.17850647758593705,"200":-0.2260512140627088,"201":0.07380779749080071,"202":0.20701415334335804,"203":0.03965547093285289,"204":0.21004820928819407,"205":0.07277499658347951,"206":0.04597214856218257,"207":-0.08711933997414695,"208":-0.0683902609751011,"209":-0.06564287026292319,"210":-0.05436369941002858,"211":-0.15056905996095737,"212":0.14603460234351856,"213":0.057503704901929,"214":-0.10031043178661672,"215":-0.07753216158806313,"216":-0.35764698610081913,"217":-0.04481345863004451,"218":0.08265675008215055,"219":0.058106329618942125,"220":-0.15602028489222985,"221":-0.005308446186254142,"222":0.07768614847184925,"223":0.08015376965448387,"224":0.04859669362759766,"225":-0.04354713794860984,"226":-0.15806388734337962,"227":-0.06129686472615637,"228":0.09726728220854769,"229":0.0016100969176701247,"230":-0.1397035764631265,"231":-0.082369077351269,"232":-0.22971902239712158,"233":-0.2591999025903759,"234":0.11298786096611148,"235":0.10087042004588702,"236":-0.0504577281243245,"237":0.05663025629586632,"238":0.1113481766285541,"239":0.057410339242191785,"240":-0.06086280262594732,"241":-0.0743213383595814,"242":-0.14833838558973492,"243":0.039341645887332306,"244":-0.036487521286138906,"245":-0.14861195232705113,"246":-0.00845170866937389,"247":-0.08038888310411343,"248":-0.05012712147180421,"249":-0.06108733791794265,"250":0.05273154775059291,"251":0.06454442260075346,"252":0.09894216134490459,"253":-0.07629139261313816,"254":0.002061233199410731,"255":-0.2389966049316887,"256":0.013229460269549131,"257":-0.21417695329122352,"258":-0.08141200418108581,"259":-0.18224741323335164,"260":0.006022453666276194,"261":0.1218134209300852,"262":-0.08181677254778133,"263":0.07738465696539948,"264":-0.15731289557493838,"265":-0.06737619874470416,"266":0.015360317444933474,"267":0.05294212361612088,"268":-0.13852006355802413,"269":-0.1506088718629393,"270":0.044758092872722414,"271":-0.09061501577405673,"272":-0.06485369378637822,"273":-0.21730215886578969,"274":-0.09713906934667899,"275":-0.08620710041966519,"276":-0.06794460779207585,"277":0.0257308927630087,"278":-0.09274300681048188,"279":-0.04217374586698243,"280":-0.16091324574811525,"281":0.11580386005943281,"282":0.006106555769035567,"283":-0.02403872731938739,"284":0.06762557126301667,"285":-0.048779766202460786,"286":0.05543052404173452,"287":-0.08387557469105836,"288":-0.0600355685978538,"289":-0.00397673968310988,"290":-0.09580994020076389,"291":-0.10852867778677341,"292":-0.038412691554519755,"293":-0.014259672027585553,"294":-0.054989643804950646,"295":-0.11470324498990857,"296":-0.1814798244740718,"297":-0.1256438788478852,"298":-0.17725036797543492,"299":-0.06852869822557778,"300":-0.06662157702840554,"301":-0.12320338439039054,"302":0.016252407339875735,"303":-0.020034429620890186,"304":-0.007646960753869635,"305":-0.009522299610909755,"306":-0.08371564794180028,"307":-0.0013806065290585786,"308":-0.04600599720948162,"309":0.13526927773058786,"310":-0.044685483132991574,"311":-0.008170724484326139,"312":-0.20768854819485216,"313":-0.17094648885824765,"314":-0.16141758663873287,"315":0.06679871103452595,"316":-0.0998836631391803,"317":-0.16558001177541193,"318":0.017304644777640564,"319":-0.09049874723635731,"320":0.10767341387509474,"321":0.015952148340378128,"322":-0.25552094729797636,"323":-0.053793121564059854,"324":-0.10460309184834926,"325":-0.10578086220019393,"326":-0.08524392961442713,"327":-0.10885799059061617,"328":0.005763738575657853,"329":-0.1497210325425515,"330":-0.018172267127312583,"331":0.05706186674443198,"332":0.0974244982097686,"333":0.008768159919578716,"334":-0.19359740722703686,"335":-0.13343707761380053,"336":0.12127618861191262,"337":0.037102209380031136,"338":-0.11975246276898815,"339":-0.02563217152474538,"340":-0.03826520696155882,"341":-0.05101956357017933,"342":0.06445211395348537,"343":-0.04094140445581621,"344":-0.05778214608076103,"345":-0.19856939850071603,"346":-0.021110980315814327,"347":0.04446662718875014,"348":-0.035557219243663105,"349":-0.19210126550712364,"350":0.061419486102235306,"351":-0.061961913163709026,"352":0.1398963992689776,"353":-0.13685874346154542,"354":-0.2667616197147489,"355":-0.10841185436510112,"356":0.02476260568231325,"357":-0.021435650416735983,"358":-0.08434266751042925,"359":-0.182320580287171,"360":-0.1622027757473095,"361":0.15061344574317476,"362":0.03970587913962124,"363":-0.018167775880390376,"364":0.07435760108180325,"365":-0.05936463628026332,"366":0.07557640558859678,"367":-0.11444213905765549,"368":0.07529319927159328,"369":-0.1044252671655601,"370":-0.1444027044651174,"371":-0.13405679086760824,"372":-0.044316440626508316,"373":0.08025617469319242,"374":0.023491279981537865,"375":-0.22733310635256504,"376":-0.18777340095077827,"377":-0.2528403911268977,"378":-0.020722202120813885,"379":-0.05058971465592812,"380":-0.0988768305479974,"381":-0.09685350374905694,"382":-0.12480927552447667,"383":-0.15188209819863605,"384":0.006926388412595714,"385":-0.10109873022653222,"386":-0.18774553598910532,"387":-0.22735734941995794,"388":0.09620703062731044,"389":0.0006183592372337376,"390":0.0033384908698889555,"391":-0.017999574493956647,"392":-0.1922007202461469,"393":-0.30324509565555613,"394":-0.11407783127562618,"395":-0.004666497966592622,"396":-0.05430851110847733,"397":-0.2133255574666673,"398":0.02603677331588472,"399":-0.12300478383197581}},{"sx":5,"sy":5,"depth":16,"w":{"0":-0.05075331286267359,"1":0.17283480445925495,"2":-0.12791639278567518,"3":-0.161668280527975,"4":-0.0773871291182356,"5":0.12490193935668871,"6":0.007009189794509481,"7":0.2168652237694033,"8":0.11954600841524851,"9":0.028610716533701196,"10":0.15856004573398483,"11":0.10109467481517599,"12":0.05226099834910603,"13":0.12094129690567629,"14":-0.04401660491754298,"15":0.02380123806502025,"16":0.17221498296714782,"17":0.09150127607519074,"18":-0.06257266393774863,"19":0.04638806075756821,"20":0.25021832507145453,"21":0.11949139665084836,"22":0.10856347188424825,"23":0.12801747631076998,"24":0.12071205093798312,"25":0.3461818945548145,"26":0.22330153208304837,"27":0.010395594928997144,"28":-0.023094523654668152,"29":-0.05809564276530012,"30":0.04812506539250018,"31":0.023930552332902907,"32":-0.05734985731475272,"33":0.02657354718759921,"34":-0.12038088964529536,"35":-0.20680164347451718,"36":0.21835652520381887,"37":0.08617143234907675,"38":-0.01691296217401266,"39":0.1897540380605776,"40":0.16383100443156373,"41":0.09475458246389266,"42":0.1494676841416228,"43":0.38038353247460494,"44":0.075476305568553,"45":0.16729689134754894,"46":0.04095891562200394,"47":-0.07747231252601204,"48":-0.07821630399039292,"49":0.1138994037000398,"50":0.021751327711692456,"51":-0.12460629872792463,"52":0.19890249893198564,"53":-0.15838893398629442,"54":0.031980031677329476,"55":0.12301161554823428,"56":0.22131458592329423,"57":-0.01962949119624279,"58":0.1621310684065804,"59":0.2190169814552374,"60":-0.08622823565072896,"61":-0.08886498329847499,"62":0.09650196210131397,"63":-0.1551792132635315,"64":-0.19373730096765376,"65":-0.1377314816429812,"66":-0.014017852720340986,"67":-0.15542146831031967,"68":0.015326125242824966,"69":0.08409181028478509,"70":0.020926024660310655,"71":0.17620911578847717,"72":-0.02508000236689759,"73":-0.06722918510755321,"74":-0.26608528457639846,"75":0.03836735652079123,"76":0.007317127387630849,"77":-0.04595168523713882,"78":-0.04209943494521156,"79":-0.23431570958161207,"80":-0.14287134162505077,"81":-0.0871042659588545,"82":0.08225969937655282,"83":0.022303887164774463,"84":0.08735927637777012,"85":0.03562429741834309,"86":-0.0818533827798721,"87":0.09704275422524039,"88":0.10173591801514498,"89":-0.1524753440654155,"90":0.0421827789697687,"91":-0.08500552553642664,"92":-0.11175975399818025,"93":-0.09460610991054369,"94":0.13733255599883423,"95":-0.09903476569251324,"96":-0.24962018096569905,"97":0.010930300930289405,"98":0.12962088291279714,"99":0.06615501568371321,"100":0.19123821256640433,"101":-0.16444226163220813,"102":0.016638474188937543,"103":0.033021450373898385,"104":-0.007001775662967673,"105":-0.09203960471447817,"106":0.11155894638540839,"107":-0.02732991768740982,"108":-0.02839970461540278,"109":0.0395476819209089,"110":0.054627540353539186,"111":-0.1686537337685967,"112":-0.1400114301719172,"113":-0.0413894694954979,"114":-0.12139400940640434,"115":-0.13210475944850994,"116":-0.12659205652567737,"117":-0.29886145571820477,"118":0.05810953802507978,"119":-0.06047491981665026,"120":0.04392828222639998,"121":0.04756572813652031,"122":0.068468841152215,"123":-0.015567130805060368,"124":0.20997655291893605,"125":-0.09482047832715071,"126":-0.07955573254370209,"127":-0.1962839737938601,"128":-0.031144403298065722,"129":-0.04913446659353907,"130":-0.18344371585516125,"131":-0.23010518404908348,"132":-0.13518380711151406,"133":-0.17460198897049892,"134":0.03043607264712536,"135":-0.13672027362413106,"136":-0.27166088897808083,"137":-0.003022724866801804,"138":-0.1548040881532266,"139":-0.011627818469258831,"140":-0.05782757750546675,"141":-0.07568492972646423,"142":-0.13575144976168804,"143":-0.03826743018744727,"144":-0.12032375980287825,"145":-0.06038851734413244,"146":-0.18335838285784067,"147":-0.2448145419643859,"148":-0.09891181417923037,"149":0.026855290671531945,"150":-0.0708503760242058,"151":0.11557462535456539,"152":-0.2075752462238872,"153":-0.13155751232891552,"154":-0.2527014222535692,"155":0.04594132563085072,"156":-0.027157738123358883,"157":-0.05293783838567982,"158":-0.13601250194518805,"159":0.09795140564065791,"160":-0.04349498655714836,"161":-0.017663862756263332,"162":0.08478252570553575,"163":-0.028837127214349986,"164":0.1158445657485924,"165":-0.03132640292197321,"166":0.033947916969715095,"167":0.06735666491150757,"168":0.06888893510579275,"169":-0.19600253827041697,"170":-0.05078006532427019,"171":0.025303467484809834,"172":-0.05760176271261685,"173":-0.07978501510049325,"174":0.22565633481450992,"175":-0.12249741859792065,"176":0.08072956916957662,"177":-0.05288812118734059,"178":0.09565606748079736,"179":-0.06024724120816585,"180":-0.1984933142381928,"181":-0.42245122987166334,"182":-0.1097109955402419,"183":-0.13896256581808825,"184":-0.10510682493508214,"185":-0.200496393580862,"186":-0.14230751153825402,"187":-0.22399978846989915,"188":-0.027097854643887406,"189":0.02909707796914553,"190":-0.13596701691236063,"191":-0.008006694735375713,"192":-0.05112167590727306,"193":-0.1120340082764731,"194":-0.04104174802596545,"195":-0.01299949507199969,"196":-0.19893011317484965,"197":-0.20652730815007253,"198":0.0068185556778668725,"199":-0.22168974345749723,"200":-0.15469860325446805,"201":-0.024837637283687052,"202":-0.13696041099550213,"203":-0.24639689578984034,"204":0.12769525080575317,"205":0.008824774470502391,"206":-0.11531348468999832,"207":-0.1140664013959529,"208":-0.10981289204847285,"209":-0.026160945570806376,"210":0.018109948263079677,"211":0.06422832144463031,"212":-0.0818215271736671,"213":-0.26871276074219985,"214":-0.007142884602602632,"215":-0.26787692450594647,"216":-0.06952301043890506,"217":-0.008938254136654335,"218":-0.1830696333650834,"219":-0.05252978883534479,"220":-0.04375583977462375,"221":-0.0012637312042283076,"222":-0.10120801309380653,"223":-0.1999813033077582,"224":-0.11385457824721144,"225":-0.1445634763374921,"226":-0.1394080708202478,"227":-0.21959264739997778,"228":-0.1239728339470242,"229":0.07304477379220936,"230":-0.2219487033806867,"231":0.007947283065645341,"232":-0.07804416676152862,"233":-0.15783337918036258,"234":-0.14638248628824058,"235":0.1282937032601299,"236":-0.12759493433058422,"237":-0.15794254676516284,"238":-0.16452416192007463,"239":-0.16532034886454441,"240":-0.05367946434186188,"241":-0.09268339264661353,"242":0.17150380561955667,"243":0.2961009653414546,"244":-0.2404742880177208,"245":-0.09000187308246492,"246":-0.08865215351011671,"247":0.11408404995702172,"248":0.12078088104144705,"249":-0.022406738846782306,"250":-0.0889666689964103,"251":-0.21995319180006434,"252":-0.08372004292889655,"253":-0.007355447118960088,"254":0.049681619558800905,"255":-0.08463320636285188,"256":0.09643075808754406,"257":-0.011644740275943748,"258":0.22759320280765555,"259":0.2876596282972214,"260":-0.1356302314348296,"261":-0.28889680990400385,"262":-0.12194699513649228,"263":-0.19089086492911034,"264":-0.13858675801296877,"265":-0.06623297287260439,"266":-0.20365074422696486,"267":-0.1747152242416625,"268":0.0020047956661701878,"269":-0.048485571581641816,"270":-0.12831642181335745,"271":-0.013384171903054656,"272":0.13087389127315768,"273":-0.025029392598648757,"274":-0.016840467930761133,"275":0.03199644557787076,"276":-0.010927180651401204,"277":-0.23076943970582459,"278":-0.06041699425155838,"279":-0.1450993195971819,"280":-0.03688483829416084,"281":-0.05280018746829371,"282":-0.13333697524479168,"283":-0.009886867971631505,"284":0.013588203321637137,"285":0.005427582622810825,"286":-0.16004696399451274,"287":-0.1104154983126321,"288":0.16774832349636118,"289":0.06782529920195667,"290":0.0029329625367982624,"291":0.10414320136029415,"292":-0.13044922938278078,"293":-0.09472085032281076,"294":0.09145867614615344,"295":0.06526540571282044,"296":-0.05612332417773918,"297":-0.06847382803557149,"298":0.047187045874378976,"299":-0.07776112134876365,"300":0.022180384151865476,"301":0.017705948174105007,"302":-0.16045637125944884,"303":-0.03177512208086822,"304":0.058740250444195445,"305":0.029555412724512026,"306":-0.057783869886547004,"307":-0.17824805973485083,"308":-0.10151840606175312,"309":0.022784062804978262,"310":-0.006201294900552863,"311":0.02951462081168007,"312":-0.0314232402971227,"313":-0.18938655737695345,"314":-0.10033333845022122,"315":0.0880435878413579,"316":-0.08780860364161247,"317":-0.10555555079750888,"318":0.17688701897106887,"319":-0.050236891227472824,"320":0.10956801807765067,"321":0.06985228173292983,"322":0.08267296178441898,"323":0.17732260094158286,"324":-0.16852268355645955,"325":-0.24602383860819232,"326":-0.11604426770236126,"327":0.04183800602237009,"328":0.05988090969224519,"329":0.03204635585789192,"330":0.16448545871990713,"331":-0.23230416557568656,"332":-0.007822436042265863,"333":-0.10307860845922678,"334":0.0325984531442531,"335":-0.16640540235000056,"336":0.01355334789535773,"337":-0.04254371793399473,"338":0.1827331045406484,"339":0.2461288943659107,"340":0.023056595164121636,"341":-0.02427261047397212,"342":-0.2398980126524363,"343":-0.14907490874710347,"344":-0.09749487636519194,"345":-0.11021551692581483,"346":-0.06583390405157374,"347":-0.06499447168837323,"348":-0.1884895423619135,"349":-0.12911600744428114,"350":-0.12898474561100165,"351":-0.06459936858316734,"352":0.02316847512029376,"353":0.04318716632867568,"354":0.11542261458294069,"355":0.14623400079267138,"356":-0.03479297334863765,"357":-0.005319469247997024,"358":-0.11252336120861486,"359":0.026194229868766065,"360":0.04625339663644436,"361":-0.027616005834113347,"362":-0.038782997563515005,"363":0.01620601263233483,"364":-0.05065058858115653,"365":-0.06814265965223339,"366":-0.12347814146530162,"367":-0.09780840427138322,"368":-0.026711527969562637,"369":0.1406771538373363,"370":0.018313100841236253,"371":0.0003017863812555346,"372":-0.07188378541925576,"373":-0.06855019496823414,"374":-0.1824245157962708,"375":-0.13004836819094487,"376":-0.07644990876617845,"377":-0.09725294708422479,"378":0.019569242744886296,"379":-0.043519761300461465,"380":-0.16003897025238265,"381":0.026106537466137475,"382":-0.05965011935910049,"383":-0.1768912558914839,"384":-0.00311993831811503,"385":-0.13845828294299217,"386":0.0005534675295145492,"387":-0.23959946481293373,"388":-0.06236972533724834,"389":0.05806149884877928,"390":-0.1980901995239354,"391":0.06539089596753614,"392":0.021935178886627178,"393":-0.25817146952880893,"394":-0.03707474271831358,"395":0.02994648165844205,"396":-0.11590443506863957,"397":-0.1881152601394684,"398":0.07298654745349813,"399":-0.04505494451210851}},{"sx":5,"sy":5,"depth":16,"w":{"0":-0.10715144369258696,"1":-0.17627232772473722,"2":0.08562337542323056,"3":0.011598507913876756,"4":-0.015092761015035249,"5":0.012882579200633215,"6":-0.04923976145322375,"7":0.1756410515849151,"8":-0.11228524100377964,"9":0.10673494939806222,"10":0.08088629440072394,"11":0.12736294293348102,"12":-0.04917637090078472,"13":-0.02417423943201434,"14":-0.042270801844883674,"15":-0.02692127274547693,"16":-0.07398233206651915,"17":0.013376394951977425,"18":0.18220878212306021,"19":-0.09039481718055485,"20":-0.06251319233212908,"21":0.03224518085927216,"22":-0.05508510727843786,"23":0.058056954546168105,"24":-0.12190726557274602,"25":0.1013321651848752,"26":-0.04165360953209193,"27":0.03183388608111176,"28":0.0793983004311932,"29":-0.0948895069897239,"30":-0.10114013705617479,"31":-0.0456077910787155,"32":-0.06783117545851668,"33":0.010215872495111487,"34":-0.02045711658212665,"35":0.0822592496678521,"36":-0.11720592930403091,"37":0.005458415372097718,"38":0.02461411523035381,"39":-0.16792733346007901,"40":-0.180749090269573,"41":0.0985555505858561,"42":-0.02109006274597156,"43":-0.017441539712886638,"44":-0.05666440290804666,"45":-0.03588022991458026,"46":-0.13532594832783407,"47":0.06387988845984807,"48":0.03618579102194028,"49":0.11100046444603644,"50":-0.025244205465903797,"51":0.0619188827832091,"52":-0.004982290836557338,"53":0.21182921998152407,"54":-0.005427146402418864,"55":-0.0020056282875826033,"56":-0.10478103062347963,"57":-0.029779290188231663,"58":-0.05060630583192117,"59":0.05907623237632206,"60":-0.02225178740716689,"61":-0.15464002723688025,"62":0.08106844193601911,"63":-0.009620877230321397,"64":-0.12931824822453958,"65":-0.050489196407076935,"66":-0.1267087988851826,"67":0.056387917169064106,"68":-0.1370920334074665,"69":0.000589395538741602,"70":-0.09710401542005885,"71":-0.002878093737276573,"72":-0.08503925163203084,"73":0.067029409754807,"74":0.0012214417340796722,"75":0.1315831296690278,"76":0.025817541543876027,"77":0.11096253637213077,"78":-0.16112402866863446,"79":-0.05335566780060186,"80":0.030328689370242714,"81":0.03768737403031518,"82":0.07799283579060737,"83":-0.011740836828706767,"84":-0.116194070459711,"85":0.08600601902314053,"86":-0.11190417409413693,"87":0.0680233309151013,"88":-0.2909946007451308,"89":0.08541341505299252,"90":-0.19385740582495647,"91":-0.043394127727289726,"92":-0.1786151196271597,"93":0.03572156194819219,"94":-0.09706533131851229,"95":-0.07789671758857357,"96":-0.023935655108475003,"97":0.13352331101956225,"98":-0.13841346804718388,"99":0.026400514147237243,"100":-0.19639220343340297,"101":0.003975286482243475,"102":-0.01777855135100817,"103":0.04200283724160204,"104":-0.14040158292516752,"105":0.12602365900145795,"106":-0.04321680280942319,"107":-0.08445960809110972,"108":-0.04856289501446698,"109":-0.0167355301806622,"110":-0.028292908240040788,"111":0.06571903112456765,"112":-0.06281755082912076,"113":0.13729210398141456,"114":-0.04100791838709748,"115":0.12626938535331514,"116":0.08436155044062534,"117":-0.05523462176214315,"118":0.021383530606293832,"119":-0.12512654765120282,"120":-0.17786237759486093,"121":0.06863259304857232,"122":-0.06687238261347933,"123":0.040523218668453806,"124":0.012406816102287778,"125":0.06164780018355347,"126":0.009730456304945826,"127":-0.11430722492262202,"128":0.008351288210312613,"129":0.11303570875261733,"130":0.11011738054524989,"131":-0.0019452167376915533,"132":-0.0617158244154981,"133":0.017108876874773343,"134":0.07284566179874508,"135":0.0527461708095957,"136":-0.09476426308930144,"137":-0.014225972968451416,"138":0.012101672418790958,"139":0.053871706328172994,"140":0.06324274052430602,"141":0.0702626970010361,"142":-0.020025416991032666,"143":0.0556993342535438,"144":-0.039405026669568015,"145":-0.09372566263268241,"146":0.029349250262382484,"147":0.0014126566750317596,"148":0.029239001229160864,"149":-0.034473327855516545,"150":-0.06373453013085978,"151":-0.0614162241072143,"152":-0.1293162122723331,"153":0.07539390312063295,"154":0.06585273790370105,"155":0.04897498780431203,"156":0.09809086497307618,"157":0.10357504401881183,"158":-0.09524275956802997,"159":-0.0020269052957222933,"160":-0.1277466546842971,"161":0.05852718744121943,"162":-0.1399991326260077,"163":-0.09824656025163556,"164":-0.049133863505899406,"165":0.15822695845260396,"166":-0.04090379372005308,"167":0.13685353324438712,"168":0.050980954558584236,"169":0.053918807680453096,"170":-0.044450223935799005,"171":0.14358566300150377,"172":-0.16451718379865066,"173":-0.08988396301366543,"174":-0.021225857784344746,"175":-0.0973558326062992,"176":-0.23151812184636852,"177":0.04958358204884889,"178":-0.11618254779667042,"179":-0.09766156281187746,"180":-0.040858441164839644,"181":0.011456502642826197,"182":0.023937582968651304,"183":-0.004425422625949466,"184":0.1548794311864702,"185":-0.15059420611837568,"186":-0.05146062763599139,"187":-0.15989476234470523,"188":-0.09649995163200045,"189":-0.055942214112859885,"190":0.09122797702991449,"191":-0.14222715184771773,"192":-0.10474745954584347,"193":0.04357568294902244,"194":0.01997987369129831,"195":-0.010259138177463972,"196":-0.02563976549269356,"197":-0.08624906358926825,"198":-0.034965795030339995,"199":-0.18145087989091885,"200":0.09497401906244206,"201":-0.15725451881005756,"202":0.010495771456224027,"203":-0.19378943444832428,"204":-0.1618177711994433,"205":-0.037823878637839946,"206":0.034842583589546144,"207":-0.16471188956298524,"208":-0.16779284470668523,"209":-0.05666951040014609,"210":0.07653964317601901,"211":0.0000019551023796947732,"212":-0.06029470931163114,"213":-0.06882921855282108,"214":-0.13148553085438244,"215":0.010785137995830814,"216":0.16570497453098662,"217":0.03349893134584193,"218":0.012419775514765434,"219":0.08066257363061477,"220":-0.06436621043123092,"221":-0.26390882121873194,"222":0.010110925160957207,"223":-0.16580381755799417,"224":-0.1119052134703722,"225":-0.14781599755448113,"226":0.04907063929000415,"227":-0.08925666840692513,"228":0.05075154355140534,"229":-0.0691694132270637,"230":-0.03320457656908604,"231":-0.11849946315156334,"232":0.06760601850781185,"233":-0.13705101300139078,"234":-0.026639351400383576,"235":-0.058798249389660696,"236":-0.001918612418595255,"237":-0.12585728377465488,"238":-0.03711396724672446,"239":-0.17041267994693232,"240":0.2571447822853379,"241":-0.08853673890843607,"242":-0.03860186332193596,"243":-0.1633402110778404,"244":-0.07310232578537804,"245":0.03785187183799213,"246":0.07652835684674922,"247":0.0001055584784748825,"248":-0.10555644872183802,"249":-0.00451350772084688,"250":-0.07594685749740725,"251":0.016022364826523867,"252":0.04967986392735596,"253":-0.10626427061915546,"254":0.03543732420580997,"255":-0.12607066509732776,"256":0.29518555962569526,"257":0.00795822572171602,"258":-0.04826136503066365,"259":-0.07228745987726733,"260":-0.13865117288551426,"261":-0.08481713527775454,"262":-0.04046169568301488,"263":-0.010487038145742818,"264":-0.20965814054755344,"265":-0.2872462814344707,"266":-0.3558541453060214,"267":-0.08683197238056375,"268":0.19550844106979226,"269":0.08413703766615646,"270":0.03253188253236712,"271":-0.003774018924946497,"272":0.21608501475159636,"273":-0.14200358845915487,"274":-0.08330456086061415,"275":-0.13145804099433606,"276":-0.30797045078752966,"277":-0.20214126037375665,"278":-0.05208768358871133,"279":-0.34242338943624034,"280":-0.030230494051232078,"281":-0.1789022682837296,"282":-0.2807515204151986,"283":-0.40958279928765173,"284":-0.11717482758523134,"285":-0.01794731798659927,"286":-0.1392352468910307,"287":0.0797536483936811,"288":0.23093163794140384,"289":-0.0022377738423778257,"290":-0.001727395387654958,"291":-0.09173792634039986,"292":-0.12654430602976027,"293":-0.11865957423758997,"294":-0.051269424181647885,"295":-0.15839969619183375,"296":-0.09524300489317583,"297":-0.014736358630042563,"298":-0.0558849572453376,"299":-0.1461849067000467,"300":0.07410090447093645,"301":0.11137249425061334,"302":0.004866141158380185,"303":-0.047445462375598366,"304":0.22181006310132692,"305":-0.04152451375767896,"306":-0.022501136522198453,"307":-0.15588235075751727,"308":-0.07849879482257066,"309":0.06134807528548302,"310":0.0427399467078529,"311":-0.171713675051367,"312":-0.023766284750993842,"313":0.05165823587686746,"314":-0.11085191629661445,"315":-0.2604242444845255,"316":-0.1273569395555383,"317":-0.07721562510236436,"318":-0.1989295630382185,"319":0.054370462375534605,"320":-0.2509905830521029,"321":-0.15943252612298997,"322":0.016564036441102433,"323":0.04981302730483013,"324":0.26939287282100166,"325":0.028011999826593997,"326":0.02401489638887178,"327":0.15701874830507906,"328":0.30866063698816454,"329":0.1534590103587076,"330":0.16879757167360476,"331":0.23775413947556082,"332":-0.07958338651596564,"333":-0.13357703726200681,"334":0.12690420739432315,"335":-0.04036505369749661,"336":-0.10512549530183281,"337":-0.05169276999685452,"338":-0.14186004750383718,"339":-0.11435498581741056,"340":0.12684538497864917,"341":0.043002818193431214,"342":-0.06771214733258996,"343":0.16328164760655817,"344":0.35982781093814914,"345":-0.2679258208697669,"346":0.13699546236574048,"347":0.04571636323546645,"348":-0.02490509993858521,"349":-0.05950493728441793,"350":0.051796126322452854,"351":-0.08180853678682168,"352":-0.17781818945184977,"353":-0.21132198379512052,"354":-0.016818140193224945,"355":-0.08302601366812629,"356":0.15009977157417748,"357":-0.05334269632471454,"358":-0.1065209666817132,"359":-0.09318364973933685,"360":0.3159368414458026,"361":-0.22772347249316965,"362":0.168100549287664,"363":-0.11535091931268414,"364":-0.1303713256527104,"365":-0.22572577885570158,"366":-0.03575748981705655,"367":-0.09236570762030345,"368":-0.13005145586494737,"369":-0.22775996333258877,"370":0.04952511212323957,"371":-0.23783857426806035,"372":0.10062235584837158,"373":-0.1051275516826288,"374":-0.09181959526077756,"375":-0.08709690314444604,"376":0.23672516726011397,"377":0.04499251437386393,"378":0.18844622480858872,"379":-0.17127155613470496,"380":-0.08198377770012197,"381":-0.19375668022935943,"382":0.10855386114348406,"383":-0.14661405249767695,"384":-0.1801949915940013,"385":-0.17480843543418745,"386":-0.13867060190469546,"387":-0.13520513456038566,"388":0.08339995457258897,"389":0.2070966364779044,"390":-0.1470360033848514,"391":-0.01603545103365549,"392":0.04463533964855264,"393":-0.004857817744363837,"394":0.11805179488761228,"395":0.0641362218204706,"396":-0.1553940552977457,"397":-0.1791316101316292,"398":0.02260998513212026,"399":-0.11267560285702534}},{"sx":5,"sy":5,"depth":16,"w":{"0":0.06452228329518991,"1":-0.030097893977053553,"2":0.05167100238893832,"3":-0.019229221385571586,"4":-0.06773530069171624,"5":-0.12642661805502292,"6":-0.06813119959395288,"7":-0.19981781548327937,"8":-0.13922489683950962,"9":-0.10746975506178232,"10":-0.30832007811589,"11":-0.11053934487967894,"12":-0.043157063921522756,"13":-0.18119557377762405,"14":0.010621281354763836,"15":-0.15414075332254787,"16":0.019074823484322018,"17":-0.07244474340124607,"18":-0.0007543046819169326,"19":0.13607945224321674,"20":-0.06450552510362936,"21":-0.18404595630585205,"22":-0.018689430407034868,"23":0.0399759494042888,"24":-0.05976487047000642,"25":-0.037622057930611054,"26":-0.24979595288029446,"27":-0.13226206866528178,"28":-0.08571426119555944,"29":-0.15476466741354797,"30":0.05813215410008527,"31":-0.13572074313732974,"32":0.05867143190799581,"33":-0.0224844538010559,"34":-0.10925013685810672,"35":0.030638446963216402,"36":-0.06064906951752652,"37":-0.11126997390043582,"38":-0.07575149601659466,"39":-0.0720612107237419,"40":0.030398113578512388,"41":-0.11031079258498926,"42":-0.1458164650407839,"43":-0.28005147497757804,"44":-0.12288079104697021,"45":-0.20903804381370342,"46":0.12960404430614814,"47":-0.12209290417758742,"48":0.043567213911378064,"49":-0.028254906149915156,"50":-0.0713760835515939,"51":-0.0515235194445004,"52":-0.0643957410295466,"53":0.02051623934325008,"54":-0.08855705193844107,"55":-0.1960809642520298,"56":-0.10082606442971866,"57":-0.19991610121907694,"58":-0.11911934725500174,"59":-0.07697385923307135,"60":0.004630560845909193,"61":0.0073215232097048905,"62":0.007343246835504703,"63":-0.08310204373011726,"64":-0.024439546840015123,"65":0.04849053883903904,"66":-0.04145239550747616,"67":0.02675671207539308,"68":-0.07468482585339702,"69":0.025183421842341222,"70":0.007708082703123785,"71":-0.003998010271865924,"72":0.005962583746300948,"73":-0.07896238126577035,"74":-0.09968689001751645,"75":0.03393496889856565,"76":-0.05518849738006549,"77":-0.045906793261376644,"78":0.16252448178475407,"79":-0.12382368040099068,"80":0.03860991360328404,"81":0.022675062765513572,"82":-0.20988993155768837,"83":-0.11081893373827915,"84":-0.1679279064254206,"85":-0.05537774105391771,"86":0.0512993282277562,"87":-0.06793343980800451,"88":0.0025787660735910422,"89":-0.17952534194891726,"90":-0.19213823920793327,"91":-0.1069085646713696,"92":0.014485356890528864,"93":0.0720027582830315,"94":-0.04717639769393645,"95":-0.06169281840006243,"96":0.06418778770089156,"97":0.020968950413602288,"98":-0.08077041593398979,"99":-0.043360703253483415,"100":-0.024526875700899273,"101":0.059945635399373094,"102":0.09498639486732173,"103":-0.13283563317462274,"104":0.0072822204153235445,"105":-0.010381423541357522,"106":-0.1569774507088099,"107":-0.032621649763661116,"108":-0.1364696507844354,"109":-0.13294985032010548,"110":0.03633031403288711,"111":-0.03597491462081942,"112":0.13152784735384185,"113":0.14316631710817346,"114":-0.08004399154023209,"115":-0.09482889552400628,"116":0.04049738263357175,"117":-0.008228672447909768,"118":-0.023343709326918045,"119":0.039056605054789806,"120":-0.00013544339165363559,"121":-0.16636395983832114,"122":-0.03555688535972425,"123":-0.05215319451408558,"124":-0.07241938611148381,"125":0.023732218003558618,"126":0.04647677838387036,"127":-0.028183555724241374,"128":-0.07843595811679731,"129":0.056433324613560466,"130":-0.10138101370371327,"131":-0.10256675743927314,"132":-0.07287745356588965,"133":0.08834482213136058,"134":0.048087510699961936,"135":0.054156362860268974,"136":0.06270822578180733,"137":-0.2286729728853016,"138":-0.018060496508613827,"139":-0.04049158711145709,"140":-0.055313917638197575,"141":-0.05020801800184896,"142":0.21115053044559362,"143":-0.10160609845265645,"144":0.05927224079037473,"145":0.027841105506545998,"146":-0.04000642928708142,"147":-0.151183042237695,"148":-0.0659570701414355,"149":0.004922339435156449,"150":-0.03024665586459931,"151":-0.007899042634038182,"152":0.02698631554584259,"153":-0.0821531569744214,"154":-0.1493482752593302,"155":-0.03261588342829294,"156":-0.04434216372138731,"157":-0.06772138061805547,"158":0.01926169579759933,"159":-0.05034923489639805,"160":-0.07362162882659926,"161":-0.056367208903436716,"162":0.03903168177168886,"163":-0.013760434409695294,"164":0.13171458163855257,"165":-0.020646553248737473,"166":-0.07975405276141762,"167":-0.0690612926687125,"168":0.00502584695183301,"169":-0.20020530120875157,"170":0.14728040331609116,"171":0.026508531030612657,"172":-0.011701980535491532,"173":-0.10535965783692094,"174":-0.0023877610114489945,"175":-0.042880390597352144,"176":0.037223699404373506,"177":-0.023787762724996605,"178":-0.008550568790404531,"179":0.00549285735806424,"180":0.1527597106007545,"181":-0.013053600173362562,"182":0.0016108791887502203,"183":0.13124764900597174,"184":0.08408167713797081,"185":-0.10102295459838521,"186":0.19043727118647225,"187":0.15807174202272792,"188":-0.029032939359211203,"189":-0.04956232034433948,"190":0.07106812798084304,"191":-0.000314212302211723,"192":0.013523217285990709,"193":-0.029291636767381016,"194":0.0764941325425913,"195":-0.05449355249350556,"196":0.19294155904016339,"197":0.06872731204513327,"198":-0.05511516120440396,"199":-0.0001435789820075778,"200":-0.03878561877874836,"201":-0.02782533865308748,"202":0.21095990669535733,"203":0.04681526734138117,"204":-0.1521029645006954,"205":-0.04107331372603101,"206":0.15587101832127478,"207":-0.08483309834532045,"208":-0.20204235762971656,"209":-0.14014533168717563,"210":0.09515304481434722,"211":0.0009109130672915278,"212":0.06447315956415847,"213":-0.05009454518770819,"214":-0.037800198119657194,"215":0.011282348271139525,"216":-0.002858295843841652,"217":-0.04428365198912776,"218":0.15424294533331911,"219":0.07678745553964933,"220":0.018682862811555654,"221":0.030736487334552236,"222":-0.07646500055756536,"223":-0.012550308497473692,"224":-0.058023686262747676,"225":-0.02083420182501391,"226":-0.025665243052920637,"227":-0.10698394142769359,"228":0.06660605469930413,"229":0.008847006051210467,"230":-0.059490172610573995,"231":-0.0175590721231836,"232":-0.09513122404550442,"233":-0.01670558775795328,"234":0.020250850234736675,"235":0.12624952408483833,"236":-0.05548165837956674,"237":-0.10981920908862905,"238":-0.02081122951239271,"239":-0.01225415652466184,"240":-0.05799508926235525,"241":-0.07435047437175187,"242":-0.05529393355190749,"243":0.027300247603703358,"244":0.11305858679939251,"245":-0.07539152567141857,"246":-0.029026492810239682,"247":-0.1506641059849413,"248":-0.07903886440914837,"249":-0.13262117241527083,"250":-0.22773446961726504,"251":-0.05681589227516914,"252":-0.014030006395082702,"253":-0.12087430285176262,"254":-0.044579698861380655,"255":-0.10099093098778957,"256":-0.10663297143052258,"257":-0.10444589306511352,"258":0.027180347590407525,"259":-0.045444094028740264,"260":0.08818058541384426,"261":-0.11699774851925325,"262":0.04392286262318467,"263":0.00021240810828857882,"264":0.06959464643494137,"265":-0.036344428481705084,"266":-0.05075573774537061,"267":0.014255561691348062,"268":-0.014073843553465401,"269":-0.06764215004528251,"270":0.04934768470609467,"271":-0.15219670508750005,"272":-0.1881256391097435,"273":0.06018131740879297,"274":-0.01503414468154463,"275":-0.06966813789181278,"276":0.054118367687993454,"277":0.026518025522797195,"278":0.011641004180300056,"279":0.16295658289163356,"280":-0.011831772693744297,"281":0.03845085081206811,"282":-0.0624037327853818,"283":-0.10768640811454966,"284":-0.13598722874092772,"285":-0.06512072858672523,"286":0.06250207613625662,"287":-0.1155875679539279,"288":-0.16940054824724057,"289":-0.020356585508067772,"290":0.09552603867276203,"291":-0.014132700896423664,"292":-0.04290863956231405,"293":-0.13958587920952603,"294":-0.012781990699928235,"295":-0.013782813708544228,"296":-0.030122436973765983,"297":-0.0033832109981131882,"298":-0.09655241926610421,"299":-0.20783931360071478,"300":0.020260208699094926,"301":-0.0033267506643018642,"302":0.011785476367983853,"303":-0.1110474471937971,"304":-0.23850781625751546,"305":0.01948102424051236,"306":-0.0007847908697579788,"307":0.013603171269960166,"308":0.03928248050425993,"309":0.07854560066203285,"310":-0.005912393311119045,"311":0.038676259731935766,"312":-0.1116284894369118,"313":-0.062091228006726555,"314":-0.0807900422188825,"315":0.00860860371890593,"316":-0.01457615103898584,"317":-0.09882667622178479,"318":0.06893829864688822,"319":-0.05040639640250017,"320":0.13443105196726562,"321":0.026868260184260022,"322":-0.15722063972698186,"323":-0.10538078267765494,"324":-0.06508799668744172,"325":-0.049789591787643424,"326":0.09342822185433204,"327":-0.18874239682483782,"328":-0.08570095616686095,"329":-0.13168673376719825,"330":-0.18557316214793484,"331":-0.06360597666996208,"332":-0.1501437716241911,"333":-0.07880487018936215,"334":0.0614146538870702,"335":0.0575581784080045,"336":0.14220865198960841,"337":-0.06109292888479657,"338":-0.013927220277224272,"339":0.07019495065077846,"340":-0.16031687773387793,"341":-0.13997640759026633,"342":-0.03991800920673683,"343":-0.14671652806678767,"344":-0.06532983823463748,"345":-0.183201874157808,"346":-0.27038525162291716,"347":-0.05456572027896453,"348":-0.05332120355194232,"349":-0.08053140999196595,"350":-0.012014722066538674,"351":0.056383059780687514,"352":0.1587119263348023,"353":0.03653940426164499,"354":-0.10056579239193653,"355":0.012765408911800556,"356":-0.11011654463612824,"357":-0.18785450150124616,"358":-0.052661438204953094,"359":-0.0076054531483164935,"360":-0.16990018362491918,"361":-0.06036395442515802,"362":-0.20916547015765666,"363":-0.10786226335434818,"364":-0.020350807908997206,"365":-0.06996021228477574,"366":-0.02601005934114132,"367":-0.12785626860082833,"368":0.13396737629465685,"369":-0.0157368352800633,"370":-0.11841839209293684,"371":-0.09042597050462069,"372":-0.2259896660544178,"373":-0.12910499848184157,"374":-0.006992526511469895,"375":-0.1156584072059139,"376":-0.09956637501577924,"377":-0.15809384689179828,"378":-0.198771748507641,"379":-0.1839687661483112,"380":-0.09324972167338394,"381":-0.08042111435623514,"382":0.013453388151458783,"383":-0.11276017932148061,"384":0.15788139550144917,"385":0.03795812406583398,"386":0.029154241125133568,"387":-0.06015103277442599,"388":0.054101654684400126,"389":-0.11672817817259631,"390":0.009254069892420842,"391":-0.05311438976909233,"392":-0.259347160368185,"393":-0.2502288441139619,"394":-0.19368078435524932,"395":0.011640500987959355,"396":-0.10194055618867107,"397":-0.07993727822278876,"398":-0.07303147926687309,"399":-0.044282461865559404}},{"sx":5,"sy":5,"depth":16,"w":{"0":-0.1834845159349697,"1":0.11840940229790572,"2":0.018740777998201064,"3":-0.06329094211015174,"4":-0.025380572754070862,"5":-0.19389018570839647,"6":0.18210534707877343,"7":0.11542409061040539,"8":0.07316798108146658,"9":-0.1659066043019953,"10":0.11006845756756703,"11":0.011122574889518483,"12":0.021523975818993873,"13":0.14486119141107026,"14":0.032130506768524796,"15":0.08440187612040406,"16":-0.26516094093697656,"17":0.08420560663827027,"18":0.18953427967107528,"19":0.2087614842183753,"20":0.02631846310181296,"21":-0.27804612456654093,"22":0.21056705559225738,"23":-0.291617106675973,"24":-0.04558235414840471,"25":0.1202704577728801,"26":0.12864837273542556,"27":-0.1585517960618306,"28":-0.04255542221967653,"29":0.14047764246661845,"30":-0.13939867769883485,"31":0.191129509160647,"32":-0.24978616719215352,"33":0.03509457794259992,"34":0.05943775540383838,"35":0.03639227031761951,"36":0.04293558404647086,"37":0.06843314343428976,"38":0.006967541132235599,"39":-0.15142869815758092,"40":-0.05118959417738183,"41":0.08013834086359241,"42":0.11012772028073876,"43":0.009434123277527056,"44":-0.14624204866597965,"45":-0.07880639714816991,"46":-0.1526049668397637,"47":0.04568528601784888,"48":-0.013600349149887857,"49":0.009831635863519558,"50":-0.027342698277675395,"51":0.22403878504773075,"52":0.10884992332379347,"53":-0.22034333105951628,"54":0.039321848385816996,"55":-0.07975391223463774,"56":0.20805701568872473,"57":0.009769775287046761,"58":0.18292948691033353,"59":0.1256649206599836,"60":-0.23407270709544437,"61":0.03268386336038913,"62":0.036278577898100454,"63":0.09822769463786434,"64":-0.057493982795278696,"65":-0.09047629856079009,"66":-0.1427155693612425,"67":-0.08250075299754737,"68":0.18764586576944076,"69":0.25790640721108193,"70":-0.09903468098772446,"71":0.11376699998677466,"72":0.22753025750642106,"73":0.003346377289274126,"74":0.1198865445542559,"75":0.14014610434800515,"76":0.051622356947102814,"77":0.06121754519274701,"78":0.22574462746948956,"79":0.06384897876521115,"80":-0.06415610627036447,"81":-0.11209793246243747,"82":-0.031249526638829832,"83":-0.03775016258172185,"84":-0.13447249392009936,"85":-0.1479854406691509,"86":0.019510332307732938,"87":-0.0490629368400099,"88":0.03157358645402571,"89":-0.14632532516917873,"90":0.05809429828854614,"91":-0.21118846999420782,"92":-0.016206466058536546,"93":-0.007350625345953348,"94":0.14347089015225176,"95":0.0895994595703245,"96":-0.02857330410785553,"97":0.08543831165981282,"98":-0.13233165960633042,"99":-0.1275721657769165,"100":-0.05197109045626617,"101":-0.2825512212573173,"102":-0.03982699604150208,"103":-0.316140587077797,"104":-0.3173105253535604,"105":-0.10126618551737489,"106":0.05052274696401667,"107":-0.15052583061735741,"108":-0.06198705775492411,"109":0.04874990396170161,"110":-0.09247401686031184,"111":0.07241948038954334,"112":-0.13004351223279723,"113":-0.08108768430767249,"114":-0.04700918324597651,"115":-0.03686187644025422,"116":-0.07135627352608186,"117":-0.06649400678773108,"118":0.05304648926398542,"119":-0.22196656029978457,"120":-0.23383289423950562,"121":-0.004020424598429148,"122":-0.01564352434752008,"123":0.04405159912212385,"124":-0.16427933538386377,"125":0.002946497759951806,"126":-0.003999402609843874,"127":0.09107103939043501,"128":0.04122011614219739,"129":0.012860739999919032,"130":0.16483971244634008,"131":0.05205490519467598,"132":-0.015224861331671821,"133":-0.3076818984857588,"134":-0.043319061208619725,"135":-0.20044861873453,"136":0.043474089658786665,"137":0.15678323390346272,"138":-0.018063585737589486,"139":-0.014410257928445141,"140":0.013368617681051038,"141":0.14402277027939497,"142":-0.020818967604350876,"143":0.011455944162062762,"144":0.1326716501891493,"145":-0.06984004422404143,"146":-0.06555668412484267,"147":-0.13730877571236544,"148":0.1732914213885023,"149":0.3095806768701142,"150":-0.08763288818118556,"151":0.07636618048741942,"152":-0.08753762538655621,"153":0.08488368545394843,"154":0.15877546547435545,"155":0.26779999532177995,"156":0.0038882802831407986,"157":-0.008741034340915626,"158":0.12650455749035688,