{"layers":[{"out_depth":3,"out_sx":32,"out_sy":32,"layer_type":"input"},{"sx":3,"sy":3,"stride":1,"in_depth":3,"out_depth":20,"out_sx":34,"out_sy":34,"layer_type":"conv","l1_decay_mul":0,"l2_decay_mul":1,"pad":2,"filters":[{"sx":3,"sy":3,"depth":3,"w":{"0":-0.29052523939739544,"1":-0.19859587691579483,"2":-0.10183692565759046,"3":-0.3465165587725717,"4":0.2641336206327839,"5":-0.0768960262238103,"6":-0.2806916955241561,"7":0.06849387982991119,"8":0.11706715292359855,"9":0.3144299658252259,"10":0.06836917322516516,"11":-0.22649721742257264,"12":0.2672998263028788,"13":0.1330829361415252,"14":-0.05896037973056321,"15":0.31123395124272746,"16":-0.29578321470214897,"17":0.06517617452187208,"18":0.19499501755407977,"19":-0.32319103688243916,"20":0.06607569247113622,"21":-0.34672986696720604,"22":0.007965894221802432,"23":0.0321542694939487,"24":-0.031377670815091775,"25":-0.3522976676944374,"26":-0.11273116053192807}},{"sx":3,"sy":3,"depth":3,"w":{"0":-0.0007547047959450316,"1":0.05858452894154629,"2":0.0883814279852398,"3":-0.3943107825567494,"4":0.3897713751018177,"5":-0.2636354512307888,"6":0.009845643740916052,"7":0.08862030784473836,"8":0.29307244202969684,"9":-0.13834156796318908,"10":0.15717210073158785,"11":0.30058935509377044,"12":-0.02843037384300677,"13":-0.1215646275495519,"14":-0.12448774019695666,"15":0.12661318793038615,"16":0.2316842307366887,"17":0.4538296880362702,"18":0.26106018126413993,"19":0.19616774338928641,"20":0.33496769068134713,"21":0.011032457645475002,"22":-0.3586831222304109,"23":0.19418027027699822,"24":-0.26429584544118473,"25":-0.20398647953502738,"26":-0.1485185374957316}},{"sx":3,"sy":3,"depth":3,"w":{"0":-0.01669587300757143,"1":0.11326162344110036,"2":0.07770516601770734,"3":0.18759572753813272,"4":-0.3883160327049597,"5":-0.05995505246156382,"6":-0.02816115427345079,"7":0.12270648380176012,"8":-0.06059428607847129,"9":-0.02426517332757642,"10":0.4121256304113255,"11":0.18794300288017943,"12":0.2967257841512182,"13":0.03999891213317787,"14":0.24622842904607456,"15":-0.02461945459836096,"16":-0.07060361983571864,"17":0.20076258232419678,"18":-0.19699301576580314,"19":-0.12562197959665597,"20":-0.45320196532110346,"21":-0.11161115822726662,"22":-0.408601191357557,"23":-0.5258819541917219,"24":-0.5649344211346461,"25":-0.173512210589844,"26":-0.011849477034757893}},{"sx":3,"sy":3,"depth":3,"w":{"0":0.22056272502785051,"1":0.23395458036919917,"2":0.2967247944204428,"3":-0.06397490086196332,"4":-0.16016943058274283,"5":-0.08701843322260347,"6":-0.15853018137106772,"7":-0.4566596662129383,"8":-0.3145560212339489,"9":-0.04933534548066296,"10":0.21453058313537407,"11":-0.22635392440827096,"12":-0.5067008879023268,"13":-0.5285281302513914,"14":-0.5166197661536664,"15":0.47831756928504954,"16":0.09007336588545721,"17":0.4479109521392933,"18":-0.46295768433306894,"19":-0.35156241276489675,"20":-0.44727899433812607,"21":0.4553456817949607,"22":0.6474511206531116,"23":0.08125629693348392,"24":1.0956289716615573,"25":0.7901126345344397,"26":0.5578002946889538}},{"sx":3,"sy":3,"depth":3,"w":{"0":-0.19067256181665126,"1":-0.15311716581626253,"2":0.29742491196263515,"3":0.01944358808977344,"4":-0.18124722430541426,"5":-0.0561388721613532,"6":-0.12320359839284302,"7":-0.03779398120220719,"8":-0.04172379453537424,"9":0.13705681720873217,"10":-0.008561819370961858,"11":0.13844524715852474,"12":0.07614717672646715,"13":-0.1868965159686042,"14":0.25223909116016474,"15":-0.012095321513654484,"16":0.1160484218376485,"17":0.002400557488858095,"18":-0.2091278045592447,"19":0.2130932575467499,"20":0.06511165650070336,"21":0.3008810146326068,"22":-0.40723912807276985,"23":-0.03407838143008112,"24":0.21794315277683693,"25":-0.029184458681841358,"26":-0.20760070023438115}},{"sx":3,"sy":3,"depth":3,"w":{"0":-0.302615258115234,"1":0.049857470451303336,"2":-0.04074342882317848,"3":0.06547459475237806,"4":0.16297929067618355,"5":-0.0635162347458265,"6":-0.13791286112999696,"7":-0.15067215004186982,"8":-0.1632511683780327,"9":0.05127255245293504,"10":0.12055505748205352,"11":0.07215390411274022,"12":-0.039398744838732506,"13":0.1016072864369269,"14":-0.11986842887951925,"15":-0.06668188525998583,"16":0.3819999978651541,"17":-0.12136819455735465,"18":-0.4866175679905515,"19":-0.020091508963220855,"20":0.018508575186374655,"21":-0.515737824478578,"22":-0.31177645103815754,"23":0.10114981931637511,"24":-0.06824247832894094,"25":-0.3714128690192194,"26":-0.059810398221996706}},{"sx":3,"sy":3,"depth":3,"w":{"0":0.17626633850965298,"1":0.0546109241074498,"2":0.1633922502913566,"3":0.1391650775212668,"4":-0.09738168758194883,"5":0.010670611329062352,"6":-0.4475253852721506,"7":0.17487537448535007,"8":0.19796961756596332,"9":-0.0646998743820102,"10":-0.16142563950011257,"11":-0.1584059930686076,"12":-0.025089277066227197,"13":0.344136525836276,"14":-0.14727294056347945,"15":0.43671995858310264,"16":-0.06738031823292508,"17":0.11586148024329683,"18":-0.6256912740227988,"19":-0.4361214779164935,"20":-0.20328335093767197,"21":0.05083090298062581,"22":0.3477223561152613,"23":0.4181987890943981,"24":0.1736993968903929,"25":-0.02612336522854794,"26":-0.07490475959462363}},{"sx":3,"sy":3,"depth":3,"w":{"0":-0.4450590689889591,"1":-0.4639393278011921,"2":-0.35150016070073853,"3":-0.4743138786745394,"4":-0.5737039222150695,"5":-0.07731601180650981,"6":-0.5621364829299471,"7":-0.2418536389655734,"8":-0.0355661451424896,"9":0.009699812036400753,"10":0.13202633647331868,"11":-0.24922323850087838,"12":0.06881621651123321,"13":0.5989947508892338,"14":0.09285179573126583,"15":0.14571184161873715,"16":0.20577561531874983,"17":-0.013998545463332648,"18":-0.004993138739894375,"19":0.587282960717008,"20":0.5052423815666918,"21":0.16768352606587278,"22":0.0045236624303297765,"23":0.4184758478662987,"24":0.33764362569188405,"25":0.25091393041954196,"26":0.4643380482306835}},{"sx":3,"sy":3,"depth":3,"w":{"0":-0.030667405962799172,"1":-0.21387886664330683,"2":-0.4835352499169521,"3":-0.24325075444910055,"4":0.5684322635286151,"5":0.044528345929098684,"6":0.3794074851543304,"7":0.5144512486005496,"8":-0.1329636956672037,"9":-0.19069685168349515,"10":-0.11255124781576833,"11":0.08955451350596015,"12":0.06363939797085906,"13":0.015979235597529985,"14":-0.10605838897100275,"15":0.07312266142586367,"16":-0.09364139033237041,"17":-0.1137401361679101,"18":-0.12118953368629876,"19":-0.11716662718784412,"20":0.14863529118467889,"21":-0.07258814075436328,"22":0.07532315729515966,"23":-0.15842469985302532,"24":-0.0027661958623343467,"25":-0.5511526215331852,"26":-0.38456267553650453}},{"sx":3,"sy":3,"depth":3,"w":{"0":0.05696343306974311,"1":-0.10858021959388876,"2":0.21508925891694936,"3":0.13986861349797006,"4":0.1053460231642983,"5":-0.40075854031236124,"6":-0.029230848339183973,"7":0.10043324856530045,"8":-0.028145130359137648,"9":0.042799586562545525,"10":0.1512306833426681,"11":-0.10034753855508768,"12":0.0661948969236879,"13":0.37989087948939604,"14":0.1806327347632177,"15":0.20035679991625668,"16":0.2749898985918693,"17":-0.13100135518400302,"18":0.0023516333405921965,"19":-0.05133793393588909,"20":-0.10982226612581084,"21":-0.10438844515638855,"22":0.4148787741812493,"23":-0.211281533744722,"24":-0.030895621690631567,"25":0.02142962699153776,"26":-0.0037714896640792927}},{"sx":3,"sy":3,"depth":3,"w":{"0":0.57878315567266,"1":0.6168569476453692,"2":0.5532283101605108,"3":0.028523982064630943,"4":0.30414415547575757,"5":0.055299560051357964,"6":-0.3126375711719969,"7":0.004706769906247498,"8":0.04517302903826578,"9":-0.04015812382355524,"10":-0.5131824281220556,"11":-0.13835727850554028,"12":-0.515702842621851,"13":-0.21995750664013036,"14":-0.43249804748465753,"15":0.009124722333339124,"16":-0.027616153883158634,"17":0.04832287935380891,"18":-0.32606145336788295,"19":-0.4445545021798601,"20":-0.20845399964889594,"21":0.2634308340283165,"22":0.2243003563935894,"23":0.1061010825857516,"24":0.30201114432641524,"25":-0.03286985544199502,"26":-0.09171022572355998}},{"sx":3,"sy":3,"depth":3,"w":{"0":-0.14232640156493165,"1":-0.014730845994484794,"2":0.42033823102536294,"3":-0.2963109226484827,"4":-0.41004592908860626,"5":-0.4860369595677871,"6":-0.17685930258344254,"7":0.13949930803759314,"8":0.440516650635476,"9":-0.6368601894218625,"10":-0.34411471877083255,"11":-0.28311971748387643,"12":-0.022473833083213716,"13":0.15198084931275213,"14":-0.11937285943197147,"15":0.13664248889061298,"16":0.7381492449620912,"17":0.1216804084845908,"18":-0.1772647281407187,"19":-0.12647504290026065,"20":0.10201228140289888,"21":0.21400087950560706,"22":0.2797231496734103,"23":0.11343117844496683,"24":-0.07495837850452472,"25":0.39954699779244585,"26":0.11498681252598347}},{"sx":3,"sy":3,"depth":3,"w":{"0":-0.20097995631410326,"1":0.02070489091309074,"2":0.2728566620216657,"3":0.19316380941359615,"4":0.5184767321947664,"5":0.5816903316746111,"6":0.18639578143935287,"7":-0.48338990378468555,"8":0.5483977603315396,"9":0.40578601990078234,"10":-0.13989931396256736,"11":0.5148058013308124,"12":0.09643171617391036,"13":-0.11044275976331305,"14":0.08663863763172984,"15":-0.28325544365040967,"16":-0.35944569029894097,"17":-0.37823585952588584,"18":-0.4933162567630975,"19":-0.225572936124692,"20":-0.5255827341564988,"21":-0.4840522754165257,"22":-0.2595789557557174,"23":-0.587398142333007,"24":0.4312908486903778,"25":-0.17766731178740927,"26":0.20014590598555854}},{"sx":3,"sy":3,"depth":3,"w":{"0":0.45802679671752966,"1":0.46700476768914834,"2":0.5940704192638538,"3":0.16492309792677448,"4":-0.2878974020635775,"5":-0.013767629929110944,"6":-0.7508319700089288,"7":-0.17448705837329484,"8":-0.2369214934651918,"9":-0.2190155411962178,"10":0.08970257388832678,"11":-0.3305325327980782,"12":-0.1686617371599801,"13":-0.26023175727937803,"14":-0.09130675207112611,"15":0.25958276542290465,"16":0.4179345438033998,"17":0.4147775169560546,"18":0.008707245963746274,"19":-0.19801729301929788,"20":-0.349384084759521,"21":0.1546755529268923,"22":0.3623155586622084,"23":0.24152574009249944,"24":0.33970649459909097,"25":0.04614831385835378,"26":0.15287806276893567}},{"sx":3,"sy":3,"depth":3,"w":{"0":0.2662114983124388,"1":0.7256426188713793,"2":0.07476757820555219,"3":-0.0462833267100285,"4":0.010186274770725182,"5":-0.2042960829635401,"6":-0.031824367749958414,"7":-0.21808592390889556,"8":-0.05102836568637103,"9":-0.02185498126017681,"10":-0.004522508275326961,"11":-0.16584440858052996,"12":-0.40447244405034954,"13":-0.05310834325451306,"14":-0.4445695847380236,"15":0.22348076870498912,"16":0.06106515376996353,"17":-0.23565502650615386,"18":-0.19004455031754625,"19":-0.027852523052790238,"20":0.0997867354564752,"21":0.15259228181402912,"22":0.08510596980720213,"23":-0.023657427577789887,"24":-0.08257409032962112,"25":-0.37506837820096234,"26":-0.1789733615696156}},{"sx":3,"sy":3,"depth":3,"w":{"0":-0.0963633342608293,"1":0.019075480777284604,"2":0.030146856424406746,"3":0.1836883367762073,"4":0.22051395531555992,"5":-0.018019520288082364,"6":0.005588939620063392,"7":0.2458253134228197,"8":0.08758948601903713,"9":0.08338337426365305,"10":-0.17937829295298582,"11":-0.18334508643985056,"12":0.28929125939814765,"13":0.1855343077679147,"14":0.26898407896460585,"15":0.10189403934815279,"16":0.09541916454943447,"17":0.35107324715938787,"18":-0.12565023417520912,"19":0.24504572189262946,"20":-0.4674871653362418,"21":0.026230167546131094,"22":-0.027635762055833877,"23":0.30435542925055986,"24":-0.000860647419724563,"25":0.495756775576089,"26":0.0663471185179211}},{"sx":3,"sy":3,"depth":3,"w":{"0":-0.23290134439640175,"1":0.0824763708027457,"2":-0.38270423929311237,"3":-0.2670099327997473,"4":-0.2806009820883775,"5":-0.11530633247779597,"6":0.07319892221853419,"7":0.04578885946542042,"8":-0.2426140496445679,"9":0.02668477502053386,"10":-0.15046778879858827,"11":0.2326282424456273,"12":-0.16925174925507716,"13":-0.22876866714917715,"14":-0.3279654910626968,"15":-0.14922696375582895,"16":-0.03903275393032747,"17":0.10542846993363661,"18":-0.07743902213613318,"19":-0.1636076600952628,"20":0.3193369122316159,"21":0.03555325354569168,"22":0.32053257245472405,"23":-0.25697303299008295,"24":-0.06902339841763737,"25":0.05091670128958459,"26":0.08836084300635942}},{"sx":3,"sy":3,"depth":3,"w":{"0":0.5016041010090104,"1":0.2624329586438652,"2":0.20776023863891033,"3":0.31412824217851903,"4":0.3948095709270374,"5":0.12036910793418529,"6":-0.34217448544261947,"7":-0.7553471884450296,"8":-0.7324958258270533,"9":0.5506768432904854,"10":0.19556688042394985,"11":0.19396730539454013,"12":-0.31687477399246106,"13":-0.21187935836204097,"14":-0.2935610666683125,"15":-0.071272140276263,"16":0.05164621314427536,"17":-0.13184208643754175,"18":-0.02245797230494712,"19":0.25385386420639483,"20":0.04516882983263984,"21":-0.3258686895312607,"22":-0.16916001906383785,"23":-0.157144915767089,"24":-0.2608627433842059,"25":0.10953081826258061,"26":0.27700572372940946}},{"sx":3,"sy":3,"depth":3,"w":{"0":-0.2546336189857407,"1":-0.08438462341882474,"2":0.18174710638559702,"3":0.27644019753984816,"4":0.03484116137690827,"5":0.11996916990123722,"6":-0.46376622414928004,"7":-0.10892098508215907,"8":-0.19838878306423807,"9":0.09666455072991025,"10":-0.04221692225922031,"11":0.10798510449162835,"12":0.31834833248897193,"13":0.41061703806591154,"14":0.1585774387838106,"15":-0.2521928635768294,"16":-0.07366600321376233,"17":-0.2712409052762228,"18":-0.11759339335609365,"19":-0.05308549618084793,"20":-0.013456655480179462,"21":0.09292688516104662,"22":0.12750449988093918,"23":0.4013778365774032,"24":-0.7479525958143546,"25":-0.27515843825293856,"26":-0.693905508089679}},{"sx":3,"sy":3,"depth":3,"w":{"0":-0.048766547288475064,"1":-0.08853451829542704,"2":0.11294434064613615,"3":-0.1215404074998681,"4":-0.24890361005672093,"5":0.22107198596514052,"6":-0.1315311727525756,"7":-0.05588992908698396,"8":-0.13771446063331003,"9":-0.12694351468889456,"10":-0.09776395300011104,"11":0.24284340511015026,"12":-0.24838092071043982,"13":0.07275835771334362,"14":-0.008471739034907897,"15":-0.41545015194654517,"16":-0.17496269868773823,"17":0.23634869869946185,"18":0.03575329726060289,"19":0.1864955949341726,"20":0.016571048068426887,"21":-0.33787060785241885,"22":-0.21138450545484344,"23":-0.28892488597378146,"24":-0.03378485202134181,"25":-0.6046297007473096,"26":-0.3342399994700892}}],"biases":{"sx":1,"sy":1,"depth":20,"w":{"0":-0.11526214269153864,"1":-0.20127544938812103,"2":0.5739822668731631,"3":-0.5261355035770291,"4":-0.7817852534823959,"5":0.06260668533439953,"6":-0.4521098176781595,"7":-0.13035174397300264,"8":0.556964485793452,"9":-0.8636811252703007,"10":-0.0163208903213706,"11":-0.19252356202535054,"12":0.29921052797922104,"13":-0.20627347208689698,"14":0.42448517520382073,"15":-0.5768454222926337,"16":0.3989397646492591,"17":0.14594645145193458,"18":0.5583761561927668,"19":0.07406837362553334}}},{"out_depth":20,"out_sx":34,"out_sy":34,"layer_type":"relu"},{"sx":2,"sy":2,"stride":2,"in_depth":20,"out_depth":20,"out_sx":17,"out_sy":17,"layer_type":"pool","pad":0},{"sx":3,"sy":3,"stride":1,"in_depth":20,"out_depth":24,"out_sx":19,"out_sy":19,"layer_type":"conv","l1_decay_mul":0,"l2_decay_mul":1,"pad":2,"filters":[{"sx":3,"sy":3,"depth":20,"w":{"0":-0.015031919507667663,"1":-0.03525529377352135,"2":0.062813036941658,"3":-0.10741100969403362,"4":0.23584032547722658,"5":0.02740302331064168,"6":0.10107890884205736,"7":-0.0633978690006778,"8":0.031837267285557316,"9":0.059569858960533933,"10":0.020014466211754157,"11":-0.04457855545487878,"12":0.09005524968074005,"13":-0.11202158047126658,"14":0.01338190105173172,"15":-0.012779137142212215,"16":-0.07902099807610756,"17":-0.14952892899180106,"18":-0.0825987831258129,"19":0.0065825848574149375,"20":0.0573408582449264,"21":0.09286989264682344,"22":0.04612204493402871,"23":-0.08059347956803924,"24":-0.1615688697860357,"25":-0.029509756967044838,"26":-0.10542363993529323,"27":-0.15553685867673991,"28":-0.1191719219627941,"29":0.011913280906447133,"30":0.21827807299023202,"31":0.023674636267710863,"32":0.12568907414240257,"33":0.039036469529346425,"34":0.09564721545317077,"35":-0.022586227263100955,"36":-0.03375751612899881,"37":0.1741378986675568,"38":0.12992661442041484,"39":-0.07230931972293468,"40":-0.018892360156866732,"41":0.009613147172259194,"42":0.008462511325618214,"43":-0.13417302537874118,"44":0.05212822376900708,"45":0.05072280668429257,"46":-0.05884578590743885,"47":0.01597595545759334,"48":-0.018508387968338223,"49":-0.03559638418858816,"50":-0.009514783331527811,"51":0.017098500932541123,"52":0.08587384746590473,"53":-0.02425915476774584,"54":0.0021927507352339642,"55":-0.00877356531913047,"56":0.00994954439498402,"57":0.006347813950925642,"58":0.09791723261812586,"59":-0.17742746608976523,"60":-0.07713985096291841,"61":-0.017654107383227886,"62":-0.05234305303745496,"63":-0.20164719918579435,"64":-0.10425224237641267,"65":0.11646540100232525,"66":-0.10562769122960344,"67":-0.17673236349192845,"68":-0.008661642726679191,"69":-0.023522403567633136,"70":0.2238979643338372,"71":-0.1691601057877004,"72":0.18718379566205906,"73":0.03548621507228483,"74":0.035973533906692404,"75":-0.12706367009380093,"76":-0.01348620231801465,"77":0.13230057808254445,"78":-0.03141029815659239,"79":-0.13184760333677778,"80":0.02180102392115904,"81":-0.0015943446899440515,"82":-0.016458140567765237,"83":-0.24464629355607923,"84":0.05712121087637751,"85":0.028929587890225813,"86":-0.15066950263731801,"87":0.07371456099897299,"88":0.060858498121823416,"89":-0.14024156131677684,"90":0.1044337699261769,"91":-0.0046864823776895,"92":-0.1326327583988883,"93":-0.08755342290132047,"94":-0.14981082059027812,"95":-0.12971237491420273,"96":-0.03653948767748867,"97":-0.1320884877538653,"98":-0.13550362142424552,"99":-0.16522628504158193,"100":0.049581826765377944,"101":-0.1473844803868718,"102":0.10374327514101794,"103":0.02679062842837051,"104":-0.07558916811438494,"105":-0.03297408706200776,"106":-0.16086083518190697,"107":-0.16746324386060393,"108":0.03722016222413159,"109":-0.15975233613425222,"110":0.03369255586530397,"111":-0.09735479413416018,"112":0.05309505757398488,"113":-0.12226883628157942,"114":-0.06556103750468176,"115":-0.05098332991480337,"116":0.0503482205363192,"117":0.0823693563940246,"118":0.10051955480273736,"119":-0.02120045921416989,"120":0.004095287144510535,"121":-0.04815822275166019,"122":-0.015282960866560965,"123":-0.19262205552132683,"124":-0.024210139864085524,"125":0.058727912409211554,"126":-0.19716671035385924,"127":-0.03981853824614058,"128":0.027280142552767492,"129":-0.06218138148462956,"130":0.04096477407849514,"131":0.04262070561360006,"132":-0.047662440760864185,"133":-0.049286185936616225,"134":-0.05203044429533087,"135":-0.004803233650242931,"136":-0.13273374156468182,"137":-0.09562776294191976,"138":-0.07218666196420462,"139":-0.12831111840451492,"140":-0.08901721658663259,"141":-0.05002626425938345,"142":-0.12352904857541018,"143":-0.2172035935931885,"144":-0.1321294467867464,"145":-0.09801997826037219,"146":-0.11813880974869581,"147":-0.19423212567023831,"148":-0.011497906853966094,"149":-0.030176654129022457,"150":-0.13349223317381861,"151":-0.1587586816369434,"152":-0.1302871767170544,"153":-0.01352417954152837,"154":-0.09941813734753814,"155":-0.1336752760544599,"156":0.04657148057093393,"157":-0.029442320295808923,"158":-0.13008043863072588,"159":-0.09547984121547817,"160":0.013853249095304061,"161":-0.01245605599316465,"162":-0.03021213644431264,"163":-0.22276662626060448,"164":-0.17644705090574828,"165":-0.09529720837095033,"166":-0.022523539005797788,"167":-0.12492180703647318,"168":0.1300257619387344,"169":0.05779510949845762,"170":-0.16918826852386315,"171":-0.042486842407776615,"172":0.08526797065147668,"173":-0.1434311690694356,"174":0.1749551941005681,"175":0.04063017737348684,"176":-0.056395953988272844,"177":-0.0024359191356766972,"178":0.07558384559747368,"179":0.1423885503694471}},{"sx":3,"sy":3,"depth":20,"w":{"0":-0.08068574629633547,"1":-0.04468817963710129,"2":-0.013641722563103661,"3":-0.26338599024834697,"4":-0.21987905043276473,"5":0.039517468671371195,"6":-0.11972523426007692,"7":-0.10333123376672496,"8":0.052564254966458855,"9":-0.2757837845795717,"10":-0.035442301827292494,"11":-0.16720133928339945,"12":-0.10167745454125858,"13":0.05987140736300078,"14":0.16175297207133346,"15":-0.06636914867755533,"16":-0.12243206523945074,"17":-0.003275031998987635,"18":-0.023913592165237085,"19":0.007125554653529121,"20":-0.14838458165661167,"21":0.13301017727968695,"22":-0.0013213789222148561,"23":-0.12641626062603326,"24":-0.26436393282959064,"25":0.09447334145005105,"26":0.09198348214296746,"27":0.12978286467097364,"28":0.13902319996047927,"29":-0.22812652402887565,"30":-0.06705799644291559,"31":-0.008493833241138875,"32":0.011463865317128737,"33":-0.16135995179996976,"34":0.3126812256344203,"35":-0.007701340432869221,"36":0.15945485720694952,"37":0.1296072825686313,"38":0.22643411406712713,"39":0.27067977342737193,"40":0.0502764962689177,"41":0.17567611558336482,"42":0.1045393808895838,"43":-0.03233349919621882,"44":-0.1352549086169304,"45":0.15995205176454041,"46":-0.08885946590465997,"47":0.026901556563240395,"48":0.07870948994126219,"49":-0.2119261215195886,"50":0.18747179007455803,"51":-0.0876412550415946,"52":0.10685791605926961,"53":-0.1968698134015957,"54":0.07931893686664186,"55":-0.05785813932302011,"56":0.14951659288576924,"57":-0.008575345627924395,"58":-0.027562593165107657,"59":0.15834207331131955,"60":0.030736354035134587,"61":0.04282800851794471,"62":-0.09789500888954795,"63":-0.009007434691567543,"64":-0.0557835183177812,"65":0.14080679946653818,"66":-0.06732931662291833,"67":0.20875352371817837,"68":-0.1738704885117112,"69":-0.041196065557596674,"70":-0.0518871145672944,"71":-0.0009371134775128373,"72":-0.21580380576637925,"73":0.05046283094048618,"74":-0.1147201589507858,"75":-0.04024343656951353,"76":-0.15500142465267677,"77":-0.0148853203355507,"78":-0.17088534580890952,"79":-0.191255158534519,"80":-0.016217827467778747,"81":0.02555313380035935,"82":0.012655995951562927,"83":0.19775691310935267,"84":-0.020111089057090456,"85":-0.04451864589012761,"86":0.14228026584386377,"87":0.35560468812393187,"88":-0.19111294037942986,"89":0.13056476728649433,"90":-0.3118998710848203,"91":0.149262828714875,"92":-0.18437034536372437,"93":0.25682887224444395,"94":-0.13729198852138721,"95":0.07591256568695279,"96":-0.1297736136826318,"97":0.062149673946516285,"98":0.01046590698077912,"99":-0.14540526685174368,"100":-0.014347227497214836,"101":0.11926471508543049,"102":-0.15010407790312533,"103":0.09486189411727168,"104":-0.09997837367991491,"105":0.026460743417711746,"106":-0.14372719681605559,"107":0.4656063466261214,"108":0.06643939287843031,"109":0.055883235453239616,"110":-0.18252358713474479,"111":0.020175003472650395,"112":-0.0658174079147707,"113":-0.01237902461191485,"114":-0.03777359610050069,"115":-0.036653729328326265,"116":-0.06725003991810513,"117":-0.010296692890836508,"118":-0.16389503298566094,"119":0.04207648693569761,"120":0.018914813682535118,"121":-0.08430600560025968,"122":-0.0681522054050902,"123":-0.010098229567013929,"124":-0.09942883498717296,"125":0.07096892892694223,"126":0.011271879890237082,"127":-0.05526398988083269,"128":-0.09633354401688847,"129":0.01879481107346385,"130":-0.14704227646085788,"131":-0.03714636107287759,"132":0.04613233397351566,"133":0.0145360232738045,"134":-0.04683395743940778,"135":0.08121613998138444,"136":0.046775232589917795,"137":-0.0670292881914691,"138":-0.14327391022208935,"139":-0.05829152623924199,"140":-0.027180638060606815,"141":-0.0796686090296024,"142":-0.13597153380630148,"143":-0.13177876020358031,"144":0.03531965033964676,"145":0.17233626445874667,"146":0.19734747143289832,"147":-0.1888247495244633,"148":0.022594466148985633,"149":0.20453586997330592,"150":-0.1244372627701172,"151":-0.13303566876371922,"152":0.002001377234332551,"153":0.08038023827281397,"154":-0.279150635155636,"155":0.22097179237960593,"156":0.040942530763499234,"157":0.0026613817977158504,"158":-0.11354887874720127,"159":-0.030306191191031704,"160":0.13306004857270606,"161":-0.03304744851928592,"162":-0.05220294227243399,"163":0.005915161169514937,"164":-0.059082406442119054,"165":0.06515841797077991,"166":0.0552874292704989,"167":-0.11802121045245395,"168":-0.13381210027206486,"169":0.07685351458875607,"170":-0.02964850437906461,"171":-0.12961207221659296,"172":0.04069947751899574,"173":0.11668146433580585,"174":0.020179389117291134,"175":-0.014528665624174954,"176":-0.05422704923298883,"177":0.061290779225007794,"178":0.07374950794193603,"179":-0.043952457550244295}},{"sx":3,"sy":3,"depth":20,"w":{"0":0.024296125426124474,"1":-0.02263220078839342,"2":0.1713081659706872,"3":-0.08943979510779039,"4":0.015848340981749306,"5":-0.04145172724409994,"6":0.02411168372620998,"7":-0.10016752435348796,"8":0.07272703644475424,"9":-0.2420731691994914,"10":0.014581824526441495,"11":-0.06916883322358085,"12":-0.015391276541804059,"13":-0.02222929077468329,"14":0.05278998283951899,"15":-0.011535928476416135,"16":-0.18467699341611382,"17":-0.001883470767147141,"18":-0.0523724803102337,"19":0.1676055458508728,"20":0.10466197019807635,"21":-0.04740660781316328,"22":0.12645709518233608,"23":0.02854265315106616,"24":-0.10169781368417073,"25":0.07482932041990405,"26":0.06777465586204373,"27":0.026265324687006954,"28":0.041254027326736026,"29":-0.05352142600621927,"30":0.028075095188265196,"31":-0.06359135133682056,"32":0.17552822344935523,"33":-0.13055643962101093,"34":0.029347090006534078,"35":-0.16421976945699443,"36":-0.07143786678042398,"37":0.0010768972956471485,"38":-0.0026520766591055125,"39":0.06775260884028163,"40":0.008282404445292916,"41":-0.075714023065703,"42":0.12154751346397041,"43":-0.07274046269965939,"44":0.12220207907064669,"45":-0.013014664191135823,"46":-0.09066148270476325,"47":0.021356960238817543,"48":0.014766556068411117,"49":-0.03045959303994191,"50":-0.02116714631988429,"51":0.0336337438670782,"52":0.03438417363399051,"53":-0.03073086151628823,"54":0.08608197819390301,"55":-0.03699547733335629,"56":0.02620392355176402,"57":-0.019498380800839977,"58":0.08278156576434309,"59":0.1518206023780155,"60":-0.050806620694760156,"61":-0.09782306942373573,"62":-0.07508194265402837,"63":-0.13339477737452832,"64":0.026552426407668046,"65":-0.05871095172873156,"66":-0.045273786408831,"67":-0.11510343933275435,"68":-0.08538254211378046,"69":-0.02852905803148845,"70":-0.023415168774007098,"71":-0.04952332293066501,"72":0.12304068091765193,"73":-0.08416860279093152,"74":-0.08329577403926941,"75":-0.014377174389182954,"76":0.027367394237250754,"77":0.03756814214573819,"78":-0.078273229271795,"79":0.044350108245078276,"80":-0.03363422454952065,"81":-0.049962220792079716,"82":0.06906100758153334,"83":-0.10698122896687956,"84":-0.02798192106486733,"85":0.03720201017735172,"86":-0.1383035659621764,"87":-0.07253209419498347,"88":0.07061384133360803,"89":-0.07232374609788969,"90":-0.07666483578053349,"91":0.12780669205348621,"92":-0.055704690258635524,"93":-0.16053983882026693,"94":-0.012742716753401316,"95":-0.11539533016645338,"96":0.18604500471173968,"97":-0.09573776235519886,"98":0.07959834072829852,"99":0.11012531248101795,"100":-0.04304943318926493,"101":-0.04498165086584314,"102":0.02921491256062799,"103":-0.025101681082276023,"104":-0.18837637367614518,"105":0.045674375438506144,"106":-0.07565903936245043,"107":-0.1154349080803626,"108":0.009650739741054671,"109":-0.06416125895914339,"110":0.15956938063709866,"111":-0.05059428384069351,"112":-0.047103540835337715,"113":-0.05028455390388991,"114":-0.0599629292338298,"115":-0.02220677402451417,"116":0.19049640519569458,"117":0.05019879115345224,"118":0.00017963770162777865,"119":-0.008202359764511915,"120":-0.16516502643960848,"121":-0.08492474139546789,"122":0.006953217948695866,"123":-0.09676019262351437,"124":-0.11289857110024377,"125":-0.006881655248031636,"126":0.022402079682331776,"127":-0.024832350596984677,"128":-0.05162358663251129,"129":-0.16787372387450372,"130":-0.029352794619505383,"131":0.02635840140398824,"132":0.00836373176294859,"133":0.0925891854577376,"134":-0.014666378157913709,"135":-0.11785229241711868,"136":0.0452496849490052,"137":-0.04122817654299069,"138":0.03577376879458871,"139":0.04650585179467663,"140":-0.050845143745136503,"141":-0.009964532223395757,"142":-0.046727010454005215,"143":-0.19868183518995786,"144":0.1136286081370226,"145":0.1856526140426774,"146":-0.04526841811897939,"147":-0.33638594891857504,"148":0.010329919188856231,"149":-0.09807840319601388,"150":-0.045933405681273624,"151":-0.19381804985438625,"152":0.04317950701676271,"153":-0.09193125938526535,"154":0.016568462252754407,"155":0.007104993383108362,"156":-0.050151940902378206,"157":0.02423805132606087,"158":0.0025649448010712566,"159":-0.024448336744053528,"160":-0.015271709741993886,"161":-0.10087221883621361,"162":0.0038129862857899195,"163":-0.14389726307030873,"164":0.021871597055357423,"165":0.03462857836908174,"166":-0.11594701950178492,"167":0.021943604421988335,"168":0.004046333697799043,"169":-0.018745115834717396,"170":-0.10470205345019719,"171":-0.030735978187856755,"172":-0.029761521658981917,"173":-0.04126242629125002,"174":0.01217141174309009,"175":-0.10730836247845311,"176":0.032863554345008865,"177":-0.09164164958691312,"178":-0.11438957009202778,"179":0.03403575253073115}},{"sx":3,"sy":3,"depth":20,"w":{"0":0.1601513418715397,"1":0.09539806071094682,"2":0.02092460208248283,"3":-0.1952363770322009,"4":0.048629064930595586,"5":0.20049711620935695,"6":0.08215032056361121,"7":-0.021887905049238206,"8":0.010180002055620724,"9":0.05035831238019326,"10":-0.12761456783092207,"11":0.05280824168656599,"12":-0.11496125069616754,"13":0.007575638089152059,"14":0.0017365450462392977,"15":0.04298884333868244,"16":-0.067640720325339,"17":-0.05910665755160247,"18":-0.00773921370992629,"19":0.16746146861702726,"20":-0.03331810402146074,"21":-0.09725340961182072,"22":0.08995869153954753,"23":-0.20907646123378051,"24":-0.18117759984745316,"25":0.04038864371944883,"26":-0.05749100364640382,"27":-0.23035951920992886,"28":-0.02011764430455792,"29":-0.11774820926819911,"30":0.14462271253066963,"31":-0.09731528057941136,"32":0.27364327997421545,"33":-0.06314214557627364,"34":0.06381954635643229,"35":-0.20436539418042216,"36":-0.04387503508949952,"37":0.20286319613908893,"38":0.2205512868546001,"39":0.007704253298988458,"40":0.02065380675674909,"41":0.008367117392552147,"42":0.031014212057373113,"43":0.011593879499164232,"44":-0.1781419617080194,"45":-0.13708511810700802,"46":-0.0340040971445415,"47":0.016295199197097474,"48":-0.12667433315213747,"49":-0.12969862964132814,"50":-0.006797236509380907,"51":-0.03173075092479768,"52":0.10020384340966114,"53":0.0028212976618566506,"54":0.10430162844290042,"55":-0.04952290147111028,"56":-0.06653007581612234,"57":0.05069768724305471,"58":0.009596121675782207,"59":0.020264352559720346,"60":-0.08052303979438337,"61":-0.11755100382200177,"62":0.04879281996998678,"63":-0.04643807378411921,"64":-0.22910030053231903,"65":0.02071891982349222,"66":-0.0488398213299392,"67":-0.1760015048775287,"68":0.03795264597506983,"69":-0.18463698343833157,"70":0.19764393242977155,"71":0.022395179435399322,"72":0.3644066637969421,"73":0.09109799236638218,"74":-0.0853748843586272,"75":-0.03864446407946955,"76":-0.13554624031010173,"77":0.031219556800342895,"78":-0.11478050447544742,"79":-0.060355197583584735,"80":0.008694622868493613,"81":-0.031195074711538713,"82":-0.16213831324307898,"83":0.51810388569011,"84":-0.011657812552744432,"85":-0.14007100024263336,"86":-0.2076926212356409,"87":0.25387450068312256,"88":-0.1984351488214125,"89":-0.05171741823199786,"90":0.29150676185543867,"91":0.3342580825290693,"92":0.013333158169174655,"93":0.3727107801697299,"94":0.08918940973859081,"95":-0.0656257466723543,"96":-0.16580536042289848,"97":0.09436624870624258,"98":-0.20059952143347795,"99":-0.047575211220479356,"100":0.021261369900882746,"101":-0.11394678574008958,"102":-0.23262750583889594,"103":0.11407482356239813,"104":0.01600034240569019,"105":-0.033787071835269133,"106":0.016059398232965812,"107":-0.004388414135189115,"108":-0.22575191723754537,"109":0.0930136235817507,"110":-0.00035873537350194335,"111":0.05856448482984063,"112":-0.19686547802339413,"113":0.029042179835621854,"114":-0.14812418052780094,"115":-0.07337806084597608,"116":-0.058917949465692857,"117":-0.05067973821898138,"118":-0.004483214213583832,"119":-0.13012970772554874,"120":0.12553872977785727,"121":-0.048072122259712136,"122":0.07849013888616203,"123":-0.04394573268133026,"124":-0.20654647711179785,"125":0.11613112761892778,"126":-0.05818463606657569,"127":0.13088347027536024,"128":-0.06957853302260221,"129":0.0512156360077941,"130":0.026146219525728313,"131":-0.11993039457810317,"132":0.08463916813481293,"133":0.016305258131620915,"134":-0.05159846052584824,"135":0.00514754135357074,"136":-0.08662088629848584,"137":0.00913746817204566,"138":0.003134439221875416,"139":-0.0964987968989946,"140":0.031958613352393556,"141":-0.23642588056057895,"142":0.1119272718517657,"143":-0.07744901354843664,"144":-0.13911742391804813,"145":0.018285836704404382,"146":-0.017332009604719836,"147":0.18241245595780167,"148":0.15791944131438884,"149":0.08380728180297212,"150":-0.03474551904860124,"151":0.04205284070669563,"152":0.04492908715141002,"153":0.16432586034886731,"154":-0.0353039248360453,"155":0.22674110522735927,"156":-0.11246540153587192,"157":-0.05807939017379946,"158":-0.24339703088612533,"159":-0.10823109617980405,"160":0.06571452857762712,"161":0.06179710671238289,"162":-0.02635348685020055,"163":-0.17236608841554504,"164":0.12214110167626019,"165":0.039715567032167984,"166":-0.031670505573044135,"167":-0.13683262025454193,"168":0.009336390408853071,"169":0.07764846231795457,"170":-0.0030993771668223077,"171":-0.2005153345347484,"172":-0.09944461113406564,"173":-0.0401064638125008,"174":0.0016583820546453621,"175":-0.10955234356005338,"176":-0.048869445740741854,"177":0.06923864988155548,"178":0.16208230209775892,"179":-0.06515298978787824}},{"sx":3,"sy":3,"depth":20,"w":{"0":0.049878503916820034,"1":-0.021055339204147188,"2":-0.006955080905408614,"3":-0.06673539783689368,"4":-0.04166989290108744,"5":-0.08095960414018417,"6":-0.04338865151700032,"7":-0.06888908318167077,"8":-0.063687879520307,"9":-0.04246370619593742,"10":-0.08818898840219198,"11":0.06031025871870268,"12":-0.004308349569816557,"13":-0.07854933157761422,"14":-0.13626020812841264,"15":-0.0036769054238564186,"16":0.08241971792205369,"17":-0.0911296608420523,"18":0.04227138166689331,"19":0.029235193917067054,"20":-0.05099865476080933,"21":0.02660071566013773,"22":-0.08448365801938221,"23":-0.1442133518561075,"24":0.05190180092268522,"25":-0.012526164737994777,"26":-0.11566685895017718,"27":0.14461626146877832,"28":-0.05048386301565057,"29":-0.16978304432148472,"30":-0.11055903883274995,"31":-0.029549181128501807,"32":-0.15789266343167366,"33":-0.07628807627654989,"34":-0.10525967467048014,"35":-0.005045267734162601,"36":0.019444972492847212,"37":-0.08455283232237779,"38":-0.1620085705018706,"39":-0.11447260782902789,"40":-0.05940397055827763,"41":-0.17727322663369668,"42":-0.07303128963641997,"43":0.008709124251693614,"44":-0.07270397744463589,"45":-0.09626537740464836,"46":-0.043833351312961254,"47":0.016361377742696057,"48":-0.05886116968289316,"49":-0.03529601272514985,"50":-0.0807344142785293,"51":0.03331906594896382,"52":-0.11269136570122602,"53":-0.06272023372499598,"54":-0.040286354753978015,"55":0.01377261635081331,"56":0.0039792517939350545,"57":-0.09341080100243516,"58":-0.09989466741134898,"59":-0.15320035116829,"60":0.09794803860079525,"61":0.049847533874510325,"62":0.1193961841955321,"63":-0.2193877717194097,"64":-0.06890453770349848,"65":-0.055944196276492664,"66":-0.022988795722168533,"67":-0.07453772679658169,"68":0.09678008044468706,"69":-0.045509886229124843,"70":-0.05604552827919326,"71":0.07045106416473923,"72":-0.014970198669079147,"73":0.0027187795430860104,"74":-0.04673497543558393,"75":0.004472512378903801,"76":0.06515837038180566,"77":-0.10595349189171235,"78":-0.027123532122202806,"79":-0.007914142124490925,"80":-0.02912159388780841,"81":-0.051600892697827326,"82":0.1419716575253708,"83":-0.017193150083665006,"84":-0.1736548929118005,"85":0.07214579226553794,"86":-0.03591926845360123,"87":0.0014484522513151452,"88":0.13431076646761192,"89":0.0507681772863041,"90":0.10670120988331051,"91":0.012905701829331786,"92":0.1882963498402089,"93":0.023153643608957223,"94":-0.06423475058300973,"95":0.13238037209370032,"96":-0.023644868358212924,"97":-0.02699607244931211,"98":0.0005700010440793694,"99":0.08087492094186695,"100":-0.07730652880866093,"101":0.014047696614416726,"102":-0.011789239649885227,"103":0.1105325875859647,"104":-0.05209483164525159,"105":0.10407717266355043,"106":-0.11915270018841556,"107":-0.012155241158576063,"108":-0.07796145419119364,"109":0.03741464026370263,"110":-0.0033915128246395075,"111":0.04816547715088724,"112":0.003923389753744176,"113":-0.07547682909762286,"114":0.06527811023955203,"115":-0.049424050674888996,"116":-0.12966746160013357,"117":0.0734945789577175,"118":-0.02097148447552536,"119":0.0005237026674087024,"120":0.02940641016467757,"121":-0.012596815464088643,"122":0.1276075888145068,"123":0.043198609984687525,"124":-0.0400952736515123,"125":0.10351848636181228,"126":0.0748972765431138,"127":-0.05995122262369493,"128":-0.0068978347627844045,"129":0.05584487573608846,"130":-0.014871450211509724,"131":-0.026650354981788794,"132":-0.10156102460013534,"133":-0.08021882211550488,"134":-0.003157919410282023,"135":-0.05237003303883684,"136":-0.026129697444799798,"137":0.034777064570993645,"138":0.26784126362032074,"139":0.14253644744514374,"140":0.08768257512687824,"141":-0.11883811233800884,"142":-0.09850413233120717,"143":0.0891320620204027,"144":-0.17573316099420838,"145":-0.06040441755836172,"146":0.07507961360385683,"147":-0.11621981237662198,"148":0.13195181480712048,"149":0.043657896325715775,"150":-0.08806220918865139,"151":-0.118395693599478,"152":-0.007166771624795744,"153":-0.1339372071424691,"154":-0.024397239460637904,"155":0.000949601364529161,"156":0.10485789476054927,"157":-0.015473922666284832,"158":-0.011010560751828113,"159":0.146278624077242,"160":-0.007042432428556898,"161":-0.01586835693336051,"162":-0.0034102955284568753,"163":-0.05223294556206207,"164":-0.22613900614413204,"165":0.0019036582296430584,"166":0.017199175693410892,"167":-0.08787208098113432,"168":0.06349563910956724,"169":-0.11444489270691248,"170":0.08598751262423289,"171":-0.20770233256030968,"172":0.02356900275873025,"173":0.06949698497758716,"174":0.11692413774528482,"175":0.057555649168155136,"176":0.08643663719231756,"177":0.13198584469592609,"178":0.06584730284597018,"179":0.05923765394678573}},{"sx":3,"sy":3,"depth":20,"w":{"0":0.05743585571076091,"1":-0.16376587249605012,"2":-0.013478215490300737,"3":-0.06592573932979576,"4":-0.05779197803506896,"5":-0.09974708100360061,"6":0.09547909832748004,"7":0.0819489148345465,"8":0.06522036311166571,"9":0.05928489212118062,"10":-0.023064560761894597,"11":0.09388984494431105,"12":0.19717172073355543,"13":-0.08275338766183117,"14":0.03132318842857459,"15":-0.05845589919394716,"16":0.017270615810585307,"17":-0.08328981819837147,"18":0.06708896786168302,"19":0.07478127541810572,"20":0.02288493426687735,"21":0.11512940078696948,"22":0.03198845785646189,"23":-0.15415998384953333,"24":0.034717924452709895,"25":0.04564189061476333,"26":0.18464587435122126,"27":-0.004423888439392542,"28":-0.0919738102840227,"29":0.011533767822717839,"30":0.002615723356749443,"31":-0.053848650890358826,"32":0.029268331959822185,"33":-0.1225403180973249,"34":-0.19862198822795854,"35":0.006148002594882862,"36":-0.03059634798816503,"37":0.05048488500288377,"38":-0.0013450290817452425,"39":-0.0343175379989614,"40":-0.009419526222940303,"41":-0.04564047354661654,"42":-0.08199542098543944,"43":-0.11002878957193823,"44":0.03324073911998221,"45":0.013725913451501776,"46":-0.14695593565322257,"47":0.04904971700388327,"48":-0.07632323253961133,"49":0.010271254292038077,"50":0.008991220500074764,"51":-0.12187404893724879,"52":0.048344805308805285,"53":-0.06279706824411446,"54":-0.02829357056490578,"55":-0.21304332074196444,"56":-0.0650754443256318,"57":-0.022906077186178948,"58":-0.09853363876020702,"59":-0.12827310209402146,"60":0.08364957452881118,"61":0.11400115198893147,"62":-0.06875165909489667,"63":-0.017671701351295265,"64":-0.21534834863482258,"65":-0.04529289244091854,"66":-0.09476944662424575,"67":0.039357159862955814,"68":0.00011648450970580529,"69":-0.09501207623383115,"70":-0.07105176168435845,"71":0.06510039826674645,"72":-0.01998356343926773,"73":0.04371461740366996,"74":-0.1244006939885208,"75":-0.0403704391341574,"76":-0.005235327320602041,"77":0.022747017247065734,"78":-0.01588453540048955,"79":0.0030677198688894044,"80":0.10532447322659214,"81":-0.11146297261492925,"82":-0.19289915989772957,"83":0.0193712170823473,"84":0.07338847462932661,"85":0.05084670360848614,"86":0.11631444709352373,"87":-0.18012801110251142,"88":-0.01910240493566516,"89":-0.09950750936116486,"90":-0.09417402172534724,"91":0.018192873618845987,"92":-0.0550319222148698,"93":0.059083299891090686,"94":0.01037006209699926,"95":-0.013167934646955072,"96":0.13497630317609885,"97":-0.08585039891853134,"98":0.0743694049241487,"99":-0.02743685825916681,"100":-0.019866520548918253,"101":-0.10566916455807386,"102":-0.06560241442069316,"103":-0.09667409133972073,"104":-0.027809267394166462,"105":0.008258260479078256,"106":0.0054056721833425385,"107":0.01378972311710152,"108":-0.1791525404750352,"109":-0.03726420200654077,"110":0.07133723475489663,"111":-0.042307027764383776,"112":-0.06680169158785833,"113":0.02861382680999122,"114":-0.041213767386630296,"115":-0.09280625838036284,"116":0.046359707892858495,"117":-0.09109904891588588,"118":-0.03012841024641812,"119":-0.13784145272633697,"120":-0.001436378780527387,"121":0.04095296521046376,"122":0.27390375174404086,"123":0.0988305479632368,"124":0.026225901281473202,"125":-0.1385232048077888,"126":0.025273628148631707,"127":-0.061355579267727896,"128":-0.03537915656588095,"129":-0.004765830350298874,"130":0.0549322360811994,"131":0.11419463897847144,"132":0.008789644613789933,"133":0.01095530525969414,"134":0.17104352929309252,"135":0.020708655714093013,"136":0.07757024793310784,"137":0.04023752110071289,"138":-0.09522009268542796,"139":-0.03696538438064494,"140":-0.0591223222114256,"141":-0.12660159405562368,"142":0.01837280067522,"143":-0.02766563452976325,"144":-0.06515231102191946,"145":-0.02400941912401358,"146":-0.07042595160324716,"147":-0.0013729980919170786,"148":-0.10706580152707743,"149":-0.041631650743353614,"150":0.08825550365085831,"151":-0.15180913923821032,"152":0.024984632341286884,"153":0.11488113896106678,"154":0.22993102144839503,"155":-0.0551233680912736,"156":0.05914607263020352,"157":-0.03586170897640591,"158":-0.030785617743034777,"159":-0.024455512153292145,"160":0.08816728122022108,"161":0.04710626315055046,"162":-0.0018898613167171866,"163":-0.022404146646243274,"164":-0.08149543221878712,"165":0.01277982319548892,"166":0.0999360180832704,"167":0.011241862669566546,"168":0.09010902866078971,"169":0.015026512921255038,"170":0.010789133289701712,"171":-0.06725490595495381,"172":-0.056768406111409264,"173":-0.04033472735984291,"174":0.08491054546176176,"175":0.055700757838467854,"176":-0.011502920815861404,"177":-0.02897320504008677,"178":0.02957276700421119,"179":-0.07652838093534103}},{"sx":3,"sy":3,"depth":20,"w":{"0":-0.029601057196627204,"1":0.17611087747923201,"2":-0.02477587219232982,"3":0.07838761963902655,"4":0.06283009756925304,"5":0.11948041753584636,"6":-0.0068975998483172115,"7":-0.06445983823946637,"8":0.048169159020689814,"9":-0.18234125454005998,"10":0.01898302847841745,"11":-0.10992087794205128,"12":-0.017413372647153372,"13":0.10139191803926893,"14":-0.04472263986327665,"15":0.09387163279184488,"16":0.01543893647057583,"17":0.07793762171797368,"18":0.016276032170533167,"19":0.11497629312996566,"20":-0.03890783548492664,"21":-0.12795978898543264,"22":-0.1747225097621179,"23":0.029358731849491507,"24":-0.07114520233634099,"25":-0.10354191764543619,"26":-0.07444267001260146,"27":-0.031689118385303194,"28":-0.015518324081168378,"29":0.07930087878921434,"30":-0.013177951269719877,"31":0.07369514068548517,"32":-0.1546060886612233,"33":0.014883284661259556,"34":-0.26542914205542006,"35":0.14112145742075072,"36":-0.0568464096029608,"37":-0.20325149344793828,"38":-0.20098187745530496,"39":-0.23111762771476904,"40":-0.003814560430166684,"41":0.0021213868997604743,"42":-0.24476523524254234,"43":-0.09822606034226379,"44":-0.07658395276951548,"45":0.026414913315207754,"46":0.0418582240338721,"47":-0.11343681836608659,"48":-0.23807601607973886,"49":-0.05860713484277213,"50":-0.13457172070524248,"51":0.003584995841094657,"52":-0.3480663114251954,"53":-0.037129943124417454,"54":-0.15493851455132837,"55":-0.09223829704919148,"56":-0.11249455085734927,"57":-0.310769842486684,"58":-0.27100051222142757,"59":-0.26971572140997785,"60":0.02741768769335505,"61":0.10449553939587163,"62":0.048650070783367944,"63":0.07618531919304661,"64":-0.11640939184030878,"65":0.08987360317107763,"66":-0.25222624332835053,"67":-0.04573987133178119,"68":0.2843799504235989,"69":-0.131306022030143,"70":-0.054534931573521774,"71":0.05352541163196809,"72":0.08839047652798061,"73":0.001714498227648879,"74":0.016295331559783664,"75":-0.03265795947645974,"76":0.1798419747537212,"77":0.1733115198547258,"78":0.020019594040394977,"79":0.0261138924979025,"80":-0.03797689571884205,"81":-0.012256700729730534,"82":0.16493614073886462,"83":-0.08621009118964168,"84":-0.05436834053294703,"85":0.16805162547611982,"86":0.0871137021279485,"87":0.17539904233706533,"88":0.10302397567757916,"89":-0.037199067937198835,"90":-0.10125100726785448,"91":-0.03607231181140547,"92":0.05792658601534324,"93":0.017328584914757625,"94":-0.1319450503572587,"95":0.07830006912390494,"96":0.20058482725448945,"97":-0.20257852795964204,"98":0.03202362589600317,"99":-0.10198781178886346,"100":-0.04855611146870936,"101":0.06076817225667131,"102":0.22081606120370234,"103":-0.20478808769272017,"104":-0.06968162776539509,"105":0.11305144804576231,"106":0.05833572488984497,"107":-0.03996122803666942,"108":-0.02938758630549359,"109":-0.1458160314211815,"110":-0.21351124732301868,"111":-0.2966081795650426,"112":0.24204784939878637,"113":-0.24119169242270921,"114":-0.2260924470502937,"115":0.08153752535225733,"116":0.06101253812276271,"117":-0.3119329041004715,"118":-0.015285092738739159,"119":-0.06257246653301907,"120":-0.11036557538218518,"121":0.0758449224520521,"122":-0.13836828247302874,"123":0.2870727055520147,"124":0.026608568432029113,"125":-0.02135672264499971,"126":-0.07185832742184382,"127":0.3522189718785012,"128":-0.023872991796441607,"129":-0.11619885501626105,"130":0.044974499191357174,"131":0.06592661711330852,"132":-0.12706744030105055,"133":0.08138909580350824,"134":0.119209202349942,"135":-0.08347161706486986,"136":0.1616129409519257,"137":0.03446644349871586,"138":-0.04698095520108234,"139":-0.053844374754972335,"140":-0.04143207901374436,"141":-0.0508160143825782,"142":-0.16573734837864848,"143":0.05882820398061483,"144":0.0706674818985304,"145":-0.16477476290845106,"146":-0.029855324614684247,"147":0.26525415730387314,"148":0.060757709067426634,"149":-0.10595695331700307,"150":0.15280565837684756,"151":0.06594432349914645,"152":0.14620704647338298,"153":-0.007079602007064853,"154":0.012748122592657021,"155":-0.004781578990721271,"156":0.06678995457420007,"157":-0.07744716038271159,"158":-0.09639690210388031,"159":-0.11662336125400695,"160":0.061468511849079435,"161":-0.19722011698195044,"162":0.0020359908571506587,"163":0.008958192797764424,"164":-0.0019651587133413385,"165":-0.10476706391042333,"166":0.019680217727456185,"167":0.22009516059329823,"168":-0.0026784271417741277,"169":-0.07711966825711303,"170":0.34547364796271796,"171":-0.068361520947269,"172":0.18408172989687024,"173":-0.05771964203700493,"174":0.0536182446693538,"175":-0.012610410103642571,"176":0.024509673095454654,"177":-0.13669364774022297,"178":-0.0326378589295296,"179":0.050364135249705094}},{"sx":3,"sy":3,"depth":20,"w":{"0":0.14725295254418366,"1":0.08358619075637856,"2":0.08902580719757845,"3":0.03723437217194715,"4":0.2596609755521692,"5":0.13256923839213508,"6":-0.008940895656109643,"7":0.1747882764203897,"8":0.02481598600233895,"9":-0.024971957878412145,"10":-0.008272924603919747,"11":-0.09995580459034967,"12":0.16526000063078802,"13":-0.11953973544356394,"14":0.05092240314274493,"15":0.050148695646338816,"16":0.16121821683797233,"17":-0.23938297781661513,"18":-0.07287082907065594,"19":-0.0368798406739001,"20":0.10848590045548663,"21":-0.003792996613788467,"22":-0.09680217822963387,"23":-0.13723246792267746,"24":0.10383040369950325,"25":-0.08009616915169274,"26":0.09980055314681843,"27":-0.04092162606573562,"28":-0.11427602699046392,"29":-0.005858379384367818,"30":0.10338681224992188,"31":-0.10595155677467037,"32":0.11684829478422719,"33":-0.14723572710642957,"34":-0.04377007183124574,"35":0.045045388441823535,"36":-0.08279130221413655,"37":-0.2139295866837918,"38":0.30527881577954846,"39":-0.06903094203771021,"40":-0.06677259445785605,"41":0.07806622010401908,"42":-0.034086634022920635,"43":-0.05530285867683601,"44":-0.15648286315552362,"45":-0.05705494252515841,"46":-0.016577389798361108,"47":-0.05232469902796608,"48":-0.2271156319306234,"49":-0.16868297326630446,"50":0.07486503588547962,"51":0.051300989735074076,"52":-0.12554300734307514,"53":-0.007453910865422332,"54":0.1972295665927921,"55":0.04583961917526443,"56":-0.036759178252984755,"57":0.14092511346200062,"58":-0.141483301186162,"59":0.10666063204478068,"60":-0.0292948425995276,"61":-0.024973646615461205,"62":-0.1624009757846945,"63":0.07029304244672625,"64":0.28696657852145063,"65":-0.06790086299763119,"66":0.10497134140135435,"67":0.22305651696088832,"68":0.10669632795931329,"69":-0.0026141181097069596,"70":-0.07157508171550367,"71":0.2546219571646012,"72":-0.20194361950745332,"73":0.13623329463536415,"74":-0.008313995370980494,"75":0.12309398818589068,"76":-0.1451988308581771,"77":0.23625396616620328,"78":0.33304929174588566,"79":0.07530758180405635,"80":-0.06308952570413665,"81":0.2271983638595308,"82":0.15782399810830008,"83":-0.0024262176286299116,"84":0.03472683240668913,"85":0.1296602176578907,"86":0.11735757851037645,"87":-0.26328061555134114,"88":0.04263772084088435,"89":-0.08391149184521865,"90":0.013412521258333825,"91":-0.02099079526816871,"92":0.4761269849993978,"93":0.0610655857615295,"94":-0.0010860657091334176,"95":-0.011370198410402174,"96":-0.29360614088316656,"97":0.1908972454586022,"98":0.22793296236125868,"99":0.16186885023067146,"100":0.07351275283707066,"101":-0.00594505305610989,"102":-0.20168615979367513,"103":0.3843110687585369,"104":-0.11573892548346526,"105":-0.11821488989819591,"106":0.07629676146162893,"107":0.024623565468622027,"108":-0.22232179926695475,"109":-0.036034218737730626,"110":0.04891029780569904,"111":0.24714269826412016,"112":-0.23528173733684907,"113":0.043570032523958566,"114":0.13957662102914603,"115":-0.026187516428382775,"116":-0.005254325571925221,"117":-0.0062662576122843455,"118":-0.13302901549710883,"119":-0.10258733499048876,"120":0.07380503000280096,"121":-0.049322399461838924,"122":-0.11667452504462208,"123":-0.34140296583908103,"124":0.2752728124167177,"125":-0.10151973852630766,"126":-0.06630350281130162,"127":-0.3263564829373145,"128":0.30533134096337955,"129":0.08623100472186768,"130":-0.020296048349680542,"131":-0.06341410011178392,"132":0.291209113165723,"133":0.0465838848815456,"134":0.06767710337003625,"135":-0.08157034459841744,"136":-0.22295682609975373,"137":0.529178170447607,"138":0.14620307975542599,"139":0.00504329809268648,"140":0.024432949253552577,"141":-0.020947032993037174,"142":0.10670221146757351,"143":0.6013928192464028,"144":-0.03832889022071397,"145":0.05763891701514136,"146":-0.28781812733681217,"147":-0.06242048041151863,"148":-0.02143852836183388,"149":-0.12754693266213415,"150":0.3207542285930073,"151":0.29947752732335875,"152":0.05047343679468806,"153":0.4685569704792658,"154":0.17410512626331762,"155":-0.15132500919351857,"156":-0.2045207200170394,"157":0.16564867573880931,"158":-0.2650744984676704,"159":0.06137306855411137,"160":0.07350927156456716,"161":0.1738553135446373,"162":-0.10719779656117664,"163":0.16930844674541373,"164":0.030397066451055655,"165":-0.02799529874752332,"166":0.19015207482731897,"167":-0.1278720860915445,"168":-0.008419937317885028,"169":0.17442974410000225,"170":-0.044881398594150516,"171":0.18837203897455762,"172":-0.4058792010349372,"173":0.1347751652122636,"174":-0.2501913008582958,"175":0.4208816857357215,"176":-0.2531926013546113,"177":0.02798635857113162,"178":0.2415215146626622,"179":-0.007095912470395915}},{"sx":3,"sy":3,"depth":20,"w":{"0":0.0683993491289538,"1":-0.034191323665039505,"2":-0.2597906906049799,"3":-0.12178927649987521,"4":-0.04628922371831066,"5":-0.2466151311277883,"6":0.10494128837906537,"7":-0.41680712985465357,"8":0.013359563755531339,"9":-0.05707196932640826,"10":-0.2571377403152254,"11":-0.2776487184664891,"12":-0.2369572873108946,"13":-0.05752793865877897,"14":-0.3064671383697877,"15":0.09956363527635947,"16":0.02662636724970046,"17":-0.11343442588418517,"18":-0.38193880684505477,"19":-0.23005430664300835,"20":0.044174551766547186,"21":0.10210148382663038,"22":-0.18398002594036175,"23":-0.26961569561466897,"24":-0.10319024845577232,"25":-0.19638609376632446,"26":0.12313119586220071,"27":-0.41515275136024654,"28":-0.2400319147986188,"29":0.07683945891676838,"30":-0.19279938039171063,"31":-0.11605546225979232,"32":-0.29145015447175865,"33":0.006251270480554676,"34":-0.10780578134448604,"35":0.11361865564258822,"36":-0.21060291822385394,"37":-0.18995009777631475,"38":-0.3216534298063868,"39":-0.17497058795269566,"40":-0.010134726558175823,"41":-0.007892124150388414,"42":-0.19077106551278422,"43":-0.12088128891328785,"44":-0.09545473497303551,"45":-0.12504482621808818,"46":-0.03058299174467396,"47":-0.23157378216177124,"48":-0.32191450660896703,"49":0.011740326836862722,"50":-0.09712618686637964,"51":-0.04665400068311182,"52":-0.3880072236448863,"53":0.06816798367373769,"54":-0.076467361446942,"55":0.03348766929880611,"56":0.061086176517377154,"57":0.36210599233886276,"58":0.37303066685944275,"59":0.08346972537555834,"60":0.005706710578349008,"61":-0.04089729058393095,"62":-0.32200208217315807,"63":-0.09656972370599258,"64":-0.04571770273489945,"65":-0.12036681813728123,"66":-0.1276018222658694,"67":-0.10428772300446278,"68":-0.22308425761490544,"69":0.25871467744512416,"70":-0.1753195798465446,"71":-0.23078823485789624,"72":-0.27600109632677816,"73":-0.010912898490433802,"74":-0.0906425501024693,"75":-0.025544683909896643,"76":0.03517286944326541,"77":-0.1113868271862144,"78":-0.19902749474063453,"79":-0.0997875044495532,"80":0.06873460228357171,"81":-0.031212798441938736,"82":-0.24671378885202894,"83":0.05853342755437851,"84":-0.0719742887176295,"85":-0.1928791565796249,"86":0.19372061153988726,"87":-0.00001411038268061567,"88":-0.1644791860479944,"89":0.2336896075036568,"90":0.02435477467240973,"91":0.09106048838480188,"92":-0.21488190900459953,"93":0.10895069430591629,"94":-0.12423020239246665,"95":0.008438103896105208,"96":0.1302758680478439,"97":-0.1875468184946826,"98":-0.20485860433270897,"99":-0.05921531744008943,"100":0.08269270818939199,"101":0.0627295343193627,"102":-0.21559230685315664,"103":-0.05315159806708451,"104":-0.057138524449018485,"105":-0.13241923280604204,"106":-0.01240918114337832,"107":-0.18483083140120987,"108":-0.19305082359977224,"109":0.1579678747339826,"110":-0.11518406064983892,"111":-0.0492609206735325,"112":-0.1712190126858662,"113":0.09827174161897606,"114":0.06132107852896185,"115":0.013434387173401112,"116":0.04110078428133943,"117":0.20059569314713552,"118":0.10643373131031779,"119":-0.07817008852352247,"120":-0.10247334682372564,"121":0.17129317771838784,"122":0.05917606372569993,"123":-0.12727957020073394,"124":-0.0731183677031302,"125":0.1387698546596455,"126":0.03410208287813895,"127":-0.04880248356888575,"128":-0.01366814823547956,"129":0.08254301225896434,"130":-0.11570997121859776,"131":-0.1881114498146266,"132":0.22273411453852693,"133":0.2982722381630865,"134":-0.30754793782565415,"135":0.042606464466189535,"136":0.0630094508822437,"137":-0.09599163184216687,"138":-0.1465103038854989,"139":-0.016573105521015603,"140":-0.0041223587292462905,"141":-0.04367758978358209,"142":0.09468583024488438,"143":-0.022268494398761725,"144":-0.12102099784188065,"145":0.13976831063599202,"146":0.2041952264755089,"147":-0.08296967284591392,"148":0.05192359437612289,"149":0.10709072739926448,"150":-0.23164814097814762,"151":-0.2740469804127005,"152":0.0675874069145026,"153":0.13126202582738172,"154":-0.2039521148363853,"155":-0.13358371067788916,"156":0.004129186624595537,"157":-0.10541746958913652,"158":-0.08053107714105238,"159":-0.098731302063754,"160":0.11417870519221801,"161":0.36149342694202535,"162":0.26370544450450245,"163":-0.26909287755227795,"164":-0.007365822439129378,"165":0.09300576923637431,"166":0.10325759175281013,"167":-0.12758682186080142,"168":0.0012056910222765138,"169":0.1718032459428626,"170":-0.15697657428320247,"171":-0.27442479726548935,"172":0.036799250042604155,"173":0.008800011628163643,"174":-0.0936017444410942,"175":0.23133047837695653,"176":-0.014556853712993192,"177":0.16398955489108352,"178":0.47134146523094067,"179":0.26664583593971614}},{"sx":3,"sy":3,"depth":20,"w":{"0":-0.07401358542586411,"1":-0.04337378285518773,"2":0.20252682839839897,"3":-0.025643999221250574,"4":-0.08422931708578218,"5":0.1025535999217724,"6":-0.051451836238414664,"7":-0.0887245382151025,"8":0.12186110775596996,"9":-0.09008769383699784,"10":0.06726877001843931,"11":-0.17876584469658235,"12":0.08678478421725151,"13":-0.03415585543350609,"14":-0.10360187088312728,"15":-0.06011125769448342,"16":-0.06156884450102127,"17":0.10547723142879684,"18":0.0938891126817251,"19":0.11269725115619343,"20":0.010960747974461123,"21":-0.02693464167347104,"22":0.15018315578936253,"23":-0.15791177018735678,"24":0.006544257225696056,"25":0.101055883616654,"26":-0.2515777486956579,"27":0.15947636686468494,"28":0.061819770496193874,"29":-0.09370807673770462,"30":0.04741569957968286,"31":-0.09779243377618674,"32":0.04439503007679162,"33":-0.024588030296645514,"34":0.12575269974798942,"35":-0.0692781776457949,"36":0.03533248229177112,"37":-0.035027443681310354,"38":-0.05775385756760702,"39":-0.0367532544043653,"40":-0.13975052409891173,"41":-0.08641954981947263,"42":0.10150442171878442,"43":-0.03802030217675296,"44":-0.11721993729614832,"45":0.030443563234439815,"46":-0.09132673542642938,"47":-0.16266139026908025,"48":0.06550579603576936,"49":-0.007742322582998919,"50":-0.17451870048503204,"51":-0.08136347575855928,"52":0.07373682284380347,"53":-0.08914351087414328,"54":-0.07103593053469932,"55":-0.05544238503818109,"56":0.0216596307720561,"57":-0.1270570864353669,"58":-0.018512145115405443,"59":-0.18810969647452408,"60":-0.06289599107034853,"61":-0.03513986489678506,"62":0.07431123868758707,"63":0.052778516066521085,"64":-0.12516105233083075,"65":-0.11559424889789087,"66":0.20928757262665199,"67":0.06792057681601824,"68":-0.04468481396360333,"69":-0.09747754278956819,"70":-0.01897198103382551,"71":-0.020797363365861684,"72":0.0273214984286862,"73":0.0568387292539327,"74":0.12133632672236523,"75":-0.1084632047806375,"76":-0.07803956394427898,"77":-0.022336407611892404,"78":0.011480428452623726,"79":0.09279667284349767,"80":-0.050804445567040786,"81":-0.07694018620042359,"82":-0.14981532566063857,"83":-0.2612904242808643,"84":-0.09042428749236675,"85":-0.033261838774732363,"86":-0.06172225976548487,"87":0.02471038763105105,"88":-0.0022103769163307075,"89":-0.10080649551141688,"90":0.020703610285595933,"91":0.05746219543563097,"92":0.05726001701529783,"93":-0.09547735037876662,"94":0.1014749912692831,"95":-0.09030400334317698,"96":-0.0729347026166634,"97":0.011054598933957906,"98":-0.06008657781517831,"99":-0.07605347563300992,"100":-0.006125171081626042,"101":-0.20625623894390516,"102":-0.06066497056830478,"103":-0.14113549672063466,"104":-0.07224180590192673,"105":-0.11396438126289604,"106":-0.010691446867843249,"107":-0.13500584805917457,"108":0.07136245519693545,"109":-0.09957009017787995,"110":-0.05358493556066272,"111":-0.04030677393516468,"112":0.06118261380413728,"113":-0.10564158121921516,"114":0.0734430824518675,"115":-0.13461890769141965,"116":0.010889485297364868,"117":0.02499551402523965,"118":-0.16779940303968444,"119":-0.0910103506298782,"120":-0.008459514513252086,"121":0.17762716091861527,"122":0.17447862439744455,"123":-0.040829428280131065,"124":0.03826968517910798,"125":-0.16691882365541583,"126":-0.07138037291241808,"127":0.05947772875383707,"128":0.10625098110977521,"129":-0.0036737930325140933,"130":-0.07366716228098064,"131":-0.02984221948791031,"132":0.006137105424796062,"133":-0.016074011312552743,"134":0.03270456258890938,"135":0.14120443361998766,"136":0.0030253403994796235,"137":0.14091575825483224,"138":0.0834923162530015,"139":0.02544436735936702,"140":0.057047429107525506,"141":-0.0660472497817619,"142":0.21308618263379173,"143":-0.13618214882070642,"144":-0.09914483537616721,"145":-0.059676367071896136,"146":-0.06788622959064419,"147":-0.03647176300917442,"148":-0.01199960616510253,"149":-0.21891326144420267,"150":-0.20665186576482752,"151":-0.14126309981321006,"152":-0.0620851291857869,"153":-0.05953286192565046,"154":0.04779799476038137,"155":-0.14027927744969473,"156":0.06171537448662182,"157":-0.07422395906456765,"158":0.004859597452290929,"159":-0.07425145905396682,"160":0.03645129571237915,"161":-0.22279930130083547,"162":-0.03029856325364547,"163":-0.08953281108723186,"164":-0.09566630409409185,"165":-0.15798947169117852,"166":-0.19922007198324335,"167":-0.07015700593263434,"168":0.027485362428956488,"169":-0.13466866347267709,"170":-0.06162392997200658,"171":-0.13828097698774694,"172":-0.02512753982919514,"173":-0.008369109947443758,"174":-0.04597824056338301,"175":0.1305749560761799,"176":-0.010755248906006222,"177":0.05128514857226679,"178":0.014066141508537404,"179":-0.012465707508580955}},{"sx":3,"sy":3,"depth":20,"w":{"0":-0.01859477908870819,"1":-0.11979985423949485,"2":0.09304476194182563,"3":-0.052720378260306025,"4":-0.0634335917735256,"5":0.17032357602070158,"6":-0.12347400979990271,"7":-0.02356544113107842,"8":-0.14716513953416674,"9":0.027770036082419212,"10":-0.06621756053800826,"11":0.10768059209586126,"12":-0.010371202627940323,"13":-0.0576904064555197,"14":-0.07891903478095355,"15":-0.043900806441828644,"16":0.006024514077057404,"17":0.03493953899070483,"18":-0.09314689729698321,"19":-0.017437582050155834,"20":-0.03182855993148289,"21":-0.14069096610061838,"22":-0.02241641640624661,"23":-0.24746550995185762,"24":0.10842148682731656,"25":0.07441148605349275,"26":-0.04818526890995764,"27":-0.06627577647902672,"28":-0.08086062102463364,"29":-0.06669882792094937,"30":-0.28075654779311143,"31":-0.018315664916803233,"32":0.05598334044461706,"33":0.0034312438286120384,"34":-0.07898604241389975,"35":-0.020980327893120713,"36":-0.05485702459124051,"37":0.05711517416912372,"38":0.041880298552341745,"39":-0.11619665397288186,"40":-0.04811943576205424,"41":-0.04651395156167405,"42":0.13137041745372324,"43":0.025464130277222056,"44":-0.05991597516711531,"45":0.08848726613600003,"46":0.1432880610801119,"47":0.019014412024937786,"48":0.1727959430969224,"49":-0.09223476680281832,"50":-0.17825088610431014,"51":-0.04645737004993444,"52":-0.07134318871496012,"53":-0.015213113327407171,"54":-0.0554688725421937,"55":0.18159406040804976,"56":0.015973680549238447,"57":-0.05111501724879619,"58":0.08520021248793017,"59":-0.015464442492504534,"60":0.06450164735562708,"61":-0.1834235898694623,"62":-0.034505471814468745,"63":-0.000651103951688752,"64":-0.028232441009431924,"65":0.15182996509983174,"66":-0.07571912295503355,"67":0.1480341248877983,"68":0.09867484343542594,"69":-0.06902546064274895,"70":-0.04901576820941837,"71":0.04636381474255651,"72":-0.06650801822506268,"73":-0.09792348910817782,"74":0.09137830762213632,"75":-0.020224484651441176,"76":-0.05554665635982224,"77":-0.1289492826589957,"78":-0.05813912007313836,"79":-0.09790828432939058,"80":-0.13528290811622065,"81":-0.03670830866249271,"82":0.00037505824734386105,"83":0.028494596690118192,"84":-0.06601489397255135,"85":-0.030569421626113626,"86":-0.13366017673352618,"87":0.0849916665505455,"88":-0.013771254995212366,"89":-0.009241140701459422,"90":0.01469508516997177,"91":-0.23457019551274313,"92":-0.1280780399459686,"93":0.03200331758898404,"94":-0.013843955887993547,"95":0.008442119708901848,"96":-0.022573931315152708,"97":-0.01240726831595918,"98":0.020699121111208505,"99":-0.011125826783767093,"100":-0.05527089216667795,"101":0.06626036529913924,"102":-0.055161213838271904,"103":0.3005002983444103,"104":-0.05519782482249088,"105":-0.030506157780079715,"106":0.10396501042364685,"107":-0.01840199616386391,"108":0.14693769963307257,"109":0.16582971800936688,"110":0.2942982847191521,"111":-0.000997282986872625,"112":0.032743355417589756,"113":0.09252218087012902,"114":0.09114628982671902,"115":-0.06063647926194677,"116":0.08513674386993882,"117":0.04785456194087757,"118":0.002615674447213799,"119":0.11480124311104298,"120":-0.03229794201999725,"121":-0.08043181685451961,"122":-0.21438667844654427,"123":-0.05644270066852566,"124":-0.0868814568721176,"125":-0.12359918859346837,"126":-0.020232045352645018,"127":0.1979339360659331,"128":-0.07552441403382858,"129":-0.15024652345627115,"130":-0.003584826953524323,"131":-0.039371524357661336,"132":-0.09214076803693444,"133":-0.2208918730301179,"134":-0.13055438996849567,"135":-0.08770038940254347,"136":-0.16947440196067512,"137":-0.011928219183153581,"138":-0.23591806595981754,"139":0.06600364767899675,"140":-0.08683305084133186,"141":0.1359553263941946,"142":-0.09334670671792579,"143":-0.10319466178263421,"144":-0.10296170833980586,"145":-0.03683675314335776,"146":-0.10248697438063378,"147":0.11091556327740548,"148":-0.020805755701916378,"149":-0.05987607219431022,"150":0.03713219716740499,"151":-0.140046516823995,"152":-0.021887462907180466,"153":-0.031645271682011165,"154":-0.05326850048720996,"155":-0.01453506271872451,"156":-0.03568078760814066,"157":0.054375645801073506,"158":0.030700050286972258,"159":0.07541313102113315,"160":-0.04059497924711875,"161":0.06711586802254212,"162":-0.0641313317813267,"163":0.18145416228272843,"164":-0.12468984513543489,"165":0.16286787814149925,"166":0.12584170971342415,"167":0.1153356235815315,"168":0.005969319792381582,"169":0.20885717783597504,"170":0.11932240090570961,"171":0.13729907051275603,"172":0.005541596100286874,"173":0.08939392775549221,"174":-0.061782457527200636,"175":0.15981579852371386,"176":-0.019268190654398967,"177":-0.05925809109461764,"178":-0.09846975495864432,"179":-0.015658968263143475}},{"sx":3,"sy":3,"depth":20,"w":{"0":-0.055792898759079675,"1":0.09063461226513912,"2":0.05500840209505928,"3":-0.03255406232217711,"4":-0.19193135353173016,"5":0.005515549942792497,"6":-0.05659772414882954,"7":-0.056528331794194,"8":0.0973609099792039,"9":-0.07812196933208032,"10":-0.05322533560265025,"11":-0.050661282721708084,"12":0.010529238616621322,"13":0.03210505522967489,"14":0.05964367991702168,"15":-0.0376660384066467,"16":-0.0008366932614260632,"17":-0.07297039170473318,"18":-0.11703168407957545,"19":-0.05398000520866712,"20":-0.04316468954418159,"21":0.011230223210098344,"22":-0.07162865672390671,"23":0.06863388684638644,"24":0.037471065337444744,"25":0.0882738658088588,"26":0.03146544121321053,"27":-0.006472950979976326,"28":-0.12904017329110923,"29":-0.00926023781546375,"30":0.1722919154278137,"31":-0.11151529982643031,"32":0.1003075683471465,"33":-0.04135351723314264,"34":0.07903385536724035,"35":-0.05945307890732199,"36":0.06572496932727445,"37":0.09845403527482907,"38":-0.007241853385355223,"39":0.004282996927588446,"40":-0.10449637165862201,"41":-0.2608188577384373,"42":0.08090134090177059,"43":0.1372372712791251,"44":0.08119704497539124,"45":0.05455869722295166,"46":0.042469014610800146,"47":0.12474749471998035,"48":0.1324464749875615,"49":-0.07304998310659463,"50":-0.014845765663374194,"51":0.005444390487463753,"52":-0.003240623876896527,"53":-0.056323976847837076,"54":-0.11350115895795604,"55":0.037652706307336636,"56":-0.0293874752985396,"57":0.10547005289669785,"58":-0.009072940638046234,"59":0.02489349167351496,"60":0.0830115187045352,"61":-0.04274601658124635,"62":0.11757187041505322,"63":-0.1073264392329309,"64":-0.09976519033475402,"65":-0.05735994699248045,"66":-0.10685149914890073,"67":-0.1274794510468858,"68":0.10774863297727215,"69":-0.08005234958890554,"70":0.032610727253942165,"71":-0.09765506992841905,"72":-0.10903756515367291,"73":0.13968080923314113,"74":0.029566511180491296,"75":0.01673848454072704,"76":0.14664804172082116,"77":0.12169242116489218,"78":0.004648214589764505,"79":0.08070027806914587,"80":-0.0748627455384426,"81":-0.08237178676230307,"82":-0.013002746662905398,"83":0.09230932200758943,"84":-0.1205787317209972,"85":0.14946294890870382,"86":-0.07369843804264765,"87":0.06385508540860037,"88":0.07124152673550073,"89":-0.04540768010312395,"90":0.11315029357727914,"91":0.014981574120703686,"92":0.034993573123749955,"93":0.038081453426564826,"94":0.09431560086911198,"95":-0.11792574459339476,"96":-0.01620313555022521,"97":-0.0003493255244273381,"98":-0.000704285543086593,"99":-0.027349619621564958,"100":-0.06768647943361986,"101":-0.20153633137688964,"102":-0.024777051906038513,"103":0.10124691094641378,"104":-0.024608616124396587,"105":0.09652449290731552,"106":0.0747739030009194,"107":0.01038975144628776,"108":-0.011456372320176815,"109":0.11534765185993097,"110":0.008273965868968561,"111":0.0068389593100990674,"112":0.036127522356131675,"113":-0.01516910065467324,"114":0.08879236573283669,"115":-0.11317897138789529,"116":-0.01916891628347712,"117":0.01416035143761929,"118":-0.08379023069850343,"119":0.11041708523754563,"120":-0.02380757918403657,"121":-0.09097703388892588,"122":0.03621037182870391,"123":0.0772864822047755,"124":-0.02329204876181302,"125":0.008002057011619412,"126":-0.10298291529460286,"127":0.05921806403374013,"128":0.006091338980600537,"129":0.10362671497272298,"130":0.08481407576908366,"131":-0.031573677625177876,"132":-0.0014587542788248925,"133":-0.06740492030270029,"134":0.09616735715996723,"135":-0.11123885792825706,"136":0.08539698467871708,"137":0.15497036073537107,"138":-0.08141850258603216,"139":0.0749448330926479,"140":-0.11339666927013853,"141":-0.2488456296785031,"142":-0.12672463107588952,"143":0.12709578336053856,"144":0.039447109917216436,"145":-0.11721101938910732,"146":0.004952507104494805,"147":0.24677494567287406,"148":-0.009166598988094526,"149":0.11607108593915356,"150":-0.0934332821509117,"151":0.06693719754434181,"152":0.02024521631391893,"153":-0.060134895470057105,"154":-0.17684651286052278,"155":-0.09239255593450874,"156":0.1656522748402702,"157":-0.14092793090657266,"158":-0.1913401864736334,"159":-0.11626250401615619,"160":-0.00405816290089856,"161":-0.18832842137616557,"162":-0.13827847463151638,"163":-0.11207478795750249,"164":-0.09279357383841098,"165":-0.13315562148138976,"166":-0.14188999682828546,"167":-0.06869092341276219,"168":0.004419977909862168,"169":0.044032310117599914,"170":-0.06497185846986347,"171":0.003421320523166512,"172":-0.030652297357333654,"173":-0.18228340354440442,"174":-0.19246698868459636,"175":-0.1414954361228255,"176":-0.06658812167896326,"177":-0.1764859727335069,"178":-0.07853238093520229,"179":-0.08145389335778645}},{"sx":3,"sy":3,"depth":20,"w":{"0":-0.06438586679006036,"1":-0.05434654022200852,"2":0.18272974914421355,"3":-0.18364207681349112,"4":-0.03932314096435109,"5":0.01740740271879578,"6":-0.05022183931285647,"7":-0.034038419693765615,"8":-0.026821293709325664,"9":0.11343652212873888,"10":0.16723338638878776,"11":-0.07565228017048051,"12":0.2117699496522215,"13":0.012866003141476495,"14":-0.010003965935275088,"15":-0.09439368284990508,"16":-0.19389260641308115,"17":-0.03135888569050206,"18":-0.08631778787741017,"19":-0.397811507583697,"20":-0.00496604887290316,"21":-0.053799238968788715,"22":-0.06018440617411424,"23":-0.03525930151991609,"24":0.03114924089124885,"25":0.026476200469819296,"26":-0.15491153782439848,"27":-0.03691818331718115,"28":0.11831440798128347,"29":-0.03882465139799041,"30":0.1970937451394682,"31":-0.10085821539900561,"32":0.17392123355702063,"33":0.04172219341919946,"34":0.1286663306175464,"35":-0.09566924614652725,"36":-0.05934270275346689,"37":0.1679922664455532,"38":0.024332900399548982,"39":-0.20650949154551884,"40":0.04581466240384165,"41":0.08933711968583313,"42":0.1424043948177515,"43":-0.025418997877262886,"44":-0.1029774931829092,"45":0.01058165720122198,"46":-0.09019865935155971,"47":0.05399818128762931,"48":0.23397465546915794,"49":-0.07887503034664356,"50":0.16391000978131848,"51":0.10660676226066079,"52":0.13536988057745397,"53":-0.14347017334445344,"54":0.0494509747397143,"55":-0.1648850583400725,"56":0.06846854158616617,"57":-0.10449085343305624,"58":0.14583115508962233,"59":-0.054875279777121935,"60":0.007202150245402316,"61":-0.0021440127361604566,"62":0.029907352504605224,"63":-0.157003442787469,"64":-0.16292775372876994,"65":-0.1140054523679708,"66":0.0012937886584335838,"67":0.05188478341933344,"68":0.0557240709419831,"69":-0.02807213151388379,"70":0.08851733437717851,"71":-0.1379811971870316,"72":0.13929459246298836,"73":-0.07404006020944738,"74":0.0061995574429904296,"75":-0.04261046704908932,"76":-0.08584628798971725,"77":-0.15426574222186984,"78":0.08912540787807535,"79":-0.21476816215113476,"80":-0.04751160595190064,"81":-0.08617625326162656,"82":0.04439869647965525,"83":-0.1612032284362684,"84":-0.13648416078651354,"85":0.04192909724000655,"86":-0.10870182209215941,"87":-0.17349072395228365,"88":0.013813151550541285,"89":-0.15128855689207235,"90":-0.03686325179933065,"91":-0.1935516503154428,"92":0.2406243984364963,"93":0.03520329071917735,"94":-0.08913824316470796,"95":-0.11805871918092538,"96":-0.09347025124923233,"97":0.06530403121805342,"98":0.06415260613171486,"99":-0.12953978826388526,"100":0.043577364792889914,"101":-0.02838232355900689,"102":0.416201986044752,"103":-0.27650471703904567,"104":-0.24224060547007056,"105":-0.10252290744730161,"106":0.056527645512351406,"107":-0.1323743935300946,"108":0.11344050829111715,"109":-0.17003667480024362,"110":0.01749445724771732,"111":-0.035898803072823775,"112":0.16811774791885392,"113":-0.18855486968544202,"114":0.20237341093242794,"115":-0.13743170289296086,"116":0.004349477918645729,"117":-0.10441905253581898,"118":0.08195271834339447,"119":-0.12431345562811047,"120":0.08516916063551412,"121":-0.09754187797851054,"122":-0.020823280257173164,"123":-0.20218373232988002,"124":-0.0740680401500648,"125":-0.020203156414434972,"126":-0.09922131761718035,"127":0.0033629360185033334,"128":-0.14870812071559808,"129":-0.15886164447644158,"130":0.04046784242949763,"131":-0.1270475327406151,"132":0.045124774482118074,"133":0.04960525034270647,"134":0.054171467365130774,"135":-0.2399030883329526,"136":-0.14134464525631268,"137":0.20908755090881015,"138":0.2987134804126987,"139":-0.013579742912866184,"140":-0.1740037312397955,"141":-0.16910775278632803,"142":0.051433387938661944,"143":-0.4595301939242918,"144":-0.07315915774193468,"145":-0.08846371609899821,"146":-0.07145453684700707,"147":-0.1149109655827837,"148":0.17811600816359374,"149":-0.18026595755374847,"150":0.015610235833736228,"151":-0.2130091788217025,"152":-0.012831993702675884,"153":-0.15592108038613944,"154":0.10660010478291147,"155":-0.14702372338815606,"156":0.2273949554174223,"157":-0.07869597102278501,"158":0.12750839411333761,"159":-0.14714918791295029,"160":-0.24427088199597247,"161":-0.16157194245894485,"162":0.22094713863042567,"163":-0.35205853352963096,"164":-0.0934769467822504,"165":-0.022198471966223727,"166":-0.2077878715153774,"167":-0.2321571269576327,"168":0.1397438253948015,"169":-0.21869002243401797,"170":-0.03852169221941216,"171":-0.08779911554635132,"172":-0.017448109907184338,"173":-0.2214180185042366,"174":0.016034712801412745,"175":-0.22321511167283928,"176":0.17391654579189916,"177":-0.1350948473326377,"178":0.24434476990471557,"179":-0.0934719958323456}},{"sx":3,"sy":3,"depth":20,"w":{"0":-0.07140701428113434,"1":-0.09379762260268011,"2":-0.09402205955543905,"3":-0.03280263980170953,"4":-0.029588525174532206,"5":-0.0407788588352321,"6":-0.09464767907994695,"7":-0.2876459844034315,"8":-0.22210528742964813,"9":-0.17229009687768174,"10":0.054622332538611325,"11":-0.18716463542796288,"12":-0.2096417557299979,"13":-0.09526954568367098,"14":-0.14356579222706461,"15":-0.21502708266946524,"16":-0.038744023571210984,"17":-0.2518847017618178,"18":-0.14120732626895835,"19":-0.11497400172936144,"20":-0.11005966766064182,"21":-0.03965977870768447,"22":0.02044071229027226,"23":-0.056839900727746945,"24":-0.10807783487517653,"25":-0.00819247809544338,"26":-0.10225682432462263,"27":-0.06945266483703073,"28":-0.167977166464028,"29":-0.21018275531713784,"30":-0.009734119230504584,"31":0.05186287302243518,"32":-0.1558562255393779,"33":-0.004695014729907864,"34":-0.004147685469997453,"35":0.0015163297907234668,"36":0.0056608680689917154,"37":0.1667520967093587,"38":0.10391373463113351,"39":0.03761101314133145,"40":-0.2000886633396094,"41":0.0857325880932788,"42":0.003450371424014088,"43":-0.21720938581940544,"44":-0.32386136058394416,"45":-0.132892476978593,"46":-0.1173082909508932,"47":-0.02015859444419849,"48":-0.05239779835164392,"49":-0.21938114028455374,"50":-0.07701042273674719,"51":0.06040834469612129,"52":-0.2729634706210001,"53":-0.21663393270926917,"54":0.04346752073460383,"55":0.055665696700382024,"56":-0.07997794211148701,"57":-0.05952946224503783,"58":-0.13959600146250295,"59":-0.023022279686738065,"60":0.013793838590976102,"61":-0.08980111023436758,"62":-0.18016852818432183,"63":-0.08525936074721946,"64":0.2511837677905232,"65":-0.08040663964695752,"66":0.04637572085529677,"67":0.03859845413129211,"68":-0.23399320440659035,"69":0.17587130056579023,"70":-0.12907260383371927,"71":-0.04440638356464955,"72":-0.19076469413749947,"73":0.06766262634479295,"74":-0.067552768589441,"75":0.09057610323549928,"76":-0.023981208748976565,"77":-0.22276436003370398,"78":-0.14002301791325827,"79":-0.1664332891101587,"80":-0.020140872856125112,"81":-0.07044033308307175,"82":-0.2467981110290773,"83":0.022243134898182186,"84":0.16807137355910703,"85":-0.09078036003024932,"86":0.052330136379432346,"87":0.1630065876376209,"88":-0.22137866960386954,"89":0.11477778968797751,"90":-0.036851205537015014,"91":0.0672719946504786,"92":-0.17982841614473588,"93":-0.00797750990452382,"94":0.13064441943273783,"95":0.060553236707727116,"96":-0.05018878204090345,"97":0.0637051254784196,"98":0.054940194073792095,"99":-0.009681739483530093,"100":0.006626690002071549,"101":0.10791220242027018,"102":0.08871002373336853,"103":-0.0030335159127171728,"104":0.03513165254668202,"105":-0.07947363094809368,"106":0.1642572475580034,"107":0.10114386603053312,"108":0.06516418685104497,"109":0.14628183658158267,"110":-0.16297728434948128,"111":0.03779679298934444,"112":-0.02164525364397782,"113":0.09959124301252519,"114":-0.03313433558502055,"115":0.04379345712696332,"116":0.019455911086853996,"117":0.03242765504718822,"118":0.036218681711176606,"119":-0.0017420274417543496,"120":0.027674992347613284,"121":-0.028163400025871817,"122":-0.1424690784045764,"123":-0.0756429662409455,"124":0.03997166613081037,"125":-0.030937650384492154,"126":0.14453099867709862,"127":-0.07854950040170736,"128":0.03542367687170912,"129":0.065640758256215,"130":-0.09196664527858626,"131":-0.026119483128379042,"132":-0.04341909101022684,"133":0.1877987892318531,"134":0.05983226886976895,"135":0.04557125560429762,"136":0.008415815476822512,"137":-0.09461311453540368,"138":-0.14931095845613804,"139":-0.2217416751299905,"140":0.04078126407426388,"141":0.03998477767197644,"142":0.023084392816420315,"143":-0.06046619200493496,"144":-0.0618424369443336,"145":0.03539178365262254,"146":0.1370279390620678,"147":-0.09662278787306924,"148":-0.039101407166027904,"149":0.05560230133367699,"150":-0.03954939515856981,"151":0.05079198290395426,"152":0.02858224123549378,"153":-0.022811977720746515,"154":-0.023521061863784797,"155":0.15818475197371248,"156":-0.07356031591078982,"157":0.17200813793163772,"158":0.21188260527145228,"159":0.04635371812052228,"160":0.14293768013707342,"161":0.04947966830820879,"162":-0.05059211890915549,"163":0.15903671834088426,"164":-0.04352475210516232,"165":-0.02020944685946342,"166":0.03385559374538699,"167":-0.054944448256077735,"168":-0.04689453803456712,"169":0.00230418388751882,"170":0.21543930916653514,"171":0.06758942681049862,"172":0.14129771597143018,"173":0.21195985703418738,"174":-0.0049377817798210875,"175":0.11210209747918451,"176":-0.13691147269296652,"177":0.1667018586750283,"178":-0.21159500714002882,"179":-0.03382620801406953}},{"sx":3,"sy":3,"depth":20,"w":{"0":-0.016340924340360833,"1":-0.018103082579778485,"2":-0.036596438848535626,"3":-0.0996356712912521,"4":-0.042368622276737065,"5":0.0841638914230919,"6":0.040704564781896206,"7":0.01645129273015642,"8":-0.0251732256958046,"9":-0.031195115655944385,"10":-0.04616397841930769,"11":-0.1042774700214606,"12":0.02720450973707581,"13":0.04873565034363389,"14":0.042682627943959515,"15":-0.06875096952039,"16":-0.11317310037374723,"17":0.39115743130262454,"18":0.44338490701454464,"19":-0.0493521544642817,"20":-0.012348224945616207,"21":0.11244779343812127,"22":-0.049094298753524966,"23":-0.018487036365856812,"24":0.001438908135550335,"25":-0.029267776110324755,"26":0.04829611916968688,"27":-0.06617364410566481,"28":0.05460175161682265,"29":-0.14516022324632435,"30":-0.06374507986201636,"31":-0.04211568201820107,"32":-0.0332914424240576,"33":0.039526481799379,"34":0.034309284418687226,"35":0.015576690196981281,"36":-0.07250708029261903,"37":-0.04527530977068578,"38":0.1464058233839675,"39":0.051947931031323606,"40":-0.01894120358641348,"41":-0.01978095778588516,"42":-0.1613161285361178,"43":-0.02412312133749725,"44":0.05766631949781936,"45":-0.05459936550760588,"46":0.1480190436096201,"47":-0.18122248284187203,"48":-0.09837605450669125,"49":0.0712605876636638,"50":0.024853054207110974,"51":0.059915811830679934,"52":-0.02110397325781199,"53":-0.03950160093946171,"54":-0.1505580767341879,"55":0.2237608104539747,"56":-0.011318853743873493,"57":-0.19240941545183413,"58":-0.043987679897284075,"59":-0.09381059748577932,"60":0.04368499051195089,"61":0.14165909331520865,"62":0.04689070960210735,"63":-0.02608463457886699,"64":0.02141093581751596,"65":-0.11989616921689486,"66":0.04456015602312487,"67":0.025475367204143628,"68":-0.014123223367042213,"69":-0.016348778844726797,"70":-0.004610357210358513,"71":0.03432829794832985,"72":-0.07330126266854388,"73":0.1294112680944789,"74":-0.03362582178793729,"75":-0.13162450687756533,"76":0.0496538700547238,"77":0.19610283778991888,"78":0.14500074668881716,"79":0.08380133960353757,"80":-0.1411118559755587,"81":-0.0004940407440033922,"82":0.011260909179293444,"83":0.13623525769200912,"84":-0.20077602549051268,"85":-0.021558840516073787,"86":-0.17998667222241618,"87":-0.034956937716407545,"88":0.173882535106429,"89":-0.08099934637779255,"90":0.07744236318058831,"91":0.1588219008035519,"92":0.11077156608437849,"93":0.07672249324717009,"94":-0.02813033565414054,"95":-0.15768516335528956,"96":-0.005380392117141172,"97":0.14374540370354666,"98":0.01487519808524474,"99":-0.05733453233908039,"100":0.051933600880407514,"101":-0.13574916770795564,"102":-0.15449537319899534,"103":0.04644688822137451,"104":-0.05380748852890048,"105":0.007501535799095866,"106":-0.011647765611217156,"107":-0.09714382703721243,"108":-0.009595579394853828,"109":0.049665218707003786,"110":-0.044463656618351693,"111":0.12229758321365068,"112":-0.13304988937092221,"113":-0.10303210026883032,"114":-0.06883014985003846,"115":0.1249718986319568,"116":-0.017896024123162685,"117":-0.21553379169363496,"118":-0.07085261597442526,"119":-0.12921235257665886,"120":-0.06720434934007682,"121":-0.06647498030769573,"122":-0.13033956661167917,"123":-0.2370165481575653,"124":-0.04811626031338043,"125":0.04130564818324327,"126":0.005363106351844904,"127":0.15534275705419837,"128":0.09129178493470032,"129":0.05233785846016952,"130":0.10278718504470094,"131":-0.09212892504507146,"132":-0.024209455883210565,"133":0.06091707011692813,"134":0.05109309678427774,"135":0.014977380472094955,"136":-0.07015160942340459,"137":-0.02596912347722779,"138":0.05583785107000985,"139":-0.09923950015915324,"140":0.06838716975021225,"141":0.03984746825653905,"142":0.06766422718468401,"143":-0.19558811419804514,"144":0.11051868682245396,"145":0.07529679667737704,"146":-0.11574242062948037,"147":0.1629549481508583,"148":-0.034304219622224526,"149":-0.03523466086910108,"150":0.05156088581024597,"151":0.03619035598516933,"152":-0.036107367333584064,"153":-0.10376858824398079,"154":0.19614778557770335,"155":-0.09337845643798116,"156":-0.06724968836866438,"157":0.1275181348452287,"158":-0.1329618520970817,"159":-0.08288150984219014,"160":-0.02192851230706728,"161":0.005935794751683436,"162":-0.06667952031284059,"163":-0.019591722315088378,"164":-0.15054573241904046,"165":-0.13125321513822905,"166":-0.060972381451417444,"167":-0.09735858806864062,"168":-0.09555024930342773,"169":0.05417063993067486,"170":0.03447959047833096,"171":-0.08633862583201435,"172":-0.012954904607107133,"173":-0.20888772193616698,"174":-0.24310925400916714,"175":-0.0543236632079589,"176":-0.06996103304679444,"177":-0.2255664357970039,"178":-0.20698866857206719,"179":-0.19568171215324784}},{"sx":3,"sy":3,"depth":20,"w":{"0":-0.1046357832732125,"1":0.08076406995539887,"2":0.14846282338951913,"3":-0.3148280048067233,"4":-0.09712617364440551,"5":-0.03264879703886918,"6":-0.08565317275118157,"7":0.0697078356033526,"8":-0.052246362635686466,"9":-0.11681254474384369,"10":0.07447772165194862,"11":-0.18136676334820584,"12":0.01962300822144385,"13":-0.08337091123473765,"14":0.2750294770810126,"15":-0.0940587356997306,"16":0.04253054720273579,"17":0.3199204153525776,"18":0.34008242168117936,"19":0.1155000006710188,"20":0.09798347872658958,"21":0.019791389221831213,"22":-0.03223052471026466,"23":-0.06451348643378059,"24":-0.05104082070293267,"25":0.12872297681027825,"26":-0.14100201893715808,"27":0.05429236386038151,"28":0.16949624672206176,"29":-0.13536452158307852,"30":-0.031853032357626786,"31":0.12973375306442486,"32":-0.058021914748774564,"33":-0.12794798065552307,"34":-0.2515943959660173,"35":-0.025487515608472445,"36":0.01210220188610133,"37":-0.12743451204701403,"38":0.14010303715432898,"39":0.04195880844805659,"40":-0.025978264349731703,"41":-0.1670329943675744,"42":0.1907796244552413,"43":0.07699727437938388,"44":-0.14162470322695295,"45":0.05769717097860704,"46":-0.1271267236533662,"47":-0.06596619184197412,"48":-0.16031740427972851,"49":-0.09741172611390593,"50":0.0901758915237665,"51":0.02883223497395061,"52":0.11675299380395911,"53":0.1000184403391188,"54":-0.014269851251266123,"55":-0.053783677350731286,"56":0.1263507866970378,"57":0.3304052630272517,"58":0.12953231567475101,"59":0.07451130622111876,"60":-0.044481945507057294,"61":0.11855144945677344,"62":0.05125247907139188,"63":-0.11558850345037786,"64":-0.1187439694533402,"65":0.09765286862691681,"66":0.04074653947607349,"67":0.018941226501641047,"68":0.02531013412938837,"69":-0.03794801825896038,"70":0.12932470423478257,"71":0.10353524526406029,"72":-0.032861093697861464,"73":-0.11997673084329594,"74":0.20604378573514048,"75":-0.07661842058692724,"76":0.09725855291947537,"77":0.06497166462240465,"78":0.160102163384147,"79":0.08581451105380052,"80":-0.07339258299156397,"81":-0.04158181468238063,"82":-0.1281031777085853,"83":-0.07348001474792036,"84":-0.00543331915185505,"85":-0.02661736881643134,"86":-0.06694884501910017,"87":-0.06268582984198479,"88":-0.013873558850292433,"89":0.029954877913062644,"90":-0.3026979789195059,"91":-0.046439646688310285,"92":-0.02772852410879781,"93":-0.1140380861708398,"94":0.03695118468756644,"95":0.015870249599829925,"96":-0.006214996809567532,"97":-0.025247246123955666,"98":0.04081639337076359,"99":0.02625927067166195,"100":-0.1227357064124244,"101":0.1524186889711777,"102":-0.058652943134018094,"103":0.04179999606667136,"104":-0.2310406118255057,"105":0.17007944530333297,"106":-0.19621094663846142,"107":0.006797070580394709,"108":-0.07611267545165491,"109":0.021167679602788803,"110":-0.12130481299338866,"111":-0.07305110828310217,"112":-0.02148806063635204,"113":-0.08629896153986749,"114":0.12816443321416662,"115":-0.20038775813399906,"116":0.032177068997940705,"117":-0.04595465493348088,"118":0.11809600258396995,"119":0.005571750249542728,"120":0.08119861016983229,"121":0.0829620503331827,"122":0.07631690100587848,"123":-0.16701614390359745,"124":-0.13415369318344403,"125":0.0208361421380556,"126":0.031214925549157335,"127":-0.07902980913219086,"128":0.10603737215214842,"129":-0.07303656560552309,"130":-0.05203377137563902,"131":-0.07656093968984881,"132":-0.09615116571137586,"133":-0.055546789757061135,"134":0.014842042770210798,"135":-0.03774617203863058,"136":0.13585545705853608,"137":0.0748547674943266,"138":0.04011552787387535,"139":-0.004085674810291585,"140":0.01777911800535846,"141":-0.04797924517889052,"142":0.14677025126223786,"143":0.04103461871949775,"144":-0.05133234774861446,"145":0.04807394487157598,"146":0.07948132750807027,"147":-0.13207744318769135,"148":0.0816833194637422,"149":0.032012117935275225,"150":-0.1776938476649197,"151":0.058097388815978326,"152":-0.23623268147817578,"153":0.10316289667465477,"154":-0.07441915042991298,"155":0.007406378127401538,"156":-0.09149485994287285,"157":-0.26200056628285207,"158":0.0684089357943276,"159":-0.1468381625801119,"160":0.012629441578738573,"161":-0.08962793172271213,"162":-0.10423800628502297,"163":0.013937184990497693,"164":-0.05714823676501203,"165":-0.07059429745563169,"166":-0.0956060217901396,"167":0.10481659465192383,"168":-0.1305182301424112,"169":0.19602202004572872,"170":-0.07861653489973949,"171":-0.0922353234107214,"172":-0.28108772992344117,"173":0.023491450067883585,"174":-0.03509251407339383,"175":0.05403747742916751,"176":-0.07059879713787431,"177":-0.15531812152530045,"178":-0.03018711819015229,"179":-0.0977327911301759}},{"sx":3,"sy":3,"depth":20,"w":{"0":-0.09914375141240625,"1":-0.03259425444934822,"2":-0.1479163926842154,"3":-0.13035962077119237,"4":0.03722068186435066,"5":-0.16784433826035333,"6":-0.07602601519791163,"7":0.09134907457426929,"8":-0.17680306264233075,"9":0.09474198659257382,"10":-0.061774018321073286,"11":-0.02960410155683033,"12":-0.12099925180821146,"13":-0.11228849918734977,"14":-0.12938255407707974,"15":0.01036203592928072,"16":0.016626082324925646,"17":-0.13851691409076652,"18":-0.08952067633905422,"19":-0.23673812395502142,"20":0.17085668623882677,"21":-0.15147473044594698,"22":-0.027291003487606234,"23":0.11265663236551204,"24":0.01704516083673345,"25":-0.07414110692636874,"26":-0.06479617673354579,"27":0.17915600326299583,"28":-0.07873398635446047,"29":-0.11456865902390861,"30":-0.07004043337259334,"31":0.053037930502737446,"32":-0.10814744812827866,"33":-0.14153468042854703,"34":-0.13330198966801177,"35":0.023852871994813674,"36":0.07298916564768355,"37":-0.32994901216325,"38":-0.14182721659006522,"39":0.044123612967508996,"40":-0.1453631045562974,"41":-0.07162312868319841,"42":-0.11628857708420492,"43":0.1244691500747273,"44":0.0002295832760381242,"45":-0.016755246182204503,"46":-0.13255467755793984,"47":0.06624319302610726,"48":-0.08375487906767451,"49":0.04147351118126449,"50":-0.2038526409861559,"51":0.11775884075273416,"52":-0.07885336788008233,"53":0.005661949921333302,"54":-0.1337700534271652,"55":0.08140242156315117,"56":-0.07886554289980689,"57":-0.20406870555802237,"58":-0.081181715601407,"59":-0.010349400151150148,"60":-0.04299160057215974,"61":0.0034708772310718013,"62":-0.16848709826831781,"63":-0.02432235581701779,"64":-0.06412706342087955,"65":0.03384865346621901,"66":0.04887978111283016,"67":-0.25595968601578306,"68":0.00936051010781696,"69":0.007375156846267507,"70":-0.0972889353832178,"71":-0.12977144631114598,"72":-0.10693072402044351,"73":-0.07938697695616227,"74":-0.11010934087632525,"75":0.04452533028241013,"76":0.16226799351654328,"77":-0.105116007849562,"78":-0.04126984278196409,"79":-0.011085744003636759,"80":0.0510294999468319,"81":0.033506399778784314,"82":-0.06590267166170832,"83":-0.1320869730325154,"84":0.041888170544921145,"85":-0.0066987937121382474,"86":0.025228268852910216,"87":0.08733594580679355,"88":-0.07950214730560828,"89":0.11274283419521987,"90":-0.059444352727659404,"91":0.011015168804144868,"92":-0.19684879809590014,"93":-0.023628811951667328,"94":0.06326788519984475,"95":0.030346151102984546,"96":0.0002690780933690425,"97":-0.1131715364537477,"98":-0.061373318491581466,"99":-0.09007620342224523,"100":0.06946761669674624,"101":-0.017457672722016968,"102":0.061961022491268905,"103":0.06736959949065971,"104":0.08197921116216589,"105":-0.013744014241113033,"106":-0.029816533001577147,"107":-0.055647496131257884,"108":-0.0238268111028109,"109":0.10157808189324292,"110":-0.04553097362412344,"111":-0.0485109788839483,"112":-0.13429321659719412,"113":0.19438019744721616,"114":0.03224101794414024,"115":0.08598817540932181,"116":0.04961239837072946,"117":-0.2537160707593819,"118":-0.05012742093528192,"119":-0.010632189789475027,"120":-0.021917649094043822,"121":0.09471873322627554,"122":-0.11708893916062273,"123":-0.20710642177420893,"124":0.08169953851053735,"125":-0.1695873540130335,"126":0.06891478721994142,"127":-0.21063153301159818,"128":-0.013653833416599797,"129":0.06201139657587697,"130":-0.16995975452490475,"131":-0.2147340529450562,"132":-0.12811379415802068,"133":0.07544610425742002,"134":0.04059472316525182,"135":-0.025568770444602384,"136":-0.07296492714775085,"137":-0.14181071291523917,"138":-0.24094395746250744,"139":-0.13913900951281777,"140":-0.10111296083551427,"141":-0.08857061105375973,"142":-0.15720782569996683,"143":0.047825318007092305,"144":-0.07392118721037368,"145":-0.021767991689846035,"146":0.31904901490380694,"147":-0.10131251995527336,"148":0.04323969678715792,"149":0.07389026440636012,"150":-0.03400917990515605,"151":-0.07470862501035509,"152":-0.18997176046255898,"153":0.03653154679742682,"154":-0.1350441395755198,"155":0.13705237617372037,"156":-0.0616637807755289,"157":-0.00979923802745289,"158":-0.03652885717678899,"159":0.04125825533742452,"160":0.096800008402229,"161":0.15679739522914393,"162":-0.20854503558808096,"163":-0.0899626670990214,"164":-0.020302114529403042,"165":-0.04982523670246808,"166":0.052178872481065244,"167":-0.3060917218055356,"168":-0.134600555400255,"169":0.052049304336325035,"170":0.05548518943228841,"171":-0.12070410552462182,"172":-0.011542809127223384,"173":0.17165113622548117,"174":0.021875307727375545,"175":0.07931537808627258,"176":0.009137862623063781,"177":-0.008408699115923252,"178":-0.1182985083486469,"179":0.057902495218990525}},{"sx":3,"sy":3,"depth":20,"w":{"0":0.023445733550121594,"1":-0.12650980805434542,"2":0.09170780525635108,"3":-0.14964944512529565,"4":-0.09884875394355891,"5":-0.038350894503450896,"6":-0.21684697894530117,"7":-0.009796748976847564,"8":0.064731252514262,"9":-0.11510202788144169,"10":0.19099301371070782,"11":-0.046637882965413865,"12":0.11986990656415532,"13":-0.05423731856209474,"14":0.14901103246489233,"15":0.03460409220267272,"16":-0.0018565414483757898,"17":-0.1316702697699565,"18":-0.1037678227025113,"19":-0.15794541863249878,"20":-0.022665590397076055,"21":-0.04336403722021754,"22":0.19403676501322173,"23":-0.32789819493149613,"24":-0.0589492202071746,"25":-0.0182501478076473,"26":-0.04218826578662224,"27":-0.12722600220364633,"28":0.045423890881329046,"29":-0.08362590107174613,"30":0.06939758580463277,"31":-0.13435404984357202,"32":0.14479302601491942,"33":-0.16235373471742343,"34":0.11976618380088572,"35":-0.050665337395188324,"36":-0.05059917298704459,"37":-0.14530123681866727,"38":-0.03750624479213741,"39":-0.17964931594361,"40":-0.05757941501509328,"41":0.030090770498961274,"42":0.12595875393828343,"43":-0.08709286144730362,"44":-0.09753305679818283,"45":0.05224842440521152,"46":0.049416452989667486,"47":-0.06972240334731573,"48":-0.01974653085309628,"49":-0.05185229017029772,"50":0.12408888751278756,"51":-0.08392224729015026,"52":0.20649108815889194,"53":-0.12753297458404605,"54":0.042840139029539294,"55":-0.012184473114200855,"56":-0.04381300741760266,"57":0.06290140032777479,"58":-0.061419876474911594,"59":0.04989019066512626,"60":0.06107075951796917,"61":-0.0053070007720800805,"62":-0.057741329994752975,"63":-0.0014714324652462933,"64":0.08456347917373494,"65":0.03727118951507601,"66":0.061115673773765956,"67":0.21225947741168066,"68":-0.10620433197391675,"69":-0.0008676686092037334,"70":0.03912109014992296,"71":-0.0006760386622486015,"72":-0.17439794702906497,"73":-0.020431382264694528,"74":-0.03227000579497905,"75":0.10377777876264306,"76":-0.0027833639494492545,"77":-0.14656265707348162,"78":-0.04401385307570638,"79":-0.05737719046612247,"80":0.08863572885799913,"81":-0.0030617782068658615,"82":-0.210165549224581,"83":-0.018359287149145264,"84":-0.10224823358270799,"85":-0.04273330232465981,"86":-0.07372704256846993,"87":0.26743122266627445,"88":-0.12247939715898311,"89":-0.010609430463835147,"90":0.03592259017041,"91":-0.20594851609608555,"92":-0.21441015183207238,"93":-0.2038054928472348,"94":-0.07739874896391362,"95":-0.06415191788392377,"96":-0.022479852048173328,"97":-0.18033415951449797,"98":-0.14759379384924076,"99":0.10655054874075105,"100":-0.075091160009532,"101":0.043226575989102234,"102":-0.0790767419307019,"103":0.0585277931831566,"104":-0.12596462839279596,"105":0.04831870022926932,"106":-0.0039334473927944945,"107":0.30654276826647253,"108":-0.02738970189159477,"109":-0.06962600699144095,"110":-0.048559643305019905,"111":-0.0749491602168476,"112":-0.0049263967422280485,"113":0.028001990475980523,"114":0.1870546164715212,"115":-0.022381684580263825,"116":0.06449633470064266,"117":-0.07191578976438005,"118":0.053243671200214115,"119":-0.012937109528879073,"120":-0.1414131932373845,"121":0.0374171067339943,"122":-0.043407402218382664,"123":-0.02828571210565297,"124":-0.08421979961748886,"125":0.028961263823141976,"126":0.06767677452126533,"127":-0.05804357380255186,"128":0.025527481757568277,"129":-0.011129763285587202,"130":0.00446846311733851,"131":0.006897481740263755,"132":0.09535229471463459,"133":0.1115351887761261,"134":-0.08694476806749442,"135":-0.041820537182292096,"136":-0.009913895960331362,"137":-0.1340096145896433,"138":-0.08417402248296381,"139":-0.04343474823545025,"140":0.09687091983146018,"141":-0.17853813088403392,"142":-0.04051071490085617,"143":-0.2049481197570143,"144":-0.11312334059543529,"145":-0.10074992429434095,"146":0.03758270073534019,"147":-0.2471140695076404,"148":-0.08308306172793126,"149":-0.032747603497919504,"150":0.030306254459147145,"151":-0.2272498694942941,"152":-0.14943094703390697,"153":-0.0346922330497199,"154":-0.09246037981157806,"155":0.0393426047270669,"156":-0.11382785379209155,"157":-0.2743483312336229,"158":-0.044641189255926354,"159":-0.16948119216341825,"160":0.003997187539978284,"161":0.09562779429075163,"162":0.15318836305772296,"163":-0.11356070315645148,"164":-0.1979184305784781,"165":0.06095678560447008,"166":-0.0021595521779127205,"167":-0.12086976117693464,"168":-0.07468181691563516,"169":0.0064122425399976875,"170":-0.1691738863001169,