{"layers":[{"out_depth":3,"out_sx":32,"out_sy":32,"layer_type":"input"},{"sx":5,"sy":5,"stride":1,"in_depth":3,"out_depth":16,"out_sx":32,"out_sy":32,"layer_type":"conv","l1_decay_mul":0,"l2_decay_mul":1,"pad":2,"filters":[{"sx":5,"sy":5,"depth":3,"w":{"0":0.01962721712630503,"1":-0.13496466803775067,"2":-0.1433943116497126,"3":-0.6339460897151811,"4":-0.60710650732215,"5":-0.5557217422206091,"6":0.1507835623117534,"7":-0.11204560847170056,"8":0.09072990097255196,"9":0.15337527132337203,"10":0.34127961502503934,"11":0.3300011018800906,"12":-0.093339015029584,"13":0.0811961127191718,"14":-0.012201527825176028,"15":-0.024739509574969135,"16":-0.6369308094142593,"17":-0.3592034044427877,"18":-0.16130995878612323,"19":-0.18722678248284336,"20":-0.09231317161487486,"21":0.3040124443646924,"22":0.5148769321434832,"23":0.3980896807829497,"24":0.2556271279715758,"25":0.2830418180138783,"26":0.2592122915855359,"27":0.03625559734206037,"28":-0.032043564105178605,"29":0.1277141871798266,"30":-0.2076910895208876,"31":-0.38256843568661475,"32":-0.31386311460818495,"33":0.3776092365241695,"34":0.2788795570851224,"35":0.07789488966350075,"36":0.05805532289588661,"37":0.3261752930022681,"38":0.13570807915842692,"39":-0.025435667545877828,"40":0.16355609074920635,"41":0.055280337066754316,"42":-0.052345839831139676,"43":-0.15494523957045692,"44":0.1646568601120264,"45":0.06743518176521286,"46":0.02025986024810861,"47":0.18380222006557803,"48":0.0135357407612127,"49":0.3609792196019753,"50":0.04575061823926518,"51":0.053433228487590634,"52":0.10850787242711066,"53":-0.01556384300629227,"54":-0.19219119733379497,"55":-0.16246701747459538,"56":0.00395096410186114,"57":-0.13703144984866325,"58":-0.18474455982508012,"59":-0.027273293728158364,"60":0.3859523870655339,"61":0.1439969340373777,"62":0.39074690569791265,"63":0.23311159665682907,"64":0.19424766783793157,"65":0.021323602152896668,"66":-0.03390643905920139,"67":0.053920874605330765,"68":-0.20355286680608434,"69":-0.3378099090702418,"70":-0.2859085851522951,"71":-0.3045323541953761,"72":-0.19292156891244577,"73":-0.32287074807632166,"74":-0.24717042467804803}},{"sx":5,"sy":5,"depth":3,"w":{"0":-0.12686956237852223,"1":0.03043338726517533,"2":-0.08918400363782344,"3":-0.13920163977008856,"4":-0.02414440189506654,"5":-0.06748111530289017,"6":-0.06117649385243245,"7":-0.22182941899238962,"8":0.020850294277127465,"9":0.014274541088033407,"10":-0.17028132927696646,"11":-0.11412777513153463,"12":0.06779248262458766,"13":0.03934462695641805,"14":-0.015314719157131774,"15":-0.02443077974742956,"16":-0.21924420652033164,"17":-0.1242887705361446,"18":-0.03165087423597396,"19":0.11086601416722804,"20":0.13379703217613115,"21":0.1223307344674188,"22":0.23444676551571803,"23":0.11713684335952002,"24":-0.10274908674676049,"25":-0.06233223434274938,"26":-0.23524522252941255,"27":0.17687327188958885,"28":0.06266760859893679,"29":0.0714934318793444,"30":-0.15114014661189196,"31":-0.21604946880047038,"32":-0.2713406092862876,"33":0.018245266634215457,"34":0.03431359254788497,"35":0.11879914580625586,"36":-0.0009514840365655564,"37":-0.11811620367144057,"38":-0.1159072915801642,"39":0.024256009345019616,"40":-0.1187984965716879,"41":0.07001860218317016,"42":-0.12790269244392907,"43":0.175910062927136,"44":0.057457501884101855,"45":-0.30252055809321443,"46":0.07952321426397885,"47":0.08043852806002243,"48":0.1694188654755428,"49":0.039983048001205106,"50":0.24598028545731346,"51":-0.06206793928135854,"52":-0.0809300441372423,"53":0.03434569184809429,"54":-0.20599411912797944,"55":-0.12346761278567334,"56":0.184872950425482,"57":0.05771649659348954,"58":0.10894505178810816,"59":0.1563881303940257,"60":-0.4280809690887564,"61":-0.12289943689411464,"62":-0.17308562291669996,"63":0.06190999255330992,"64":0.12595512588992688,"65":-0.06383976059930196,"66":0.08864688384099756,"67":-0.04147375751288679,"68":-0.11503264180482765,"69":-0.023285107852087348,"70":0.016909260086844582,"71":0.12849015375607992,"72":-0.145273311899798,"73":-0.19547490383848928,"74":-0.22480467580533497}},{"sx":5,"sy":5,"depth":3,"w":{"0":0.162495266478014,"1":0.056313137415435616,"2":0.16576608914936847,"3":0.09575766339745732,"4":-0.18246037560480877,"5":-0.16521139667747617,"6":-0.284492503774904,"7":-0.2563872587860048,"8":-0.32696610996635767,"9":0.017612373153109925,"10":-0.07331023953331108,"11":-0.03818825299178755,"12":0.2233216966864756,"13":0.1334841948824042,"14":0.13306814970800032,"15":-0.16392603944140832,"16":-0.21142782568466734,"17":-0.17159523130868512,"18":-0.26259586653941525,"19":-0.19227824159446782,"20":0.003852123729108994,"21":-0.21383407250424327,"22":-0.0227623048245279,"23":-0.3177023612373033,"24":0.017201306648842556,"25":0.26848175540475294,"26":0.2486355107240215,"27":0.0587968159026091,"28":0.5823813775537082,"29":0.1654234118897063,"30":-0.37568165868230524,"31":-0.4678075645125154,"32":-0.5082101831187713,"33":-0.1319383629622376,"34":-0.12200918223921328,"35":-0.16750063057226383,"36":-0.08593924386181592,"37":-0.15835277560938904,"38":0.027399776657782607,"39":-0.011022620072858607,"40":0.06955050389171272,"41":-0.02808905474761107,"42":0.4754174350827653,"43":0.41165222643290933,"44":0.37428817325616226,"45":0.10590852339431524,"46":0.053350311670070406,"47":0.060028453182961974,"48":0.09011138594847137,"49":0.07399857094396042,"50":0.2596662460385213,"51":-0.10014015207937509,"52":-0.14215331425561836,"53":0.07511527826254201,"54":0.02932755756247637,"55":-0.11670590037907909,"56":0.10870895106699402,"57":0.13612336013373016,"58":0.015777694764641515,"59":0.10784906237805238,"60":0.19826103044096713,"61":0.10847971221046654,"62":0.2282165086332538,"63":0.07057069712170498,"64":-0.00685184895700407,"65":-0.012093992761656827,"66":0.22368803347130123,"67":0.14989618724340037,"68":-0.08168238097277494,"69":0.11900461835313518,"70":-0.006522960445198256,"71":0.05861439577873107,"72":-0.22302487667232962,"73":-0.2586925928984791,"74":-0.05043190360449787}},{"sx":5,"sy":5,"depth":3,"w":{"0":-0.08488947660960473,"1":0.10981786728846077,"2":0.012530906521813373,"3":-0.021357476208396384,"4":-0.03143986556943585,"5":-0.1406488167945469,"6":0.008899550707684988,"7":0.0955723810282714,"8":-0.143693927661215,"9":0.10724513250932774,"10":-0.023712216822686764,"11":0.15109581893174653,"12":-0.1099680634461181,"13":-0.038403807554653176,"14":-0.039322918856195106,"15":0.135818236852479,"16":0.12278331457036619,"17":0.1969231888432324,"18":0.28260401788231654,"19":0.13250264644005647,"20":0.3339869935219214,"21":0.045087027575894154,"22":0.11652860487481155,"23":0.1455783304326202,"24":-0.01661823363723973,"25":0.11994788774071492,"26":0.03183630506126829,"27":-0.04680010805345098,"28":-0.07801894847107492,"29":0.06875626572745434,"30":0.15783243053946405,"31":0.11492780413437706,"32":0.27816670036450464,"33":0.19016008990445857,"34":0.274969389581906,"35":0.1188628123604179,"36":-0.009040058698546145,"37":0.0358801265806054,"38":0.06961393812412936,"39":0.2714723290288521,"40":0.30525963175552057,"41":0.190094275552828,"42":0.0676519473077435,"43":0.018447386399622748,"44":-0.27013161019430476,"45":-0.035170856296926414,"46":0.2565196121013619,"47":-0.09943504592952145,"48":-0.2607629143961535,"49":-0.25508623692551363,"50":-0.1624578504033293,"51":0.11340040946439549,"52":-0.2156902654212647,"53":-0.20556814178738936,"54":0.18033066065154219,"55":-0.09112291014221403,"56":0.023473785913184872,"57":-0.05282614366069363,"58":-0.106370155529172,"59":-0.04750318960305421,"60":-0.2533511973379507,"61":-0.3162484377200741,"62":-0.15770397970256078,"63":-0.1547649804259312,"64":-0.17234923230778343,"65":-0.1784898744086842,"66":0.22582575706302516,"67":0.006579472501641545,"68":-0.21703061721547673,"69":-0.20806649117523063,"70":-0.38867634481515956,"71":-0.13306634802653014,"72":0.09039842711575012,"73":0.07725050621775296,"74":-0.07369024266377487}},{"sx":5,"sy":5,"depth":3,"w":{"0":-0.05079276673734356,"1":0.12674115280133325,"2":-0.06656407747504049,"3":0.1514761595912013,"4":0.018796714704651548,"5":-0.12451406717257496,"6":-0.21747818217279782,"7":0.02380596818163529,"8":-0.3506555766485003,"9":-0.015736938079796578,"10":0.07769914123499028,"11":0.0076617402047128875,"12":0.10968918683723812,"13":0.07157578017758429,"14":0.055901016400606955,"15":0.16402123501084498,"16":0.3378220715810882,"17":0.2962680158067948,"18":0.09963305039116953,"19":-0.0638234570363933,"20":-0.016762920893289134,"21":-0.18658696507334502,"22":-0.4545253729540013,"23":-0.3336833414835037,"24":-0.05891691042885842,"25":0.03875089222013317,"26":0.016193352969432216,"27":0.2302533524740466,"28":0.25712140534424305,"29":0.1448226944555468,"30":0.06359606203468345,"31":0.1355511446400843,"32":0.2948671181097485,"33":0.19798068129952648,"34":-0.03173534419940454,"35":0.1747256201709617,"36":0.011277629254010262,"37":-0.3355290944665306,"38":-0.24626765832381867,"39":-0.12930946858147507,"40":-0.08580425011599935,"41":-0.08816988465729018,"42":-0.09826480384103624,"43":-0.180986063532369,"44":-0.11506960117646534,"45":0.25343153678251373,"46":0.0051093402201850295,"47":0.12688323910628208,"48":-0.02351450647127577,"49":0.06844683311454276,"50":-0.03858173430592693,"51":0.09403829314999003,"52":0.19306598757756235,"53":0.040998716639589136,"54":-0.21868666712555132,"55":-0.05259737393928075,"56":-0.29412704367543807,"57":-0.06718458025125999,"58":-0.18441566015406544,"59":-0.1822560454487208,"60":0.13410630890800604,"61":0.12131785480220965,"62":-0.06096707226947633,"63":-0.020712206230448758,"64":-0.08392019165899756,"65":-0.2518345795114132,"66":0.16492280563894762,"67":0.21210536294209925,"68":0.22221124644066698,"69":-0.306670758505027,"70":-0.13570084569880547,"71":-0.19183728777118675,"72":0.06468701111504731,"73":0.24333735896688227,"74":-0.045120776600195325}},{"sx":5,"sy":5,"depth":3,"w":{"0":0.02176475717128884,"1":0.1167640943352695,"2":0.08060641734492706,"3":-0.1763714241010068,"4":-0.36008187117643886,"5":-0.10997659336968825,"6":0.2732934072330355,"7":0.024050035937023984,"8":0.051195030143829284,"9":-0.06373773846925478,"10":-0.061229779238222724,"11":-0.015455418976724807,"12":0.042530269229503447,"13":0.11788412085422967,"14":0.03956360818427311,"15":0.14971346110142278,"16":0.01983285013372424,"17":0.18931119388237808,"18":-0.05421955952989044,"19":0.12272750287605048,"20":0.05056212633234583,"21":-0.011279735583682345,"22":0.01306181684725295,"23":0.06398138875550867,"24":-0.13489743794493583,"25":-0.11399349715526529,"26":-0.23671697054147792,"27":0.0014294060614811863,"28":0.0044634160993263314,"29":0.049477615317728915,"30":-0.07346541304401195,"31":-0.08214857897285963,"32":-0.25956344577376916,"33":0.0815656271202262,"34":-0.04704703686587407,"35":-0.2722698899644742,"36":-0.13348882582528432,"37":-0.06523633145365519,"38":-0.08655155686110774,"39":0.13116296352867135,"40":0.03959467880814531,"41":0.004457555120051083,"42":-0.22157638542792787,"43":-0.3195277128192711,"44":-0.1653831034916182,"45":0.051019672338309126,"46":-0.06668094079216177,"47":0.1349437684309545,"48":0.07242928075043646,"49":0.10235958402431884,"50":0.21834643683867205,"51":0.09923477314511203,"52":0.12556273349405273,"53":-0.030876755625152106,"54":0.2433881839308834,"55":0.2646880535803778,"56":0.5090394127171061,"57":-0.01082083986139976,"58":0.1078849546622746,"59":-0.0010127119318980135,"60":0.10971342443538314,"61":0.07440155117240393,"62":0.011442277797219604,"63":0.012035940078231073,"64":-0.018585908804088603,"65":-0.14749782499727676,"66":-0.022935564398021333,"67":-0.16125094504265847,"68":-0.10364557055999439,"69":-0.0589159650560581,"70":-0.14414245974718787,"71":-0.2669471092562811,"72":-0.038730558622506996,"73":-0.19008491967296015,"74":-0.19666209044091343}},{"sx":5,"sy":5,"depth":3,"w":{"0":-0.17875358502843527,"1":-0.24683356065097803,"2":0.07235692530142365,"3":-0.2214085550068087,"4":-0.04202387677836561,"5":-0.323853103212253,"6":-0.05961640172185714,"7":0.15994839849456913,"8":0.010556004073533663,"9":0.2629521922390625,"10":0.32982143295292055,"11":0.15001464757393604,"12":0.004620663489183962,"13":0.002667704940243806,"14":0.19813307396853316,"15":-0.03780575925469597,"16":0.14297114625795504,"17":0.042119164298257857,"18":-0.007697875810231129,"19":-0.09395129618369343,"20":-0.09676757909138645,"21":-0.3718467326012045,"22":-0.3287954057024717,"23":-0.5484728456642,"24":-0.1502483370146528,"25":-0.050931676976096296,"26":-0.2419949716541161,"27":0.013367398377666335,"28":-0.05075727312921382,"29":0.18695059348405504,"30":0.09305596640709246,"31":0.07087879412546887,"32":0.16324140675524612,"33":0.294157238028074,"34":0.21511484994056337,"35":0.11627708031112385,"36":-0.09340792852156772,"37":0.24805254894678178,"38":0.06278662514594191,"39":-0.323091638993247,"40":-0.28485298851441,"41":-0.3030633541342803,"42":0.030111028995423478,"43":0.09048793068643811,"44":-0.1342139553063696,"45":0.016221222165292926,"46":-0.03280684669265363,"47":-0.007413881928114545,"48":0.19532348373475095,"49":0.09056081593788894,"50":0.21169696685876474,"51":-0.030165536960589778,"52":0.13974180985413226,"53":0.37205187286680674,"54":0.054336984293068116,"55":-0.10495134842413846,"56":-0.01642675620882806,"57":-0.4400565950330055,"58":-0.2015428640728104,"59":-0.2549295845954124,"60":0.0160338714403426,"61":-0.10513560616772302,"62":0.08045830395640616,"63":0.041904961513817916,"64":-0.030179788609393642,"65":0.044083380581042504,"66":0.06391457085618225,"67":0.04575656752222843,"68":0.20968240904518673,"69":0.20535707325324415,"70":0.36767710406215465,"71":0.17249208426884982,"72":0.15565566574688527,"73":0.3284976055783308,"74":0.2270837755696289}},{"sx":5,"sy":5,"depth":3,"w":{"0":0.079594320909407,"1":-0.08868126050849984,"2":-0.1071700372903921,"3":-0.19986012830185704,"4":-0.05575518178767913,"5":0.07690356036260887,"6":-0.0664157021805473,"7":-0.09042709810949585,"8":-0.29629668410678983,"9":0.09669092221441875,"10":0.13314782011476897,"11":0.2029927204223074,"12":-0.05146737298722725,"13":0.15637710900489904,"14":-0.054140009946916666,"15":-0.006931195000557658,"16":0.010261804751863201,"17":0.02909864775938996,"18":0.0028136068790995286,"19":0.07988390363219733,"20":0.10422252032525837,"21":-0.05273291219920229,"22":-0.03485331116949832,"23":-0.30400528667422133,"24":-0.09681409379780057,"25":-0.3767956096468761,"26":-0.23714995410864737,"27":-0.056602571539199294,"28":-0.025956554577956547,"29":-0.03522181719426704,"30":0.02196979651116253,"31":0.18512045509312963,"32":0.24019938396774082,"33":0.3676556813748922,"34":0.22514818607983147,"35":0.10379304251825777,"36":-0.0691617516070557,"37":-0.06809472363366904,"38":0.16134433494729059,"39":-0.021689544181228437,"40":-0.1464392743818557,"41":-0.018740841222944664,"42":-0.2163301019731425,"43":-0.19947308266178515,"44":-0.11057865340217758,"45":-0.2851735550298514,"46":-0.014438703094077248,"47":-0.1668954257578795,"48":-0.050180882087500905,"49":-0.07731192385393967,"50":-0.17525127625353873,"51":-0.25377939784170706,"52":-0.011899007570578985,"53":-0.1714763753101431,"54":-0.08222226689728074,"55":0.024708637162700286,"56":-0.15657451872439282,"57":-0.3329879337213641,"58":-0.2956721532441502,"59":-0.2094015046319556,"60":-0.046624789526819914,"61":0.12660389855751278,"62":0.063642978654759,"63":0.020783543041838527,"64":-0.09184201444630344,"65":0.02244988949817543,"66":-0.023420850794447917,"67":0.09988206352558734,"68":-0.018160402954711476,"69":0.18696045850950785,"70":0.15126673512002634,"71":-0.026245110781334558,"72":0.027815905031795596,"73":0.11183028756351458,"74":0.08230387520328085}},{"sx":5,"sy":5,"depth":3,"w":{"0":0.4232096637377793,"1":0.272072466301373,"2":0.4136140157644738,"3":-0.14698398426656617,"4":-0.07260527947316799,"5":-0.1040822870819494,"6":-0.2580071203985753,"7":-0.06202025501678014,"8":-0.23780666752632298,"9":-0.07770285789341219,"10":-0.14660044553358487,"11":0.09913846795959906,"12":-0.059837576088165874,"13":0.06775147887973768,"14":-0.00333132682607828,"15":0.13801334075064495,"16":0.3495967173803967,"17":0.1421876613233872,"18":-0.41873788924592925,"19":-0.35757861876610497,"20":-0.46785422191418297,"21":-0.06248404960907517,"22":0.12558762049137334,"23":0.14326325887876898,"24":0.02587512374902943,"25":0.11021144775319983,"26":0.1727138002565855,"27":0.22145219048634152,"28":0.21894779679603685,"29":0.02916582274034733,"30":-0.03251728281622439,"31":-0.10231447626956362,"32":0.030251458692889876,"33":-0.17110557921682826,"34":-0.22567125238635805,"35":-0.20059801477139122,"36":0.12484327279827664,"37":-0.027489624309053863,"38":0.22037314635963462,"39":-0.09280665360184998,"40":0.10131149558237759,"41":0.11792080993879381,"42":0.06333277746046505,"43":-0.20284356503199766,"44":0.04413197443634637,"45":-0.0636246903546201,"46":0.08847565185299411,"47":0.0596515142415147,"48":-0.14020482947743515,"49":0.021989416118236543,"50":-0.014752196858464657,"51":0.1487083088392677,"52":0.28452672903294296,"53":0.05627382386977634,"54":-0.04161805696768054,"55":-0.1007260954871933,"56":0.12515607510621174,"57":-0.10571387092404888,"58":-0.052187637834880375,"59":-0.016952392037102866,"60":0.15433745425829284,"61":-0.12179936290012072,"62":-0.18135988196405806,"63":-0.07120829443775804,"64":0.04872694384210246,"65":-0.09710148505563056,"66":0.10367047235689385,"67":0.13465848964488766,"68":0.1200599679035066,"69":-0.01744356197087716,"70":-0.03947721016216281,"71":-0.36946670642869567,"72":-0.1298187278968155,"73":0.1743433971434232,"74":-0.12689290380784993}},{"sx":5,"sy":5,"depth":3,"w":{"0":0.027599354113931034,"1":-0.008790418774132707,"2":0.16788673000895835,"3":0.0799380472765383,"4":0.15773587036509476,"5":0.12043523246411031,"6":-0.04378261694345084,"7":-0.11818386159119641,"8":-0.022181750248449077,"9":-0.017816163457188915,"10":-0.1334206451149053,"11":-0.03162086558235247,"12":0.08612296291813092,"13":-0.10177605783855811,"14":-0.13079139468385015,"15":-0.043325291408228286,"16":0.08308930535893075,"17":-0.25028974660704556,"18":-0.36544442939752486,"19":-0.15890063833618395,"20":0.06820539425448241,"21":-0.013916133445306343,"22":0.03320594822222269,"23":-0.16982324291089407,"24":0.04660741720084049,"25":-0.07258238394641107,"26":-0.07719693858444947,"27":0.26839346388083174,"28":0.23611074460812792,"29":0.2310326344866651,"30":-0.28393149883730867,"31":-0.2069557508855451,"32":-0.13779375263214758,"33":-0.18261645839190202,"34":-0.14947932955540816,"35":-0.0933229910194351,"36":-0.0348253282936851,"37":-0.05638612078572448,"38":0.15211444764981033,"39":-0.048732545221335036,"40":-0.053096987991495766,"41":-0.20342946137334247,"42":-0.16779319693229452,"43":-0.07591121020347848,"44":-0.2644947586414072,"45":-0.08374674675203542,"46":0.15502621995213375,"47":-0.20500771310870491,"48":-0.07536332466098332,"49":-0.3632249251744335,"50":-0.0409153919558782,"51":-0.024148882124371378,"52":-0.1005290772286792,"53":-0.03267287814563208,"54":-0.07818668377623811,"55":-0.08554071500659834,"56":-0.19591910290409903,"57":-0.24210698861663127,"58":-0.16875957669496874,"59":-0.3767796900645568,"60":-0.1287749364893311,"61":-0.12629452393508217,"62":-0.06602859955222341,"63":-0.16248484550806955,"64":-0.06577292989715393,"65":-0.096205084631689,"66":-0.1821297339094674,"67":0.03689811007629942,"68":-0.20999323196610276,"69":-0.08781390995995125,"70":-0.049477523657047405,"71":-0.050663067384534584,"72":-0.10984796374455891,"73":0.014526365697722428,"74":0.14788108320828913}},{"sx":5,"sy":5,"depth":3,"w":{"0":-0.14570034252359382,"1":0.01494317914644887,"2":-0.06970463353572807,"3":-0.022553910096366498,"4":-0.1692778018949556,"5":-0.11032503072531027,"6":0.10049807451141109,"7":0.08596569865973794,"8":0.12235570710008939,"9":0.10087983215134193,"10":0.03678187370470074,"11":0.22214309417891398,"12":-0.19195967216419324,"13":0.006661322711630892,"14":-0.11044951103685159,"15":0.18874613418163075,"16":0.05528898598472848,"17":-0.07197728453372113,"18":0.0749059278129996,"19":-0.24810341625503968,"20":-0.11031584594379323,"21":0.016242205886188788,"22":-0.0010768033833479715,"23":-0.08751853470817454,"24":-0.12360973985184025,"25":0.12001510272097124,"26":-0.19347745847778836,"27":0.16230375298262464,"28":0.06477868648778773,"29":0.10770742884499618,"30":-0.316477174764613,"31":-0.269673916389677,"32":-0.3329857663183806,"33":-0.2657507329408002,"34":-0.3600952622973233,"35":-0.4477943770053849,"36":-0.12073723652104053,"37":-0.19157200379149242,"38":-0.2678013107400068,"39":-0.13252940259553733,"40":-0.14012958133034178,"41":-0.24342176392475207,"42":-0.262662364308495,"43":-0.26032450344690516,"44":-0.1046279735973711,"45":-0.05414800357133172,"46":0.2558329442712079,"47":0.3058285316279536,"48":0.3529451678498877,"49":-0.03249950022829775,"50":0.26510489422933187,"51":-0.18520009749294655,"52":0.1653755391566406,"53":-0.2125232189171344,"54":0.3033513928021603,"55":0.23370403242337606,"56":0.2189855466145981,"57":0.16974415029210194,"58":0.09719360193638617,"59":0.27071903857470847,"60":0.23853738325641735,"61":0.09572961156371097,"62":0.05914326746249361,"63":0.22342391755576907,"64":0.3190223616715138,"65":0.2908637555022241,"66":-0.1174170406916409,"67":0.05558982083555989,"68":0.016312901052983966,"69":-0.008444602252390104,"70":0.10206954145038605,"71":-0.13354474861083937,"72":0.11590066010497818,"73":0.14560351268889735,"74":0.02219583175097769}},{"sx":5,"sy":5,"depth":3,"w":{"0":0.022472531938462565,"1":0.039043525456814054,"2":-0.2278281331039196,"3":0.0060439532808634795,"4":-0.09269087048982039,"5":-0.13244830895151624,"6":0.17293567305360596,"7":0.2101027555711668,"8":0.05073802531100153,"9":-0.12147641759649672,"10":-0.21798916000999355,"11":-0.17514284430282312,"12":0.17072633820651809,"13":0.2555086696936304,"14":0.14539524684337674,"15":-0.3698184275888893,"16":-0.16010764519160384,"17":-0.23475081498196412,"18":-0.011630779720125136,"19":-0.36711951804933335,"20":-0.12150282289404618,"21":0.03776206560002061,"22":0.15170346421197378,"23":0.09619439235960328,"24":-0.08899429442272874,"25":-0.031070067370847238,"26":0.0025022795719821076,"27":0.2578580930117217,"28":0.391055539188767,"29":0.3849468228337377,"30":0.1249683905601507,"31":0.16582394509003204,"32":-0.13586528218446003,"33":-0.2593018210036291,"34":-0.4586356582345187,"35":-0.33569357720391074,"36":0.005003428428980701,"37":0.07298125513232277,"38":0.10097158684135969,"39":-0.04782829778915993,"40":0.0056716569183566734,"41":0.10258234625669332,"42":0.3237196265371414,"43":0.24652108463041547,"44":0.30933808784457995,"45":0.03106837110369568,"46":-0.21126696407090403,"47":0.09972820829001268,"48":0.0419175428315171,"49":0.1796570934405083,"50":0.011684122971017865,"51":-0.28227244604572616,"52":-0.4599273681843623,"53":-0.12586987357333426,"54":0.1579481522003633,"55":-0.03326612237272862,"56":0.06437785030007892,"57":-0.08995465743799597,"58":0.13803886598995743,"59":0.1989797838799962,"60":-0.014490737839773414,"61":-0.026094877604465733,"62":0.0695527708068391,"63":0.24519213619315783,"64":-0.03767136031551239,"65":0.24757151913408235,"66":-0.20533002617624982,"67":-0.18697321292350394,"68":-0.10609185827294951,"69":-0.02378344103227889,"70":-0.0701458636826814,"71":-0.22242677643388223,"72":0.37971729205604304,"73":-0.11139727068726837,"74":-0.07790869041586916}},{"sx":5,"sy":5,"depth":3,"w":{"0":-0.0601084713676443,"1":0.14978481187664838,"2":0.12199914473388827,"3":-0.07476111856325011,"4":0.028232010525247507,"5":-0.02706330061648367,"6":-0.07161785020932528,"7":0.08573902216000587,"8":0.17454927843578258,"9":-0.3252949947880659,"10":-0.203870742400078,"11":-0.2406860481741898,"12":0.34011057514067017,"13":0.23027876894296384,"14":0.33361416161455687,"15":0.21117181264412233,"16":0.11818464739134078,"17":0.052056770758112755,"18":0.00008226636848034444,"19":0.1806123588913026,"20":0.15931567888786516,"21":0.030729880948000582,"22":-0.048518075003202085,"23":0.07608046819002959,"24":-0.3150025695847806,"25":-0.19168454908582547,"26":-0.06873008344954212,"27":-0.023968454765639965,"28":-0.05101527885736383,"29":-0.07043207493562233,"30":0.07935174054110739,"31":-0.1344276809681685,"32":0.029439662188444047,"33":0.07856352570940177,"34":0.0996948691456071,"35":0.2196953107094604,"36":0.06058212409408277,"37":0.0945617363583619,"38":0.1334764152220333,"39":0.10767370975048728,"40":0.0834802793778487,"41":-0.07114043727644584,"42":0.03691570532082294,"43":-0.17022252118061804,"44":-0.20320563255600568,"45":0.11540905586427047,"46":0.08621192887794601,"47":-0.22963361506962612,"48":0.06055820736741836,"49":0.1264955120326163,"50":-0.14660948553328892,"51":-0.11400081234006099,"52":-0.06042622840761587,"53":-0.12835487233439827,"54":0.12373603530621008,"55":0.28847761680157125,"56":0.07499338184430022,"57":0.025965241949469097,"58":-0.03637538505145685,"59":-0.006616905431458514,"60":-0.052497151454533264,"61":0.006445926049684406,"62":-0.010378372147938755,"63":0.003470154149452975,"64":-0.011184103949191228,"65":0.014704658645727718,"66":-0.11900673914631402,"67":0.052663878194201805,"68":-0.3188631054009714,"69":-0.0002730061249344907,"70":0.16861025299807247,"71":0.26948601984477677,"72":0.17160299695694525,"73":0.14561473142345605,"74":0.09150364419599813}},{"sx":5,"sy":5,"depth":3,"w":{"0":0.03613799871537782,"1":-0.08786932687272803,"2":-0.05535829135761042,"3":0.1445577752628539,"4":0.23676366104500468,"5":0.31781935176418746,"6":-0.22365429239515672,"7":-0.0740365596799921,"8":-0.16755494492679762,"9":-0.05244077952162486,"10":0.06999267699253756,"11":-0.1266527112933125,"12":-0.040936104661263795,"13":-0.1966257718825075,"14":0.09829494595825573,"15":-0.12313798755159473,"16":0.06284461455653273,"17":0.0875401454150313,"18":0.5054531183195637,"19":0.2569610873727213,"20":0.23066515417614675,"21":-0.22094368187087243,"22":-0.11315234238770458,"23":-0.36911757728836103,"24":0.07337275996087307,"25":-0.12354833660826599,"26":-0.14317759759972945,"27":-0.006222395918569066,"28":-0.012193647452485504,"29":0.14312100138924794,"30":0.1383761207923382,"31":0.13307384483470536,"32":0.11382410455012991,"33":-0.012752277741853155,"34":0.2308390329292845,"35":0.08256969887795039,"36":-0.49304586978591375,"37":-0.46252527395182985,"38":-0.19433553406639334,"39":0.08833737572829135,"40":0.13684301616222463,"41":0.14320975947707293,"42":0.19790642357476496,"43":0.01651434154643917,"44":-0.20725688737218698,"45":-0.0003674585754529956,"46":-0.24624036005976713,"47":-0.11476476228558458,"48":0.2273315520299669,"49":-0.17900260920825295,"50":-0.08110844447188799,"51":-0.01502453372662969,"52":-0.30201775576798906,"53":-0.22355612931212648,"54":-0.000046101856854699544,"55":-0.06589213117780389,"56":-0.11055226306497196,"57":-0.0658164741172757,"58":-0.038267667807909134,"59":-0.17706267861058697,"60":0.1075774406418774,"61":-0.053340727106650276,"62":0.054341228573453304,"63":0.1574056435627502,"64":0.21350267379315535,"65":0.2501669114205645,"66":-0.15701245550769716,"67":-0.45038857309851654,"68":-0.13666327275799703,"69":0.24184249764101948,"70":-0.025910111124769066,"71":-0.14392098788042884,"72":0.24952451300154785,"73":0.01892163815809261,"74":0.2185539394140055}},{"sx":5,"sy":5,"depth":3,"w":{"0":-0.08641455131662772,"1":-0.2106962425660532,"2":-0.17796691229915496,"3":-0.11004153251207088,"4":0.29879555809448805,"5":-0.08856172654396866,"6":0.1431993290735558,"7":0.26898745835679455,"8":0.04472253121652565,"9":-0.04778124234588406,"10":0.06726637263349595,"11":-0.07507106412489248,"12":-0.18950502533713587,"13":0.13151647808795278,"14":0.05262505089831586,"15":0.10166074650789639,"16":-0.0845231001759484,"17":-0.031408513074286645,"18":0.013843652489536935,"19":0.05479596772872089,"20":-0.07231857331712423,"21":-0.008838353417829124,"22":0.13730229232702718,"23":0.04037344391318586,"24":0.21128869556158322,"25":0.08679910501056969,"26":0.08766687899921607,"27":-0.03559174065575035,"28":-0.04710030905399245,"29":-0.15260390779604244,"30":0.05495056411559725,"31":0.11308189571893502,"32":-0.022951047526652474,"33":0.042375439128816875,"34":0.17433299802589672,"35":-0.1469420613643025,"36":0.005022816710564604,"37":0.017787728901103448,"38":0.20902348088053477,"39":0.04727433508168654,"40":-0.03569217310771093,"41":0.012853136828787554,"42":-0.20685019865003101,"43":-0.14788592098756595,"44":-0.17474931748041217,"45":0.2702193389980248,"46":-0.00471771807003223,"47":0.16342216111410712,"48":-0.10572769658220586,"49":-0.026738105113001762,"50":-0.0981254659005141,"51":-0.032357140900236954,"52":-0.13630626039035637,"53":-0.07714586972388969,"54":0.16228762694850243,"55":-0.1014814188311201,"56":-0.319176023824414,"57":-0.0039055756997360036,"58":-0.14580111230134976,"59":0.09686919716619903,"60":-0.3253307276475685,"61":-0.18304708416921464,"62":-0.36984663207536417,"63":-0.018610089286524377,"64":-0.08412228021538193,"65":0.02231053155493863,"66":0.12208164794921587,"67":0.08659188474288085,"68":0.09534819371276845,"69":0.3149325962570271,"70":0.2212392010583777,"71":-0.09340053290051918,"72":-0.0879337193067131,"73":-0.09532368296182474,"74":0.03890583742263329}},{"sx":5,"sy":5,"depth":3,"w":{"0":0.07902990858970442,"1":-0.2485133112558148,"2":-0.24843427916028507,"3":0.052463520026438844,"4":0.09527754190753862,"5":-0.0536963591568766,"6":0.04504037029656378,"7":0.15952540181666772,"8":-0.08922930927399611,"9":-0.23993655664282887,"10":-0.1924152087737714,"11":-0.05490534714870945,"12":0.13417908859341696,"13":-0.05831799794579106,"14":-0.05253918508273892,"15":-0.12366085399279077,"16":-0.021031432153456913,"17":-0.25901295234685323,"18":-0.0377965521322723,"19":0.10827432352969013,"20":-0.14353629458887832,"21":0.017320848904610022,"22":0.2054903076878257,"23":-0.07852417538630337,"24":-0.23049776409395653,"25":-0.2226172677999333,"26":-0.1146100685429404,"27":-0.13039943921394795,"28":0.1395861884192522,"29":0.12128983999481305,"30":-0.1269283875608189,"31":-0.03265969326386509,"32":-0.12861185409405546,"33":0.14506232362809884,"34":0.025351503641160976,"35":0.005224696779954644,"36":0.22078002161631305,"37":0.11009289828216073,"38":0.0689168921636782,"39":0.00744019903158199,"40":0.1847404700983267,"41":-0.2186052190114054,"42":0.06621774229004831,"43":0.01744353497060264,"44":-0.034588386007195916,"45":-0.13539639884846963,"46":-0.13522677790877155,"47":-0.020835808246607457,"48":-0.0019369771103518087,"49":0.20404598321430945,"50":-0.10312161625888375,"51":0.1519119549824684,"52":0.0736224460023851,"53":0.11715412939118333,"54":-0.07471183618074881,"55":-0.1566127166558275,"56":0.003184896934229751,"57":-0.064988773788323,"58":-0.22436377912387503,"59":-0.31628400486679337,"60":-0.15523805800200458,"61":-0.21375698932220516,"62":-0.05613584989829513,"63":-0.21752887427362405,"64":0.23943118667759342,"65":-0.04572957606335391,"66":0.0365422762072485,"67":0.10532930772340968,"68":0.07443387439626906,"69":-0.2899339350659044,"70":-0.17291743876284313,"71":-0.09035393110521905,"72":-0.05336772849490781,"73":-0.05267765114644332,"74":0.08732420177888296}}],"biases":{"sx":1,"sy":1,"depth":16,"w":{"0":-0.02232757858399948,"1":-0.37395774856157016,"2":-0.1667605215021404,"3":-0.09005466663681543,"4":-0.15101592804867162,"5":-0.3870401618153884,"6":-0.056802724415163215,"7":-0.5233337793476439,"8":-0.1646471847864132,"9":-0.15078409769270698,"10":0.35698613834201476,"11":0.11691466753765417,"12":-0.5909301082785782,"13":0.3607325806990391,"14":-0.6776452661304816,"15":-0.5008830515337623}}},{"out_depth":16,"out_sx":32,"out_sy":32,"layer_type":"relu"},{"sx":2,"sy":2,"stride":2,"in_depth":16,"out_depth":16,"out_sx":16,"out_sy":16,"layer_type":"pool","pad":0},{"sx":5,"sy":5,"stride":1,"in_depth":16,"out_depth":20,"out_sx":16,"out_sy":16,"layer_type":"conv","l1_decay_mul":0,"l2_decay_mul":1,"pad":2,"filters":[{"sx":5,"sy":5,"depth":16,"w":{"0":-0.4522264444051188,"1":-0.0003684860342445935,"2":-0.13637247626708754,"3":-0.02359449877156237,"4":-0.29558723761833927,"5":-0.019690784425393452,"6":0.1473790249642413,"7":-0.04011187684649201,"8":-0.29571041884382254,"9":-0.03538162870047244,"10":0.2500924550175066,"11":0.05000129565383752,"12":-0.13973055376512206,"13":-0.16467867332885924,"14":0.008005769410179478,"15":-0.17052031519158065,"16":-0.18754280714445537,"17":-0.06827340970563865,"18":-0.02457045997799318,"19":-0.10699877073994467,"20":-0.5170065122024674,"21":-0.07372626633707138,"22":0.16307543917047665,"23":-0.003866161476003361,"24":0.08757205391576009,"25":-0.09826173914361513,"26":0.15536798467596447,"27":0.07735082258117033,"28":-0.16327361542561486,"29":-0.21561197397111942,"30":0.02996250095377168,"31":-0.0533148532492395,"32":-0.24098413502856175,"33":-0.08384134802430816,"34":0.1136788703699431,"35":-0.17032815875726057,"36":-0.16404664825889156,"37":-0.07698357659545686,"38":0.23216205167773202,"39":0.08876848108502358,"40":-0.15792026561926456,"41":-0.005172354333206305,"42":-0.04714755362734318,"43":-0.014081099254093989,"44":0.02275020105542425,"45":-0.14348807911842304,"46":-0.17659882318052494,"47":-0.1111280699365997,"48":-0.20789902563275187,"49":0.09360031016995696,"50":0.04661072870180342,"51":-0.27416955434646634,"52":-0.05266288860564505,"53":-0.1349152431255232,"54":0.14842185032771607,"55":0.06388328651347262,"56":0.261596060067751,"57":0.0820110418065023,"58":0.07456867478737746,"59":0.24553984653364533,"60":-0.21828096183305068,"61":0.149730801652271,"62":-0.1040653383186866,"63":-0.014070572911643852,"64":-0.03352604181846778,"65":0.11536181651739084,"66":-0.22242427584278804,"67":-0.20415611924206112,"68":-0.10861433089110961,"69":-0.025338867696831396,"70":0.0781922077637599,"71":0.0035083192226834786,"72":0.22413977255759326,"73":0.04483616880874204,"74":-0.025167650167986413,"75":0.1834254125712455,"76":0.16977558321362976,"77":-0.415883473346489,"78":-0.17343834951777845,"79":0.38050750586175824,"80":-0.3251517724818344,"81":-0.17678775431595695,"82":-0.17742389929437008,"83":0.08696263539529359,"84":0.16776004449711435,"85":0.09968944783153527,"86":-0.11211604265029014,"87":-0.03982535901040855,"88":-0.13478321198500026,"89":-0.09706974379719145,"90":-0.2167402407931813,"91":-0.03205317328913633,"92":-0.013533535847538745,"93":0.035933815210014486,"94":-0.08837240938571136,"95":-0.09159429526778555,"96":0.12069734074635731,"97":-0.06463687357125651,"98":-0.08233541876943248,"99":-0.03564284139245769,"100":-0.3057882803580589,"101":0.07285580973203526,"102":-0.16047118518646075,"103":-0.009320281516790518,"104":0.12970212875029152,"105":-0.032749210134625596,"106":-0.2871152297755426,"107":0.2225436892859311,"108":-0.0009365031845585772,"109":-0.08447114363652021,"110":-0.0684802384068462,"111":-0.09282296029376416,"112":-0.10573541629838216,"113":-0.05618975753374642,"114":0.005913217957636907,"115":-0.06769946934961413,"116":0.054896063948901834,"117":0.04452412272271646,"118":-0.16265341676255474,"119":0.0193638218782254,"120":0.050388973307710666,"121":-0.09713696936905289,"122":-0.40242565767033106,"123":0.1537996743229173,"124":0.006752164192767535,"125":-0.05564217517208618,"126":-0.12592177371897403,"127":-0.20237629847261804,"128":0.015178639907837582,"129":0.014813808464334595,"130":-0.012823052268645876,"131":-0.1264920009033279,"132":0.3370944916504592,"133":-0.016495800479145853,"134":-0.11898954799613301,"135":-0.08441399038940277,"136":0.34790089709966476,"137":-0.04434728655044959,"138":-0.4100977090784233,"139":0.2118633792014824,"140":-0.04664295200124946,"141":0.18854100761872336,"142":-0.09977743339597904,"143":-0.06676371512388046,"144":0.30276254846714984,"145":-0.034484679730159014,"146":-0.1920224259145127,"147":0.03384403576756322,"148":-0.2490117697794178,"149":-0.03140721389309134,"150":-0.3509464495819645,"151":-0.20686617426768117,"152":0.39012040589314323,"153":0.010847582112516362,"154":-0.18584375686290108,"155":0.13328413632781644,"156":0.08361924868194756,"157":-0.4455849835145722,"158":-0.21948908314017604,"159":0.1493713716662197,"160":-0.08078152120930526,"161":0.09120497101556438,"162":-0.2550343093348513,"163":0.05665740555945699,"164":-0.14397006955887603,"165":-0.023115947382356016,"166":0.09682233181163791,"167":0.14473348544391126,"168":-0.1857373156181182,"169":0.09025413632510321,"170":-0.12163397036728227,"171":-0.19212885887388106,"172":0.1725459210454779,"173":0.05304602616461035,"174":0.0064708041125118455,"175":0.07503645506812438,"176":0.11420932973824978,"177":0.008310524715577179,"178":-0.12862931541128317,"179":0.08450874377916998,"180":-0.19893059733797677,"181":0.1562565346319694,"182":0.15945753452955075,"183":0.0814722533973175,"184":0.18895468956223738,"185":0.14759033509324476,"186":-0.024338776533542175,"187":0.03584754334796437,"188":-0.022617626832127133,"189":-0.032583419858763306,"190":-0.05483203690376842,"191":0.12400787348808337,"192":-0.2898105262551407,"193":0.12578871309089745,"194":-0.2708369123742486,"195":0.12369226774583093,"196":-0.08948773370300725,"197":0.16469623543786246,"198":0.09586531844234744,"199":-0.07288345182039288,"200":-0.05464335981298694,"201":0.06138083901884659,"202":-0.09677989140740187,"203":-0.08067595353418879,"204":-0.10047982821150846,"205":-0.10380357892512446,"206":-0.12017127519658201,"207":0.11232121383597875,"208":-0.330004570878697,"209":-0.02798064977436665,"210":-0.12316373667615317,"211":0.1505072928051979,"212":0.11045452456044771,"213":-0.032686284217040305,"214":0.19931729332207473,"215":0.15333339660193365,"216":0.31832421070549893,"217":0.10709047854079265,"218":-0.2042478694712844,"219":0.1348354059997327,"220":-0.2386143603487369,"221":0.17446321944313867,"222":-0.2573873215072885,"223":0.04576004679438832,"224":0.11919570373227477,"225":0.10063765761413744,"226":-0.24415012482534826,"227":0.12721709068377782,"228":-0.08509290029310022,"229":-0.10514153689043193,"230":0.06292823229476223,"231":-0.025999164803376065,"232":0.1141822328219903,"233":0.10784123760243051,"234":-0.1961144239077424,"235":-0.1283887843992561,"236":-0.018715067980874314,"237":-0.24046096564002195,"238":-0.06748648650013865,"239":0.10236156251624676,"240":-0.2530658270277864,"241":0.20966470701015966,"242":-0.053090864096006385,"243":0.13339851593391186,"244":-0.020651354613879618,"245":-0.0015684310383090529,"246":-0.15966710940975404,"247":-0.23347684089686638,"248":-0.32224758701111816,"249":-0.05427430275856154,"250":-0.19632444985239533,"251":-0.3030944253949367,"252":0.13345329073921414,"253":-0.0012810214581206974,"254":0.05377505502826733,"255":0.06478063422403818,"256":0.020645313326671355,"257":0.11764188230470297,"258":-0.15400986555642926,"259":0.017347482582399824,"260":-0.1365559125480882,"261":-0.009835447326300107,"262":-0.21437372856804768,"263":0.06045764213072174,"264":-0.13381656948907464,"265":0.010088062118665054,"266":-0.18872793802838508,"267":-0.1116118436053293,"268":0.12195102397477803,"269":0.10366879618311772,"270":0.003503260575523356,"271":-0.039686245989061404,"272":-0.4932431786441532,"273":0.17333862982632056,"274":-0.09824623608535626,"275":0.05746200224151545,"276":-0.15776520277033487,"277":-0.01119205502047272,"278":-0.3344364298080272,"279":0.04692043780035293,"280":-0.34048155973119826,"281":0.04024799625068038,"282":-0.052620199412677156,"283":-0.26453270630094616,"284":-0.15625271251765846,"285":0.0600311974062419,"286":-0.028321158345327894,"287":0.16797555454006632,"288":-0.22250410339435367,"289":0.07018939855224615,"290":-0.06341073565925485,"291":0.11671839612328012,"292":-0.11213629826130546,"293":-0.14065170028574955,"294":-0.4972987069036063,"295":-0.18807410348326553,"296":0.053284043657621905,"297":-0.0027097773137527573,"298":-0.12981199054947065,"299":-0.005082793875039463,"300":-0.2077666358653523,"301":0.14908229859570118,"302":-0.10676292672160784,"303":0.08544977559824828,"304":0.10751924110785062,"305":0.03644493626193524,"306":-0.17398374098777153,"307":0.12451121843058575,"308":0.025337360322711628,"309":-0.005875142224206688,"310":-0.39525260014608515,"311":-0.2176819415038718,"312":-0.13498985984498255,"313":0.0046156153277746685,"314":0.018082066389930637,"315":-0.23496006276079712,"316":-0.023841119619048022,"317":0.010556529482660436,"318":-0.11333617209079165,"319":0.05224272125020501,"320":-0.2952568614194129,"321":0.017781842758961306,"322":-0.07458242656416311,"323":-0.31943635257134445,"324":0.07473006628531913,"325":-0.07560703524263987,"326":0.11265328231558867,"327":0.07142012335230372,"328":0.04690679357685936,"329":0.22114387868611485,"330":0.18730418152626252,"331":-0.17126000572437725,"332":0.14407514880794434,"333":-0.12659412370157425,"334":0.07467303142607096,"335":0.09403444519678884,"336":-0.09855226456072536,"337":-0.025342543771560942,"338":-0.1013213513917821,"339":-0.45966296836722637,"340":-0.0643490619241185,"341":0.016506144077913613,"342":0.13983483505000835,"343":-0.03014839047512199,"344":0.17574384934151344,"345":0.25078829200209274,"346":0.13400295010532937,"347":-0.0042395817244534496,"348":0.0541981604348413,"349":-0.11553975071358394,"350":0.20215916085024954,"351":-0.027962972968687563,"352":-0.03319711086454171,"353":-0.0630519527308667,"354":0.09970059020179882,"355":-0.5241171304225705,"356":0.10589660179530698,"357":-0.09389464524370002,"358":0.22320014879784997,"359":-0.06872412039397154,"360":-0.05673265156947742,"361":0.18983893334880195,"362":0.20941332972092222,"363":-0.019610028912647407,"364":-0.07832561785200358,"365":-0.08998742132389055,"366":0.19684802278629412,"367":-0.0058834331510930595,"368":-0.08198268735267687,"369":-0.021891953925135866,"370":0.025912524240168232,"371":-0.5657975227590745,"372":0.08799913312284861,"373":-0.10919931970292379,"374":0.3402310684341962,"375":0.04246053246949477,"376":0.008611906222528986,"377":0.16084795013427097,"378":0.25464620794071197,"379":0.05164609725483916,"380":-0.017392381730416046,"381":0.011701697343434871,"382":0.03242617462309837,"383":-0.034404089691004586,"384":0.24102257225551202,"385":0.022110579822089096,"386":-0.02969135964894218,"387":-0.32675465433244233,"388":0.3258432727034803,"389":-0.02867145443600916,"390":0.11330236888703636,"391":0.07375384394886825,"392":-0.20940833520999338,"393":0.29104308659948414,"394":0.12256998040678922,"395":0.061324184933124304,"396":0.20041892377347642,"397":-0.10581870445502892,"398":0.04094035775952742,"399":-0.05733652915332188}},{"sx":5,"sy":5,"depth":16,"w":{"0":0.07623428978124282,"1":-0.007640341659349021,"2":0.05095592898178303,"3":-0.3776144171399169,"4":-0.035862075923298105,"5":0.11628657084334805,"6":-0.027834549787733028,"7":0.006487988468593313,"8":-0.02872120130765078,"9":0.10575928280609467,"10":0.09283856320305943,"11":0.07997731455730159,"12":0.17704724418706866,"13":0.4493655638998097,"14":0.12312773191126426,"15":0.08845822355885506,"16":-0.1102692994777472,"17":0.3142573087807066,"18":-0.05332561011338657,"19":-0.09202565137204118,"20":-0.3368261026521037,"21":-0.19155134993649728,"22":-0.10811147507069334,"23":-0.0747411655839403,"24":0.24999142979434458,"25":0.15933831110216243,"26":0.14729531577560018,"27":-0.007272391817561132,"28":-0.3120419032324454,"29":-0.2952435707845574,"30":0.05617699387690141,"31":0.2021379300943722,"32":-0.24407965465279918,"33":0.06404906905140745,"34":-0.16135402913668556,"35":0.12152053220817458,"36":0.28406613083201804,"37":0.2052803033650232,"38":0.08440430086816292,"39":0.10124333134579537,"40":-0.11836775385470437,"41":0.0060532936311611316,"42":0.13896364129583996,"43":-0.03553341742129043,"44":-0.004981822443920825,"45":0.4952805609064129,"46":0.27858321692206567,"47":0.2817951567766493,"48":-0.10320407682825321,"49":0.20984512107741296,"50":-0.02723540654882007,"51":-0.050665775036145895,"52":-0.14134830165595572,"53":-0.12503988454760148,"54":0.353578598913536,"55":0.39490434073232195,"56":0.07407506220943463,"57":0.20181412927758433,"58":0.1448341274842937,"59":0.06679201965111362,"60":0.0789252000191883,"61":-0.10422083164011346,"62":-0.021990315254759273,"63":0.2414362013501293,"64":-0.05504708563708139,"65":0.10602576476776147,"66":-0.040931852677462466,"67":0.03104143749894623,"68":-0.13307767854219155,"69":0.04574168602861806,"70":0.41095121526882855,"71":0.2723886018165109,"72":-0.40843799853118995,"73":0.3261756435474588,"74":0.3318833637647492,"75":0.02217071980228182,"76":0.003878269401372962,"77":-0.20168610662146738,"78":-0.1381446951788264,"79":-0.13546140916702964,"80":0.1047570147243329,"81":-0.00009919600073070202,"82":0.277459212394208,"83":-0.19748996115885187,"84":0.025369245840482293,"85":0.08458167077274921,"86":0.057875457268220416,"87":-0.05618212794149646,"88":-0.054521038926883016,"89":-0.004968536223732354,"90":0.13032234853546787,"91":0.10500506918938744,"92":-0.1391861008389399,"93":0.38924579901795364,"94":-0.1740463248329683,"95":0.028438663723833947,"96":-0.09189104600112862,"97":0.09960033555629916,"98":-0.2751134164388998,"99":-0.07966284026451448,"100":-0.06117758679730807,"101":-0.08799142002243612,"102":0.0031400106327407746,"103":0.09741239925937858,"104":0.06487716399527274,"105":0.09242288820049585,"106":0.028065959740609606,"107":-0.1355105649185949,"108":-0.061393530763945846,"109":-0.213386955756665,"110":-0.01892855881688723,"111":0.20570467646590412,"112":-0.08532374457565599,"113":0.22490328173406932,"114":0.10677717497228272,"115":-0.20032489474343704,"116":0.3063047711835981,"117":0.010303470356562061,"118":0.12012613488742253,"119":-0.10960332329504696,"120":-0.05903522350798913,"121":0.5088518353102331,"122":0.07639886646463609,"123":-0.060398168513781214,"124":-0.042634169467315575,"125":0.4193590761001233,"126":-0.01989661158285733,"127":0.21167526693286942,"128":-0.22672366507874792,"129":0.21718877266124392,"130":-0.15071358312472616,"131":-0.5376618603801263,"132":-0.2855460601423015,"133":-0.27283732589828286,"134":0.14068715001018367,"135":-0.0018415798174709235,"136":-0.19227562353394748,"137":0.05757578509407713,"138":-0.03034110997596251,"139":-0.07716330458269767,"140":0.012422694771467917,"141":-0.25813612869031377,"142":-0.1409794232029162,"143":0.1768383629562381,"144":-0.31300541666862236,"145":0.05214257747037072,"146":-0.04366581730526395,"147":-0.3899426168974154,"148":-0.16207091330194262,"149":-0.009891969632218535,"150":0.27725073563491204,"151":0.11745277865634485,"152":-0.32288153390299457,"153":0.07749435319338353,"154":0.1405956137729076,"155":-0.24754572570966202,"156":0.13419457335570817,"157":-0.27294627844431785,"158":-0.09904909274196813,"159":-0.014237463814332897,"160":-0.09703209060545842,"161":-0.05027257343856489,"162":0.08598956906607184,"163":-0.24072102118906497,"164":0.16031941532348642,"165":0.12121934778068152,"166":0.04555041972835321,"167":-0.04920081071367719,"168":-0.17951948815672478,"169":-0.21763542542584413,"170":-0.063114659494369,"171":0.10903565722917573,"172":0.24672901658212495,"173":0.28385510935754105,"174":0.011905441862993988,"175":-0.09095907023788818,"176":0.01447887100407516,"177":-0.04806890592128427,"178":-0.26049969183635024,"179":-0.2774456618518264,"180":-0.04568197027155363,"181":0.016481335594596386,"182":-0.3331630567209465,"183":-0.1104058931705756,"184":0.14469997307738164,"185":0.03391513978986724,"186":0.07029700508164113,"187":0.03256314829144321,"188":0.021312106937765692,"189":-0.21807289381342257,"190":-0.09076952047755608,"191":-0.08422635699423027,"192":-0.10917696803832135,"193":0.23215008427711306,"194":0.019896059000914734,"195":-0.17665162484675728,"196":0.40858131173797474,"197":0.3195119370535124,"198":-0.11053459475724817,"199":-0.28921805128904887,"200":-0.1459863002609028,"201":0.15855282948024274,"202":-0.16038330700514658,"203":-0.08353688346046087,"204":-0.17339926571350514,"205":0.33302285611586785,"206":0.16354075872189539,"207":0.07014670581019883,"208":-0.05950856659561247,"209":-0.03476246976277787,"210":-0.053841416990747744,"211":-0.26917077100829273,"212":-0.44959459511166794,"213":-0.11503486288494383,"214":-0.39372449985611224,"215":-0.01660117365864825,"216":0.1519278246284501,"217":-0.11353403212284356,"218":-0.6735469497154633,"219":-0.1113567335344837,"220":-0.017236292896467015,"221":-0.22816839976740386,"222":-0.16805931046812358,"223":-0.1204875393174994,"224":-0.30076205733986877,"225":-0.040492326658333265,"226":0.07123243237811037,"227":-0.04868717364846494,"228":-0.22877076028797227,"229":-0.0029135416037716164,"230":0.03508714996916437,"231":0.03193419186866585,"232":-0.06484661619212703,"233":-0.19579730544159782,"234":-0.6286482233501739,"235":-0.14194718663931885,"236":0.08963543075468818,"237":-0.2791402426926707,"238":-0.029528278153806813,"239":-0.3096363061114806,"240":0.15719161255022124,"241":0.026891802078407624,"242":0.04476988860403322,"243":-0.08892219424527813,"244":0.30210422279417826,"245":0.001925171696059297,"246":-0.2612901580305929,"247":0.013255082497695298,"248":-0.03150952323061415,"249":-0.14921933864998926,"250":-0.35873715960295677,"251":-0.02036403466434879,"252":0.255801383559831,"253":0.1845807874202129,"254":0.11120363279031738,"255":-0.05149554093660574,"256":0.1336137062696364,"257":-0.13410837176090992,"258":-0.016326970346303357,"259":0.15593998860904995,"260":0.010650176974174908,"261":-0.06856921127087713,"262":-0.32158453511552915,"263":0.03436227522686357,"264":0.0562152967337361,"265":0.033687288886895594,"266":-0.2604809950529336,"267":-0.06645272891645754,"268":0.03583747467174222,"269":-0.28278258893898867,"270":-0.09603150531526192,"271":-0.008704020729122068,"272":-0.07519238765843674,"273":0.313090260471021,"274":-0.15095425242955285,"275":0.11227907014552556,"276":0.3759807945379618,"277":0.08462216921031836,"278":-0.0629822991795867,"279":-0.08278978284582356,"280":-0.16424403364833445,"281":0.009753731678862336,"282":-0.3508678229392755,"283":-0.02142643606909763,"284":0.03722254385470961,"285":0.37402495547660247,"286":0.12227721330741528,"287":0.05636371781077655,"288":-0.004907707582166491,"289":-0.1352971657545605,"290":-0.05030015437830588,"291":-0.0044135157502641605,"292":-0.23887766333090968,"293":-0.2786592187839053,"294":-0.6254225513032041,"295":-0.11490480954426559,"296":-0.061629897090211945,"297":-0.1483464994284362,"298":-0.36549194678240526,"299":0.06846240398486243,"300":0.1517506485283974,"301":-0.2742471386086131,"302":-0.1405215026268814,"303":-0.08109759641853372,"304":-0.19958377667195998,"305":0.01785529981307475,"306":0.0119970143289933,"307":0.07564674366674572,"308":-0.4860179035238361,"309":0.07227289775482586,"310":-0.7060788431485635,"311":-0.32220782134706444,"312":-0.10290590559131613,"313":-0.2319572814898255,"314":-0.40459879821672773,"315":-0.13375625866185603,"316":-0.016950959738272146,"317":-0.5441220145531418,"318":-0.19194404132236886,"319":-0.23081278859608412,"320":0.04765943476835426,"321":0.009401914977622543,"322":0.06649529362692837,"323":-0.07352814813325519,"324":0.46078381796006723,"325":0.1423970927761036,"326":-0.15915854950876918,"327":-0.08948537582177245,"328":0.05652276704087907,"329":0.014023247269865773,"330":-0.2084756127472171,"331":-0.07243694423240112,"332":0.12351824271917888,"333":0.23595636638604126,"334":-0.04405214541268979,"335":-0.0649028605738799,"336":0.04797623885932029,"337":0.0935870073399569,"338":-0.13926552489802838,"339":0.07749432270668853,"340":-0.08969231159997687,"341":-0.03260278655452873,"342":-0.4687501500202792,"343":0.16039762329930152,"344":0.09392424782917942,"345":0.32635052503248535,"346":-0.13682113589694983,"347":-0.0644504198451204,"348":-0.07238803127670733,"349":-0.17872067457197693,"350":-0.12647869523024438,"351":0.16887857523500177,"352":-0.1090794254090103,"353":0.20141670852115806,"354":0.005469054894105458,"355":0.012149579370641109,"356":0.26441428960387325,"357":0.05526042031692994,"358":0.05030727160276623,"359":0.18329762564420307,"360":-0.15533780261493071,"361":0.2942201113780362,"362":-0.09028731231177758,"363":-0.02758072472062781,"364":0.06439276165930802,"365":0.2933242623294073,"366":0.12747894156130843,"367":0.10965132247433634,"368":0.13954331471139977,"369":0.054901908807833355,"370":0.08878215904139658,"371":0.20177947690643683,"372":-0.24322231282470375,"373":-0.08410227135312039,"374":-0.14418161099610585,"375":-0.01771282103143259,"376":0.17962678648368263,"377":0.04078455569941505,"378":0.07720434182596499,"379":0.17762136471702045,"380":-0.14799653374299857,"381":-0.3924840503700104,"382":-0.16267754179662697,"383":-0.11075813194633671,"384":-0.022853478611848044,"385":-0.14586567237778236,"386":0.1369422822968685,"387":0.29207493019249103,"388":-0.4052029966301915,"389":0.12209668495186628,"390":-0.24748822791367206,"391":-0.0020363882074835127,"392":0.12187852432928295,"393":0.16080746858215564,"394":0.14364622000625582,"395":-0.11956915151435886,"396":-0.02288946172216145,"397":-0.06618495742024492,"398":0.055994470180391845,"399":-0.22543508651281877}},{"sx":5,"sy":5,"depth":16,"w":{"0":0.16932682446769187,"1":-0.005323775726962368,"2":-0.10698027262741899,"3":-0.06297483525362285,"4":-0.0752987784496277,"5":-0.050716020375580706,"6":-0.10067414503533344,"7":-0.07914113902035483,"8":0.17028125423565443,"9":-0.08772149093591594,"10":-0.0019291458416256092,"11":0.29894395662396156,"12":-0.06944397178948258,"13":-0.19624294524269142,"14":0.03060094728628646,"15":0.05830084244342238,"16":-0.1456699240762295,"17":-0.08557270070592796,"18":-0.2649857610578198,"19":0.06200737637238666,"20":-0.1770572599541897,"21":-0.06254686077562231,"22":-0.2977493575262572,"23":-0.055492632853341335,"24":-0.28438565124991483,"25":-0.05091772650835301,"26":-0.05872273636396241,"27":0.0024568273620655273,"28":0.1019120955045414,"29":0.17088707033354417,"30":0.00878482815244825,"31":-0.015411063176734996,"32":-0.4415005996468154,"33":0.013201014871969367,"34":-0.1973566748394776,"35":-0.18444438138745411,"36":-0.2998128642397781,"37":-0.035454583788534624,"38":-0.2860328252345285,"39":-0.07695227138521063,"40":0.058817760946341974,"41":-0.10730762035712113,"42":-0.29336462355344206,"43":-0.18853446471073942,"44":-0.08828984280269388,"45":0.13932597796442017,"46":-0.1056374931203818,"47":-0.020361251633526183,"48":-0.11613905211253026,"49":0.03615137586553595,"50":-0.06613307033931905,"51":0.1008801623051133,"52":-0.2350793905387416,"53":0.01402885014318477,"54":-0.1471139244172644,"55":-0.1387356515396051,"56":0.0178976536759129,"57":-0.02932455318247435,"58":-0.22344611055625252,"59":-0.06425970623436852,"60":0.04234452289995822,"61":-0.1380522824133121,"62":-0.018338647193500604,"63":-0.05851296761140786,"64":-0.17155165384628135,"65":-0.029060917804516424,"66":-0.2201568426618024,"67":0.058396052108029284,"68":0.19276279004908892,"69":0.10911630253236591,"70":-0.08856955978971173,"71":-0.10453401188093747,"72":0.003982298896254493,"73":-0.10209363554330443,"74":-0.191027488101578,"75":-0.13483593627416665,"76":0.04901448424171285,"77":0.1570632239410508,"78":-0.027745124916049857,"79":-0.04375739620067133,"80":0.021505271385924847,"81":0.056555006821322196,"82":-0.03020862986543339,"83":-0.011122688315621135,"84":-0.409854052271133,"85":-0.02784080219208066,"86":-0.2913318983042029,"87":-0.12130089896145449,"88":0.015654248940073147,"89":-0.03305134772524971,"90":-0.008602905474712907,"91":0.2672606218481424,"92":-0.08943524428945195,"93":-0.11995200562244941,"94":0.01824751829477744,"95":0.03406585673518633,"96":-0.3251085956937153,"97":-0.02994410803286667,"98":-0.21455887919987415,"99":-0.005582862542080857,"100":-0.07610517587060193,"101":-0.0683445629430074,"102":-0.36852886068659885,"103":-0.06142150769142244,"104":-0.2294686441993416,"105":-0.03015816225219292,"106":-0.016620221772513096,"107":-0.22858680747831406,"108":0.09095514641456781,"109":0.17441344313928325,"110":0.023932192098041056,"111":-0.04875165611616578,"112":-0.4233971121097792,"113":-0.002251615733041772,"114":-0.24416813789995614,"115":-0.04476449524707628,"116":-0.47871268436338493,"117":-0.016334383747329085,"118":-0.3784760037893355,"119":-0.021065088306219195,"120":-0.056741732842201076,"121":-0.02505834271202161,"122":-0.16985985645077428,"123":-0.051208288287092195,"124":-0.039419726028160115,"125":0.10339007640580365,"126":0.024102804444525977,"127":-0.02087227734349369,"128":-0.049132288427477265,"129":-0.05069248569573484,"130":-0.08621004527866423,"131":0.03699964225004308,"132":-0.11909161259723233,"133":0.12679548944693264,"134":-0.18802536848018847,"135":0.05439805800012124,"136":0.1540339324124208,"137":-0.06515532509218272,"138":-0.0773610266469433,"139":-0.0008879265935213818,"140":0.08429586308581391,"141":-0.14383895222862364,"142":-0.034753715042329346,"143":-0.032062505944729966,"144":-0.20749826029321006,"145":-0.03100254758641521,"146":-0.2007527634593384,"147":0.003877904086645421,"148":0.20883003137047138,"149":0.24045481668178345,"150":-0.06850680264719328,"151":0.0413048778189187,"152":0.018837185459280203,"153":0.03266972509873983,"154":-0.19031000188450534,"155":0.10419759691623433,"156":-0.005186383514460923,"157":-0.05156254868166799,"158":-0.020110635821958708,"159":-0.0743318581832067,"160":-0.031736505820044655,"161":0.18248717477590906,"162":0.19380717470272663,"163":0.10166354100556284,"164":-0.41518005783423984,"165":-0.18031456618361733,"166":-0.10304629072119278,"167":-0.2593284421199416,"168":0.146995336506396,"169":0.06729935993803837,"170":0.3518562119964864,"171":0.36324130660924087,"172":-0.045485548973435576,"173":-0.12034590643719555,"174":0.03731697854122614,"175":0.03827322152661554,"176":-0.20058290895688174,"177":-0.04163532652582438,"178":0.00455395072251228,"179":0.12317147130111186,"180":-0.05977784468204904,"181":-0.11048358934739785,"182":0.0976775383595864,"183":-0.0958780975536957,"184":0.05923875270495858,"185":-0.18855170256104273,"186":0.08584694353481855,"187":-0.10496328897907643,"188":0.05600392118880849,"189":0.037106248831419913,"190":0.05876981980120337,"191":-0.06150479839893645,"192":-0.3948256191110423,"193":-0.04893198824865176,"194":-0.06995312634825622,"195":0.05677486275827946,"196":-0.21089372249133045,"197":-0.11682347981041072,"198":0.11682449353953993,"199":-0.1342650024791843,"200":0.012357913777805894,"201":0.02127511222686591,"202":0.10014298640694942,"203":0.03314003829293443,"204":-0.07781803666945443,"205":0.19712793672252502,"206":0.009987233925440854,"207":-0.06527385264360983,"208":-0.11495164834169717,"209":-0.0020820705236459644,"210":-0.42255956318627774,"211":0.09629424963554485,"212":-0.06457374913664196,"213":-0.13632598620763048,"214":0.10859496934873412,"215":-0.20572763768248545,"216":-0.022868156082239275,"217":-0.0057857907669183455,"218":0.19798112276143492,"219":0.01655694333500225,"220":-0.14973759683793902,"221":0.07487222067574294,"222":0.03586590358854915,"223":-0.0571601459928415,"224":-0.12830575538408773,"225":0.056397146348425964,"226":0.10305676566678633,"227":0.2525265954872055,"228":0.11460313989133242,"229":0.09103892312909599,"230":-0.033244025985623704,"231":-0.03149458200186852,"232":-0.05943991544047859,"233":-0.014970613215663814,"234":0.06300913531090567,"235":-0.11304371543095729,"236":0.07696261684220675,"237":-0.0911619610069377,"238":-0.15346262866945512,"239":-0.10055174111627369,"240":-0.0644808325226281,"241":0.03554448290299278,"242":-0.044009988591900466,"243":-0.26468992058899055,"244":-0.17990258740805726,"245":-0.11341562091316097,"246":-0.15729865548401414,"247":-0.24147399964359043,"248":0.05585083869446641,"249":0.1168143674733941,"250":-0.0029618293197724095,"251":0.2073595486701834,"252":-0.145010390074739,"253":0.1349722254993804,"254":-0.01642632987301026,"255":0.1504975241710163,"256":-0.1682980530723227,"257":-0.04016285938713177,"258":-0.29340571191452647,"259":0.07364494356620391,"260":-0.17503200561052942,"261":-0.08922272605793614,"262":0.07963045418365432,"263":-0.021936376532824493,"264":-0.07220858448836392,"265":-0.00013583071373970547,"266":-0.034934089537679784,"267":-0.1075687569010164,"268":-0.03234225971668909,"269":0.1566167468674614,"270":0.015410077081331111,"271":-0.10701646212297831,"272":-0.40730453862994903,"273":0.00333272881519257,"274":-0.1925493367012076,"275":-0.004021274457146139,"276":-0.2696896143698964,"277":-0.08236276474175352,"278":0.08128360154574836,"279":0.05438170795545907,"280":-0.16376375531827786,"281":0.014585402628257685,"282":0.0423837678790848,"283":-0.03425067065643487,"284":-0.19523046819248613,"285":0.05731796809334225,"286":0.039393128833287175,"287":-0.00625676542055467,"288":-0.10827894133126044,"289":-0.04821233291036983,"290":-0.2875619183261379,"291":-0.0625320873981504,"292":0.0875209786985832,"293":-0.02956396489935442,"294":0.006525892197380426,"295":-0.03206266530873543,"296":-0.10366763219722788,"297":-0.019402099221502687,"298":0.22146779159134783,"299":-0.1525109413262513,"300":0.079464409094099,"301":0.16438829731493856,"302":-0.03789340432432171,"303":-0.08088906712535461,"304":0.06090192640312713,"305":-0.006399925926450379,"306":0.022342569013373673,"307":-0.09218269650452086,"308":0.02283405969958269,"309":-0.1839334199541889,"310":-0.046005046126474256,"311":-0.0031761856628471545,"312":-0.020007911655775888,"313":-0.13261450376797593,"314":-0.12356634565063872,"315":-0.2032394352272542,"316":-0.03806154900265038,"317":-0.078331272100617,"318":-0.09764795527247361,"319":0.03199690949669312,"320":-0.2531733912761305,"321":0.017269693909456593,"322":-0.006176455551951568,"323":-0.31208988323632686,"324":0.12197689279860484,"325":-0.04524260321276031,"326":-0.060576377676734496,"327":-0.11881360598349665,"328":0.12358264240490235,"329":0.10351083211667594,"330":-0.06660330265527513,"331":0.26826764809402076,"332":-0.008012914307545313,"333":0.11585500856166707,"334":0.01463498188963747,"335":0.12147685996259035,"336":-0.35479001311969194,"337":-0.036027057442770204,"338":-0.08097044541799148,"339":-0.17677522238365928,"340":-0.08670202803345067,"341":-0.09028683709670679,"342":0.030669187888674385,"343":0.037846238862037765,"344":-0.16718076442767033,"345":0.04163331851584538,"346":-0.13734275929998543,"347":0.07533336997273123,"348":-0.021620061189792573,"349":0.018486528944546707,"350":-0.009905612008338335,"351":-0.050272856807059514,"352":-0.30236640531628806,"353":-0.03500995225409257,"354":-0.03901219202027905,"355":-0.3916403002081717,"356":-0.3434569918613795,"357":-0.0911370117494665,"358":0.05282311742932489,"359":-0.08731057673458809,"360":-0.23311984276525363,"361":-0.049262113136141546,"362":0.053596653513062684,"363":0.05458935749668123,"364":-0.14529025776234597,"365":-0.024072335034217386,"366":0.013414484928542149,"367":-0.03347098592185207,"368":-0.20145445308567675,"369":-0.09747894994469491,"370":-0.09564698587986939,"371":-0.20031444608902493,"372":-0.029332115240404136,"373":-0.10813864375618146,"374":0.024439733638887753,"375":-0.11077170456845793,"376":-0.05127659776948997,"377":-0.018428045868821605,"378":-0.1345598937852966,"379":0.08368777066624634,"380":0.009065014098069368,"381":0.1684472385647924,"382":-0.040128092710980515,"383":-0.05567415765716754,"384":-0.012214555892494212,"385":-0.015021346617010427,"386":-0.16713822902327458,"387":-0.37737786444313526,"388":-0.04658897861947489,"389":-0.2542777366379746,"390":-0.12523209909506064,"391":-0.0949813159359376,"392":-0.07529940591462106,"393":-0.12873564176870902,"394":-0.3290545779502171,"395":0.019444553535885936,"396":-0.004867108173119676,"397":-0.13496437805170014,"398":-0.07074825131172821,"399":0.008235054908327754}},{"sx":5,"sy":5,"depth":16,"w":{"0":-0.5102591777035269,"1":-0.004953931908201598,"2":-0.3022203636648948,"3":-0.03190435429333179,"4":-0.15569704554465782,"5":-0.015447036062808488,"6":0.10021386413833358,"7":-0.08206395546534821,"8":-0.16914521421181747,"9":0.08308975776090366,"10":0.08219882629274979,"11":-0.14067810395322583,"12":-0.0693511675124645,"13":-0.11109707996031594,"14":0.08171965812607059,"15":-0.05383489556434679,"16":-0.5073650329713996,"17":-0.042459117534787386,"18":-0.2438222309662665,"19":-0.199785204107863,"20":0.032411680732765784,"21":0.041430912831512276,"22":0.2355974735776914,"23":-0.10081595640664295,"24":-0.19986290844527288,"25":0.04043038916805979,"26":0.17613970428842515,"27":-0.15008760171876223,"28":0.0837115675071708,"29":-0.29578763149038356,"30":0.09207337804842251,"31":-0.045427738300906746,"32":-0.3933441643863137,"33":-0.07796042297906473,"34":-0.09794002439232807,"35":-0.2775063972845271,"36":-0.026135283108745026,"37":0.10964678788772254,"38":0.280452127843319,"39":-0.010634533969728693,"40":-0.05933779636882487,"41":0.07433350382556062,"42":0.24113682424286212,"43":-0.08721275944211561,"44":-0.001985489482914173,"45":0.10542334242573531,"46":0.11041672552853612,"47":-0.0694982704205855,"48":-0.05336686450702237,"49":-0.049639653172178326,"50":0.28519530061053955,"51":-0.15119870640213282,"52":0.006754273854948574,"53":-0.06487981205683761,"54":0.2551856862850554,"55":-0.11370972151448717,"56":0.09759519537850811,"57":-0.05683577039504667,"58":0.3460947618838382,"59":0.1549848129106516,"60":0.009500245985370078,"61":0.12893130107051637,"62":0.02722902367845375,"63":-0.10496732716999121,"64":-0.041363812475713094,"65":-0.11359228846091071,"66":0.13962862807833454,"67":-0.08312037514841115,"68":-0.07989495813092501,"69":-0.07437891475290817,"70":0.25249287305925017,"71":-0.08270313088022159,"72":0.10588618129272862,"73":-0.23507310901592132,"74":0.259281788051539,"75":0.15205395440534983,"76":-0.13207179836514304,"77":-0.19652350069059343,"78":-0.14168520227368586,"79":-0.15350355815151823,"80":-0.3215849448400661,"81":-0.12333959963534673,"82":0.016742755375220426,"83":0.010742077034116294,"84":-0.08134896761575182,"85":-0.0685000248931477,"86":-0.3251341298024072,"87":-0.029175795244489326,"88":0.09445069568524914,"89":-0.02503587746786344,"90":-0.18260378528625382,"91":0.13602244703404473,"92":-0.08598687366284016,"93":-0.046187272635066924,"94":0.05982135903049836,"95":0.010268440937966892,"96":-0.11264472486349199,"97":0.025861778626288478,"98":0.01987681119806134,"99":0.02877150657785503,"100":-0.026326853659478414,"101":-0.08061829124853667,"102":-0.30977523051789135,"103":0.002190186920068939,"104":0.00874744921337339,"105":-0.003114489575314186,"106":-0.36972363266252045,"107":-0.004670370146912556,"108":0.005849657709444549,"109":0.08236433717775271,"110":0.04523968251053817,"111":-0.058021014976088,"112":-0.06457686035114976,"113":-0.06515864996202506,"114":-0.2739170791356906,"115":0.030288042472655166,"116":-0.06230534521775221,"117":0.01694529243796103,"118":-0.17631007310763883,"119":-0.04656482113496677,"120":-0.01517389992031914,"121":-0.014415856033859389,"122":-0.4291463142088736,"123":0.12121466415134577,"124":-0.0039143627640736926,"125":0.13793724602181184,"126":0.03599125544565512,"127":0.01615804549855424,"128":0.06276166573290974,"129":0.054753996476316395,"130":0.03951889883405346,"131":0.06776046340004559,"132":0.11797558683801089,"133":0.1366365960244334,"134":0.2168662630755976,"135":-0.014048113576885757,"136":0.037704889745897835,"137":-0.05146564250453956,"138":-0.2522288314173265,"139":0.018159943627314663,"140":0.11184272983207984,"141":0.06283598808653655,"142":0.09403390311162109,"143":-0.0541252600282395,"144":-0.15379628766249875,"145":-0.023291711925775997,"146":-0.3224288659825414,"147":-0.032159967416306424,"148":-0.13329452166411682,"149":0.0657011759186828,"150":0.1618221876685905,"151":-0.13331385509128466,"152":-0.06253484885660572,"153":-0.09777766856438015,"154":-0.11549505723165182,"155":0.019901533278604243,"156":-0.10146569326439688,"157":-0.16606484350660664,"158":-0.11606246301546996,"159":-0.20254343090796859,"160":-0.2304796431301687,"161":-0.0396649675844294,"162":-0.12530912624356857,"163":-0.2856485908447507,"164":0.05094855945361479,"165":-0.0938525822397714,"166":-0.10335039986275477,"167":-0.15023376029414262,"168":-0.105708263550386,"169":-0.014345527121266926,"170":-0.016792998231153024,"171":0.03968002817936959,"172":-0.0358660738555787,"173":-0.21708597755894932,"174":-0.028135765349617266,"175":-0.1571246076641622,"176":-0.08327585680035836,"177":-0.09738467589944666,"178":-0.26770604428973366,"179":-0.24790886670902473,"180":0.051158879976963716,"181":-0.1555257159839234,"182":-0.057159435587747574,"183":-0.10398981359144871,"184":-0.07138088937980479,"185":-0.04865225791313431,"186":0.039954115989274445,"187":-0.01838535124341938,"188":-0.06792377963941915,"189":-0.16885100658684285,"190":0.028131784698658988,"191":-0.02708073097823731,"192":-0.11634737837999112,"193":-0.032874611748732574,"194":-0.400633210025898,"195":-0.0851952532532821,"196":0.09578069906182378,"197":-0.014415612717741923,"198":0.010215401827663109,"199":-0.10683004906205121,"200":-0.17605766677614254,"201":0.006410143654572697,"202":-0.13109802992281738,"203":0.0014465846033885645,"204":-0.05255811417347185,"205":-0.10592639150266854,"206":0.03732312555767289,"207":-0.09586860684655349,"208":0.1194322649945221,"209":0.04397831939657033,"210":-0.2598036724303602,"211":-0.03820850631285458,"212":0.23556794627473965,"213":0.011377151023713524,"214":-0.058406355726409856,"215":-0.10896839305802307,"216":0.08803815689601932,"217":0.03943260967316177,"218":0.19885613059851615,"219":-0.10670712076835652,"220":0.04183957646534519,"221":0.0523249355193148,"222":-0.008821561891393579,"223":-0.10441734387600661,"224":-0.11366463640041326,"225":-0.009610916284093173,"226":-0.2660231480252791,"227":0.18023988378091843,"228":-0.12101937980080704,"229":-0.07515096421273873,"230":-0.23499255247799708,"231":-0.08563186321600315,"232":-0.2102698567844405,"233":-0.11019788441255522,"234":-0.22769950051547744,"235":-0.2964297328041545,"236":-0.06082923979172941,"237":-0.2388702530190986,"238":0.062475786432134174,"239":-0.1266597788285928,"240":-0.07126803232944891,"241":-0.025364150244147014,"242":-0.3156562212053968,"243":0.13760273906174364,"244":-0.0004372301620223366,"245":0.08136179404343483,"246":-0.04277246946142532,"247":-0.1207454011190776,"248":0.022133433942086857,"249":-0.07699774000841805,"250":-0.18592224709062086,"251":-0.08981766336882216,"252":0.09985402149683562,"253":-0.10222386030244178,"254":-0.046251792798319626,"255":-0.008383204300202294,"256":-0.3041350455421672,"257":-0.07487752792844793,"258":-0.2623628787967318,"259":0.26299727136270257,"260":0.036770676387212944,"261":0.06940826029094277,"262":0.05351980533577138,"263":0.1091332207476837,"264":-0.16396269372987393,"265":-0.04323047194743955,"266":-0.2774232351888034,"267":-0.21197475203937957,"268":0.01328988110861409,"269":0.09529996983028856,"270":0.04958109814966002,"271":-0.07103604909352261,"272":-0.04943730904473871,"273":-0.053487985607853346,"274":-0.07656642785445272,"275":0.132346249931596,"276":0.006764493745907117,"277":0.12889008686347073,"278":-0.13684038133154056,"279":-0.08251570001980796,"280":-0.09111424426388479,"281":-0.04275680351719255,"282":-0.14772089725527482,"283":-0.04032826268651143,"284":-0.15040962879298508,"285":0.12065130944308963,"286":-0.000928010426799421,"287":0.007575719857203093,"288":0.14458368892785914,"289":0.017610174729952795,"290":-0.11519846707537919,"291":0.23655485038599866,"292":0.2421642961975764,"293":0.10986927766187533,"294":-0.2891512615211114,"295":0.041487346921117045,"296":-0.005774631967254349,"297":-0.06945873554371,"298":-0.15453498038176058,"299":-0.17602925294717825,"300":0.05436754319795333,"301":0.18567911866673117,"302":0.03446311955678703,"303":0.05465650132298709,"304":-0.14732013127999594,"305":-0.03082806075004718,"306":-0.22977187151183404,"307":0.04030865242971131,"308":-0.03188177016819495,"309":-0.07788586553715127,"310":-0.2480280749714316,"311":0.062354931965800275,"312":0.005393254872925969,"313":-0.03959253495006723,"314":-0.1488276517971814,"315":-0.3174105206695133,"316":0.014684448951803875,"317":-0.11199862138995896,"318":-0.08417557629705169,"319":0.0269436917479635,"320":-0.07571301783008076,"321":-0.1321802400529973,"322":-0.3212494514787109,"323":0.2765734807888627,"324":0.06579151839063448,"325":-0.012892384324842384,"326":-0.0964575187269768,"327":0.25057665388643197,"328":-0.07670245535306798,"329":0.2144069317221366,"330":0.03477993148911009,"331":-0.308465446795711,"332":-0.03930986751048719,"333":-0.007644025576885224,"334":0.02081266510377903,"335":-0.07622359293054624,"336":-0.1712845606547839,"337":-0.05638487673870511,"338":-0.00924048276759719,"339":0.23713682807474348,"340":-0.034245478454975185,"341":-0.037378184405475655,"342":-0.0359270614340026,"343":0.1438117590538588,"344":0.08799444074963352,"345":0.16540672048149913,"346":0.12178395571705312,"347":0.04599382000090213,"348":-0.054555658365221665,"349":0.032685979409380714,"350":-0.0690285545328386,"351":-0.08865849612715428,"352":-0.17479961521994133,"353":0.014782094242562667,"354":0.37940830122886154,"355":0.18670311215659507,"356":0.16797236026850057,"357":-0.04023970958124396,"358":0.052482539088124246,"359":-0.04165068110151038,"360":0.10834475484536353,"361":0.07384443141403653,"362":0.13685378501717355,"363":0.1810209833847098,"364":-0.06705192381311428,"365":0.19286786947100443,"366":-0.05683430637768365,"367":0.011519367550932396,"368":0.30875349697557386,"369":-0.21717819150931253,"370":0.15691035245317433,"371":0.027062580796376412,"372":-0.10551413900432176,"373":-0.04089047126177906,"374":-0.04960243154991674,"375":0.014695592826378265,"376":-0.08201440006615386,"377":-0.12115296092602819,"378":0.05779798955724676,"379":0.0970623148202924,"380":0.10743997777789664,"381":0.008836940199908078,"382":-0.07621285337498523,"383":0.021110231143299688,"384":-0.15964661602278593,"385":-0.17820529744489205,"386":0.012550851442283392,"387":-0.2423073820915126,"388":-0.26141164804456213,"389":-0.17619804175537732,"390":0.12384617193673449,"391":-0.2511565424954703,"392":0.05246441536956672,"393":-0.212352443371408,"394":0.0938259683405175,"395":-0.1315964984304625,"396":-0.21318498184135584,"397":-0.2048495265294021,"398":-0.029438129855129058,"399":-0.05313505472528146}},{"sx":5,"sy":5,"depth":16,"w":{"0":0.018427950467651017,"1":0.10118815432959782,"2":0.09815863964342733,"3":0.14756148319291165,"4":-0.23144673862975457,"5":0.1601756594814915,"6":-0.05246078775438773,"7":0.0733242202704679,"8":-0.12806751275540815,"9":0.1516519316769844,"10":-0.26442413908263357,"11":0.02568100226949476,"12":-0.14756059954108827,"13":0.03767847317825778,"14":0.1342331349542978,"15":-0.07720441039139357,"16":0.060186314496356245,"17":0.05271014906347641,"18":0.055813526926651445,"19":0.13911300898970771,"20":-0.12867014692211567,"21":0.11490530314811084,"22":-0.12914963778803099,"23":0.07306036596771104,"24":0.0156626095226355,"25":-0.042303312568944845,"26":-0.2825703486392429,"27":-0.19088999501550796,"28":-0.09766618316116862,"29":-0.18896996798233007,"30":-0.14465149336902564,"31":-0.0796315603005996,"32":-0.2913213326021111,"33":0.007072758887513515,"34":-0.12396497275131658,"35":0.20606812412099457,"36":-0.1485526323314647,"37":0.019499509098321894,"38":-0.10859650777670174,"39":-0.05331330206015061,"40":-0.12233601405889093,"41":-0.007034380494266238,"42":-0.5640409222199811,"43":-0.19069216110006898,"44":-0.13930209507557254,"45":-0.44598183669268254,"46":-0.1104317271069257,"47":-0.1918777759548628,"48":0.13084040846766545,"49":0.0714405946453692,"50":-0.24943831253363344,"51":0.13301141384150333,"52":-0.056574849694982665,"53":0.19209442922895972,"54":-0.18143783025057136,"55":0.0175830937432127,"56":-0.29920792875749314,"57":-0.13675249899567923,"58":-0.6100201251134085,"59":-0.45980538625682305,"60":0.10306320816984353,"61":-0.43630864753205467,"62":-0.052603209353615996,"63":-0.07394115768813292,"64":-0.21852856381596678,"65":0.0441193959043321,"66":-0.14740745685864381,"67":0.16185362092590092,"68":0.03154095692105538,"69":0.27852674151925655,"70":-0.37653260045124304,"71":0.12778422529138186,"72":-0.12355242692466345,"73":0.06834250858358425,"74":-0.44581758226152157,"75":-0.2959620059239779,"76":0.11749555489665724,"77":-0.002234072937020698,"78":0.10103088166689565,"79":-0.11506668010615569,"80":0.07985083133346929,"81":0.1687027012363179,"82":0.14417757593102404,"83":0.10585595308660284,"84":0.301854747578845,"85":-0.2099229617912355,"86":0.2766002886621098,"87":0.0409548400165801,"88":-0.015278055398823985,"89":0.2863361022742493,"90":0.15412861530022803,"91":0.1383803618348706,"92":0.017842205691673666,"93":0.009981852139103279,"94":0.10662145890232656,"95":-0.04798978185323029,"96":0.00951404369675732,"97":-0.06875487847424887,"98":-0.07059713377845445,"99":0.05988485799356197,"100":-0.01069480700689911,"101":-0.2004022042436442,"102":-0.0008323771178097377,"103":0.05869662590391844,"104":0.15039145231404819,"105":0.13461131033028323,"106":0.0228820770277802,"107":0.08619614684125197,"108":-0.00460631061962968,"109":0.015612039770130103,"110":0.030104135340869146,"111":-0.12191536621544682,"112":-0.3012542677161758,"113":-0.12741274721493698,"114":-0.07599980589192505,"115":0.0657573833875766,"116":-0.04366495001654939,"117":0.03145420083687954,"118":-0.17358032228935738,"119":0.04145689210484656,"120":-0.2476562137146931,"121":0.005529667292112805,"122":-0.013004067251506478,"123":-0.09242934532487593,"124":-0.2771586067347461,"125":-0.15463536952982698,"126":-0.11563843327217416,"127":-0.1308414228291013,"128":-0.3913207318716473,"129":-0.09382533811057125,"130":-0.08552768040361462,"131":0.07421668340302605,"132":-0.08367766607901253,"133":0.11078379043921795,"134":-0.2329257026166123,"135":-0.10524675383377163,"136":-0.24875559799649555,"137":0.046925086421698285,"138":0.09907376199882358,"139":-0.20119120654818326,"140":-0.020813596258869287,"141":-0.12469467100342434,"142":-0.12163287581508622,"143":-0.10930550417592179,"144":-0.39821543069168136,"145":0.025443602227963227,"146":0.009901250678060684,"147":0.1703353671608499,"148":-0.26333704131678703,"149":-0.036973296402596716,"150":-0.08563578042740082,"151":-0.042442178316118954,"152":0.0454307407428887,"153":0.037412055979440716,"154":0.044445087128895215,"155":-0.2412768541454942,"156":-0.0008085756991901334,"157":-0.011736816492440703,"158":-0.1972245999686985,"159":-0.13309941588196014,"160":0.034398013431831555,"161":0.12504949362893272,"162":0.19171623256978437,"163":-0.20705377591540075,"164":0.09582612971729844,"165":0.11854327873001569,"166":0.22981764632752316,"167":0.2177307259121077,"168":0.016285085813968786,"169":0.18705912571561403,"170":0.31067577684322395,"171":0.1390674947612097,"172":0.3254823806622421,"173":0.0030291952861644955,"174":0.07043171843469376,"175":0.046477530086672415,"176":0.051357218696269746,"177":-0.017582679163648553,"178":0.3047252543548179,"179":-0.17351555399012994,"180":0.17550319717863758,"181":0.025624734880537396,"182":0.16297225716584576,"183":-0.04990833441688225,"184":-0.1163827613867471,"185":0.07083298711886805,"186":0.16154963766816785,"187":0.08723104647036582,"188":-0.02281926241695442,"189":0.05910163025499447,"190":-0.02583561493522232,"191":-0.0159858441680851,"192":-0.15267630775012048,"193":0.07926260259073442,"194":-0.20071670748406503,"195":-0.07266726050835033,"196":0.025701658658566814,"197":-0.1743623725382368,"198":0.14974478141368885,"199":-0.11481491441093254,"200":-0.037198487936964245,"201":0.06309686307070436,"202":0.06195219449385002,"203":0.13154615296444205,"204":-0.09010566705482169,"205":0.1386023758675244,"206":0.06804949973419196,"207":0.06507144638780012,"208":-0.39305770025535947,"209":-0.07213541510674654,"210":-0.06438637637159333,"211":-0.06334231230245038,"212":-0.06991781522837595,"213":-0.15694939500975139,"214":0.08671624472009752,"215":-0.14345870058813368,"216":0.09899170013148181,"217":0.032955390121870556,"218":0.14237842194685016,"219":0.00966109246395467,"220":-0.07573706541564698,"221":0.08789363404803305,"222":0.022044005817042626,"223":-0.04017091649931469,"224":-0.19798684807256675,"225":-0.00020184578700332558,"226":0.263359687125877,"227":-0.17291989159451968,"228":0.02670001747592906,"229":-0.17910644837459166,"230":0.269836222733346,"231":-0.09767790737919833,"232":0.025003923959877692,"233":-0.015157925807160511,"234":0.08092657863568643,"235":0.10109036133644718,"236":-0.13830250753886142,"237":0.05864339890353243,"238":-0.1361051055069861,"239":-0.016664181589259884,"240":-0.059481558855424076,"241":0.045069303553020135,"242":0.041854017892615704,"243":0.11449487617088669,"244":-0.3286586836785235,"245":0.0795894770386948,"246":0.037966211067637576,"247":-0.10284207269042597,"248":-0.08565842385231122,"249":-0.061625010505644826,"250":-0.24209150947840546,"251":-0.3352279937145894,"252":-0.0003837002971578495,"253":-0.19286896170681928,"254":-0.10442800794221703,"255":-0.0025232578581277773,"256":-0.10308572377005795,"257":0.0082326620713031,"258":-0.11871199034479474,"259":0.01384261519368774,"260":-0.07772007278485668,"261":0.007780093882841318,"262":-0.012200573784656703,"263":-0.02041520725692612,"264":-0.28475643087664937,"265":-0.08722897158892844,"266":-0.2570450480069829,"267":-0.4405975278123328,"268":-0.011179413538018658,"269":-0.1836506608381506,"270":-0.0910762369914374,"271":-0.06705018212730554,"272":-0.13494089692051778,"273":0.008448097136901207,"274":-0.28728926930576015,"275":0.11246287867675579,"276":0.032307355917027866,"277":0.007230473438106209,"278":-0.03878909189237106,"279":-0.0770784476201898,"280":-0.19041051373734455,"281":-0.04045759581894685,"282":-0.22395633079547336,"283":-0.3612399134519618,"284":-0.13225535543713077,"285":0.021758835597770344,"286":-0.15405655260319498,"287":-0.1593251531041139,"288":-0.08924975044843936,"289":0.02652703202466824,"290":-0.18493506651030647,"291":0.11193324073154355,"292":-0.15745930744946907,"293":0.0706945248343402,"294":-0.0668732668987125,"295":-0.17958349695200887,"296":0.0201387252105096,"297":-0.12488023768255682,"298":-0.3607631058710372,"299":-0.21587514000710187,"300":-0.17422651393058358,"301":-0.18050093022481117,"302":-0.004624947593058727,"303":-0.06030964113285172,"304":-0.14413737553825673,"305":-0.10301075047407351,"306":-0.18146446128267807,"307":-0.025872477037781127,"308":-0.054037260259346534,"309":-0.004115156865002979,"310":0.04868622196821233,"311":-0.09296214884784622,"312":-0.13744487011616632,"313":-0.12038567625154933,"314":-0.24001659716280152,"315":-0.2085273754140509,"316":-0.0902420311724753,"317":-0.151148154124251,"318":-0.09028310853628738,"319":-0.1646995384028223,"320":-0.16154116863038626,"321":0.023159328732832062,"322":-0.012276042367715866,"323":-0.16179237813451278,"324":0.1173833706236369,"325":0.009288158979588842,"326":-0.273248386782014,"327":-0.032211837013161944,"328":0.10126202008431136,"329":-0.012847505493977344,"330":0.008410531206485302,"331":-0.2534221196291982,"332":-0.02031520725181902,"333":-0.06463820732773325,"334":-0.14483923677616473,"335":0.035795687099862666,"336":-0.011773208683384974,"337":-0.01440849254513335,"338":-0.3149516544415383,"339":-0.15691653608419434,"340":-0.036692507775395476,"341":-0.022739851227562374,"342":-0.22926315711220055,"343":-0.11484524649629549,"344":-0.2935408728990356,"345":-0.041113797958410164,"346":-0.03264704606550593,"347":-0.4605015934108498,"348":0.11320074718036403,"349":-0.256446459938817,"350":-0.08360631122853023,"351":-0.06979508939655511,"352":-0.21605176948283805,"353":-0.06942370100833621,"354":-0.21770134752306716,"355":-0.16478389867426263,"356":0.08427415211213916,"357":0.03271752471843992,"358":-0.027077983472333107,"359":0.023070380927212773,"360":0.006919183097254812,"361":0.006198923335439458,"362":0.08163084962090808,"363":-0.2560285899275251,"364":-0.0479117534399773,"365":0.07617374572547148,"366":-0.08140449919538968,"367":0.014869794462980533,"368":0.11472237845534185,"369":-0.07391044586891317,"370":-0.217057586206538,"371":0.003984407629713267,"372":-0.0029337686073758794,"373":-0.0562165905969573,"374":-0.04587344385985512,"375":-0.14841467574217104,"376":-0.10013310967022825,"377":-0.1234090580077063,"378":-0.03552065866239566,"379":-0.3130549688701214,"380":-0.15348711180173755,"381":-0.07710956202962448,"382":-0.05571844269485432,"383":-0.061646368400514365,"384":-0.09468408708479262,"385":-0.0946107785745462,"386":-0.37084628477967035,"387":0.05937016291563187,"388":-0.10769176678268419,"389":0.025712828495156968,"390":-0.3053821861844372,"391":0.031481054504819105,"392":0.00446664487869863,"393":-0.13607957477700905,"394":-0.011072010735998679,"395":0.015174036379089527,"396":-0.11390149863268739,"397":-0.02726243481402351,"398":-0.11678109763309123,"399":-0.009602768503438542}},{"sx":5,"sy":5,"depth":16,"w":{"0":-0.0380560172562298,"1":-0.019854084544355523,"2":0.10417210188413695,"3":0.271255355713101,"4":-0.05746215336160063,"5":-0.043328704217975245,"6":-0.046185156602043066,"7":0.07356025644147876,"8":0.18731913377113063,"9":0.147128773096287,"10":0.26765634009780354,"11":-0.041030385232031404,"12":-0.1355944056279112,"13":0.2884345708963953,"14":-0.26483025889909234,"15":-0.10512280417252658,"16":0.030028493978588557,"17":0.059310278543452714,"18":0.1942869143392714,"19":-0.09194410798036248,"20":-0.20321944701576458,"21":0.049489493960190506,"22":0.17273685836288666,"23":-0.09593112763782631,"24":-0.05073941413735393,"25":0.06713780629497987,"26":0.1537146212876503,"27":0.29431554477761074,"28":-0.115307812790077,"29":-0.0036450529798964758,"30":0.04971952609566944,"31":0.04072996920847724,"32":0.09268778855261663,"33":0.08596259759214472,"34":0.10076999929251433,"35":-0.10969072931003512,"36":-0.1622043066919684,"37":-0.37089487242129665,"38":0.12460963222161538,"39":0.0006722531432000743,"40":0.0074965871360288166,"41":0.11867137050316023,"42":0.04182261156587305,"43":0.20024016250679375,"44":0.13417392520473054,"45":0.10227544760094417,"46":0.052301709479010576,"47":-0.05439745792674247,"48":-0.04193119312463895,"49":-0.029235993341979367,"50":0.0222808933369266,"51":-0.148858499377223,"52":0.13490999565615952,"53":-0.12293594438494873,"54":0.05821581072355423,"55":-0.1668106637026706,"56":-0.1433966844792523,"57":0.1796637354866739,"58":0.13617272921039983,"59":0.06782685313943684,"60":-0.03986706634126435,"61":-0.0428863489877168,"62":-0.18110596116600264,"63":-0.009936638832276775,"64":0.04936954862806966,"65":-0.213382003881427,"66":-0.22145528519203803,"67":0.15446576001118437,"68":0.23297152196489826,"69":-0.1678074159875511,"70":0.0032738835262305257,"71":-0.0602466330093062,"72":-0.06084673341782294,"73":0.07093105005515137,"74":-0.09680515707222886,"75":-0.17651893427387963,"76":-0.04228568548849465,"77":0.05255088563112276,"78":0.026111234254207475,"79":0.1552915822730088,"80":0.13685034429826515,"81":0.024056947557474936,"82":0.14096562513933744,"83":-0.024338530602430075,"84":-0.28405473199799414,"85":-0.07363483375172829,"86":0.18195904442292185,"87":-0.3365974009466192,"88":0.16112985696724558,"89":0.007369131136969862,"90":0.20216648253364844,"91":0.20505471599351938,"92":-0.15645503585871742,"93":-0.22430812569797037,"94":-0.07599705020536848,"95":0.29590091357376697,"96":-0.10889381947531801,"97":0.11822084289064129,"98":0.10884360602491724,"99":-0.05748163588032665,"100":-0.24752792741945098,"101":0.21606077638330903,"102":0.06024350826663266,"103":-0.23238438931363936,"104":-0.003954839750775083,"105":-0.13513172368062168,"106":0.09304759514698575,"107":0.21517437960700223,"108":-0.006909657273865874,"109":-0.1094739028370171,"110":0.040333404394938044,"111":0.246215923858722,"112":0.09904105857927317,"113":0.08420618945745217,"114":0.17850874543061268,"115":-0.3007246010535892,"116":-0.00020297010884040925,"117":0.0198946219605202,"118":0.42000558044517916,"119":0.00938445717394411,"120":0.03813388247767457,"121":-0.1222334455786361,"122":-0.04069565880044944,"123":-0.09602909439361663,"124":0.2375398258887782,"125":-0.33739560136475155,"126":-0.15493954434798435,"127":0.02547032297807944,"128":0.07484392770446574,"129":0.08527728106956392,"130":-0.06457269754744957,"131":-0.12839201723155583,"132":0.25686298869712054,"133":0.05802039053457765,"134":0.37445685846416604,"135":-0.020882672388472585,"136":-0.3696242397559208,"137":-0.10820025645648018,"138":0.02490922460113189,"139":0.06747133027287396,"140":0.21325287725248573,"141":-0.40874389739406,"142":0.03623954413475224,"143":0.08406448237516062,"144":0.03970860918131242,"145":-0.044011811874275907,"146":-0.14693068242965207,"147":0.04067039819794396,"148":0.33433275553502995,"149":0.04903349094068634,"150":0.36461957777051385,"151":-0.1790701441799006,"152":0.0013261420680452394,"153":-0.044094498580607426,"154":0.01092309059553619,"155":0.10496799737632766,"156":-0.05178567695979191,"157":0.31211011133668476,"158":0.11717504381257311,"159":0.1350075634325138,"160":-0.11271184657012648,"161":0.02423257984313273,"162":0.049825058495410746,"163":-0.07039625410558811,"164":-0.18344751756116323,"165":-0.14687426689474767,"166":-0.20636988160715572,"167":0.09268417969041212,"168":0.10734612974994157,"169":0.17882215913544006,"170":-0.013484597774278075,"171":0.15753826357731762,"172":0.1869603432945212,"173":-0.14805457313168335,"174":0.06635715094697141,"175":0.16270694444670283,"176":-0.00785418714327026,"177":0.08080886136027722,"178":-0.1844228862613032,"179":-0.2336042758067863,"180":-0.14543506144266108,"181":0.004297910452979199,"182":-0.0926977764174224,"183":0.17750671362502893,"184":-0.07469485429086661,"185":0.02968087346243628,"186":-0.20404036718066226,"187":-0.009492617388888465,"188":0.2825244566701887,"189":-0.18044699883487147,"190":0.031289298813054804,"191":0.020340590699246243,"192":0.11159652742117583,"193":0.0894441687887008,"194":-0.12598835035697817,"195":-0.11862448342831214,"196":-0.5301762061414018,"197":-0.3695049542999218,"198":-0.5222172019731861,"199":-0.16955378181018563,"200":-0.19513313702779456,"201":0.2661095606361303,"202":-0.4745828856675736,"203":-0.08976533223097806,"204":-0.19491815711400237,"205":-0.3271295681109991,"206":-0.04541970157817423,"207":-0.1643937310767377,"208":-0.3835213960959721,"209":0.01628842211349041,"210":-0.33778066818659713,"211":-0.23455270291083152,"212":-0.00864319303604428,"213":-0.1667830837366034,"214":-0.0028189274235873468,"215":0.0518762274655533,"216":-0.37820333539399364,"217":-0.04537238404367426,"218":-0.3687252355002913,"219":-0.6959977316569168,"220":0.2912980765118553,"221":-0.17425026921298378,"222":-0.04247171785975765,"223":-0.0031229300111284553,"224":-0.2150397889506331,"225":-0.18009547014104238,"226":0.03959791652456172,"227":0.0034394239632042152,"228":0.5659363968075314,"229":0.19155347295560818,"230":0.16604702206697025,"231":-0.07340121911735972,"232":-0.053121439653759456,"233":-0.08711770153298369,"234":0.18776222084424754,"235":-0.09789418712145492,"236":0.2614291748803502,"237":0.35309022507124466,"238":0.05740311353188018,"239":-0.018136965613042347,"240":0.033722494558814334,"241":0.009390235316042723,"242":-0.052913046824253546,"243":-0.5191161083640183,"244":-0.05294149116113103,"245":-0.306190483469003,"246":0.32610291150438564,"247":-0.06150504191322063,"248":0.07244338004570318,"249":0.01783813992259184,"250":0.06891766493901108,"251":0.09378098604286912,"252":0.06751251149459513,"253":-0.14745992304336275,"254":0.12707075451357372,"255":-0.030085085121266182,"256":0.12441702598774802,"257":0.14060981390792202,"258":0.2109396793890912,"259":-0.12276518425352301,"260":-0.14212803687870126,"261":0.1677319631841621,"262":-0.08309080382520939,"263":0.2000757605232404,"264":0.07197429996278655,"265":0.031604431502524476,"266":-0.07936184804995693,"267":0.09186412102173828,"268":0.07407787724351818,"269":-0.20252772866530724,"270":-0.0025428169818871604,"271":-0.04080838383606966,"272":0.06392447383760876,"273":0.03601795604568068,"274":0.17382179981364637,"275":0.07113029375567466,"276":-0.37577313042308924,"277":-0.030569035318701577,"278":-0.3570317309794113,"279":-0.3959749328584014,"280":-0.2532740955550693,"281":-0.026234572652577497,"282":-0.5035013941827773,"283":0.009418296536534908,"284":0.03530957226733687,"285":-0.4569189392633249,"286":-0.10814729232071855,"287":-0.05137094412235955,"288":-0.056193679892816324,"289":-0.034921463681565665,"290":-0.44301721940829314,"291":0.3431249659755522,"292":-0.14314604727617716,"293":0.11025369948473804,"294":-0.2774943460749432,"295":-0.3012854489636563,"296":-0.38103974261583085,"297":-0.10608068008768828,"298":-0.5215746608669755,"299":-0.40412267837741034,"300":0.06094533343134267,"301":-0.025149815612272225,"302":-0.05030054658264059,"303":-0.1482954217761923,"304":-0.30515545653500337,"305":-0.04563991308555949,"306":-0.19648578397716984,"307":0.3654189485296648,"308":0.3186580191264624,"309":0.17741890598533452,"310":-0.2754850513105773,"311":-0.2350152352788485,"312":0.04230547816231158,"313":-0.03667842962284674,"314":-0.330958830680403,"315":-0.020989422220007093,"316":0.0684242385930434,"317":0.0591804307488886,"318":0.017653114241556595,"319":-0.2890930173030472,"320":-0.022967341400597696,"321":-0.14390260985276077,"322":-0.1354432486776045,"323":-0.10221097859539306,"324":-0.012749051534164746,"325":-0.11903572998651003,"326":0.09484748092968359,"327":-0.028683324641877457,"328":-0.1545918519793977,"329":-0.08785669189811915,"330":0.041117092967577026,"331":-0.07563790077580916,"332":-0.0036169813010373713,"333":-0.12088922542599895,"334":-0.10337356218210898,"335":-0.1914567286228898,"336":0.12563755080812766,"337":-0.14872415254554994,"338":-0.011971534307400847,"339":0.06396920392665278,"340":0.2751039704713704,"341":0.12815046280577805,"342":0.11291341480888754,"343":0.06910318655486171,"344":0.027451220693637177,"345":0.015085711299687055,"346":0.0948396886437887,"347":-0.06283784253492927,"348":0.3222031020502907,"349":-0.019485292446195013,"350":-0.07765844148616369,"351":-0.1578838770931292,"352":-0.1426406408478093,"353":0.00728401704415977,"354":0.0010647633677856407,"355":0.2375134456575592,"356":-0.026363038677083568,"357":0.19856304331141508,"358":0.10034988457485843,"359":0.09372370356731581,"360":-0.15042447569569586,"361":0.14873397916509917,"362":0.006549320378812173,"363":-0.27956800114063074,"364":-0.020102756778437637,"365":-0.11056195394249849,"366":-0.07759822009501373,"367":-0.1814093503580931,"368":-0.1664042600207098,"369":0.1446450183809053,"370":-0.16910654712911327,"371":0.2953173935181175,"372":-0.08492285882704566,"373":0.25916968957424863,"374":0.024867096605810896,"375":0.07970116674368026,"376":-0.13006660981560939,"377":0.08812890802933884,"378":0.09782485906724196,"379":-0.2005040072110165,"380":0.2094579400786134,"381":0.023723537946291107,"382":0.26007087649951005,"383":0.04127332484734617,"384":0.04724127027448179,"385":-0.05760221918321041,"386":0.08181695779822293,"387":0.12281693711644467,"388":0.1261039546623272,"389":0.06330221403028129,"390":-0.45616695405463625,"391":0.14232061375132812,"392":0.009791134144840305,"393":0.261844089397036,"394":0.05880325130117861,"395":-0.30166127713571567,"396":0.13324658646704385,"397":0.0298322721713956,"398":-0.07897898314050687,"399":0.03935301564483299}},{"sx":5,"sy":5,"depth":16,"w":{"0":0.10024841230543285,"1":-0.03737750344223174,"2":0.07984813059854587,"3":-0.4409343269642401,"4":-0.16434322260811673,"5":0.054317258820786356,"6":-0.38400502252906543,"7":-0.23515350839863283,"8":0.03284031708104449,"9":0.02783753675144384,"10":-0.19440669905095126,"11":0.027535077880367898,"12":0.06875653859719782,"13":0.06268035187249194,"14":-0.07477056354664711,"15":0.0711903074617947,"16":-0.023198874403513602,"17":-0.050898989828437824,"18":-0.09000349234033361,"19":-0.08847108605330846,"20":0.08043912009834595,"21":0.002311041645916367,"22":-0.3825053896065486,"23":-0.01230774589565262,"24":0.17909692587121565,"25":0.16563502444080458,"26":-0.21353579062737407,"27":-0.0948072875903954,"28":-0.1346225277411936,"29":-0.1980638691243629,"30":0.02454366905732961,"31":0.08238889392358349,"32":0.1156819909361338,"33":-0.014955412162787342,"34":-0.17635917068174678,"35":-0.2558907073383193,"36":-0.30191353087031736,"37":-0.10796657702384335,"38":-0.23593868670979568,"39":-0.09043012682724474,"40":-0.061446537316718765,"41":-0.02030663736672963,"42":-0.15968156337048697,"43":-0.059125149323554255,"44":-0.17185044906930103,"45":-0.4116126130212416,"46":0.012255259799269605,"47":-0.10078773667750532,"48":-0.09518798499231423,"49":-0.050442929946435955,"50":0.02290985575053605,"51":-0.18031783777550725,"52":-0.30997641197545245,"53":-0.06349618146813837,"54":-0.29308767662512014,"55":-0.11916905534498098,"56":-0.2348305273550451,"57":-0.035100358826119143,"58":-0.11417307892864471,"59":-0.1867354437257068,"60":0.01795397268873105,"61":-0.30837554227996916,"62":0.08989206974507412,"63":-0.12352157166583225,"64":-0.24680848196666788,"65":0.08713108089694158,"66":-0.014804343046366783,"67":-0.14665269724622282,"68":0.06479798584092479,"69":-0.018033497559176846,"70":-0.17935278661624984,"71":-0.17796494159980444,"72":-0.16156332344565255,"73":-0.09177322951919614,"74":-0.037617599976748635,"75":-0.007992682603315674,"76":-0.1014047390899341,"77":-0.020261511897479975,"78":0.007317051876142413,"79":-0.06263368814034914,"80":0.09421757795690039,"81":-0.11299184538040898,"82":-0.04263172731135752,"83":-0.3934556451572858,"84":0.05067353002299224,"85":-0.07387963666672594,"86":-0.16474975298270533,"87":-0.29974751748476347,"88":-0.0811590534083464,"89":-0.04944637545219846,"90":-0.2841509417944992,"91":-0.04860160339897694,"92":-0.011924388806825153,"93":0.13766190911230897,"94":0.11054043638826112,"95":0.0852517449907601,"96":0.13438231250418886,"97":0.07325882804819545,"98":-0.05488807612044468,"99":-0.16786466039692471,"100":0.03839951146782753,"101":-0.07048945856448105,"102":-0.22855129189874543,"103":-0.24473756566838045,"104":0.06540979002755076,"105":0.004628865609675791,"106":-0.19882423099207594,"107":0.0035162964431719335,"108":-0.1734335848156104,"109":-0.04295231880094111,"110":-0.012807567364520815,"111":0.018941217429913736,"112":-0.043880248613366535,"113":-0.0839247249773407,"114":-0.2560469406158948,"115":-0.25646346759856326,"116":-0.15113080319239233,"117":-0.051997834063008556,"118":-0.0429648136640958,"119":-0.26977623743938217,"120":0.21323295132476985,"121":-0.06549279979804068,"122":-0.2110077971875492,"123":-0.08335778991908939,"124":0.028051168505182963,"125":-0.2503583476469177,"126":0.051395861936953786,"127":-0.08523487071317247,"128":-0.07473201307778475,"129":-0.04390592948354977,"130":-0.13250359351599936,"131":-0.09030570761357569,"132":-0.023616318771847642,"133":-0.003979728643936183,"134":-0.08387124694552166,"135":-0.14662589279407362,"136":-0.1793041660180817,"137":-0.04507648963957694,"138":0.08134454052050435,"139":0.11142388667145116,"140":0.03905413743738902,"141":-0.3953252389079849,"142":-0.13456489932668556,"143":-0.0553896583222671,"144":-0.0931994721540089,"145":0.11354169340045846,"146":-0.181007091203503,"147":0.10468027652500873,"148":0.11230902882320251,"149":0.005093603390447004,"150":0.004039049717248096,"151":-0.0677726035612114,"152":-0.21642695377308313,"153":0.10974103197983906,"154":-0.10392801338589594,"155":0.010111380492939333,"156":-0.0692419774245781,"157":0.01011946798843788,"158":0.06629174627253646,"159":-0.0014857932810941814,"160":-0.023416548905023402,"161":-0.08242026305669893,"162":-0.1978192063728399,"163":-0.15197770439987637,"164":-0.03924509803666716,"165":-0.11352224015649719,"166":-0.017655988218135903,"167":-0.1794914693744897,"168":0.10008707498918483,"169":-0.05567459573226895,"170":-0.3516801894620578,"171":-0.2050789547492532,"172":-0.015441593601960707,"173":0.04299933877288216,"174":-0.07832474293495549,"175":0.17655847527981686,"176":-0.16026160447056578,"177":-0.17110171688908005,"178":-0.1280488962754447,"179":-0.11932799381819553,"180":0.12374092894534576,"181":0.022893096088640454,"182":0.1958190011091986,