{"layers":[{"out_depth":3,"out_sx":32,"out_sy":32,"layer_type":"input"},{"sx":5,"sy":5,"stride":1,"in_depth":3,"out_depth":20,"out_sx":32,"out_sy":32,"layer_type":"conv","l1_decay_mul":0,"l2_decay_mul":1,"pad":2,"filters":[{"sx":5,"sy":5,"depth":3,"w":{"0":0.017512900736934685,"1":0.07948792015297322,"2":0.05842648284881871,"3":-0.029803228414350975,"4":0.06394175810844095,"5":-0.17654561980331826,"6":0.16740823746516503,"7":-0.1622273363642299,"8":-0.01008318626144517,"9":0.10670216225896188,"10":-0.08755177755007947,"11":-0.38279418697191436,"12":0.019453013753374746,"13":0.05402108469479059,"14":-0.09081202686172728,"15":-0.06006946805145173,"16":0.04158829048583996,"17":0.0702725564928411,"18":0.06063950227427225,"19":0.07160791498439947,"20":0.2103289612448563,"21":-0.09254325527266533,"22":-0.06228898360463282,"23":0.07537270402741338,"24":-0.01555888111278949,"25":0.05935664519696992,"26":-0.04025185738860421,"27":-0.04410710135075158,"28":-0.10402791924570709,"29":-0.028699734827061726,"30":0.16618721235162887,"31":0.058590884978104774,"32":-0.15286237966321065,"33":0.11592523828512194,"34":0.10572587223100856,"35":0.07501422899500045,"36":0.016442146493042202,"37":0.18378944705197245,"38":0.1994283649977708,"39":0.23235702034208047,"40":-0.0899484185575548,"41":0.04914359003415212,"42":-0.2389081287136074,"43":-0.1442743008269716,"44":-0.026275650707644323,"45":0.15558454579547937,"46":0.11913808833757057,"47":0.05335162912384836,"48":-0.01478392502760051,"49":0.06366305222138903,"50":0.15600184775217252,"51":-0.1201414977915372,"52":0.05520818574228533,"53":-0.07200675277027152,"54":-0.1485482736977685,"55":0.0946579113674892,"56":0.2219174650937655,"57":-0.2380309850896893,"58":-0.16868095256312765,"59":-0.313717745209764,"60":-0.10254591120807031,"61":-0.03760364280691594,"62":-0.08524137307874516,"63":-0.21759235149082456,"64":-0.11767481590891951,"65":-0.23732678828072776,"66":-0.13685484331009456,"67":-0.11830686448388371,"68":-0.011670156694689952,"69":0.25564353070318147,"70":-0.03654463084303334,"71":0.24485336233971255,"72":0.30065583070033863,"73":0.011746369172753391,"74":0.10429822123471845}},{"sx":5,"sy":5,"depth":3,"w":{"0":-0.2577406604889196,"1":-0.19950483824005918,"2":-0.2952404402218518,"3":-0.1402541548808276,"4":-0.12464941579193374,"5":0.06814575484585235,"6":0.33713722148666203,"7":-0.16819704848428538,"8":0.09050442162340404,"9":-0.006267730753254468,"10":-0.1132253787644678,"11":-0.20122891197513146,"12":0.06529033635535374,"13":0.23621059380999854,"14":0.0012826410140989073,"15":0.23475866336625037,"16":0.17694104654355958,"17":0.004479780404167806,"18":0.03835722647430703,"19":-0.12504042115521719,"20":0.08723342572225012,"21":0.022803156513122733,"22":-0.07698373333906866,"23":-0.08867311839349108,"24":-0.05326899313376557,"25":0.10364098138855593,"26":-0.04114678696250592,"27":0.26407358639594514,"28":0.10094584707529139,"29":0.08626455948386953,"30":-0.049547094395650075,"31":-0.07750313921275223,"32":-0.12090930398563139,"33":-0.011007328644223338,"34":0.04154563203987195,"35":-0.14656132077397205,"36":0.19633077295506587,"37":-0.05926023774684281,"38":0.10385847194672339,"39":0.08395004999073367,"40":-0.0843921454690078,"41":0.09004751851330836,"42":0.15724593998742303,"43":0.09733196666636859,"44":0.21660792957977615,"45":-0.23724453105334745,"46":-0.19697255963033927,"47":-0.08823587601555978,"48":-0.000516048754255544,"49":-0.2349705290534077,"50":-0.2442673330749214,"51":-0.18761124361853246,"52":-0.03337401881486242,"53":0.07235680123373052,"54":-0.029649837278064577,"55":-0.05188248975595429,"56":0.10394243336558888,"57":0.03814963356243219,"58":0.028848663105646648,"59":0.3075179713569878,"60":0.00019810268613539765,"61":-0.09164486229881075,"62":0.05529934035542794,"63":0.005184831778378452,"64":0.011381069904273419,"65":-0.08427447027754847,"66":-0.09533700250530369,"67":-0.02459759947038143,"68":-0.08516859658759304,"69":0.03161969403618555,"70":-0.05845967677256541,"71":0.05968444064356526,"72":0.01251722623383891,"73":0.09998044318383163,"74":0.0695486936133168}},{"sx":5,"sy":5,"depth":3,"w":{"0":0.21713163571985952,"1":0.3887665644458483,"2":0.13729558096310837,"3":0.1782391933572769,"4":0.1013659375978315,"5":0.15051883157505055,"6":-0.49171274429858525,"7":-0.40542107175220016,"8":-0.3733335176095064,"9":0.02744278880539156,"10":-0.016555361328621145,"11":-0.060793718153330296,"12":0.11137418427085971,"13":0.05202966858083654,"14":-0.06779415568199722,"15":0.2045783236106636,"16":0.44734865670634866,"17":0.3662215295902485,"18":0.15523479903926074,"19":0.1514647404661865,"20":0.05585853043841352,"21":-0.44479614757149405,"22":-0.23181737656501247,"23":-0.3784911361012813,"24":-0.05416646984247355,"25":-0.06154438518418694,"26":-0.08971280127348388,"27":-0.022982876156450543,"28":-0.17520037133447683,"29":0.004914267534311383,"30":0.07341020466377698,"31":0.11470160761243085,"32":0.12431429529705541,"33":-0.003503268799991192,"34":-0.19622482941985436,"35":-0.0997848652671421,"36":-0.29149984062835743,"37":-0.3859998684505757,"38":-0.31827064813776856,"39":0.27919575364647925,"40":0.2231278663648406,"41":0.17048926977123072,"42":0.15465118080076504,"43":0.03768217234296388,"44":0.030417697702586635,"45":0.07212397891051252,"46":0.13716095094924133,"47":0.3470759956451311,"48":0.21469147790981324,"49":0.1931028985362771,"50":0.24307184257949407,"51":-0.1818204738094737,"52":-0.3836312934505192,"53":-0.32164172497512744,"54":-0.17233386688519617,"55":-0.2639727895377265,"56":-0.08314621518565378,"57":-0.0807954325948375,"58":0.21394441999794692,"59":0.031034424740609988,"60":0.1819612219969377,"61":0.22828372834201693,"62":0.15175070961417242,"63":-0.05608517408806499,"64":0.10297396609588967,"65":0.12196742565245611,"66":-0.22570174126766313,"67":-0.3133186718475265,"68":-0.16081720683596853,"69":-0.0038263835477563607,"70":0.04008908558778714,"71":0.084119604330739,"72":-0.19841097920713943,"73":-0.16303407180349302,"74":0.09702267074086744}},{"sx":5,"sy":5,"depth":3,"w":{"0":-0.02841186842935134,"1":0.3051934394310092,"2":0.07972380458016382,"3":0.16374642674133902,"4":0.06514281422023127,"5":0.16101277240323905,"6":0.052250003543615295,"7":-0.14596503862330576,"8":0.024487793169514722,"9":-0.3404041817026956,"10":0.01633538781566387,"11":-0.06148112423101435,"12":-0.09215443084983663,"13":0.1782458276056493,"14":-0.07464477836883299,"15":0.018373982687279505,"16":0.032570214185788385,"17":0.02494422281866425,"18":-0.10320840246654828,"19":-0.1360768844561524,"20":-0.07848735211838488,"21":-0.21811260674626942,"22":-0.13580906874134502,"23":-0.14303572164551534,"24":0.04725521165536166,"25":-0.06769724473626074,"26":-0.00700638577539521,"27":0.2409719251978705,"28":0.0454581993645524,"29":-0.07808257818509305,"30":-0.25771799979828064,"31":-0.12812909164699054,"32":-0.17370037584502093,"33":-0.19911336132588078,"34":-0.06002880192559463,"35":0.06820806419660373,"36":-0.027928441982995426,"37":-0.14510375354445768,"38":-0.18099357732908783,"39":0.11346519142442232,"40":-0.03259943955155357,"41":0.06356984009215293,"42":0.0176662722493829,"43":0.10914051051760479,"44":0.13968928497105038,"45":-0.11469890053843432,"46":0.1829956078766077,"47":-0.07684990960781607,"48":-0.11041485166261676,"49":0.10263793504234896,"50":-0.06845222692424593,"51":-0.03825642179641661,"52":-0.15517408207242192,"53":-0.024808107200027348,"54":-0.0802404620371548,"55":-0.07773936584278919,"56":0.03830821383385936,"57":0.14170889359523708,"58":0.061605207363475564,"59":0.1611360481852379,"60":-0.02574767395003559,"61":-0.0124170456285343,"62":0.011451548837529208,"63":-0.09977343534056947,"64":-0.30828653589694227,"65":-0.1450108716533873,"66":0.11921852455448079,"67":0.12102757121478956,"68":0.13603787482074733,"69":0.22601910428523217,"70":0.03174087094002122,"71":0.14818704590397266,"72":-0.09565726212626577,"73":0.12062468460611424,"74":0.056895045470534804}},{"sx":5,"sy":5,"depth":3,"w":{"0":-0.28749554957251516,"1":-0.27216980357105575,"2":-0.17179908415036302,"3":-0.29769871045291035,"4":-0.3454226859536806,"5":-0.16169856601616964,"6":-0.2394229446718985,"7":-0.26971001344468537,"8":-0.29121691464065314,"9":-0.4950921499656172,"10":-0.22410698628436954,"11":-0.13979631685511315,"12":-0.4389522134209642,"13":-0.34140599190719867,"14":-0.3176286368978167,"15":-0.108140514114383,"16":-0.03501576297854132,"17":-0.14157997984093554,"18":0.04512493285701593,"19":0.1471473826654817,"20":0.004399914152667262,"21":0.15690594795792423,"22":0.18644041839025086,"23":-0.02530967230472739,"24":-0.002830500531986067,"25":0.14095537248894807,"26":-0.07548263898828543,"27":0.002753597151417956,"28":-0.045012668765234534,"29":-0.1326898477049833,"30":0.03629286890192962,"31":0.32569914684751183,"32":-0.033273894025799035,"33":0.40629539430782324,"34":0.10897150851560561,"35":0.38465799257848643,"36":0.14419029440837042,"37":0.17640029594168932,"38":0.15191793465635703,"39":-0.00039620518225216936,"40":0.19695776023665737,"41":0.003226268846160513,"42":-0.08512262073732867,"43":0.13000248610484297,"44":0.09554949803682157,"45":0.18711647393484357,"46":0.21383973282636504,"47":0.3239683196863295,"48":0.13135436925340155,"49":0.20396646645663846,"50":0.1987568090668516,"51":-0.113591945696403,"52":0.05554717701144231,"53":0.15564584645149973,"54":-0.044144235910173794,"55":-0.008371887528353184,"56":-0.13238295057528437,"57":0.08727815524396888,"58":0.1114857002443345,"59":0.14600066894321323,"60":-0.017778431066463943,"61":0.12690786505748353,"62":0.17227464375331608,"63":-0.18459006138556117,"64":0.11602356097139112,"65":0.08088358740004623,"66":-0.18160751064309186,"67":-0.060896596054757876,"68":-0.0777769703207364,"69":-0.23568792711191414,"70":-0.07088289537305201,"71":-0.05589218323963479,"72":0.047665463297526287,"73":0.15017533651727966,"74":-0.04841637628071297}},{"sx":5,"sy":5,"depth":3,"w":{"0":0.02184899407783609,"1":0.03278137230432338,"2":0.03413024019785496,"3":-0.07431492643520504,"4":-0.3221497741522283,"5":0.13366815734545534,"6":-0.16744125492201514,"7":-0.1774730823467157,"8":-0.21978438530304226,"9":-0.036246359092474235,"10":0.11411648476234096,"11":-0.2650244887586717,"12":-0.0700484775434452,"13":-0.08075572369699094,"14":0.14940528101902406,"15":0.04108815514593933,"16":0.004212301598278499,"17":-0.236197132933974,"18":-0.08553039075060827,"19":0.26225803765258404,"20":-0.05167152877479574,"21":0.25345958380204486,"22":0.10218139508737233,"23":-0.031084764971689764,"24":0.023966546317355886,"25":0.14669017574162385,"26":-0.01792748843007087,"27":-0.05941146635410812,"28":0.05834217586014959,"29":0.013503507507203388,"30":-0.012603651158944568,"31":-0.061313058648299425,"32":0.020075698764666045,"33":-0.07065279295530921,"34":-0.20946555340839332,"35":0.047230866618927815,"36":0.13085733446997577,"37":0.05505252640921228,"38":-0.09750895035310916,"39":0.27836489152501004,"40":0.261756693177816,"41":0.054691267907549926,"42":0.14849321246057506,"43":-0.07013479480671586,"44":0.09336389471490429,"45":-0.26792971920370384,"46":0.10459938563787112,"47":-0.066223015361241,"48":-0.0534092344063819,"49":0.09481180511743707,"50":0.11610684144816824,"51":-0.024992140250167844,"52":0.00712006013544882,"53":0.054773849025119926,"54":0.03795216281595347,"55":-0.052958667734378406,"56":0.16378963254534568,"57":0.16011712447988635,"58":0.013403017534679757,"59":0.15096429748389256,"60":-0.08138396519724377,"61":0.07204222229032996,"62":0.12733781767111235,"63":0.09405545984151653,"64":-0.1772956217157677,"65":-0.1640401929861331,"66":0.03657439486005161,"67":0.09304480328402402,"68":0.15754021505547858,"69":-0.011312787428013015,"70":0.17217003117121885,"71":0.07692228682427253,"72":0.12331657250496705,"73":-0.09629327469039277,"74":0.05108570635316374}},{"sx":5,"sy":5,"depth":3,"w":{"0":0.07264513949806238,"1":0.07105639502463842,"2":-0.01321194339354503,"3":0.15481255641159083,"4":-0.08059441703752389,"5":-0.026537511577186892,"6":-0.1506857476325249,"7":-0.11444505102797517,"8":-0.13213807964078525,"9":-0.05998325997853149,"10":0.023579509734360106,"11":-0.11204163164212472,"12":-0.22218408196672831,"13":-0.1796375427976211,"14":-0.13745570666814022,"15":0.1325958678493966,"16":-0.0663716780627928,"17":-0.1783448996991235,"18":-0.051900477956433384,"19":0.22075558477836102,"20":-0.21750849842075645,"21":0.1284096826294371,"22":0.04291562205588677,"23":-0.10396325752890462,"24":0.11223749317030521,"25":-0.07281727948458434,"26":-0.1800675227323671,"27":0.08013223218150509,"28":-0.04482260980960004,"29":0.1032971431437326,"30":-0.042168311725030765,"31":0.1242625626007686,"32":-0.03911238692483387,"33":0.017573523900229673,"34":0.0034691200377006248,"35":0.013644786034268839,"36":0.12089181926028673,"37":-0.15110141820370349,"38":0.160048096804177,"39":0.03418029237208892,"40":0.08870824677388209,"41":-0.028580649875569707,"42":0.21966183194573588,"43":0.008283348701867213,"44":0.09065055219955598,"45":-0.008854763504127103,"46":0.09005671256015292,"47":-0.034052276458045164,"48":-0.09341780578461437,"49":-0.02886074126936069,"50":0.1663396425173934,"51":-0.06666245775899418,"52":-0.045979748208202255,"53":-0.019526838146384982,"54":0.19422283121062853,"55":0.10975663174391173,"56":0.15941145789710415,"57":0.0538253070233027,"58":-0.09750393570440964,"59":0.07130518926024196,"60":0.047605007905531516,"61":-0.04693147400797497,"62":-0.05278153045056163,"63":0.0013781034207367114,"64":-0.05897303913096894,"65":0.08938545738268545,"66":0.24057649676259157,"67":0.08302356757947543,"68":0.011188246641182809,"69":0.08776125915315407,"70":-0.14641397685174365,"71":-0.1125809341219422,"72":0.09037388952655798,"73":0.07856430221936903,"74":-0.09335052289745477}},{"sx":5,"sy":5,"depth":3,"w":{"0":0.07264415334148835,"1":0.02866991979443183,"2":0.045054892402545996,"3":-0.0720255666225146,"4":0.026123844122286157,"5":-0.02894741890162445,"6":0.24668155902004213,"7":-0.106677645055579,"8":-0.023834002331533235,"9":0.1592059847947753,"10":0.03533843725121203,"11":-0.10718909846226075,"12":-0.11254807221421366,"13":0.020922745570577828,"14":0.27844764963472096,"15":-0.05546492893972527,"16":0.07193341298599615,"17":-0.08095261865322795,"18":0.05198875917125051,"19":-0.053179022690545016,"20":0.07975488857830211,"21":0.09966341886449448,"22":0.010891248948751216,"23":0.054626802996923636,"24":0.04648319744622716,"25":0.11070344322619544,"26":0.2732998197847135,"27":0.22364896156400205,"28":0.003236640549861003,"29":0.04967065765240511,"30":0.08775518208113951,"31":0.08577131833129759,"32":-0.11157422884944705,"33":-0.03061969273355985,"34":0.06858695607082706,"35":0.057089142188383214,"36":0.22553848087401368,"37":0.01531696172484714,"38":-0.06717948673732954,"39":0.24299826362072005,"40":0.10265764130609323,"41":0.17573972462116866,"42":0.07171470844713819,"43":-0.054052331441667545,"44":0.07040224893911297,"45":-0.14227924589107865,"46":-0.06194066518445781,"47":0.12265474582425828,"48":-0.0493152639258328,"49":-0.07574235135859027,"50":0.09821205128875335,"51":-0.09487262866899793,"52":0.08934874280640735,"53":-0.083726836561098,"54":0.008704203544250505,"55":0.1421080280954909,"56":-0.010511875006912096,"57":0.09691597277650146,"58":0.04861013596303551,"59":0.0297293048459153,"60":-0.20716622125230458,"61":-0.07149979167382282,"62":-0.08653161383756247,"63":-0.11717371192268174,"64":0.002589131909069238,"65":-0.01333665795244376,"66":-0.0016151863813260367,"67":0.08518045129166125,"68":-0.0457833030526087,"69":0.07030075946458936,"70":0.12164148457115001,"71":0.03982779903391194,"72":0.04560249448748659,"73":0.05898465264860868,"74":-0.08676430797943285}},{"sx":5,"sy":5,"depth":3,"w":{"0":-0.049329271967562205,"1":-0.09445903827550861,"2":-0.12084480817902277,"3":-0.18183106158692888,"4":0.0590188032068049,"5":-0.09700641444124788,"6":-0.03518271706093219,"7":-0.028645872522889484,"8":0.04429705858607509,"9":0.22209715827524865,"10":0.3029983525167118,"11":0.24797689142809404,"12":-0.08275255145654246,"13":-0.012934310650049399,"14":0.147131448083023,"15":-0.17501980804319625,"16":-0.11052008544792494,"17":0.12245775867899233,"18":-0.15263872281792837,"19":-0.1869282844291485,"20":-0.09917000535801092,"21":0.13590777713730703,"22":-0.0912388014367301,"23":-0.3810460708813784,"24":-0.07813118141590553,"25":0.03183153946275658,"26":0.0010802902625655195,"27":0.006176939648729205,"28":0.047659640632357406,"29":0.10440852228838875,"30":0.07544092462167572,"31":0.0787266560013868,"32":0.020552191182746253,"33":-0.020929733857137284,"34":-0.06592214735882745,"35":-0.04660204991315894,"36":-0.18536810771796508,"37":-0.17626385396796793,"38":-0.14651294756719294,"39":-0.12494641338844369,"40":-0.2639057904660195,"41":-0.16343175715002742,"42":0.19498566544876808,"43":0.22775871915353177,"44":0.04734471795058026,"45":0.17669072375200406,"46":0.11016862131692118,"47":0.008840550075040945,"48":0.18567751943087715,"49":0.13529564004285374,"50":0.28888712597556454,"51":0.13339562969313803,"52":0.027744316637453515,"53":0.20804389171776588,"54":-0.014848763990177656,"55":-0.27130041170814506,"56":-0.10422906049586723,"57":-0.0570465333137967,"58":0.06443387020398066,"59":-0.3798397005032148,"60":0.09210646078440514,"61":-0.02481991858062401,"62":-0.08915575354398067,"63":-0.02883675555666647,"64":0.01875016500561689,"65":0.0020609814583852928,"66":0.1780115185457487,"67":-0.003975884360255116,"68":0.1810081421369806,"69":-0.05725523162950663,"70":0.061118080498002623,"71":0.031966069738990785,"72":-0.19646943381620374,"73":-0.05056512720604281,"74":-0.15376145116691556}},{"sx":5,"sy":5,"depth":3,"w":{"0":-0.24568918676898427,"1":-0.017425921803029248,"2":-0.15539008620311462,"3":0.17499346444468322,"4":0.019695013208509637,"5":0.24216047580992406,"6":0.30042490066647887,"7":0.10399232730797477,"8":0.12203004480908589,"9":0.03880701719145811,"10":0.010543584941024796,"11":0.18683259761514395,"12":0.1495863204382602,"13":-0.01846510686634164,"14":-0.027165876592927136,"15":-0.1343940621601062,"16":-0.24067192951791444,"17":-0.03877316274212286,"18":0.026418578539522012,"19":0.2342813006097942,"20":0.08193755862992601,"21":-0.11096229111921645,"22":0.2616083355516598,"23":0.290388318371498,"24":0.21063961861802658,"25":0.004446907933925204,"26":0.06656881679411186,"27":-0.0185845295447743,"28":0.025434350050832475,"29":-0.06307916955534432,"30":-0.13606745635003117,"31":-0.02417262147904683,"32":-0.21200407951361824,"33":0.11645084402459525,"34":0.03514835548755032,"35":0.059617904792378495,"36":0.16720410165913346,"37":0.06311509356379061,"38":0.006656850835369442,"39":-0.07525679692126992,"40":-0.2241712459457723,"41":-0.08026449487527056,"42":-0.10342608288927271,"43":-0.09023267250705354,"44":-0.10637301176819096,"45":-0.0486272391087996,"46":-0.28010375183914454,"47":0.13418145177176535,"48":-0.1901768421674905,"49":0.03811009065502103,"50":0.004431130401878182,"51":-0.025095586046813896,"52":-0.3322786223098149,"53":0.04100232259148458,"54":-0.007146691216835009,"55":0.1421066074932218,"56":0.2863340814430582,"57":-0.0589731292186242,"58":-0.012804239490129129,"59":0.07889861689832998,"60":0.0003697840268376879,"61":0.0647863129336727,"62":0.06308735291498321,"63":-0.08686436942658614,"64":0.018366236364686556,"65":-0.21201506972245615,"66":-0.06872802277662463,"67":-0.07082600583775947,"68":-0.2499323371212221,"69":0.10776961269190649,"70":-0.21808177674667267,"71":-0.30586149156403913,"72":0.0942080378905019,"73":0.3037599409576986,"74":0.05761151058478853}},{"sx":5,"sy":5,"depth":3,"w":{"0":-0.18994334169705687,"1":-0.13637451953826335,"2":-0.110377327172298,"3":-0.13465593439806742,"4":-0.03922421162485205,"5":-0.18474923498735993,"6":0.1461839192741636,"7":-0.11328823732910905,"8":-0.2576181605623818,"9":-0.05417552254543271,"10":-0.26655258437109763,"11":-0.050921533734079504,"12":0.03720316874127876,"13":0.09575253542288505,"14":-0.018186961172482367,"15":-0.10676280158212276,"16":0.06959698925464802,"17":-0.20252019756395354,"18":0.005926559137743884,"19":-0.033344689794771946,"20":-0.12415088028558371,"21":0.08995053732332822,"22":0.17764527787777804,"23":0.0230900428798305,"24":-0.29250701837679194,"25":-0.009948361709259872,"26":-0.20236312538958254,"27":0.0384201682043277,"28":0.0066460892925661414,"29":-0.10169267964095388,"30":-0.007238159178282061,"31":0.1317245934643837,"32":0.07269111853853367,"33":-0.13664440897723984,"34":-0.005620094526538317,"35":-0.019431303141157676,"36":-0.12113692635620567,"37":0.016419327179187655,"38":-0.20569410585965514,"39":-0.013061171476962714,"40":-0.3198035308687903,"41":-0.06257039811966449,"42":0.152245574383973,"43":0.000745820446565037,"44":0.08865243935937253,"45":0.27672253243103934,"46":0.19912454248577308,"47":0.08827869246100051,"48":0.18362376331306843,"49":0.1689540461950135,"50":0.13233006494021693,"51":0.07183327535185512,"52":0.20404552371999413,"53":0.0889603362790218,"54":-0.05396388526175954,"55":-0.25266808356816095,"56":-0.20904786112029206,"57":-0.13631103908818915,"58":-0.06687405256648159,"59":-0.18444839016692233,"60":0.10114971986465704,"61":-0.17003461834829575,"62":0.028016120721732905,"63":0.14714202023848308,"64":-0.05628305508866972,"65":-0.0002794652259926767,"66":0.388013333200508,"67":-0.00677622360527551,"68":-0.0670709311701544,"69":0.16709386278914595,"70":-0.023344375309845598,"71":-0.0342762187563342,"72":0.015580580688565169,"73":0.07908430130929262,"74":-0.05967546366222301}},{"sx":5,"sy":5,"depth":3,"w":{"0":0.09873516093642136,"1":-0.14002568012696082,"2":-0.07269493896629833,"3":0.039262266054055694,"4":-0.006784946405657473,"5":-0.3125075713552887,"6":0.06310945939010262,"7":-0.007501893138044522,"8":0.07627597694162097,"9":0.2472901709765687,"10":0.03641482468083801,"11":-0.037901889602087936,"12":0.054177980969381354,"13":0.16580292965503438,"14":0.0029086317019533553,"15":0.1317366307879704,"16":0.03498712936542512,"17":0.08076187812983372,"18":0.019931842497780305,"19":0.04452836088697067,"20":-0.007042654461054257,"21":0.06477094526804872,"22":0.19019181043647462,"23":-0.03199179283057176,"24":0.1916453894560492,"25":0.10721093783443926,"26":0.2157152025997774,"27":0.20419858695742277,"28":0.116672771676261,"29":0.1922316473042866,"30":0.02565256590388393,"31":-0.12336000754671339,"32":-0.0033065034764778655,"33":0.15684680579042679,"34":-0.15668266723959237,"35":0.06782267621705523,"36":-0.0031557011461851073,"37":0.026900238097162233,"38":0.0478832274855689,"39":0.24147316563049473,"40":0.06779689140012861,"41":0.006932265683876554,"42":0.16585539485357376,"43":0.18501928385109512,"44":0.0454538127123436,"45":-0.2211219522479935,"46":-0.0874208634862662,"47":0.02196490032968552,"48":-0.02089608362684924,"49":-0.012164203557366663,"50":-0.1543194181279577,"51":-0.052437235169397606,"52":0.04767336449444796,"53":-0.011034228090113299,"54":0.035175287649273176,"55":-0.0029572887811290948,"56":-0.04775518653088951,"57":-0.13767900979487915,"58":-0.017575677416537705,"59":0.01444822200410239,"60":0.18799732230732694,"61":0.11302466334068054,"62":-0.06256683965453197,"63":0.019194575509954015,"64":-0.05645709765866758,"65":-0.2560944953130678,"66":0.07338395202160083,"67":-0.11859300201078002,"68":0.010779358397315064,"69":0.040568403588008776,"70":0.15175016722588683,"71":-0.10769365480472665,"72":-0.029965208563893956,"73":0.14591930621626198,"74":-0.24243197022606855}},{"sx":5,"sy":5,"depth":3,"w":{"0":0.09758809097977535,"1":-0.027748729505604447,"2":-0.08276644642702201,"3":0.028508553090181903,"4":0.10716385796214369,"5":0.09759162718307797,"6":-0.1761493876308706,"7":0.12834602070694023,"8":-0.0019254219815991807,"9":-0.19877935449623996,"10":-0.04473464152563044,"11":0.11595004316914818,"12":0.036330987579480584,"13":0.04720566792094445,"14":0.09418950709953743,"15":0.0939727854645238,"16":0.17988345628989896,"17":-0.16349786856734858,"18":0.1621524814357061,"19":0.047064895551357754,"20":0.051916748968411607,"21":0.3221674765971036,"22":0.3487395424393867,"23":0.19589194132609958,"24":0.21747147027499372,"25":0.15554083580050856,"26":0.17219203134311725,"27":-0.0452868589214113,"28":-0.08383965771885604,"29":-0.02249708221050597,"30":0.014527993957209301,"31":-0.03697357772265227,"32":-0.04562040741256297,"33":-0.2015301264063976,"34":-0.06400158282103424,"35":0.11690886909808891,"36":0.06006259563174081,"37":0.007644305670538452,"38":0.09828015805733109,"39":0.013519843882081614,"40":-0.14884024763949438,"41":0.028746479451602948,"42":-0.32488866439572184,"43":-0.2513812009046231,"44":-0.5281202098650698,"45":-0.03170866539768493,"46":0.028990795890320734,"47":0.09441431666962724,"48":-0.19969895526658316,"49":-0.015997279284203407,"50":-0.04210164064027419,"51":-0.009146660383546237,"52":-0.1201394100419864,"53":-0.1937521420712186,"54":-0.043591047554128466,"55":-0.20557366557482343,"56":-0.029353809591593397,"57":-0.30894013203506965,"58":-0.29952923855038804,"59":-0.33832625034209385,"60":-0.0523999167786927,"61":-0.02184226906714144,"62":-0.15384565002545314,"63":0.06736099218302355,"64":0.009062941676048169,"65":-0.14370780577051442,"66":0.17993350837675554,"67":0.18445485223763214,"68":0.2751927120239231,"69":0.21935403168335108,"70":-0.1497609451831791,"71":0.009344138358726242,"72":-0.018631093442359775,"73":-0.02393923700412191,"74":-0.10919419410482173}},{"sx":5,"sy":5,"depth":3,"w":{"0":-0.003379768932279576,"1":-0.037486674852331564,"2":0.18243408067312497,"3":0.09115943342039724,"4":0.028423960574084826,"5":0.06973062266361943,"6":-0.17507608967700838,"7":-0.1422983618898537,"8":-0.16551745063601897,"9":0.012330288795113498,"10":0.05456182655549785,"11":-0.21218093834276006,"12":-0.006222385445143588,"13":0.06743346719092436,"14":0.0594657924564117,"15":0.1578483598478556,"16":0.24916790609811146,"17":0.1615151741965623,"18":0.07800063289208026,"19":-0.13633903860870042,"20":0.021347893741218524,"21":-0.012468138407965478,"22":-0.216182818115053,"23":-0.027392828414500543,"24":0.1900577981849979,"25":-0.00622942203895984,"26":-0.006231620844046452,"27":-0.06179390917917993,"28":-0.04393825112387467,"29":0.0701646209513791,"30":-0.11861529812035469,"31":-0.14161709897040484,"32":-0.09492166435624347,"33":-0.21646190736793197,"34":-0.021821445510669047,"35":-0.006355029170677006,"36":-0.35637388006736,"37":-0.24083987039353186,"38":-0.2270858129797849,"39":-0.03828631837740564,"40":-0.028691882855951353,"41":-0.08975501499227408,"42":-0.20196045304364,"43":0.014849221791423832,"44":-0.08076254647871844,"45":0.14998524286960166,"46":0.07921435057911076,"47":0.02904108059818209,"48":0.2898912500695137,"49":0.04074965927308495,"50":-0.018224469348080943,"51":-0.16808681136229864,"52":-0.11212644948433943,"53":0.11825808011709324,"54":0.014658281420653384,"55":-0.16342546361733362,"56":0.017396926299610843,"57":0.15892997106553117,"58":-0.057906433917840824,"59":-0.05794148267982441,"60":0.0973347029048381,"61":0.12478885007336793,"62":0.2178617008623648,"63":0.05237127263277046,"64":0.035397611508009394,"65":-0.3125868026096553,"66":-0.13343590376199385,"67":0.1281908034650262,"68":-0.2222651467646218,"69":0.1345986683245865,"70":-0.051773101006902154,"71":0.1815146826003452,"72":0.1871833544800898,"73":0.0542957523154358,"74":-0.04863684782560579}},{"sx":5,"sy":5,"depth":3,"w":{"0":-0.11163408889149613,"1":-0.2717850053825671,"2":-0.1930436957765743,"3":-0.2342748236371696,"4":0.09612605352385259,"5":-0.2096216459592754,"6":0.21297757274286835,"7":0.11435111827129417,"8":0.15359772813222106,"9":0.33154473720213506,"10":0.15514680732144565,"11":0.18056661771010715,"12":-0.002981419069321492,"13":0.20578380915730718,"14":-0.036575163104166176,"15":-0.132468493113315,"16":-0.1899447037047627,"17":-0.15241859941907004,"18":0.09269310730562803,"19":-0.08680952968556406,"20":-0.06677077523437684,"21":0.12270041054496489,"22":0.27193440724589235,"23":0.3794566776114193,"24":0.25611022732675864,"25":0.14569205096654855,"26":0.2962430907430813,"27":0.3798477737985725,"28":0.17799143320060723,"29":0.31044766092098175,"30":-0.018489386041971864,"31":-0.09379804200071747,"32":-0.16292822802179857,"33":-0.04428898944492914,"34":-0.13210677608637184,"35":0.12488541559839843,"36":0.3291037358366399,"37":0.2998032730046498,"38":0.15193843336920707,"39":0.07238313556691327,"40":0.44497911411906943,"41":0.249822329268185,"42":0.24095161936135678,"43":0.09872031767568851,"44":0.27592122563487015,"45":-0.21239679892574306,"46":-0.31264681299274244,"47":0.09745655576802983,"48":0.040793154655345144,"49":-0.20033155514048231,"50":-0.18366527012541173,"51":0.0016429902396200631,"52":0.08775191002443579,"53":0.020702096950650655,"54":0.08669876558485792,"55":-0.0032470237312738673,"56":0.14732353706971626,"57":0.17201368839852743,"58":-0.08875057316122499,"59":0.10594483521465395,"60":-0.03486688710583292,"61":-0.22966157580359603,"62":-0.045584176361408234,"63":-0.12868228742831583,"64":-0.19587711968477972,"65":-0.2685799605298665,"66":-0.14885307608976103,"67":-0.3163605789905712,"68":-0.205782246048964,"69":-0.12951951063378647,"70":-0.1843480902884065,"71":-0.05625415429454687,"72":0.06418800276265446,"73":0.013146555034651055,"74":-0.26644394084324957}},{"sx":5,"sy":5,"depth":3,"w":{"0":0.0058942109604693,"1":-0.09983600425341675,"2":-0.09472919720502081,"3":0.2250620639073704,"4":0.12309229355056128,"5":0.04381534087984946,"6":0.14547662548697513,"7":0.06838323492873725,"8":0.2606333809709346,"9":0.18304495147125266,"10":-0.08821336624283252,"11":0.06622863127021203,"12":0.1299021804821214,"13":-0.05176785015213831,"14":-0.10576882281801389,"15":-0.08983185808644424,"16":0.0029624449857413517,"17":0.016109540129350855,"18":-0.027924477255132113,"19":0.19742500110190178,"20":-0.0820220627226581,"21":-0.2002918364199059,"22":-0.06489819821898614,"23":-0.306358837138373,"24":-0.21406097661505974,"25":-0.07890998471034799,"26":-0.2086451819762365,"27":-0.05670916974025941,"28":-0.030258709706872874,"29":-0.058198242011159744,"30":-0.18564520280136682,"31":0.06278808593723478,"32":0.07122479958805727,"33":-0.01246710450637899,"34":0.1127317439978326,"35":-0.00406958093099503,"36":-0.02763506646049586,"37":-0.1869185364057692,"38":0.13423772754986696,"39":-0.03465483301848249,"40":-0.1538203243873699,"41":-0.16214676940253542,"42":0.12840087883924176,"43":0.0431577342881813,"44":-0.04213065703949608,"45":0.0417778051111746,"46":0.053518559505774284,"47":0.15654304610802058,"48":-0.3148302973379152,"49":-0.030448516019247387,"50":-0.2249596329400349,"51":-0.07423950799280359,"52":-0.11862200248322355,"53":-0.1663804924832039,"54":0.12135232149162578,"55":0.06396713760843746,"56":0.021798489200576344,"57":0.09300235417054674,"58":0.11961019971007383,"59":0.07413103814351782,"60":-0.21183347132744812,"61":0.15330010873685238,"62":0.12540882711611034,"63":-0.007929783049291681,"64":0.12565227157304792,"65":-0.3278291407784972,"66":0.07599857955595589,"67":-0.09172140981976631,"68":-0.006906718405959236,"69":-0.03696769366335931,"70":-0.08577320951815552,"71":-0.05608618849925432,"72":0.1604216362293208,"73":-0.01758515770594593,"74":-0.006260942240321244}},{"sx":5,"sy":5,"depth":3,"w":{"0":0.07463309067523521,"1":-0.12223159886844309,"2":0.29844629099983283,"3":0.029594027584035437,"4":0.005698010088777371,"5":0.029728685117880137,"6":0.07625923053416941,"7":0.1045967952585366,"8":0.08749403592361737,"9":-0.030527282421417397,"10":0.04404509440081862,"11":-0.06647616653069728,"12":-0.06479528900277658,"13":-0.15013135515548298,"14":0.0997260401348345,"15":0.17689312413441452,"16":0.18152115732060276,"17":0.208715797893811,"18":0.2646050612108652,"19":0.060902103468495075,"20":0.149886012291123,"21":0.18850185178261844,"22":-0.19236679742997603,"23":-0.00717842738236704,"24":-0.18619960679921507,"25":-0.12634782690634072,"26":-0.2626826161150636,"27":-0.2765797734268183,"28":-0.18337458180288374,"29":-0.07287764112098555,"30":0.0658327401295547,"31":0.061773070450471,"32":0.21262123584876508,"33":-0.04882686095572293,"34":0.041110659653853944,"35":0.020864302265247246,"36":-0.2409078921604267,"37":-0.078173855245353,"38":-0.07343227660820599,"39":-0.05128326209667627,"40":-0.11763879292176202,"41":0.04756999021237535,"42":-0.01281319897293645,"43":0.0920792804964034,"44":0.11383257324353264,"45":-0.0653517079123367,"46":0.14203966875757243,"47":0.2335152821783047,"48":-0.1509149982953318,"49":-0.07061950538972749,"50":-0.14181442590422863,"51":-0.15816433772863053,"52":-0.1950130944241715,"53":-0.21570833486495797,"54":-0.04798700231662314,"55":-0.19633283124368406,"56":0.10113179461370396,"57":-0.144035209090386,"58":-0.0536053728835965,"59":0.10186622580398007,"60":-0.02079613646293443,"61":0.03410410957286203,"62":0.06045176516037675,"63":-0.15730835276482732,"64":-0.15690887119881508,"65":-0.07073812789240345,"66":-0.01853082975581922,"67":-0.16452902894533075,"68":0.19325140850731004,"69":0.09519334731824794,"70":0.23661137973255977,"71":-0.055531331563217476,"72":-0.06708031743101213,"73":0.1609726909427915,"74":0.03318753137219397}},{"sx":5,"sy":5,"depth":3,"w":{"0":0.015126907889120142,"1":0.23061876565336958,"2":-0.16248390971313176,"3":-0.14687770648394305,"4":-0.17267388209361703,"5":-0.04033255935324557,"6":-0.031140892354180934,"7":-0.04364685586898976,"8":0.15775412018975218,"9":-0.18717447111357424,"10":-0.06851799952592669,"11":-0.16063955730761914,"12":0.10969068195038167,"13":-0.24710790209833275,"14":-0.0691047428847628,"15":0.014453305967758486,"16":0.006024131530166168,"17":-0.19401322880661864,"18":0.029347377048650498,"19":-0.13818610530965722,"20":0.024964095753170507,"21":-0.13278634555449126,"22":-0.0677976323053864,"23":-0.06676289668886518,"24":0.015391516555310222,"25":0.011472071254080174,"26":0.03285524727734266,"27":-0.014869174300285325,"28":0.027405610296323327,"29":0.07735491719589474,"30":0.1144806094305736,"31":0.020345961638049817,"32":0.018000022331346018,"33":-0.10740777082028909,"34":-0.15182068428860254,"35":0.021812581346313233,"36":-0.025521357710110285,"37":-0.1008582858276285,"38":-0.028398582277091817,"39":-0.05182120637300041,"40":0.15987789814808956,"41":0.14663986495394674,"42":-0.14697169569766877,"43":0.005314261161018519,"44":-0.08542356832971569,"45":0.017560914726815643,"46":-0.1872618525595147,"47":-0.0518944776140361,"48":-0.24353137063491698,"49":0.17051940848690048,"50":-0.1334302771650811,"51":0.009655918725327294,"52":-0.007189554018504947,"53":0.05000399736982918,"54":-0.0331221773360843,"55":-0.06677003290686809,"56":0.11037604660528391,"57":0.301084245517064,"58":0.0451632019671242,"59":0.031242210681830276,"60":-0.04434544686898518,"61":0.15065184723232358,"62":0.028120711671782074,"63":0.26815608582651695,"64":-0.0055416457986933705,"65":-0.022042094657617507,"66":0.02696487865946946,"67":0.05157781220062248,"68":0.14126505416836568,"69":-0.06918208659775218,"70":0.08257591649090515,"71":-0.06907031286177101,"72":-0.0292600479371274,"73":0.01241768674942861,"74":-0.07213846331772628}},{"sx":5,"sy":5,"depth":3,"w":{"0":-0.08726111721127258,"1":0.10500743543432453,"2":0.23750957600318473,"3":0.052713153321263244,"4":-0.04956449615136823,"5":0.0628179606030095,"6":-0.059492826177213125,"7":-0.12905308227023427,"8":0.07213969197968709,"9":-0.0633249263913945,"10":-0.1317498664502776,"11":-0.2851269378170536,"12":-0.01977823310964861,"13":-0.16077217416503148,"14":-0.00816098049197445,"15":-0.20088551384587142,"16":-0.12251819729038214,"17":0.02913168199126551,"18":0.20611591330224982,"19":0.1864279643268267,"20":0.022425084960312546,"21":0.20703718092512402,"22":-0.033945138747463355,"23":0.0013973124488200713,"24":-0.06340823603378369,"25":-0.012284651786915346,"26":-0.26171047226055544,"27":0.14525495343383704,"28":0.1761880787601016,"29":-0.19961501313015595,"30":0.010979885239982466,"31":-0.05864130932824744,"32":0.054882659523191456,"33":0.06964553850245724,"34":0.10814737608596142,"35":-0.0032097038847511126,"36":-0.2390904981755141,"37":-0.011095920626474064,"38":-0.013029549920268509,"39":-0.0771981837613651,"40":0.18535984103853967,"41":0.0748028060936391,"42":0.006420518938559364,"43":0.06040536870492384,"44":0.01669923764070153,"45":0.18164521155304997,"46":0.11223728922644131,"47":-0.202380985772435,"48":0.07582614973890114,"49":-0.01554210595361027,"50":0.02601443391629655,"51":-0.18376438622877714,"52":-0.18335064234373755,"53":-0.19535859608503858,"54":0.1315409801742054,"55":-0.0912691743213577,"56":-0.07004162975243906,"57":0.11143753904249157,"58":0.08528229894380265,"59":-0.0020326988263027744,"60":0.07771266581549574,"61":-0.007733217326869871,"62":-0.07133211713776345,"63":-0.002192092340326958,"64":-0.09004364328198983,"65":-0.08826391052099919,"66":0.007009950920792335,"67":-0.03182845656987853,"68":-0.03398636998809969,"69":0.09904158394729208,"70":0.17377513276937837,"71":0.0247234594185979,"72":-0.005170385740126049,"73":0.1195987793073166,"74":0.16424421641592862}},{"sx":5,"sy":5,"depth":3,"w":{"0":0.03666491678236649,"1":-0.02146709927461345,"2":0.15648401601666145,"3":-0.028217984709514275,"4":0.07052174946927736,"5":-0.23036377404082087,"6":0.3256010507368387,"7":0.2968440220594693,"8":0.07696847280471725,"9":-0.11907223686508972,"10":-0.1701616800059442,"11":0.08848354208132614,"12":0.10224756176136135,"13":0.11913364657037678,"14":-0.004630068346801197,"15":-0.05296809093144325,"16":0.00001041858167774519,"17":0.3886776808898377,"18":0.09181546971698477,"19":-0.11591626879744926,"20":0.15262993738689917,"21":-0.08046646786726967,"22":0.17208288001074656,"23":0.053315098519805,"24":0.20319922601638896,"25":0.09990125447749233,"26":0.03525841358017766,"27":-0.011645238830102597,"28":-0.014305484197853238,"29":0.057982148935304824,"30":-0.09009986918420503,"31":-0.10388358459614151,"32":-0.005239859005143506,"33":0.1325816500538129,"34":-0.04367519684676111,"35":0.08452870537531139,"36":0.04232954870599438,"37":0.00019585952568470803,"38":-0.023122427452414634,"39":0.06833229872829347,"40":-0.014842001783182245,"41":-0.07659213155146302,"42":-0.008744779862183446,"43":-0.06586678265892419,"44":0.08406530643745723,"45":0.11275464977161287,"46":-0.1176320775088233,"47":-0.07621826106333718,"48":-0.1987266073255282,"49":-0.27995575174041487,"50":-0.15587865733507666,"51":-0.12663616975306358,"52":-0.14243835526420448,"53":-0.032415141500386886,"54":-0.18951327234226514,"55":-0.06867669777466541,"56":-0.13995400511701866,"57":-0.06012676744035408,"58":-0.206433703521188,"59":-0.10080062573416654,"60":-0.1142972119107264,"61":-0.17040039821932182,"62":-0.11985858577978124,"63":-0.0487695797294065,"64":-0.2934218711293694,"65":-0.29510019542687504,"66":0.10193404053660537,"67":-0.08807961071588545,"68":0.17625419184860763,"69":0.01828160398011756,"70":0.1567898843372268,"71":0.0376862815536973,"72":0.22496008897365297,"73":-0.04284407487354385,"74":0.23845658147268603}}],"biases":{"sx":1,"sy":1,"depth":20,"w":{"0":0.11928063399734389,"1":0.1799179886164357,"2":0.24073469276239756,"3":0.15412938472121354,"4":0.46779023672084824,"5":-0.2481447189984723,"6":-0.023125011627663467,"7":-0.4177594124891418,"8":0.48546343522305524,"9":-0.010727025752764302,"10":0.6439531545635026,"11":-0.40990121197129337,"12":0.4096183312259181,"13":0.4314394734989221,"14":-0.31592268613283103,"15":0.4987642901046569,"16":0.19708789751703773,"17":0.45521911623721845,"18":0.14163163626565264,"19":0.15933831093640893}}},{"out_depth":20,"out_sx":32,"out_sy":32,"layer_type":"relu"},{"sx":2,"sy":2,"stride":2,"in_depth":20,"out_depth":20,"out_sx":16,"out_sy":16,"layer_type":"pool","pad":0},{"sx":5,"sy":5,"stride":1,"in_depth":20,"out_depth":24,"out_sx":16,"out_sy":16,"layer_type":"conv","l1_decay_mul":0,"l2_decay_mul":1,"pad":2,"filters":[{"sx":5,"sy":5,"depth":20,"w":{"0":-0.05029964280061784,"1":-0.028668896336416776,"2":-0.00015411789307102122,"3":0.0008808494441955582,"4":-0.015135891416485843,"5":-0.035933495454062665,"6":-0.014342792557029608,"7":-0.06060886505073315,"8":-0.0461019773974228,"9":-0.05996487402350927,"10":-0.026968755798278125,"11":0.018912983706145782,"12":0.014354222862140671,"13":-0.03353873990286566,"14":-0.10213492019764649,"15":-0.06799051700762784,"16":-0.03555785968202672,"17":0.04369778338931931,"18":-0.05669427715808395,"19":0.030190755584748843,"20":-0.05292164241341907,"21":-0.03896510347938422,"22":-0.02368958707457492,"23":-0.01023676572647842,"24":-0.002393939642094431,"25":-0.06090383623592384,"26":-0.008941083289757559,"27":0.0026922668476451394,"28":0.021594357501010315,"29":-0.01188228467902092,"30":0.0033494806599559607,"31":-0.028192819786422896,"32":-0.019659720800527476,"33":0.052172447577174264,"34":0.04165871843437005,"35":0.027482032793620204,"36":-0.07358719115390917,"37":0.07155388050396434,"38":0.039328111086292354,"39":-0.007726258802561608,"40":0.010734068009877262,"41":-0.08937941557555844,"42":-0.04644314448045171,"43":-0.015261381355725667,"44":0.052142005106164964,"45":-0.054253031879229016,"46":0.016400778762665862,"47":0.023824476692029615,"48":-0.013295809770681712,"49":0.007931969422445739,"50":-0.026980905074119835,"51":-0.015042294162864036,"52":0.040399774338416586,"53":0.009144330021808856,"54":-0.06624770659586511,"55":-0.023121996622148235,"56":0.0496007333921965,"57":-0.040236715403623384,"58":-0.0023252815594593194,"59":-0.015547889634951855,"60":0.037335200351457,"61":-0.06700255624269079,"62":-0.08125505228581162,"63":-0.08287935973936617,"64":0.025141397847391896,"65":-0.12335891779098197,"66":-0.04040683996983295,"67":0.0004338307858200088,"68":0.06370333095990201,"69":-0.02056182815218485,"70":0.015839753831782412,"71":0.047107389204873826,"72":-0.034416045797284536,"73":0.060337000092081434,"74":-0.016753364514888208,"75":0.008285083766815304,"76":0.07206330259158437,"77":-0.06960645583121518,"78":-0.003973634035244798,"79":0.033881180310041246,"80":-0.061181838900153634,"81":-0.011766050775779142,"82":0.04883710428032986,"83":-0.06486005739064468,"84":-0.007228618207022919,"85":-0.005516351955557583,"86":0.022220656553366566,"87":0.001940611381678285,"88":-0.07799848449457308,"89":-0.004324341040518286,"90":0.07872767900509971,"91":0.04135437854555266,"92":0.02039131825243451,"93":0.003557557568393695,"94":-0.027704640536632158,"95":0.04841137741930826,"96":0.016873913148904865,"97":0.0009999182277413941,"98":-0.08432081339464151,"99":-0.023762365475424405,"100":0.004209662508064087,"101":0.011119436142992992,"102":-0.05974550238628137,"103":0.05019347527932757,"104":-0.019090067869446017,"105":-0.007005078245868779,"106":-0.004463339119827111,"107":0.06244095704471306,"108":0.04139033990689001,"109":0.0387457600716552,"110":0.012666031940656708,"111":-0.10541783787871077,"112":-0.0822090369308907,"113":-0.044193623636480384,"114":0.048246720015037346,"115":0.06520086264067916,"116":-0.05989215898486055,"117":0.011969166523894901,"118":-0.10849348379260136,"119":0.05456226158022132,"120":0.02562600438893921,"121":0.09079718708102373,"122":0.03896296907581228,"123":-0.043653415818549944,"124":0.020070321417635345,"125":-0.01653079696089667,"126":-0.01722534314649547,"127":0.042113716041063114,"128":0.009895138292854369,"129":-0.05533743067920996,"130":-0.04393254389842838,"131":-0.015416491938432178,"132":0.024396250789898197,"133":-0.009239628655424888,"134":0.000007324007974295433,"135":-0.03528536722348724,"136":0.025524098383403436,"137":0.04110620780555411,"138":0.1059518352448129,"139":-0.01652430560145659,"140":-0.035069395023073054,"141":0.08416212508129996,"142":0.04947676395126967,"143":-0.02940206068309453,"144":-0.05516460780695682,"145":-0.02297731457150824,"146":-0.017662287403713343,"147":-0.026241019037526403,"148":-0.008097296935729496,"149":0.017487461877172775,"150":-0.04411367114917146,"151":-0.036510587091052475,"152":0.0010482499721751759,"153":0.015076235371251565,"154":-0.07382609480452243,"155":-0.04854091091831136,"156":0.0024013115330867602,"157":0.038952044889209524,"158":-0.05339067069619969,"159":0.025618845370436356,"160":0.03703101152290372,"161":-0.07444134189065245,"162":-0.04854212309136685,"163":-0.05753440526316276,"164":-0.1020266100094428,"165":-0.05012634470209195,"166":0.02391815447095115,"167":0.028434473408462575,"168":-0.02074734452365351,"169":0.056714643137791676,"170":-0.10657046695066215,"171":-0.04719739816102017,"172":0.06990714190584424,"173":0.07721082907321702,"174":-0.04723994449590684,"175":-0.09865162227762601,"176":-0.10659854410348933,"177":-0.020375584421954203,"178":0.032840141734162276,"179":-0.05190698039917857,"180":0.023965863605965174,"181":-0.02107688770224225,"182":-0.0074320866126797985,"183":-0.02211700366760038,"184":-0.09898959024699434,"185":-0.042266872833172,"186":0.038703141046333774,"187":0.04910033104459561,"188":0.04103251496718765,"189":-0.02166090681229408,"190":0.0017944385821059285,"191":0.042575024792761366,"192":-0.027082761356864687,"193":0.0504700985128592,"194":-0.015281286491037544,"195":0.049824029246103775,"196":0.025839496044142252,"197":0.01275728001492132,"198":0.018508737664168412,"199":-0.06009423806638938,"200":-0.02452736612633236,"201":0.08352653641590586,"202":-0.0002433482714243562,"203":0.06593837908987651,"204":-0.018351617813268616,"205":-0.019687231223326312,"206":0.0019194297163897941,"207":-0.053651925093085556,"208":0.06006982476954265,"209":-0.04604898694065528,"210":-0.03849114328312901,"211":0.03795120417623173,"212":-0.015449229945966977,"213":-0.015685712789019014,"214":0.021361555710667092,"215":0.03694597608321529,"216":0.0034238595942613845,"217":-0.06504440972254377,"218":-0.04099609072899561,"219":0.07676349502521444,"220":0.05999240100736429,"221":-0.11797210154629699,"222":0.03104325830468988,"223":0.0031793343821188156,"224":0.020498140849886874,"225":-0.019073815068559104,"226":-0.025433606070911788,"227":0.0003210830586403606,"228":-0.006778146239668433,"229":-0.05615031571698184,"230":-0.008658091185531932,"231":-0.025329383824499355,"232":0.05473166701907119,"233":-0.036352931871399694,"234":-0.13321557082364022,"235":0.020003622701849983,"236":0.011103245017454615,"237":0.030249944158013135,"238":-0.000364838182542184,"239":-0.019839101340164172,"240":-0.02145457185904747,"241":-0.05811235742329517,"242":0.035891583103154906,"243":-0.00175785752718573,"244":0.06770872796280925,"245":0.002719404897015546,"246":-0.0033602342052830737,"247":-0.09568710834563099,"248":-0.006850080914933119,"249":-0.07050114787796856,"250":-0.013469502792313896,"251":0.032660698310536175,"252":-0.09396588705642986,"253":-0.012751484094019237,"254":-0.020248637194045172,"255":0.03194719353782835,"256":0.008568930727266078,"257":-0.03074153691759704,"258":0.009364345279919212,"259":-0.034735969960460696,"260":-0.04007878529121515,"261":0.0044395855572733674,"262":-0.013958851671525307,"263":-0.043881643601021744,"264":0.07381184531470818,"265":-0.10727310975281573,"266":0.06280819458133756,"267":-0.06940943465465063,"268":-0.06463088708426919,"269":-0.013020668583406309,"270":-0.01132021091104221,"271":0.03652022889218617,"272":-0.00013201270393226435,"273":0.011286934639229444,"274":0.004522366506161427,"275":0.038428293366092936,"276":0.05131079708348964,"277":0.07520767935468771,"278":0.04491252961203423,"279":-0.0824426313659947,"280":-0.052411574339375225,"281":0.0696248797363403,"282":-0.020065951937462762,"283":-0.03533571265510978,"284":-0.03452779915407959,"285":0.023787361659844637,"286":0.0637456917408569,"287":-0.008382448185725994,"288":-0.024075798946552242,"289":-0.023295959743247146,"290":0.0012237450896215474,"291":-0.05246320253661899,"292":0.01971778809451403,"293":0.026046580055237373,"294":0.033368484974719385,"295":-0.015614233375117473,"296":-0.028790857552696145,"297":-0.034302280131842264,"298":0.028292113058816907,"299":-0.022690849970587068,"300":-0.018872630221346706,"301":0.007169523572877147,"302":-0.0038664163493986234,"303":0.011003989140677822,"304":-0.045725643222561,"305":-0.023187359520106098,"306":0.05525569430214725,"307":-0.03001431468932069,"308":-0.021854405031903286,"309":0.08486197684958172,"310":-0.05119010750635622,"311":-0.06408376938229057,"312":-0.03960141946948876,"313":0.032689996974900846,"314":-0.08785198680722521,"315":0.02494899380524264,"316":-0.04268473912634894,"317":0.04091290122181852,"318":0.024315730965701342,"319":-0.007613924324503741,"320":-0.0962560363755996,"321":-0.036490245665213424,"322":0.02101313886685581,"323":0.011250123466625512,"324":-0.06022853948627047,"325":-0.05842895618295089,"326":-0.008710641435157271,"327":-0.005750446604833121,"328":0.002412263329104167,"329":0.005036608994897757,"330":0.025456567523472685,"331":0.00821965349306274,"332":-0.05408690712025721,"333":0.04340656771095582,"334":-0.0024844325765044917,"335":-0.05910791205450081,"336":-0.0024899897257165205,"337":-0.002447844846123292,"338":0.012918512610078217,"339":-0.04437519726033325,"340":0.00009346814536542687,"341":-0.0688471336346975,"342":0.073131721193053,"343":-0.011819795581459012,"344":-0.04068850664406158,"345":0.06904065218459332,"346":-0.10707129570897109,"347":-0.003253298559107075,"348":0.0031108761204141975,"349":0.04122935490921767,"350":-0.0024952103489215205,"351":0.008775171627203744,"352":0.04571720781935261,"353":0.05593311378441594,"354":0.01920722243790472,"355":-0.02754443051383524,"356":-0.00318826972889113,"357":0.010557340160176138,"358":-0.05203882774495566,"359":0.007384574125738664,"360":-0.00911604358095047,"361":-0.016640347232068673,"362":0.024002218437667595,"363":0.019027929940654168,"364":0.014605978227848976,"365":-0.029639101365230566,"366":-0.05140956383435575,"367":0.04376400539847223,"368":0.008046250690751888,"369":-0.009147529231835077,"370":0.015472297829017491,"371":-0.09972107042738879,"372":-0.017042749058042154,"373":-0.07082007566100844,"374":-0.05041390050542922,"375":-0.010507366774934194,"376":-0.014017750089371688,"377":0.016325121402884057,"378":-0.0006091231424591077,"379":-0.05347887629900658,"380":0.033401375640029235,"381":-0.06892047804720722,"382":-0.027773220135449105,"383":-0.04466635698834154,"384":-0.006827058917623498,"385":0.0218080349487584,"386":-0.05859197548575953,"387":-0.01387203556440191,"388":-0.0760480619462836,"389":-0.019515991731176373,"390":-0.040748096942520025,"391":-0.06374666550733055,"392":-0.02143263297891261,"393":-0.011645829453457766,"394":0.032591270669758275,"395":0.014866775030681463,"396":0.06216090530150959,"397":-0.0348803579198774,"398":-0.009033790754313167,"399":-0.004231551743111611,"400":0.03257487265414591,"401":-0.014758181094995694,"402":0.02490917485977708,"403":-0.040310361894240254,"404":0.026937326171171574,"405":0.02153159407454361,"406":-0.059928697265329185,"407":0.01488561585592966,"408":-0.005836728349803025,"409":-0.05607894482723728,"410":0.028785363432681864,"411":-0.02400557907309075,"412":0.04464850765895527,"413":-0.04861187094930396,"414":-0.00128652323137479,"415":-0.01632479861449591,"416":-0.03205896852544768,"417":0.0035648918306798202,"418":-0.11375286091844768,"419":0.023967768016629663,"420":0.009952484912647453,"421":-0.08689396888570916,"422":0.05031614905851704,"423":0.010506372521471298,"424":0.03106928271468371,"425":-0.0013803169071535711,"426":-0.09050694119437923,"427":-0.0017468665532241016,"428":0.016444179501868314,"429":-0.03455022118241252,"430":-0.012097044196671031,"431":0.04563811789670667,"432":-0.020290556582344837,"433":-0.0460506935377715,"434":0.027993788011479195,"435":0.010221271508672327,"436":0.013404648337644444,"437":-0.013431008539816129,"438":0.07057557458199126,"439":0.026067534905781776,"440":0.0631523723403099,"441":0.017376713246986565,"442":0.06161433010863988,"443":0.03716889200100144,"444":-0.06272763036511714,"445":0.04314314724948723,"446":-0.053314044399174546,"447":-0.008593570313403222,"448":0.028726274515924494,"449":0.04420640503648866,"450":0.08606718212429654,"451":-0.06275312407377821,"452":-0.05718126719959532,"453":0.0484421191951846,"454":-0.027724784814762524,"455":0.031206622713455097,"456":-0.040936877392443324,"457":-0.03253166223645825,"458":-0.09506931619736045,"459":0.01867191775726828,"460":0.029768154090713313,"461":-0.07599920831682153,"462":0.0174542774635108,"463":0.036362175751516373,"464":-0.06113492542354128,"465":-0.07174302095719576,"466":-0.061469405630979176,"467":0.11197242122960409,"468":-0.04273632619282909,"469":-0.07023693196340981,"470":0.01684434562925674,"471":-0.01513906932757873,"472":-0.020337341772248135,"473":-0.0024239499831660185,"474":-0.068821840386022,"475":-0.009360500713964732,"476":0.0009720542084179634,"477":-0.04676954676354108,"478":-0.036123253875419516,"479":-0.026367671793976855,"480":0.07727589268815666,"481":0.019149259165696455,"482":-0.02091582243792335,"483":0.06832431174344016,"484":-0.04009777607125112,"485":0.018769834414118038,"486":0.04447300090463857,"487":-0.03363097700718448,"488":0.011393060946412967,"489":0.024704658751431643,"490":0.09430365136550355,"491":-0.018823470802257113,"492":0.00635873361546988,"493":-0.003509445601094632,"494":-0.08537865619759197,"495":-0.01412517111311993,"496":0.0127387292266376,"497":-0.028708849636699726,"498":-0.03147498353739304,"499":-0.0423781544003975}},{"sx":5,"sy":5,"depth":20,"w":{"0":-0.051448360974530025,"1":-0.05741878615381492,"2":-0.05375838368394692,"3":0.047909350144806066,"4":-0.07769578930573048,"5":0.03360153972982355,"6":0.0314062860874885,"7":-0.034740462040329594,"8":-0.04670703005092168,"9":0.011918440698415479,"10":-0.018059535319905166,"11":-0.09053541087647464,"12":-0.033771082563223156,"13":-0.09081124489771035,"14":-0.10973896816592357,"15":0.02042093740792118,"16":-0.017664987805858626,"17":-0.036331755436218235,"18":0.02622607063022909,"19":-0.061966071923384006,"20":0.044985758355346,"21":-0.02033279653102021,"22":0.0524079597387128,"23":0.05688056200155329,"24":-0.06807223369985664,"25":-0.017063682217884915,"26":-0.03676646950556011,"27":-0.1276243827320662,"28":0.016162667204572174,"29":0.01066195873196431,"30":0.018355979072702526,"31":0.011922811091303309,"32":-0.04901316765142429,"33":-0.024541135833464338,"34":-0.10386601859900382,"35":0.023824686460504903,"36":0.11175690961883901,"37":0.05532740864288376,"38":0.025237047421509038,"39":0.05283759863395942,"40":-0.11239047455862872,"41":0.09351790768422007,"42":-0.056223550354180904,"43":-0.001387966360691572,"44":-0.04291385291772415,"45":-0.034975894828588094,"46":0.008737424435472046,"47":-0.04899334460874855,"48":0.003184145758972121,"49":-0.056658582357045864,"50":0.0017345967773613237,"51":0.08069782645429774,"52":0.025785678834401644,"53":-0.026642046101805313,"54":0.19244683804269017,"55":-0.007519441133971925,"56":-0.0008074612786900416,"57":-0.013667820291732545,"58":-0.07515645745235949,"59":0.07623949627037269,"60":-0.03610673480518949,"61":-0.03221766376904115,"62":0.028706737027722713,"63":-0.006338533478776081,"64":-0.01974775844662626,"65":-0.0027044220762865007,"66":-0.06603256140920397,"67":0.03501166258033749,"68":0.013348872164702376,"69":-0.05851582917384597,"70":0.009220685883268994,"71":-0.028297281673206644,"72":0.026090383631064515,"73":0.1190236973841415,"74":0.04617972074593412,"75":0.015075438400605368,"76":0.04393911075142348,"77":-0.07920931798181934,"78":0.05705343481538986,"79":0.034929117627430346,"80":0.00467067446998001,"81":0.020885612579206205,"82":0.023021352483988927,"83":-0.013577262799726037,"84":-0.0844457602631209,"85":-0.011209607279600364,"86":-0.011200299327056504,"87":-0.029916484078759725,"88":-0.0735693853886625,"89":-0.03466495181774777,"90":-0.093342836574773,"91":-0.016294856899361405,"92":0.12802269651562537,"93":-0.038629208801290255,"94":0.03708148023354755,"95":-0.07149943640522279,"96":-0.06847094029641908,"97":-0.004797227831394491,"98":-0.022292729146036774,"99":-0.019712682779587473,"100":-0.037272660966086155,"101":-0.05503902568111024,"102":-0.016181940520434836,"103":0.028706810290039183,"104":0.05255661876785812,"105":0.009696243186082778,"106":-0.05700479625071543,"107":-0.0365292350847352,"108":-0.06913910103344025,"109":0.03569402222380711,"110":0.03484629917799346,"111":-0.10514361386423782,"112":-0.0011258198842584997,"113":0.008101950210828067,"114":-0.028135407188851175,"115":-0.05969677039175712,"116":0.08848922397455576,"117":-0.04997936334817425,"118":-0.0911011327280266,"119":-0.04539980337212528,"120":-0.059694249327501364,"121":-0.022376031690347284,"122":0.009984859637103606,"123":0.017106837695695525,"124":-0.028727512290079457,"125":0.021885224581210762,"126":0.024606255666307884,"127":-0.04579037888239621,"128":-0.0024684987741370222,"129":-0.0614595401064365,"130":0.022165588498949708,"131":-0.05129550202268824,"132":-0.055941848558878904,"133":-0.037214302173857246,"134":-0.12720212072063308,"135":-0.01622604921594743,"136":0.0348814486792828,"137":0.045340463958460094,"138":0.03213318468704981,"139":-0.041480424225103694,"140":0.04274211011951628,"141":0.07670012978182476,"142":-0.051032618059370344,"143":0.06917340547696817,"144":-0.058265521888462984,"145":-0.02182913339429426,"146":-0.0906575863028735,"147":0.038102096469123076,"148":0.00619785575193972,"149":-0.00031992969337533484,"150":-0.04978195774501576,"151":0.08377037485841803,"152":-0.008903130525291769,"153":-0.015200532462829104,"154":0.10154248313628482,"155":-0.0015326647409134955,"156":-0.05214269858426005,"157":-0.021731966663744814,"158":0.025243144972856103,"159":0.13612997217593564,"160":-0.0781539467089207,"161":-0.02523256278584358,"162":0.027567447051618718,"163":0.0507808518197826,"164":-0.020933960830649988,"165":-0.07584976226573925,"166":0.0458178277868497,"167":0.006441923273966437,"168":0.02497228716173739,"169":0.02824911415081404,"170":0.023542457623400598,"171":-0.028699760825537855,"172":0.025430214717182986,"173":-0.046462394860157706,"174":-0.06172104710769265,"175":-0.024504978809581107,"176":-0.029966503678145507,"177":0.019087147022418073,"178":-0.01931198325702295,"179":0.10507749600839428,"180":-0.015242757138308275,"181":-0.023012298832199934,"182":-0.025141379429246793,"183":-0.04362556277780912,"184":0.009224232738849482,"185":-0.04991119733311901,"186":0.013129324212789353,"187":-0.054417547228502214,"188":-0.045905649752203216,"189":0.09115183724044085,"190":0.0011606407274509642,"191":-0.03389649015400134,"192":0.013240830869823536,"193":-0.016191000549462146,"194":-0.012624789850431422,"195":0.04628394842721763,"196":-0.07233850012768481,"197":-0.016981614003524055,"198":-0.01713520392945657,"199":-0.04811898107258096,"200":0.03380285185678145,"201":-0.055682288786328166,"202":0.01578582198619207,"203":-0.06584343552782448,"204":0.0740832568238827,"205":0.08207069503520517,"206":0.02244543902843036,"207":-0.03423857690544763,"208":-0.018741306810874388,"209":-0.10577220042052118,"210":0.04558587589438767,"211":0.004067699368040861,"212":0.023222048902036406,"213":0.043416621502199104,"214":-0.05503806466911255,"215":-0.04233647064036856,"216":-0.006206112004720568,"217":-0.029068316162913978,"218":-0.05347092055626119,"219":-0.006104544860090056,"220":-0.016401063873797667,"221":-0.019777797135968514,"222":-0.014655742582315235,"223":-0.011369143137862551,"224":0.062252139869341,"225":0.06566464061000177,"226":0.031613623371035626,"227":-0.0730329719107812,"228":-0.061107524291364325,"229":-0.08281125563043136,"230":0.053314606692670144,"231":-0.024098912349755593,"232":-0.024849676313897978,"233":0.03929702510051089,"234":0.022812367544517525,"235":0.008362114791314245,"236":-0.07130344894452043,"237":-0.056454352639132774,"238":0.020280372707978295,"239":0.08355123765393252,"240":-0.007714312838397686,"241":0.03367860858589792,"242":0.013018230514648316,"243":-0.07123801409162203,"244":-0.10818195906141113,"245":0.003339706556353111,"246":-0.018324552262480864,"247":0.11592682461822226,"248":-0.10331992662186011,"249":-0.015345595524355172,"250":-0.01902525975651395,"251":0.03683753889474302,"252":-0.029654025160363386,"253":-0.027184613955208613,"254":0.06542819969560641,"255":0.04243723429581392,"256":-0.005674243520371844,"257":0.11509005158271958,"258":0.009848760618567256,"259":-0.02937620994473643,"260":0.09317100262018381,"261":-0.011716020252680558,"262":-0.006609739883077686,"263":-0.0605580024971159,"264":0.03394330870607039,"265":0.04372534874851814,"266":-0.00960093598164436,"267":0.02790760978514154,"268":-0.007430573705210315,"269":-0.04103158592515071,"270":0.046707878705056674,"271":0.02746871210078006,"272":0.012534028341259393,"273":0.023295946224332308,"274":0.0012927327096865348,"275":-0.13430924102129815,"276":0.007924081306915444,"277":-0.05119171565303204,"278":0.07983024646490376,"279":-0.025962227184603986,"280":0.02130146333908403,"281":-0.016692117393535853,"282":0.020100184342519964,"283":-0.03946273494935996,"284":0.03720937388940937,"285":-0.0582952362829663,"286":0.10040642038587727,"287":-0.004425546270237997,"288":0.023633827611680622,"289":-0.04444827608344945,"290":-0.05034597120698316,"291":0.013188137286702916,"292":0.05213075161821581,"293":-0.023328154883506497,"294":-0.005364698159787415,"295":-0.020191663904990022,"296":-0.014257926186282117,"297":0.10272407027983796,"298":0.013359652096971378,"299":-0.062017992204362764,"300":0.08571339672029596,"301":-0.05836037741803126,"302":0.0823243585557093,"303":-0.11144471481930637,"304":0.02347873673664418,"305":-0.0071033428904307755,"306":-0.06002400411976125,"307":-0.06769270720043218,"308":-0.034916965059491045,"309":0.03879793684849805,"310":-0.049075404088441854,"311":0.04338246967279397,"312":-0.014888602943810895,"313":0.0134730891488017,"314":0.052633996661558345,"315":0.0032122894125580976,"316":0.00951198447766376,"317":0.029396038889373845,"318":-0.011652343570965422,"319":-0.010488530533788747,"320":0.07569456914383789,"321":0.009965909340848464,"322":0.057943132736489766,"323":-0.004952580826307615,"324":-0.009519369043877823,"325":-0.044073628532950535,"326":-0.020537085269651183,"327":-0.04937151314844149,"328":0.01970172171973732,"329":0.040249257830293476,"330":0.03496544306394293,"331":0.08492609013800821,"332":-0.011571697757717811,"333":0.07793966837186438,"334":-0.0455277793424133,"335":0.03236901788585299,"336":0.03786232345405941,"337":-0.0722214366190076,"338":-0.036466384100069256,"339":-0.08733138648716804,"340":-0.0014399405050160234,"341":-0.00010357613558675874,"342":-0.049788645024636514,"343":-0.0467441623428971,"344":-0.09111698507542243,"345":-0.068966739439491,"346":0.018544268969387247,"347":-0.004539286453399031,"348":-0.05087842174890213,"349":0.07539178327608438,"350":-0.07631522035959094,"351":0.010502755390154547,"352":0.07642222910218938,"353":-0.031860622501716424,"354":0.07556583804609271,"355":-0.004839563206537707,"356":0.05655142831515233,"357":-0.001513512432911746,"358":0.020245533534464306,"359":0.010252095654147218,"360":0.07578987074716335,"361":0.011650187507597606,"362":-0.039075560992811335,"363":0.01128288452113422,"364":-0.018116975662834472,"365":-0.03353968445570789,"366":-0.050244902829781876,"367":0.0298399164627537,"368":-0.05740860162204813,"369":0.08420951812796335,"370":-0.04193541003186439,"371":0.03547079684398447,"372":0.10627073562859077,"373":0.038858949034899,"374":-0.04064825958182537,"375":-0.0627968185533032,"376":-0.018698280806516407,"377":-0.029993492216955697,"378":0.08103436017408919,"379":-0.00019240556804069086,"380":-0.008127357155776872,"381":0.01641703162771942,"382":-0.009720396521507885,"383":0.013091937157837014,"384":-0.024610468571099563,"385":-0.0018334845092919118,"386":-0.014905158472025991,"387":0.061276975440352925,"388":-0.017749016010747905,"389":0.08247309151007438,"390":-0.04488343151816433,"391":0.06933266004079484,"392":0.001160249580629833,"393":-0.026357231523018488,"394":0.01894252524432874,"395":0.001168685729445893,"396":0.09591643962393805,"397":0.054316045034579,"398":-0.02229375640055831,"399":0.04736802633538215,"400":-0.04575917193402376,"401":-0.01778321896745866,"402":-0.0010791026532716436,"403":0.012194803397975722,"404":-0.11757202668350325,"405":0.02460305990774669,"406":0.0006871814170664208,"407":-0.010804732253019774,"408":-0.02181379007241062,"409":-0.0760904307486334,"410":-0.07655996501536244,"411":0.021068339933049213,"412":-0.07829842703526689,"413":0.03785064681956773,"414":-0.0018801043635695968,"415":0.0543298243119056,"416":0.013721881174426062,"417":-0.10259808674796071,"418":0.06313323732627071,"419":0.015892492342158736,"420":0.040707418504738725,"421":-0.06619708338320325,"422":0.05014577759768881,"423":-0.012364127047013606,"424":-0.11241929223442461,"425":-0.08113763602646928,"426":-0.058509725973685596,"427":-0.012237185934838362,"428":0.006203336578645161,"429":0.0061546449199602685,"430":-0.08026830017937078,"431":-0.0011764147599009334,"432":0.018026173253688684,"433":0.026264261627098103,"434":0.011266525045755232,"435":-0.02928548816245084,"436":-0.04221111307820108,"437":-0.013578042251525339,"438":0.01729085004056143,"439":0.07905047083839702,"440":0.05340889804181901,"441":0.035211659045641726,"442":-0.059182270132074756,"443":-0.029443820270228283,"444":-0.0024726388203095626,"445":-0.06457053032043812,"446":0.07031560381366417,"447":0.08224418085394847,"448":-0.028289509382898353,"449":0.06731547127790484,"450":0.013219757573791345,"451":0.0006554105760571635,"452":0.0020008058921837666,"453":0.013899213110778422,"454":0.09719225406267323,"455":-0.001536352788760053,"456":-0.024555369378696127,"457":0.0258914177143519,"458":-0.059644456865109816,"459":0.042536830134968964,"460":0.04638710076779796,"461":0.0017966175967399833,"462":0.030522816725883844,"463":-0.03423631502262242,"464":0.0025720116013008094,"465":-0.023405575819480114,"466":-0.04810625768239903,"467":-0.05724809140948136,"468":-0.004425717392443859,"469":-0.015334570226361014,"470":-0.002062202569962142,"471":0.05576825310180777,"472":0.0055216642370093305,"473":-0.029613403676969987,"474":-0.00825217455891582,"475":0.02401374311393864,"476":0.14093425752648117,"477":0.08407889479986054,"478":0.07026267069416019,"479":0.05561946827826421,"480":-0.06379561004066926,"481":-0.08059684426322458,"482":0.03343505521610726,"483":-0.10978526318427337,"484":-0.04721991666104051,"485":0.07945342118542947,"486":-0.012688059603305548,"487":-0.03783446711422845,"488":-0.016107072138812684,"489":0.01717900808413558,"490":-0.06186329609746687,"491":-0.0034353011092607758,"492":0.0030315266174253427,"493":-0.016840420441966892,"494":0.018784495555268947,"495":-0.04315079125267983,"496":0.03602911760727038,"497":0.011708251968103607,"498":-0.046583745983459,"499":-0.0238805722005825}},{"sx":5,"sy":5,"depth":20,"w":{"0":0.011519322861541718,"1":-0.0011769932916561724,"2":0.15082242353363529,"3":0.11180498529867022,"4":0.013690062350656536,"5":0.03951203979357268,"6":0.006956102804556267,"7":0.02722260271853819,"8":-0.004287485587200616,"9":0.07001127761104929,"10":0.029215179324808993,"11":-0.08487834563930169,"12":-0.07437574705114355,"13":0.0041975447364790445,"14":-0.033210386352459265,"15":-0.01827613098616596,"16":-0.01379476616354825,"17":0.08538023431164445,"18":0.02221190307720433,"19":-0.06978175403726726,"20":-0.010070073679188567,"21":-0.06412631036096769,"22":-0.11124963111093247,"23":-0.08348783890517726,"24":0.15473129807334268,"25":-0.10095094395083878,"26":-0.033932150214655,"27":0.0032462279173381243,"28":0.0051198337767856565,"29":0.02053109779637729,"30":0.19983810588033038,"31":-0.09659768794079054,"32":0.12129866104776789,"33":-0.05611718993017826,"34":-0.13040141293865387,"35":-0.020858655365994943,"36":0.013644992439262434,"37":0.02261995828047147,"38":-0.07897679123986055,"39":-0.08357123807820019,"40":0.08478160572514865,"41":-0.0936498891917757,"42":0.16123677597062883,"43":-0.03314532963847385,"44":-0.09460135893419033,"45":-0.09703603254120222,"46":-0.05883579362285458,"47":-0.11835897282554936,"48":-0.06044170128704218,"49":-0.09600640249861915,"50":0.04330306325851142,"51":-0.11330165425956906,"52":0.03421870768548763,"53":0.07897123608735397,"54":-0.1899686406633412,"55":-0.006519706037766912,"56":0.0391036988326755,"57":0.03618171214996618,"58":0.012644037597511301,"59":-0.11241432617285899,"60":-0.01901689102754189,"61":-0.04632223092125725,"62":-0.06577677951159641,"63":-0.07352605824969474,"64":-0.1047478404963972,"65":-0.11935628055161385,"66":-0.00704371625371725,"67":-0.07305270876363745,"68":-0.0504766963814269,"69":-0.12802139652328853,"70":0.039542338780402,"71":0.015727051820521278,"72":0.06966137187209918,"73":-0.006337238560225362,"74":-0.08109206674014521,"75":-0.009284102164822674,"76":-0.07454924516814453,"77":-0.006256538174517411,"78":-0.04546726996721552,"79":-0.01407637602595581,"80":-0.05491206531198233,"81":-0.02410919888133343,"82":-0.012727459637573357,"83":0.05661282053611283,"84":-0.053838256285155865,"85":0.004071405289986211,"86":-0.05098548856713985,"87":0.07291539992252527,"88":-0.053103891961384146,"89":0.049275783414014146,"90":-0.10823338752311976,"91":0.044757479366507535,"92":0.05773164503302597,"93":0.009898763185881924,"94":0.14365962235495502,"95":-0.013806625112228459,"96":-0.004531718828045654,"97":-0.04748396325222393,"98":0.022752554953759548,"99":0.019895049706131106,"100":-0.09377051671921409,"101":0.08868397155159473,"102":0.09111979590834346,"103":-0.006893536327750263,"104":-0.13999725417196954,"105":0.03992828917108801,"106":-0.056014800056528626,"107":0.11059447152111514,"108":0.004364565808039173,"109":0.06727077468654764,"110":-0.012941253834263708,"111":0.06762980225109598,"112":0.05764396688238253,"113":0.012345649313176362,"114":0.07068282887886558,"115":0.034132386130166885,"116":0.04479908658130885,"117":-0.14901627367146877,"118":-0.09611312928277847,"119":-0.05914928678267099,"120":-0.0012267797892250838,"121":-0.07880589597853317,"122":-0.09378895090779452,"123":-0.0207030245785096,"124":0.10481362980545242,"125":-0.04386795423143958,"126":0.009407138857331089,"127":0.05418396985238741,"128":-0.0977135913489349,"129":0.03893134652740207,"130":0.11292223194136623,"131":-0.14785185240892332,"132":0.20730034523145704,"133":-0.043240503941209,"134":-0.19576374558227513,"135":-0.009054572392755466,"136":0.07793064232007658,"137":-0.043121536518709036,"138":0.040054723485043894,"139":0.07483944990655261,"140":0.038616505241051265,"141":-0.055894792097473715,"142":0.3472388208325575,"143":0.024862843858501675,"144":0.005500363030162792,"145":0.03617216905603443,"146":-0.024009715987022895,"147":-0.09443015088948245,"148":-0.13209270144834606,"149":-0.08714719700801192,"150":0.10212521734760235,"151":-0.1396720861868562,"152":-0.08981356888668025,"153":0.19259376295965736,"154":-0.270455294123528,"155":0.07800820123129269,"156":0.09535410649551851,"157":0.01532285251189213,"158":0.08388718080803279,"159":0.006483678153986294,"160":-0.04552577142418409,"161":-0.048540701381587725,"162":-0.057319962587804564,"163":-0.038277394295844674,"164":0.005224897641000911,"165":-0.013575184575450533,"166":-0.006648528814975419,"167":-0.008424954425347322,"168":-0.07590814564448843,"169":-0.01508040499083346,"170":0.057062249490830504,"171":-0.011453271243859768,"172":-0.03303086149319262,"173":-0.020579571189513604,"174":-0.21321298199297603,"175":0.023791056960120904,"176":-0.1417756848939643,"177":0.0777320314693867,"178":0.013689571994317671,"179":-0.2049244241006481,"180":-0.06625462021536833,"181":-0.09934717261817873,"182":-0.026688412293659213,"183":0.11559125366626348,"184":-0.0010890442474134085,"185":0.03680446661000071,"186":0.018541984418355768,"187":-0.050736087273969444,"188":-0.018314487512287835,"189":-0.026517620798453528,"190":-0.025454041545800783,"191":-0.029414875432211534,"192":-0.11081930551014177,"193":0.023083432748466536,"194":-0.09305096215010204,"195":-0.00043935415751488485,"196":-0.003189023765163185,"197":0.05142731591802876,"198":-0.06286852802679477,"199":-0.07947048521868291,"200":-0.09414118489768485,"201":-0.0050103839281421345,"202":0.12686742099465878,"203":0.07034951395510242,"204":-0.1638951834525512,"205":0.031140812351211664,"206":-0.013376214011151796,"207":-0.04058524669407651,"208":0.03613145562195228,"209":0.015972270852147103,"210":0.003207463060539412,"211":-0.06340727647527436,"212":-0.046293200960051545,"213":0.12231197241537134,"214":-0.10207873958527389,"215":-0.050338819546811076,"216":0.0735485937619432,"217":-0.01977771652700869,"218":0.023674076716429397,"219":-0.047471485968703896,"220":0.03725286702856854,"221":0.03722905874097067,"222":-0.018099088375032435,"223":0.093611708474376,"224":0.11130055811296312,"225":-0.05851707294132212,"226":0.03320205919317805,"227":-0.015066868486325182,"228":0.07433091642175325,"229":-0.027776969246609585,"230":0.11718513282647092,"231":-0.1045316116915426,"232":0.17063394987356587,"233":-0.040511701704756195,"234":-0.1963148427434995,"235":-0.051242543597405134,"236":-0.010381004872730717,"237":-0.012428879307348761,"238":0.020593606831419208,"239":-0.008497893688194202,"240":0.03633189018715232,"241":0.021969439857653858,"242":0.427797915693416,"243":-0.020032778668642885,"244":-0.03001599777333387,"245":0.047528102980746896,"246":-0.0199063709143291,"247":-0.06422524574779169,"248":-0.020400695411634823,"249":-0.05904399577252867,"250":-0.030625762780218328,"251":-0.004002455995084254,"252":-0.2213158308986943,"253":0.18909545792096447,"254":-0.02805728770471768,"255":0.057121859664903754,"256":0.06864820347263778,"257":0.015855287180102717,"258":0.08319327628668745,"259":0.030380468182498843,"260":-0.08321174838985954,"261":-0.039500266627338694,"262":-0.04869801771024541,"263":-0.09252231491505013,"264":0.041952630071845326,"265":0.07336287754451035,"266":0.07435709814761234,"267":0.1335540827543944,"268":-0.037589505225216105,"269":0.004752563078170698,"270":0.022124343639355417,"271":0.05056340951847186,"272":-0.0745542894807038,"273":0.03911127258099203,"274":0.03425349328359058,"275":-0.0642533848760761,"276":-0.11249260881489506,"277":0.038422806080244634,"278":0.019289694880334947,"279":-0.1576699797891147,"280":0.026594769820803492,"281":0.0922091365881969,"282":-0.004976260848861302,"283":-0.06224398236881228,"284":0.03748642964270345,"285":-0.07513492028314203,"286":-0.008603373517346222,"287":0.10124603057829065,"288":0.04540934938310575,"289":-0.04764970573905943,"290":0.018261571987421073,"291":0.07668014601298419,"292":-0.06756748626321177,"293":-0.1504226933749517,"294":0.14088078615282457,"295":-0.009708841493872184,"296":-0.08040048224243682,"297":0.012576027769090538,"298":0.02295857473889111,"299":-0.06954635901896898,"300":0.0476821361810961,"301":-0.048969686439983694,"302":0.04529788500849274,"303":-0.06516722238610141,"304":0.17299551417249903,"305":0.06572759826070734,"306":0.10778339597688237,"307":0.1771480021190458,"308":-0.03766046911526155,"309":0.009741322297047739,"310":0.04758687850650063,"311":0.04214247000974184,"312":-0.006848240492582269,"313":0.058733219550925586,"314":0.104421619649912,"315":0.030223730819054655,"316":0.0538151099392446,"317":0.047513659305114454,"318":0.06014724883754988,"319":-0.018182921167856986,"320":0.18216186731460882,"321":0.07844332280086268,"322":-0.07571531039701306,"323":0.04002152937356547,"324":0.1533079144608786,"325":0.03117663866129244,"326":0.03252831773334024,"327":-0.009930372445331239,"328":0.004572353318741976,"329":0.008379609218387778,"330":0.05358639456886402,"331":0.056729012096199745,"332":0.12310928576817068,"333":-0.05858510920901127,"334":-0.04896547793883434,"335":-0.05169322500737577,"336":-0.027903355104707213,"337":-0.035257725995330016,"338":0.09814469175207884,"339":0.04832015840776912,"340":-0.0023707484783756327,"341":-0.0331584826373623,"342":0.3722328305495633,"343":-0.07431844357512465,"344":0.042191715941669594,"345":0.0247383046586238,"346":0.006194045556701945,"347":0.00893475343742128,"348":-0.04592274461790188,"349":-0.06949642201498347,"350":0.09037810019257615,"351":0.0004456265165298951,"352":-0.03176080842697262,"353":0.17820717673246753,"354":-0.01887738912933724,"355":0.05427777611355938,"356":-0.06577347482693766,"357":0.08157423073674261,"358":0.0006782297184346122,"359":-0.009268895962699362,"360":-0.0904775637516365,"361":-0.13891358833830775,"362":-0.015565938932309792,"363":-0.11850674676921209,"364":-0.06308296468154986,"365":-0.008941527942246915,"366":-0.02764064423837003,"367":-0.05193793204250564,"368":0.016787780563524337,"369":0.048116083356825864,"370":0.011811446612682016,"371":-0.028178592497190864,"372":-0.07823398011861209,"373":0.01804078922716669,"374":0.07776973212702201,"375":-0.0632292604170857,"376":-0.05128986791341561,"377":-0.07672965884304256,"378":-0.09253399434086389,"379":-0.03297884957917177,"380":-0.08919345813796742,"381":-0.10273714596797127,"382":-0.057203107764249604,"383":-0.0002167304104859981,"384":-0.1940693250689092,"385":-0.013964513357178139,"386":0.007386296051090105,"387":0.043807502556604254,"388":-0.0019095870634271389,"389":-0.010777352287638431,"390":-0.06531886771242823,"391":0.12222427606956103,"392":-0.07491443245779739,"393":0.01524622307329389,"394":-0.03698240141994466,"395":-0.012753691310784153,"396":-0.012435232719872786,"397":-0.0903395728096967,"398":-0.020365215709570218,"399":-0.02038852800127404,"400":0.0049633861931592076,"401":0.02791981707087473,"402":0.07605967338795587,"403":0.11722182582226978,"404":-0.154587361265333,"405":0.01018901445520963,"406":-0.03633284213242359,"407":0.03216475166497741,"408":0.030440794707076394,"409":0.07549542438279923,"410":-0.014133612066647363,"411":-0.007651608149784482,"412":-0.1357093461007942,"413":-0.01973765368731328,"414":0.05584884413323161,"415":0.07546198890383797,"416":-0.0014550092506585776,"417":0.0016723451722937103,"418":0.012009774111652664,"419":-0.07145932139588126,"420":-0.027626328731255527,"421":0.0057963677411408615,"422":-0.05997728830674031,"423":0.013045468925337192,"424":-0.13504930332135276,"425":0.051026592072776954,"426":-0.004420928100437641,"427":0.035475261142204874,"428":-0.1451929170779944,"429":0.026900091752688357,"430":0.03630927623881687,"431":0.04896473768944451,"432":-0.038508760646009645,"433":-0.04560074114410616,"434":0.08849573057796808,"435":-0.09976637376988294,"436":-0.06549027984941866,"437":0.009230714679133003,"438":-0.1163551264516164,"439":0.07339211592593817,"440":-0.08158102186527369,"441":-0.07957569724748945,"442":0.1864177987645751,"443":-0.15405949622476112,"444":-0.07617383186301928,"445":0.08718346305565725,"446":0.06144887920674763,"447":-0.07611967254098047,"448":-0.03808119862869821,"449":0.0013076331187410885,"450":-0.029374793451139143,"451":0.04264564338257046,"452":-0.1242562365618043,"453":0.016798373324827164,"454":0.025848239780285744,"455":-0.0030404858763974844,"456":-0.035508734756457924,"457":-0.004496206941676648,"458":0.06218775803785624,"459":-0.03710763162131376,"460":-0.10938775168461293,"461":-0.02414959202729436,"462":-0.12055542018509743,"463":-0.17067700220855367,"464":0.10761967018488976,"465":-0.06970433984081988,"466":-0.020862052287468676,"467":0.12788150758402106,"468":-0.09567072538933266,"469":0.016493388141665268,"470":0.01955539625001446,"471":0.039862961952348924,"472":-0.06515296683506193,"473":-0.05274123326960161,"474":-0.0705797147470467,"475":-0.05774526527691243,"476":-0.13327513818842598,"477":-0.03926447099224904,"478":-0.0395224892008929,"479":-0.06302832464020373,"480":-0.11531529611662057,"481":-0.10002607053316427,"482":0.018360834700588337,"483":-0.03867238606461509,"484":-0.021239428905998985,"485":0.047671072464111446,"486":0.011987865443646486,"487":-0.003259425855468185,"488":-0.022416978692269694,"489":-0.10401089748012125,"490":0.02499311428016041,"491":0.14710503272649475,"492":-0.02418981711973977,"493":-0.03185188816917381,"494":0.03727806078990859,"495":-0.010749641458698563,"496":0.005182673062494671,"497":-0.03205421396160363,"498":0.021210030120641113,"499":-0.07482086575422481}},{"sx":5,"sy":5,"depth":20,"w":{"0":0.03492312411614341,"1":-0.040209704623872834,"2":-0.03322030551385227,"3":0.003922808517496384,"4":-0.006147126312118866,"5":-0.03930510140890687,"6":-0.008555370043389911,"7":0.009462645555776455,"8":-0.11892552713419384,"9":0.02254136380630202,"10":0.03505351504652135,"11":-0.04589886829798957,"12":-0.013889505860091368,"13":-0.0016713299847735568,"14":-0.0765483930221682,"15":-0.03603649790996057,"16":0.03220501007239529,"17":-0.02944834041591188,"18":0.013001979054043326,"19":-0.0003087955055436814,"20":0.013533299450296894,"21":-0.024291217590764205,"22":-0.010900599415337624,"23":0.01324506952042037,"24":-0.04069618043963481,"25":-0.05062981548318893,"26":0.008251945017587192,"27":0.05173198272230877,"28":0.11264714694019452,"29":-0.030931211022005165,"30":-0.050091529764211065,"31":0.041386859425184455,"32":0.06220641937389719,"33":0.10590104448619765,"34":-0.012243856854767306,"35":0.00970934916713627,"36":0.025906042804700376,"37":0.00020920075264734166,"38":-0.02574190176915214,"39":0.024916376334579916,"40":-0.05393709590662094,"41":-0.09848402000223895,"42":-0.015541479586162666,"43":0.06796428441747725,"44":-0.02969175021839884,"45":0.004227717137953645,"46":-0.1168637307969445,"47":-0.009816361073586943,"48":-0.011125597788005284,"49":-0.03690006408438919,"50":-0.08399696852790525,"51":-0.0036024238483472306,"52":0.05978140106813087,"53":-0.06242392180762079,"54":-0.058758225609169774,"55":-0.09830190746800908,"56":-0.08891332790914756,"57":0.03870344997578103,"58":-0.007358662151521682,"59":0.0006366940755682489,"60":0.00449106243065646,"61":-0.03970079755097563,"62":0.06592291733375936,"63":0.06330772686937093,"64":-0.09554529720029534,"65":-0.001809748401160107,"66":-0.07900602965243568,"67":-0.002447111634255053,"68":0.024233458075264343,"69":-0.04794223760171084,"70":0.06559455950800824,"71":-0.04058825626341497,"72":-0.03205725666365395,"73":0.030611367703411507,"74":0.006207341661227244,"75":-0.11382717262378281,"76":0.021231449530199176,"77":0.0015644579096939437,"78":-0.029523942989529223,"79":0.030227261344328644,"80":-0.012220196826512564,"81":-0.06144451358454126,"82":-0.06051471628449948,"83":-0.015100852338941253,"84":-0.056100694305523995,"85":-0.12809609627606752,"86":-0.033196030730383554,"87":-0.03321840042438122,"88":-0.01458527601320298,"89":-0.05507360355449917,"90":0.015326959872787685,"91":-0.02286682614297256,"92":-0.0026784035600431913,"93":-0.05188490385211627,"94":0.019957379583573215,"95":-0.00998644518588684,"96":0.050884477092996316,"97":0.001806817053405565,"98":-0.006731504874748464,"99":-0.027037199531828978,"100":0.04405622188951804,"101":0.007138816987807742,"102":-0.006353907135621967,"103":-0.1064396321578124,"104":-0.018063559700981276,"105":0.022800120702683217,"106":-0.07614051451548946,"107":-0.044771249306436736,"108":0.04864595562172996,"109":0.0037420384871816054,"110":-0.016925522852691516,"111":-0.07369349271601497,"112":0.022357677667870085,"113":0.010123693846150833,"114":-0.015266370524982748,"115":-0.07175599308940651,"116":0.012003952225403736,"117":-0.010618914654519142,"118":0.003994509721091427,"119":-0.07476961427608332,"120":0.041335478101225814,"121":0.039354603873008494,"122":-0.041569017655461955,"123":0.033531783214481796,"124":-0.03171039382760924,"125":-0.04377245886438287,"126":0.007316158495138669,"127":0.014877950708920819,"128":0.03329199453980925,"129":-0.02160139359657145,"130":0.021133739745141905,"131":-0.041053685158087744,"132":-0.018544873504411547,"133":-0.028571486947188966,"134":-0.09370128988182069,"135":0.06927001530665008,"136":-0.038137041772937884,"137":0.010669865995993578,"138":-0.029816239281132167,"139":-0.04577218922651047,"140":0.033170779181295025,"141":-0.006966638465571504,"142":-0.0072362864947262675,"143":0.09706123438474593,"144":-0.06044922395923706,"145":-0.05849761431454771,"146":-0.06758495208488507,"147":-0.06886501337456034,"148":-0.029994600621688263,"149":-0.05687907590254105,"150":0.0352032035349364,"151":0.03788131938649894,"152":-0.020070705776539507,"153":0.03209715986114766,"154":-0.05501131133793005,"155":-0.006766119008295924,"156":0.02509794800074128,"157":-0.04883724888701745,"158":0.06606902707341741,"159":-0.05034645297175062,"160":-0.05936177039807461,"161":0.05561111045987705,"162":-0.001896653515938896,"163":0.03280870183169305,"164":-0.01305870079948869,"165":-0.025937691668208095,"166":-0.013171241782825893,"167":-0.11277012865811162,"168":-0.03616385440992968,"169":-0.08160277744029784,"170":0.031795851173421305,"171":-0.015105774131610551,"172":-0.09315089865898679,"173":-0.02639977275113079,"174":-0.06945609250350218,"175":-0.03036352856926672,"176":-0.014571867171782906,"177":-0.07431626662702512,"178":-0.009731994542452833,"179":0.0317298264009173,"180":0.03746763337600954,"181":-0.04219887026586034,"182":0.013147834677700898,"183":-0.09131268294287598,"184":-0.08087060387732471,"185":-0.09568035245560848,"186":-0.0888170612114561,"187":0.01846916535552801,"188":-0.05486426467995765,"189":-0.049187549971887005,"190":-0.005059803168061761,"191":-0.10147987018435253,"192":-0.04381779302850913,"193":0.008094187800137174,"194":0.017567382254746283,"195":0.03630193559771939,"196":-0.04645978905275084,"197":-0.09142483563297032,"198":0.052324989195097614,"199":-0.010156919948413116,"200":-0.03461768039342152,"201":-0.08820815445970824,"202":0.0567793937006223,"203":0.036241649058853555,"204":0.009153665284930359,"205":0.004561281167156386,"206":0.0023882321422549423,"207":0.09711646575501427,"208":-0.00520172055221035,"209":0.0018484744488936585,"210":0.004421766676175975,"211":-0.14829792036058412,"212":0.03865796582650174,"213":-0.07172495756120832,"214":-0.06327275416813379,"215":0.010330987422903974,"216":-0.0005644054889429314,"217":-0.04234431532043874,"218":0.051809593361689416,"219":-0.047277472218250814,"220":-0.03255312802787012,"221":-0.02077305517807443,"222":-0.05809885720760458,"223":0.014580334361448483,"224":-0.010444978392774494,"225":0.020090096975124466,"226":0.00009540936427285733,"227":-0.05808815753149418,"228":0.026880749902637065,"229":-0.0816499001778003,"230":-0.0013397957272618453,"231":-0.006055203987636466,"232":0.06763993244083356,"233":0.04615555410352932,"234":-0.01983607122738786,"235":-0.031120025871146956,"236":0.07084815076028483,"237":0.019802840675565453,"238":-0.030056090110386565,"239":0.029908626587908025,"240":0.003699702372456781,"241":0.0357598121279251,"242":-0.04669443786383335,"243":0.05363563764297409,"244":0.0050051303163925484,"245":0.09131122368916993,"246":-0.07525807317954515,"247":0.005829554718972581,"248":-0.10288773192104246,"249":-0.024226473044161298,"250":0.06012533609367808,"251":0.025311021929557833,"252":-0.0022903018247188538,"253":0.06567211764064,"254":-0.049214004608179644,"255":0.0065138636147633435,"256":-0.10009482222251308,"257":-0.03369219385052885,"258":-0.024867818678606705,"259":-0.08773447194804904,"260":-0.0417330401703468,"261":-0.04043731716426154,"262":0.155392716846208,"263":-0.10418497261640704,"264":-0.04957798930344268,"265":0.022632934757993703,"266":-0.06546095827783448,"267":-0.10319942805374456,"268":-0.08096906357207401,"269":-0.014641267619826067,"270":0.010525234892151502,"271":0.03900256484418102,"272":-0.05197690028253183,"273":-0.0024242365129357414,"274":0.0002353684339460438,"275":-0.006931399235556353,"276":0.0661749039072573,"277":0.0019445084822368355,"278":-0.02330073452594828,"279":-0.012323897445651488,"280":-0.03380125678394305,"281":0.001419222143170335,"282":0.019285737708295118,"283":0.035183221051405526,"284":-0.026705051964973765,"285":0.029687177094625664,"286":-0.038956044163915966,"287":0.06401864562993796,"288":0.04010207467306265,"289":0.004979529327581069,"290":0.019135156354288,"291":-0.09706332079591548,"292":0.0026088556331468923,"293":0.0414264392390658,"294":-0.012864088158296722,"295":-0.017164751049415696,"296":-0.009049985845517633,"297":-0.09712836795557366,"298":-0.08986787079289217,"299":0.065062450914601,"300":-0.07027769642124651,"301":0.03887815279266879,"302":0.038845130548698065,"303":-0.06085430064928167,"304":0.04867990148521815,"305":-0.06369551043738873,"306":-0.094036372429492,"307":-0.07136903753792748,"308":-0.013639188994943386,"309":-0.019474271865006845,"310":0.005999263928158762,"311":-0.02281539108092503,"312":0.002761038774350397,"313":-0.022494245390149856,"314":-0.09992853082205874,"315":-0.06728025917136775,"316":-0.010705790894497315,"317":-0.08868640961201472,"318":-0.012197726305593702,"319":-0.07599015033876125,"320":-0.06236445914831612,"321":0.0026066341828021367,"322":0.00704182767063801,"323":-0.03519357230610613,"324":0.013617169236649865,"325":-0.025396825679177837,"326":0.027761675260719994,"327":0.01709861685806124,"328":0.03197540746223098,"329":-0.026247341700131772,"330":-0.06940266165994188,"331":-0.012387526539250807,"332":0.05005108530784262,"333":0.042262176917266,"334":0.030857046551122824,"335":-0.03179103261880668,"336":-0.02568729292036193,"337":-0.022196009201293034,"338":-0.061701029341563095,"339":-0.06815106958169352,"340":0.013844928893311225,"341":-0.02180575836604031,"342":0.0029341091697614122,"343":-0.0593700434216661,"344":-0.028704152212227597,"345":-0.057293446423904756,"346":-0.09348006092548551,"347":-0.03212903988995636,"348":0.017691212503092295,"349":0.05908084043359286,"350":-0.01001699394327125,"351":0.008455757322802827,"352":-0.024610114768410032,"353":0.02523231261442926,"354":-0.09713063420689629,"355":0.008697709971834082,"356":0.04528772713059219,"357":-0.03007199008867656,"358":0.042402227334145726,"359":-0.09700279860522476,"360":0.058995224352337214,"361":-0.010582220134246813,"362":0.005741911109824618,"363":0.02669521682435337,"364":0.05579031871713608,"365":-0.08549518367194923,"366":0.022188562885512835,"367":-0.02251661513136832,"368":0.019485279781306087,"369":-0.02796932892608657,"370":0.0012544690104586392,"371":-0.09603756296864358,"372":0.013525284519791748,"373":0.04559520142319061,"374":-0.08807822565537185,"375":-0.029319433850554577,"376":-0.07815051463447159,"377":-0.015423434975326077,"378":-0.02800951318799375,"379":0.016354815733600026,"380":-0.01739182851875812,"381":-0.028493255277783677,"382":-0.025547530241348905,"383":0.04451438413332129,"384":-0.03013031064992601,"385":-0.055712313771161995,"386":-0.04270130865281788,"387":0.050817863939163405,"388":-0.022781235740515975,"389":-0.028034245528482455,"390":-0.0016945272247463649,"391":-0.07147887382058389,"392":-0.00837587477186493,"393":0.015093952415585496,"394":-0.06815638350832516,"395":-0.011968190162581046,"396":-0.044215210647396294,"397":0.04238405122899804,"398":0.006281694100379522,"399":-0.005308267948734518,"400":-0.010420384093693913,"401":-0.027761363580424754,"402":-0.032468509254422365,"403":0.01903305494667428,"404":0.0174538828393081,"405":-0.06657707088737796,"406":-0.023699719836888754,"407":0.0021761478079003627,"408":0.02745108798814034,"409":-0.0779877893600469,"410":-0.08284935887206535,"411":-0.0228939809299462,"412":0.005934763690146313,"413":-0.05630868528854516,"414":-0.05141458233097248,"415":-0.01211670596341596,"416":0.03497185814920216,"417":-0.0652188246983154,"418":-0.020513175356909913,"419":-0.03470437571525775,"420":-0.06983433417211635,"421":0.05568190775787838,"422":0.02656036869991685,"423":-0.049456381941646255,"424":-0.025434504866991406,"425":0.035365524333135674,"426":-0.0008194905553850311,"427":-0.07967683504486575,"428":-0.014527135145350667,"429":-0.018260080909637377,"430":0.010073544666992507,"431":-0.03230726096454929,"432":-0.012349510305115637,"433":-0.044871044536339555,"434":-0.059875895133546936,"435":0.041691500497087204,"436":0.05864182191405207,"437":-0.02708046077162419,"438":0.016739597339905727,"439":0.06907394592641707,"440":-0.053520596392111396,"441":-0.05747592679465695,"442":-0.07997843368715217,"443":0.00031646846720812335,"444":-0.0048561714110311694,"445":-0.033389363422051614,"446":-0.02249471296353417,"447":-0.03561525615918879,"448":0.005688992827875586,"449":-0.062251996359672025,"450":-0.04544275625337808,"451":-0.04872043649871666,"452":0.0044314910497382665,"453":-0.06632399652917337,"454":-0.003117319431059965,"455":-0.009184306240564159,"456":-0.017236524417924483,"457":-0.11650568979853301,"458":-0.0033548074754121537,"459":-0.036043091773765884,"460":0.03778372881416238,"461":-0.09961670776160564,"462":0.04604211041220859,"463":0.01929699062186025,"464":-0.007718974691321806,"465":-0.03498342084311886,"466":-0.050214847879307724,"467":0.025940798295617254,"468":0.07901426219081607,"469":-0.06619585619655978,"470":-0.0318414633564598,"471":-0.03102716217866196,"472":-0.055525951106301985,"473":0.0920425571695116,"474":-0.0427434364530103,"475":0.0049232812677784225,"476":-0.04478916907854157,"477":0.056638961374582256,"478":0.000014212096532047047,"479":-0.03021382418325296,"480":0.07227576009106437,"481":-0.025197042249532536,"482":0.03270374557402164,"483":0.021307778919644107,"484":-0.03457424386216951,"485":-0.03051608672710351,"486":-0.020583066485626928,"487":-0.05457773303277283,"488":0.08028142677013511,"489":-0.05145717684842829,"490":-0.014431225615362848,"491":0.028001741974961136,"492":0.06688104208025673,"493":-0.0028467600030375856,"494":-0.08197095945004408,"495":0.07421010772950869,"496":0.0810831688192563,"497":0.049409042225325876,"498":0.043127583068266924,"499":-0.02364710861133097}},{"sx":5,"sy":5,"depth":20,"w":{"0":-0.03905758990135165,"1":-0.05443409757303066,"2":-0.067102976363833,"3":-0.04671036934672105,"4":-0.018101845575669403,"5":-0.08825926965222902,"6":-0.10105797758552273,"7":-0.014109661619288269,"8":0.08826866195192505,"9":-0.029248559186286834,"10":0.059409130991481915,"11":-0.03395012096929528,"12":0.08055289562278042,"13":0.05890000197508685,"14":-0.07820622179429004,"15":0.03558227943633262,"16":0.037593259188499664,"17":0.01953215034922395,"18":-0.04823573662995792,"19":-0.020589089373424782,"20":-0.03785369033795431,"21":-0.06337845271638584,"22":0.04664411967328117,"23":-0.04238394448223102,"24":0.011432133897804397,"25":-0.03500481771127553,"26":-0.04028500530136352,"27":-0.12533755624536433,"28":0.044951298270447825,"29":-0.08110053478819396,"30":0.06941590416376123,"31":-0.039155143177223475,"32":0.05495866256102516,"33":0.03213266784488464,"34":-0.17778155989805763,"35":0.07683806922273276,"36":0.03438310104044351,"37":0.045572655624687645,"38":0.007818047410654266,"39":-0.07183948024460439,"40":-0.09270521658880061,"41":-0.013173554129311552,"42":-0.094997864134925,"43":0.0932684700724619,"44":-0.048138790685228375,"45":-0.08868041691349524,"46":-0.050490064025864,"47":-0.06635843747389683,"48":-0.0041061084723547185,"49":-0.08935895326315325,"50":0.08913463655682952,"51":-0.12192305698925937,"52":0.016564971998741337,"53":0.08269995835549016,"54":-0.19254887395950035,"55":0.0787091114639289,"56":-0.048194542528727444,"57":0.08431006361782051,"58":0.055499073253896296,"59":-0.026717563381970167,"60":-0.0007996585526220954,"61":-0.004832689625341887,"62":-0.05725015814492262,"63":0.08010049370014909,"64":0.03654357131632371,"65":-0.13837669794620808,"66":-0.051213430674636566,"67":-0.09674714993421087,"68":0.08049728070222907,"69":-0.04061996454477535,"70":0.07435214739610352,"71":-0.1146911844603649,"72":-0.02867204276509512,"73":0.04094583729371014,"74":-0.17869533344155383,"75":0.02694053903074293,"76":0.002151093075787443,"77":0.008942595345706471,"78":0.004903407229908463,"79":-0.03312005898505456,"80":-0.026787404250362676,"81":0.094408938347793,"82":-0.045059035185546305,"83":0.008661010863087468,"84":-0.09543335762456946,"85":-0.09513193932600686,"86":-0.0813014978429846,"87":-0.06174986229874706,"88":0.08891946517087443,"89":0.008408237518377151,"90":-0.00546079069235476,"91":-0.128741478834313,"92":0.024790214498219887,"93":-0.011872724932414465,"94":-0.15000269323045598,"95":0.023449467922847564,"96":0.04291738267780074,"97":0.06204800690797581,"98":0.045858488531134334,"99":0.04534075748471381,"100":-0.014020251180382968,"101":-0.1245246019605312,"102":0.0312723570062637,"103":-0.14597707747813746,"104":0.06772195497604082,"105":-0.008997481042145476,"106":0.12154307281275588,"107":0.006416725392109694,"108":0.01067684138356489,"109":-0.008855369140204914,"110":0.1059117898852739,"111":-0.0063285376843852555,"112":-0.042757375454804174,"113":-0.01467501544459469,"114":-0.1285112046536684,"115":0.04090381566470937,"116":0.06481033248601452,"117":-0.005320037023139179,"118":0.010319354225638731,"119":0.0027962575307297496,"120":0.0270149812978017,"121":-0.046535546194796926,"122":0.027136792024515754,"123":0.028129930223232288,"124":0.13477092158390905,"125":-0.02158988376516297,"126":0.02616655624977759,"127":-0.026793809686685363,"128":0.04964989664124117,"129":-0.04589942158274219,"130":0.06276764053831713,"131":-0.12622440644252522,"132":0.008098686742961412,"133":0.01700939034477618,"134":-0.054699359033721605,"135":-0.02574451217601597,"136":0.031156697665355223,"137":0.00904505168439871,"138":0.01195342798946239,"139":-0.08458459029962143,"140":0.0873717278985744,"141":-0.07470829830339015,"142":-0.11026899865142414,"143":-0.09844285795412519,"144":0.07148490792049629,"145":-0.04170179489542625,"146":-0.0057575256287678706,"147":-0.08554799451019496,"148":-0.030334464069901056,"149":-0.0826604630625641,"150":0.0704375540965387,"151":-0.0845736890700984,"152":-0.04298674304706305,"153":-0.005938176172658426,"154":-0.10157258870632734,"155":0.08943612972684703,"156":-0.03805850644245573,"157":0.11258696752374023,"158":0.04758097400931799,"159":-0.05929201236698923,"160":-0.04951616746864081,"161":0.06065054364665608,"162":-0.12249965060776043,"163":-0.031104782534100966,"164":-0.010028495518989431,"165":0.0006704222293650458,"166":-0.06702164885338313,"167":-0.0962668079249703,"168":-0.005747142281151821,"169":-0.003462127809088934,"170":0.0061355007783233375,"171":-0.0604204043941928,"172":0.00033124058700978513,"173":-0.050697671388080665,"174":-0.03969653933545481,"175":0.08374050835647762,"176":-0.0787058644531555,"177":0.042192197445670696,"178":0.01663655606040197,"179":-0.02234874714968751,"180":-0.05518548702804491,"181":0.014291888358660635,"182":-0.07051142451806253,"183":0.05462785718002478,"184":-0.09775646432632025,"185":-0.08103082516244303,"186":-0.04688076379043029,"187":-0.09100788782712134,"188":-0.026721444453729946,"189":-0.07551631018441021,"190":0.05121000920017948,"191":-0.09900612666167596,"192":-0.04410244094756572,"193":-0.017281813627970145,"194":-0.1732721806256901,"195":-0.003603004773234838,"196":-0.024551936815675766,"197":0.06803588683475126,"198":-0.1531360328748568,"199":-0.0466975740428213,"200":-0.015271153542553075,"201":-0.05608826595653867,"202":-0.04008097040493708,"203":-0.044188508728564946,"204":-0.026436542989074267,"205":0.02613000191631616,"206":0.05583095278562702,"207":0.052217156960788165,"208":0.040978807848593576,"209":-0.007959008923947951,"210":-0.03470817171422824,"211":-0.02521410125683955,"212":0.08344057577667763,"213":-0.024926307470442572,"214":-0.06865904314600513,"215":-0.03146173879672711,"216":0.005509186144930665,"217":0.042173151262554505,"218":-0.03473542628070288,"219":0.03522902997326741,"220":-0.0022803508611519024,"221":-0.112727844492405,"222":0.0831962353777891,"223":-0.0016995509470224249,"224":0.02063971407287625,"225":-0.07415693293932912,"226":0.0275532326304219,"227":-0.07561277984533099,"228":0.11401259403972547,"229":-0.03399189614181672,"230":0.17746056393882265,"231":-0.08682543239892666,"232":0.07743635683512211,"233":0.05602525022186863,"234":-0.11640386336427926,"235":0.0632000672190136,"236":0.08892739424322785,"237":0.04135218813973146,"238":0.017382230507481417,"239":-0.03625098983543717,"240":-0.07849070084334206,"241":0.02828197974042426,"242":0.0885444415553453,"243":0.09155914232564549,"244":-0.0678965148833079,"245":-0.06941251212480307,